{"sizes": [784, 30, 20, 10], "weights": [[[-0.038257783302596035, -0.03129391592676357, -0.011597160514000462, -0.04034218888731235, -0.07015935853177072, -0.057643676975664006, -0.023538394620763632, -0.0020730105620227366, -0.021270286050587322, -0.02069981017464627, 0.04780006913746169, -0.05118103286265893, 0.013312753701792307, 0.04907058556203561, -0.022506042412539253, -0.02317150807786783, 0.04135910501337544, -0.034742100581363046, -0.05203444293116916, -0.02825731934714856, 0.030009080949885098, 0.02113175146160741, 0.011735908852242663, -0.038891267282407695, -0.011381649932901756, -0.040156484084414204, -0.008840472204330506, -0.0061372189479607046, 0.05878537752769103, 0.02086972276144718, 0.013961842551897242, -0.004630977452202872, -0.006735505309341434, 0.019141984359709624, 0.0035748832987600727, -0.0314912444990242, -0.019163918565270062, -0.00027377415034360466, 0.02515048058037045, 0.06407775795570714, 0.01497558795373336, 0.007579533089363963, -0.056843399200657, -0.03961241395789935, 0.051217143997829374, 0.023212941326099173, -0.0186422565006072, 0.0025262806617562077, -0.06666972660668807, -0.04961436663880952, 0.05811555033495288, -0.01087823829406457, 0.00960781658533514, 0.002234220945556411, -0.030897037654239557, 0.024942048025453224, 0.008854287814595147, -0.02671912385997491, -0.03013559008435253, -0.022671385910184583, -0.0028190021081483463, 0.06030780280478332, -0.000982295549399916, 0.029202625944713203, -0.01760494832200571, -0.013661553829203097, 0.021006785107448588, 0.04888493072121241, 0.020963566971302014, -0.03197719542629393, 0.0734580512886663, 0.032740096067997965, 0.07755362374476377, -0.0016432435591096706, 0.015198137529713074, 0.07080245061031715, 0.008603411203204242, 0.04075541821925841, -0.0030482102686254452, 0.009211002495147239, 0.0034286811735169584, -0.04308566624257901, 0.06068179397267685, 0.03899239016548857, -0.03716059809614595, -0.04259435531545838, -0.03575785984926311, -0.018641154914065067, 0.013943984306945783, -0.015174122901501157, -0.016714841106132763, 0.0409690462938809, 0.027479202948416947, 0.05559665198164925, -0.0370895569865354, -0.01914071205933601, -0.05300068567474362, 0.04522098835026958, 0.008531464757803864, 0.07629358343224414, 0.04388099375850259, 0.10255293685929256, 0.12192240969583211, 0.1455878792246411, 0.07199397200820572, 0.030493519746248136, 0.05531222646489593, 0.009594111929505605, 0.05129625661343887, 0.02016714115815073, 0.11368525052951799, -0.025340730306636666, -0.025326407982700545, 0.02240354295760745, 0.016816415830599313, 0.045474428987339714, 0.02025114187955113, 0.014379020337712713, 0.056299493435041634, 0.012223260193995392, 0.021952194601821403, -0.001590993540565117, -0.0052084187139602445, 0.0036643273231419735, 0.022710812351152777, 0.010880845363070695, -0.03310013805925181, -0.03453539009623544, 0.0700350049862626, 0.05925861935452288, 0.04707143046490714, 0.04070893854318357, 0.08022317881224267, 0.01856639845164723, 0.007749330481397343, 0.044590870879229895, 0.04939662333245912, 0.014003116585461939, 0.020662857789565742, 0.07046709394911438, 0.02585475324393862, 0.12021093498205748, 0.06796984125861544, 0.0065410628508904695, -0.00934102109371338, 0.012808596055692921, -0.019469424785643244, 0.02508317802329842, 0.07089172971734797, 0.018263019506101458, -0.00896597548992652, -0.0609046587675817, -0.020587068824914723, -0.07215021461880348, -0.1056840897467248, -0.11689064566236158, -0.033043148351374695, 0.004636299437095226, -0.02018193710391835, 0.01682380582121194, 0.0097227276710322, 0.04647446680787203, -0.054404614385070646, 0.008787382936063164, -0.02573886472560385, 0.008306571143388258, -0.07262178791780377, 0.02024973835857394, 0.028769290607275014, 0.05791129496567578, 0.015620447701480552, -0.029142345071085398, 0.01447001520418203, -0.024054695366812304, 0.05905450121925973, -0.014654556134730323, -0.0484907408971373, -0.05295978187314748, -0.033488001398156046, -0.05626962843929865, -0.09515784468970424, -0.09911138176855146, -0.03464087435465643, -0.00026150728210456065, -0.008282897996188112, -0.06561339766017729, -0.02560626649151242, -0.06252994158807411, -0.12003413409615808, -0.018527273231572515, 0.0036023007322269498, 0.005685716110470677, -0.029249554096069122, 0.02532425040932979, -0.014628865965212918, -0.027072048209013006, 0.04708767907647296, -0.05379475781261672, 0.02041547013638988, 0.004523275664595778, -0.04872584527467606, -0.023184031498236564, 0.017920949655443878, -0.018899705874086334, 0.02770751354892827, -0.020619451934157252, -0.07260686765671669, -0.03940900470104815, -0.08235297169587844, -0.11405036011648106, -0.05370864024440842, -0.08119506307269043, -0.11476828224543058, -0.10180141918066503, -0.12816160330267595, -0.09195592229806926, -0.08641336698905076, -0.09580786420630298, -0.0907272884268419, -0.10163564513268047, -0.054346883280387684, -0.02939286258200901, 0.023473659033031398, 0.02697621599186939, -0.07906545096552066, -0.051823944857771996, 0.05753704617305217, 0.014753757934433728, 0.03935856019231953, -0.06380491298884126, -0.06473288475566989, -0.029538700531472065, -0.05263671605300354, -0.0014833332235068021, 0.013992574644058437, -0.02408689839431228, -0.048148250945860095, -0.06770775579726626, -0.010345924842323622, -0.1302413937829178, -0.1809942823165232, -0.11931954458076512, -0.08235380050004996, -0.13889379553395875, -0.09229994570256946, -0.13663323659409005, -0.06656669461012493, -0.14941267031025407, -0.11269644740906391, -0.034969142237889925, -0.05777051310253157, 0.031245564045414533, -0.008286360811313785, -0.018401729987660882, -0.06558821200114288, 0.010012345793927107, 0.005772076038457184, -0.091702257673722, -0.055517672658461706, -0.007698605544905296, -0.02602629316284145, -0.0547529888266023, -0.07546719677355482, -0.011843816840577984, -0.11067177639402596, -0.09742355138374546, -0.10317272161133016, -0.19879101314403072, -0.07126789061134786, -0.15854953771302563, -0.14424022839593392, -0.14983695268321892, -0.10133229638263291, -0.10196796794458152, -0.17574896416740265, -0.124332366988681, -0.04449400158324502, 0.02044459387475006, -0.06553564702362062, 0.008513184932624441, -0.045626636872770014, -0.054873694183026456, -0.0004006933381124958, 0.019584260934965174, 0.0015146501540894235, -0.012024180163233747, -0.0019676083679878945, -0.09610937466937487, 0.006335228105240572, -0.020165294354145796, -0.0200717021032882, -0.04292492943038755, -0.02629878263111449, -0.08729127467218085, -0.1567873216772787, -0.17629038790825133, -0.14468848710617171, -0.040481552013483045, -0.1058310096305648, -0.09696084837601278, -0.13453363952631775, -0.08907591004761475, -0.08683151657653874, -0.04715215824463302, -0.06240543546081449, -0.06537883487706932, 0.02568650054845084, 0.039710723014292126, 0.07808039611191928, 0.00431111596575217, -0.016700037167894758, -0.04519902177597299, -0.004273412381243449, 0.02575048164116326, 0.021855000489657238, 0.04033913215739552, -0.01379579863540282, -0.010983421442915295, -0.03757983124400078, 0.011291089725463097, -0.060750769623300206, -0.12216998545000078, -0.15425895055992533, -0.13054421573629701, 0.0028598667489895834, 0.012556200998861802, -0.03176245491369497, -0.022897875567546418, -0.0641938005084765, -0.05801105051947489, -0.03667099646081627, -0.11616180993336256, -0.05991909155980396, 0.03215153311189464, 0.004415468533514734, -0.050637644658282285, 0.022370357173813755, 0.06010655649483737, -0.032614289525868624, 0.012354092764691701, 0.02784156054389837, 0.05750956330660783, 0.04009058829401774, 0.013928603898631329, 0.03945501870816936, -0.05133986321183387, -0.03577898095079658, 0.025147194168946434, -0.033004350480084106, -0.09699393931820527, -0.14556495309543088, -0.008486142934029835, 0.09671833792544693, 0.0978963177111923, 0.041764411694260886, 0.06167754208458924, 0.043270049463350904, 0.02909288724134062, -0.06812519571762421, -0.06032318332303476, -0.10086474122179256, -0.034148153860013374, 0.031802191602951856, -0.0032173762832399524, 0.010874023239323695, 0.0058782501523850774, 0.07027949303429833, 0.0007712277734890888, 0.03734957004934493, -0.016793229616428564, -0.04031615176110619, 0.03487952695803971, -0.0028347242833316006, -0.018187088118779168, 0.036677718237213254, 0.010563794707724089, -0.0033986844999536452, -0.0702777063602651, -0.040315984871745744, -0.002773453876348482, 0.1266013575515041, 0.11238046561237428, 0.13695370200623233, 0.07505795451202893, 0.08006394512685329, 0.06890863211952604, 0.029728286709667047, -0.006711133381453662, 0.004889511532139976, 0.04269533158531526, -0.027282271297155287, -0.04058618363437072, -0.05253906691612439, 0.017895040397595048, -0.062274770076011184, -0.004772637638261533, -0.026439240252814307, 0.03594950216315073, 0.13658585124884906, 0.04924388836653272, 0.027317124175371972, 0.01079309886412296, 0.0911866461947323, 0.0351912811206861, 0.06785424507120168, -0.04185141794647315, -0.06333351202279194, 0.11074181205398656, 0.16231478293462448, 0.18662191332496114, 0.06767695225183967, 0.07874999609522114, 0.01584304172813343, 0.025286180552661075, 0.009809606735128892, 0.0019463507002678423, 0.005935317810992514, 0.007917788104067094, 0.028077825498155684, -0.039712067787140266, -0.011730011729993026, 0.031964754947940766, -0.058492724372365974, 0.04899784317891105, -0.027619122740028323, 0.03795840387111786, 0.07356540046358999, 0.008694326451435277, 0.08145567865201549, 0.04261482080371901, 0.05428637367132748, 0.05173908954708108, 0.03542331081400973, 0.00029247503029797745, 0.05991676383239378, 0.14662050233831575, 0.21022706743070288, 0.133253560787643, 0.0821009731797965, -0.018086950099915972, 0.049481129949215844, 0.038621540787027626, 0.032702441967684216, -0.04398034780953145, 0.0420649114275565, 0.03518009200554131, -0.021998427561736266, -0.009824811874548168, 0.013642711299212842, 0.005012417756473945, -0.0057033094980499304, -0.02531193492022819, -0.05743054971660205, 0.037090451105139165, 0.018589589188609056, 0.08216498739697035, 0.10527970783593865, 0.1409228436338966, 0.1730010144320514, 0.17149579191634065, 0.032100117873034406, 0.06930956579390438, 0.06273151112370959, 0.17581896083883436, 0.11783418617961826, 0.09202145874193128, 0.0682040412884907, 0.014323651920319008, -0.023527763130176564, 0.03447907628932391, 0.01882344011750708, -0.03543304454060518, -0.011227415015800483, 0.08365460070827807, -0.030354638784957144, 0.10488811802923434, 0.03508402431512306, 0.037839869505290086, 0.027595313148272734, 0.02525816502352864, 0.063127714420405, 0.011921808316386277, 0.003247513566956871, 0.08321688662446648, 0.11266411002133052, 0.11729688355458193, 0.1723426905845058, 0.11177554591816395, 0.13264364150640193, 0.06988437748689741, 0.16286670957362712, 0.1312955842091743, 0.12453074548317145, 0.025151881204425543, -0.026792486972672315, 0.0026259086113002397, -0.020722031345460686, 0.059103182515152716, -0.03380490215455768, -0.018070330154328004, -0.021247765635792944, 0.09670489489271814, -0.0005916511884424785, 0.013940354829230254, -0.04463073999916952, -0.008037860422269337, 0.029416551378553167, -0.028218935408115244, -0.03485955487936788, -0.1008629145898606, -0.05784725545483207, 0.02700653139957622, 0.034299004183998026, 0.05899176913892631, 0.07306827550117488, 0.1409560329632049, 0.11073136021855605, 0.03124820452368193, 0.06659032995681965, 0.09678333260226119, 0.04383119304088889, -0.02381867097725552, -0.0001818812759291446, 0.05275036850806232, 0.07910966101806421, -0.025606024770221045, -0.033555150749192214, 0.06654058648401208, -0.010944028679857892, 0.01984744472452789, 0.009864708417543819, 0.02905418060515819, 0.00816467016650215, 0.012587558686058, -0.06487121942960224, -0.07681153630042627, -0.041643820806828304, -0.06281319232922132, -0.06391299283874817, -0.03734651474356461, -0.0535738253472014, -0.02457430184748427, 0.02873560232374808, 0.001263016633365119, 0.0657020912693488, 0.06968972170183878, 0.0052160407973404314, 0.027008636810485005, -0.000172110629418886, 0.023353335234784393, -0.016613685894288806, 0.037625648633927374, -0.05257483659751884, 0.02313730656311632, 0.0017102679240502388, -0.012199877752705823, 0.003234780231967186, 0.036163897957706664, -0.03031187619664029, -0.011815154497696136, -0.03404043899361306, 0.017090126153823784, -0.06295141524105817, 0.056498407880813985, -0.061490886812767175, -0.01553658616024259, -0.03387134654595857, -0.15463669989483952, -0.11519381793373806, -0.08835827597211776, 0.009818414871141105, -0.037637492275687516, -0.0033365355304498722, 0.010442779826448619, 0.07160072677214319, 0.0853197424553144, 0.04588502730093514, 0.007503915974901833, 0.013551466777731757, 0.002296469712309899, -0.05267016586623175, -0.025859715738222648, -0.015073104077058185, 0.02839284529832205, 0.02341036898478957, 0.012275640938393097, -0.004058570901234225, 0.05059518151479481, -0.020165455476549663, -0.004263200613716284, -0.03691230417861998, 0.011510861307533858, -0.003403037076183702, -0.07794899879493362, -0.10806296129049119, -0.04761730062068596, -0.07994965389715547, -0.12361707080006949, -0.049799291030877976, -0.05154952354592454, -0.002716584921333973, 0.04748143990097638, 0.009562046419831298, 0.005425572935908343, -0.042978074266465084, -0.08196618021085218, -0.06567594911224821, -0.056355463078743166, -0.030960219704518756, -0.05455147166773774, -0.039106927398956264, -0.07827436044451312, -0.02698429276770511, 0.00655722459545972, -0.002592872153376869, 0.02685320819748191, -0.013019098889790177, 0.026525766813353144, 0.008321376679040824, 0.043922060758075365, -0.024170947442367884, -0.058083137609900644, -0.13496772368077523, -0.044974751474280567, -0.09145216781730733, -0.12107349198117336, -0.16013469392510735, -0.14818969896416484, -0.15637028332277042, -0.10928843122978721, -0.2327113369759637, -0.19757669598975125, -0.0941441970498201, -0.06650310303079851, -0.06692285081372966, -0.047474880318837426, -0.01401691053907668, -0.04760707968955482, 0.053008674296271784, 0.015666820066480028, -0.03006616529001598, 0.023727834959139202, -0.009047429298073523, 0.006097100933428034, 0.052721031643963384, -0.014567156228777214, 0.035462960477563574, -0.010551599979572177, 0.0009524070451046985, -0.043782023595465375, -0.026157156744779315, 0.005215617156751031, -0.1323550956967294, -0.1358389941138727, -0.14176742692208325, -0.22151275664034903, -0.24975733816412543, -0.22166524757884545, -0.23287638476721914, -0.1734739770571254, -0.16010524012052857, -0.08837085811040196, 0.0007913301509307878, 0.04201216445640604, 0.01929478036813687, 0.050428843296488016, 0.02289423424343576, 0.043518083658667675, 0.02560025557475895, -0.06070668440500057, -0.0006942303647272903, -0.007774367095538605, 0.04493455202816332, 0.0006683534386382951, -0.01291868439366141, 0.023721610445896598, -0.014776715097291653, -0.020040234191065064, 0.01027160247633915, -0.007473211046660095, -0.02417561915450784, 0.004370918445150792, -0.051093507040909786, -0.16220047484546493, -0.0877460271684897, -0.09184738783417794, -0.12496536750368581, -0.030931911980660476, -0.04733158209469673, -0.0014541900400814633, 0.08766691191736423, 0.030403813450065178, -0.004033090417668513, -0.004607555301913287, 0.01288138841370686, 0.0032397292971691927, -0.034308178395198015, -0.06160307534038081, 0.04923435691352788, -0.02929978796214838, 0.03746603898520446, 0.04966093835467156, -0.02008198390255027, 0.03837530424505319, 0.002171671619368367, -0.003170663878614022, 0.009274574952377896, 0.004702019979051225, -0.012961521195625096, 0.01870324101622303, 0.02796375523990516, 0.027489469122258907, -0.0335845779941788, 0.0028748008960265263, -0.021465709710957785, 0.01852738680649332, 0.01136925592827122, -0.030804894875368524, 0.09199446998516159, 0.032541111321824835, -0.004691418229617654, -0.012119404925217016, 0.04593562425321388, -0.010363574042006343, 0.02646257335010547, -0.02350608476180432, -0.027854460690117364, -0.029687013575012536, 0.019090881787820032, -0.012838683841792592, -0.0037455181755770926, 0.05282353422148105, 0.07301085381723198, 0.007441647902553113, -0.059679761267653175, -0.0012859039823109285, 0.015175963374443342, -0.016004401932934523, -0.0007880522773957258, 0.006552957984462004, 0.015597646570444193, -0.07771059821801474, 0.027319327070461318, -0.0474897825767401, -0.018327351101025947, -0.020465749673336527, -0.03593051260395041, 0.007571913619048037, 0.006883402527560626, 0.03653621105224944, -0.02210781944179631, 0.0021636800099816386, 0.018721812171126128, -0.05593060014990898, 0.007105706718495809, -0.01800902561501667, -0.04272331558438874, 0.006598514937916392, -0.051494365630309305, 0.023592864534531476, -0.003062370204170368, -0.014124362438628867, 0.02480426891865348, -0.05442000139173214, 0.07148018912544826, 0.011695259635884844, -0.05935140385815459, -0.012486344918427287, 0.025268054722863784, -0.09758636660317689, 0.04713414715879644, -0.0013214372595214997, 0.03239451884815236, 0.017317475635900505, -0.004796621059356112, -0.01078190516434631, 0.01130030832722824, -0.03393268526377232, 0.01576480202186459, -0.03022552416668103, -0.022088511205460723, 0.0005293053460132468, 0.02565243176061118, 0.03322287507205792], [0.014725338582858297, 0.08609585555118923, 0.05124231230259496, 0.006206390045832469, -0.0089111591041427, -0.02025655253800854, 0.07395205672437224, 0.004718260091411632, 0.014283852090892188, -0.01569018766533173, 0.03204347998131146, 0.03741731273608177, -0.021579850494581, 0.001845696799843338, -0.025848939411929134, -0.03669711940861188, -0.047217642938535705, 0.028698160881596987, 0.027819976184272264, 0.00842739865069409, 0.0453891251546294, -0.006621784442933752, 0.0012619729771854125, 0.009372878842407817, -0.03691574023185407, -0.008143438530424785, -0.006675051069997919, -0.03108539861848509, 0.02391110056832495, 0.053948820816838695, 0.02211770713795689, 0.034760666999036696, 0.015367765656034319, 0.01535648173988137, -0.02683997541627192, -0.03579933680777292, -0.034361287138189305, 0.03953281061852903, -0.004473988174190171, -0.03216280825593435, -0.022214528712855477, 0.029875830909541795, -0.04111124458191415, -0.012456637824658851, 0.007571100961273902, 0.001317213083793885, -0.016668353646058908, 0.03739473267653597, 0.029467143446711214, 0.015583013462903614, -0.03994602320680256, 0.04284860235008696, 0.016924462824326306, -0.042589543914118615, 0.003423908349937002, 0.02322463537043032, 0.0042848722274298505, 0.040847510717460844, 0.033620901150518405, 0.058221007038356254, 0.027197309713664766, -0.015571524615437636, -0.006619582740393922, -0.0014401609578821423, 0.03844286630898163, 0.03043537645277029, 0.004324449291929739, 0.020965939515024252, 0.015985558158556845, -0.02019835598544712, -0.015743780651520954, 0.043133576391154047, 0.011805880031272717, -0.023934299726061137, 0.033365014107168696, 0.04548769747792881, -0.03035233353478861, -0.010304169516804013, 0.006874363439604756, 0.021917071885273674, -0.05281045507659929, 0.035980425932707734, -0.05586735596123806, 0.02583810106671076, 0.02853490659508299, -0.036869751315654585, 0.02506735623993016, 0.021404137662959347, -0.03756642719560725, 0.0608325836556103, -0.07561386289475801, 0.025220172508931087, 0.0023098582800235227, 0.011378980723886642, 0.04150082898843114, -0.01818361856436438, 0.015680682057344054, -0.010245688725167835, -0.05046862633130003, -0.01766068577574341, 0.03146916305021254, 0.009553290049643538, 0.08254705452115972, -0.0017090265801857026, 0.027197847752069085, 0.05575935295037037, 0.015142198331605114, 0.004116259174195525, -0.044705005705790765, -0.042711802795074874, -0.0004438003791571102, -0.029594092013422675, -0.060383343596311985, -0.03539249615166418, -0.0009073061167004037, 0.028272933515093635, -0.007130314348621513, -0.041083983637904095, 0.001366891456196138, 0.023089270311073953, 0.006978597949650563, -0.055518458328966395, 0.05818534260772781, 0.013607691263797109, -0.10401463981956308, -0.04063638746615853, -0.05501161930936482, 0.040357768306955755, 0.033017105863271876, 0.06161354643276118, 0.025249235105500017, 0.049113391613816115, -0.016142175514675117, 0.047253959861113866, 0.06477134848293402, 0.0005216069497059981, -0.01117359290023364, -0.01286528123815498, -0.028097176464646413, -0.02392673395359225, -0.0002863768174718812, 0.0811453329008977, 0.018930644320002507, 0.06094648668936569, -0.022056632828902103, -0.10684735713325642, -0.010713425192560863, -0.07333822445030609, -0.0492779291257437, -0.047635129775195725, -0.05806071558631073, -0.11565038937759516, -0.06884855000623867, -0.08055157845415711, -0.058563531867851064, -0.007749909022375426, 0.07152595774166884, 0.01872367145127767, 0.04775804009522624, 0.04845768000310743, -0.041077269816724944, 0.031188376317124396, -0.025607186564003445, 0.00039458778038421467, -0.023697727654623087, 0.010875262837765812, -0.012670135451224172, 0.06098318081969117, -0.013726223593327496, -0.055432823665010594, -0.009384852605143991, -0.04017087333992053, -0.01924018047212325, -0.07256834820379962, 0.008147049300903073, -0.0015212740877284744, -0.0581223270612597, -0.016284818776201603, -0.04597497536698106, -0.009460840614876526, -0.053309704262986896, -0.06725400131477828, -0.1186082667427909, -0.1256947759216386, -0.11626575858423582, -0.08962796368782659, -0.045693527046051126, -0.042470353219454145, -0.04242898247932088, -0.05448222312298034, -0.031220931913644515, -0.022638453032149192, -0.046828926983728925, 0.017206004039001823, 0.0037310629974276377, -0.0691099182259901, -0.012258161758052962, -0.0299910854571908, -0.048703350623836454, 0.0398697171599158, 0.015771805461536417, -0.07867426996365381, -0.016584115172573233, -0.04191853003164526, 0.018457497659514065, 0.006804818239968678, -0.033563270426363756, -0.01444172386631878, -0.013176577651641277, -0.08613127284781856, -0.0790604851579881, -0.10748597980685198, -0.08956050849947399, -0.0007415086962296695, -0.05930977460971208, -0.021143370491192415, -0.061118206301885074, -0.012364528449461617, 0.03953778123203604, -0.061852094273238456, -0.15971541854681703, -0.07430463850666927, 0.001402451056172837, -0.016433015204584848, -0.0304603343821969, -0.017734113770775932, -0.000895918284302521, 0.006857597173840948, -0.03934795825695672, 0.018294537374985386, -0.0033866790623947925, 0.05159847653185086, 0.03907327761042076, 0.12689889606208174, 0.03637356654473751, 0.005052706681723904, 0.007439837428353769, -0.048676165701451085, 0.008878446860581375, -0.022116798688436908, -0.016822900547454164, -0.017795561571701955, -0.015175095971785315, -0.06057202236693994, -0.01711874679241633, -0.05360170539551873, -0.06850623395780867, -0.10921302428351527, -0.08589622931807421, -0.020611411938924636, -0.041265692437380375, 0.002485232943090845, 0.026222847770859866, -0.05932112629462491, -0.010582694917213448, -0.03310065810869129, 0.04589828102946431, -0.0004763311815701443, 0.0426573784614175, 0.053919621417199616, 0.052848302109905244, 0.0758720598268234, 0.04873445087572888, -0.057995269487764345, 0.019405097720976247, 0.032125608444155816, 0.07542240980307204, 0.011114073277418219, -0.011296182913893288, 0.045335327655165354, -0.0028661512434620196, -0.04783849003982337, -0.01914819121440928, -0.04360043430616084, -0.09593870523609209, -0.09969530366706718, -0.0853108412055893, -0.03640267317525704, -0.04671290409012755, -0.03307141629131827, -0.04441019850289221, -0.019083706760924073, 0.05468226838129464, -0.007458801930498281, 0.015836866745896558, -0.020374867314003273, 0.0775652535857931, 0.013396017123745163, -0.003954117239051157, 0.05310803557564431, 0.013964749654071407, -0.002297723659422197, 0.10438959713508879, -0.017342494288495543, 0.004897812947621254, -0.06969188915509257, -0.05995981791535341, 0.10442330865747929, 0.08102483740029526, 0.03008795949229875, -0.02349834160697905, 0.011842250617818528, 0.01584778603227604, -0.03164092901592214, -0.0771863401197695, 0.01595892348393444, 0.017277320348107274, -0.02842454400079159, 0.009765513508990247, 0.02225545820002372, 0.02465974061101369, 0.043690795131867494, -0.027116947939358853, -0.022707986626552018, 0.00493363476717667, 0.02067868398963216, 0.02169236507229572, 0.005078629085468844, 0.010948965775676217, 0.02756606020504314, 0.03991619359299631, -0.1275596488483079, -0.1329713786470351, -0.1643777996152168, -0.03983390279625207, 0.006108359312758817, 0.0471500537451335, 0.02453048810894052, 0.06403470913925612, 0.10899514499439555, 0.07435424938696936, 0.07664658168459465, -0.055440362989163376, -0.0027774902857937585, -0.09116672851435742, 0.02525819159242809, -0.03143379945772839, 0.018540014316001694, 0.03936778116831746, 0.02008536756685288, -0.014542306452213277, 0.06971407564398777, 0.07271706536188251, 0.04790823226607299, 0.001249882905682776, -0.005016314216820902, -0.034734813644179484, 0.009516159903174727, -0.07303805362576524, -0.16143822585923398, -0.28525232017310503, -0.1630238505915095, -0.028966160950749265, 0.00805433090226771, -0.02225532353029407, 0.04552678675344774, 0.03921080338878667, 0.08318599938466195, 0.09237180162675315, 0.13315048895250217, -0.0015030398565105824, -0.012047034836333334, 0.010568315394510266, -0.0607530693669155, 0.012967223227452564, -0.04046069194535847, -0.06337533095840725, 0.05368154853463098, 0.013726467162180806, 0.08835481942454042, 0.03612964405204672, 0.07128959309915987, -0.011515165853832738, -0.0766691867703815, 0.044173038763572585, -0.08735474682141117, -0.21379188830780943, -0.24066307366514564, -0.3125077440117953, -0.15881545735315594, -0.10725167825943283, -0.026583568396005765, -0.01370392411571351, -0.018538876865738168, 0.12164458137097126, 0.08957442190054762, 0.0815803970428049, 0.055465028463682294, 0.021857902680580733, 0.022461925774909543, -0.016452484867855777, 0.04120283316670582, 0.016727740339061888, 0.0074788482105329485, -0.0015276635989545408, 0.0313482450514681, 0.019691513068685298, -0.03393197821828195, 0.06868048230421572, 0.1196517719649571, 0.027025097926985556, 0.05383002432638684, 0.018029541254009424, -0.12161881487159605, -0.18553899508759358, -0.2545352030514429, -0.2147610886898072, -0.10224903408451042, -0.029994594208365505, 0.02553773229325125, 0.03588662984819629, 0.0880270268257604, 0.12184892170025957, 0.14814574676094922, 0.10958325428813734, 0.1261448328269824, 0.04125859673887188, -0.02706134283340906, -0.05049285273403223, 0.008709339534506805, 0.03219291835985544, -0.009956984467947926, 0.02374380241485235, 0.06031591279330026, 0.022380015517133763, 0.058465865219010135, 0.1426346298068946, 0.1974100058657816, 0.11966048334081517, 0.07142669118213874, 0.06577751552333518, -0.08120337731942084, -0.23890332876319922, -0.24533406728419974, -0.11253446185415998, 0.0062992363240294445, 0.028322803624737245, 0.06176121716858192, 0.05556012124868162, 0.12189610604451104, 0.1321258376231717, 0.13832236186242805, 0.16702461818532183, 0.09565080694772109, -0.02116593087425652, 0.035882351223009354, -0.03402153068198549, 0.01966283566085154, 0.005975978331606515, 0.01076930618585939, 0.042776093281051905, -0.026474242244439464, -0.02087691377529081, 0.061820758091885725, 0.1417360371422409, 0.16896972999686993, 0.13552029470261706, 0.11843985815703602, 0.10001126557307372, -0.05931576073851987, -0.12198673792498713, -0.07072657432440943, -0.045648349289084594, 0.05588566845171916, 0.11852730760790559, 0.08581779945560034, 0.12047364873136177, 0.10016085410033881, 0.16341718559435214, 0.07376107216476878, 0.047272315637936206, 0.06429277066553724, -0.020521167147686974, 0.014825912495566208, 0.06961980939505481, -0.03124089245810665, 0.0018849341307241683, -0.03243795644315825, -0.001505492585733748, 0.004528561756225619, 0.04170136406563968, 0.07553257351031593, -0.034847131242814015, 0.1180684394422519, 0.12892707500051162, 0.12517371252484394, 0.09480614519062626, 0.007751210948508498, -0.04410723606452454, -0.02357982060371105, 0.04966207224886473, 0.012191702393930706, -0.01794370104133278, -0.003457916967796181, 0.017401148919267834, 0.06893433600615245, 0.04284184042504502, 0.04246280184952513, -0.022067519054704655, -0.007290461733677325, 0.01359703202126792, 0.011345745952329754, 0.01257573846118588, 0.017909233953603776, 0.07005135474772202, 0.017587515794543367, 0.006473931016067202, 0.022540546209360655, -0.04537304835298907, -0.012486522970096272, -0.016333363932017814, 0.03631011687761497, 0.06515602867490224, 0.04327779343093277, 0.02494422429252861, 0.010259561078947396, 0.054462373049710924, 0.09473031561496971, 0.07950543245023649, 0.07698234687774984, 0.07607196851953839, 0.0056992900427744264, 0.05277190654603071, -0.020874637668477667, 0.053022471471754144, -0.019886092168058707, -0.03985183007983431, -0.03404832155499042, -0.009840638066502552, -0.05738832879144147, 0.0549400973005814, 0.02020487124501609, 0.03891165252014077, -0.03377223845185404, 0.0529583523041079, -0.03434483922221578, -0.05002724644712177, -0.09366098087779873, -0.024534041463682828, -0.015099224268202432, -0.015472911510220302, 0.030516383695276157, 0.03267008850825105, 0.03818903271893935, 0.040007968020909564, 0.043714279609766184, 0.06611152010775044, 0.011990304568130522, 0.0544828536286123, -0.014732008149264158, 0.02776607657937149, 0.014593481860716266, -0.015691742123734566, -0.06913602518900315, -0.06982017414579376, -0.02645798151913814, -0.048211021416785405, 0.047797464735023304, 0.021447252744503698, 0.025727477096665424, -0.017727811694654927, 0.01846409426519149, -0.033898881653670256, -0.08468152164142666, -0.0018730563902199272, -0.09475131265331857, -0.11017235180519813, -0.19054736386044874, -0.09558652505707706, -0.028825695913959754, -0.016031965968523503, 0.06310344943002474, 0.09087297855237624, 0.06856439186052088, 0.09352676944911983, 0.03495185955981177, 0.0282843021743836, 0.051977542663632796, 0.020210021634145325, -0.011028186100532134, -0.04267834712516753, -0.018265422266059816, 0.033126822988574015, -0.04894340934118554, -0.04063977634771351, 0.04246659619480523, -0.03972067409268187, -0.020444442396670027, -0.007219849024883375, -0.0014783400365531347, 0.010390360737150175, 0.038369195279692445, -0.10769977958024214, -0.10186789720928732, -0.10271015545204684, -0.09496559640785347, -0.10040876962161571, -0.06928099476689314, -0.07809474874698513, 0.051463282580178155, 0.07877191833317582, 0.09722493720213447, 0.01342693119778934, 0.06686842095328524, 0.00490329423708982, -0.08289335242570937, -0.04557978096850771, -0.022029379950961877, -0.045638700032654356, -0.055397751119894666, -0.02562522220303104, -0.03272373989368448, 0.002164355418089647, -0.006464630417182051, -0.05774747302088594, -0.012351230503752517, 0.03784056785922243, -0.02577720732440914, 0.024834631541808778, -0.02108534716959301, -0.06291107200536995, -0.020964802748491388, -0.0971318717860764, -0.07562775534387894, -0.01616193874089505, -0.0006391295937813477, -0.04386615448122864, -0.03860581577924155, -0.03904934387002541, -0.035634806911694315, -0.0022865941915622585, -0.06578561580670164, 0.022935788560469465, -0.07621779519885957, -0.10595122922520574, -0.05609319389942211, 0.013030748482182617, -0.07324653082819037, 0.008136149214249303, 0.016651253455014635, -0.09795857194217722, 0.007716980193104556, -0.07297753507517674, 0.02021836037504816, 0.07932354506421738, -0.0036350633258499156, 0.015106849502158239, -0.027948810344741642, -0.01880216026312289, -0.05929760152185209, -0.0531694258664597, -0.03212700986732899, -0.009452867181776582, -0.07998254278659846, -0.01897133905584595, -0.11550575779966808, 0.009298036979436255, -0.09448535609898029, -0.09614935161269071, -0.04543217964103589, -0.06299658286383436, -0.09382889205064598, -0.09920577329138544, -0.1042241311112616, 0.0036410424618589297, 0.014280231070630508, -0.023906753221074533, -0.05031450267838689, -0.052798699586855076, -0.035091122484275046, 0.01476927382101686, 0.024771205592167483, 0.002021887319718001, -0.008886088403940012, -0.06868295054537303, 0.0040551951994081785, -0.061733145044123146, 0.020052086668647395, 0.032273250345709555, 0.016487631665862357, 0.0016880909927780097, -0.0003114279947521055, -0.025156956226099116, -0.04096851322775668, -0.06941724540726751, -0.1357083133669061, -0.007023015598339645, -0.07221318547110459, -0.019801255022434894, -0.007742657238205568, 0.020236819469651026, -0.011464316925855261, 0.008211232258734859, -0.02985575179468849, -0.0133859106588596, 0.005906948637709612, -0.033674667157140965, -0.03755981986906464, 0.0008803034022170274, -0.0032289161704589925, 0.05416348306819593, 0.06802207433022003, 0.024566463269931303, 0.015255035356138128, -0.016038931370562764, 0.035339886025707146, 0.0461986744552364, 0.04923212598715508, 0.028456920545010596, -0.039524952850589615, 0.05037549867199853, 0.039326813711272675, -0.020251832970994782, 0.0005982321548111629, 0.00693216910284414, 0.011846032123354229, -0.0538132478881784, -0.04118162567918716, -0.017841904759925864, -0.005505234363824548, 0.030649652125045865, 0.0018891664971529974, -0.002292438508886839, 0.014597710078199795, -0.01711517607102779, -0.03132751974325476, -0.01571193367291436, 0.030389548178726324, -0.0721592779490295, -0.03935026286662071, -0.051314529930065564, 0.013906108326388797, 0.03470507945859752, 0.04592544752587044, 0.05514676091406642, 0.027558945712518577, 0.057244059213533656, 0.017176458126034962, 0.033826249963755, 0.03025022953551247, 0.0221717633032468, 0.01708089552074194, 0.04142897179578205, -0.017437974153554706, 0.0636969806599078, 0.04236254422709369, 0.06025370810565735, 0.07021672102883787, -0.045376487013896426, -0.04375784141238068, 0.037455485381953715, -0.035175139521492205, 0.03746400060516498, 0.042532798984077996, -0.016106181278789322, 0.00035479351980208923, -0.007690847041576692, 0.010128147043378874, -0.04690896313500302, 0.04225281041410105, 0.03211515972803901, -0.02431079036439639, -0.01855626319268229, -0.01987432693683669, -0.008063883491606135, 0.03213429243477569, -0.03770560636265746, 0.011711455964960725, 0.006234418793518424, 0.03966032060719962, -0.01544476965584718, 0.01422513093525295, -0.029549895864778002, -0.019766674578399517, 0.03285315563490661, -0.038260273357132224, 0.010706012092814719, 0.05527707737825302, 0.014488185237607854, -0.006726637379109019, -0.02126073947461022, -0.06635105772853127, -0.050268369769032, -0.022261991445062808], [0.03150524065336048, -0.0023690454982190795, 0.0030501683169621924, 0.014872738292461917, -0.0069434750483859465, -0.001702005983557155, 0.0028749797059987136, 0.005394575404254879, 0.0024049612794743917, 0.01592179598513293, -0.03200869661475143, 0.009074834548433249, -0.04713832275829251, 0.006005364769591152, 0.003929334414023666, 0.0027743208332113023, -0.022292489817649447, -0.015596144269997465, -0.03747776293214529, -0.037774293313197566, -0.03322826626014245, 0.01095945097335778, -0.02490143105799782, 0.01739202738922903, 0.02289837442160035, 0.03175404341912004, -0.028132940430321482, -0.053826481724230206, 0.021878892012747852, 0.027993320230591652, 0.013651212177063415, 0.002321024798089089, 0.03397722053627041, -0.026907766110594776, 0.004955603203964531, 0.03256892475239332, 0.059445120874256505, 0.03809930710165284, -0.05091086185277855, -0.029069683005246743, 0.01381270686296859, -0.02473134635154349, -0.06488291568413296, 0.045352197701149906, 0.0017942931256131887, 0.09199730684779395, -0.011361869940221382, 0.0039005258955688957, -0.03918482260220312, -0.004677355758096562, 0.010263187091653888, 0.07017379406805764, 0.0507100269172336, -0.01491367532276888, 0.02338648233912728, 0.05127869014111477, 0.06846700933229456, -0.05196816717087575, 0.061420732992497916, -0.029539735769580876, -0.016078119797985423, -0.048384351818392894, -0.014949528975700791, 0.02738066152620606, -0.014780388439282794, 0.006686727191953264, -0.035269346145247404, 0.07555887662600574, -0.029204650770428508, 0.03830329798462747, 0.042920736619598394, 0.022003930436837266, 0.013561327584089235, 0.0456096626903769, -0.007362235350891828, 0.01808258923854427, -0.06560235542154914, 0.06489116524865532, -0.010036265995346396, 0.010620828694703661, 0.017947784022659154, 0.017575537101342152, -0.0031883531724182412, -5.256905459130898e-05, 0.08586670215045049, 0.006595917817088622, 0.053393992975991296, -0.018033820103257305, 0.006477478616188741, 0.04211931581067652, -0.04428837645139172, 0.07933057253285461, 0.03278098047704053, 0.0334724688634007, 0.04609514191445085, 0.015591809991594588, 0.002712870961424059, 0.08314880644247107, 0.08908829292337744, 0.07440205226914089, 0.07965793903249052, 0.08497100072971685, 0.057551595121566046, -0.014935823102437809, 0.001277037424218912, -0.05076017744082322, -0.0182925971255635, -0.019400946247362678, 0.00883771149629459, 0.04140802060222312, 0.024026943332357522, 0.0025426603433683103, -0.0004603816322339631, -0.06170648462979368, -0.017930906463317298, -0.006810206795372082, -0.03402767396346026, 0.026132186466483943, -0.008998742422373638, -0.011726882525345182, 0.01314089803129728, 0.061720773549610225, 0.056340738076315414, 0.0850898447418016, 0.10745350343153738, 0.1510337063861746, 0.1269160444833859, 0.1195641675253959, 0.08839619097318259, 0.11347299765236188, -0.008083263640525534, 0.06092031937459088, 0.013091769155728546, -0.03782349946688759, 0.06033975161545914, 0.012205140387342368, -0.023504904422338102, -0.006131433082527076, -0.01007664274522998, -0.0014351853928769522, 0.05783368846381598, 0.016862212446883674, -0.029904010691266938, 0.027185777796414755, -0.03182838177053868, -0.014051770733772255, -0.007153889443911261, 0.08504045200537827, -0.0016127588415506197, 0.08924038708104297, 0.030624677648094713, 0.0501687744349149, 0.1514328409176346, 0.18517407849218498, 0.16631868462131763, 0.2155901452742297, 0.13689655791956423, 0.10390238062580803, 0.09592825858638196, 0.04059108691657248, 0.0916117070197025, 0.006059412882786766, -0.08411493707560315, -0.11523517607650274, -0.016221220278604096, 0.018481915354394623, 0.027510252492625085, -0.06974578933967666, 0.04603580316487224, 0.01591382612182251, 0.0648089039518829, 0.07441838597108077, -0.00999216852058267, 0.03162182983440249, 0.05695154576175353, 0.021948673540459505, 0.07504056197880188, 0.11769717869392944, 0.009085083809146004, 0.06606157013833214, 0.08656340860140954, 0.12388891331442747, 0.12222748817085718, 0.07255519423133754, 0.042191562821104776, 0.05003401266080301, 0.015527891921118172, -0.020944354361239, 0.009244826528770624, -0.05319510267992275, -0.08723821829483085, -0.032436607991167724, -0.02443978718649526, -0.017934040347289473, 0.020691868776940323, 0.0012950445254568638, 0.04494934904133498, 0.04817677534393398, 0.052519409321682115, -0.005754850113705664, -0.025388762341415932, 0.02058354920876441, 0.016821757035266786, 0.052480084237422335, -0.040659677020731984, -0.05038847420091433, -0.006688368457142455, -0.026956481342400303, -0.12696303471551776, -0.04844210202790584, -0.06486413529723001, -0.1257432109947834, -0.06084434747682598, -0.1025131642174446, -0.0384605605181335, -0.01787711538736248, -0.08637510647392505, 0.005344918947787756, -0.06909944173624637, -0.10166415534659037, -0.0699562071846226, 0.05261973671870575, 0.026740401071026088, 0.0669869246012873, 0.032573110059547265, 0.02271790231798475, 0.055539049141868135, -0.016522194451808265, 0.010161232208771041, -0.010324969794634653, 0.0165622881111094, -0.024946510519349218, -0.07209705646663214, -0.03304630930962505, -0.08862284292168962, -0.09054197569144663, -0.09606024413705794, -0.13913569643301252, -0.02685245612180036, -0.08376861075596993, -0.04735738996857004, -0.08580072493574709, -0.06499004545516722, -0.09374045127348404, -0.02722493949412009, -0.05963814241555196, -0.09305110111282736, -0.014039547492024662, 0.011835387430154914, 0.01625885505964238, 0.013219148254648223, -0.004291727947620315, -0.052226727501105616, -0.05688394380580112, -0.02920789060310342, -0.008785931259054486, -0.06160480820984352, -0.04460131859406813, -0.007911096611536989, -0.08211272427227685, -0.10180859799344097, -0.07333547489217852, -0.07690364429886871, -0.10974616955758203, -0.128890670787005, -0.06210496262202261, 0.0003140436989348957, -0.0019515513129362558, -0.1320379307268498, -0.16713861159441462, -0.12431774020144926, -0.09251777490812539, -0.11471960188369282, -0.023256739530073945, 0.07371621322013962, 0.03704977993227572, 0.010035183614786499, 0.010466897966475952, 0.04750121492151856, -0.0064327305690048105, 0.03815021626642032, 0.024519979311425442, -0.0016800925376392187, -0.03275929567724184, 0.0009936817769411808, -0.04000161573821201, 0.004895515955564133, -0.05355938177801959, -0.13490206484897047, -0.04711495200102354, -0.0892376869519351, -0.18244902511945305, -0.10287827667848141, -0.042276268996891304, 0.08235270827973808, -0.0012444751213344578, -0.06744067949248246, -0.0431532710366964, -0.1503469492721798, -0.044876877327050584, -0.0630813657251274, 0.015226515625860778, 0.009374569313922713, 0.031744636321260816, 0.013658674408124724, -0.04800776579517849, 0.03408970944140737, -0.020416838594525567, 0.05303173731212983, -0.021605161984039955, 0.009386731166157609, -0.058905891551060886, 0.014553062072174248, -0.05641472063005126, -0.05203276390769744, -0.012542720661590644, -0.02910482012688689, -0.04657014803039017, -0.09765680627511758, -0.10856462234128847, -0.05010013397564397, 0.038791830692395515, 0.14375397961719175, 0.045988492700943726, -0.13646674088507887, -0.13024606228768457, -0.15332055284069362, -0.04833863840695468, -0.030557139468304285, -0.0001225584924945435, 0.012347296675334785, 0.0897715230361899, -0.028915395596736965, -0.0422822844721526, 0.02985961599077064, -0.011444008289181537, -0.021014631841116335, -0.06378763038535135, -0.01410850933846504, 0.04042963191048529, -0.013602168204177737, -0.046581417290212694, -0.027543269836276862, -0.06712687584707971, -0.09632668720746138, -0.1601868521862758, -0.09038843171795248, -0.11512504075035325, -0.012689050457921682, 0.06048050412327201, 0.12270589608311079, 0.08031881658084412, -0.155176920628618, -0.09130527533823696, -0.0984395792759563, -0.043624720653432494, 0.007053067418379384, -0.08258006125784041, 0.022197743591128895, 0.03140524415850258, 0.08091486348805871, -0.020336615795231983, 0.04150300735072853, 0.02696660422676, 0.021037481354762244, -0.06861132335713381, -0.0023118361022945034, 0.10822761110004571, -0.054628524509467064, -0.08910087958058875, -0.09302980440427672, -0.14607068248642058, -0.17416407767872696, -0.15928207016743676, -0.1170424551418295, 0.033677956149201285, -0.021042052618889216, 0.052470156276515176, 0.15039285960156767, 0.0612869331352914, -0.09232730048272544, -0.07336892910375441, -0.09638191049641581, -0.010934570839212296, -0.01873774506181924, 0.025593184116476247, 0.010286842652093937, 0.012894548636770725, 0.003167084279378785, -0.02144802456687414, 0.031699732541099944, -0.032771829175399135, -0.033589686927928755, 0.05113696170940458, -0.000935528230267768, 0.01771830673461674, -0.051010099814215865, -0.014268459311970832, -0.0674095957884361, -0.14035461112103115, -0.045763653409176056, -0.0706381375362544, -0.0806551440064109, 0.05325835727202473, 0.049261039505602504, 0.09085376869625808, 0.16209388315313195, 0.03922320474388284, -0.13121249075306746, -0.1006849568966541, -0.0868202770835798, -0.016849716368266973, -0.031383957553761464, -0.07454269564516011, -0.0011288449325584575, 0.045075849186583625, 0.01349174901034265, 0.018721292257304695, -0.02832669931210528, 0.03343354247842011, 0.014643776978425869, -0.026566372306370697, 0.02869285215125653, -0.03373489069021882, -0.07510806308317336, -0.03435803121186209, -0.12148391007650616, -0.046352000148641395, -0.06133568267108238, -0.06325949302179042, 0.023013153064447907, 0.03925881070078252, 0.05021990577786421, 0.16035037581058054, 0.059803070804496525, -0.033473947071371885, -0.213257504969347, -0.12374266564398534, -0.10732420887363157, -0.060888123350633205, -0.007240571110527967, -0.012722979674896575, 0.04765174140648033, 0.0237802532920058, -0.0015664173088731515, 0.05926652508142418, -0.03057580407387523, 0.0014571084728364242, 0.015154879855664164, 0.038898741998455805, 0.03606834538830569, -0.018983597233991758, -0.03916965177907782, -0.026525745669758852, -0.05809386999430678, -0.043000022268130725, -0.030776596348469007, 0.011597462295487153, 0.03264256796591068, 0.07491105515214821, 0.06236062895644288, 0.09391363488173567, 0.04852840225306382, -0.0651910804145856, -0.14497906070789449, -0.18356984106176952, -0.01110797508785881, 0.005507459900855324, 0.06087033434787454, 0.013644094663927723, 0.011013219094521444, 0.0554900267811266, 0.005854777662158155, 0.03210299113535607, 0.034666174409308734, 0.009609470340412788, 0.025875617922572404, -0.03371487417750617, -0.04126556376367558, 0.009486763981464147, -0.025267601120355622, 0.041358363041406075, 0.011816731882185561, 0.021423256947376627, -7.99696393998798e-05, 0.014336270163617553, 0.04753311561429416, 0.046087063703308104, 0.05182678693243207, 0.05804685321243717, 0.09356501976122272, -0.07358044311328145, -0.12139351257742653, 0.0026690016730475867, -0.023068228191673423, 0.08320397505640682, 0.0579025181171325, 0.09421602074370936, 0.08973061291840004, 0.09042374680685189, 0.04576052211722735, 0.0059577790469244425, -0.04070562976076631, 0.05535065755664413, -0.012233756165422036, 0.029310281289709996, 0.05304322661320838, 0.10182793463541674, 0.041722427157350174, 0.08930474790354322, 0.007310380631540647, 0.05048919826767717, 0.17443497931334564, 0.07499183801531945, 0.15681977585707155, 0.14753771694781756, 0.09681721968443098, 0.034606852352267445, -0.0005629776847380673, -0.03653457191708053, -0.012414587944179717, 0.02669084100049405, 0.07510070928449476, 0.06617825260849312, 0.09037950311955936, 0.07898948824879422, 0.07991720444542719, 0.024837261042661565, 0.09917510897346732, 0.010116413505595605, -0.03206041537291342, 0.011975663584691201, 0.03447036464476927, -0.01684477124999707, -0.07400823313971286, 0.008854325786753055, 0.03052876904772306, 0.043024537509157815, 0.06676500723748498, 0.013872434342762254, 0.1696348141238312, 0.21437988979934858, 0.1663521560354224, 0.2194222187324186, 0.13034287141652426, 0.09489762549430117, 0.008128362443833846, 0.0991685721405357, 0.06470632887154716, 0.11061967661052279, 0.14142474415907003, 0.018956249924924975, 0.07405491078031333, 0.05458976018862477, 0.03844280125530584, -0.02038009727330952, 0.0047412432915897645, 0.025599664321502957, -0.010771349403363564, 0.004677177895916066, -0.035753115485297554, 0.02145893845889496, -0.016962885296823816, -0.01653645415284995, -0.019547156275018813, 0.0869167866086978, 0.08292544022043663, 0.11589680041753127, 0.07189496080545861, 0.1710231812512343, 0.17628188823225377, 0.09923859434578917, 0.15377656727647046, 0.12017518282996825, 0.10135438567845544, 0.009424657171154295, 0.13417950583895977, 0.05603188371588172, 0.109385786964166, 0.050023805866964845, 0.062210251438556366, 0.06319258183898832, 0.047379910350845274, 0.09428905707756981, 0.056169709562340436, -0.039786280208188106, 0.04566685746438766, 0.011660365261557538, 0.028844069858710256, -0.003939315678384532, -0.023399777042782184, 0.05574654918767113, -0.021065652131298608, 0.07781049510445871, 0.05339497010426782, 0.034794732743373004, 0.06969078217622204, 0.13408694344211894, 0.08456383580835909, 0.04603864464110705, 0.04610741946485829, 0.11594297769215274, 0.10813832021943653, 0.10436196902030657, 0.10196538532027122, 0.08276529113865179, -0.03521799244132689, 0.05368722824082251, -0.029777591812440735, -0.0048716930234911394, 0.02232163982579975, 0.03458622177546561, -0.016028289562655885, -0.016657267413400907, 0.011467076942200841, -0.007229416219930126, 0.011729665465442558, -0.010703805241321739, -4.8146200686512624e-05, 0.011591852801809955, 0.061698406083945306, 0.08315097381595664, 0.07437476997556906, 0.04261799750261114, -0.012253324416108909, 0.04290424796740049, 0.01929045122592492, 0.02922582478744353, 0.0029556762013271173, -0.02614962637303679, 0.028489274814407894, 0.01263225023988309, 0.02973201764684795, -0.004950527149423843, -0.03965483262524256, 0.00843116594513097, 0.002916616995595221, 0.057854367553093665, -0.054602499722025875, 0.05875907089496783, 0.004656138721426461, -0.005199477435862285, 0.02675208272432749, -0.028017589820894015, -0.05512766286923214, 0.009483348279210674, 0.0016430638096950182, 0.03484578032674428, 0.025848729874533866, 0.06509824204456512, 0.06577649600234844, -0.011094828991745787, 0.023906329919626244, -0.044549944994833494, -0.09406480671155577, -0.009301088508855328, 0.0032557532415652154, -0.05308516797078287, -0.007096191551727357, -0.0322460638604909, -0.03834510542499189, -0.04052837786606988, -0.000859231526265539, 0.0020405157869580635, -0.0018261398890010983, -0.010730077528742638, -0.014867311858060821, -0.0394905287847891, -0.0008324754182017944, 0.05380717561976454, -0.03654462182976555, 0.01663889434805519, -0.046568369319299564, -0.002669853951654264, 0.02132456436195677, 0.0480441905893677, 0.020821992052964908, -0.013788528792351649, 0.01937476812152541, -0.09119621041506164, -0.024524759412214315, -0.04886821548598396, -0.0570432922491051, -0.12475051168429642, 0.002136886837810735, -0.08157836553155157, -0.03191084628271413, -0.015048681294642685, -0.021815204687857963, -0.0666626717084884, -0.03321456461585263, -0.06781699573291568, -0.11953076405728161, -0.03713419057919517, -0.03250903752679672, 0.043040077926633, 0.059562088752888154, 0.02052312681281268, 0.005853381523423476, 0.06618173840614316, 0.004607703790523523, 0.03657970665623372, -0.01922149305313956, -0.013460662035415953, -0.00819092277963661, 0.045364357755489325, -0.06398017983592867, -0.04425962416648435, -0.08305928983071109, -0.0187224906458738, -0.05792559590159845, -0.025083334553653597, -0.09820263060391544, -0.0492056777549557, -0.07419059539486593, -0.07726515297005858, -0.04513172644617216, -0.005507745331124323, -0.028028244319905332, -0.013312926226255305, -0.031623413274356374, -0.058405597005217774, 0.012315278598278127, 0.010407369181288682, -0.013699864425890435, 0.02526005574626722, -0.023450597613941998, -0.01769202429846412, -0.0332871991351264, 0.039590297864303646, 0.035602354573408414, 0.005332142083860966, -0.04318260410575526, -0.013040279948963734, -0.01359965571389499, 0.022630871031725487, -0.006452764218782623, -0.025839844322206904, 0.005309452361307233, 0.023315501769977123, 0.010035668036296932, 0.01853543798669937, -0.041544285620822644, -0.03603351044424161, -0.09088474304437578, -0.0507613893029064, -0.040497315296727565, 0.05232435656170851, -0.045181364792088466, -0.018413867285925006, 0.023114227195440287, 0.0036377162624079504, 0.0004579316355378048, -0.0021372467586231016, -0.032790223554681065, 0.04477626761393855, -0.0034854732429981322, 0.011969802114360287, -0.048683439499406345, 0.05899026909350449, -0.007492275918438997, -0.05086444435683306, 0.018506385648067107, 0.017290809726900995, 0.05235624233627609, 0.0010386347991856466, 0.015743569452184022, 0.017920042971704866, -0.058065626936761344, 0.0008111833341057013, 0.009039864804269781, 0.07845219812920264, -0.03569071411384699, -0.03226537469657672, -0.02741670156699402, 0.0046708716696507065, 0.0015966260834849404, 0.00330603873407745, -0.015426758442885206, -0.02328849649489279, 0.0224852554040605, -0.013091849570682901, 0.00897984941095204, 0.020899077637262037], [-0.0203200199992823, 0.007783284611809685, 0.06385280473510618, 0.03756913007826663, 0.050509914902162854, 0.052738477873500667, 0.05064982628181465, 0.0007461491721330228, 0.012640953942230117, -0.04581055322772879, -0.0020078927992251594, -0.041829555383556566, 0.006722191064633471, -0.05379195022400098, 0.008484209205860758, -0.033859052690867426, -0.0006452997794780859, -0.05331040115496243, 0.02717161611102374, -0.06995213265570797, 0.000596246724259513, -0.02972827790499213, 0.07071381964855859, -0.044699962029085764, 0.0556085853713786, 0.005439485939539144, 0.024478114068553138, 0.014144775292714542, -0.030221219109324557, 0.07550608741109227, 0.01703492660140942, -0.030360366301521193, 0.018743975665135366, -0.07020076057355203, 0.0013640941691413881, -0.011354584080833204, 0.0005944285092538363, -0.03801518645549095, -0.0017290699561585442, 0.0210037823102227, 0.004096651879694545, 0.05477893671801218, -0.0780218956776988, -0.0017886799732740326, 0.030496629912284953, -0.005288582932557716, 0.025753335507523737, 0.023162428625431747, 0.022072833609912742, 0.032827287911191744, -0.06154341442030781, 0.0016609792468483308, -0.005067272601223488, 0.04149439289994671, -0.028196584805126785, 0.017742400962240033, 0.0701587394633839, 0.006201640688383638, 0.016968255025102432, -0.005499601946284556, -0.018047777735411982, -0.07866119047804605, -0.0015525139200743374, -0.010638008494884553, 0.001275254750629867, 0.013756533977118103, 0.0005936336724832054, 0.021870508482251094, 0.022024772416839623, 0.040047158142638345, -0.011289087124097166, -0.021646055740131006, 0.005939889437416784, 0.03575170348590624, 0.038099868091116845, 0.013292571868123042, -0.030166267535403815, -0.003121206172930712, 0.01913822176858046, -0.008326211667821373, -0.03321676210274175, 0.017563583037404445, -0.046177141423754245, 0.014032962170916149, 0.0031133084701573327, 0.007011537622931382, -0.0212470064139698, 0.00397673596049732, 0.037860625577625324, -0.03895619809521329, 0.060784787591608706, -0.022337087405517382, -0.03296366790764675, -0.0007502324663573381, 0.004091500963215704, 0.03411190363575549, -0.05979652578485136, 0.029177468134777253, -0.032570287233474285, 0.008960501511973439, 0.03030501220664588, 0.12564465227507643, 0.0998787733062824, 0.1484590363699916, 9.616185283984699e-06, 0.039917593201631324, -0.006446091507558869, 0.026321449066309514, -0.002924175883051612, 0.018010073180200644, -0.0059206747035201405, -0.03805604857190726, -0.0258639560384357, -0.012742663386613272, -0.015695846545790006, -0.03491061429952189, -0.03294881709137939, 0.020242764767829772, -0.03994001293596552, 0.020909815003340163, -0.042976731204584104, -0.11345370614885894, -0.07547206783735237, -0.06320557623703754, -0.14689102248784722, -0.1601940815127133, -0.05638820571026992, -0.033366755761988234, -0.04078771313252719, 0.07300659392213925, 0.07127152686247465, 0.06472420214838717, 0.07901777903416593, -0.006415090684870681, 0.0733714226278197, -0.0009556436698513911, -0.03281300502272037, 0.02753421881438924, 0.11698987621822791, -0.0022567594654070698, -0.015399981780098413, 0.00023747864553398475, 0.0025459788294024443, 0.02115361596304046, 0.03711528476796117, -0.02122518104436592, -0.0309980533985119, -0.05178278019416568, -0.0453893843778952, -0.06828758893884543, -0.08368568341554507, -0.12062437938921776, -0.12392856016466125, -0.17790685109085572, -0.06108671218466539, -0.17859052131558545, -0.0693298310856694, -0.041789392776741964, -0.03134157740687215, 0.016648901366793836, 0.012782060656446098, 0.024386495000786098, 0.03246675595882664, 0.0221453274593496, 0.07293625532047433, 0.03599188853514056, 0.02971115998157238, -0.007451697470640535, 0.026966313127401817, 0.0210608420838963, 0.03400855287180706, -0.01285539966318456, -0.04464622183295193, 0.031609461126941255, 0.01506919788996879, 0.007525386301171625, -0.048868302037238444, -0.027797771597564202, -0.033517781215367554, -0.03883294081012154, -0.12476135221428465, -0.09260498734083518, -0.1304661300689646, -0.1205689458117219, -0.07871497528558381, -0.0931331666811874, -0.05693579935963341, -0.01394944622841451, -0.08939426743620113, -0.012463266727769706, -0.0014919800029441384, -0.010046769696844742, 0.073026968798691, -0.02362686714709999, 0.025506528581908872, 0.03630850409120069, -0.04709355604273263, 0.0014129263973215401, 0.03134785389163928, -0.06272079751101288, -0.035307946124733654, -0.00014304591648343738, -0.03528117813152682, -0.004489133365226791, -0.015286853567637466, 0.02697179325323028, -0.02194741329537541, -0.042597711746120856, -0.05714794589907801, -0.11819398346735309, -0.08710663741193284, -0.06889589848867546, -0.0601192637494159, -0.04776596902635236, -0.10763058283246145, -0.09757531662793872, -0.11878961971737602, -0.06107652211222646, 0.020414690707682457, -0.009299331511830069, -0.021207482399677027, -0.10004574208205626, 0.003148641960055833, -0.02500921896838813, 0.046366050229517605, -0.00944705831904956, 0.01633094175468966, 0.016793467748605836, -0.08797922547859895, -0.028030115243288488, 0.022554604751230344, 0.0005341947757486337, 0.0014773181874133735, 0.048660475059351956, 0.011285485794204159, -0.07166381721009053, -0.07117658760383155, -0.10130634124924466, -0.1017656710715426, -0.12420462221826604, -0.11967943093589443, -0.1611870947899693, -0.1701318354326614, -0.17259157216393503, -0.12955364728022348, -0.13740002739170573, -0.052647625705657654, -0.05228882166248263, -0.009938968434347214, -0.020183252328496593, -0.05130814925104987, 0.0445029739290074, 0.03198216971229878, -0.014827036158057513, 0.0705400639099728, 0.00838127160024862, -0.06719887498455487, -0.008351113521521873, -0.010704810247999609, -0.05474925402278508, 0.03847017296457937, -0.008238452843931912, 0.07074106647409945, 0.043080467458310574, 0.011428064282324919, 0.021011354078003374, -0.13636955344995905, -0.15403718438800823, -0.11879700904267457, -0.10895423838093542, -0.08810581016122211, -0.11919218753051089, -0.09644017480935256, -0.05667143714837327, -0.04701789406125246, -0.08296123837303614, -0.0045618298250350055, 0.03812063647835858, -0.018465569517416836, 0.011252243590383869, 0.024164823558814687, 0.04883312833700984, -0.04545995073626271, 0.02281256364283449, 0.024865894625313342, 0.023719936306550192, 0.03044546721192597, 0.01837452689395359, 0.0472224690892542, 0.09039401158623978, 0.11618833844443609, 0.11223659607470877, 0.09938497742242183, -0.009829414057543878, -0.1302618327201433, -0.10439288275703193, -0.09224195761162822, -0.03609928316586184, -0.11682076061028478, -0.12339784729081334, -0.1352684986371051, -0.07157826178828224, -0.1221999598076959, -0.07204137071777503, -0.0517269047869759, -0.09834182511974766, -0.05481533521649782, 0.07884471034431086, -0.0322735715777757, 0.03520599028396152, 0.09473140407723016, -0.06679339778567228, -0.05465239945998473, 0.03303331455182911, 0.03584639792670645, 0.09871819324520663, 0.09457754165471358, 0.12091263778507512, 0.11302293127634853, 0.14921299911721952, 0.19815388123213573, 0.05141798105002246, -0.0992747114089366, -0.05749576120936011, 0.008879849120433962, -0.0077879301573638, -0.11534463158328095, -0.08168219478707225, -0.05654933762454466, -0.045043047501715755, -0.04058414269327857, 0.020921855909152468, -0.043612283091385075, -0.013333132000595403, -0.03875727937328566, -0.00951453683350691, 0.031376992812969275, -0.05214367786001224, 0.007941895940454956, 0.004230575883349361, -0.0033926432630303443, -0.009191215563479817, 0.09167775075979898, 0.0764332221497518, 0.10810151115659554, 0.19570573022820106, 0.21694611602313074, 0.252853640866442, 0.18930585573492278, -0.04094841347952051, -0.07194987643987988, 0.05080074341340268, 0.07050517505254954, 0.06862757998592231, 0.004282018043214517, -0.014128527629129436, 0.09059520631070554, -0.03393109538716399, -0.017843146019952634, 0.027178610169219845, -0.03210814719021725, -0.04538343374617369, -0.009005022832488798, -0.04660426570236136, 0.052423481106029186, 0.00971230262127809, 0.006063356667772022, 0.06047096725787962, 0.06567358831891133, 0.0939482137081305, 0.1622034310444071, 0.0915796941837436, 0.1553216241845261, 0.11527704365005022, 0.25178890463776127, 0.20651186885571512, 0.20320965043080855, -0.014654899081316928, -0.10585405374901634, 0.0961173658190719, 0.20442411702784943, 0.10345609515919145, 0.03919291942215071, 0.01112795519429221, 0.0021495765624431674, 0.0872832930556325, 0.06635518860580147, 0.0265452384703231, -0.011338577585330455, -0.017351340368479237, -0.010115510149293697, -0.0013914308591392182, -0.05155382640014852, -0.027251991058186244, -0.0015099073255418483, -0.01570061731785935, 0.026043193568348777, 0.13583846583154371, 0.12506737127871517, 0.19015255767722733, 0.158097997030986, 0.13140181407960333, 0.15461097712568594, 0.18745445792213275, 0.030019172427967502, -0.12290254832415545, -0.08769915995086505, -0.021402595336753396, 0.13178737723733425, 0.15350568969939726, 0.06900461619770053, 0.17889659862985371, 0.05856209841644228, 0.03020037995720889, 0.08784912296730808, 0.028790551387024372, -0.03398883357477843, -0.05288623492265456, 0.0451549316029298, 0.011395095209354519, -0.03015054248588644, 0.016500432255019917, 0.006485383308786549, -0.04677165097894918, 0.0346918553381527, 0.028714702687310852, 0.08975030645748802, 0.09675581130769373, 0.04198370485392126, 0.03029905886158301, 0.12118297814444638, 0.0867409338781861, 0.03421484262263649, -0.12802715893231248, -0.09056050934453741, 0.023542417862945777, 0.08099953450026857, 0.08136150732090973, 0.0880157228540619, 0.10897355314989307, 0.14855500589853335, 0.08908581303995672, 0.12169202500537606, 0.02036307084169049, -0.019565754730087415, -0.022800756377419674, -0.021821782205328745, -0.049871099235196, 0.0195317000897442, 0.060781597540375785, 0.08024139360927651, 0.003957632329184725, -0.039107112103682874, -0.10355428512605194, 0.04451662109090076, 0.07425793620611507, 0.160015492578782, 0.07740664940559776, 0.11001710147822324, 0.03366214805236219, -0.012836444356243608, -0.16295641394469526, -0.10402270443700022, 0.00773690444301873, 0.08870644604299283, 0.06566835262300917, 0.06285268192810385, 0.11623448133646444, 0.08647464524925107, 0.03145150723715884, 0.010221591752460407, -0.010056863110725033, 0.006326554255325334, 0.028860570602913353, -0.023348368859082386, -0.07620989931081129, -0.035773306488065044, 0.06177008437148727, 0.00513847777794354, 0.042532789018924926, -0.04272306865875058, -0.12281372496063901, -0.0054176028904949014, 0.006036562437791112, 0.05127247246703103, 0.12281932496663615, 0.047701112809402875, -0.0021306842047221224, -0.03428051600281684, -0.036895471901625176, -0.012943251071718903, 0.05104340805530697, 0.05354180488677596, 0.008052890968490004, 0.13086664973131967, -0.020924531933934065, 0.04287487621908154, -0.02584315610224455, -0.010076859007392287, -0.037884572325158974, -0.029451650161406766, -0.06257086196388707, -0.008320889638809413, 0.005926115919347567, 0.010371157990636972, -0.01379121195875459, -0.03710713063507852, -0.02504184035179365, -0.03857282973142828, -0.11092410510191361, -0.15696791448191097, -0.06366388794649103, 0.034038364682922574, 0.05571528139540668, 0.0765350286067172, -0.003190955823328058, 0.01488806441488072, 0.023717684371559924, -0.020382249286794663, -0.05030761163814685, -0.028632491647735115, 0.009664566700279223, 0.0231491102121368, 0.04028206090659034, 0.006574130530559367, -0.05723334644274088, -0.04553271802027589, -0.004501584425686923, -0.030783617439351003, 0.05220045662186924, -0.011561416940769146, -0.02276333088935161, -0.007930222011091698, -0.06964937634098553, 0.028273951519557857, 0.02884105549053079, -0.0666417111971139, -0.1195791273614638, -0.07862734291210285, -0.12247814079644878, -0.148565657234289, -0.12445760765518535, -0.05701481952894588, -0.03615110972719348, -0.0022657147945063195, -0.07344504716451282, -0.007922682513490955, -0.0038537369269579435, 0.0020331081037524693, 0.07333282530123081, 0.0662011287329684, 0.05646742930398565, -0.0650245853311475, -0.049979981205024504, -0.10613562568689543, -0.09949685563424178, 0.001070034405426599, 0.004610989108527219, -0.056404433170688224, -0.06405773739808869, -0.01695112622484708, 0.04254720010459521, -0.013101018171729312, 0.006594194287670323, -0.05210586237293235, -0.13348841156267952, -0.09530798305129293, -0.14477746536153469, -0.08155103394890138, -0.1152151079350515, -0.023889750805428153, -0.04359057736231568, 0.022255854646791286, 0.04676972796609459, 0.0684816174668538, 0.0511842331386408, 0.09226909136057249, 0.03687208992427966, -0.035635798434877214, -0.01196553964269998, -0.03719716582352841, -0.09765158987307491, -0.05783419306010099, -0.09058196316692194, -0.02375810032675362, -0.06235946776234971, -4.736139522393242e-05, 0.027010710245510463, -0.01962374781114678, -0.0051579626328849765, 0.04440844314344864, -0.06948631196327085, -0.04676018713944325, -0.06663566346278661, -0.13942828623542963, -0.14044355440426343, -0.1711211947711533, -0.09102248590087333, -0.013514939047863014, 0.07044625628092759, 0.021008446046311288, 0.0958734158891977, 0.07149034484883914, 0.08868664841302622, 0.028226447246624795, 0.009875041798448173, -0.09260647404808879, -0.05347038827472887, -0.05603825363837553, -0.1447796153492469, -0.07928112935459575, -0.03155574741625389, 0.01057353270009273, -0.015261307130510816, 0.02466226186545721, 0.020732911982405997, 0.050802445817851864, 0.004841530103739711, 0.0194981435425067, -0.024311687263187585, -0.010419617308294648, -0.014849128954031008, -0.11243527306968411, -0.09142189182779384, -0.09501451271691211, -0.051468857281971356, -0.14016552059434187, -0.04262794160809605, -0.025762532842059788, -0.055015080530504676, -0.05865552758765413, -0.03362586074882227, -0.03624823794306431, 0.009180875037845374, -0.059561313630824855, -0.018157667638357817, -0.04154367894189052, -0.030846939277371217, -0.0181227166701271, -0.010693607319380452, 0.02985899226558845, -0.08754788004020164, 0.017624423656208327, 0.0040428888244142015, -0.0337486228655797, 0.01993463913142117, 0.028782891463480693, 0.03139043754037613, -0.07097840292886898, -0.01961906258318412, -0.03741823127956454, -0.04344135211664634, -0.0660795706646353, -0.07890574021566804, -0.10924382511858219, -0.06639002702526188, -0.16497302342020218, -0.06631234880584934, -0.11596348321319871, -0.12311469115369397, -0.09326336728112528, -0.04439923346630327, -0.014666896632652278, 0.03372286846087063, 0.01611909671816306, 0.02273987746830391, 0.036451053551743794, 0.005785355102988303, 0.007901418148261077, 0.004519421385923156, 0.008277039919197905, 0.005964299564775487, -0.022167995858654144, 0.0036684550252235374, -0.017705464536367805, 0.0021816638325629595, -0.03134880276652709, -0.00864298130116412, 0.00022996053137290258, 0.057127746931911645, -0.028678915484982612, -0.013294831516414888, -0.023301899785958587, 0.008250192796205126, -0.0561570583150516, -0.0777255858382159, -0.06869567544758273, -0.10970938804967112, -0.055091657561510965, 0.012414970894981848, -0.033547378601178686, 0.0042962844398852906, 0.030879762077115833, 0.09681105682591584, -0.035496267393433215, 0.004975007082750616, 0.019049170047473075, 0.023749994900660466, 0.024502219488118163, 0.03517804130409609, -0.032180938355034404, 0.02003199562270222, -0.0466386009780281, 0.017053770042537737, 0.013489008086724846, 0.010156774637272064, 0.04585251850117655, 0.037070191812990955, 0.04363569981618582, 0.07469666716137781, -0.02924176072116007, -0.02334978603901396, 0.01632714987531261, -0.007755839321373678, 0.0042795392479334435, -0.033569968004546424, -0.04487567141192092, 0.019636786443995483, 0.0891059355650149, 0.07325587419216888, -0.02744618367750153, 0.023244978062093673, 0.030596657192876266, 0.0034270697752328194, -0.061832761087798296, -0.05367804991759014, 0.046754034528160536, 0.001958253943297956, -0.05236123129014439, -0.03594331377381213, -0.04485698853447432, 0.05974842981147017, -0.026944593420561713, -0.006712180096135564, 0.033116180344014985, 0.021211599781964515, 0.04147477571167873, 0.04521561318684656, 0.030933795873566955, -0.05551329544360993, -0.03197542292979631, 0.026785217347174883, -0.0334067492040802, 0.005239487098500812, -0.026438025986926177, -0.013439704300941432, -0.031643983504918774, -0.02008087606878902, -0.025495044084131304, 0.03821973635615492, -0.02867860889423999, 0.026168133755825402, -0.02309264673112924, -0.014467311205403061, -0.012055865454238503, -0.09119203295658189, 0.018697242735593016, -0.0044453909159952905, 0.062397711030255196, 0.026655345660236265, 0.03191871699035772, 0.007661541954835267, -0.012373542010371523, -1.1100434216396336e-05, 0.011075128323977156, 0.020456023296743224, 0.0003566798256503348, -0.015825322908267974, 0.019130153541441777, 0.03666210484323045, -0.03262025906347788, -0.028591229287411736, 0.024983823184928634, -0.02445011942457861, 0.02831269912833307, 0.009202816674590844, 0.025220675897935578, 0.03163908159206541, 0.008934238007449002, 0.05658046667573348, -0.044222461204851016, 0.03198203521136322, 0.022853146393042402, -0.06690813350381325], [-0.056023612101168935, 0.04111790534594395, 0.021771954554944677, 0.029905588869993144, -0.02000094088590299, 0.042054420908199185, -0.045894880746982246, -0.0363675215479211, 0.009528711254549677, 0.01041818984961945, 0.0046438572973197065, -0.029004228704174326, 0.03801798193426792, -0.015240575462143654, -0.004327502824015065, -0.05565573380818741, 0.018236792454681346, -0.019060398427125955, 0.017433121098187152, -0.004302941022420275, 0.0020078851282552385, -0.0225605431195533, -0.03804493375271561, 0.018517951712622136, 0.04478367115535198, 0.024648741415161247, 0.0005248550131597401, 0.01888295264130532, 0.012816455969024493, -0.009851552904696134, 0.0022034356532331734, 0.038614071529745844, -0.01234249685749565, 0.022407058519537348, 0.010311960495791306, -0.02369929553619016, -0.035912520514967544, -0.0060330595676949565, 0.03039946051290556, -0.05468041482714748, -0.03985211073311108, 0.010427561586888855, -0.011595412070259194, -0.009044093093545544, -0.004185387553586442, -0.01618308626553725, -0.013371838788064095, -0.05815682547768194, 0.01648359317053592, -0.0507783651569187, 0.017671856642649475, -0.011338889211059897, 0.013557892702820089, 0.053693924621005966, 0.029163484435278376, 0.021298394840924433, -0.016461789741068957, -0.033041736222310436, -0.01644534976205326, -0.011303696902008224, -0.009377557929369831, 0.004814462550559363, -0.058876229001001784, 0.031190871501983432, 0.013508976343022864, 0.043949251498722634, -0.024539258495261226, -0.03200796349686612, -0.013483521571785338, 0.034563980839674074, 0.00580506764563506, -0.07191660850007242, -0.004222711441538531, -0.07940547530296294, -0.050824822762636994, -0.026355908705773014, 0.03976437922471754, -0.0036329221573515556, 0.0421770286200816, 0.048541729684254256, -0.021491513958891213, -0.040562964151998435, -0.01139164952927224, -0.014461108786222135, -0.04125274949668118, -0.03728950201471604, -0.07436914916587033, 0.02717070228926873, -0.05644170400376707, 0.022572459466720138, -0.065497083378064, 0.07793557372396738, 0.003509427332874562, -0.039145324954244255, -0.002440800819425841, -0.010202455770414188, -0.03599568848626049, -0.02189926953659098, 0.03906556654659425, 0.04431987513833657, -0.018620970545425313, -0.0454366967070625, 0.04351457906429207, 0.022653004577602324, 0.03177964992101636, 0.045104437763058086, -0.04636132217716198, -0.03664833225952279, -0.009517856509359485, 0.013912012937083273, 0.034986985950472435, 0.048594092274258746, 0.028047521147249017, 0.0011419789406646287, 0.025439256399610793, 0.007148693969269172, 0.01524388841015946, 0.01657294897927978, -0.02002767916417624, 0.029424228629602527, -0.04042989021991414, -0.0009052664344052208, 0.06466372149596022, 0.0014880038711857734, 0.041593142092214354, -0.0006812399090895416, 0.0006051109187039901, 0.0052988350792589215, 0.004325553329918017, -0.11416419773822196, -0.0023554186443100313, 0.02264883930253991, 0.018487881661232167, 0.004311832743010358, 0.057915758405069476, 0.08151108891266731, 0.021804125356861208, -0.000590398365350756, 0.023197429850913418, -0.011810616625290012, -0.03108613420602503, 0.03947540046558972, -0.04159396233971612, 0.03214847803427169, 0.03511527368647099, 0.03990597657337067, 0.02478649405117371, -0.05343551003154799, -0.029713724967883364, 0.02689168515004704, 0.034257189510599265, -0.052605972415578, -0.07909162167328929, 0.03765108811397919, -0.11871005045731942, -0.028389726477692712, -0.05648384503118905, -0.10477053241433343, -0.022569501349020644, -0.03233242447713689, 0.015320885711397864, -0.01644860746849784, 0.015622336165358639, -0.027091992164144863, 0.01911642408030129, 0.025616161490787912, 0.03685912914214649, 0.02117323033205431, -0.009344390119070425, 0.023244261849384072, 0.007014399790277077, 0.031386079832434355, 0.006786749714142843, 0.019794552415178482, 0.032908851784709016, 0.041054279375381024, 0.014769497990967913, 0.019416246848355464, -0.041904107234333576, -0.08595757306292631, -0.02427597521356647, -0.06285842053675593, -0.08791204843038335, -0.03702257438999616, -0.11469858568157683, -0.12652739684877282, -0.003909956804847834, -0.05876046967478696, 0.007399314190540249, 0.014873944600103472, -0.002422562709179788, 0.07429476738710186, -0.0403916820103607, 0.01975557551379477, 0.005613914581762966, 0.018985385708994742, 0.010555698591814705, 0.004455480987266367, -0.014946061205897825, 0.06440730685495187, 0.009728710499023182, -0.05090535946599093, -0.051433919425125596, 0.028091528202686865, -0.060786894015326276, -0.004112932625120769, -0.08479430744753279, -0.0938630651555608, -0.048077233069277685, -0.09268733240674062, -0.12582185489341322, -0.13641578513743788, -0.15631323488363158, -0.12050116490842497, -0.13453396546021082, -0.02942019866489925, -0.06894009965164001, -0.03905344329700527, -0.03510062267314206, 0.013264111889626245, 0.0733643938201038, 0.030717512162037948, -0.042852333753319004, -0.051595696067769974, 0.039683982307307714, 0.015369307957543573, 0.0227373542898699, -0.018923598463424743, -0.013215930145007678, -0.039500216862528914, 0.022303963939797233, 0.037402210180137334, 0.026582457414249472, 0.05349271613171629, -0.028350820219405194, -0.09258486849727235, -0.08773429274972273, -0.09794981878327474, -0.06277504113596975, -0.11203666420365499, -0.04304012204072173, -0.1523762091172229, -0.0792390179307518, -0.08989963116211686, -0.11615836407291714, -0.0070051707185458155, 0.035385159090318995, -0.0024709193767821747, 0.06955501485266669, -0.037743350621113524, 0.009020824585139678, -0.020290448974250294, -0.036894632326573064, 0.03533670331302867, 0.006629109663496076, -0.009197871260678534, 0.018748984259293673, 0.009458956883862146, -0.08561814931595735, 0.026501849223041204, 0.05821035657291663, -0.06230523604302445, -0.05112602570823671, -0.0651263296463164, -0.0928100753770224, -0.05277544954735705, -0.023376550260957488, -0.06091129850358909, -0.039157220428948925, -0.0006177965542901289, -0.057904850479315775, -0.14725420074235188, -0.09917486243362672, -0.10165249611975209, 0.016337550804138692, 0.026326928418925855, 0.06642054474677911, 0.04457111887411057, 0.0016199318642352667, 0.04185999319640185, -0.024663272841124236, 0.055452536946256084, -0.01024572720061891, -0.046800218217984406, 0.004202399872222501, 0.03405804543015428, 0.05094909267366641, 0.02062076190933298, 0.0032574698924656984, -0.04671200651148323, -0.04627091724572648, -0.032179789058232086, -0.03660350169883156, 0.03342951434444103, -0.029581995817750364, -0.006434688663342403, 0.06996721138217153, -0.038856709392261844, -0.03756134684620005, -0.11141349844532164, -0.013513670455211858, -0.10039536994035453, -0.019641360284459678, -0.01119451555027967, 0.04508840078526142, -0.005269778633787059, -0.010351138930596207, 0.0018304887452757937, -0.018530695581202208, -0.04527995844770343, -0.05000219769903462, 0.0016384875803147206, -0.05363084461544066, 0.01979281853270382, -0.009755700591393716, 0.04269886954834171, -0.08139127850473084, 0.023007738411487424, -0.013449291245568986, -0.020636988380112426, 0.03053692689897788, -0.027167497127428174, 0.07763491672114407, 0.018343419650489686, -0.015867862194325053, -0.03457806737680683, -0.04878859109557488, -0.08990498744491383, -0.07563485214717947, -0.027363319221683224, -0.05769982077118293, 0.004053078506503424, 0.0031759242046325567, 0.006339521803347568, -0.04864268486085456, -0.022890790761943586, -0.0038209588063973254, -0.0980825322714735, 0.006555322587585513, -0.017106132321872965, -0.013551746259280763, 0.048216596955853404, 0.009822605232815161, -0.08002492680107748, -0.06320958072778403, -0.04130124634986501, -0.009213361186949084, 0.009011774561294775, 0.03509784167040651, 0.064406788750714, 0.04036293417730282, 0.07450894481225746, 0.02391009952568685, 0.026493255672418628, -0.0793518057677728, -0.0748001040360025, -0.05625520170579286, -0.04029414007255075, -0.11172625450316169, -0.021424559150680148, -0.08972131381085968, -0.06673158932391983, 0.00909781431194989, -0.0035916329612447613, -0.012382620479173788, -0.0063381024737151955, -0.010266350375289533, -0.05593404580453675, -0.0250522836500795, -0.04335163485237563, -0.08943152271947907, 0.0003185097829989112, -0.07071657583211223, -0.03300385392237837, 0.021615502371326437, 0.022829432500273347, 0.0842950488277794, 0.004818898196862809, 0.03502056505814454, 0.02094440702495609, 0.02115203421247511, -0.010894346943504784, 0.020528212477282974, 0.011442698464525267, 0.017160761293993326, -0.07799490729064922, -0.02501434600850506, -0.020543426278820314, -0.039207751763185264, -0.02511356371433651, 0.05071170535425234, -0.01607742743959222, 0.01460108791717452, 0.06113224424529974, 0.049707360505071206, -0.008526505317806509, -0.043968819575408526, -0.011952765672360378, 0.029713519080397603, 0.006438407908822661, 0.017027906557441568, -0.020273109346728702, -0.006960531668673205, 0.03458189406811037, -0.0061294573800696125, 0.12515302520980148, 0.02027179146264231, -0.052709007491747985, -0.03363740887095307, -0.020756440972616898, -0.003386762900634714, 0.050333171204794316, -0.017431620526627063, -0.01213776861208208, -0.07607157522452261, 0.0024131295766706626, 0.02386692522957411, -0.04332428434627886, 0.07264007195781756, 0.003257953393685571, -0.05160781649864517, 0.0008635037574597686, -0.04981052079954837, -0.03976669539265738, 0.0025785046234824637, -0.06228968876808569, -0.017751816927968924, -0.06327128037434178, 0.012975399189868786, -0.02598382522826231, -0.04910533715095538, -0.08215109478459315, -0.013214061846655325, 0.015050493462089462, 0.04385620523605439, 0.028591303582185052, -0.06362998272292941, -0.003673792935016377, -0.04373395531846546, 0.040507733439958914, -0.0375010559799203, 0.0036042187641564727, -0.03964250641033178, 0.00030982341845699115, 0.038373035717019166, 0.04019569916377236, -0.10815020048128812, -0.03031757265789499, -0.013048821488356217, 0.04092848836536758, 0.045123028739643474, 0.041031376896080676, 0.007914701074075776, 0.0009853112373652345, 0.03257758510810426, -0.07210945729562565, -0.07026764066303573, -0.07982469276304911, -0.010096928634842572, -0.014457037608563997, 0.028156807089790077, -0.006219522277088937, -0.007503535444411428, -0.04017170542619149, -0.01241191840592858, 0.015754830756451812, 0.015339906294136143, 0.012255915240022603, -0.007581062651847013, 0.01091935356416985, -0.0029493733239843813, -0.01293637133215462, 0.015145674016123557, -0.024688679967821394, -0.0018074649631877185, 0.04734886574897683, -0.011233871978553385, 0.08012546215606235, 0.016909786967133415, -0.03681666243719601, 0.007859181412668087, -0.03954508937882431, -0.08745516535992837, -0.096558120985677, -0.0529632203629062, -0.1066665012742419, -0.04135806981931103, -0.09640472455474162, -0.028391163257706475, 0.0470382198609982, -0.056268967442616676, -0.012640770348818374, -0.06244620487028513, -0.021031553354854467, -0.02213102888883072, -0.01022926244624565, -0.019202809696264332, -0.0014242666996911544, -0.012631342433825367, -0.01711813677465394, -0.010829061502815958, 0.02576108732856626, -0.0413971639792638, -0.009622095833888015, 0.01688479681652612, 0.00018777951800855232, -0.0016522152914495356, -0.019270342829673017, -0.026620521901395362, -0.08003138078151768, -0.00882080028811223, -0.027750072518251515, -0.04880730304763328, -0.06499617812025178, -0.11007048783325485, -0.016077908279543383, -0.03283436189375974, -0.0015687034154237996, -0.0036605933886603693, -0.0681962633417477, -0.06135323652556379, -0.06879428896419378, -0.0691086353853961, 0.006979975794778426, 0.016423683836094542, -0.05686153686202559, 0.0074437399634526835, -0.017164443774628817, -0.02497259910599168, -0.014786543249270803, -0.021002508227817678, 0.022595125935644368, 0.05799168550776419, 0.02688625472563761, -0.0021382576811418124, -0.057434527944124805, -0.003064767511834289, -0.02215589908829028, -0.025328545185519025, -0.001246955173863059, -0.07469122967265335, -0.05416230593199321, -0.06260691449147415, -0.04817607083657279, 0.004382054854384646, -0.04350079717238386, -0.08446442943903178, -0.04584191741688345, -0.03307591106794619, 0.0046970573444686725, 0.0057583386196641325, -0.06113050933343548, -0.028356146066812325, 0.011815747889037317, 0.009394785705697526, -0.015508599105548027, -0.016105118017583006, 0.02172318090996522, 0.0048109703493913894, 0.030356557314090534, -0.04309184208795461, -0.05545984989573069, -0.00939594929050489, 0.00031827365369874183, 0.020802833247724906, -0.035277347361895674, -0.08390687098885842, -0.05954237976791149, -0.03869818567256093, -0.14085502738286676, 0.01797222324814572, -0.12559560991145535, -0.06022224293805864, 0.06493394765981524, 0.07646876941804943, 0.025050101523562726, -0.035864204877416095, -0.05053416125736173, -0.030847139808072632, -0.006371501385546817, -0.017485114682798817, -0.007233582157868847, 0.006946107272849183, 0.004623270525554379, -0.0028204668639265525, -0.01457046305999202, 0.03909292689559587, 0.004393636231926807, -0.053208897857026004, -0.012094056047237227, 0.0069223448637366755, 0.0275076183589156, -0.033018874467515266, -0.04680950229532169, -0.024146105128891943, -0.0660603403514822, -0.03609652446501444, -0.02410240051525433, -0.017582082077237552, -0.13235687176724353, -0.038139517941034456, -0.06102039866699844, -0.004005394556419338, -0.03132122052648162, 0.02418145161920945, -0.04697268453216313, -0.007160715387504798, 0.0035343337219775083, -0.0801357298541644, -0.0024059440702461432, -0.04874713646274306, 0.020650637407122644, -0.022362552905564898, -0.002004302191907689, 0.037873129643783324, 0.014985849803952279, 0.029738253578879756, 0.06410200614500478, 0.012909229414647653, 0.08597929498667181, -0.07008692593734776, -0.03733388070460642, 0.021288365217864078, -0.08863038649560785, -0.022927879324705604, -0.08753060049592637, -0.0933559397249486, -0.11460072795447022, -0.16994706300551907, -0.09459019212501717, 0.010045774671204627, -0.09307815283914632, -0.042624119234916595, 0.0034088350297564215, -0.054716114148625136, -0.0613180303834432, -0.036842488591688205, -0.006770001137873896, -0.021230683731139698, 0.041916563330412965, -0.01862474070534159, -0.050982453020543356, 0.013773763564066734, 0.04491289739484396, -0.03846551921041394, 0.012236227344892154, -0.0304075383340141, 0.11091257171147029, -0.0716184455849001, 0.0012506063378813546, -0.05062189615724437, -0.030060925794793983, -0.01864658744579169, -0.053117377115784424, -0.0049523241649431565, -0.045131493442467224, -0.12887448668597287, -0.01172041718585199, -0.0678483072844979, -0.08969646697087459, -0.00936898187445748, 0.048618086584311236, -0.03461351459735021, -0.03455795031359059, -0.03779951124353008, 0.029449103936757766, 0.042302481170289424, -0.010230986138499298, 0.005362821776325995, -0.004344471316455819, 0.020260555386174783, 0.003790850366119635, 0.027027257447695144, -0.027327660564900987, 0.054261660413772034, -0.052281670217279745, 0.0018601734294828947, -0.02576011125939467, 0.007436507350608718, -0.045966664078747776, 0.015872356818428034, -0.020672934720042672, -0.019167112882455466, -0.03117933209626024, -0.07620580630817042, -0.028359523842049726, -0.01656452045796339, -0.028579704186177654, -0.04222588488691728, 0.015562233385697526, -0.02570394546602249, 0.00976789894291559, 0.05585383654614403, -0.002115171223465993, -0.033267858352008337, 0.015884256510294754, 0.05339352816958695, 0.034341883048761575, -0.06841530470991103, 0.0428852895635689, -0.0458594222476293, -0.025714366922186538, -0.006128740115499316, 0.0017382546979899766, 0.047324090074943, -0.05207600228200855, -0.023697592351774772, 0.011949060087732416, 0.0022088763231696844, 0.01177175920982081, -0.00023264368468255297, -0.022430227181082146, 0.006070970590052567, -0.007515376978845611, -0.005899671032100414, -0.010776455494473853, 0.02724274002900601, 0.02023390003066995, -0.0029965814822842315, 0.020522398915707556, -0.05261691821432124, -0.01436065938737713, -0.05437795264651231, 0.025116417062263936, -0.0012299206954271618, -0.04422915221672898, -0.004094722330867855, 0.04780536344428269, 0.0004328716015062105, -0.014766051306619529, 0.02847371735524446, -0.026190566410411495, -0.0033394803679795654, -0.00452677854119609, 0.008582709686644124, 0.03552103121234748, 0.05483860368548882, -0.04638633112338996, -0.03373600096737491, -0.003916321371673164, -0.05038177031643703, 0.034254551734927946, -0.0004584454735270844, -0.03442600550381906, 0.0536473350886018, -0.00822907566196947, 0.009858832792032401, -0.028040035701400706, -0.015281722563665053, 0.020163232403842647, 0.02632508494826644, 0.008092341024092469, -0.006766120503675033, 0.0007617662529293453, 0.028583916379781155, 0.02245649505198065, -0.053867839192496374, -0.040720857317686814, -0.015123506251125782, 0.05983124737690496, 0.02894909913885616, -0.040492424565422735, -0.0230567359098681, 0.03193279450318848, -0.04467155895940672, 0.04190932239767552, -0.0592286266274143, 0.001844829533098052, 0.0013127274930003925, 0.031709883553584846, -0.015277527050734386, -0.02653604599081649, 0.016137266174722362, 0.03598901269640779, 0.08271235700856207, 0.03888995454821897, -0.021812753306846507, 0.01804566665194086, 0.018660948997731474, 0.012155034215596055, 0.005697407686393517, -0.011614760098244175, -0.001678759643611207, -0.013396394318236879], [0.019133915802138704, 0.012425987991314547, 0.008710760245128495, -0.04776770024078688, -0.0028397583347310133, 0.0049268364864992874, 0.03236647278226123, -0.013835664352451833, -0.007177241259617358, -0.035988196097119875, 0.019667092943580915, 0.05369957098011729, 0.010550008457604997, -0.0048359729060500145, 0.017591313014689972, -0.034764319452051676, -0.05476123612873228, -0.029417722622201836, 0.052733310384026066, -0.04812881218122999, 0.03510963460359283, -0.008122303233099561, 0.023562580091245112, 0.08813903054718787, -0.041490801020633274, -0.029217737850392028, 0.016520109287835694, -0.005859201927293362, -0.0800801332334906, 0.021169886441740435, 0.046819489751908465, 0.021593295795726254, 0.014365760466180665, 0.0031246330260767223, 0.018750733219041825, 0.06028674186861786, 0.04377345616985505, 0.015598184452053831, -0.01803813057782234, -0.02155999227080788, 0.027669037395304085, -0.058006595124766684, -0.04425079873328509, -0.01753878935998663, -0.023535801535457472, -0.005347766036672235, 0.01605852648082909, 0.02484936074769391, 0.01868603373500476, -0.044464819292350896, -0.0004333922293763283, 0.034945917703304984, 0.05723592091128698, -0.057679524448967, 0.025909400574605595, 0.0018325661371086349, -0.044852220293466034, 0.015037414032529207, -0.0005764976953040035, 0.07070306619758446, 0.05011651381936597, 0.035624680511557885, -0.02153544710598243, -0.0029751271653280418, -0.025012024151686393, -0.015484486094917893, -0.029415159643648513, -0.014574022213646948, 0.01484581068414791, 0.031177836756059497, -0.06367451354999687, 0.05350623899214113, -0.028493253914648388, -0.027220502482702122, 0.046312040282826705, 0.042692263028095596, -0.02519955923728976, -0.0402708125907537, -0.015748085005719885, -0.10437857319156194, 0.02370520985448698, 0.09012347564117766, -0.018578728615648205, 0.01851545187948883, 0.05095603190026951, -0.017206612614101294, 0.051708281921474857, 0.03884381931997474, -0.083954492592759, 0.025247664259925324, 0.07890292292653274, -0.027954477004371134, -0.012376382856119784, -0.06135905047117552, 0.031719180710988754, 0.012911435863594918, -0.03559183224784922, 0.054880594649548746, 0.029156055056375148, -0.012078363023411462, 0.004098612496896085, 0.02658016550782076, -0.0313140269007904, -0.04684582066932119, -0.024391708473702832, -0.022855919073925358, -0.018554401238933923, -0.007117765241137201, -0.03850699680655683, -0.030866222443901078, -0.01991446675836245, -0.006896178330350861, -0.019017110689517634, 0.049291918504107544, -0.0094406093458655, -0.04535345847453427, 0.02202031316903128, -0.033094904418552916, -0.07212852179241823, -0.0005927349366137693, 0.0031761389816304204, 0.029272203715467498, 0.024643505006379223, 0.03100129359047814, 0.07863947893866817, 0.11942554503768485, 0.08774882745350687, 0.056406758380488836, 0.08841115469400569, 0.029714026560144043, 0.014379655518286466, 0.04644426750703794, -0.012171508316921117, -0.011575991441733824, -0.02874447868172118, 0.004577775631228979, -0.021103179402669398, -0.022783309694469678, -0.04288842612285195, -0.04775350773702783, -0.002701497493089986, -0.029864009154445332, 0.009944929916814399, -0.003478117185085663, 0.0028337329623334866, -0.0469786728225465, -0.014286245341447219, 0.08748399597556711, -0.032261438806519306, 0.013349203639517672, -0.02590822452704805, -0.028334415512372754, 0.049481640754094655, 0.0037956570506716635, 0.10978708528441339, 0.057462726974846855, 0.10194134907371605, 0.004962709296554446, 0.029514680349163696, 0.012879521338769812, -0.029694274477731097, 0.019610153727354033, -0.057134290510364956, -0.059205928057442965, -0.024398423665681426, -0.019493898593552737, 0.023601291783280944, 0.06304862510844308, 0.028339191199446615, -0.033854180978050576, -0.029425375699305124, 0.059191738714786134, 0.005936535810256043, 0.0058638633671346556, -0.023360120845949787, -0.049185958300625485, 0.001955730169321529, -0.04172850561161562, -0.03252256220792792, -0.04956766181007263, -0.023530309364507437, 0.04853318228384527, 0.020853036256270135, -0.02747063129598799, -0.044105481609700174, 0.0328291954113431, 0.026242180517805566, -0.014986397329060205, -0.041735363458141855, 0.004883633439326226, -0.026206517451809373, -0.09699914368799847, -0.050492287853896325, -0.006843647755607405, -0.0050132032562985535, 0.050890971926654156, 0.008181047199179281, 0.023139184273085454, 0.021659516193274792, -0.04930860286876236, 0.0014342222514914505, -0.01045279278879439, 0.0824161276580778, 0.016727078620038104, 0.03767888651891622, 0.03633485612251464, -0.05880859347866876, 0.007719299010501417, 0.02876699707272137, 0.012648821186195145, 0.04003871387863581, 0.04470482467066953, 0.03983265671879216, 0.04951773522711638, 0.013039428364675624, 0.07995295653795513, 0.02530352462589868, -0.044641460584085496, -0.09732769471003253, -0.12816473646641915, -0.07667820265828397, 0.018103034720435857, 0.01960537264656459, 0.007375932356649046, 0.057401263228863984, 0.051022805597740646, -0.042214976637269454, 0.014045090242523595, 0.003884048169777821, 0.015169416928409481, 0.05230208449704665, 0.07029894114950595, 0.04068791016142559, 0.11309585672725181, -0.049544949061040344, 0.051371398640165614, 0.10095015151370307, 0.10630238924151478, 0.14381962726233405, 0.1165669500654243, 0.1374834493703504, 0.18093535676854572, 0.18632429575592488, 0.06947539836838292, 0.007412878479157815, -0.048406859075878904, -0.07786877429887926, -0.0529414298405754, -0.09067147944255691, -0.05743118513714674, -0.0006755766315078166, 0.025593172252322067, 0.05394820581206763, -0.014591832570818173, 0.05556744152614359, 0.003289518410595808, 0.012892487312489457, 0.060314067296847844, 0.05447547862827651, 0.017748341516457804, 0.02293420053615542, 0.02914277696397941, 0.013777965914623509, -0.018429027712340965, 0.029846138358995408, 0.0745836408220579, 0.23985925473520436, 0.20831943879853013, 0.1746230831431479, 0.21670407970487957, 0.179026486138378, 0.06218062377289895, 0.05110186123057129, 0.03720736691332179, -0.03623456504137291, -0.04974067879288168, -0.08033892988310909, 0.06589554567204328, -0.029049002688423527, -0.012831817125617496, -0.035280577447444006, 0.05489233200419566, 0.01785939330700992, -0.017582705998853847, 0.031152592148738667, 0.043611796586146626, 0.020918105477726608, -0.07266454929650742, -0.051488729356749356, -0.1030432699446793, -0.02979443751230707, -0.03298322570932399, -0.07997204844937775, 0.03449162797078494, 0.1145029713917699, 0.2319807698041301, 0.22159241655740378, 0.11719339944326025, 0.09235789362503508, 0.10003161528439192, 0.027088000444436246, 0.10100497630868964, 0.011594302467761677, -0.057035267037405024, -0.01977757413692446, -0.04783787883389597, -0.025368566896451616, 0.053005845650302065, 0.025099913212221135, 0.04183587168557522, 0.028442396894993956, -0.0015960772045547518, 0.026252970985777307, 0.0016637161882409562, -0.0205644018269118, -0.06417640801604417, -0.053352094204446615, -0.10386940754385372, -0.0842510961923271, -0.17718117298621922, -0.2631969475461651, -0.1367909054562453, -0.005260670170131291, 0.03187451819934666, 0.026865460949217143, 0.02920625523281258, 0.07730873150667113, 0.13129026593951004, 0.0777673451442305, 0.1271586400918567, 0.08295372280466749, -0.05693160474473433, 0.01179274657643402, -0.026281077312783573, -0.01106808822538282, -0.008856228379931507, -0.04081915823481688, -0.06373369631431823, -0.0023926489665706927, 0.03749382083157149, -0.045269161661421024, -0.0072136094323940626, -0.08181357570586553, -0.046202218312285236, -0.09419598407186044, -0.10583334202722917, -0.20117709974980813, -0.21557752481089737, -0.4110147322070018, -0.20538362142277497, -0.12784721651119033, -0.06448341514521694, -0.09743561371827306, -0.1112593903894286, -0.03120724148605436, 0.10361026988451198, 0.11351698858537124, 0.05003095088163436, 0.031143271927406756, -0.015339437341519581, 0.013736020361454925, -0.0016563979490376549, 0.008241354475377962, 0.0005442814544231533, -0.045299682234274295, -0.01643987752142676, -0.02333628045414808, 0.0045292902767882625, 0.0073783257596075425, -0.01157477931699546, -0.016173232931013148, -0.09453910169798896, -0.1200485375034141, -0.11264908690491258, -0.2826514171539914, -0.33890013083892495, -0.4460857025526805, -0.19053806680677934, -0.08726324702600477, -0.16079715047007329, -0.14850075766643706, -0.08024442719004955, -0.08031719328152193, -0.03232941393809113, 0.014596500968234881, 0.023500447061383642, 0.022557582253756897, -0.06361301211312129, -0.037566559129423714, 0.006897896514737766, -0.023916444173415933, -0.050607271871130684, 0.019351559401815724, 0.015749849409720223, 0.020939904910641866, 0.04448216868743192, -0.011353819072302556, 0.011251012232921014, -0.03810570636110247, -0.12215562819934568, -0.07767519349391562, -0.15483146944554324, -0.13296726363784492, -0.34452408295943654, -0.2651574474269322, -0.10892358401991072, -0.11752859052162734, -0.1487398826947124, -0.15865027553136166, -0.19384150516069104, -0.06137459196772966, 0.02313272823104727, 0.04138773026133692, 0.052603750958333695, -0.01825136943063423, 0.0697908133338193, 0.0031166597677572284, -0.04056860075587667, -0.03279809763537633, 0.028717606419067895, -0.03306111527988392, 0.026359413628916646, 0.007005880861437112, 0.0160677580351201, -0.047113970418134796, 0.03519375375121473, -0.058622183286455215, -0.06660697211423175, -0.06891467900103933, -0.048540485152412466, -0.14074073611368162, -0.2092017226836401, -0.18032871881906967, -0.05317357347614778, -0.07657111799767531, -0.10966272761600407, -0.12584965301339018, -0.07138042691612799, -0.014008637329287112, -0.009481709488868052, 0.02119990456936323, 0.023880516911895404, -0.0037664635789372196, -0.0025323094186120417, -0.023005883069556952, 0.011569970762158974, -0.035767850436729635, -0.03298230453213098, -0.010667814647066995, -0.02839334101632153, -0.008803424373139359, 0.009168276209581399, 0.047115491866944664, 0.006360882849410355, 0.04236273229316753, 0.06630217742919495, 0.010063219641171003, -0.038430721046073195, -0.06618989247077209, -0.17535977067257863, -0.15883246502874335, -0.07953046240782732, -0.05081737601234441, -0.08125456481469279, -0.06627123093604688, -0.06741374927826477, 0.026791177911603948, 0.016251511534372688, 0.03806507184715308, -0.012914471602668681, -0.016897037627540145, -0.05742595120445035, -0.004658651698758361, 0.027900971738482785, -0.0678945128118853, 0.04203435694185255, -0.02686901823155113, -0.017623040568719616, -0.003960287324966033, -0.03526362845330515, 0.061872784178764954, 0.05839224887967096, 0.045609874109865854, 0.020881147096407104, 0.07002636318216844, -0.038359567687187825, -0.048268633632745875, -0.10630790013201567, -0.11243181388574441, 0.008027122810372135, -0.02798369346847822, 0.053892804726450104, -0.030373859461325953, -0.03240596875091112, -0.04528612692550472, -0.04780996895021825, 0.008380300034815056, 0.017030282195905945, 0.06095618316633447, 0.001594874456651618, 0.07584037850857439, 0.03195332602590293, 0.03423784350537589, -0.009123126217025537, -0.059826342705697234, -0.036735178115944706, -0.04694236895255301, -0.07638596597077042, 0.05920898801893414, 0.08256065873510748, 0.12683886903067934, 0.04429175016775063, 0.01961633322020171, 0.05361680200485082, -0.021125043093651156, -0.04633039677377476, 0.11148293102312612, 0.1403497528483139, 0.09657915913178125, 0.0541741173088896, 0.0007747919750771839, -0.012436609880584905, -0.011924409841172604, -0.037355966755723176, 0.007547458858198177, -0.026907223794239335, 0.021296018271985972, 0.020049080547784082, 0.05683672899126821, -0.0037300696969439994, 0.08906477926264243, 0.012492979993718139, 0.0011943602905206676, -0.013269727302231202, -0.044493168876367575, -0.018752917779198124, 0.08908191311127163, 0.06291370659267799, 0.09932908119260146, 0.08013802707309797, 0.020345982914796088, 0.04714930612311586, -0.015707777706055904, 0.07468492961236091, 0.09442791902117165, 0.16691417843338127, 0.15508886998135543, 0.0759605278358268, -0.018469449179846064, -0.05185026714062039, -0.07185009111120472, 0.01324843736857755, -0.013289539464217308, 0.016227490901726208, 0.09539713532060413, 0.02289751896239219, 0.06764833863837304, 0.07034575227760322, -0.03948183737290495, -0.005839411145156861, 0.03841934491157023, -0.010593452038585926, -0.006312798572073493, 0.00519609916104985, -0.031041448454223238, 0.025948130549441978, 0.037365404980423525, 0.09118705253499142, 0.07627944322417411, 0.14239310114880063, 0.0552578423194255, 0.07161977494911065, -0.004519092413225239, 0.026277580781858073, 0.059084358372687405, -0.010957483619465462, -0.06562138830761789, -0.07940144942682842, -0.10561558933555937, 0.0011785181393972955, 0.00784565645160152, 0.0021439623224686157, 0.07634201326995484, 0.07375051183116073, 0.025489289877107236, -0.0010530802967148147, 0.0022317616175594464, -0.0020917143576438062, 0.04334377130234059, -0.004154034023916262, 0.027596853819724453, -0.06638847561924732, -0.012050496400542716, 0.06976239746001596, 0.04719044400096944, 0.045154090826012454, 0.06309127531411099, 0.147679776077244, 0.035898254687007004, 0.04650411109343188, -0.04627725672130087, -0.03976052912866632, -0.0380710266206193, -0.04050487110282974, -0.08708094543978144, -0.01267580627861088, -0.0924258884200206, -0.028364660160566556, -0.026745501958444527, 0.025293867807643203, 0.032201861746345144, -0.028656614394684317, -0.015060134954365135, 0.031004441599401442, 0.03785168992740751, 0.016025398334135053, -0.05227642445885189, -0.022555075736444892, -0.010740424184584915, -0.028640722233476492, -0.006918957243887219, -0.03566153023975081, 0.025043055076351198, -0.03600961255595054, 0.003949346057597081, 0.06726126124693418, -0.004966025939851149, -0.037067480484295985, -0.06122207178511941, -0.09080660182761115,