{"sizes": [784, 30, 20, 10], "weights": [[[-0.011387320221211725, 0.0042856049419172735, 0.001880099292945363, -0.003691306690448479, 0.0015525999491427967, 0.0007892528978548551, -0.003988866511514368, 0.0007215500086300437, 0.0054641908749685835, -2.6658623989404002e-05, -0.008053858323463484, -0.015094275918657588, 0.015498835934252619, 0.015505494308115783, 0.0015086102717660433, 0.0013933969518120325, 0.0014587153818579983, 0.00464457222487039, -0.014131816104806703, -0.009282356693719122, 0.0021091648490355226, 0.004837075549340919, 0.004379718499496951, -0.005129942741133802, -0.01037214430800873, -0.0023762478003107657, 0.002782966267384038, -0.004404034740384141, -0.0197940535803847, -0.004648223460901574, -0.025057036249731986, 0.004709982540715548, -0.00602498816104557, 0.007948709126588977, 0.004519496604944814, 0.0063450724272092075, -0.008241496422110289, 0.0013392851559000485, 0.005486387617742363, 0.014172827391067105, 0.06107626094844464, 0.029365355039330063, -0.007473924655652205, 0.0188675172296747, 0.008913469870632454, 0.009227250241120961, 0.0024082763304798913, 0.0011619301901244646, 0.016197688948620937, -0.002921915678788094, -0.0016015722215446013, 0.0012629377802656975, 0.0013010101080826997, 0.009399339725104502, -0.005569346174623036, -0.0052100511873444545, 0.0013150060069394328, -0.0008691150777646291, -0.007689819315078212, -0.005726348787805472, 0.0034629248186441143, -0.004596008485266671, -0.0011088768551441848, 0.029794939831716494, 0.03694941432165376, 0.031728047183040155, 0.011701601102895741, 0.04110200733038656, 0.09003215762579837, 0.08951688151233156, 0.09713319919166771, 0.11751124479162249, 0.1257283194652956, 0.1626228175186704, 0.13594313203623637, 0.10459761699609757, 0.0767440635521731, 0.053936084264487774, 0.028959384203300326, -0.00020562002307883005, -0.00041193878036079463, 0.015571939987164073, 0.009274068224927752, -0.0012737713277776088, -0.023230742924147913, -0.0021046378703162565, 0.008462004707088622, -0.018330311597864034, 0.009591102903132514, -0.016648351894600226, 0.010511979305205754, -0.016993249652560088, -0.04136353794944617, -0.08115471117738893, -0.10651154169334413, -0.10965489982124249, -0.28824501162247435, -0.3228013631549779, 0.01629978192818742, -0.0012989662017099041, -0.00814657589355473, 0.23711790806361113, 0.4986233239891197, 0.369502192635721, 0.21362793447806974, 0.1774510238401311, 0.0986082044417005, 0.0565631329816438, -0.011169578632451788, 0.0017814782742575147, 0.007230313417191107, -0.00794589096749135, -0.021050352318795113, -0.019791585636136397, 0.005000202980342908, -0.009756211322970556, -0.029069136738067318, -0.18591784989737994, -0.15060741876893313, -0.05490636847686752, -0.2423898117256258, -0.18233626353548524, -0.33340996771070297, -0.1570895726663036, -0.22410331595359126, -0.36919815217418606, 0.18859306620003863, -0.1289362701035447, -0.07602580087219346, 0.0820212250689116, -0.08943456073572043, 0.15369278488326532, 0.2959865848370774, 0.3254677394835169, 0.2514226460071217, 0.2123234352607907, 0.04879184829221262, 0.023770237421093975, -0.002017206927270733, 0.007894547777485848, -0.0005066782740786656, -0.006620829521833989, 0.005466196934662621, -0.04138380439421409, -0.26958158186035014, -0.43373262220602266, -0.32791489035003357, -0.2976783948261574, -0.25853611480186545, -0.06963595671474107, -0.2153626087756028, -0.03605420213694848, -0.14904540617247114, -0.1557614337521381, -0.010698854988888545, -0.3276229340560208, -0.19018950425121592, 0.0399834497511423, 0.013085339289490712, 0.2759286595732151, 0.338046597150044, 0.45107474732500835, 0.498796911352138, 0.37154596008519014, 0.058516310658453814, 0.029449196281864074, 0.005424795386630741, -0.006693289268200211, 0.016844806628547183, -0.01008111204034597, -0.011487780096149645, -0.12191816541168271, -0.285988109192941, -0.2318993706258203, -0.5547780971578069, -0.1777416821315513, 0.032282527405046425, -0.08863559617817669, -0.14130529790980434, -0.3554714592860629, 0.08627582304876559, -0.1852827871080066, -0.20772391481232558, 0.16584473938208413, -0.005879374056530875, 0.12412625884023108, -0.19429624569839488, 0.2740443829308509, 0.025271096972464203, 0.17526078059218173, 0.4750255204980575, 0.3205191476309636, 0.08127435047263808, 0.04535983323294405, 0.05256396932299147, 0.01326003882659711, -0.00534015482155943, 0.002589536458596017, -0.02180365237600894, -0.1640610954813667, -0.30414347432433864, -0.1361316552761548, -0.3412972824622278, 0.09917598534347545, 0.18175984281575566, 0.08097889641595593, 0.1706594112881537, -0.13973491394550377, -0.1478552876820043, -0.30225064534476354, -0.07580413264828435, 0.3185365991331962, 0.048769349353303716, 0.06878034247713447, 0.08001616019197565, -0.08724846345637086, 0.3586188211066314, 0.5348889655011547, 0.6389665732267197, 0.31518113944637555, 0.16370672716669893, 0.05865963800414022, 0.008506565850662756, 0.0023579996082006578, 0.011401043808560484, 0.010092126069578277, -0.03076917506456058, -0.05194637384009983, -0.187065945701548, -0.02981347366271291, -0.02548472693290503, 0.0034553674975007723, 0.11674711087176458, -0.24462548963793346, -0.3815097633336574, 0.16612382320684618, 0.04737974725915629, -0.008001551758530952, -0.03461888517915594, -0.39874447612462893, 0.006302310266820652, -0.1282885690504663, -0.13868474587746502, -0.16932311861634347, 0.5023228356366772, 0.7484525327315642, 0.48577430098957375, 0.3831696700062177, 0.20047343808398577, 0.08175392916343897, -4.20965105997033e-05, -0.0020906998128951853, -0.015232362888749044, 0.0007813679663971714, -0.002243153410848143, -0.013553139967358307, -0.15009706341857812, -0.04753040604356774, -0.04195633844456566, -0.03566471806947533, 0.2674382101394001, 0.354858594904967, 0.7966766912776219, 0.42637691099626396, 0.3178441067701412, 0.05429788365529033, -0.38623541102747505, -0.7677560424009136, -0.32468914544204097, -0.3187902726927382, -0.020039471313903278, 0.15043743466469356, 0.7292714540759169, 0.8064381024237363, 0.49001294866109735, 0.3002918041844178, 0.10165683626870964, 0.08635123961879183, 0.00748860028885265, 0.00611661529834217, -0.006794429366117492, -0.01357778327211842, -0.014658022074071889, -0.04824934741912687, 0.07584223993765571, 0.23100291172691564, 0.42452113396667424, 0.6875544198472058, 1.1266134022643093, 0.7698440510725935, 0.5021175704264449, 0.2552125773182753, 0.14713169511060317, -0.47765562738029227, -0.5888419936677793, -0.5446427611086633, -0.6240865024548059, -0.12966917349287194, 0.2823018885349161, 0.4055380772738021, 0.6895947001560258, 0.6811071024277303, 0.41620818174765684, 0.12184412435423587, 0.02997242864433497, -0.04228696114165639, -0.016856590507398572, 0.01046586342637097, -0.008218209742707447, -0.0017995833792510828, 0.0023083241501793777, -0.039131654837676465, 0.10757250393131321, 0.3307766781560371, 0.5785726764025559, 0.48472426083444753, 0.174630285632322, 0.1768396905252379, -0.08312665895456586, -0.1344924886516691, -0.49622938449280685, -0.06759213583914807, -0.8970663893804833, -0.0634441172897595, 0.348179567451536, 0.3565900135976015, 0.3909725031434143, 0.6941672848386101, 0.4496963158148548, 0.5210359084041774, 0.2963903850824921, 0.11542786844748457, 0.03424081100138567, -0.012479770575530518, -0.00740964139464125, 0.009413646588845349, 0.008543566856452172, -0.009616853475657708, -0.00018817322563976176, 0.002806110345588435, 0.12855905959573807, 0.19305007228825158, 0.39711863325287217, 0.21115777801474217, -0.1135636962246956, -0.45814679197804276, -0.30958817794589566, -0.18466294790829282, -0.2815449776765515, -0.27013536247706066, -0.7785708204812098, 0.24013183594023702, 0.3288087734259172, 0.5798600716647784, 0.1643936348623803, 0.36724409712698, 0.40247394578047657, 0.3043740486681937, 0.2293871300814474, 0.08375892668715641, -0.11940444875938318, -0.14903446457519742, -0.06835583012086079, -0.01606582656501033, 0.000530355548532825, -0.018089482347270966, 0.006084695189292788, -0.0036584410217659676, 0.05397799642717021, 0.13941328817033793, -0.025830669181725326, 0.07145895423574691, 0.04894431765142936, -0.15463474919027384, -0.3609637921214592, -0.2953831922623446, 0.034584149542533756, -0.2519038452592394, -0.39468900104595256, 0.08932524305508961, -0.11421046441580074, 0.06664335472183783, 0.06874991117430661, 0.14000200506765775, 0.035902717626671694, -0.1479366346262441, 0.08954815394448588, -0.05565989485635755, -0.1417919938788913, -0.16386306181218857, -0.0480943885171115, 0.003250435323186012, 0.002628701242776903, 0.012971217062186485, 0.0006551176170452484, -0.015739591674977047, 0.0539526308114059, 0.024986528325528203, -0.030201510839919316, 0.0982723658740939, -0.11899307293779043, -0.08485639967995058, 0.20921775936787687, 0.09159386321137362, 0.07228588640078733, -0.019342732268847206, -0.3458297676353075, 0.05946726618450099, 0.11484132025954066, 0.22512105849072428, 0.44613721248034244, 0.07269888499458106, 0.12852761144693123, -0.21028443403176908, -0.04617482256156597, -0.10571087393379787, -0.06252744146082528, -0.15019441164236574, -0.02294308999070677, 0.014793705614802307, -0.0006089886320779093, -0.007936072529469552, -0.0011684725149183402, -0.004275691875362548, 0.12092341631875404, 0.006496456856103945, 0.006574813376872698, -0.17515257122058253, -0.18186869738787978, -0.20257854982484028, 0.027913445211062655, 0.027930998051347845, -0.09936279032878281, -0.2772082293200446, -0.10973544024856342, 0.1400750150190551, 0.030264868915471237, 0.24938198583440233, 0.36404414467763724, -0.17344045628477134, 0.11202852595785569, -0.08123952468816793, -0.044411945294142906, 0.2057503667087764, -0.10280409327501658, -0.20191283926793152, -0.052281668657641917, -0.0004839930242892581, -0.005216677359815263, -0.005211093726226418, -0.00037747320860907155, 0.01572593346279372, 0.16255430652823047, 0.21964861497285526, -0.02130089736360081, -0.23375354424565206, -0.20079262831320008, -0.20643866747826908, -0.07408000085918523, -0.03439808185212331, 0.00017159027166268806, 0.0648373852722572, -0.1949758387462507, 0.3851289270534203, 0.04133322968819818, 0.5181334954457161, -0.12200224598807369, -0.18891140359006867, -0.050570986965601826, 0.10944395560975297, -0.02010209734201777, 0.03944189533224733, -0.14617306605640568, -0.18337512482315566, -0.063706227235282, 0.007163127061769701, 0.00979823144348933, -0.017699172382131777, -0.03144470115463294, -0.00750663706150728, 0.1458639475135915, 0.3072305928304639, 0.13518958190156546, 0.04604829817391863, 0.020076852680917592, 0.015636015526021965, 0.00637930093532753, 0.21941406699973515, 0.2704145792198622, 0.09884392214776488, -0.09422240774877445, 0.21445776436269953, 0.1418719760731668, 0.21534463869925147, 0.03141657707532601, -0.13577735709991268, 0.12253331591727445, -0.2434123155739616, -0.11976822871553168, -0.2100185141221164, -0.1277997756932433, -0.11591042965753838, -0.04043692253596161, 0.0112879922193217, 0.01150815271338245, -0.0029286693545238687, -0.02379895569976805, -0.06181762632003733, -0.007327987743244306, 0.10062097554124229, 0.001082289721364468, 0.15970762525874568, -0.19211516779576512, -0.016526331893162088, 0.17060406528785618, 0.2625884825225192, 0.3672708928128552, 0.020034985223520443, 0.2872694621419287, 0.08375215034667631, -0.0013476552353756375, 0.0018709706110315413, -0.02146659646729176, 0.08916876093352394, -0.17621381756190974, -0.48100625187775703, -0.34290229089881513, -0.28583083624029804, -0.22047394645179844, -0.17080832636905388, -0.033006538450172325, -0.03201196607184405, -0.005662655323030498, -0.00579855293123942, 0.11148689581809135, 0.008857375956087571, 0.06915313207197778, 0.12481024242123448, 0.05120991560064602, 0.07463813754471199, 0.2559573662733259, 0.1745476961337728, 0.202754361335359, 0.41042447681562705, 0.18433789300391315, -0.24196092575792943, -0.09147582138823353, 0.05686905140782106, 0.03353162180735515, -0.05222904675175079, -0.2492969271654252, -0.041694948656448814, -0.1312320248928414, -0.1939194561968887, -0.16013458369779196, -0.24682559368554957, -0.11136504772144573, -0.11099184966282923, -0.03572246503265052, 0.0026242980278397316, 0.010256847064508771, 0.020491735378400277, 0.0797336335291158, 0.05617148320101943, 0.12175067165806484, 0.15947293085717795, -0.16050465100103864, -0.16733455906125755, 0.2004763503821341, -0.2873662301896188, -0.07674080228392795, -0.021388883686565392, -0.21634956627581198, -0.037445796665308444, 0.18162575557237248, 0.016617793427945567, 0.0054137186131995195, 0.02450818580233695, -0.282179668038131, 0.20510126064489625, -0.13216421146442722, 0.09223765808078417, -0.07600919854938612, 0.03846908188203207, 0.014612938279699408, -0.03405536891371286, -0.012801807247164369, 0.0003664003631463432, -0.007904694779955144, 0.004102333286760901, -0.021404794118761925, -0.020927509490735595, 0.02065182880155192, 0.09166253613972365, 0.03159931570492645, -0.05113933182208766, 0.2280491636952426, 0.15512016452073266, 0.04773730122437862, 0.10362335841075929, -0.17791130391643217, 0.4528778881187661, 0.1730593192723202, -0.07167224477769982, 0.1288544196653685, 0.18921857329177383, -0.07283659419337356, -0.018886145077533854, 0.043365464343800175, 0.2698223741570207, 0.1612383794191996, 0.13557674635220046, -0.012879151321196167, -0.009128005091915912, 0.005256227839701596, 0.0019577568684137053, -0.0009131060560359456, -0.004349585874564978, -0.02221128238591248, -0.09039105760889388, -0.04007465807570627, 0.02869062465236602, -0.06481985519979482, -0.22820939539307336, 0.15307766826240932, 0.11061448005384619, -0.056569818921292474, 0.20951168251023417, 0.24759161098891697, 0.16209679752800382, 0.13082828034255922, 0.031311155040795256, 0.29513600101122245, 0.3547766035531463, -0.036258677248828815, -0.058720588249561646, -0.19528745756696095, 0.16651637952224713, 0.2472884490709883, 0.06569737672226186, 0.028619942608361648, 0.01489933645348031, -8.127138748814124e-05, -0.016934713272760898, 0.006934732413416302, -0.0031797873178354397, -0.0057037643417583985, -0.065675238600586, -0.08816650845348373, 0.026136538541221773, 0.12730894048968266, -0.08039003123850744, 0.1002883606787161, -0.13300978138012343, -0.12754553668104798, -0.2848568514336535, -0.12294346909475903, 0.0022932264479755193, 0.13243747146052692, -0.07711618654539618, 0.11652283451310717, 0.041321424492866674, 0.11565166591595695, 0.04679684814872667, 0.08214916525254931, 0.1790928898749094, 0.10307085946853929, 0.08940647988645958, 0.0149916571076632, -0.0062478580072274975, -0.004892753094613852, -0.0048445466166247165, -0.007514731432359176, 0.0036644782334675496, 0.008259844130381453, -0.03312271047619385, -0.15087213456772255, -0.13073388751860746, -0.1780581339395747, -0.16180798218949616, -0.09117980459597566, -0.14805877966243697, 0.02508572199470474, -0.048178376568784056, 0.07386908209099431, -0.0715070213605791, -0.3396267999067795, 0.09217009413177675, 0.24138304780881553, 0.02329529073269192, 0.15446284326892207, 0.1455749491917756, 0.148311609469627, -0.0012026275388213538, -0.02114237807242015, 0.04340422323684601, 0.0070064101704462025, -0.0033376941707177455, 0.006216365225008361, 0.007826017732898679, -0.0044069668038025575, -0.010666523338423963, 0.003769223747778073, 0.00468239163182585, -0.1091684611074845, -0.20471987347042542, -0.27715452375716065, -0.29317399889614454, -0.22372981973788025, -0.20165937619922192, -0.05194100293348406, 0.17160338180571527, 0.06482572458770886, 0.017626723953366532, 0.11917018082112277, 0.19877562742084412, 0.2014852897144115, 0.14013516844851234, 0.008130712651326494, -0.026642577127272745, 0.0249204535743073, 0.05150771106808985, 0.05275124974489943, 0.014762842623148743, 0.006175088944303853, -0.0024474097509819387, 0.002778593615836411, -0.002137306738496065, 0.0045023034256330835, -0.006367926103812692, 0.0005499651161037212, -0.010790937344816297, 0.012279610684797295, -0.010323682958611108, -0.0056994204586700474, 0.0018532127572821785, 0.02357472378705026, 0.051051997680454694, 0.07602261314834484, 0.07288585297557096, 0.1727158006490559, 0.12842195483661006, 0.19410497211173355, 0.14571358527654812, 0.11403072583369962, 0.06950460221752813, 0.057278197056343794, 0.036068768709039724, 0.040433160565318184, 0.030987488145014005, 0.009452894400893537, 0.0013258710492893106, -0.010801185973024948, 0.007693054657366739, 0.005606337890492519, 0.004305646357288899, 0.011537838657425479, 0.012637563718203178, -0.006237493055686339, 0.009269573798226275, -0.0053485144791499545, 0.00422575954211245, 0.007935335624958855, 0.0007119085367226015, 0.0015802123920526435, -0.0019645680546991973, 0.010253137645019235, 0.013615882274729386, 0.026814858423346338, 0.01536019472806378, 0.029442317095213867, 0.0008457424423837875, -0.007306009388548913, 0.010221598432646604, 0.013475221514417867, 0.0067948968439711195, 0.01713750965640861, 0.0005381537178961294, 0.0019580401886595817, 0.009570129700083864, -0.0007729369297388658, -0.007263055009351207, 0.004100143958579136, 0.006318672107861682], [-0.0162228271407572, -0.010394763637602044, -0.008067106957950385, 0.00037920362688459664, -0.008166804981734605, -0.012880485789821705, 1.3981455831374813e-05, -0.012411222195672604, 0.00046504466221539056, -0.007178873072471336, -0.003723717912937929, -0.001960996721000162, -0.010389464913701511, 0.007690398317983507, 0.004203865094325783, -0.011058592781123276, -0.01005286919551525, 0.01274391793530586, 0.005709597975762577, 0.0011872894896702614, -0.004564403709412309, -0.010830332361799169, -0.011050764804047307, 0.010269770256222879, 0.010422229412497397, 0.010225010656118274, -0.0030375469236555066, 0.021128670852814568, -0.012410931670556697, 0.002435930243497729, 0.00045042759198889637, -0.009479482682075283, 0.003805445566982178, 0.012989933416445738, -0.02737904914714445, -0.05615293609597533, -0.05846768677575315, -0.02275569999888733, -0.030300767758855644, -0.02295928554290444, -0.03145471763176548, -0.020599560642925514, -0.00379254165107997, -0.030418806796418514, -0.06867456016918412, -0.022550688166937474, 0.005165415700021745, -0.012613028628550805, 0.011008289021205108, -0.01479224100057112, -0.03239674191371522, -0.011266423466016548, 0.01065942402202076, 0.004231772545192636, -0.002666217069471117, 0.0021553221433297793, 0.004932465350282514, -0.005631308443283465, -0.018480440071529852, 0.011167057148554076, -0.005973574402403289, 0.00043939863433138654, -0.02450208590590774, -0.08738266112992207, -0.0892328382236506, -0.050560970907826484, -0.10591060290938717, -0.07525661599499293, -0.09037836958411423, -0.09556915103404531, -0.061826100168712816, -0.05002031951555699, -0.058888199623120134, -0.07441206197441375, -0.026536460743048225, -0.020873359942148405, -0.004855695952855857, 0.005641955265754761, -0.009086942522528082, -0.01670760772328216, 0.017483535482345252, 0.005858439629911385, 0.005404285460197282, -0.011066687577580465, -0.0011216544320958354, -0.00907702712125319, -0.0020254757404228915, -0.006742007047183476, -0.008701838013986787, -0.0074877718965856025, -0.05273520250141441, -0.09745528285467646, -0.13548711650397494, -0.1646176697584541, -0.21098243900955765, -0.18641940311120175, -0.16579969035606057, -0.28088825975842374, -0.3212826548822388, -0.21190596394828662, 0.0018197851949908657, 0.06898264813044755, -0.0690058683830652, 0.026246046563419296, 0.0030215703453218014, -0.0889945215450064, -0.05607000687901477, -0.017786698236674447, -0.006258973230322789, 0.0030953945350752606, -0.006251842045472929, -0.0008185299766820316, -0.006411523019112141, 0.003061690935366893, 0.003375862746708012, 0.005491211091065649, 0.0016243318280675131, -0.0010085826885157998, -0.04763311679195172, -0.09822036817845031, -0.20557275190556712, -0.29089205761092607, -0.3059869441983755, -0.2627517424428183, -0.3411603940884857, -0.49211681525434275, -0.5231024288574482, -0.347337887429322, 0.050009962044905716, -0.15808465749384193, -0.1401378650401401, 0.0887252846099649, 0.07878679138988362, 0.06647895012975609, 0.10370092662944881, 0.08179331234717327, -0.03894450911502249, -0.06951142506963282, -0.040488074882712825, -0.005912223504092795, -0.015025196388540319, -0.0005982885844909579, -0.002794188857877483, 0.004289254660104558, 0.01347844476225756, 0.0823873866497429, 0.01864205919850559, 0.005491617141392018, 0.09394900424795925, 0.26472759259789386, -0.09912963821987716, -0.025579289267706, -0.20232490274953424, -0.4973384562095086, -0.4601710916445273, -0.351169212387083, -0.06338075327005771, 0.017366767083162652, 0.17572694912040127, -0.26707649868602046, -0.26481459285217407, -0.13569096847940157, -0.03383522117667855, 0.05644796813776029, 0.06940387356226736, -0.07059388633998075, -0.012606521269828827, -0.0009234902865614056, 0.004793405772096404, 0.009663013742154117, -0.005370639663852622, 0.02981155073242198, 0.1025900166228259, 0.16194204927538, 0.10606911764041091, -0.009755039972319544, 0.07067936843706181, 0.1278205940832031, 0.008709614426600589, 0.1392387665751238, -0.24636584320749874, -0.29523632046831144, -0.2154163515428022, -0.25748536826959145, 0.3395478168957675, 0.7680665270339682, 0.7270569205808531, -0.1534539494695094, -0.018015819239141972, 0.11319382832683758, -0.2580528662531417, -0.43859560625822136, -0.2151147644103801, -0.09978348119860843, -0.02419763026404695, -0.011853593107243975, 0.016184390705389694, -0.0065033453469286835, 0.03353535268709992, 0.1245901312197976, 0.10431603009431557, -0.13887445989008218, 0.016438547146907487, 0.10140335531978915, -0.043014105776226545, 0.14268811574467655, 0.23214086060194922, -0.06497963245576166, -0.17627525523532117, -0.43715733108353994, -0.5159777522269144, -0.16483942311404762, 0.28058777400638113, 0.2732209148484426, 0.13738515319133096, 0.2641023598481416, 0.18305739579016445, 0.012902693350460718, -0.1150895234202025, -0.17535299974638305, -0.36361376405723694, -0.1994935099853697, 0.04220366255023172, -0.00339016876226657, -0.009621557677929578, 0.003805582607481963, 0.05460825530702775, 0.13695444579791713, 0.06614795662433667, 0.15907245953564492, 0.025044515604190014, 0.005958539624092512, 0.31877353406777387, 0.1544828006568391, 0.0446848675698801, 0.012314755157857928, -0.14062245878838267, -0.5055093173354419, -0.7140443686827098, 0.22553489494180096, 0.18509067945081167, 0.09643645113235268, 0.12710632452657894, 0.09503023539244627, -0.08341227386127016, -0.04445339859647626, -0.08224591603538532, -0.1703549566442126, -0.5156028870110284, -0.23549342485463542, -0.07104349967111197, -0.026875107238096028, -0.0034790429344394727, 0.016343501411339147, 0.05260799514515558, 0.17500752872757297, 0.17052286121603571, 0.12359105901129241, 0.10898565775785217, -0.03527401206652115, 0.02899572119856045, 0.16360904493857006, 0.16267730216686255, 0.18833709154547368, -0.030784188089308783, -0.32433374871931375, -0.40591543618714415, 0.23439868274347742, 0.454844729486983, 0.5648199256680779, 0.11593269033003353, -0.09238908622060059, 0.009063658561490332, -0.22330693718038955, -0.0811804823420999, -0.3111127233249944, -0.31064829802885074, -0.3175827886423327, -0.105151613868647, 0.12042566044174581, 0.004290217451064125, 0.02698083364211506, 0.07609339218161298, 0.12709171158752558, 0.265009192458601, 0.20022671886031404, -0.14531834003917052, -0.4202256935852872, -0.004498004975140993, 0.13328614916084877, 0.028578386322406415, 0.1279880107778499, -0.03266071980584642, -0.2466795276223097, -0.298136128372125, 0.5165269651228698, 0.6219106437227585, 0.2283152497898642, 0.10017452993052596, 0.042864765784556697, 0.19843795004470172, -0.01180214852551432, 0.07904677443145672, -0.31292116276028087, -0.41234789322278764, -0.10718644012011833, -0.0616073865369972, 0.02336416949175475, 0.005028785457787938, -0.008566894495681734, 0.09601712004126439, 0.1579793004234811, 0.2246539009313293, 0.13201120725431623, 0.11869404842071402, 0.11381429129306218, 0.10059568341338225, 0.30216890776365335, 0.2895635868163766, 0.07415851528637364, -0.43479795528178816, -0.5273317504132305, -0.05311063226936746, 0.586412751123837, 0.08988176989645308, 0.3128606527626005, 0.2129601609400702, -0.24680151767889164, 0.3040482795517206, 0.44794611221154806, 0.4218032020850877, -0.16984911550433676, -0.5594139680633489, -0.1501701441713676, -0.056994019484305915, 0.006855386208865099, 0.0020181784534397144, 0.012093993724784858, 0.08638955694945334, 0.07975795131226315, 0.2059663722150573, -0.06424645012007271, -0.1069001529168903, 0.22215738825136333, 0.0703173430512444, -0.10296001521283821, -0.057466003733102664, -0.05905887384528755, -0.500532523744928, -0.3391148768282153, 0.21155997180222108, 0.549421604685795, 0.5757729377032735, 0.2504037880639498, 0.603840474108143, -0.026715059301155253, 0.01296269209280369, 0.234657753460291, 0.6055722805718372, 0.11975132863149018, -0.28975221035749527, -0.10425200470883017, 0.013463147122359317, 0.022553838882200573, -0.003738618315834334, 0.018352739449140003, 0.07500878697233294, -0.019469283978933934, 0.3666953493770279, 0.05504920670497104, -0.2405575333664642, 0.11504916406067797, -0.19526389261987184, -0.40875000416508794, -0.0723345281394334, -0.03254934638056184, -0.04249373937784508, -0.07628462479982225, 0.28912714976759585, 0.32636410813736794, 0.3534769127135719, 0.33513481688290037, 0.4502381442953358, 0.18504377640430322, 0.2443188024996464, 0.4093499393075474, 0.3887870869981116, 0.0954052511832079, 0.020679829060048015, -0.09837005464990176, -0.03685607738478273, -0.022952181389919134, -0.0008032648254398324, 0.008078744281522034, 0.02773359912906516, -0.013326178036987497, 0.18064210437343228, -0.09352838495013933, -0.054142793555122574, 0.1867080031872902, -0.03653192070119065, 0.20277765312077395, 0.08747056239506716, 0.1329709830115967, 0.025451780848686396, -0.2391249866237316, 0.06154227755667871, 0.45135707674370823, 0.18330872023716074, 0.22243119213604007, 0.3225256708149743, 0.2807973334268975, 0.3464864754872876, 0.3443756422288156, 0.47834007680694657, 0.2952809862389608, -0.1469466198110441, -0.1194230036370321, -0.024786903009665486, 0.00984959196730753, 0.00938310257464375, -0.00211465158337756, 0.0016142900455122123, -0.07228455321504011, -0.040141750001482054, -0.170844160283051, -0.10671475393205719, -0.18885120795231472, 0.10334678267354029, 0.15816818730033197, 0.17339847203138442, 0.02989063692882954, -0.28859701344703165, -0.07914309149826457, -0.12870327211625215, 0.33405378080558584, 0.0934362108364416, -0.000247147359781721, 0.3167848622893501, 0.12103513735865756, 0.0940054166080758, 0.3675782185494541, 0.3650057841032123, 0.006696646988486746, -0.28297879780163143, -0.18792230766569704, -0.029693272252674267, -0.002699512419952458, 0.0002855482837482583, -0.0033242866662984436, -0.01182699356739719, -0.1252528555758139, -0.09304135124530459, -0.2170673184911048, -0.07493505577689757, 0.14418795759647995, 0.06250912519503792, -0.22669917909176107, 0.08339048363280085, 0.12871806263664984, -0.09570470481025807, -0.004111786094307153, -0.22252880497093397, 0.17421341715632738, 0.2085770753524527, 0.054665809981551225, -0.020642769462460124, -0.15222912860247298, -0.19189557095057785, 0.07530504004377551, -0.09185967228473887, -0.27795009257365755, -0.28639992803208747, -0.19032153640653757, -0.06394276075828248, -0.002451658900535514, -0.014360773494277088, -0.001848164073623629, -0.03142950665481745, -0.14632415768893905, -0.22803932925002396, -0.2564452707638207, -0.5055876332161944, -0.11937195974051726, -0.02329608842607726, -0.06929282903309529, -0.017525836305057052, -0.07531394261845825, -0.002979805110590016, -0.023921317742300646, -0.1307573042062551, 0.18565210429570256, 0.053801014228327435, 0.0003149949145449069, 0.32145520933805216, -0.31166292517681865, -0.25435281858790265, -0.03235164495151027, -0.11768152821188087, -0.10765443749546737, -0.167564974336941, -0.021430265636983713, 0.03579719349043714, -0.028620556822309868, -0.011830457241782015, -0.007772171441741066, -0.008581504662133189, -0.16951437752673562, -0.25195083409131397, -0.5504867338829911, -0.8684443272716393, -0.53646188023338, -0.15839320449909294, -0.3305476879856295, -0.1644970727125487, -0.1666769492737574, -0.3592403638421333, -0.25134073189532, -0.34565518248762134, -0.1445845338163089, -0.03909514982341479, 0.32254887753739836, -0.032861369293325254, -0.32085238254466264, -0.15686382130907187, -0.03657354975016515, -0.33846090589109007, -0.5627639520928598, -0.3660437541178365, -0.04779103640095431, 0.03735336384848401, 0.0016534890101344815, 0.000510430827154089, -0.008577871034804629, 0.0027418361576915227, -0.12171845650191744, -0.29491844010628526, -0.6553760873662081, -0.6389377705339083, -0.31598731878861125, -0.3826750053736668, -0.34469400969474107, -0.29978841997775946, -0.19329813260924544, -0.1617468200963988, -0.4959618611082649, -0.37646602158187026, -0.20769174077992386, -0.09095025583554467, 0.07008937398199944, -0.3858976583057175, -0.26165778377872007, -0.2852991875855264, -0.3782556182646013, -0.6717267686574446, -0.639953043762378, -0.3150236063312727, -0.01951280088114279, -0.011399309580761078, -0.0057340887012225375, -0.009243950428852506, -0.00991064395290581, -0.02385736019345331, -0.07147812542040692, -0.20011407821995997, -0.35037516435882277, -0.12037896948683659, -0.24461405855179816, -0.2075081838819692, -0.4696161530990653, -0.3955060646947287, -0.2781243084010405, -0.32202308336252816, -0.1460094846374023, 0.04081929191493445, -0.0872358616905166, -0.001823933129583097, -0.33814450035413496, -0.2359972902329336, -0.31887355845271415, -0.34710647269203443, -0.18085664895095757, -0.21261277184110422, -0.3558853022744318, -0.13196727346055412, -0.00014345043493595177, -0.022841181307735305, -0.0015684965646939797, -0.01335928976079124, -0.002305817629392672, -0.014183434518625382, 0.010636443036347636, -0.0712957746358262, 0.06353949418032184, 0.1561063917662938, -0.03153775548541913, -0.13661986390805986, 0.10836924361918661, 0.35790557416183344, -0.19349403965682477, -0.08054741583187755, -0.010261115687341366, -0.043323678459992805, -0.2052951557602155, -0.05408165230242359, -0.4336378896327529, 0.07260710648766419, -0.3427096436565778, -0.05712530486940812, 0.0967376289391206, -0.26881231609908773, -0.2654398415903208, 0.0329991732807442, -0.017767726563696032, -0.0316336469332406, 0.006361290669034003, 0.010495557607943084, 0.004778221737981612, -0.007338878518021885, -0.03991774850797379, -0.0041110412708087445, 0.3090121473796742, 0.25469061442719637, 0.1913359573654984, 0.06634882477900457, 0.16060089982297662, 0.26602909955933296, -0.1178951797917656, 0.013337215747342512, 0.02424124829176615, -0.07042820452935368, 0.0331180976363702, -0.08317834054613919, -0.06144532268279553, -0.16151944252718836, -0.3205715615784413, -0.15733246196393785, -0.18799205936015354, -0.2366098120514169, -0.15163327351260883, -0.03395416656129924, -0.023036279057516117, -0.012275780612444897, -0.007429617838968344, -0.008164389297607957, -0.005474803871825286, -0.01310355974332581, -0.06936361139343201, -0.0055856701795927765, 0.16273988295284667, 0.2900541260655479, 0.12554585490790005, -0.32249521295621736, -0.18633601945359987, -0.2950052152364536, -0.23898288720667785, 0.09066809006956147, -0.14591679362413512, -0.3075613564989985, -0.23581805200790742, -0.32113774893790004, -0.22340883336190262, -0.3141437586703013, -0.454593265403641, -0.2590809503977194, -0.36974030895124665, -0.272706144166397, -0.0799506095400256, -0.009976900967259285, -0.04334551801774765, 0.005257213399958107, 0.004033316261776484, 0.0006983624266094895, -0.0007811561263141361, 0.003592095732085323, 0.0019768728828777524, 0.11982474434499707, 0.33148523273981517, 0.16711063076502145, -0.003669046003733235, 0.07601779054909229, -0.018371989334925468, -0.0040948233123195114, -0.21179559504071527, -0.0831391060659821, -0.1925396492831426, -0.546001046283566, -0.06677168611760272, -0.2565678603479483, -0.2653014215507361, -0.579236259651958, -0.4919403634680718, -0.26311875914935645, -0.3328160957759651, -0.13940173959927338, 0.029141307900876344, -0.07517467672287807, -0.036580650991092416, -0.002672423020489895, -0.004275373593111356, -0.00794768301228719, -0.007198121678306919, -0.003369320589385397, 0.017115984753592342, 0.13154183792301852, 0.25142084605728454, 0.07685953149897386, 0.08105496118760765, 0.33894085343602953, 0.3568357264877606, -0.03526801526068968, 0.12995823486093738, 0.30064015189687476, 0.00404865986924778, 0.10228482953528557, -0.0422329600485856, 0.04835409792560063, -0.0650939428328738, -0.053753406093732546, 0.05116117766959859, 0.027486969396065448, -0.008553571767909279, 0.06264597329864888, 0.01811189208526396, -0.01442422886427475, -0.004332479030220842, -0.009562235039282798, -0.008690933021989639, 0.006038570378620853, 0.00528740995459348, 0.0007472950043111173, 0.003137979978394346, 0.014252706812205227, 0.08345102844396232, 0.20189430467534375, 0.24690236102256136, 0.18959294426515225, 0.2823922151236781, 0.2908033789444327, -0.016431689851201567, -0.1525591071995183, 0.08549933048786323, 0.44367992504945564, 0.3823704813946095, 0.22394642515949006, 0.14575683072149387, 0.18726280830648992, 0.16151855289185693, 0.11742024094592636, 0.09429269849172821, 0.052993182111122604, 0.017085303072069423, 0.002314694396051534, 0.008255263014830535, 0.011056422189869913, -0.001797178631611325, -0.004882256854737742, -0.010971846305105957, 0.0035849351059940543, -0.0012677376971573326, -0.005210926316212404, -0.0044843290140136015, 0.004667370962856014, 0.009972778665088401, 0.0025581044498726433, 0.005951057770429305, 0.03336946107179154, 0.007805180300268265, 0.024366953519033226, 0.03742963349562216, 0.046942715995847165, 0.008396465010192292, 0.01618126189569174, 0.021528807529035573, 0.03269648955169027, 0.044664415523668954, 0.044598894786638935, 0.04696322787712285, 0.047604846200442655, -0.005968568606809339, -0.005445009259408491, -0.00039578798037463476, 0.010955079434523183, 0.01013493434236374], [0.004653975323598711, 0.008873200366539248, 0.001970440088662076, -0.004935160155702138, -0.0072131348942946665, 0.00453814945000041, -0.0054399273173993895, 0.005078442939460997, 0.007122797976682087, -0.0044920922454310935, -0.005144254700177953, -0.004785882243589594, -0.0038863511439239376, -0.010242497437997893, 0.00385400514837079, 0.01929789790531447, 7.369520401364122e-05, 0.014039084993060417, -0.013232521289700464, -0.01617464283750679, 0.007166426508972333, -0.001800815947675884, 0.0033951723996533505, 0.0002655622504681811, -0.0069256737182091625, -0.005010122973219874, -0.0024603680783066737, 0.00819685819851701, 0.007473357921425847, -0.004218999375191483, -0.011855755154283396, -0.0006016343108371321, -0.01902623083792507, -0.015337610743005516, 0.0003222265381409454, 0.016137238611656862, -0.0023288314232572877, 0.002874984504245157, -0.021236725677480518, -0.029429156665181366, -0.01006554157184485, -0.005547980842274887, -0.05659411587407772, -0.057800876416162855, -0.01878757041478138, -0.021678905586613718, 0.00866231394016432, -0.011330352568301259, -0.003259312663045042, -0.0008280446387011481, -0.008803927487764795, -0.014246524332295635, -0.003159436979861562, 0.011583160452212886, -0.01064914462575726, -0.007105249487008192, 0.0034569681913557836, 0.004317535951019204, -0.007004497925461586, 0.005539040184906883, -0.00046092928446641104, 0.004804736521341442, -0.004962365094098032, -0.03340306446331097, -0.022141930845020554, -0.022915333343099534, -0.11295404107220096, -0.07992646315654746, -0.14807679764347498, -0.1108089643283689, -0.03502725041681243, -0.0027951233554107395, -0.016271347703841876, -0.036301150109018826, -0.055043628538018224, -0.033065782644185186, -0.019691721923958357, -0.03873936200811378, -0.015278190617967041, -0.011792047117902743, -0.0044347027659590735, 0.0066019054996306874, -0.000987052519730946, -0.005687676123131727, -0.0019419248584281793, -0.01691392619128117, -0.0011732836701181147, 0.0076905121032967046, -0.013985380635476767, 0.0023082312198477476, -0.02638876632673558, -0.05226081468160919, -0.03160771767211791, -0.041382753447631995, -0.1261623399656759, -0.13669035910846725, -0.14214595193626425, -0.056995964887243185, -0.01194392760721235, -0.10427916134303077, -0.08870783085306755, -0.039331546535766274, 0.05281207820942718, 0.1486573783029596, 0.1405445976531195, -0.04019060844748711, -0.06360835759040438, -0.05228439264426675, -0.01406504938521313, 0.011541373828816384, -0.000712281350634762, 0.006599248338702995, 0.013425212493500871, -0.012339056080036158, -0.0064069626262328976, 0.005782287129035559, 0.00036094190546646487, 0.012623172344286601, -0.06462602131728631, -0.14496893106360473, -0.3074597889296802, -0.42604981280528204, -0.26117580228095916, -0.22897149552194263, -0.3389411831248536, -0.42804119157327813, -0.29124452673468604, -0.04581516795116081, 0.005765717732097716, -0.21493905620124965, -0.05208533612547371, -0.058019107371572565, -0.10621740564367547, -0.0846737228432714, -0.07292217174357628, -0.004383376118289454, 0.021522012397246514, 0.03923257158024133, 0.003604726759432881, -0.015232004730831998, -0.020341059411326266, -0.0005251351480017524, -0.002126265817668475, 0.015576399933650882, 0.06288512536720577, 0.08522279241810504, 0.0025799791412704715, -0.1595195651255348, -0.30566680425954385, -0.2879235171116953, -0.19188880248906454, -0.4446245445426304, -0.4255476320895243, -0.2064869006638216, -0.2806748059857981, -0.15531994293168316, 0.11815996180318854, -0.12326857070075393, -0.18631465091828897, -0.03172112715025081, 0.014008507444053405, -0.03349915559096215, -0.17304361297432413, 0.014437560805491384, -0.0455806054459459, -0.03234694419106804, -0.04356216534896503, -0.017602279060528147, 0.008620819250775324, 0.014240142617369134, -3.596914467806139e-05, 0.027403498525315283, 0.08483376804197819, 0.06603348130016964, 0.21556825982631728, -0.01517125034287101, 0.1647945341254652, 0.35321402788422096, -1.0548503536116159e-06, -0.22319069524126636, 0.02953446676920476, -0.33980295016380935, -0.024790682565418106, -0.1179446970505144, 0.11883810295909208, -0.12039920640818864, -0.34518929418052374, 0.09586594258461811, 0.0787777219951062, -0.10879420142400657, -0.1930683804217189, -0.12491257667558356, -0.05903085906522667, -0.06476234581531827, 0.0061339340797857324, 0.0018561009715555834, -0.01089731708176394, -0.005189670769165878, 0.030277417218827728, 0.032259139842342535, 0.08256683090473103, 0.2735094421636167, 0.4044749816237802, 0.3281917757910056, 0.23829078379365834, 0.2528539015209735, 0.09102371323269708, -0.26514911568598515, -0.28550147317989333, -0.3434341368227407, -0.29473597513684346, -0.4299292684951198, -0.11226038210655248, -0.03999136373712963, 0.03497123381557887, 0.150644540458707, 0.1783054337147123, -0.2353112408384263, 0.13888297803388877, -0.23076969318476154, -0.1479130988073094, -0.1362632051504913, -0.0013996469502870323, -0.001156335038963676, 0.013236999130685453, 0.011619589433651085, 0.030630424535734543, 0.010474951888189948, 0.23065662765921, 0.37843005849441774, 0.039720308792748654, 0.3267645483511404, 0.3849400970426576, 0.16230582670039226, 0.47979686982892356, 0.2597634730886378, 0.20185399663429984, -0.06588662880702416, 0.25640295003209534, -0.11152011017298409, -0.2825564549878657, -0.13123718142740337, -0.18033312212705482, -0.07585365410456997, 0.14053418518921432, -0.07390520670919831, 0.1283057484005817, -0.09038974161422013, -0.33612476266732827, -0.18315643289494224, -0.01848046772734079, 0.004319489072494353, 0.006213654685730019, 0.0032892470436665347, 0.022738604080229066, 0.13645209088841098, 0.5190481796914101, 0.49177101301437565, 0.13290158930450088, 0.6008654145894605, 0.31338250467215045, 0.2998631456586683, 0.2687059342713271, 0.11423068698720602, 0.5226330601934852, 0.47156195725514494, 0.16237960418085937, -0.1400693253422058, 0.014025214699160932, 0.1944506851506027, -0.1778039086040917, -0.06073286026733612, -0.00700026916786429, -0.14632789908510208, -0.1468336317572864, 0.046255707948085076, -0.17756661861914055, -0.09114513993236807, 0.06526958469908517, 0.07309951882596954, -0.007513445631881167, 0.014344421577989331, 0.023497015767937075, 0.11942421280985752, 0.3127926303071001, 0.32813843826804284, 0.2888337331540761, 0.4036600707310866, 0.5582900542587398, 0.6811951438216473, 0.7022473428576685, 0.7801308130129516, 0.43990224074464596, 0.44730221608045984, 0.27125018181954974, -0.09138547660404323, -0.11421814689894526, -0.014680145029746164, 0.001305275825531937, 0.05133658452583011, -0.13676451236052256, -0.17630129088911364, -0.13698039293189207, -0.03596199361463467, -0.04151503248782605, 0.05032656844435329, 0.07795012492398336, 0.021664170354097793, 0.0018479495487508423, 0.003461317488509434, -0.00230112662323066, 0.008274296688525877, 0.21985413840273813, 0.18772320573572765, 0.1902526346231037, 0.010503039309017553, 0.2723228919092222, 0.22010254155231657, 0.28035740151609195, 0.40219178538554673, -0.37802413437581545, -0.310889330524554, -0.28223342243195393, -0.5301057928003304, -0.38727494502430526, 0.02286807222741116, 0.04636209072347676, -0.08011815749977412, -0.26169695926616254, -0.12611239248197897, -0.11336486643150483, -0.2841196102840554, -0.12503852798514195, 0.07190506144786231, -0.0200406597326355, -0.025398333557713173, 0.0011134612566149002, 0.008047560703791883, -0.01986482064090346, -0.18789919402125543, -0.18906064550266863, -0.12486812212156438, -0.4233584110289492, -0.24559021787769095, -0.05033484528938956, -0.5909553011916548, -0.9280846635805305, -0.9533365016226948, -1.0247556441131882, -0.7161090221352067, -0.07194489095799197, -0.011964703742094329, -0.11511556143313931, 0.03183547726273766, -0.23768586274131812, -0.17053860682923005, 0.055471031014704866, 0.1808274066335233, -0.3517229897344692, -0.5223282591033064, -0.19993242050111415, 0.24660768796676324, 0.05851140790987608, 0.013817559501173094, -0.001354489375958663, 0.00018306831773498453, -0.007707561617261574, -0.3408374368322013, -0.6701642565849013, -0.6405428879096305, -0.6669820826488425, -1.120004761149213, -1.0252724729018123, -1.2338593201560721, -1.0109297754866333, -0.5924008012453885, -0.39347241255219784, 0.04642566585512822, 0.06721603034701196, -0.5658264353934438, -0.10382403537079844, 0.08530059422614074, -0.16112824847308296, -0.09325871273589993, 0.08830566888411286, 0.1660053606946786, -0.2603040640596186, -0.11036240930851081, 0.38452338192957464, 0.3554903686191913, 0.11980801754810419, 0.03559442854887137, -0.0003234431745155629, 0.007630332986898094, 0.020773841255077346, -0.4347720104214687, -0.8041078885888072, -1.0105498471111094, -1.2943345958801324, -1.3474198627165872, -1.0650153479229494, -0.6705934103119261, -0.04309915634260446, 0.029001601335026665, 0.2861970828717448, -0.0023509001790598927, 0.10143306541892642, -0.20605322981816976, 0.0825381418839438, 0.20190316729745197, -0.10369163262994335, 0.25481993900523603, -0.42438306554641103, -0.2246424183656709, 0.050478002738317616, 0.15113712127558782, 0.1353582249989083, 0.2102038437455344, 0.1545951987228658, -0.0021513183396293504, -0.0030796717369909, -0.007314620230409071, -0.004111968829750727, -0.22618747043686446, -0.7267197757904439, -0.9696441244857166, -0.8534789140722026, -0.22949760941004105, -0.07690281138052787, 0.3801080883561169, 0.41691748661558714, -0.003049059747337815, -0.16676270780745064, 0.13553239197022648, 0.1639082292194303, -0.03180034017757269, -0.1445663205865063, 0.020302256991692604, -0.11276708117257757, -0.08446902665637006, 0.15267773305101578, 0.10220924581435718, 0.22467535271175046, 0.055490016909667636, 0.2782452530141052, 0.24004139598404545, 0.08992525754830123, -0.002369899449131939, 0.00043269369046030053, -0.0033227886139615263, 0.008541611051093828, -0.09328319703455215, -0.45709812788834364, -0.5401575675232824, -0.09392459740489563, 0.5059179551539812, 0.3556819361205079, 0.050231578308636816, 0.15961538313124157, -0.13588903402460384, -0.08257623521466949, 0.0355523848765591, -0.06090433216788646, -0.09039543808138813, 0.12316809119549076, -0.012482848402130771, 0.0636717806349397, 0.3017207588889055, 0.17055238451867263, 0.423860099958467, 0.2908126411790093, 0.09258282141243587, 0.29112822839139396, 0.32129846348701074, 0.2300886834427817, -0.004503032644629988, -0.007022494295569331, -0.010632436211312102, 0.0010066343623041697, -0.01798774075879066, 0.025545585121369358, 0.06169476256433476, 0.24814476403120783, 0.28415108850120946, 0.17827458609864533, -0.07194378712575217, 0.06061072892981575, -0.05078800902054514, -0.051168393531518495, 0.17196868317914468, 0.20130705756442704, -0.04233030586504233, -0.06500950584696434, 0.004903897412868655, -0.06467638725278681, -0.03559552218290579, -0.08802054108845647, 0.07220021213586794, 0.11586804957718866, -0.016011024118760323, 0.07397361258336381, 0.1996873328127405, 0.08452588216738129, 0.00922183755986499, -0.000690224924919921, -0.010219237942746463, 0.010903008694042697, 0.04910652367494089, 0.2742828620523109, 0.27415267780685787, -0.04555965987449123, 0.12969094662861086, 0.10251635400063336, -0.16047798585519535, -0.22718974516373258, -0.1458219559652997, -0.14491439382910223, 0.037333876530085824, -0.06173077023739423, -0.011320807442664997, 0.136439743363385, 0.03498188096937397, 0.24270868497639272, 0.2654210560757888, -0.3456595315132589, 0.20699435011292266, -0.05184891864997776, 0.19278371438953482, 0.4062205584217759, 0.2278761861276074, 0.05823222746873321, 0.024453361835630655, -0.01018498074642076, 0.0041252167291614475, -0.024548812091378096, 0.08669661216134035, 0.18668920229911304, 0.15653559842871095, -0.06578420263298954, 0.1488522676765653, 0.2775507606634234, -0.08787711636384676, 0.01683150314183221, 0.05491037311407341, -0.10098490370395508, -0.019592579757255976, -0.05769638927329606, 0.22553753002064092, -0.09116357857316985, -0.07317578258726794, -0.03540329612719162, 0.15750107242979494, 0.004360192978130161, 0.03216226217776562, -0.12636881922430965, -0.0016160241263950608, 0.2946051411630696, 0.20415425998670228, 0.08135300281456685, -0.00432138383429941, -0.00010107489207003572, 0.0143896799419931, 0.024105783473832458, 0.21148654223493793, 0.1905877021643578, 0.10647606785022729, 0.0380920508316738, 0.2462181366150141, 0.220046373821214, 0.04174449777141637, -0.1203946216140222, 0.16487347417892964, 0.04464285238278381, 0.01717386852036725, 0.07894696330848643, 0.13029778006224568, 0.12565147414951355, 0.01688023646101267, -0.5525186640014168, -0.12239430688812937, -0.05228660149350515, -0.12236882642146928, 0.005538729712968837, 0.04565691334137953, -0.013866706781142659, -0.0052255492655597854, 0.013197714149533725, 0.0012481790983985984, 0.011728147338866523, -0.003879731659954367, 0.04974163912817927, 0.17767057746349496, 0.11015157850960118, 0.03439727588471013, -0.03168383330615475, -0.2098495040803182, 0.12798577325066587, 0.06575166958518418, 0.15828093030936913, -0.15005042031681345, 0.11427614421556423, 0.047492950483981104, 0.1081372283565751, 0.13767590194968501, 0.26018458713151454, 0.4264370060417185, 0.16095712361576717, 0.06573255089876574, -0.10780129901457548, -0.016696916536592533, -0.14668692643349746, 0.05219407210789038, 0.10964878327622832, 0.06239737968955918, 0.007402408832399705, 0.014371776740482097, -0.010250709735008554, -0.004357718253246524, 0.04855354581667018, 0.033543868493152156, 0.06943707415712738, 0.32341969902754525, 0.11530034950183064, 0.11115624437916358, 0.13158784107842134, 0.02105776426825364, -0.08518199802559231, -0.07443472663389937, 0.2382820674272861, -0.12671662499409803, -0.2449798630745462, 0.054896084717558684, 0.07106532949104015, 0.2209689400962964, 0.3597014110354618, 0.3702609181717836, 0.0718278627757624, -0.01331395835559042, 0.02638658160155255, 0.1179865074348551, 0.08585588107623819, 0.05566258213922114, 0.0031456733808651652, -0.012801734252180945, 0.007245593373083464, 0.006333327392621411, 0.02520452148984817, -0.009215614003263208, 0.059775648418786416, 0.09143419026855726, 0.12547072910926932, 0.28466810614940846, -0.1810795800747666, 0.25477261565646303, -0.12561812896608768, 0.13540725899640493, 0.1166992635754401, -0.15020794475272622, -0.2863983616466486, 0.28896197166507487, 0.037163817234351894, -0.18136834552127676, 0.12703459046409432, 0.06016462232874655, -0.1226345450383309, 0.17319410924065576, 0.031061643867021028, 0.05140811398954219, 0.08639581329487502, 0.03418398827481497, 0.00016242619783286754, -0.004746848482077331, -0.0023974328032830127, -0.004214014309418259, -0.017382498007861222, 0.0374415658575837, 0.19301017929386027, 0.10860953254048639, -0.011022701538851489, -0.07897954596028249, -0.024338723642393773, -0.008523737940660438, -0.29097993813298, -0.07495742019068671, -0.06107378161976963, -0.09019405448083653, -0.04102619673601017, 0.12360545082772348, -0.0647154173606878, 0.316936325927107, 0.10832114322188265, 0.1723871990593007, -0.044262731038652775, 0.09998834265655251, 0.012588301631510493, -0.08240132049345462, 0.08871009234962426, 0.02881120308606911, 0.017099895013055737, 0.00597918675184216, -0.007734556395211186, 0.006759575329234822, -0.005735185651279627, 0.03883491367772107, 0.11397195928559609, 0.001485678531694895, -0.05469324813801933, 0.042585120874007724, 0.0499640948457076, -0.0724343055974999, -0.1927778986083751, -0.27478736479453725, 0.11267959015986134, 0.040115134910652085, -0.08540676714986904, 0.005570272192994616, 0.26561865877379887, -0.014232075331800986, -0.33147707589018144, -0.04336077021149838, -0.2859670025543893, -0.1419268903445946, -0.03742948302130718, -0.0368488009611112, 0.01797006593660566, -0.0036891011327844486, 0.01609418122698003, -0.010299392783228603, 0.006660655872286635, 0.0007389063919211064, 0.0026828960500748624, -0.004087377102303941, 0.0052795527100444216, -0.20203139042166, -0.22454455018367112, -0.015986709817377282, -0.03314834625674229, -0.1642774385939034, -0.20492474283061504, -0.07587773598832086, -0.07850463912270718, 0.08822032703459019, -0.0507123406384773, 0.01660095996343804, -0.20111290208976856, -0.43075688722835614, -0.3414563353380542, -0.012006163065182254, -0.28689886521065755, -0.19664555674250345, -0.03087739790755193, 0.0037840336562685517, 0.008518508642889538, 0.0035438917652118765, 0.00470078685598888, 0.00778323761024947, -0.00886095759999122, -0.0006142757056142771, -0.00631336130920251, -0.00608590377914743, -0.016783047432981826, -0.014521822645141827, -0.017937548169853337, 0.004683733885094266, 0.0015382952847111768, 0.03202560858672217, 0.050134516987204926, 0.010012631778285633, -0.020896950377124687, 0.029776354184182157, -0.1078561813879343, -0.03820237788848914, 0.018863862142852402, 0.027373283472793674, -0.07377931295123814, -0.022070475121817482, -0.09000475138418809, -0.03545713292633109, -0.02092889314354024, 0.018748712129167438, 0.008007304540178253, -0.0032479006106911194, 0.004344839819075945, 0.012355688544916824], [0.0012899657173824442, -0.0001636901574486499, -0.0007012460411029605, 0.00276690438492995, -0.004058565910792162, -0.01195561626068291, -0.007006516313102626, 0.0025065293909081353, -0.017278754569151376, 0.008532312400584264, -0.0025321034022537737, -0.008408345723378728, -0.0031344469990982767, -0.0016624758871122555, 0.0008231675589666551, 0.0029250823682351996, 0.004693833197022133, -0.004981706590754882, -0.0009451155555581605, 0.0011843660632770742, -0.0010908451707915216, -0.000482756133165863, -0.02101898276369588, -0.005805892892839281, 0.011676140807255903, 0.004666298569531144, 0.01214179238081804, 0.014883377050491812, -0.00047418735618475676, -0.009261038395326973, -0.015101113550102345, -0.008339628907708696, -0.008703378761018883, 0.004921302010699264, -0.0008091250751191214, 0.001664688726644543, -0.013751849451167605, 0.0017956652694557037, 0.00867391361470413, 0.004105724329148755, 0.004108698691836622, -0.002104213321693648, -0.004207434917555407, -0.004381147414712628, -0.004692992450649827, -0.0027868627786209886, -0.017926567859563185, -0.016101955736363836, -0.0004945397778970181, -0.008402371479586999, 0.0035754360684583245, 0.0004534608350746558, 0.014662501494335775, 0.0029576806055838113, 0.003932978892388431, -0.01674994089825014, -0.005051638140054476, -0.0001366931808178211, -0.009528760209135163, -0.0042241532437689655, -0.011491354853480119, -0.0002924955215544217, -0.00046063893515397366, -0.0065627526798970395, -0.04635307142561321, -0.04499879524278741, -0.02613355377584076, -0.024048008628094034, -0.05973236263507166, -0.042580150461770924, -0.03805815046366885, -0.04009094676805784, -0.02138668988138388, 0.002603398934393561, 0.0014677279633451192, -0.0034058963598356737, 0.008729692474648377, 0.005782733476701307, 0.0018112849665930556, 0.006830331585581465, -0.007663003024703939, 0.0018687160782647058, 0.009588072622319848, 0.005983730116785838, 0.003682609035857341, 0.006047745489370076, -0.006564581710250221, 0.00442759658245464, -0.003783957264574041, 0.022487442846308877, 0.014835405498869074, 0.05111290592930863, 0.05445705214155445, -0.05439165573742666, -0.02684165936763007, -0.09095680220524877, 0.01984256272923996, 0.07915281131241662, -0.05442068828014028, -0.07511585130772501, -0.11278635216259504, -0.1329534122159684, -0.053253276179948364, -0.013737394092275139, -0.05201862128769681, -0.01797344674605369, -0.018875325227958047, -0.0016544393348895368, -0.013727930135027783, -0.00010149756074497761, -0.0076169312083338965, 0.0021796375326279573, 0.005153282548097432, 0.003653133713440999, -0.002000473075504672, 0.006735614389543324, -0.0005904677513701177, 0.017305549692225527, 0.027809118472376288, 0.019756974249151522, -0.03083061742698167, -0.17412707835313637, 0.1601515134721375, 0.22708872854412573, -0.08372285373099828, -0.26630890215250497, -0.2984561710672019, 0.0007953406805963345, -0.029759034947750965, -0.11057818716158795, 0.16796040393963013, 0.05951444101213118, -0.004263796737354503, 0.06620221857945757, 0.06805543894953966, 0.03295749489137387, 0.029608401827485125, 0.002353546420968343, -0.0007626438246829677, 0.013752175289827064, 0.011292026824575772, -0.0010426903906107594, -0.005702808393100143, -0.008514860959384557, -0.014410584954689077, 0.025456355124148483, 0.03973045871729597, 0.07552353471217466, 0.023619954828579762, 0.07528775992216787, 0.2817692274006381, 0.14625167054283256, 0.15441413451143685, 0.01171567506577071, -0.2309689043339139, -0.26493390040154047, -0.10996388307007401, -0.17765167814518254, -0.07585014794722211, -0.14425683287617752, 0.015741659229164318, 0.19456553671852367, 0.25932466361680795, 0.22659013544133072, 0.0994145894794249, 0.02697745225474991, 0.009021737189615568, 0.010128867492142401, -0.00029214758387194567, -0.009460642504725881, 0.015272280402382826, 0.03292809709838179, 0.04859726621378908, 0.2968526857836485, 0.4015157127961394, 0.21867324269131733, 0.13215639248729322, 0.12290819926972882, 0.33246184630707903, -0.057798768317518845, -0.1551118061810474, -0.1220765105545281, 0.14653875617378698, 0.1562318994086012, -0.053718965017669866, -0.13452568708210239, -0.019024347165513537, -0.24839923545208664, -0.06711751078031884, 0.1645958218136889, 0.012840868572339889, 0.15636764895432173, 0.15936370013504986, 0.07102467917286794, 0.047764447511927016, 0.006831525848875859, 0.006283206882061649, -0.009300869390615156, 0.014952318790729774, 0.11182883079821988, 0.19743206676915484, 0.14043195432739414, 0.3308142742458465, 0.2040146312048215, 0.17781103146728863, 0.28760105935090857, 0.40802949227306123, 0.4490502934902947, 0.379399475874865, 0.22785170584397313, 0.39316794866811544, 0.006908915947584332, -0.45962934486661944, -0.09618522979589413, -0.04220845353158713, -0.14957894124558416, -0.016051505165048593, 0.08255680288799427, -0.11776178902181303, -0.11742917638563434, 0.09284077768433875, 0.055115152919304515, 0.024300028139883086, -0.002785630206213877, 0.01374831222223899, -0.01032241988684399, -0.005449884869353234, 0.06246258592902206, 0.1124421346803658, -0.013667452310320688, -0.00347333965165726, -0.09929767174882244, 0.0034421915852163244, 0.20824590395513318, 0.03525971910957946, 0.14550688006923349, 0.26217447528422516, 0.07664107106892692, 0.3248018528493804, 0.05419403976895962, -0.027695436805168706, -0.09481239046526754, -0.14831210152949864, 0.06237629727246877, -0.09548619116244428, -0.0027001430020612113, -0.019967090276379433, -0.2188862344609155, -0.006658995526933176, -0.056331878291588505, -0.030569411900590468, -0.00869323105695081, -0.00016230585700736296, 0.01209767852685388, -0.00754531984234021, -0.021611359504948507, 0.03714728959758076, 0.03316468046869902, 0.13114528309417275, 0.19146803479521254, 0.2139090919497145, 0.293247076067902, 0.3783772951464916, 0.31815302574440674, 0.19982241859009134, 0.24291878269870118, 0.055757922667881835, 0.2416342472427136, -0.0547635322350387, -0.15059933394720998, -0.16871866933012022, -0.0928383917497119, -0.09092973007301433, 0.1162565678285097, -0.0499527377623545, -0.1365074381382508, 0.058408007405247604, 0.002822068577431771, -0.05243600343342503, 0.014351556039981552, 0.005124059354802478, -0.012191766228854444, 4.084735838596343e-07, 0.018261883313085613, -0.008489280376639744, 0.05563936696593787, -0.013387776175955567, -0.11947739515324102, -0.017469365161004627, 0.09596485254517609, 0.09186977336059624, 0.024350170959326747, 0.16522499681418434, 0.10238856761718536, -0.16974635455193057, -0.21388819512431168, -0.07803636720142455, -0.12121333366811242, -0.2686105259232302, -0.33413468660210505, -0.11718054088877652, 0.12440669361439427, -0.02748512739690662, -0.11631581315531443, 0.027971352049323845, 0.023277861397250865, 0.0008748584685018518, 0.008650113888786334, 0.003764698551690355, -0.01037266715858149, 0.013116958010606417, -0.07024783582221834, 0.04455045632980925, 0.029592164097656703, -0.025154721508434816, -0.4487645749304184, -0.15052471341301368, -0.11060887247688779, -0.21218032248170024, -0.1482853189068348, -0.14573144207551722, -0.4065204445483167, -0.6201851018055884, -0.0730513706333711, 0.22359442804352006, 0.10820012141893737, -0.13765400340332315, -0.27195405248550586, -0.2853889615086972, -0.25478291208725107, -0.12033408191412988, 0.05956786186252559, 0.06829734411424834, -0.005935950467082294, 0.00849583801828188, 0.0007530759195736144, -0.0030715967944058256, 0.005409912394796899, -0.00602985270874393, -0.18981898480737902, -0.030769256979092226, -0.20390343566668737, 0.03436108672198874, -0.08630485512906226, -0.027179040056715557, 0.1305226198861864, -0.08645163748114955, -0.011479216807231706, -0.22988183229324086, -0.4016783713764353, -0.5079233414803472, -0.2722626805051411, -0.21892871141462325, -0.19002822609663939, 0.01435406549741295, -0.20688438933710332, 0.25531858098315224, -0.015208095112914531, 0.054748150201423866, 0.20776021869526923, 0.06958096239225561, 0.08701305417763032, 0.009253474891632021, -0.0061054656118335665, -0.0024492012300543725, -0.006589793559583753, 0.0013526180524992492, -0.12130942922424835, -0.14344501041870908, -0.0899854033831635, -0.0605190135370266, 0.16371447110832366, -0.19997523675180762, -0.10781999307866102, -0.32392294639298364, -0.05139509661365351, -0.12891744326679333, -0.10557470431330479, 0.1308720256385301, -0.3722218287495033, -0.27489465720923556, -0.11326307694779239, -0.1852515546483979, -0.13452936921547848, 0.09433401817639506, -0.013931076577198321, 0.044820592140945796, 0.1037700238101666, 0.2414840491932053, 0.0868931688329566, -0.005686696322727025, -0.006224806770744539, 0.005335807212187753, 0.005189567119293525, 0.004131031234650867, -0.050696818530374964, -0.10486170773155198, -0.10985905457341062, 0.0733084759672329, 0.15281096485792908, -0.09235456504977865, -0.16246631644802878, -0.03810406480756099, -0.1380866397322416, -0.05889504667970469, -0.17612437978738513, -0.26176343592685253, 0.061132535121557155, -0.03601697691045698, -0.15598109650887018, -0.1134768840965976, -0.16814018401891942, 0.23297039639873227, 0.31687052778332264, 0.1528975822685945, 0.3884774420777062, 0.28138033496570564, 0.04010573276412752, -0.020776693039710404, 0.002054265483411667, -0.002244731689572527, -0.0020948939457838644, -0.009147571695578921, -0.08989293207917891, -0.01622264022020966, 0.17045803860100125, 0.12210574602659817, 0.09756336274592235, -0.015497047192268028, -0.04774606608749954, 0.3188194786054828, 0.1352845177477336, -0.07624952065656848, -0.2767403111271841, 0.10126656521339097, 0.06467878947622743, -0.05080636075973499, -0.1891500354443178, -0.11730759770661248, -0.02268955518062064, 0.060053344929861245, 0.5231613679870287, -0.05917140861921005, 0.2853149299323205, 0.24541029647129128, -0.11851737383856009, -0.08363311488291533, -0.01898103661573173, 0.003785901337388032, 0.0007922465728460654, -0.004394972497229046, -0.06917242204873104, -0.032867674585038316, 0.07122904498486178, -0.01462250860861264, 0.02025045069374344, 0.0864024359865032, 0.27984272456349696, 0.3327968309453028, 0.12074761631777395, 0.19657010343939968, 0.09976321241391443, -0.001590999263919529, -0.010148488317691651, -0.491373112803752, -0.30431333748899336, -0.14502416774773402, 0.17469688131449046, 0.027563406091169782, 0.3102430483759846, 0.1273686945417293, 0.19800755187156038, 0.3476175548223437, -0.19505709914336314, -0.017321048826985666, -0.006297737534866031, -0.007208273979691537, 0.010287010420569452, -0.002010214317842105, -0.025251101808587452, -0.10552814366421152, 0.07406674679183871, 0.1013559817570572, 0.30013332391901, 0.01676277528146398, 0.07901603403292887, 0.035390934409854684, -0.003982144388505009, 0.4553258990453322, 0.3108853797326512, 0.058712591667051964, -0.3779703984061406, -0.4678628671131612, -0.233518128221853, -0.12106842188832044, 0.22215656600262063, -0.0978192036184839, -0.01042538375177519, 0.05812083359411802, 0.21475271472232949, 0.11992014756650658, -0.11056933803126315, -0.04466971181356869, -0.020096032217023843, -0.012834124260634846, -0.009223744355860587, 0.002685052452135807, 0.010451649354814196, 0.005598639221366109, -0.2111388351123387, -0.2751755126950107, -0.22591619332797663, -0.4190909108212272, -0.21368383375143005, -0.2831646021081856, -0.15677301056180687, 0.22091760215337655, -0.26713269089288955, -0.7184749390019403, -0.5005182160720171, -0.23553594486309393, -0.11258895976194398, 0.13389507387454658, 0.102549302595281, 0.08955068881332315, -0.02078614107356336, 0.2955847590493317, 0.1824715781115344, 0.046464284676929105, -0.09224929152090759, -0.055314772719088474, -0.018745536964625435, 0.0017945168876171988, -0.019561006920094222, 0.0037612379045962405, 0.04693740352313939, 0.003870413351955796, -0.23400458551578424, -0.5212063152843218, -0.2983547744114316, -0.3589517205593406, -0.2431650064661707, -0.5153187286702626, -0.40620916917484406, -0.4361986898606058, -0.9425954067971072, -0.8782833987854046, -0.4041146445925641, 0.1307633700772134, -0.047942072438503666, 0.19626866826344158, -0.003513656887548951, 0.27451662817308825, 0.14627292488409993, 0.2935472384518103, -0.0673784018799608, 0.024696558748356617, -0.057179398803601685, -0.037815428818613626, -0.0035103074970600635, -0.008093841980158686, -0.012968363956791013, 0.021226332378514633, 0.03595253276823603, -0.04925160283572429, -0.23541865379209725, -0.5786111541023204, -0.40485502205471274, -0.36967000242966974, -0.052762434092154135, -0.5109140106573056, -0.7641373428957237, -0.9065787343207479, -0.7527382368104667, -0.17848962901951645, 0.26947204376900713, 0.6651566906832423, 0.3202416757415842, 0.28954054105371346, 0.13015803974316906, 0.15391712014318926, 0.09476602733456406, 0.18471040500037078, 0.11910966076018496, -0.06381804197075724, -0.007930935674115232, -0.01027432838542511, -0.0047721585687779755, -0.0020476508994231855, -0.01343361492414477, -0.008839215639233254, 0.01861880838154046, 0.03900711187539132, -0.1414207848846455, -0.23047450365918748, -0.2737907514910547, -0.44113209272553466, -0.41232270463937326, -0.08264714234875556, -0.15507528088908035, -0.1760813945735498, 0.0002588247090344043, 0.5478208099034495, 0.6788705320076469, 0.38101641005776066, -0.02354774801691515, 0.19770235155488358, -0.13866040930171503, 0.30026936888720557, 0.14282282312177222, 0.09407576931910099, -0.04973072633289922, 0.03718661468511676, 0.03520859588731873, -0.020244867839125564, 0.0007775085319424749, 0.004117515804372373, 0.009358725336109819, -0.0025431517463957334, 0.07995916059947578, -0.001510519974349283, 0.053352005130993696, -0.05407176583209818, -0.14273743408938797, -0.24516110103765681, -0.4490809342930123, -0.4266926974095903, -0.06887264126731957, 0.17448203796682465, 0.17045120978191242, 0.35953488517958576, 0.10708529692070118, 0.2250984751070349, 0.09914333956433345, 0.2794717574124255, 0.07412622722338212, 0.10804632167113998, -0.05283492083177745, 0.05427403961438936, 0.017890795765707453, 0.08674835798327137, 0.07051517835755845, 0.012718142711271394, 0.003442893501112367, 0.002058683852236187, 0.007242223681352997, -0.003783223887684243, 0.062143844603964805, 0.04932270099287979, 0.0904542268621051, 0.21430506788291903, 0.17699095134242696, -0.04489964345164772, -0.2004880351158867, -0.1642161688129453, 0.06690512321318892, 0.1626560342930548, 0.3344662447276374, 0.439497866392289, 0.22612605891393053, -0.0770881164886802, -0.2072820889894939, -0.11680207861825036, -0.09372490259221052, -0.11091488588169386, -0.17646213931044075, 0.029285054201454667, -0.040781831810163725, 0.1039212723244455, 0.010981926886938071, -0.006340033935879489, -0.005391883290371622, 0.004741939015791351, 0.011404623862405339, 0.013691723804631607, 0.02015397320765482, -0.0032250753184574887, 0.021528131511342512, 0.19254759742747699, 0.22685903267227878, 0.2003030690736312, 0.49492122825553914, 0.5395195905006503, 0.36529868031095836, 0.33969262152684704, 0.3386860618386579, 0.46937273810187763, 0.25268481168697304, 0.22344515807220988, 0.13122632586021782, 0.056959855488811745, -0.09187880134810669, 0.018690059558817987, 0.16367237504054774, 0.1300472449650329, 0.04265425885176544, 0.030739458775012354, -0.04236136992460412, -0.00494360031980382, -0.008079300746351478, 0.006785777216893179, -0.018295319878681663, -0.0013753332583350479, 0.008505682235165315, 0.02348152904090588, 0.03400968971469326, 0.108611148176965, 0.15047436640114942, 0.17592448703836186, 0.3074680414631463, 0.3970719395564634, 0.3168963226757764, 0.3608349533094956, 0.24709107881436945, -0.004208082107580025, 0.18811590503676479, 0.14255651549533638, 0.07207250040085145, 0.10996178675868173, 0.37925799574472574, 0.2475489092474994, 0.2389319448566225, 0.17200213462773772, 0.11503725867571295, 0.06983274230668697, 0.004455624472636217, -0.010129018401497242, -0.009577620022632564, 0.0015516851662062128, 0.00016353596912660804, -0.015913858676216197, -0.011959364376748136, 0.006585134455499478, 0.0030780493416346756, -0.00045247823310480355, -0.013849830403271599, -0.029320516100137372, -0.07113490129351212, -0.0026981952950421244, 0.05819355569077595, 0.10518551829768898, 0.09021220417275161, 0.26667047288087126, 0.3873993789980653, 0.30632264085859984, 0.23922405088290494, 0.22501673821550672, 0.2613937932090441, 0.2180547976994611, 0.18308732673167405, 0.0832100326152499, -0.0004576811901193459, -0.0008014452007029511, -0.010198019182751782, 0.00872756016143043, 0.013021192440324793, 0.0020459148458080996, 0.008471329335608636, -0.002511381508911079, 0.009922031108552299, 0.01689107498342875, -0.006254853757733956, 0.0045818823301159925, 0.021767924100207912, 0.013093251753754665, -0.0004575362395142104, 0.0007578233866422147, -0.00901571368688401, 0.0015617674215469253, 0.017945856620778907, -0.001122587515737527, 0.004257066312114167, -0.008166035993848058, -0.002122093200253411, -0.013961007627685486, 0.010166152887973443, -0.01009062637737187, 0.019310811099919792, 0.015756786494551173, 0.0004689788768359228, 0.0013210318300716237, -0.00821979650484469, 0.0003462887853025785, 0.013834029746569965], [-0.006723531424524034, -0.016469926072369696, 0.007074733090074324, -0.014191787610038819, -0.012743638106472858, -0.007252267659104631, 0.010414662501889797, -0.002874860347189498, 0.0014664456256597426, 0.00877105057693852, -0.01133725460806138, -0.005371059084452085, 0.013344303381649806, -0.006191475065582873, -0.002691856692334393, 0.010477913027908629, -0.004014424677705449, 0.0030239714212083424, 0.005550066698804828, -0.0031651406686684256, -0.009559517278340984, -0.007323414648154393, 0.00045765562173048476, -0.014645459541822205, -0.00022627520065106508, -0.005472159504218976, -0.0012355403265408898, -0.0019031881906127182, -0.0046402819057854644, -0.001043377325248031, -0.0006334774039422238, 0.0029806838531426325, -0.002198531330621029, -0.012515330092012045, 0.0024662488019245254, 0.0009938626412652521, 0.01401205360750676, 0.00564629204940465, 0.003957189177315082, 0.009535023911301373, 0.021389306230817348, 0.021166390586422917, -0.01552618438539931, -0.015441204024012134, 0.02921490605627336, -0.001854868057989208, -0.008216150349082657, 0.013192525263303532, -0.004254738449715795, 0.006964902917245635, 0.016673630417933568, 0.023798567237418373, -0.004667134813805713, -0.0006976065118252133, 0.004540373381301839, -0.0026574547415036567, -0.007195207542248508, -0.002129074490476058, -0.0017255629848694218, -0.0049110024501831506, -0.003339100823364594, 0.01426316679644553, -0.00826218499326155, -0.020734013447632812, 0.011528760948229754, 0.062264702623135985, 0.07425743242271941, 0.09751671147964351, 0.08886248203731131, -0.0033727740531236615, -0.02409899230361081, -0.15688517067566973, -0.1951030216826539, -0.22912180574505073, -0.1377283736613726, -0.1625135481661948, 0.002450707135923831, 0.03237592954204714, 0.022015532517679803, 0.021488121338469786, 0.015441668804538716, 0.008234668763442752, -0.006959418573997312, 0.006641322451380812, 0.00841741591443772, 0.006198961611824769, 0.014770593241439265, 0.008574558073746413, -0.0005494805101481001, 0.011189163836675025, 0.029993852545402783, 0.036553435985747854, 0.1228847588952186, 0.1771689256865293, 0.12192190261966983, 0.23352997991238217, 0.2880633973776877, 0.19249397706361387, 0.2226475339482793, 0.0010157469676263509, 0.119015344297374, 0.14715070316907272, 0.06289891162548357, -0.11051939887174114, -0.07696415798961109, -0.06163571048564631, -0.03352193837759629, -0.04688705802857667, -0.07742622768811185, -0.10931744577242015, -0.012272189357249993, 0.0011906017596727666, -0.0039927318629254666, -0.006828749810986536, 0.011627677253003177, -0.009770522225057192, -0.010105527334794058, -0.018922344697785632, 0.00010304426055896106, 0.041900804856787675, 0.07388281526774208, 0.2608775801123108, 0.25045830610853337, 0.2585040763194822, 0.3788977755719913, 0.06392195813111291, -0.002662248780950293, -0.08606537038203481, 0.1366464086508779, 0.29353888108648574, -0.18278701496944047, 0.057396670325248575, -0.08047846646021695, -0.24617140218321487, -0.0705602885710372, -0.08496899533101454, -0.12050229159017864, -0.13722679800952683, -0.03723160938056005, 0.004235769108734511, 0.008641244995966479, 0.0038084232163992484, -0.0059574448371374, -0.0013963659979373167, 0.010131439966116942, -0.1023431798159979, 0.029447009945756678, 0.11818490332071258, 0.007478644341721166, -0.23731588684245403, -0.11692735442207193, -0.18316381934277545, -0.09654025480035242, 0.21003192534483942, 0.18037326005962762, -0.019510428402330415, 0.07543175476011357, 0.2486710491168351, 0.1267120701254821, 0.08063862211998209, -0.14175199121350962, -0.05632217174089597, -0.13651224749369453, -0.32899081561989335, -0.16874485912519135, -0.04394614651617907, -0.01813324293473383, -0.009375305242437685, -0.01533110684884425, -0.0016556277452305884, 0.009558341366372016, 0.0059554977972369125, 0.02514796758862894, -0.10455952227839656, -0.07121733881733884, 0.008685627802603431, -0.04474886591662057, -0.17377387277281298, 0.07813807649636517, -0.17834946831984133, -0.2939232394374606, 0.09918687059364986, 0.1927277515842221, 0.02968660021806022, 0.16674762247149066, 0.14520436129364525, -0.013391672343248366, 0.04502384263331635, -0.044170136168015295, 0.19536838327963177, 0.02030258381546966, -0.2885674197641488, -0.2584489509895518, -0.11901600336408251, -0.04329568453632152, 0.008391989970527636, 0.006737773243459126, -0.0014949162374191945, 0.03494990865966676, -0.009408591757672061, 0.04040804109305963, -0.013725204163533018, -0.010426210314791021, 0.018623085921398518, 0.12379359976111401, 0.32021449008040576, 0.2083670200204032, 0.20855787588447627, 0.19564229337815273, -0.011148379043993574, -0.08549452017259604, 0.18486946146595884, 0.050383509887160643, 0.20101863476404916, 0.11931409315960623, 0.005060720803467233, -0.13330121065172781, -0.0038725816696791827, -0.13641423722287593, -0.18624849405732138, -0.21460627576619648, -0.040867109563271393, -0.04628614932458406, 0.006277703855621637, 0.001881009905043619, -0.010004494770277579, 0.022808459992328025, 0.02096563979444713, -0.031001617416139056, -0.18467634661410162, 0.12276776696928177, 0.039592809932432804, -0.037794872453549254, -0.051776679217840064, 0.1633872994010531, 0.25792666351830235, -0.04593019398608082, -0.3592113466170094, -0.22854980747278592, -0.0037985085642630446, 0.06534838855381789, 0.33795458266491213, -0.0022087552083204795, 0.18986337038068454, -0.07040982429965423, -0.29425111414061916, -0.03570635506399256, -0.06291465927564525, -0.2571154280638049, -0.08426464860428844, 0.012273678427491217, 0.008320892406027987, 0.0032067056127334055, -0.006349011219589191, 0.02506132925017964, 0.14019574767809298, 0.07742997578499669, 0.11415381354962904, 0.1542437138559676, 0.09449489384200466, -0.13020536911631161, -0.24190323719559506, 0.17747518020324124, -0.012032740233533411, -0.18338269789748352, -0.25636017245306086, 0.20656909557424769, 0.028170415952532883, 0.30347009066853015, 0.16628866766378586, 0.10829623277617266, 0.5154393359496092, 0.28134333644552945, -0.149785599007657, -0.011079165225621761, 0.3262026041147822, 0.03397352651201871, 0.007512330043095446, -0.0002903573067315848, -0.0011140782265924294, -0.004659543767060124, -0.015688113292581834, -0.01903160424936344, 0.2075363480201696, 0.14145801962052357, 0.08689043317325414, 0.06582272192973686, 0.020520254180701192, -0.005823124385399496, 0.08825297451280788, 0.040938715628032196, -0.1783895264193279, -0.27916359552718656, -0.2417991518300259, 0.2970331816492876, 0.04544408020657008, 0.7328248938261969, 0.49269589224573745, 0.6830606803859325, 0.6405993670947409, 0.7619889805193875, 0.30329056269258864, 0.49254368625766115, 0.7957390833791387, 0.3782689858843533, 0.038802671835907805, 0.017650697280466515, -0.0047616334400762215, -0.018103832604817478, -0.016086434500580067, -0.025059855035048824, 0.05310268305892129, 0.09320538818054795, -0.20804646298706858, -0.037237230981987945, 0.030250392063917504, -0.05962766980446462, -0.1020441864049614, -0.06692214147240756, -0.2370450216635251, -0.04598267671668093, 0.24445265114849873, 0.5617234510592825, 0.24416350168586626, 0.06833907318908766, 0.19834230171959305, 0.05370149719382199, 0.3680575477465037, 0.6939806290380044, 0.6048875099938957, 0.5076380489761582, 0.43659300585953814, 0.5366142508029528, 0.11012738411199048, 0.02823976249269045, -0.020937449838908426, 0.007099141957643195, -0.01698599881227587, -0.02468386396512989, 0.0066263099821812325, -0.04324458503641428, -0.14631288633132083, -0.172633852652712, 0.10220617617874943, -0.05110553714423078, 0.007244459715454076, -0.04602347159548419, -0.23673301640346728, -0.06217464582668881, 0.295642313378757, 0.46066789716944556, -0.18036563785799473, -0.06958148424159884, -0.0059592819050342865, -0.3523387649970245, -0.13082431136208675, 0.08227342984151474, 0.3283094499549229, 0.031617706400833744, 0.25511459356178334, 0.5085793656167334, 0.2194593809855919, 0.024201069624117468, 0.0003906546595562222, -0.0040010006318239475, -0.01914653601066439, -0.020240150953368646, 0.04618127139754363, -0.02037011521370946, -0.3521972417048755, 0.033660239953082566, 0.11002375314991822, 0.028178426032159934, 0.19997172539691802, -0.0010573816459917866, -0.12266826293091683, -0.13808031385979383, 0.18864391116409404, 0.04249024241824952, -0.20677649838191312, 0.0008291788159259482, -0.18766904096579926, 0.17739820986674423, -0.07241304716366721, -0.49659904752046174, -0.01921055190448196, -0.14951549787790194, 0.13771523447276468, 0.15464241467705722, 0.21004350131392757, 0.0656435689706868, 0.044769364492001966, 0.005917004867695475, -0.027124553118938768, -0.038611399203398566, -0.028115213299238356, -0.11462928885484809, -0.19126210591059753, -0.06737901673050091, -0.047300839079962215, 0.008630313381718038, -0.03881677409943038, -0.13917092533615774, -0.002756791047948571, 0.19417097616053017, 0.30933489056514624, 0.1653097630973462, 0.09480305802939994, -0.052259390288646596, -0.2043624856727494, -0.15303781024029164, -0.2712037458610307, -0.4356567796149872, 0.21105840140707474, -0.12351497238965867, 0.08599921477646541, -0.027347611255550245, 0.2477269393998559, 0.08314528799021617, 0.015124153597710585, 0.01963198794568672, 0.006205059890893261, 0.004166157932918529, -0.04073790030673817, -0.06177106884128039, 0.05826498659649592, -0.1157647799661009, 0.20892883211594193, 0.0982454929174564, -0.0949347299156257, -0.4382890023413568, -0.2570518225257156, 0.23242046984777562, 0.6430722223665537, 0.3365342169134125, 0.08342754872446524, -0.06823543921412169, -0.24279279246307592, 0.07955042771529638, -0.0995149979951005, -0.21505874476484227, -0.1824874083598733, -0.026905703727993224, 0.022516245173218735, 0.0704401982917519, 0.30078426552536913, 0.08748862091193871, 0.011054514890073088, 0.01426314616556007, -0.004970817222015427, 0.010947989228014756, 0.010515447739989203, 0.08938598413706056, 0.13337908014292532, 0.04946155906722173, 0.06257041967599607, 0.16145010187238187, 0.48771886642603896, 0.11050724556716811, -0.0010987937729553222, 0.05171259828745893, 0.7429830524726949, -0.011478535844525628, -0.10008843753884653, -0.10071151419326241, -0.03311671762894497, -0.08980152820106621, -0.31373004143765576, -0.2791459353382974, -0.04118104522830159, 0.1050956355192147, 0.08218023304423565, 0.036890280885811276, 0.2849223240986425, 0.22005271731916462, 0.011427043209943241, -0.002152470104016587, 0.004727782733105577, 0.05508722975633417, 0.04671631284571585, 0.1379059724320459, 0.05171589544953657, -0.2502272560428694, -0.1956776731111249, -0.09169316750230894, 0.06261596616275063, 0.32833766362816563, -0.08916803089888918, 0.5818040337959297, 0.7417299471795809, -0.6303909242783017, -0.6119583469782632, -0.13789085610701426, -0.31189549504070496, -0.3536388166870039, -0.13767296311001537, -0.12741139995093065, 0.2745042612247386, 0.2016961828834698, 0.01957641682903581, -0.14197102137246942, 0.2710386128493102, 0.11664521351908334, 0.06689212145233034, -0.0013685877905537458, -0.013088370295312957, 0.026654626459466042, 0.017128642337392263, 0.024001942031560544, -0.2633933143162849, -0.12442926476920399, -0.1548504773957194, -0.10114951601794353, -0.1180368157388916, 0.101339451605762, 0.015722461894514803, 0.8202045663157891, 0.4200119931455223, -0.7900031496526616, -0.048047551987697924, -0.18299606712081812, -0.24252059273116353, -0.2887539281624763, -0.08728423146709453, -0.1827890614067475, -0.06933021432145937, 0.22601855702990983, -0.08584975680754622, -0.1248962711485228, 0.13043414239705275, 0.06523545457423888, 0.013996573310962813, -0.005888640222326433, -0.004494883392062821, -0.01931200991070033, 0.009428340034126466, -0.011661806371331981, -0.10312260360856507, -0.17847318343653698, 0.10062927878725783, 0.11732415759051752, 0.38167794645931463, 0.40389487866270685, 0.26301367404761405, 0.5760990492371507, -0.2844177985189516, -0.9313996090886496, -0.17999103544432601, -0.0857059933175805, -0.038174529282289836, -0.08441747563685095, -0.32878783868868167, -0.2852437903279812, -0.10550940078153295, 0.06934269915224017, -0.08727516690922933, -0.09571627722029945, 0.026223047943724445, 0.05280812569374739, -0.0040885496196370105, -0.00317583935988269, -0.009659622641144151, 0.022231687817223192, 0.08984173860772245, 0.032166865880730595, 0.07079959209622234, 0.13654791986098655, 0.239013087236727, 0.017318824199706918, 0.008914152434424281, 0.4149847786641279, 0.600749650358176, 0.5815210711562164, -0.245002972608767, -1.091047976554562, -0.44037782907919093, -0.38234156093585686, -0.14522315809627817, -0.21874594338441344, -0.3436991899624849, 0.0033020449105607636, 0.02398368252250004, -0.15343313674019285, -0.2426033773376381, -0.20310054838976796, 0.0005821420245490449, 0.013016306191337592, 0.0014806332932196691, -0.004502996925597073, 0.0006631895345899693, 0.048263312902482265, 0.07714722210325813, 0.046935552209351805, -0.25411522399650605, -0.08018751316886742, 0.02769730145144727, -0.32310593998004683, -0.04329777244418409, 0.5670658265525428, 0.4717722668784261, 0.25260985218053866, -0.14956309271898752, -0.6872637107118682, -0.7719156980696811, -0.5580038625624043, -0.022355634192052474, -0.08930668136912928, -0.15845417339051743, -0.2297133300123734, -0.16420386538768939, -0.03728448842108925, -0.0921341272741251, -0.09669291852750603, -0.029755608218759035, 0.01101343291566495, -0.007902882838966471, 0.015991604708714743, -0.0033271203668848626, 0.040357949691729546, 0.10786723718114029, 0.03224016859507694, -0.022509710224834202, 0.15357261453792254, 0.14109346201036793, 0.22196498055764133, 0.42836832010721837, 0.6298019092528486, 0.5471204557402106, 0.11905774306309992, -0.3237490476917233, -0.4045946686762828, -0.29860130541441837, -0.35970892740429217, -0.2117418460855288, -0.22650359953512078, -0.20194880564299333, -0.31609226607570334, -0.2790121761877332, -0.06926422602987693, -0.06345616838420234, -0.13718623415783868, -0.0058026372978728325, 0.008693794169557862, -0.0061539774455449696, -0.008775686837021816, -0.0016322512296868146, 0.022486897380615246, 0.006966040746242213, -0.06557703773691603, -0.08065470183761084, 0.12372727747543542, 0.29206330865732427, 0.23334156959723854, 0.43428857103948343, 0.38873897264409174, 0.3180011960572749, -0.21278627638404177, -0.23421476017824835, -0.2759655470660957, -0.11208999858658204, -0.33755055302560666, -0.19764310812432684, -0.26150769481705927, -0.42290487656371584, -0.5187515689984902, -0.17661787178444388, -0.07187709430082215, -0.045809613887610366, -0.07793133048766, -0.006599571215345839, -0.0012269017980502796, -0.0013769458286616446, 0.004831090980758396, 0.012373464394568398, 0.006316213225203611, 0.032853729573614314, 0.05307022622211524, 0.023213194424336548, 0.20257272260844325, 0.2831124203395394, 0.23272217465607983, 0.33407009794585624, 0.19002112819175562, 0.08067819424606273, 0.12441308702628331, -0.12685387122998398, 0.030988996309802258, -0.390996367321712, -0.16610447107131168, -0.27203696090545654, -0.4114497521996742, -0.37719070632844903, -0.3486300649868823, -0.14312993119766163, -0.19468934695055762, -0.09022265898474331, 0.0061333121518079275, 0.02598960844515433, 0.01893149575297275, -0.0019330730801353866, 0.01229206817689655, 0.01391559260314345, -0.00309982874969758, -0.0018373743712897209, 0.051348725137971556, 0.07477611629940802, 0.1868175739926453, 0.2572125551681058, 0.2403538975231485, 0.16435652823795102, 0.18461708638783914, 0.09958303866892193, -0.09213827742086332, -0.10540645501072902, -0.05951974571032729, -0.2284582016132751, -0.21485421796980433, -0.20651243368853744, -0.17173989571392825, -0.03195861755389614, -0.05395585164722689, -0.1048577851424135, -0.10299491596487552, -0.07674929047441494, -0.032632571390740925, 0.021810570302995057, 0.013641558908717, 2.0987335920579292e-06, 0.0065520239808994915, 0.019814728706857052, 0.003660599868095582, 0.0019888825393107657, 0.004259312839289062, -0.013048036892617522, -0.009195485225098192, -0.014993644575829745, -0.06997975302488935, -0.20122374493957132, 0.013207198059437878, 0.06247936409635873, 0.013427062696454812, -0.020018143919481406, -0.16211180392680474, -0.1895690657552385, -0.08844769912495998, 0.022407189481045045, 0.026136117587654335, 0.02214009263611839, -0.04002979091881229, -0.03228748666996908, -0.037069346742341684, -0.007087059191504574, 0.0007853237745501829, 0.002368407347254717, -0.006095830282009351, 0.01024637639201472, -0.0058541379309585495, -0.0032323493934731675, -0.010091001326182169, 0.007470973407828845, 0.005065738348424956, 0.012745210656411808, -0.016684139170464258, 0.013274410056873093, -0.0056001755220739325, -0.006759076642839884, 0.008114747272812787, 0.005684230486519803, -0.0007614096866503721, -0.01800132395223073, 0.0035389535271965786, -0.002535961052330218, -0.02789873419196364, -0.024808569636864033, -0.010834589512354718, 0.009691008422498225, -0.02910558228621665, -0.03248435844897549, -0.014123461801872505, -0.00895323317548276, -0.011891194258096692, -0.0012227336143778422, 0.006013322384667932, 0.008469981480881829], [0.0016461080261548722, -0.0021591488792501276, -0.0076996221379772006, -0.01979952103035839, 0.004238055828037588, 0.00889294958954609, -0.003561670622466049, 0.01852527271560833, -0.006115183073133683, 0.00024474357166269267, 0.005567594496875377, -0.011087323170501496, -0.00285105006106585, 0.008456251926616984, 0.0009685469165662763, -0.006491064290162615, -0.01023791712472046, 0.009989287603974972, 0.006432903719814752, 0.006071460431235661, -0.006361155998275793, 0.00454074186427322, 0.0075733200384987395, -0.0064197940220021, -0.01267222046806521, -0.012648878906985773, -0.010154009861297724, -0.0015727317175835088, -0.008917796544457584, 0.002390293192041467, -0.007479339988236258, -0.007689337760798193, 0.010922205810277448, -0.006327377133570382, -0.020370616442647916, -0.045174566719132, -0.016985322466696567, 0.007594028436226657, 0.01192760841624054, 0.014542693872676352, -0.014287322277204457, -0.0026351670251230585, 0.012605032385212366, 0.006557969888667064, -0.044229123697980245, -0.015315437163779725, 0.012696850607999187, -0.0014180099034350373, 0.008916447503053227, 0.004629778984182543, -0.006798045043847998, -0.021715285355270317, 0.00976121026202399, 0.007998337040451785, -0.007754963410881761, -0.007783137241208083, -0.002414823275936836, 0.006995915296614949, -0.0021219202425816846, 0.009245216368057111, -0.0012184622810964163, 0.009692162066436718, -0.015059067338097927, -0.024912567984783928, 0.0023636749986750043, 0.01997630172792133, 0.032964319226294385, 0.030283368312815834, 0.06349491452218206, 0.12318331205938862, 0.0849895342303582, 0.16935765835549663, 0.17256072091462274, 0.08332875232228548, 0.07957600096762768, 0.06019769539003762, 0.008291581026169736, 0.003099934298946512, -0.015599093421717818, 0.006110282147518945, -0.0035498020822139803, -3.8176865069694983e-05, 0.01125187917963665, -0.01309577337598158, 0.0026269184443849184, -0.0011080197791252236, -0.009863936762875175, -0.008870619580735485, -0.0043691053985816155, -0.001010821105439244, -0.05413677339906054, -0.05321907594422799, -0.022523642641466356, 0.025229083951146914, 0.043209000708156295, -0.018841468762264772, -0.02264514684779425, -0.1148438433915014, 0.2004343482095787, 0.5449640266605168, 0.41570718860222095, 0.21493729694247646, 0.21023528037725214, 0.15105208535178544, 0.0914475287032322, 0.049279071724340824, 0.03257284613190272, 0.003174614476149608, 0.010937292037324456, -0.010615715824492632, -0.005620522192118281, 0.0036577016350629148, -0.0002655065026441768, -0.0033457046640558603, 0.008813084436919994, -0.015625544127057567, -0.010366284766342646, -0.11815408957582317, -0.0919510916805293, -0.04982849547215583, -0.11734255974631694, 0.00870129479653226, -0.20346405956146407, -0.061287678720904945, -0.03599621008112906, -0.2604688344502544, 0.06474898276731507, 0.4537344762464927, 0.9596813554152067, 0.9870189392133882, 0.5107964211031455, 0.31744024793336245, 0.19203799138458566, 0.1340102475168114, 0.11457387045523136, 0.034388162637782244, 0.04137683358886731, -0.009896945235917455, -0.01071796277218059, 0.00042187555672061096, -0.01127623903403311, -0.002512648286838101, 0.004299575110775294, -0.021504203968614997, -0.13413949172613704, -0.07885022239171366, -0.02638987901169627, -0.2164117216934943, -0.0013402745680494786, 0.15701964910405877, -0.1817919082090256, -0.18010820266196828, -0.16260347485845322, -0.16358539855477203, 0.08730655541303531, -0.08706587518256938, 0.18241121349523662, 1.1111506099257358, 0.7841845289836692, 0.5307715736484896, 0.36644302399549167, 0.23055263923741037, 0.1694597430081228, 0.09093699085782685, 0.021271271282638154, -0.013782824401692702, -0.0010209023433605776, 0.002164640586160546, 0.0061603543846134225, -0.0010991513068650369, -0.03363088574945235, -0.07313731325014264, -0.13965241258999497, 0.16079057672491245, -0.13324158164887276, -0.050812123114076194, 0.10193620363339194, -0.03072821621569303, -0.009476448926006825, -0.07083388552140857, -0.1291945785620352, -0.041274510048122125, 0.03600262786148139, -0.07864088139239402, -0.19096767151235183, 0.28273489799151613, 0.45598225828359806, 1.0721949383589027, 0.4860265280877053, 0.3341403632948779, 0.3419583737033044, 0.2288913978029327, 0.0945207848962884, 0.009072088034755533, -0.003784938019377924, -0.01113822623248802, -0.018040478609790845, -0.0007049207558943447, -0.06866052642859448, -0.12954383741933112, -0.22346495935543229, 0.19105724225605678, -0.12334794403624122, 0.26394419677999703, 0.09928404200060878, 0.08296974858108898, 0.013846512900818484, 0.04081645585389366, -0.03856957096074879, -0.27773173085662556, -0.09491231264309852, -0.47562995019964105, -0.17864048511226638, 0.3651898044250839, 0.40160132985020297, 1.1465263191940085, 0.8024709947271258, 0.529255671319003, 0.43958248582123, 0.34448616531313697, 0.11453162030676553, -0.03285325090834238, 0.0016925807346773384, 3.9355034277717436e-05, -0.009208347651691328, -0.006226469566799846, -0.04142412115855191, -0.15831205464447717, -0.22904726871332395, 0.12695303939299574, 0.05517814918162014, 0.029464468200706265, -0.008880563544778704, 0.09612995091462859, -0.028441921817121237, 0.08116814393751291, -0.3276891064786876, -0.4793489918521221, -0.3980320259906052, 0.09591709121526712, 0.08289385932359261, -0.06982064406849647, 0.06817784498935646, 0.3755812623757487, 0.8525074673409491, 0.5103979108900056, 0.37017872237536104, 0.32975656929484026, 0.16623486422931685, 0.057029531022358755, 4.2649539559991376e-05, 0.002262611560893768, 0.013804305284062379, -0.002967593718080962, -0.02098548803770664, -0.16362989975152759, -0.127504638243534, 0.012692442487902798, 0.09516672889588332, -0.10015856640938647, 0.2635658175219185, -0.05476928770307454, -0.2805283604680185, 0.10423892720270643, -0.016765125997445805, -0.6874277374873704, -0.7376859052640448, -0.19877813298703734, 0.012324415532375432, -0.08769611849124652, -0.14550699990824525, 0.18717346275050253, 0.4888885872077835, 0.5209568526896204, 0.2953536714914581, 0.35985879353770556, 0.12131088580099368, 0.02907603283160536, -0.035943752569152554, -0.03219089737032076, 0.013144507315034344, -0.006836173103416556, -0.03810286664755689, -0.180042948206765, 0.0014904725588644927, -0.04216167571050295, -0.12975230942726038, -0.33171019679195446, -0.2742543865378105, -0.18744604605573603, -0.10634259465306582, 0.1988127471556349, 0.4665591456483788, -0.3801832889120085, -0.3371766934099899, 0.32974508727051044, 0.020922896913829103, -0.019097022649067666, -0.19446872342635085, -0.009784543631995837, 0.4901034358375941, 0.5383198855262081, 0.4054556496720101, 0.2771833831365897, 0.23810224045536957, 0.07663495232099252, -0.0365678734671138, -0.01219924439260493, -0.007481727057368662, 0.002184182156861279, -0.05195168780018235, -0.19612636133067973, -0.15919964753234248, -0.16046646591423955, -0.4105367918665307, -0.41101916256853277, -0.16420169851195646, 0.010270376884194396, 0.07898735995516952, 0.03378031036419907, 0.21823654536318118, -0.010311498078358336, 0.21287811854687622, 0.16416516282101612, 0.31546163205544414, -0.14578152006716383, -0.24761195764207206, -0.2531210952269227, -0.010267084615901062, 0.20360453478610827, 0.3331473158278061, 0.46526498195205257, 0.3227953185127137, 0.10152940651877942, -0.02914774155060587, -0.017168819217612236, 0.0006662230778895084, 0.008593150667951676, -0.03752684611493738, -0.14420523402926275, -0.32352567414384187, -0.36356784935520947, -0.20711521287752196, 0.060553744153604656, 0.09348239335061129, -0.04330104738895415, 0.3120240242385243, 0.22119486362940047, 0.08548003903427841, -0.0406187200046253, -0.18962791355024278, -0.22382438087024084, -0.11491831708290566, -0.30891368068629216, -0.35823074597226323, -0.2319629547385846, -0.12166098803941114, -0.006066782586813138, 0.08375450634644965, 0.21929255505402098, 0.13934562140787127, -0.05080890215518919, -0.0411081357931739, -0.005861084602094495, 0.007518599752216776, -0.008478724538294685, -0.05176029709456348, -0.09517874451881198, -0.41038489489230995, -0.0548130191557634, -0.03784832064436899, 0.2658222267438899, 0.4709052854853837, -0.014631769795104511, -0.0053453250454255676, 0.18992148644059575, 0.0795873744651085, -0.10650544845079375, -0.09780533863476207, -0.05308987964699681, -0.3277865255031869, -0.3603853112316961, -0.22112110166199878, -0.11940637154729108, 0.01909270799076426, -0.24985239521392616, 0.13637861138586543, 0.1420271334172927, 0.003809959309709428, 0.034635082637758614, 0.011909020502695069, -0.014861800285258367, -0.005138434890672648, -0.007790148617163639, -0.00027242780703811076, -0.046167054363110395, -0.1140600829143527, 0.15644073717669113, 0.22802030385788438, 0.4441750666271365, 0.3168813330324946, 0.20090444358502307, -0.0369542778083201, 0.19351987464076933, 0.02943043707446727, -0.021175227132254087, 0.1483838039174232, 0.04723298612189525, 0.033497143037932234, -0.036439963362076326, 0.07515664014255653, -0.026039164289146675, 0.16500873853577383, -0.131545509374419, 0.20960779802233592, -0.12970646165895314, -0.02647661130720163, -0.011707228617066912, -0.0743158309858954, 0.014284742764609781, -0.011157698094503976, -0.008326552759987045, 0.02742497910146119, -0.019598679270791647, 0.08763956158095881, 0.139958637489798, 0.2130258915842771, 0.46426588632098603, 0.1342760057448255, 0.25044215107898926, 0.023957821535516222, 0.12674758820781237, 0.14804282217084427, -0.06897407019109916, -0.4902307109363334, -0.4491400217701243, -0.044994150454952475, -0.2284256228283784, 0.024384613428810126, -0.07602431924728506, -0.24038518429438688, 0.05587094292020018, 0.08442878680998069, 0.07829615885042567, -0.15189206680341616, -0.04705611385259064, 0.0462771218247051, -0.008811292554256658, -0.008773998117818517, -0.010005924985663408, -0.0056551754587520825, -0.026824385506834532, -0.14146603062187985, 0.15576664985571861, 0.1387161971719401, -0.00720314452030114, 0.03678733900363257, 0.27414138765538654, -0.07005355264915476, -0.008645559010254749, 0.2437901969214112, -0.05849622064730411, -0.12496395294028623, 0.24568274800426224, -0.0065519813526431795, 0.1860674045594153, 0.019957489909681242, 0.00619299304523483, 0.026814247745842356, 0.04913835822934105, -0.048753178453796675, -0.040653846193846085, -0.1187981829900729, -0.0014793751446752718, -0.02239954229510069, 0.0018421984927038113, 0.007127914714767966, -5.1195840998213486e-05, 0.001373903670562737, -0.03573806130106902, -0.08446582430466139, 0.09220258568333993, 0.17269564681472901, 0.16875827592793727, 0.11918926098705558, 0.1816119125709456, 0.008606687039556526, 0.07758484077587631, -0.014761464190493073, -0.05052868605737831, 0.09164805712569511, -0.0448857245722564, 0.04512896334386124, -0.2068755588777669, -0.037148515000366734, -0.04618440028986982, 0.08250879296346489, -0.08233102263191168, -0.07316002741648563, 0.10341056060320489, 0.12280726053116314, -0.10577624248705655, -0.03479220374489594, -0.0659447408408284, -0.006864277977209451, 0.0028970534530649867, -0.0009586596269313979, -0.06191234952256461, -0.07027830736511088, 0.057333375796143476, 0.10328251170590082, 0.29139647413409175, 0.4147962075427399, 0.4219936812671153, -0.14353641681854976, -0.20811226634095226, -0.2223376833844899, 0.020628854145642042, -0.004057781154468223, -0.21101449141292897, 0.10530046562184887, -0.16300175390669877, 0.050204419084968, -0.12634333602138145, 0.03818723494560993, 0.019258529226260788, -0.14730096477251736, 0.0351508336955755, 0.18812221052070013, -0.11884734848894685, -0.03291126553666251, -0.02777640535921288, 0.0021141731791700846, 0.010841757124363874, -0.006537785424769843, 0.01879444760413215, -0.04632530350273263, -0.14605295358110684, 0.10990674148723716, 0.08354414094285738, 0.1489978298507085, -0.015480970513613223, -0.08209255772842954, -0.00556805219464272, -0.2185534644475964, -0.09803911178200699, -0.021487446092543813, 0.21408019051028365, 0.10806893634917984, 0.05692941525110359, -0.046270338750259044, -0.3170002118252675, -0.18343867841963904, 0.1890809895558918, -0.07171063980094139, 0.031840448062423435, 0.1245295349092319, 0.00565986127689271, -0.01866016101923096, 0.0009908241967480512, -0.012278269802892186, -0.00936837486215533, -0.004918675543682205, -0.022289824573808355, -0.11131736238706315, 0.02676874402716146, 0.18247212998248571, -0.026126239524908244, 0.014642137690863694, 0.17487088822245056, -0.01774787324985814, 0.2719414372708166, 0.43925144628355484, -0.0964104658665447, -0.03367163067682188, 0.16526270487634712, -0.16797719776062875, 0.0054607942246597, 0.11937653336652346, 0.03516899840442791, -0.17482950968710026, 0.072240835183559, 0.0682413909877626, 0.07961818402112288, 0.09832131996106533, 0.011737403355536991, -0.015811536736263194, -0.01057577064269682, -0.0013385652445861668, 0.015315698336258428, -0.009148373454668781, -0.06369285071677237, -0.11556898763120844, 0.18812345479579162, 0.19993902372724182, 0.0012003458379802982, 0.2033252840398146, 0.36728760211738665, 0.04351509323320352, 0.3176786805123875, 0.07072769269899408, 0.10765753601852082, 0.06678621441610234, 0.11004413900723363, -0.09234728982270422, 0.31024781937040535, 0.10514750219233066, -0.05272109517354385, -0.034787362560951905, 0.16752023961337778, 0.3175240538196774, 0.12082362065333817, 0.06111868547548019, 0.07456051632792096, -0.011355134576162742, -0.004664842012366701, 0.00851066016392038, -0.0035875841050044517, -0.003281923142004996, -0.012710916721107812, -0.06368685892535506, 0.04826213144012653, 0.05503378133160127, 0.03994890379712895, 0.030745575228754735, 0.21284603947660627, 0.32789276102274484, 0.08834670120560775, -0.06877288314313475, -0.16957466245815006, -0.17849282759473997, -0.1632089948078786, 0.06442747030815561, 0.002296877713584257, -0.041278699863101044, 0.07353017852559927, -0.10520508390310848, 0.18497038694144827, 0.13913620757433096, 0.038123323975051124, 0.11722090168205723, 0.06741977160786335, 0.00530193878743575, 0.009903477340575277, 0.004315380330514944, 0.00994930628652736, 0.0026404566359567836, -0.013807323884482605, -0.017583843864156578, -0.02860952130735653, 0.05225705776044575, 0.20898984245726246, 0.20957696438357148, 0.36258030175077455, 0.3293954611438583, 0.08264516505380975, -0.060407915652609445, -0.1904967142919188, -0.04024554860296554, 0.0311470120726209, 0.442856056447346, -0.07378805139043985, -0.22850938221265668, 0.02231290851632249, 0.08087375758181023, -0.015179539445564137, -0.08584419039764704, 0.09104692653676165, 0.04091508629979273, 0.04785924696979161, 0.015110935760563446, 0.00449356972296553, -0.0016814307947073275, 0.013598507642856132, -0.0049823926915420445, -0.010250453438942205, -0.08028592793359532, -0.09476804200240942, -0.06837186741192244, 