{"sizes": [784, 30, 20, 10], "weights": [[[0.007551809413196373, -0.040377443435301946, 0.040741554620295974, 0.04097058167997788, -0.034213451908323256, 0.042582336183489944, -0.02423522222097772, -0.0179493869844238, 0.027210524252517618, 0.0007569410035337102, -0.024031576521819805, -0.041573839895425874, 0.025236416570155233, -0.009207614132959807, -0.016988164585970897, 0.010519055812138871, 0.033726964847398816, -0.0563169876381354, -0.015422077924506155, -0.007867672779043997, 0.022680915263130052, 0.061105679573989935, 0.011510108394491972, -0.0019329948431846176, -0.006361310863037343, -0.033143401526154394, -0.06623936802023615, -0.028812817168228408, 0.0012147434017426501, -0.029511900721867674, 0.013889362663080185, -0.05898557650037517, -0.04397015659631272, 0.033398542064039, 0.009051573258329584, 0.04008025174461241, -0.06829046634099854, 0.011314826287253225, -0.07177009785882085, -0.010163507858204222, 0.03402195132608734, 0.052462068224572445, 0.01817830792636386, -0.019119250521467675, -0.010720175540388129, -0.006189596313531821, 0.01568971476787757, 0.005072675316217921, 0.017486040897813443, 0.02166052125836122, 0.007298807173782674, -0.006229184048422156, 0.008101147108355992, -0.07245401629484344, -0.02776261207664232, 0.045438610823236435, -0.04684592154038784, 0.018558232870257416, -0.008747280325964288, 0.04539623154980727, -0.06526976289018857, -0.032905656705008154, -0.027866541176508306, -0.01813988070307714, 0.07508191869143711, 0.005557546289078331, -0.005248852776976332, 0.028039382774378972, 0.0036731489563355856, -0.03341291942798134, 0.011115229532889018, 0.014652579955227858, -0.05425566829094235, -0.008702646302059374, -0.015435979881352235, 0.06736992608905847, 0.03180934797023474, -0.01022572592812043, 0.04435347845844277, -0.00107124696673755, 0.01672489612056516, 0.021660104510038088, -0.03695186635726077, -0.02289273033980684, -0.012503752863228568, 0.04532870600582408, 0.009457629658713834, 0.0058069504028612825, -0.0012407012459984528, -0.028988116503986194, -0.00651123510354711, 0.07452730617123264, 0.024767467476353867, -0.021158483678699706, -0.0367721041707699, -0.000344267252332887, 0.027250695924456888, -0.007514388554852755, -0.05986625070483142, -0.0015869354935417663, 0.05879639888680727, -0.0051953696221107735, 0.044879822129490876, 0.0769383994378411, -0.02584289173731228, 0.021228368209089167, -0.024150737573153332, -0.02033109569011361, -0.0767705003099027, -0.034462591123448724, 0.026951170316152434, 0.039666720531001676, 0.042787016582401645, 0.021456112549241103, 0.003904305862122025, 0.025168853976519426, 0.011780926282968212, 0.05423390902920295, 0.030281505581743116, 0.011647141218600495, -0.04198358062897646, 0.03096188850196404, -0.039292799809712224, 0.005451676611526865, 0.009997144194867526, -0.032926776177981745, -0.10305735137248276, -0.07517233991664068, -0.08836208300762732, -0.08661739083547006, -0.03123781100126554, -0.010991044818904257, -0.024428511882849932, -0.02630361405529695, 0.011005769256752083, -0.019841356986418836, 0.029260553968609413, -0.0008913727484143894, 0.007873108158931882, -0.050320521111716754, 0.010010267722901109, 0.005375615567925024, -0.04215215567782508, 0.05066510007655047, 0.023322631997987682, -0.03182793913759514, 0.017913700775466893, 0.01978445411237904, -0.014630973052480664, 0.0603141478450778, 0.04291792395334221, 0.027168382009560867, 0.04392797122670591, 0.0022769553964323086, 0.0013753137389645156, -0.050140173536822694, -0.004819694221599865, -0.018460201026546268, 0.026141654456703176, -0.010310894642991642, 0.027214002413322707, -0.008015049610971273, 0.06427287928063873, 0.029269379055038822, 0.033197282035077824, 0.03436116028334556, 0.031218448418000793, 0.032855511825573475, -0.03106291209873592, 0.02630898246852379, 0.015015357684268699, 0.004981425959532942, -0.04635665912343712, 0.07033760417483509, 0.04336702266363375, -0.012775716064744475, 0.053955152912842426, 0.02266741540472253, -0.005686351753572146, 0.05902579253353135, 0.02563591198889296, -0.030020972536095165, 0.02849161637855917, -0.03362344859508349, -0.036426820610420976, -0.01368420357262503, 0.05336913308632147, -0.0007658757193790501, 0.015880343109033083, 0.06632792731724642, 0.11953645514898811, 0.100209580824491, 0.06589986067440583, 0.016186414662529836, 0.0030097754857608527, -0.015952312444397848, -0.026285499160958768, 0.008494598945070304, 0.027303697279996285, -0.007141432736974928, 0.010240331465562507, 0.044021809585307284, -0.005198806360607244, -0.01578906550541572, -0.007332853202804946, 0.04673397835382589, 0.061907772523556184, 0.07996877772033593, -0.04320478743975413, -0.017233549112184242, -0.12302198643314365, -0.1423144210676656, -0.10708956893367035, -0.09202852193287503, -0.1036596697091934, -0.0051396238186236076, 0.08141796288288267, 0.13584357561312244, 0.0967448858869167, 0.07973335617956608, 0.08826944570737748, 0.06514115071428553, 0.03984136645837199, -0.0536805853295894, -0.04205965654273914, 0.004593313038894034, -0.00348504153067697, 0.0022381297400588945, -0.016585264978189598, 0.0015061992773826227, 0.06331434487576798, 0.08352760238579485, 0.028730414700459624, -0.012205183596586046, -0.003608432598067924, -0.0003494096274872765, -0.014740155140234365, -0.09555399823186853, -0.07783200508757432, -0.036062373610228016, -0.12395095275190725, -0.058884714064407366, -0.06951725843895289, 0.017224881114008782, 0.008474732526795812, 0.05472841558383227, 0.13644763075973523, 0.05267365068031285, 0.11044165776053332, -0.0008128033640259978, 0.057807447414364645, 0.05649848866127844, -0.03642398244635067, -0.05811091387639762, 0.008095477576142728, -0.06957510008019249, -0.0062600861066001625, 0.03005905745202624, 0.03872295629416568, 0.013398902050910103, 0.018140857834807265, -0.0691058217193417, -0.060692040182340916, -0.03479246336341445, 0.020704428806428348, -0.057480299471221886, -0.14218323855991927, -0.0852770239001397, -0.1222021404703835, -0.055694534627564685, -0.05253935193731662, 0.022676973821481074, -0.039490872330077635, 0.016355755908105545, 0.0926381006699753, 0.11303176289590912, 0.10938436967244604, 0.09859454873079754, 0.018903545441202426, -0.026135979510030834, 0.024718868251836706, 0.04416836989088393, 0.03812265954539414, 0.02328963719682484, 0.03676699006283317, -0.027535185766882405, 0.003278571414593773, -0.058237897341399586, -0.04638591828370231, 0.01807332032447101, 0.026725345147793157, -0.003607375841694341, 0.012865890534881949, 0.032051200363534774, 0.02514975623176473, -0.06884033517958572, 0.03733997258852039, -0.07620792339259026, -0.03653172261883745, -0.03806196232584459, 0.009811106562073684, -0.05770329370924315, -0.04429242323082167, 0.035050275641445534, 0.008032733630799994, -0.013751133058896728, 0.0021489876050563477, 0.022364905185984, 0.03646689605319675, -0.015494011421090586, -0.0037507792661586087, -0.038384991910993475, -0.017761127834855294, 0.014247570954450674, 0.023497221910928956, -0.1015660873703228, -0.03785242816438783, -0.01888925330317283, -8.125388214238669e-05, 0.10209392353636756, 0.1480411586428364, 0.15321788368827333, 0.04224362159211168, 0.004188353127156367, 0.015232098907234756, -0.02161879889641193, -0.03194701505938673, -0.035987378397827084, -0.11749609416704851, -0.06699144357016237, -0.061293444801826316, -0.013771061573609852, 0.04921703862901782, -0.01959219433782373, -0.04779163431751363, -0.027304577556850732, 0.010138204231789232, -0.07066452241697184, -0.005309672003631326, 0.0029506005764293043, -0.030421480934109773, -0.017773308658056087, -0.02130668287750839, -0.0212411312729584, -0.06034367967562543, -0.02195780473194622, 0.07842053122592675, 0.10610590702333032, 0.23964676948923497, 0.18899221599789237, 0.0730406838457121, -0.04314499831094814, -0.04418062905301535, 0.06820379454129806, -0.059302063283993366, -0.1350456833822158, -0.1108906326785621, -0.14390371969592494, -0.0770771155480572, -0.044319766055840225, -0.006218522641878925, 0.02078150415726956, -0.010078284227293986, -0.0599981127705504, 0.09726712509162, -0.05910577631532283, 0.02704415204913444, -0.04879933654104457, 0.024239264879415145, -0.0204662751284831, -0.004030318924660601, -0.0942684450730131, -0.010215989071650302, 0.01338652144293298, 0.10673816564090398, 0.2128475600011537, 0.2940948338910919, 0.12656266554067225, -0.02056912343073265, -0.04564446865852909, 0.09276329132971434, 0.02007998436722951, -0.027024139556949826, -0.015889599889223293, -0.055827594188512346, -0.10391779287913908, -0.04148670070378601, -0.0959984020521567, -0.02527343746602599, 0.038161929276892916, -0.0085925382658586, -0.0011542953366011164, -0.03711701102604673, 0.014898742908890136, 0.0009439041304156434, -0.04940578494991659, 0.0007442268497200135, -0.09225542772992461, -0.08021874494528372, -0.051869239478161515, -0.034292999775450986, 0.023982475861305825, 0.10477033253115449, 0.1972347641073593, 0.15437671458966284, 0.14601798458209503, 0.045554993934743965, 0.05801711724240698, 0.09552307220947194, 0.05299113635689708, -0.028756877847337534, -0.04297980893575348, -0.04438373697888507, -0.06154124571871172, -0.07719360277866369, -0.046393642294645446, 0.04973744219363179, -0.04677153736357049, 0.0015740237322895553, -0.00231914519626381, 0.021868096072794517, 0.0062135614079233065, 0.03124979328232368, 0.02062980667494692, -0.060795122334057504, -0.12369980824147744, -0.11247862602554257, -0.05137477798805436, -0.11176845516685578, -0.022148490846613463, 0.07134109985218133, 0.10820802834537271, 0.1478745444301228, 0.118970569550901, 0.057684640368454256, 0.007627559031943772, 0.050090626282015736, 0.04399820875033809, 0.04537084160729667, 0.024445685158492228, -0.009531630616105562, -0.0364774183317725, -0.08757928339369929, -0.05763308693591826, -0.014274035292166837, -0.053471463962445995, 0.0049615753672702075, -0.013040321041107228, -0.010433770008363673, 0.0026453143978392496, 0.028518796486529302, 0.030162800601211365, -0.04253070099833403, -0.04308928030671337, -0.038526684758320176, -0.14879720139242036, -0.12013155103316843, -0.07218069229426176, -0.016277606022754864, 0.033452709041536174, 0.0681058842277611, 0.039429473438524903, 0.0430030608795222, -0.002369149389115115, 0.017054075450226996, 0.019879744840531767, 0.028214111713978647, 0.029629954554998172, -0.025846933509910675, -0.004466713274919631, -0.01627626479680914, 0.008381297092658401, 0.0034146866003984845, -0.04064501666190228, 0.04274868926529011, -0.02454080129166653, -0.005892675552090218, -0.0692346875536403, 0.07004933885645014, 0.017875420757809728, -0.04913783496423628, -0.0026684938358618594, -0.12462673311463156, -0.08021812254461848, -0.11351803135654415, -0.09833865017562896, 0.03542535808672032, -0.016245870290463572, -0.013825363178992254, -0.08128916963123446, -0.02653061883923499, -0.058365378791529275, 0.06534161266247523, 0.03697115750162658, 0.007801053316991807, 0.07866589188320514, -0.02515320029235231, 0.03312684910609337, 0.017673222254147813, -0.05627046750227217, -0.048546282160160166, 0.020485613455425856, 0.03708392726298105, -0.0043984561715713555, 0.019091148422706417, 0.03620147848450782, 0.027201041694742953, 0.07167254013000192, 0.02182690420803621, 0.027602043542612784, 0.00764259564718009, -0.04487590388637309, -0.10931583802489052, -0.04120234140031503, 0.01218636788493742, -0.026084727949374505, -0.10574439694111387, -0.05538319412029131, -0.06122610757613907, -0.03639323076937385, 0.009134728759186079, -0.022106195488052406, 0.03979433902619403, -0.03556529724410946, -0.009178053415706211, -0.0045854583847272775, 0.015042797703161862, -0.008526828642657266, -0.01609207291111422, 0.036893679676545624, -0.053662930134751874, -0.04175538655380139, -0.07402765226825701, -0.03563752978978605, 0.017214966642020872, 0.01922163866876408, 0.002642269986128223, 0.029374110774124874, 0.03235330511553579, 0.012345388186806134, 0.07891971160980292, 0.029709229526185967, 0.028581876841191844, -0.06835146468459617, 0.004878121613785713, -0.10086111016499381, -0.05437297832659253, -0.006218805687063825, 0.050904229066234624, 0.07098930386343082, 0.04209889292969153, 0.0004710653169888305, 8.14050866866417e-05, 0.03414064767372896, -0.04758067921383162, -0.030158432535805642, -0.05525948423297381, -0.06113098107520365, 0.018808687664212342, -0.0343479585976735, 0.03533848779847807, -0.05305612600457661, -0.06466761449892407, 0.018583556745493057, -0.01296943783185323, 0.019027815029508503, 0.052764069303487204, 0.02719012937884978, 0.06685643578808852, 0.045851765758403475, 0.010911044704073228, 0.012575047035830003, -0.053966761815409284, -0.013364791873464553, 0.061635947322834624, -0.045437890948896026, 0.057176766277932015, 0.0032864768672566905, 0.060087788056560225, 0.0348676491378883, -0.03148684619706997, 0.013747961201778413, -0.02320386927319276, -0.012696867661256073, 0.02790688325138471, 0.021146117179268044, 0.017323537572873048, -0.003762724414378934, 0.03889515983426196, 0.03337994079793312, -0.04443676413931572, 0.07775938356678862, -0.02095783504435713, 0.039939060485479815, 0.057962146949514994, 0.0293303135906811, 0.06623405396223249, -0.028071092127913692, 0.07555938802134092, 0.05092981228559348, 0.03215834941147086, -0.03877790485809743, 0.07681152469951003, -0.011807246999691299, 0.10048880715014441, 0.04427553249856407, 0.04512100688225053, 0.06704818303283154, 0.01973156947687331, 0.01866871514956369, 0.05686861594605847, -0.0350760985084263, -0.0706566355734562, 0.023910034389138683, -0.03550042572167792, 0.016282846921407027, 0.08591834923834543, 0.02232399955270692, -0.02892854906661001, -0.015133601572334761, 0.04608173176120462, -0.01711560601966221, 0.007974868793831406, 0.09363707828020724, 0.017302446799870922, -0.033105165776888566, 0.03231014980354969, 0.06158000851519015, 0.059625436262107916, 0.10546313779295349, 0.03049073763160098, 0.004403498533059164, 0.05616060330315399, 0.05370467618450695, 0.09054475194904149, 0.07093619893999847, 0.05125761754234561, -0.038006439319237945, 0.01209815502806777, -0.016821873074208623, 0.08328832082499854, -0.014340320876790992, 0.0054533244011810925, 0.025871943897155417, 0.05484160593909335, 0.071778240757041, 0.048661526755589095, 0.011858311814089792, -0.01987498313416754, -0.004748411652885181, 0.06053352024650144, 0.014445655925106134, 0.06853122201128851, 0.01054847711151415, 0.07094066098343595, 0.06261522265736136, 0.07152982003898899, 0.08494519638262706, 0.03921123663399896, 0.1457884141540253, 0.11527370853215249, 0.06700487100508695, -0.04883670515740296, 0.031211381482746704, -0.053116389206849926, -0.04928274478362758, -0.03270805759599542, -0.045200474627929366, 0.014601542890004647, -0.008971232704760707, -0.08343802502837404, -0.0021333444775331564, -0.07212195470655282, 0.006092311541588517, 0.07725725517387037, -0.05702755468779447, -0.07664782932215972, -0.051581432096019286, -0.026232611715107778, 0.0823427565974963, -0.0243530690104757, 0.019742649029842668, 0.04162520922151315, 0.07768174329418757, 0.05802688897966179, 0.018632245036523356, 0.11948711741548239, -0.008873692306234367, 0.0314526209578187, -0.02592357800274453, 0.03442565829563914, -0.011073371539763073, -0.010346747020818723, -0.039126967819952695, -0.005116692914390522, -0.04374436356768258, -0.00114634456432024, -0.0030775203022893848, 0.01569053029393273, 0.04053386210202879, -0.04338089659056427, 0.06580098171721813, -0.006433296619971197, 0.03558266451382695, 0.022411684837438727, -0.00825445530896569, 0.012248678084595123, -0.04060183141851889, -0.049138137364618355, 0.021002012785188325, -0.030528652794734715, -0.033025865123146494, -0.09733919276131135, -0.04037765631956198, -0.08794397824310578, -0.028612367065063312, -0.020778451912190646, -0.06340067421537056, 0.0028774368471532713, -0.049672532473356734, 0.02779545161568356, 0.04084766953555047, -0.00973950384017479, 0.016197883465030805, -0.038034067745199934, 0.027511580876823722, 0.012705484720442615, -0.015452546607997213, 0.03842828848099693, 0.037607482566926406, 0.06552094385951591, -0.006180169945056427, -0.022765111640791112, -0.02987569798296838, 0.004174662055628984, 0.04138546573956089, -0.01089518593050423, -0.03383681636581258, 0.07645502474913349, -0.021920586572656765, -0.056333855631222195, 0.016260667737083827, -0.01709673325565587, -0.07958451700549543, -0.07151939722111794, -0.0016425665433486146, -0.129430096754996, -0.008548253438200816, -0.02707935174819632, 0.08430335120104614, -0.04026732547575649, 0.019116826178467244, 0.001083319621018981, 0.004277680395406595, -0.02603076164403188, 0.004180140772926366, 0.03112702399377561, -0.07207341311806063, 0.0048034297406524895, -0.026687278907224932, 0.014800224284440562, 0.00736275391235159, 0.01801169391550818, -0.03330724967889098, -0.022463891758622047, -0.0004325727658280543, 0.05786023767233025, -0.00695547118684693, -0.012067696094356489, -0.004984979628155647, 0.0466598472951277, 0.019634745333223014, -0.04270909898720222, -0.03896746528137876, -0.02474483597455262, -0.009671436910292618, 0.03845643283116744, 0.03777266324105666, -0.01503060310866966, 0.011901374357766899, 0.02571672701652026, -0.00012274181122594316, -0.009035733023567293, -0.0023673126708601473], [-0.003376091653294043, 0.022720780589993585, 0.025080184018869814, -0.031560949088825084, 0.01787257225930032, -0.003230704323279867, 0.04739147014300423, 0.028118080814640265, -0.01854663923584324, -0.020481033461812414, -0.0005502312429809243, 0.019112160786705985, -0.014571821081335687, -0.02626925053372551, -0.026185691243390777, -0.034906269354802524, -0.024534175215999977, 0.003028368059588582, 0.06268420413962981, 0.006966207194492624, 0.06606898448611417, 0.010210044835629088, 0.10592714926315021, 0.0018479121773735344, 0.05015489416791972, -0.036988954458072834, -0.0231912564564531, 0.04922856914870391, -0.03319966255510862, 0.04678772396603145, 0.0023758567411042, -0.04538830325844559, -0.03289749223257755, 0.004051686729242679, -0.06157046141031877, -0.020586856334840895, 0.044033228461610945, 0.007537165712381251, 0.0004571538861376468, 8.918821528077357e-05, -0.04104651136781118, -0.01275472672483883, 0.005368512128006186, -0.08245024735360552, -0.10190589620886213, -0.02018911764758424, -0.047305997675699686, -0.030881936833295636, -0.018878718233659206, -0.04648328052799659, 0.020099993663187907, 0.03845371212702945, -0.024167452691182006, -0.05038710578159079, -0.06499361623748084, 0.029484650489054492, -0.05210622364248013, -0.009618800814632875, -0.014681682770782783, 0.03224837854340146, -0.05890915168726211, 0.04879875314079801, 0.11583105146979783, 0.00013526211028191002, -0.0139474842489952, -0.0427338773898744, 0.03765870348426785, -0.08013093868455898, -0.03660951965057278, -0.03859459420106944, -0.009645704776204434, 0.012790502281955132, -0.039707176149054405, -0.024867015487505535, -0.04281310191276309, -0.019536304074651113, -0.025015639920885752, 0.0021188388197824048, 0.006454320724119718, 0.04969372269481119, -0.023923622075130296, -0.02853179571758486, 0.00743530630558897, -0.0031836232196458705, 0.041712238971378, -0.015698921460613777, 0.037609501728061705, 0.042456353710878046, 0.050656020071995725, -0.038664775708914835, -0.01476027661038911, -0.025572295196906247, -0.03394776045693595, -0.04939761880756372, 0.010411569931787431, 0.030911829402869486, -0.01989905547542947, -0.004820435418584746, -0.042443817546984695, -0.04516198478921133, 0.004402091701007113, -0.0015421238719332954, 0.02178884436119814, -0.023691863000813437, -0.029477674542536175, -0.0029094412840595346, -0.0187493119939984, -0.04029022476814763, -0.046211744971897686, -0.01733296742185994, 0.04126224797600257, 0.02524730917825029, 0.01174295037887288, -0.010266701506162884, 0.091225197520675, -0.006195470092369293, -0.004511813833703632, -0.003984117604902492, 0.022019828472695138, 0.03979903264619704, 0.012916735125095936, 0.022758854135328223, 0.012766079129342845, -0.03359415611640361, 0.006079760661108032, -0.010023815943568945, -0.09939963542482094, 0.004468449325661783, -0.014184452624618227, -0.01660684269899304, -0.057524730572107864, 0.00013347227916510595, 0.019013821550792964, -0.06640673430185684, 0.02667858339982483, 0.0359831078938324, 0.08213723090740557, 0.01925068164036574, 0.0175664132892584, 0.01567377978945602, -0.046998331491828964, 0.03925436633412892, 0.036157035939991124, -0.004275736631105506, -0.016545643159464895, 0.028794928863731205, -0.025153826724895363, 0.04822555838764915, -0.028748706572097563, -0.11657472021040549, -0.0989713641231669, -0.11921176012113746, -0.10531859673647573, -0.02595204486190324, -0.04075999582414677, -0.1640048612044721, -0.14905647327347563, -0.07211528337153111, -0.0462935626960166, -0.021813561173310177, 0.006016775485308406, -0.03101578562380934, -0.060407967389615166, -0.04886762566817306, -0.013462308894822157, 0.004591649313607781, -0.04318877284514494, 0.02708903138932824, -0.03056653195736591, 0.05739761607541749, 0.026842780180761854, -0.012422264948360314, -0.004271565473495016, 0.009793508037521917, -0.0392825255090505, -0.05729791465719829, -0.12676355751300236, -0.10701611125933813, -0.12458366791782656, -0.14477052447901795, -0.09640652626290289, -0.02381510035385771, 0.005700499028959707, 0.02413650571053068, -0.069121641863376, -0.04578655274276104, -0.02674766589298684, -0.058987043411292996, -0.07674176786797494, -0.07997712480533975, -0.09185739738093945, -0.07170014180616098, -0.10115985666265036, -0.0323625677090729, 0.04569997915681171, -0.0011415468469160167, 0.016993056813639718, 0.02880270938672915, 0.006199633375313937, -0.019207336933748816, -0.021822973736893854, 0.004613855883370848, 0.0012949554180211478, 0.006073754970838547, -0.040806256213313116, -0.07263275081857977, -0.0873437006751273, -0.08431560047412173, 0.03168508232959366, 0.09933998518924571, 0.14396643001370396, 0.10356631185833431, 0.15964039180498057, 0.12817173858968745, 0.01842341220983817, -0.03601973847058438, -0.09325382455402512, -0.07138923919427449, -0.09146325133155044, -0.11351069918573009, -0.10963304005425507, -0.02853584133082872, 0.01269610825086388, 0.030467206689302678, -0.0313685417854457, 0.02973530190212873, -0.020142602656909644, -0.019388746886366704, 0.053641647233653965, 0.01901381690606609, 0.029620169329041254, 0.01192824643223133, -0.012269877443189275, 0.09416811880187576, -0.015790042992290067, 0.07317530305498571, 0.11435880343825033, 0.15241962371848308, 0.2718438859317069, 0.2455971901729983, 0.15202665832387902, 0.14759207775821967, 0.07111025626379713, -0.04620934352342165, -0.06310061712794757, -0.13367776048242075, -0.14818015350437175, -0.12943886993176776, -0.05394846003201844, -0.11652720665012398, 0.0013306885237618063, -0.06334514086746997, -0.008699186202679484, 0.06512935235283689, -0.02175281390708589, 0.02218161324908528, 0.0015181464775543448, 0.024300197209494043, 0.015906271995642304, -0.0017730398708957781, 0.04494109211085734, 0.055337188461081384, 0.057803543132141484, 0.06094905890668259, 0.13289705868264817, 0.19338488244129406, 0.170507814955984, 0.1873985442353323, 0.1327562012330157, 0.1801654538281241, 0.06807541323066091, 0.12248472432677984, -0.043425979204369025, -0.026222153488572337, -0.045620292016792185, -0.16273860358482906, -0.06731261443183044, -0.05363507798475879, 0.041829452671854214, 0.012428697506462322, 0.020785874007152743, -0.04193007504808069, -0.004054100374830015, 0.011370513149229728, 0.07137457373766812, 0.038243028692656965, -0.007012725364425677, 0.02862816092783145, 0.011923422504170885, 0.028422037291459253, 0.05973284588715545, 0.04742552014695066, -0.04270850240373181, 0.08719054523316035, 0.11745958834837192, 0.24595677278061845, 0.16247109330058374, 0.0684890750177098, 0.12120127013213687, 0.017969228958321478, 0.0080778031897624, 0.0051500170934646455, -0.02004560324663915, -0.08307707065961582, -0.042189042531730156, 0.006680846594640423, -0.040964778661243574, -0.03395484209391821, -0.010884125747227982, -0.03677576602692332, 0.0073747994335022935, -0.021275236338928857, 0.06752442009801281, 0.02903840289700742, 0.11882781552243442, 0.07612146996277996, 0.03694932896626809, 0.08031606267290882, 0.0038728090758438517, -0.22357933796475332, -0.13581221247500214, -0.03907671699626684, 0.13376744645017474, 0.1916763913871714, 0.13396159770149182, 0.09205050049474689, 0.00693294146300805, 0.07409274696376535, 0.09505088091696626, 0.037578519459107326, 0.028984455080316246, -0.011086177141943763, 0.005605077838930449, -0.033987848792395796, -0.032405719874941084, -0.0058743611999691366, -0.012895436035087356, -0.04715156413680681, -0.00036970075730921847, 0.02788092252997517, 0.06608949325583088, 0.06479647642818746, 0.055950417153517305, 0.052938998643508886, 0.029157079769800805, -0.05718402663546435, -0.08460090755104799, -0.25073063183822514, -0.25887495297582236, -0.1290532927167056, 0.10428789369411864, 0.11988693157091562, 0.031556230969646805, 0.10531051527404861, 0.05581314279076918, 0.1677621368647837, 0.09932290669585077, 0.0804236335877015, -0.03030678530385962, -0.07977652480137006, -0.00023267329132406394, -0.08283741410296307, -0.048697503775767995, 0.03254020335155234, -0.017682765123555162, 0.026480384560913388, -0.01060122303811066, 0.018841145332872226, -0.007521909205714641, 0.05070578468819628, 0.012965997552110706, 0.016998655349985875, -0.061527702544630136, -0.10734741671173322, -0.17752144488249263, -0.32797968547210943, -0.33448597348469694, -0.10264308421196836, 0.03665226986278115, 0.08734476553238825, -0.02295818383517298, -0.04296709433939893, 0.13202008488845737, 0.1658017980701595, 0.051051951751433886, -0.02927999735778595, -0.001052674456488698, -0.03310505493919405, 0.0370942785889115, 0.023492237153550703, 0.020282264600714434, 0.039763868826002836, 0.04060818674787126, -0.016339891657950065, 0.05095752016974917, -0.00201113664805775, 0.05219629846123567, 0.06791507281603243, -0.05998287283988888, -0.03778664708041648, -0.11083493189737037, -0.1264909788153882, -0.2350910639290106, -0.3495966919737608, -0.24720040544783178, -0.0010661368523786482, 0.07397140367850139, 0.0015044824813091446, -0.05966045941704306, 0.05269008130395664, 0.0519843139013216, 0.09462142779381735, 0.03301044203303913, 0.01591693740938047, -0.10409011945883051, 0.005854872634974049, -0.02667435379509486, 0.009273391770346986, 0.012668702040351306, -0.018516640758261302, -0.05532247814515247, -0.07185836288732711, 0.013555071705581876, -0.045969456829243326, 0.03896228963013167, 0.06510683401501764, -0.03635257927940875, -0.031709052070861984, -0.11271170825032853, -0.13087721131378816, -0.18612728005680665, -0.2249700020091095, -0.16187698733418995, -0.012196003616596644, 0.05547527394434586, -0.029773793073700545, -0.11200416277604329, 0.1227873246940448, 0.056928686235359155, -0.0927876386470177, -0.08225409392320489, -0.10302409328094271, 0.010149412936027903, -0.017575370723350064, -0.04457724679984872, -0.06672566504491932, 0.00042358046888967715, 0.0016465363912824894, -0.05049510098867549, -0.031620066638622456, -0.028738244659299167, 0.025228968661450635, 0.06368828409967517, 0.011545361393588239, -0.0425352684908604, 0.017663926785541628, -0.05283733488097854, -0.12656998372591896, -0.09435681552073194, -0.08374019753528564, -0.0926169294382139, 0.10604510226941023, 0.07552024087284472, -0.036658442982897534, 0.020729582208124233, 0.054016478678006304, -0.07014054725800936, -0.018158380999482696, -0.08790058490731659, -0.09109618649030647, -0.03858932047803555, -0.07316427002301044, -0.004444544124796052, -0.04788522804531339, 0.006542574499062909, 0.029541624063811448, -0.020411685696980944, 0.03337452441758365, -0.022997988336577572, -0.046432294858845154, 0.08024256708541003, -0.0549832840749193, 0.011566293869788644, -0.041693595752851705, -0.017851997770823167, -0.05077530544858707, 0.032238756346152996, -0.05504747022334802, 0.09031748541017938, 0.13630368165602239, 0.10626090433862623, 0.10489861392429026, -0.03393810425582904, -0.10176855764403166, -0.10793694669535522, -0.12267930270985487, -0.0687781723487898, -0.058707023728535104, -0.0833123442493753, 0.03939851174434627, 0.0292250704207297, 0.0037219585215254023, -0.027513086022820803, -0.010325221138635496, -0.04490697263002997, -0.023986674830297268, 0.005957296355686907, 0.013725566907170892, -0.06740291743963926, -0.06662812929475413, -0.041707434416599604, -0.08404987318167699, -0.0006789402758329111, -0.0690393344566917, -0.10934420537682617, 0.05738829476999016, 0.037346255520101956, 0.17959813241395692, 0.1267004391851059, 0.05079150123026241, -0.06601979534816002, -0.10156183000488753, -0.13312478587400203, -0.14743458091558914, -0.04468511609229794, -0.09784992517537257, -0.06556837522931058, 0.016169188763551275, -0.03185938574289926, 0.026820777777162144, 0.03462013298997293, -0.060652763024609875, 0.010317063275457528, -0.05288873250140236, -0.06364557673049143, -0.025181103864370353, 0.003114411286122281, -0.09633054356870405, -0.07023193266000269, -0.15038908596333475, -0.16900023401052403, -0.08330462027736585, -0.038644335892350376, -0.08376948766637614, 0.1154935643871598, -0.017568285598753713, 0.10987047856577299, 0.006776069345331661, -0.10829676893023739, -0.13693164603925276, -0.1659741854091856, -0.10547725171822629, -0.14601854073367743, -0.05290699186184679, -0.055386310265608064, -0.011139352757341207, -0.005754361323244332, 0.009991637876872708, -0.05124378599628959, 0.010279860706497838, -0.0011318461759569597, -0.03332862169562931, 0.013189612384153442, -0.0181947800245881, -0.008981464936199664, -0.12242847151960087, -0.14902375416573882, -0.15850618665369093, -0.12172505541027724, -0.06974269861129022, -0.001797390607865985, -0.04675874864326189, -0.07381091681732159, -0.016779019259316304, -0.007923903419600881, -0.11549234876008987, -0.1245383698537826, -0.07043115320715641, -0.13140684806016312, -0.05058277220043497, -0.16229370427860346, -0.0231733974660359, 0.04313217542665239, -0.03689808821710753, 0.08654858310599552, 0.024759586227935282, -0.01783536795912007, -0.044722047659530716, -0.016673448231351397, -0.02631144940121723, -0.06831195380662441, 0.008414411673989203, -0.0276384821542554, -0.08119284522125594, -0.12319504201057835, -0.055997628407621014, -0.04900964246867511, -0.048513323733542946, -0.12065449955199861, -0.01223462937046727, -0.07670473001240534, -0.04638680080064249, -0.030682623086913073, -0.03590981762249316, -0.03960411891966503, -0.0787446358520573, -0.11317813864895561, -0.049677223421846696, -0.03644735045590513, 0.008617771754134813, -0.03297859751184141, 0.03762426536779742, 0.02349025098803893, -0.006646085369327653, 0.05066507458445594, 0.056248522081562405, 0.013647854458099738, -0.02712658827200369, -0.02671914614227254, -0.010553922007567065, -0.010971744315041443, -0.05704444347873147, -0.030619245478011498, -0.07051413359918655, -0.06720382760794359, -0.053987764387400966, -0.061090173557682086, -0.087305442238266, -0.14845313823767656, -0.08789813007842637, -0.02010690156604087, 0.02420580759840863, -0.10018157858482249, -0.08019473734596026, -0.01519910877522726, -0.08923259657079348, 0.015341986958389928, -0.03706011186381303, 0.01922131708151927, -0.024883464525531508, 0.005080533309887951, 0.03061430679119065, -0.02172953709173707, 0.016229141885725464, 0.015779119179560982, -0.002191084745532237, -0.03807203830198749, 0.01677938942435786, 0.039430914877202704, -0.042125078475925816, -0.011220615522818113, -0.030152755814569495, -0.05523623186917598, -0.032538267216600615, -0.06696025976994568, -0.131070826808097, -0.09904635174776696, -0.07578750541025432, -0.0025077185096263697, -0.04895955015556954, 0.07857826984847299, -0.003233364991388453, -0.03210628533940855, -0.04803857600515706, -0.020097902418599167, 0.03136964119843594, 0.019321986519510746, 0.004326453962890459, -0.04202362770379373, -0.019680593025881467, -0.041011202041483334, -0.04049555667736442, -0.018201680981915682, -0.031668513602565465, -0.037756177540819384, 0.03480250282988266, -0.023001720635870908, 0.03658669430274414, -0.060331277649213366, 0.022547183624148197, -0.04870459874665801, -0.021609508073520085, -0.027728102037515263, -0.08341592403852847, -0.04568996456274658, 0.006226941563378791, -0.010890118184791901, -0.07292244653750041, -0.00495582606814819, 0.08123959102559337, 0.06801727329025889, -0.06113141651578763, 0.055126391188551456, -0.0031440166440222356, 0.00800415781947693, -0.018655252388419065, -0.006855431405884155, -0.007747595418841993, -0.02194795460444033, 0.050449251671672406, -0.038120073285613044, 0.03594122836021652, -0.038375684215943166, 0.03202399875391273, 0.035974760402169875, 0.0228536515730484, 0.013053583263801086, 0.0598214170473018, -0.0017688861560883487, 0.07469563538651325, 0.10637378819286733, 0.08741071450556495, 0.09969233708114068, 0.07275393491653477, 0.08522931170426226, 0.08926157309170427, 0.12717303418566522, 0.0922277607430181, 0.11693977852963344, 0.018385095390577894, 0.0210726747167397, 0.02075690370809248, 0.07115730478205047, -0.06595814488022178, -0.029715587404529523, 0.03761782420248323, 0.001622784312866625, -0.007060311999140662, 0.010254893392350462, -0.012101417101605179, -0.0045037225695278415, 0.009807408477346104, 0.025476136542570353, -0.031826794716716435, 0.01659644954597046, -0.018389792116287298, 0.037157350416137505, -0.015914772717718143, 0.03307587184009988, 0.030894222471072545, 0.017048516666337027, 0.07676061263555681, 0.02498396497229398, 0.06353506741434412, 0.04445011416478352, 0.020797264735245888, 0.057369479747980935, 0.05813817364643947, 0.017481394139454612, -0.003989012467300574, -0.01741532741341182, -0.023051637005456142, 0.012442862959662937, -0.0021921230743797964, 0.0694037812810525, -0.015165813504518968, -0.022881223746509458, 0.0070010183854548064, -0.00878019313878428, -0.029970357701586577, 0.040756299306539255, -0.014538533484387743, -0.09004177067917289, -0.06774950215949095, 0.08967998463212219, -0.03469645152625007, -0.006218830989797891, 0.03903046614837418, -0.02589095523116107, 0.05581171124461926, 0.011857606943506023, 0.04743256143849727, 0.03951847438588174, -0.04488778315659516, -0.0003969899653944562, 0.03668391203285797, 0.019495798690653484, -0.01040030829229599, 0.03241039567210888, -0.016912111142472618, 0.026228608220940385, -0.025254169298264708, -0.005267456177918359, -0.002232930417094173], [-0.02765274516533578, -0.037512551891186185, 0.07974477024855756, -0.025037000536019385, 0.010011656514726873, -0.006198409302649608, 0.020079636749799377, -0.04866389367259353, -0.008876952036229423, -0.01763872451528081, -0.002024887817820827, -0.037343884467114175, -0.03921723208850466, 0.05625407253573666, 0.020134655706989482, 0.057176233050475284, -0.015442731014676879, -0.06451941563099133, -0.0017092800203846513, -0.05330598689142818, -0.0038707582994547424, 0.015023737606119896, -0.05156080358695186, -0.05375522243671972, -0.04319696327253425, -0.0020270874305307928, -0.02641678792406194, -0.008708611167090395, 0.008091284238505185, -0.032879419254523666, 0.00736848191861784, -0.017499905322137858, -0.007631137076233236, 0.015060104717247483, 0.03532378937536179, -0.07257932877090303, -0.023345147527146212, 0.02398119943729785, 0.025706028891679278, 0.010684128657907278, -0.030421589790996465, -0.04631550830628234, -0.024966673071890936, 0.017431503463667265, -0.012352855226388511, 0.006595149713543408, 0.021523564371663213, -0.026689248744879067, 0.02606379190451582, -0.04148583579830681, -0.05054552388054992, 0.03083926319312161, 0.027956963655638118, 0.026415060360267337, 0.008648690962389165, -0.06375953333537995, -0.014103311392792183, 0.03836256265349052, -0.03420796588600554, 0.02698564109303206, -0.06279627830984437, -0.018121926274500575, -0.036082690981721545, 0.0026308763021584704, -0.05038651808900624, 0.04842831707961193, 0.01919928759250466, -0.009483031155293776, 0.009279817490264582, -0.02244039176656017, -0.04197641670238114, 0.007516753045486678, -0.05914946307211642, -0.06364154677730857, -0.0629378610208098, 0.023002353103722187, 0.006765632507404984, 0.0016306725663550235, -0.0027841969292707897, 0.04176313762830758, -0.05001228917766309, 0.02745045630022237, 0.026292522734934376, 0.018166002256337615, 0.0561735928323431, -0.03567300391919917, 0.037112887077372377, -0.027293396700500256, -0.010432704218490225, 0.0327226937855939, -0.010525787733412206, -0.03996420916470141, -0.03406335115587216, -0.036414579268104645, 0.03389140713775743, -0.04550171783342793, 0.0040542301877444335, -0.04843186315128794, -0.0223523712029172, -0.021903472299563118, -0.05439125166305714, -0.05323831406885411, 0.010324259816293157, -0.10232200689951158, -0.06429325457648424, -0.005072809669391278, -0.011439424005985755, -0.004264853921868373, -0.00585624398409698, -0.025896734694341464, -0.012726879235271363, -0.03354591721338935, 0.0340574753868879, 0.03284391908273048, 0.011914657151028213, 0.024073800242289906, 0.06944277130448544, -0.025589172217732638, 0.0362200048307163, -0.032001715952798576, 0.0020212872930269227, 0.01626436195369818, -0.017886227315225253, 0.0034852527695921334, 0.0033540634004280987, 0.06657151869384977, -0.00397995236830345, -0.05454124400788535, -0.09686697576383232, -0.03451678700187894, -0.09570826795720104, -0.05058678243538268, -0.06761951126374366, -0.03626751781852852, 0.02596560242868878, 0.0705004057216004, 0.025790715161142026, -0.02172726107893228, -0.041787477070469016, -0.04289458087826188, 0.04426888908038651, 0.023682641805238897, 0.017830356617266264, 0.0033030438063621865, 0.030257814548797904, -0.0071122899848256775, 0.06618213434976151, 0.014832932712822294, -0.06776468500181392, -0.01945207642633162, -0.031779850719643864, -0.007743154135874196, 0.04330705749923155, 0.08131136550942528, 0.006720272794975826, -0.030543433491242587, -0.03393693352739465, 0.036341221121705604, -0.02936669802361442, 0.04655619484440443, 0.04183329051967976, -0.01965193802544511, 0.007863480872890774, -0.01113844382402997, -0.027196217703794507, 0.0456330253062477, 0.025110844287009954, -0.0039058928867962694, 0.05288624983174673, 0.08203496970436505, -0.06815486713220657, 0.03916524469880974, -0.01630689865316316, -0.006648812788175554, 0.0055376148139710205, -0.04129871391270096, 0.023395877118622885, -0.01716679261471128, -0.0385384934119009, -0.010222767835815933, 0.03320467218430913, 0.09421968990159464, 0.07432318834732828, 0.028397500667858077, 0.014681755909557745, 0.056759592718079836, -0.013411753379374216, 0.007434043214050341, 0.08132334469826139, 0.08936797670528722, 0.11618020007120759, 0.08104971971346801, 0.055739415477001286, -0.018607813302014914, 0.017523356750609675, 0.08945270782309803, 0.03026849240883224, -0.016065034187278632, -0.030852427704333153, -0.0013729675174656874, -0.0034565517432538647, -0.015485979926036049, 0.00016672796967146105, 0.036968218908765456, -0.013350211488881417, -0.07461314489249654, -0.07359202863654644, -0.030234364037564066, 0.06148950767050759, -0.033614399116419176, 0.0054915725369869845, 0.05997629592767557, -0.035598537187175816, -0.01807447732250016, -0.0053412542461216414, 0.043196149865172416, 0.05263115092203406, 0.057060047230268585, 0.0936202798395803, 0.13136652991868902, 0.09129973128565709, 0.1259696516028284, 0.03948280821348047, 0.006982011453790851, 0.0183590781338103, -0.031764424878149025, 0.005723574314544489, 0.009353893271495054, 0.00915337728270571, 0.003961649027945693, 0.0050901716401458305, -0.0158557856552423, -0.06380561591490365, -0.07740555527794166, 0.02612368856385184, -0.04809151287647597, 0.029750401460587602, 0.03011910068913929, -0.032112119771664296, -0.045245679654622055, -0.06835241120600663, -0.09358683204848457, -0.08373676942412527, 0.00043373556011745305, 0.020162626737629072, 0.14726246929031964, 0.09503869231316991, 0.06962884839214974, 0.12546915837985406, 0.005188258644528645, 0.052205474801864424, -0.012354428919799333, -0.0436233590082895, -0.04188232158117367, 0.0046806505850612405, -0.04295484766405325, 0.021514894371900094, -0.02440976149148496, -0.015729392012788588, -0.06801804613795233, -0.04355023729377191, -0.04244875808613609, -0.019601282423464553, -0.062215058674242915, 0.011105290607618806, -0.06611328790216539, -0.038244490868385606, -0.016034424488344953, -0.04964361826321269, -0.0820407113166005, -0.08486746052384782, -0.053169658583095816, -0.08014608548568523, 0.06933939697225824, 0.0843966696914367, 0.07795409102891361, 0.11991116506867147, 0.0008892236164313502, 0.013062302012730965, 0.0426967727109267, -0.0008397545876454183, -0.004656359617048945, -0.02608036474397675, -0.018824779614627956, 0.02483120798314731, -0.02592634091432456, 0.026647681031542532, 0.01695179584140186, -0.01804616151800868, -0.010448801617168367, 0.03717305054272711, 0.02477047868285997, -0.010434536273078405, 0.06055892770936421, 0.16233656576605124, 0.025834383475161524, -0.04811480299335907, -0.1484130475482663, -0.11187873309039288, -0.06434871975278382, -0.03912234123598615, -0.027098187498037964, -0.03807189396162808, 0.031168201755442985, 0.04085143302851297, 0.02456441161594385, -0.012848338702466232, -0.0011311605083521319, 0.015966102128831747, -0.02601180063819178, 0.01256925494664011, -0.02570416497855303, 0.009661847184951118, -0.03710311500971432, -0.041199265324320986, -0.03225512924703204, -0.05364199841668452, 0.07275778648747369, 0.10730262950217243, 0.03318162599598982, 0.16438496560159968, 0.13727388216081501, 0.2266935653658898, 0.13533193979910296, -0.04340360062563088, -0.06756663571646924, -0.08825524112013182, -0.05462691137828398, -0.03640317087100484, -0.02961814319519241, -0.03694179596612296, -0.0062640340907374244, 0.04219957989919524, 0.025627470032094205, -0.006547233871496638, -0.019134984152122638, -0.020858516947402077, -0.024714187198419516, 0.02703213666891769, 0.051277828190931796, 0.028818026856442736, -0.00404209085990883, -0.011783317794890162, -0.11542589873769597, 0.054336562983444005, 0.05468833121552623, 0.04738650903539499, 0.1455980989579563, 0.193836076118996, 0.29673635812063776, 0.31462272910893524, 0.21696214347208773, 0.08659579088942318, 0.04086940347871167, -0.008964654827067249, -0.02093858293638206, -0.07478882246103741, -0.06046737113315746, -0.10700789573381525, -0.06968491835477511, -0.012659130005504868, -0.03827979023085479, -0.06118079949871228, -0.012745502242991529, -0.014327685094187612, -0.00929209391549778, -0.03048563456047648, -0.010943008292428932, 0.03892338799852247, -0.0295428288744677, -0.09821313134468321, -0.008208382375176241, -0.021600400701290122, 0.01287338881151455, 0.0380262961136303, 0.1775696610139877, 0.29391185771955974, 0.3972096635332876, 0.3386314728235532, 0.169684980523734, 0.06800213977213172, 0.010994930352469666, 0.0012276924184518449, -0.024253048664318363, -0.07330925539215871, -0.10973673437404066, -0.14866078983032893, -0.08926805851438432, -0.10363909766709076, 0.03752852750708001, 0.030116064626922786, -0.041000172601888506, 0.06404132628046472, -0.001447319189079529, -0.007190686171839708, -0.003376674023674768, -0.01107621415964602, -0.15801022695030237, -0.15732345276564172, -0.15581696422222113, -0.09913543953294152, -0.023147068039967363, -0.07693905727181438, 0.13647606622573885, 0.22724635153429837, 0.2911683285353855, 0.27479433940641623, 0.0914097023409594, -0.020309174360542935, -0.03361643337238341, -0.09495746514206642, -0.06230856288041527, -0.0971061398919796, -0.14641748833415355, -0.17987385639445697, -0.1103501122304621, -0.016179521503928155, -0.06653987166811089, -0.02265048714516467, -0.021871002477842766, 0.007058441745095617, 0.004942079559957111, -0.0964798019002934, 0.013339747226614327, 0.007642871978491642, -0.0817316333559042, -0.20190369034775427, -0.2623472555418301, -0.22591152716155843, -0.14882228124057792, -0.11858120176278412, 0.014097529068971134, 0.16808380766717732, 0.18933271953476247, 0.1734915197470771, -0.04084842040380221, -0.08533894448587373, -0.08312904604539754, -0.12443217896275126, -0.06547631658543623, -0.017488018352635807, -0.10588352651467346, -0.1352392345976659, -0.03326480247834153, 0.015707820427398676, -0.030083479996944374, -0.027689558570058975, 0.02887414927272581, 0.06769386142925368, 0.01136094770151276, -0.017143510267337073, 0.07034609505576428, -0.023398175889351825, -0.03338486771905557, -0.16227532757818458, -0.18466863135555697, -0.2387163859676369, -0.20009429813759813, -0.2419708682151733, -0.06319423647079313, 0.11346697865672475, 0.09112893933470181, -0.017146618745186318, -0.08124758810398335, -0.12404804827628785, -0.14129618981731945, -0.0911719258626076, -0.10603531828170916, -0.0944416365461966, -0.07719940344929042, -0.05712497393626563, -0.05164084615942642, -0.023892656231904088, -0.024472748046187102, 0.0016369120460452379, 0.04634651233244589, 0.05085758127855713, -0.0068661256817623365, 0.034837035782741395, 0.002989155977673832, -0.050985798926693256, -0.05295851832403948, -0.14846090813333487, -0.1413393791590918, -0.2912810979624947, -0.2333909938891801, -0.19582982827191656, -0.1021236976675947, -0.08951657907798678, -0.03956831901636266, -0.07478582576819286, -0.08165634992154028, -0.11652052527795516, -0.0438314447343267, -0.008559185675034392, -0.025773475628812458, -0.13352492321540044, -0.047795340266760404, 0.042652827789195664, 0.017956228259404988, -0.06043117293408081, -0.053829114263809354, -0.010460559998753926, -0.006653156877007066, 0.04574201504636356, 0.007954654651643906, -0.034062015931712535, 0.0065643911890573906, 0.02346971311816822, -0.023522648764303128, -0.0760329684757135, -0.078275588612483, -0.10127664136381345, -0.144897408107876, -0.154875458166637, -0.07922100972640782, -0.08288113743599547, -0.12499568779606442, -0.09313112571737554, -0.12073941548343746, -0.01645549652009371, -0.04524802838244261, 0.013886443115092276, -0.016417120618234356, 0.028270608678440036, -0.012886159861192603, -0.08894949254063034, -0.021212679611302323, -0.05688122058465231, 0.019952293695477755, -0.0007557855028245157, -0.009232618657989269, -0.013991698464359582, 0.017218253674629733, -0.01794901734809194, 0.008357432766607801, 0.04793390289141451, 0.08773613822677802, -0.04168569578692426, 0.011442033748868147, 0.0541366420413512, 0.0027787100230193484, -0.04467487897579985, -0.04695125781081596, -0.13127327283651047, -0.14687777894236387, -0.11674512002743385, -0.06193810775606241, -0.04426244870765639, -0.03867646128051599, -0.002527142414029174, -0.022492747824005923, 0.02952436597017655, 0.05931988325847002, 0.012700680374334734, -0.014884812126150216, -0.06497809403361764, 0.007733835739496353, -0.054078198119151516, 0.06481864860481652, 0.005837680691632081, -0.029362113034295416, 0.08985787132748421, -0.019422207288450725, -0.000837959992463634, 0.03181837104801006, 0.007147549390399561, 0.02178820336059451, 0.027390950456067726, 0.03988257570970393, -0.010473883482855521, -0.03480742775716862, -0.08697055955013054, -0.03828547657333068, -0.08841571152690346, -0.0947324064370488, -0.009814204147764781, -0.028207167771959533, -0.020634836334181332, 0.04137773139914553, -0.028357426128582993, -0.07397001744177009, -0.07039075379999153, -0.052722935296022226, -0.07741256665186481, -0.05978136373467936, 0.01961444897370045, 0.03446886486633194, -0.0368079652754294, -0.023198014401619678, -0.04286802812641983, 0.0023189297228863623, -0.02355883915801576, 0.07393453117709749, 0.026438793432090543, 0.020103622557030295, 0.07389781030855772, 0.05155270079035207, 0.03655530909325425, -0.007806806375498656, -0.023862795581257774, 0.03408336948456581, -0.05261674669808683, 0.020391936912364936, -0.04847155889468921, -0.039653619192097846, -0.0052286662577182294, -0.03145570428366637, 0.047326474400931975, -0.04160608214157837, -0.036925673682191136, -0.06814813849227001, -0.023725568439833308, 0.016624965949169332, -0.04489724003344831, -0.0646657371435301, -0.07183386771559372, -0.02545744999818938, -0.0028582593336556766, -0.02543139742132308, 0.033989996237859435, 0.0030985328960524243, 0.04396567237893807, 0.036361699071911814, 0.03468715541779016, -0.005105775900977448, 0.1184145528525063, 0.06287409677313523, 0.0978391934481793, 0.09183298592625717, 0.09573077557867624, 0.030364348225858373, 0.030224126337701867, 0.07476090233137038, 0.059669653210243055, 0.08240821764924845, 0.0034916058212191123, 0.016173174737656653, -0.010172207846035109, -0.062285558784704445, -0.0807049404966361, -0.020986819314928268, -0.03614293887814029, -0.024086142767660464, -0.019972942076553146, -0.00704179580526411, 0.019396772078065345, 0.018171266103435734, 0.049213657916598375, 0.0020925473286745877, 0.052439375311155556, 0.0065802048347354215, 0.04391119800560802, -0.02811842068702665, 0.031962025072453576, 0.054633114346952026, 0.08757216220014724, 0.10934291861759547, 0.13152377498904524, 0.14538634761394775, 0.10496925768857933, 0.06665262864898484, 0.0076909471730260736, 0.0855026941377717, -0.028559670748053444, 0.003329591286890677, 0.014203777399075074, -0.04916402940507051, 0.03602607104621, 0.01349332185208184, -0.017153249564499887, 0.04009839527222923, 0.07184282524427048, 0.0022764986962596954, 0.030076881457210332, -0.03847374361322987, 0.0126927046597118, -0.030051138848134217, -0.002284260932951241, -0.014646056363438631, 0.04220593699129145, 0.055262142321932065, 0.047380444393691816, 0.05556814293977889, 0.06271441888732604, 0.07898786914647292, 0.06202098932966714, 0.06882717345108023, 0.05950564181787911, 0.053171612484335475, 0.03948730021611352, -0.055882040441272006, -0.05222764283587142, -0.01417248174151659, 0.12860905083006155, -0.009059038059945693, 0.040293437621053925, -0.01564839809735761, -0.021246192555871117, -0.028288032550699435, 0.02806069854919018, 0.03900757588674028, -0.014829773165552463, -0.010824472577927234, 0.035916483095122693, 0.048013225285636396, -0.02509515314693554, -0.025068747676217674, -0.05407614425858706, -0.0016490384764014173, -0.04956569739171975, -0.029016575891384566, -0.01482437178234347, -0.012181293620748757, 0.01421138409496116, -0.08326961601346582, -0.046139160753646394, -0.0403235085065432, 0.021797675374210193, 0.059359560093067476, 0.0005698646562086965, -0.010489620199096184, -0.010130163900404974, -0.016650999600667054, -0.016203662984759448, 0.01694104125907327, -0.013974432697957414, -0.03255930488360995, 0.014241315554319385, 0.021765210046127432, 0.05174993518162876, 0.026088412125892205, -0.02132483853019762, 0.033873982101347296, -0.033000597091695234, -0.00026945044716812335, 0.018631694807508904, -0.03551924288865001, 0.01684737057451458, -0.08157656375035108, -0.06195252764626437, -0.04489217336679768, -0.0069004951005935304, -0.06637627889637095, 0.018173984304319168, -0.030497635408914762, 0.01007781663474205, 0.0168995523668942, 0.015219441009406372, 0.0037172431870336332, -0.00868505160259053, -0.007829516659803849, -0.01696224260421997, 0.03200477545083855, 0.004156144244902133, 0.008697661529572541, 0.006690984456218025, -0.03923842823537968, -0.03546061821259837, 0.05953075688007267, 0.05731792571471304, -0.007640629520556917, -0.0007214656301376297, 0.03265704110622746, 0.001002593325393561, -0.010455905499385187, -0.04525978319768791, -0.01194147087428624, -0.027237908630081863, -0.018800152959066826, -0.010500742501446466, 0.02309628943901511, 0.0004674829855125529, -0.047854840988145075, 0.004486917881307657, -0.0061382627566315354, 0.01394752765967408, 0.06744520447812674, 0.03345603237579509, -0.02518039180389491, 0.04283874192265855, 0.03599204529944281, 0.0075530364089210975, 0.017950745406600813], [-0.019746009328431135, -0.030301826723637244, -0.01820842386126146, 0.00012075348863029389, -0.007843897690264895, -0.03754497218283256, 0.04739662396645138, -0.02534639787182068, 0.03504695453920267, 0.03997863144894049, -0.04457545650405683, 0.09915619876660889, -0.015370648482498969, -0.0267166369888649, -0.025670428533263772, -0.015040418575228278, 0.00985114355712951, 0.034270977462074616, 0.018582097279552366, 0.007341383288611914, -0.004109065844973586, -0.02966641639398841, 6.05121580820015e-05, -0.04787749695926336, -0.033527540780586486, -0.04112171917282643, -0.02993908907580178, -0.015223863265267437, 0.03138445607822114, 0.0018293901164494206, -0.016989915881322655, -0.041953999131355266, 0.030417443550990415, 0.03465287640461656, 0.03220788595084932, -0.04384061430919275, -0.028079452212354035, -0.03619163895909504, 0.01783927391804156, 0.03797061695365559, 0.053808975026391155, 0.027232274965190827, 0.02284170512185027, -0.05736683186487722, -0.011948232468845674, 0.02626810744479117, -0.03835047710151485, 0.005183462543234425, -0.03267596131981444, 0.03390849931809564, -0.023950543596301162, -0.07080366831113165, 0.026550062910495466, -0.022675427694031917, 0.0074408178575892745, -0.03382440857831449, -0.025793112063649898, 0.025999912267233163, 0.032681264194912456, 0.04838787958503176, -0.027694480680093964, -0.026897402476210926, 0.020671078085094163, -0.014352236391714126, 0.014105130095133223, -0.0017741506262080628, 0.005776807549704383, 0.0333798094693533, -0.02529115675213687, 0.0023864815283956803, -0.026489209819982384, 0.0015694069191698036, -0.03074358961249188, 0.0022372845680392653, -0.06530304117527433, 0.010110509201952932, 0.00263519540378541, -0.0022967137995487104, -0.031438233020163166, -0.02651821027955245, 0.024464437654095717, 0.0016261648976320774, 0.035902311056176306, -0.010905294290195556, 0.01384961303333932, 0.08325371513015233, 0.029606213734341632, 0.017743653809813655, 0.018702687245218737, -0.039387002147306484, -0.009488103978332425, -0.07815400051983787, -0.050559008859973276, 0.05843561105362414, -0.03078970496025914, 0.045591620386203936, 0.010143601687357773, 0.028996799931741084, 0.03375213916786693, -0.03726020651712819, -0.07383688324458708, -0.07289917063626591, -0.13316514040432872, -0.09046790528905536, -0.021431271028574336, -0.02717173288207617, -0.03351521006975909, -0.040491078026633376, -0.041966468488621705, -0.015062339404915045, -0.030028068667246412, 0.02939617528006746, -0.007970144662596356, 0.040311373520536195, -0.05742632237841275, -0.06368837076240076, 0.033276770157489595, 0.013225364256127114, -0.036118341695877895, -0.03277687319614389, 0.10958197584511263, 0.07379271636404275, 0.019032811081856664, 0.07170079897654615, 0.11675980751730118, 0.06480890675268658, 0.0687067472736028, 0.07155300870821536, 0.0305721479091769, -0.08935924798391628, -0.07983359884564693, -0.05565910643259641, -0.055178137481960564, 0.009341832145779442, -0.05402082160107324, -0.055548189401043065, -0.05766145687186489, -0.02028066361037973, 0.0357419611974987, -0.02352870353403381, -0.04208415531434245, -0.016980604960114967, 0.02163198484920164, -0.0786236680715186, 0.005992219881584101, -0.040181304808490324, -0.0031796164799032687, 0.020593980129967035, 0.03009945696425039, 0.1031015961881458, 0.11061460384780679, 0.1641004076850405, 0.17079187563202647, 0.18445023140429426, 0.1208376973906904, 0.06689938641223656, 0.07257638109002632, 0.03801077700400374, -0.031423520078920866, -0.018164585216279602, -0.0008362877348759923, -0.031067623104186405, -0.046749118738466065, -0.041889675225136314, -0.050406839160710995, 0.04419261989487917, -0.0377511452600309, 0.055971693517218084, -0.009488171527508148, -7.252222928354372e-05, -0.0161592778039989, 0.02533910241899545, -0.006289570045938034, 0.020699683523126337, 0.06390629690980357, 0.04027546764867293, 0.08878398071010395, 0.07094774019378211, 0.04636633385697872, 0.10275078657592969, 0.135853701797931, 0.1896976442034471, 0.16606776059549544, 0.12022263016208788, 0.13800921849057066, 0.13795618332969306, 0.09094401725012682, -0.0004368094806832339, 0.038355820835911617, -0.026803626780178266, 0.009212876690616711, -0.0140257432632942, 0.027876712267953154, 0.028540459270827743, -0.02253314536090112, -0.006949070462019037, 0.027369010660048196, -0.03712246196460226, 0.06536302377389806, -0.0729724580654577, -0.027584726502553947, 0.035053721425208795, 0.0006023984067953475, 0.07428159141785401, 0.05061983930156748, -0.04187638540219619, -0.02283293563287724, 0.07683947918018931, 0.11340989866829351, 0.15369584560262575, 0.16966572309722047, 0.16808461053663465, 0.16382590284266155, 0.06515233823166774, 0.024653939208279085, 0.03890920248009117, 0.028030989024666837, -0.017760991928042855, -0.02075619823665125, -0.03565500607602383, -0.018087457490713763, -0.028582931580426983, -0.015015772492638817, 0.029460360978143387, -0.015326204288820689, -0.04730567367095705, -0.03631679561581381, 0.00323079117151491, 0.011011963037189354, 0.026626326171146807, 0.029888783370681772, -0.05098557738781216, 0.015389082603919132, -0.05288247570350102, -0.038075906458114234, 0.05303381726730427, 0.005336464406819776, 0.07454114591762127, 0.07649565837372098, 0.13711237487075298, 0.037356844064017646, 0.08428088259029355, 0.14737052421718588, 0.08676641567542807, 0.06426788560804036, 0.09227087100615392, 0.015400456946159295, 0.11185799457563417, 0.09234037342805654, 0.01811271001433256, 0.03096067813640191, -0.026106963753061405, 0.02673746480432987, -0.07046318121187363, 0.03793682527828368, 0.009658160776828259, 0.006248062580327508, -0.0022753554957541102, -0.01804646378912078, -0.02578813360710834, -0.03330707184887145, -0.05288469379242596, 8.61933338186442e-05, 0.04935494499196333, -0.04456490224121795, -0.06606608637401726, 0.040847689352035005, 0.07853532765413296, 0.03261419709950422, 0.02801677586273405, 0.09707422223655107, 0.11588043001681089, 0.0757095459627639, 0.005267191491233237, 0.07738348054852598, 0.010798803368842775, -0.030409890023572562, 0.06499490230033952, -0.013756020098225455, -0.01860673238656649, -0.038326695336176025, -0.04734674212260953, -0.023540473850822384, -0.052189529183244786, -0.014169070634520064, -0.049143717867498785, -0.06646765662378858, -0.05944600876123059, -0.00540733664541892, -0.05488483330864101, -0.05933293246303377, -0.1113582222066671, -0.12992161777914427, -0.09038292846526172, -0.017650337167623, 0.08094113374052629, -0.0068860243195992535, 0.030974088045317167, 0.0757339026246245, 0.040338926554713044, 0.005286600558164769, 0.0653836299705768, 0.0016332727810321067, 0.0376773473500434, -0.017553924261159218, 0.03142734181684378, 0.04793967347459832, 0.04590814647594622, 0.030861662251384155, 0.013671261348145058, -0.07798670666656052, -0.012356188653914366, 0.024690752738157903, 0.035012478439085275, 0.051097643809726555, -0.08690172960547839, -0.03459229028669305, -0.057641005495281325, -0.1184087421730147, -0.1194917685314999, -0.1632642967059234, -0.05324743582300377, 0.16517055966484503, 0.12609100787909627, 0.024616883616526017, 0.042823813729208134, 0.06626171760114237, 0.10391614238340756, 0.05936691542075181, 0.01329517767097997, -0.005469045378170448, 0.01712848722630848, 0.03389114462794823, -0.055591365206893485, 0.06788580406261469, -0.07137422624310565, 0.010223829875538269, -0.007276306889173989, 0.00909643101210465, -0.007937036692854088, -0.011423699959864562, -0.0006630414111639081, -0.030009123205483115, -0.03459236498769312, -0.0845767263377847, -0.05264492751918501, -0.15314886707520162, -0.15214041602739187, -0.20269273989337944, 0.006708272158205425, 0.20620037596558094, 0.1644028782170906, 0.046744642113195185, 0.023812313914138062, 0.12672446873229345, 0.15785672165453074, 0.047909907413197374, 0.0066891850682866075, -0.07067957340441891, -0.050537183216348126, 0.024177983105521227, -0.021323315334523456, -0.029048259321162274, -0.04728226930180261, 0.046547000343451, 0.004637196087031755, -0.01893619380808489, 0.04306146394948964, -0.009723139604099918, -0.032176385159043724, -0.11297142929441757, -0.1053922762481195, -0.09464787057165705, -0.13325239211867984, -0.20209533114548162, -0.1963532000521635, -0.1250162604641912, 0.13063793207538152, 0.18771380003158722, 0.11390191729971329, -0.019831170770641796, 0.01962655739861722, 0.0541963198097671, 0.05173931073907374, -0.02012704202386379, -0.038053269544013196, -0.06482656251431917, -0.10628227979436297, -0.04283689405019934, -0.01117592407020119, 0.010672813596050278, -0.028389973717325614, 0.030938186177534178, -0.021375512735906883, 0.027264281368005284, -0.026694794684069444, 0.009233267170605684, -0.05749679186002087, -0.0819025397399927, -0.15211892217153725, -0.0749269745994456, -0.19995898533947407, -0.1420528257217668, -0.149368250008815, -0.028753300566861595, 0.20222931993538545, 0.17567360806527652, 0.0875324834934274, -0.08533409600024093, -0.0037120572510239793, -0.018808572945209698, -0.04217916812309649, -0.12453978543057859, -0.13365606120749118, -0.146499750474273, -0.06785196743585187, -0.07161480386673445, -0.02277581808835811, -0.002598497000694273, 0.04941997508901669, 0.0109361158118364, -0.013662081771843498, 0.019271285259294113, 0.011685415541513753, -0.008873614063365218, -0.06776303656427554, -0.11175270602633855, -0.14850710905366285, -0.12162308029668109, -0.14073944170348993, -0.16920559959761813, -0.034245992144285906, 0.12722617677219242, 0.19358947313262706, 0.16012110591987047, 0.017821370848903298, -0.012306146461138399, -0.09526861597226298, -0.10483140211280408, -0.07095936084834464, -0.13003456902490307, -0.15855977622337303, -0.059028949237162585, -0.11940883038848951, 0.0013682450659569414, -0.03890688945428354, -0.032225396877373844, 0.01804867173182087, -0.03354977203188339, -0.03025420879363424, 0.0006713700767043042, 0.02414615913926791, -0.007616280683195717, -0.02008826004578571, 0.006997891538315842, -0.1625127000299125, -0.11818760368538907, -0.14665937975674828, -0.052677444602974, 0.04055638388872767, 0.1047430038832016, 0.18890095884606659, 0.10906306185198118, 0.02171810742341269, -0.003795087898873825, -0.07395704186410368, -0.07155119581299765, -0.0872294230370328, -0.09719130483608046, -0.09137983049817633, -0.11238302366500294, -0.10707089357593895, 0.0009281492086813553, 0.02873294550915723, -0.006811504701716549, 0.019951482800771407, 0.04356750469071881, -0.0016992543233266206, -0.027392723374158028, 0.01665049327397784, 0.08842103677231032, 0.05424532341707117, -0.042670893659616876, -0.04374072681655837, -0.06239709055931608, -0.04519660141271958, -0.043299297108805056, 0.00445678446994759, 0.10859658668503536, 0.11519582268940458, 0.08348466122819762, 0.008779917417024719, -0.009993298895392943, 0.02444568810579365, -0.06287151618272041, -0.014006109887166612, -0.07668237689372494, -0.040785463234588204, -0.013248120320876404, 0.016376059788205027, -0.01576009490099637, -0.015526899710698146, -0.001789757505862113, -0.005268805439613135, 0.048597086219335305, -0.02239152570639705, 0.02238648887560884, 0.021990462712057707, 0.02505715371503755, 0.09038503355597947, 0.04058721208546181, -0.02314329759305654, -0.04016081404115875, -0.024005193942946635, -0.04296218240934271, 0.032398535532186155, -0.000794870228854686, 0.04553813369071856, -0.04002602746500863, 0.020033378720884648, 0.04103304417585144, -0.05408871301699574, -0.07823595737609819, -0.06311064974168147, 0.041131574666899734, -0.01684956821362864, -0.0022774324958537333, 0.0327333876194142, 0.026144939145857728, 0.054114196114035895, 0.058225106557389474, -0.021863041698351234, 0.08935657005269106, 0.026961775950920534, 0.006692492761111666, 0.02614519393110174, 0.04781625736870724, 0.06503135814155017, 0.12048914987398339, 0.1233749404424461, 0.041786815844790486, 0.04000938709114113, -0.006290022098905759, 0.006586017850903774, -0.07059465837835992, -0.0083261353725418, 0.02945157831188263, -0.0009680890629591677, -0.020248625770234913, -0.04083840633440946, -0.026798651600200694, -0.0076790999660053035, 0.015017522388702917, 0.04821587666346285, 0.032851768090272064, 0.032483581324958925, 0.038601302525005106, 0.023682112453530038, 0.013263782969978858, 0.022045814431878467, -0.015845228396329573, 0.03676756093140373, 0.010731727673787338, 0.02512248973842906, 0.004659033902477375, 0.12434505463811711, 0.07132918814078251, 0.11887178833279374, 0.13278155992393237, 0.1304238583679035, 0.006374355223211988, -0.006701367975628719, -0.08087102533718687, -0.15576551759552115, -0.09423520176232877, -0.11871088906155525, -0.010202551024144755, -0.031836090171452405, -0.016816442575015602, 0.01757396868425033, 0.10628104960398374, 0.05148758858231862, 0.019343516600920443, 0.07431031345786421, 0.04343730644999122, 0.05458349911965204, -0.04925686940329736, -0.006366218751746495, -0.03650199327869202, 0.019324345552663914, 0.04457841401830225, 0.06268253270985037, 0.06593054188828792, 0.04042676088326971, 0.16839756160376224, 0.12045865305475299, 0.1268447908760647, 0.10154918318929819, 0.06323135847865832, -0.01153961156336724, -0.07616845569048675, -0.020648998550867204, -0.04071028395263378, -0.1076014731222455, -0.03562343858882668, -0.005368441662229535, 0.023486759243476818, 0.052649197419740425, 0.048057141456839265, 0.03597808338815225, 0.05681170329679093, -0.025148482146373254, -0.030314082416174483, 0.08654384389071143, 0.013399259224626068, 0.036092878327578515, 0.002408641342569301, -0.0019753438677338774, 0.03638497176807225, 0.04817750648014204, 0.034090332914399085, 0.048493990437368156, 0.09987435246440039, 0.0939690421448606, 0.038700636441924986, 0.09675844020371183, 0.02369555902226283, 0.005841824511287976, 0.02554031540270123, -0.00976452725524962, 0.008022117500181619, -0.018410973637466167, 0.05339805429722669, 0.06926219650949006, 0.09730600716703561, 0.056211006445411674, 0.1119579757102166, 0.09125252046315914, 0.0007118882918907207, -0.0512965712927543, 0.03321636351420932, 0.0050403556505686994, 0.038002146117101385, 0.0008403622151141965, -0.03400034522565863, 0.013850086355014626, -0.01375012817239935, 0.02477152455214548, 0.029428301643085273, 0.00686477488390209, 0.017753246486750095, 0.055295874213250364, 0.019962205659957467, 0.05862591572217943, -0.04405806458665369, -0.03091620021606175, 0.09270121906967696, 0.06314520438947809, 0.041613026485183766, 0.005907816331961101, 0.05001760866743984, 0.12359711006124025, 0.04773710607913772, 0.006061978470159788, -0.004578853068547318, -0.03079444487368117, 0.019134635267960196, 0.05189540703134134, -0.023144878769750146, -0.03404383288565994, -0.02695811331224278, -0.012298759862433494, -0.03195099327520078, -0.012119238229681303, 0.0012002747015057384, -0.029508941810533137, -0.0006687322181965553, -0.03743187113112773, 0.09750837775570005, 0.039830048498753656, 0.03103213447748441, 0.02272519311094423, 0.02002505749224576, 0.004390810111551281, 0.07094426270370206, 0.09514682935964434, 0.03827904237614011, 0.08551037140463363, 0.07306794064075188, 0.062283700358468044, 0.057622471121868205, 0.044034116888243775, -0.013832552404063492, -0.07529434225579057, 0.0717327287550508, -0.038579667576589906, -0.027929527179514135, -0.003890056409643001, 0.01869720278197231, 0.0011679690515040283, 0.03361967304552916, -0.007841374495696104, -0.03822456266267027, 0.026440946920128022, -0.06555792748207509, -0.05170575270111394, -0.05888149351338512, -0.06015811355083077, -0.039567754851842704, 0.04662389940402404, -0.10039065127940094, -0.07142953879618452, 0.03175508245181283, 0.03954345235328261, -0.008679351951042663, 0.05851946929322439, 0.049323251052699156, 0.03372181217811011, 0.04557953296839603, 0.029441133130904545, 0.0672447811991938, 0.012946247520511973, -0.030380500485921516, -0.05881597156390294, 0.005988327321427925, -0.007973636363093955, -0.023468903139806218, 0.0318524413298919, -0.03811715056040427, -0.00642962688022325, -0.0032207991069297054, 0.024397483303505815, 0.053243336359267486, -0.04059399574885684, 0.024376802164371183, 0.020120959459852025, -0.02183153624160025, -0.03093128140646412, -0.039782464129467815, -0.035909596359338825, 0.03207184013554496, -0.07979965396856183, -0.05842164889895987, 0.0006029888132474237, -0.0943793391178488, 0.008744770767104814, -0.01515746461876399, 0.015964628967213196, 0.02285592416736528, -0.016564982305951235, -0.0025347956500515996, -0.06621396835018323, -0.09259732828588489, -0.08670037887752731, -0.020998955697578234, 0.034977891538827424, 0.04606080975557776, 0.003071344945219215, 0.014607254037496142, 0.03335395536268564, -0.01135386497286457, -0.029662241968300217, -0.04587121213454048, -0.00040201725018180904, 0.00038274335944796966, -0.055469429592510146, -0.012471655454920806, -0.02406615976656433, 0.04700637698895548, -0.034374797127748394, 0.057264330104667416, 0.024282128641104943, 0.07403365479890328, 0.005794467745945934, 0.026335022982275857, 0.0072518179376525604, -0.02113413891803933, 0.02928138190157464, 0.007144881240206512, 0.035803583219871704, -0.024722668108171884, 0.018518041758503603, -0.057604012444960426, -0.02339671431614348], [0.07672919489126585, -0.04933166041694828, -0.026858114553670046, 0.03203753695065178, -0.01462465006647772, 0.030736715855480046, 0.023887457302547058, -0.05420325853464438, 0.025272131642605885, -0.004301456634237404, 0.015331857401306125, 0.00480255341496261, -0.031539451059916554, 0.045946224870995464, 0.04544996566688614, -0.038392217465463556, 0.007013249921208948, 0.0139022280263132, -0.001873984595441323, -0.005033618439242189, 0.013937494968157865, -0.04387915339606562, -0.015580771241366734, -0.008028248829702456, -0.022611404931722853, 0.02116404493122818, 0.021742073474483915, -0.04141478204779437, -0.06549800278696716, -0.030574709284589427, 0.004479717237575396, -0.0246534741277432, 0.02282123816871225, 0.02708163859265032, -0.022822014618620306, 0.028724561471404814, -0.0010506331949997024, -0.04853978138932976, 0.038605269629235384, -0.03361386953569089, -0.029644512778949098, -0.02936018277202575, 0.03528492120306731, 0.003077689263518726, -0.03453914789079687, 0.04110034518055065, -0.018460922092299357, -0.02998159159173044, -0.022515031913213482, -0.0020172771134667274, 0.0007819979721470075, 0.0046753348278223425, 0.019332500021965647, 0.013657563264654976, 0.024369314477706374, 0.035708325177908014, -0.02795122067177314, -0.03202316756498067, 0.041705870804728574, -0.057855684454678494, -0.012553651504311038, -0.01033895550927789, 0.011321593016307975, -0.03585709237165335, 0.0018425709958406243, 0.0051306848301768074, 0.046475959975201514, 0.03385727843552863, 0.020927219589778712, -0.018694304890634658, 0.0814084073965207, 0.000980926528181271, -0.02564145171909594, 0.056756323825176556, -0.07860470781749976, 0.029607669870116277, 0.05023922988955464, -0.0065751777129866695, 0.03798398972839491, -0.0017984857199176939, -0.015616265936523968, 0.0045781510308601685, 0.037636310441887644, -0.011344593491937416, -0.014161933527594699, 0.035723422838463546, 0.024873615948473985, -0.05278983363031521, -0.004928315017494468, -0.020530459838121868, -0.02295304143922684, 0.013554167694152928, 0.051550495134238525, 0.05230770943314049, 0.05301623623074158, -0.03116289924083627, -0.0037570382326241273, -0.005411835207553387, 0.015209582968009937, 0.020331065378430692, -0.04014531688744971, 0.06705441470785109, 0.05137844049681698, 0.023127582248016337, -0.012313173265910868, 0.0017796323948610165, 0.010502624086300887, -0.018424805097542157, 0.039479065770852535, -0.012732669523940046, 0.016842778404873616, 0.05616694584192896, 0.004549511661879076, -0.0008706960679937795, 0.019794146586058575, -0.010766943398912553, -0.0064674623811892835, 0.002087440779770496, -0.043337181678587994, -0.041393110597728364, 0.004500336431666206, -0.0022171907430360216, -0.048601058971655384, -0.0380732118202585, -0.07492687845674148, 0.04007583865984693, -0.030967997724083058, 0.04730513796922971, 0.08332512253288807, 0.013072944242225418, -0.0014444708953379123, 0.00470833312791235, 0.05220433112997639, 0.05373520481330311, 0.03253252388545455, 0.0001498806741473846, 0.03729900619140889, 0.0021019357636124507, 0.07209580319695794, 0.023363285518271694, 0.015092322099222394, 0.045869646928627564, -0.03654688159898864, 0.023835026879129438, 0.02998521060555144, -0.00032766312036380276, -0.022053691699222534, -0.011679767045586039, -0.0707700281877946, -0.04220104540960924, -0.056534518735253364, -0.08393281054642751, -0.07057738770282877, -0.0255723329837322, -0.05350898832734081, -0.020885730509381768, 0.060666632653491405, 0.055480502310412336, 0.07515691489408162, -0.01697117034060335, 0.007069512996097051, 0.03040351929307207, 0.029721601513999982, -0.022077283046606593, -0.029096409095872886, 0.020655695869087793, 0.0047514727413089045, 0.007854861689880574, -0.0022631101375734076, 0.019449337868100897, -0.008727833383028289, -0.02982355441958903, -0.03270023609217963, 0.0013524120935706004, -0.0793836261363225, -0.0879645323184623, -0.12315954931969769, -0.04579812637103087, -0.008341088019831775, -0.027564501062499556, -0.04738235344744472, -0.062284192100344506, -0.02796869861149029, -0.029040315989689355, 0.019311351766923193, 0.0814674978076677, 0.009027550407869523, -0.012536296981572164, 0.007941300319530928, 0.04423328942920296, -0.025100277306263342, -0.05178240629728019, 0.015869614697812513, -0.0182474238127, -0.006746880620323934, -0.015090215449140954, -0.03849750400016274, -0.03827421939306456, 0.07233219442253057, 0.05947681709627914, -0.03517735729845989, 0.002339673513796023, -0.035966892174296015, -0.05255398501214207, -0.020365056195411815, -0.012002776975163502, -0.007857164242996118, -0.006017585807442579, -0.09186486010254793, -0.06740736065190854, -0.05073568563116189, -0.01849155105258557, -0.03530551787750939, -0.012700963130263433, 0.02744372346005154, -0.00013633375359675562, -0.01337725126458327, -0.035412199572943046, -0.034223019649754195, 0.062276204809548624, 0.03114845186008712, -0.036120350732272606, 0.016474879872006094, 0.059676528530099075, -0.06517208983311121, -0.07035410446817085, -0.012914751047151915, -0.06106945827357714, 0.01610783329680171, -0.03325954288995997, -0.04096105974155018, 0.009540602406266977, 0.01129975748896017, 0.03798431912869757, 0.02702059423914732, 0.09336917112638697, 0.014907134698085816, 0.054556112022305925, 0.06903856170955562, 0.060166900845429354, 0.050989814806579596, -0.015298855866461385, 0.01051106923770855, 0.014470505055838422, -0.061483741311773366, -0.015549537832663628, -0.07272053484191851, 0.03832146503066386, -0.01708762061295023, 0.05446940497473637, 0.10306878643867061, 0.03157147362769594, 0.06256096473849991, -0.013809011569379737, 0.005701824012170133, -0.034969776100612124, -0.0029576436588536962, -0.01801522336873152, 0.0019172930178185698, 0.04112942336166313, 0.04751072053389143, 0.10359630314514498, 0.1052682375602737, 0.06982344611606613, 0.12886616547922064, 0.10431224787597401, 0.07484337737632353, 0.036918397480384946, 0.09743671561725048, 0.058210465995650884, 0.029711642788359215, 0.020696762100050177, 0.01788107892163769, -0.035724852144409056, -0.020514886946535988, 0.02564194170976046, 0.006646410740015985, -0.003832553500305502, -0.015144316017576069, 0.01819754310540383, 0.0036825051412144416, 0.018102201977745893, -0.06372320540819808, 0.027999010687685517, 0.045528238005033105, 0.05080827756302899, 0.03008516804387458, 0.060629912387430075, 0.014928228229436333, 0.02511914049409311, 0.0693065250585374, 0.09621697345816721, 0.06054940737211327, 0.06083561542028131, 0.06840901925874845, -0.047122350295357954, 0.006085085761701651, -0.006094747456911663, -0.02324110592067758, 0.019493728276226113, 0.04311075228268859, 0.02004651090649328, 0.03156851769120461, 0.01671591285082707, -0.017357013422322737, 0.036737029568110285, 0.0300714926488859, 0.03843285753984349, -0.002964937784132984, 0.017619450380947994, 0.005767708708051302, -0.008683278232309003, -0.03574284913063326, 0.06196377866582986, 0.052636564455993656, 0.04396555183931531, 0.07847356368547473, 0.04622228384868746, 0.04950243948474054, 0.023075117817590276, 0.04583791456257897, 0.0008553873040128144, -0.07963834467190307, -0.08888146278017703, -0.07710433783484598, -0.11397905851997239, -0.08970060672726311, 0.005046704848246796, 0.03144719085715385, 0.0800691290590513, 0.04709840881831703, 0.05172648565830359, -0.09655452730650714, 0.03274957551462991, -0.003272580185105666, 0.01056518618058175, -0.057051470567467316, -0.048861936958361885, 0.009976788941700074, 0.02491439047331901, -0.03441430129263329, -0.031873220817014145, 0.10222189073610294, 0.04146214068065021, 0.024236122301773314, 0.011478959172474922, 0.009149199089519666, 0.04108605538759817, 0.005236005426937255, -0.060759742883690765, -0.1218390509439997, -0.13871225666026926, -0.10271836301862254, -0.1626718724167853, -0.07936548712771731, -0.06402992233171118, -0.007638252832641452, 0.056609591946847365, 0.1335761446702361, 0.014008327082223106, 0.07164098898689338, -0.04334179114542405, -0.07804085264428083, -0.009636453052626186, -0.07363215141351259, 0.013246287838285156, -0.0177371540875843, -0.03819237556857987, -0.005595147434348272, 0.06904869343667473, 0.010699620934435815, 0.03680222653855381, 0.032178449538474464, -0.009801404568567314, -0.06538249938376615, -0.02902019410640292, -0.08888435215547556, -0.14365204216135216, -0.19510613662429752, -0.1754804006809525, -0.14391898961187521, -0.13825950715722934, -0.12830185345328668, -0.05821568669909445, 0.05414576150990905, 0.01973373149571078, 0.06889149145812894, 0.03328865315293328, 0.05703843325140909, 0.02826960615884905, 0.013968891053095346, 0.01398978135286625, 0.004495624697701228, -0.012034717532332512, 0.0018080533233849876, -0.010446765359855812, 0.022850443104999296, 0.05006840143251257, 0.0038187488110977483, 0.03757002532126999, -0.04249477405151392, 0.029232089444719514, -0.00797781160746895, -0.059841868601605584, -0.11617634861909654, -0.1611290503663406, -0.1272123022646007, -0.16922435070069822, -0.1517397099092383, -0.16808221714382454, -0.14700356778492543, 0.006476894656755395, -0.0062059262961707395, 0.0934698540846549, 0.06837151717195494, 0.1087648040836414, 0.03165341039949672, -0.017243329902530066, -0.03845903322016032, -0.010901833987789655, -0.022376185904401987, -0.0050172133551056, -0.03570891949023814, -0.02206782234235389, -0.012904117828682464, 0.06471398910670371, 0.01201994227457386, 0.008596352366167093, 0.008726601679012843, -0.003986092931027294, -0.02822003347392529, -0.10111549111389201, -0.13493035205668732, -0.16655722964904296, -0.07925708534850906, -0.06837907427779377, -0.12526685546986271, -0.12529711629153084, -0.14573670694471536, 0.013008440506110337, 0.0187829070030431, 0.049178845785999285, 0.06872228438799573, 0.030559799580978313, 0.048560295568652656, -0.0196856882987104, -0.002462627312056134, -0.02254077190648691, -0.01942958597599972, -0.02437608034906595, -0.0180190340298227, -0.02117035332320702, -0.04679267621083017, 0.006305983337756074, -0.012518337287202719, 0.015063555394788007, 0.0401513519417596, 0.0752329787979491, -0.00756075122216944, -0.11785860413184786, -0.16389288203921856, -0.18295779064741557, -0.10809586206976349, -0.11215388223495248, -0.08246401952577949, -0.1686003867645084, -0.030351815890948056, 0.038841946342670415, 0.012343442134715759, 0.07416976452243708, 0.05505790198381979, 0.018957128784630507, 0.029446260830375114, -0.02327584741488603, 0.050106344495691825, 0.038338164112810436, 0.0023382408913836445, 0.027755616852304876, -0.03138287598834521, -0.04196812335176711, -0.0021091083762594448, -0.03140248220701544, -0.03592336449365608, 0.012361869335098589, 0.0793668752044273, 0.010419821730315514, -0.032693468505559535, 0.024893079208520904, -0.06588724843374298, -0.06500353686991305, -0.0655059246711643, -0.11821934568012624, -0.09259481847033446, -0.06733523736948323, -0.0058414131480727625, -0.000966722368593113, 0.004714522870822027, 0.06424234562035328, -0.02540641768054285, -0.023791436156747232, -0.008683407676459889, 0.023297139888080312, 0.03912552095179637, 0.0011438573026712378, 0.018530124943548262, 0.06280981996611568, -0.0010313596321221462, -0.01774474681870658, -0.032926566615042716, 0.06160517189940797, -0.030629315975257927, -0.011992800956803497, -0.002392377963007416, 0.009965059415387476, 0.0791473156710212, -0.040267184846993376, 0.04621469887195501, -0.003297788196239938, -0.04711069051407894, -0.026084442376703734, -0.05499992201976355, -0.012276220828038547, 0.037476270561112426, -0.0004763341966279076, 0.024374309855076867, -0.02733908176916235, -0.04548956671494759, -0.03462223139661889, 0.026695962719404994, -0.01705945013251713, 0.014650501158568743, -0.03320334407101981, 0.0809976385614688, -0.05081744039382934, 0.058336856825488684, 0.01171567734881891, -0.04950984906209347, 0.008022878180591327, 0.04030258596300861, -0.002566250069746362, 0.048145864305662915, 0.08735567441967892, 0.060566128719047034, 0.06955860058064868, -0.0292804815752825, 0.04423377962924438, -0.013708850603772853, -0.003941567487430348, -0.0331909471717611, -0.0189901096966002, 0.02559995032604563, -0.004358222519984278, -0.05707849830470153, 0.004688054830903867, -0.022347771353397456, -0.03118880315251122, -0.013298233661125718, 0.04539125586754593, 0.03036355824443882, -0.0012765967031359063, -0.04629273126788392, -0.008099217101412391, 0.06200265500795828, -0.0643824677648691, -0.021065266858336727, -0.005011062690019095, -0.04687823597861014, -0.028907317256824425, -0.05413365820731374, 0.04158426452687859, 0.05121436517449178, 0.11780334466723348, 0.08394205007799393, 0.11889799527929833, 0.006829866816814818, -0.000192163156387886, -0.0020152145651330484, -0.007149546102485071, -0.06529409337059632, 0.029384749554096642, -0.07860459036993586, -0.001397577667031809, 0.01538471350399932, 0.03140168937024589, -0.0010246852673563127, -0.08915918359714574, 0.03008785255268049, -0.02919198986533495, -0.008970823751671643, -0.04310437238577983, -0.02711006231314606, -0.07166690475836797, -0.05287149394764906, 0.006917528624741296, -0.018016222218834137, -0.055896510580320496, -0.004391978227470739, 0.04561434279684829, 0.01795523093735765, 0.07936396929957645, 0.07338377540291452, 0.10031264946014748, -0.027216792546900948, -0.024489049453644038, 0.013410521386465176, -0.009106552987920766, -0.09432146624443236, -0.04338852855498174, -0.05220819577918776, -0.0019382298181659465, -0.05408738837635201, -0.02074513267907469, 0.03545853258511094, 0.030434814429955475, 0.11280753005922445, 0.07932805787071442, 0.013504704167162722, -0.012927316402243913, -0.06386346201272715, -0.016690070101866853, -0.051093754661979865, 0.00637928614743561, -0.1065323478229313, 0.005422120933651734, 0.027006900046048818, 0.008769457547866826, 0.03489476472525612, 0.0494851000292347, 0.107293939412576, -0.00920343676610139, 0.052225992929933025, 0.030523771124851475, -0.0018130094991132095, -0.03401419340461585, -0.02424942322970511, 0.011902227340232429, -0.07412549801571428, -0.07527984330879918, 0.014527997325895436, -0.001075300765149385, -0.05720361263680669, -0.01573937088908382, -0.020446425349356007, -0.021665446682671147, 0.0693303060580887, -0.07153111408857447, -0.04437040610162767, -0.04642165719495455, -0.012171765506458255, 0.0018121500597549443, -0.06509031331858438, 0.007908538289677892, 0.01757427981661866, -0.02972486099116383, -0.008025525236513903, 0.05474272091480823, 0.09790894933932981, 0.08607019554028075, 0.031381625531417115, -0.06540564340308914, 0.00027617140084526624, -0.04080207936266221, -0.056273399958353613, -0.04113121554083584, -0.040188660762948344, 0.036222583961294484, 0.05096336532394202, -0.060634931748557656, 0.033304979330314885, -0.018436445111449935, -0.033276309308102554, -0.04184564324905912, 0.016430293340670938, -0.11489577025973727, -0.003132468184159694, 0.00027101224742610586, 0.0013369538274481804, -0.00039384085226523393, 0.025332008696356607, 0.00953207321393477, -0.011364789048881002, 0.023476876961411413, 0.08253278690142203, 0.05353787445251141, 0.03795298913591976, 0.02363955239890809, 0.027882815926975495, -0.014892449458039917, -0.00648038246865397, -0.022146272422260745, 0.02241869894635946, 0.008340500402214008, 0.0003920334585805346, 0.037658987186352355, 0.027562433931288002, -0.014325997196004019, 0.0025548975221566265, 0.03446352799475298, -0.03110333488778452, -0.017958723941481628, 0.053065839899935546, -0.07719034390238172, 0.10015998832192764, 0.022192901342339647, 0.02372847812787342, -0.0028914907461224434, -0.01753862499488665, 0.015242725688451142, 0.020383723283456456, 0.003304690492735508, -0.0168791972090252, 0.026154724604360878, 0.05851649098817768, 0.01627097600367315, -0.0014175489245633315, 0.022350443737441522, -0.008711848161202783, -0.04149446662954699, 0.00959953545151499, -0.04898978392573873, -0.018570365393038576, -0.01778577393356491, 0.006507261299237276, -0.015813794894908136, -0.05259208984700666, -0.019279828346516203, -0.006534743396755459, -0.018371811542503624, 0.03562584063615785, -0.08228598595956405, 0.05423593947755544, -0.010386186199613, 0.0008279680246549971, 0.004623084136146267, -0.0169379463591582, 0.035154210697730455, 0.004601935898232412, 0.04011811417698125, 0.05221627344970254, 0.016103747485288738, 0.018999310095670404, -0.030739726571214526, -0.03261497336169342, -0.026934934895552955, 0.044705213407343264, 0.022765318418512898, 0.0007204419440914609, 0.02163098557704159, -0.01972263723347681, 0.06165578829033951, 0.05129431840884978, -0.019813857928103702, 0.02836687196873574, -0.011760561827064343, -0.030879103218637037, -0.00788280127550581, 0.010686542066481921, 0.044182751900496836, -0.013935916570898503, -0.04042519627515989, 0.05547107432682721, -0.02323128486398707, 0.0069645365399986295, -0.004134919011905544, 0.008422410890631558, -0.044078752156651274, 0.03740076318974033, -0.05679960076930753, -0.06887098889103575, -0.012663198906150721, 0.0004788712373837872, 0.027100200210971908, 0.00790468003582769, -0.009028993114946702, 0.014368423354175496, 0.02870736407437505, 0.008674711878310735, 0.0238015130492754, 0.0054542226117323895, 0.03195448670525583, -0.0012458958272126206, 0.05866057522820556, 0.026639348919021425, 0.035452941557424594], [-0.04762298115863079, 0.0632463846139445, 0.06623182123166801, 0.012983442889379096, 0.031163637855837197, -0.03582210311903673, -0.00984114726390864, 0.030014567380388532, 0.030467723309700743, -0.019253882345990046, -0.0502042484136165, 0.02871958158300714, -0.017369987636086714, 0.02705607553482151, -0.05004245629163322, 0.020295349722165956, 0.011424250595499013, 0.01104349654365277, -0.021857153974577093, 0.02168352723806787, -0.0026559223781070637, 0.025958958288252947, 0.06484690557862965, -0.022578328160869694, 0.023970359068007038, 0.10812103109403477, 0.08670648531082958, 0.010277015341173062, 0.03409977916271513, 0.02782983991270884, -0.020651881224560825, -0.013402104144299954, -0.00789254062040235, -0.011898484508604533, -0.015407800816792818, 0.03919253274049903, 0.0640897889653172, -0.025441267623706278, 0.08274068596306164, -0.003956220891429142, 0.015979717498743128, -0.014121890451401449, -0.010950059319262675, -0.042615320763032614, 0.04604201780622434, 0.019070771964614413, 0.02433011008196869, -0.04280061608447362, 0.021755585820057925, 0.017675927868586943, 0.07230183808299326, -0.021290220494876083, 0.01935687435115169, 0.03579632909071673, -0.003970182041983923, -0.0576090823926631, -0.02198381216699719, -0.006231801071926652, 0.00704145046219005, 0.015205665392674716, -0.05548867624893376, 0.034286296765232184, -0.0027388703257573473, 0.059567357221029384, -0.022758776348893426, -0.007238663947815922, -0.0046098608956769505, -0.022142882065790487, -0.04741880554554917, -0.06732481174243822, -0.03996488517281758, -0.04574555296933284, -0.014125092583438309, 0.044889505176070155, -0.08399788764210984, -0.04794252372851438, -0.06813373159743832, 0.029810748082210407, 0.008975679679884403, 0.047607965961256896, -0.08213807791335463, -0.034080617930321376, 0.03402591631631958, -0.006716259336474455, 0.04228393029485392, 0.022864486126321748, -0.028693562942483642, 0.04594645423573855, 0.057004635289846596, -0.02212586632921219, -0.06063333792498151, 0.0015790366708069768, -0.0028066488331209634, 0.04901667186806125, -0.046132615296935034, -0.06320151059950972, 0.002719061561122695, -0.10088422028697952, -0.03142487942651708, -0.058725997178781485, -0.09259511919830793, -0.0673845038435985, -0.008241937513150133, -0.026608725025784406, 0.0500258049834985, 0.013472378411573747, 0.037128567954916945, 0.015610160805325438, -0.05721757000615608, 0.009464257457428939, -0.003540709473326574, 0.024911550249829644, -0.05782551044410684, -0.01670908955997499, -0.019721234974600862, -0.027112233635804877, -0.014786608255116997, -0.009496561768360431, -0.016177251853827523, -0.022833595796564063, -0.011542871926917423, -0.0676909351784152, -0.06434601556728471, -0.04327394556333103, -0.06902758253011047, -0.09765336031500915, -0.08478062303661445, -0.0836397963582325, -0.057223806681351214, -0.12007208767235339, -0.06871945799093979, -0.04575666625957337, 0.03636445826793917, 0.015722374175011305, -0.030996781601511092, 0.0016940144905918126, 0.004409154283222326, -0.04111847589788183, 0.00809983146361916, -0.011199433744705297, -0.029235665435988337, -0.0022190216580829526, 0.03487151279918294, -0.02874658062518496, -0.037773620581112485, 0.0337121958846914, -0.08379384957071702, 0.006094657848381987, -0.05968101273424253, 0.035099141159787545, -0.06516246856357456, -0.05310135447317121, -0.14416985029238014, -0.11872603818272158, -0.17075164799554585, -0.12357419199437358, -0.14068579253324529, -0.1155042497514289, -0.12559623135390463, -0.07268150616860176, -0.03357850909868385, 0.0025226520724258754, -0.03314987729722106, 0.005422476449308837, 0.007757245158841604, 0.03244557343905781, -0.05178868647241297, -0.021394142678797485, -0.08586011950971814, -0.036941943199040476, 0.017583733315349993, 0.08000682192388574, -0.03258750641234386, -0.01827129922656836, -0.021806875045540294, -0.02813108982036858, -0.03674684163379802, -0.02973659525991099, -0.10308550403856215, -0.05415127817273337, -0.05168287361801249, -0.016845105845332185, -0.0682374904787823, -0.040551083790256924, -0.053208129756992524, -0.11218657158680682, -0.11935927735293043, -0.03301317243069226, -0.04575374360374234, -0.04504603181206453, -0.01800363736100675, 0.013359973910685895, -0.04556888793601515, -0.030783265517928447, -0.022558766479284793, -0.009021648480268785, -0.03590998761444855, -0.02035351526896316, -0.011617864749188887, -0.015736655927828958, -0.032596197464401684, 0.08923329797490019, 0.005484922367486834, 0.0799224970649076, 0.014108265894945111, -0.019168883783789035, 0.01278490533557159, -0.008872967660208132, 0.0377721676396381, 0.002898576369191089, 0.03030721084115221, -0.026813206959105114, 0.057176089476327595, 0.07771190391865214, 0.02846849665266316, 0.026742705962012323, 0.017809151093642693, -0.026997968464034308, -0.0299089865143738, -0.08577894786810597, -0.030050532914313643, -0.024206710910307308, -0.02232860406120374, -0.001854816452596568, 0.015462981567400438, -0.019463476373759024, -0.023330967232315886, -0.012425671047519895, -0.01145582870732976, 0.027934490687323316, 0.06209496892408944, 0.05520745708633667, -0.01889051959684586, -0.05191789190903402, 0.022787692144323208, 0.13589559622727274, 0.03555774590467651, 0.10408441924610214, 0.01690157135179555, 0.12157651311533903, 0.028561681329720316, 0.14623687186231302, 0.08787599434902958, 0.07518568638733235, 0.04055069550266643, -0.008083812514535162, -0.042668131815429736, -0.05405613309044538, -0.03861900750538949, -0.08930111677877602, 0.008009628749525108, 0.021488742762314585, -0.08234970176382725, -0.025537484855382302, -0.018593951305928173, -0.0036051823332636083, 0.09016284889137752, -0.04127579521605004, 0.04061044884536058, 0.07239125223030761, 0.05249881628977261, 0.0417062313456698, 0.03229988962706984, 0.010186517548983845, -0.0014183133921668195, 0.0412654589806404, 0.13426335430826983, 0.01624490987975389, 0.07993376828360214, 0.17562753366694506, 0.11942382987731556, 0.0710807982682195, 0.05314526645888237, 0.011048383560044164, -0.0675023010119982, -0.06759826623262004, -0.11143070497275459, -0.003990491092931377, 0.026569787718758613, -0.020777326549550317, -0.02303931825584573, 0.009888148170158878, -0.025993720627726067, 0.03266461397393386, -0.010083553282775822, 0.04292311691770697, 0.061465455285716473, -0.010806983894428392, 0.03624793742041323, 0.03915104071628996, 0.0009442025330952061, 0.06542977184625252, 0.05718928341233145, -0.04839982450730143, 0.0037213044519842954, 0.024726241879507036, 0.08967371341213437, 0.13224903435456895, 0.1386216361287171, 0.11821443925918007, 0.08191794981627287, 0.06583314578576911, -0.016495943656150168, -0.014584717771318456, -0.0291926859389155, -0.03401512084090065, -0.05606623509595691, 0.025678481903332384, -0.05285418816829023, 0.003232276409245968, -0.034607251171969146, 0.05002926983574585, 0.030889186899281627, 0.008475101645271543, 0.07699675058730726, 0.10523015052638335, -0.0003175855462887724, 0.04442432093272721, 0.05857105644634191, 0.07847767537193868, -0.01738265691442144, -0.08833987670014073, -0.034942414957806395, 0.08597179408608654, 0.14549537653869138, 0.1979176160871247, 0.14807387175782177, 0.1372369321863157, 0.048892116981956946, -0.0006350196914947559, -0.07487011121357451, -0.04801822161530356, -0.06168177157704216, 0.01934392491547163, 0.00522285340715896, 0.009324938521708319, -0.08526726379996807, -0.0016256878450213298, -0.006433709119569809, -0.07622268313200171, -0.04201078961471183, 0.053052717399981165, 0.016926642110815276, 0.07255366248900076, 0.0489317506714484, 0.10077620872678714, 0.004130306453529646, -0.05560806329313515, -0.12080441281504142, -0.07214735610914838, -0.0008033885337296878, 0.01243769957942436, 0.14326940687751227, 0.17589899520794786, 0.18257122150106986, 0.07574716332693154, 0.0485711292140864, -0.004912438154087968, -0.0650047450441654, -0.024425026597328647, -0.0334012154249175, -0.009271860954199136, -0.010566991535240664, -0.04445836218847846, 0.00771365992758395, 0.005745697265085391, 0.037900670521978305, 0.011978842785233746, 0.046656688826227886, 0.07942157280426648, 0.10207581509977903, 0.0357121922747962, 0.03863012171607845, 0.07977067489314588, 0.025929370021639798, -0.07292577917669515, -0.1247340033969259, -0.14977751562919006, -0.07744549616105953, 0.06551842114931636, 0.16653708233985326, 0.23095251647751291, 0.16624523721641038, 0.1448164068316114, 0.020951968207855377, 0.029719692209258193, -0.04082760368409128, -0.10784346114986024, -0.017203208827037002, -0.020285601342767454, 0.03823120908896853, 0.039963262208747526, -0.017073389175128358, -0.03431539693240966, -0.02181878052445393, -0.014645868621547826, 0.09188218386970147, 0.07711157635654933, 0.049496208230733515, 0.060324393023505826, 0.020900101937721197, 0.006235744080807136, -0.002606142155988353, -0.08142302749452061, -0.09690694621130065, -0.11312699320060232, -0.0705145858790536, 0.017723027785087123, 0.16716868918914965, 0.23631135749612864, 0.21783903088105996, 0.19137705602771074, 0.01404214753399854, -0.03393219417108582, -0.0857869921408762, -0.00713359432204734, -0.027859992872062384, 0.004021519886594815, -0.007456864068462988, -0.003922571119295952, -0.00735068089089212, -0.06748225221691873, 0.060818256169358445, -0.012173105585427276, 0.07752147809031187, 0.06598647553089997, 0.09407791583484636, 0.06695178466960032, 0.029605044724350167, 0.04202771581028521, -0.007606283017848826, -0.02190703309308787, -0.16672210990852437, -0.1371935916453058, -0.06240027085073501, 0.02566685065056551, 0.20560693981550915, 0.2375858668706722, 0.17392127844045546, 0.07434027937175158, 0.0033007282044627143, -0.02204552427479261, -0.02125294759460281, -0.029048583833990064, -0.08988883199877079, 0.04977682624447256, 0.008249152165745432, 0.08580853059886104, 0.06095619695867591, 0.04702615501577904, 0.026335487966340405, 0.014496410911372083, 0.006822616682297997, -0.014695167700965774, 0.10434497887390479, 0.01742112987822715, 0.06916090258326417, -0.013791149507617787, -0.04557066632113636, -0.07139837952091461, -0.05962705372730965, -0.05803568011807049, -0.010553701065107706, 0.05290450739173652, 0.21641414508668746, 0.20978650578210337, 0.09821410064902546, 0.08113649439273515, -0.02897433994079914, -0.09778578806395957, -0.07271050702187486, -0.035465048003034155, -0.01443726823235276, -0.0582988786684634, 0.06116992528910265, 0.012685284917488314, -0.004296232258685283, 0.01173243151734335, -0.03657760335272814, -0.008495305051479971, -0.04169967366347574, -0.03696371473321765, -0.02224995637136337, -0.019044102076584017, 0.021515943899779785, -0.08603522156766681, -0.05935814767138467, -0.09111320454627737, -0.04261980077264691, -0.023009920346814598, 0.14120213426878434, 0.1477272696435243, 0.2188775697522413, 0.08493300285897645, 0.04604524202320751, -0.010320670411196326, -0.010982830975732778, -0.10349409515049796, -0.061151954107449974, -0.03349117935554557, -0.019616507832139345, -0.0011845536595002728, 0.0203088259792764, -0.005127100248348577, 0.012257497448039348, -0.010817394320805487, 0.05196924510140173, -0.04940614755901894, 0.012722350528335032, -0.018916324160456424, -0.046010716345705645, -0.062611249043158, -0.04618914372573287, -0.09458053015140243, -0.18501166055551743, -0.1625988411706358, -0.08377350306619548, -0.023094561886602347, 0.08419352029927457, 0.09406114457093971, 0.027188809926544925, -0.025501466684618772, 0.004893727611084645, -0.08031301110530545, -0.12724280318179812, -0.1242230937619554, -0.12970621892776069, 0.0022844789808527956, -0.02440801610961198, -0.006193293966902084, -0.0030766535657527627, -0.062491240358664955, 0.07523545741887411, -0.07020250686454688, -0.02751518780637871, 0.014813843801836864, 0.02895740969328006, -0.029731424973689347, -0.11680998017623195, -0.10071638604329859, -0.18008263023072485, -0.21764321631362077, -0.19635043438571356, -0.29231631687691373, -0.14383110468381732, -0.0259391946582205, 0.01849417665620591, -0.019503498678004053, -0.0999887015770817, -0.04682328058581181, -0.0726925113247656, -0.0649274611133728, -0.08749930808404816, -0.0845930786351774, -0.038154737661265876, -0.07222097212316667, -0.08848611360745838, -0.01412656751410911, 0.013938149351340834, 0.007006418281505899, -0.09276541996924584, -0.013743356921361017, 0.006976618084812326, -0.0029281441649504276, -0.04158515204532068, -0.09755617843762389, -0.21009429588842377, -0.13685360113052691, -0.1883722243818217, -0.2377405269551251, -0.22776674771203986, -0.21563196384277705, -0.1445842042703158, -0.0223918477078441, -0.07042571005937391, -0.19930203138052124, -0.15531588430916018, -0.15970469844313184, -0.07192424343313102, -0.11293901387755151, -0.01917925857763238, -0.02368807187499424, -0.051201278968898575, -0.02533168833269199, 0.013556838418672017, 0.040615724548445885, -0.004736805460143226, -0.06765118040049757, 0.04296252958875409, 0.008994378755381966, -0.020101850477991155, 0.03307991376973193, -0.025603246522562347, -0.035159817318358905, -0.08729677481921833, -0.10208670394911463, -0.1978821512068263, -0.19436808464928082, -0.1377731877728732, -0.20173904286773006, -0.08548979888814588, -0.1807868877061659, -0.07580000791978758, -0.11751675245843562, -0.04574010630083821, -0.03788368393404661, -0.03748558266515113, -0.025460711042075153, -0.02835176678658889, -0.05760761932564044, -0.03407268266646953, -0.0452297097522738, -0.061529602375439946, 0.0708988801726036, -0.024319145503831907, -0.007965827226721805, -0.05487618251250584, -0.0027215054477496576, -0.003356350757084428, -0.005826258835371365, -0.04819954802558868, -0.07920406258565968, -0.05321779581599482, -0.03306634995301152, -0.08644882200289078, -0.07636148362332196, -0.0846223107477833, -0.08687481159352785, -0.14521456823877538, -0.09056086022170586, -0.05350173360727608, -0.05230262246898087, -0.010911159940664491, 