{"sizes": [784, 30, 20, 10], "weights": [[[-0.026707464402557075, -0.03460595679115554, 0.018833522118200295, -0.005876880648086382, -0.04710648469681211, 0.013357707059968643, 0.015345124392211338, 0.026642389938505553, 0.016682931983022026, -0.04007986815871764, -0.007825438242727053, 0.01188751259423773, -0.010339045669166252, -0.013989070294359238, 0.0027577951984079623, 0.014584885927645133, 0.03897022643554795, -0.062068525632166006, 0.03718852068915895, 0.07000674452835016, -0.0011227075568624263, 0.006927446159463372, 0.031833034116892645, -0.002864324735471818, 0.022636730000615026, -0.035454911058830085, 0.018880300587762983, 0.07063490776420046, 0.002267230274541192, 0.021739344180502215, 0.04244357426906223, 0.01862376352840749, 0.018569825338303446, -0.03766719515757783, -0.049063188233489374, 0.018329249928218844, 0.006292239152016987, -0.0013675638597690919, -0.006356336745074844, -0.032222189062090734, -0.017819084685229684, 0.02663376356937043, -0.022247989043741825, 0.10448655214721496, -0.035602277388962884, 0.01319046096106877, 0.016618466323345953, 0.03248562111150924, 0.03356950512828632, -0.03358858821527625, 0.003301264948976918, -0.058735243192019435, 0.015993948250614707, 0.01320874028030812, -0.04750691966549139, 0.02097099832828165, -0.02528627569567354, -0.009657555169390857, 0.03988881953776393, -0.0030540147887666022, 0.052913247046764186, 0.05696355406889539, 0.008250077836028082, 0.02640744148432267, -0.07140586016915754, -0.03131455951752329, 0.014877774262347397, -0.02097070104676111, 0.02018712963134118, 0.05120576941312857, -0.06572777510682494, 0.004240306347108083, 0.00888084054459791, -0.036214948946201794, -0.04876930321089333, 0.021789566392601177, -0.029168487134262303, -0.038374726034719205, -0.023785907927526717, -0.017887679970674916, 0.02091519803721616, -0.00602803344361525, 0.009966423950133285, -0.0075046161179949085, 0.025951300528568727, 0.0033948430427245537, -0.04296788025775727, 0.009055178865257621, -0.018711045094368186, -0.04367387839631425, 0.05487659747187153, -0.07784476510448303, 0.06396537272468662, -0.022611633039980227, -0.028092525187839695, 0.0035007897683981765, -0.02180194601309944, -0.024377168470032084, -0.03805651411437164, 0.008929106563378307, 0.011981845758272484, -0.03562365585277938, 0.030058063432950175, 0.044311942863178744, -0.03729439617529176, 0.015647866917783526, -0.014925606754936274, 0.03081249026237589, 0.04139592496715958, 0.025428782819622752, 0.004209345075380698, -0.022661049210886505, 0.02300057084200044, 0.0034056951260873036, 0.034255544869583536, -0.04241056884474256, -0.0050234523043761435, -0.020695536061183406, -0.08276385347290523, -0.03486870550581781, -0.029008612715171956, -0.04984557087027623, -0.011720466284379283, -0.05113883389886927, -0.04214350522742176, -0.11478989882440635, 0.017378353881011267, -0.0482861678052634, -0.06161914210574873, -0.012484080351633434, 0.018798394091960574, 0.046113025250422504, 0.05719676744892253, -0.020258780393964046, 0.051849853635069956, -0.1408101682265496, 0.022541370210186467, 0.01567577359850843, -0.0657924503532511, -0.014235690574471218, 0.057424284465234884, 0.02960018767088069, 0.037460659750583165, 0.03180691138427982, -0.022694164079766065, -0.08587142494978049, 0.03322001963226736, -0.02606767282828322, -0.05441349241937514, -0.05331241083104963, -0.13845565649308364, -0.0719832208754752, -0.02073940645545566, -0.027681339466275143, -0.04859427760120121, -0.010755567553425369, -0.008096931289201918, -0.0026940443226653324, -0.0279638774451282, 0.09345161537955657, 0.06937544604497317, 0.062164046859926755, 0.04144159720291868, 0.030844193031805293, 0.03364805873714941, -0.06127624681873498, -0.027464237485331916, 0.00519341133964129, 0.017123827967925855, -0.04581021205529946, -0.03541479632044547, 0.03625466918866902, 0.022709744434651975, -0.02212913530346511, -0.010381903583130167, -0.05229851815659273, -0.06389849681162565, -0.03890042946381942, -0.04531083460889473, -0.050775630557194376, -0.10819633433873072, -0.00773979741735974, 0.015645393734537077, 0.006269093223999332, -0.012001217758546467, 0.015491863561354246, 0.05231529361369926, 0.03545144332588914, 0.06185320087109681, 0.06643655986120989, 0.027028536683359437, 0.040061591956980135, 0.01383718084656434, 0.04725629791432183, 0.03294509515744335, 0.02729001615284813, 0.044298808714032335, -0.05190018684006745, -0.013752098390733688, -0.05291652658307, 0.0272560397793203, 0.028863406428694966, 0.007940849770250356, 0.0021744604360940376, -0.02470755587577759, -0.02386669518999826, 0.027136812485804875, -0.03196641592309263, -0.057738772198471774, 0.02907431348056925, -0.017218817798129657, -0.054019633662594456, 0.018200518363324692, 0.046657995565587036, 0.03951876573415405, 0.07166119927377135, 0.07956281808860872, 0.06397087742114667, 0.0875273512780162, 0.0003676522810363561, 0.022781310976163285, -0.010340500246869418, -0.012191126759778471, 0.018849959114156, -0.005722128194784562, -0.02049706515437312, -0.005984512885250062, -0.007451096621038253, -0.028526247246464412, -0.06915056344049197, -0.03354007033835628, -0.007010652510152878, 0.016414013541629368, -0.02304844196354047, -0.004170048778764335, 0.021297057558191935, -0.04200071354930897, -0.036601239698699245, -0.04556420324594394, 0.025930729823913198, 0.01848531970283969, 0.0100164685257137, 0.0471967013554254, 0.11224704399173582, 0.06023733110865792, -0.031241531578805718, 0.07636841295765753, 0.025824349634766222, 0.006264655451801274, 0.03675765771165884, 0.07741323666600029, 0.024184155359344008, 0.04833271125899375, 0.044145209768350825, -0.02182329951468022, -0.00960775542951236, 0.01671660949467405, -0.005210650324878589, -0.012012374411087528, -0.018286184302996358, -0.025676727323165262, -0.02874328952400444, -0.01248766996090626, 0.07940643637586417, -0.014115028182804277, -0.010972978361891029, 0.03277856324775439, 0.019333110996364776, 0.05661960977247551, -0.0015738137054419712, -0.010334051045269011, -0.02311464891990643, 0.026568267550593744, -0.003060955564956167, 0.03636185767736426, 0.08381695434688409, -0.011852261648640608, -0.046404569466999585, 0.0011688400444038146, -0.013625866212293601, 0.03875777520123162, -0.04012795061750619, -0.005436474748967276, -0.007324545057746757, -0.008193982735070089, -0.021813598197001946, -0.01226034467960991, 0.06048789186797005, 0.05725987863575844, -0.034362770414622476, 0.04206183039030131, -0.006787590002498616, 0.026656700186506038, 0.0017376402268401106, 0.10225583217131007, 0.06702957487636729, -0.011933292426174705, 0.08003568788391613, 0.050779695169227125, 0.0783020240496315, -0.034880679100880135, 0.0826616269247679, 0.06688245892485187, 0.02891617115778462, 0.058700475572431125, 0.01706337561585176, -0.01660416848375152, 0.014497551191714982, 0.03280303635394409, -0.00393996776318853, -0.0023760302962100603, -0.014533988411048228, 0.056253803969178943, 0.016972689071182906, -0.03069566516213633, 0.0553230269037549, 0.015846315552167853, 0.06283276991981451, 0.0643459300453752, 0.05157149169426556, 0.08406752553429167, 0.12273069767009578, 0.23310439869859365, 0.16460860036210603, 0.07096558567712126, 0.030756427294664285, -0.019984776808967594, -0.03631800199639919, -0.03685793751411261, -0.05857501775085236, -0.016665729930119617, -0.022291697677046047, -0.09907256173131099, 0.0167577825325679, 0.004872613726563196, -0.07707455414426986, -0.0021060609987912167, 0.0004155243446833914, -0.02606728739763496, 0.004824234814169129, 0.0010888517084923224, -0.008928490115528284, 0.01673021253952482, -0.011020329251119187, 0.03862707325331301, 0.07491329338351749, 0.06135271118315736, 0.17041775769230624, 0.08498183728725531, 0.11605368212540328, 0.21562495091504455, 0.1664657997112393, 0.07245569603504234, 0.047391989272917316, 0.06803536630570757, -0.017934672830483864, -0.014671305407011774, 0.008760391939348832, -0.06853143004394831, -0.05184000294143452, -0.0681505762667705, 0.010001794698132851, -0.024613700690283045, -0.0283751051495725, -0.011564329746387948, -0.0220355874109461, 0.032908161844891586, -0.006069672925815712, 0.001184443636181965, 0.002516707906890769, 0.08775226798116771, 0.004273380542100753, 0.11750781991988059, 0.0796332074323649, 0.09692325433949504, 0.08739023189160283, 0.11847656047766969, 0.2132165803419229, 0.29262243057695336, 0.20140018679965888, 0.11028166290783795, 0.009111435565895587, 0.05066264799976019, -0.064622172199991, 0.0012754781586787958, -0.05453810457783042, -0.013676094461666774, 0.034399440469968755, 0.04386631123742127, -0.002624913653269064, 0.00032839118007288323, -0.045568803216916205, -0.004629737029172189, 0.012492291731383406, -0.0181857519661758, 0.043921737872004506, -0.07061578157578462, -0.006695080354003785, -0.03951914085292477, 0.016985752837394612, 0.01841026057289019, 0.06801807045442193, 0.07356272217491575, 0.0806162044184545, 0.125708314250483, 0.22551437063629604, 0.2577196890640835, 0.1366681569211019, 0.06628646686805598, 0.03650167121548344, 0.03758835930714716, -0.034417584062571074, -0.03787845801461964, -0.06146634147764154, 0.004310558212059279, -0.04238808747046685, 0.0027334261914748236, 0.005935308141730278, -0.018670194533114585, -0.057261867885290293, 0.047608623387685525, 0.030235360717881878, 0.04772137243344842, -0.05662306723090207, -0.037311227151464885, -0.06834234585188652, -0.006129160831231137, -0.09651342678543333, -0.08348906163297139, -0.03488932265854156, -0.04485522966301117, 0.021111028901327867, 0.09974202105768701, 0.17757903193517297, 0.22767332012798586, 0.19261029656255718, 0.04644099042736583, -0.03361522336283119, 0.04003618835861624, -0.015851713827763465, -0.025703671849573576, -0.06070772566798108, -0.015832013955033062, 0.01305083762777255, 0.040797787730021504, 0.005597264351281764, -0.03820486193204651, -0.03578582687531738, -0.02794210504181999, 0.09355343075822016, 0.09394724593179733, -0.046773322491934305, 0.0012990660399976263, 0.050979200232068755, -0.07351318388761643, -0.06834907999060084, -0.020569213313311473, -0.07210880497104118, -0.12260944978966037, 0.009790762032680232, 0.05763232766173017, 0.1287797144653147, 0.2000554390357792, 0.0284616678543298, 0.016431727076381974, 0.013597996511600798, -0.003349933757248915, -0.010809599182274261, -0.010488703461493495, -0.11103793437271207, -0.06911400454488395, 0.04497248440265941, -0.062075099313628264, 0.08261931688843098, -0.03788780692136657, -0.022942537156164965, -0.0062856376147020976, -0.03075506881415401, -0.004170749484243655, -0.013850830322149994, -0.014494159411047246, -0.05245950117468048, -0.09609238332964752, -0.05587767548847814, -0.05712223037702729, -0.07663293135510613, -0.15861640726121948, -0.019916097525945586, -0.025807718804327907, 0.06701362683726761, 0.10045560760548099, -0.016571181380841064, -0.04279104932324542, -0.029500627188979566, -0.0028007756096650547, 0.02916811067750578, -0.030623143653114103, 0.03428325553691369, -0.052026815719663395, -0.03985574733322974, -0.10086360416189817, -0.0018937050393151409, -0.026023524242071355, 0.07826662541292771, 0.032999053839267746, -0.00717953282640313, -0.0234236124552676, -0.012683380056604326, -0.0167099588265475, -0.03196123758653267, -0.01174742708531134, -0.08963834634368292, -0.07790895916829357, -0.01405918167278573, -0.07414260693946911, -0.09013395980332212, -0.016736517442984305, 0.006769108274926663, 0.04696734540498223, -0.016584124837590357, 0.0008071822615543499, -0.03570598752802922, -0.10462995727195876, -0.06745443873912392, -0.04909814700828911, -0.0659297222695494, -0.07461638462276218, -0.0851265759640858, -0.02478992843274888, -0.02441684265172215, 0.02643188787270679, 0.010829244944611106, 0.007169590434384575, -0.057863423014844116, 0.004517312967521285, 0.0059342691519447335, -0.03547787516624525, -0.06001706697559379, -0.0784569428110383, -0.009874034065944733, -0.06716832882033219, -0.04372169643783213, -0.11142808336619738, -0.04272702870893086, 0.022206487116733693, -0.04909468634207002, -0.08814250393353804, 0.032120373191017536, -0.09316540955134785, -0.038851081303699894, -0.028974745550436793, 0.013569000134427921, -0.055825338161596204, -0.08741007091329689, -0.10756029763600099, -0.08194643523571929, 0.004178865285014512, -0.0030645372817158633, 0.03308100009564004, -0.015873699810577253, 0.01685552204584255, 0.005242535660466432, -0.028251922473692407, -0.004663187998863527, -0.03784597784067726, -0.08679431912963745, -0.04735714723161781, -0.09316700304847396, -0.09804996473687912, -0.043156431720502875, -0.05420205593283246, -0.07699896234092633, -0.03157547620492064, -0.04495655939428779, -0.04127384709701056, -0.09342938077335346, -0.03259118304078137, -0.05659089901116002, -0.009319262581633266, -0.06098949163562707, -0.10156039179938423, -0.04557950204968435, -0.09602605609908199, -0.0725332301180758, 0.02573031754784952, 0.02579243272466283, 0.03603425285017569, 0.0016512490502583032, 0.0365114349866086, 0.017324209666333353, -0.017068508023426347, 0.00960990975538088, -0.045067189090220554, -0.003189256345895656, -0.01622800342514438, -0.06692453094420237, -0.03221084244197801, 0.0014003665652952053, -0.020817452181607004, -0.07392937202053294, 0.010660869290675131, -0.01573039613700949, 0.02621801657091611, -0.01983979092377807, 0.012635515021139089, 0.006661779902486051, -0.12282720523144772, -0.045215463366802044, 0.023270187972555985, -0.012289533607281411, -0.011633895419871252, 0.015278092886058445, -0.03488564639367516, 0.010422752479416821, -0.0026684807158655955, -0.001772874918773696, 0.005473722867819803, 0.015621373464805431, 0.019106604344471406, 0.013137671844505785, 0.029977139196425716, 0.008871639624065297, -0.001483342324864591, -0.00892021436400662, -0.005193750503288484, 0.0069345009900819736, 0.06562850448837058, 0.05590464296122148, 0.06932289664972356, 0.05402538565117771, 0.04646886705363335, 0.10953740784733929, 0.08047320571748741, 0.0031286322146028196, 0.04132331717885732, 0.01419854773527779, -0.07877998716692663, -0.04319965264493718, -0.03586130707321794, -0.007651542123922962, -0.048756370202323325, 0.012477121999181983, -0.04020254971849674, 0.0009860909974369766, -0.03475945844336727, -0.002015089629178233, 0.03447246243110544, -0.08552658645501696, -0.008488686035764003, -0.01736283231255068, -0.00988849917486019, 0.006600552334655858, 0.008209889640276823, 0.041034955147154696, 0.06975583118409702, 0.11905252878038577, 0.16143269018066217, 0.1569557435942052, 0.07330053345976265, 0.09627834656562263, 0.13902842418046385, 0.10476404410966675, 0.042477008865327924, 0.024927721801466716, 0.015365925317521902, -0.012281616448807013, -0.009285514307512689, 0.01895617543553509, 0.0008476071053509576, 0.004965929899077458, -0.006409772115723654, -0.008204487942774216, -0.03881422322826132, 0.012075119308058624, -0.012785515216162203, 0.06192148066657919, 0.048743125052283114, 0.013152284210159215, 0.04111149468373645, 0.024472826843184525, -0.039950562902057694, 0.1016067809540431, 0.0716939305107858, 0.02333540747644041, 0.11695885007902648, 0.036027633397424354, 0.07588840888535166, 0.06245761646743195, 0.018833328908498106, -0.018587048110265236, -0.0003775491341341494, 0.028385807536814956, -0.04180801054064924, -0.03886333419814956, -0.019461642581213103, 0.030785345476172635, -0.009817093964122328, -0.050445431412571226, -0.07280155882138595, -0.01490046980640925, 0.03718690765458888, 0.03261675280248052, -0.023770016824255, -0.013736893866318075, -0.02896204549527759, 0.027853634691786765, -0.040262175953635904, -0.020480543737271612, -0.057537407512501124, 0.008330628177422009, 0.06548042182586424, -0.03194697947168596, -0.015675906439087953, -0.01707581884481952, 0.02269180080371269, -0.05849722584998134, 0.011012442918253117, -0.0012283507977682376, 0.024346748806020842, -0.044147976316086156, 0.023204314068367413, -0.00255419821217005, 0.002881050873985407, -0.022453764732942142, 0.0020777492644667756, -0.07582521438883517, -0.03923524694058004, -0.011601100334712119, 0.038821544051405775, 0.033508706608559556, -0.014928706573469388, 0.010838211653054427, 0.007003354161129132, -0.02788923260201572, 0.015605141826281156, 0.025694288821994715, 0.04381955813269607, -0.0007156702257330722, -0.03278935049912816, -0.00962146052359335, 0.06516800539947833, 0.0030071576992427946, 0.053778850391435915, -0.06416070348126325, -0.028157120483225967, -0.036877881847860096, -0.017268401859028167, -0.003466261282109745, -0.036253748640078895, 0.000844571953161882, 0.0037423952627225147, 0.03755470478146637, 0.010070602459536735, -0.000874488107056922, 0.012367354777132305, -0.027008438377307577, 0.0024947241200773424, 0.021555196742050226, 0.04345860962096927, -0.00399550872826172, 0.0029513136763497255, 0.006533944500646642, 0.011480820044173732, -0.017881220240925186, 0.023653878869295628, 0.03088107559133102, 0.006875949609256232, 0.053606829091359914, 0.004379507220169594, -0.008483837638565344, 0.03838040178527035, -0.07292470011249973, 0.02527485971198336, -0.020241482679969978, -0.021060639641992916, -0.006264502127354161, -0.05166524435568439, -0.03854035573875714, -0.0007296870515235922, -0.023149970938176945, 0.010961703124258869, 0.01747880968949279, 0.03226956734928738, 0.017109663926822793], [0.015300889427776491, 0.04529464935706122, -0.0010717774937203056, 0.05719371729403834, -0.00040229872094343667, -0.027635878965726623, -0.0633936346673859, -0.025118885242710234, -0.024401238342966956, 0.009887614193888852, -0.024424569581686664, 0.011925901855023402, 0.02037138166740443, -0.019472096837529245, 0.04240689576450955, -0.04598671107603448, -0.014972249834382858, -0.04306555013901145, -0.011063381831888791, 0.017234282263384536, -0.04190902164086864, 0.026103195354638262, 0.0012937086110004243, 0.03995958293289336, 0.01674316458163084, -0.007758813504205921, 0.005520786351730678, -0.027101878077428365, -0.04688821425618974, -0.0003257414512338905, -0.019855282169694375, 0.08693875646239345, 0.016289160992482617, -0.005038249575017099, 0.04329512286114113, 0.005916006972536288, 0.051364109875444035, 0.02024975728477926, -0.05513158814143186, -0.004976299070811721, -0.014603038739155484, 0.008058994457359976, -0.05578652133713099, -0.025161845557631488, 0.047391399235323865, 0.015490475066034739, 0.01918250590433761, 0.005631598936826666, -0.04325552386221643, -0.038745164768170914, -0.034756738256827145, 0.018855352514995663, 0.05581480705898932, -0.00840086382837905, -0.014833947281514942, 0.029004403851276738, -0.0012228837280257262, 0.04205078237170565, 0.06374510527917485, 0.02360025007372696, -0.018993556718532003, -0.07130756712503802, -0.002549145715331144, 0.060983710312654295, 0.0187145439640468, -0.026391928618678156, -0.05318931292919867, 0.006809835046555989, 0.028649244256499045, 0.026625412676786416, -0.0035348646741744246, -0.015527975109764742, -0.037956179210878176, -0.049514197689169995, 0.006325446670552389, -0.006391830329418168, 0.0027855624610565416, -0.005989482333289715, 0.02381380399503523, 0.0162548763432186, 0.004426927374719123, 0.02609306379809131, -0.031068686156171615, -0.07603411684836336, 0.006144668278555615, -0.032707811077180106, 0.00490170253117775, 0.035732993235068185, -0.002488247755978087, 0.006954431771255218, -0.010196964436906656, 0.0022892105981738315, -0.04008453288896144, -0.0002314293970688457, 0.03149553082948231, 0.017738363097166438, -0.01804394655129037, 0.019353698918577446, 0.027502128562604942, -0.0024644604713147766, -0.030428819753352793, 0.02121647112261075, -0.04591731237456625, -0.07666922817401027, 0.008933999250399489, 0.03561578423917073, -0.054231131694432146, -0.008879070055311439, 0.026280555751032907, 0.00880876315224143, -0.012103904081945309, -0.0762670951042217, -0.0014787880798027237, -0.028257698965569136, -0.09498182887758046, -0.06241005412678167, -0.028728499921953882, 0.012571562762054856, -0.028871487241131095, 0.015918184945383024, 0.07689829432194534, -0.03256583791734535, 0.07449211021163059, 0.11938317106822098, 0.09957048734489667, 0.061595113956333464, 0.058325628092712876, 0.07009384211608187, 0.04330062155108423, -0.07801317219275018, 0.09636299756128171, -0.053953898863914496, -0.07282307617294448, -0.052000255370926854, -0.009930036776764937, -0.014707251273853675, -0.01533993885368109, -0.01095181748065473, -0.03414575720989966, 0.026260077252274316, 0.041320994399819316, 0.008123072304187358, -0.018436406299431878, -0.009601737896930043, 0.02711036063557645, 0.01924115184812989, 0.04804898019047174, 0.12097258697739338, 0.011202047144279763, 0.053913878418403616, 0.12123582685696001, 0.12423645960789884, 0.11683123056381382, 0.06975187419887766, 0.09717776292644496, 0.09379892244757432, 0.021065312058286746, -0.037584914655080445, 5.5371360914256945e-05, -0.005041470849189921, -0.03330069460536054, -0.06449071468486277, -0.05886641325149522, -0.09617283548344009, 0.010454130383425804, 0.019766313462215333, -0.004411623688984973, -0.05850304223632324, 0.02015161791112242, -0.011926652574874958, -0.010659803851188534, 0.07004947231209403, 0.02794829648853191, 0.024903254396671144, 0.09344394301978359, 0.020212885453990574, 0.08238320200187126, 0.03667964956496616, 0.08960026312536484, 0.07091651047950762, 0.06666359105994865, 0.11317159064782648, 0.08420198110270584, 0.10901323866633002, 0.07016459287393506, 0.005234463520940412, 0.03837492602164743, -0.004741890493672099, -0.0010072120334841009, -0.021029718346090645, -0.1407904144780306, -0.04071479687926674, -0.06689288712810068, -0.06041874383452733, 0.03042418572404475, -0.04349310680261736, -0.03589030268930915, 0.01673150033970232, 0.02187971690142599, -0.02038857654514464, 0.008982881430299003, 0.05772590182895275, 0.12284865850329707, 0.07219581377580052, 0.06519371521232713, 0.03476036264416889, -0.03281726050165277, -0.014077076941340468, 0.033428243474775486, 0.1182532674939399, 0.05156511426525574, 0.054338010550627494, 0.030857085143273486, 0.008136486530570086, -0.0017709677972447607, 0.04071761921474015, -0.05635071705615764, -0.04679158627140543, -0.05337561247702705, -0.08536767635839575, -0.04055970263815579, -0.05739382174731054, -0.030714556897952935, -0.04936306655926291, -0.033086487927699706, -0.003735086464424893, -0.0038512549968809638, 0.022420233933777976, 0.0858898773074932, 0.08320585388122405, 0.02911882307717488, 0.06582060324383113, 0.026771633262544257, 0.031177772666898473, -0.027174919139247224, 0.008702158714839172, 0.041687358640564234, 0.03287400136324416, 0.032034825297248826, 0.1295603345209271, 0.001541851819955839, 0.12245720627501817, 0.061597509299312084, 0.0351368112545423, 0.07281373921713262, -0.01232078549318739, -0.023710810919847454, -0.02116835833535235, -0.04607563679189678, -0.032809871396781924, -0.03217314215491749, 0.031296990244928165, -0.030454043600174566, -0.007947659787208987, 0.029564239508319344, -0.0007391322528270666, 0.034824686286810694, 0.056514293601649744, 0.06472519804860873, 0.042316633812817875, -0.033145634850263374, -0.0837119608678011, -0.0006249590762645257, 0.025236805335054922, -0.005576363795736204, 0.026134527084967062, 0.04280006644579876, 0.1716618987846577, 0.09169251607656266, 0.10555264558264214, 0.08516628078694005, 0.08101390359771671, 0.013156839487273036, 0.06681964846308744, -0.07392747071751944, -0.06189578104629584, -0.08145931452379444, -0.019914839057310146, -0.022235263321739654, -0.0237291272073295, 0.03778470089961382, 0.018825649262905208, 0.023636074652028202, 0.019999150157759226, 0.13787547500047734, 0.047626216976421484, -0.013442482534524913, -0.01648282728504833, -0.08618997398922146, -0.08318325934251855, -0.10148840032149328, -0.10946091512535548, -0.1017369093388886, -0.10938383394799699, 0.1323811519753196, 0.2048703972441651, 0.1320526440804649, 0.12538431240976244, 0.09154965310045758, 0.08787360262924453, 0.12152145731610293, 0.05129107068406248, 0.021359521564314664, -0.017743600551013834, 0.016651000731074526, -0.02837023958856803, 0.04525763619411166, -0.05832738630134706, -0.062371055310026534, 0.05415423805601917, -0.05105665905942154, 0.0152328032637906, -0.05046291272224664, -0.05652108930396244, -0.03890510552472116, -0.05448846713579033, -0.08408260533326402, -0.1493624153903168, -0.13261225309043073, -0.18947437629622899, -0.25950771671615, -0.07635678434015217, 0.12410471654227004, 0.2083339308309704, 0.1387219303090142, 0.05942770641885126, 0.1043403131443492, 0.1844698848161652, 0.1175268239021164, 0.03283111989608571, 0.03302071307089394, -0.033311281503812594, -0.04116415551650193, 0.023685627053360202, 0.030153877420964155, -0.010161223984259588, -0.003513511097376648, 0.00015046727111273488, -0.006915700815093273, 0.040934246719879046, -0.0033297058539731366, -0.015051460341650627, -0.05924441776967336, -0.0924981305736208, -0.12054194828822107, -0.1448045695539913, -0.26719912276920343, -0.2962266416344149, -0.24060341411497518, -0.12205727604515165, 0.17421562929283088, 0.1513068276104724, 0.11418348933534944, 0.10458550767893152, 0.1387732356562775, 0.1431178012335617, 0.1093005390015371, -0.02483556233985486, -0.14112571567384427, -0.052806678183971986, -0.03130329186252283, -0.03217579042473456, 0.0008939140755338541, 0.04545977658047893, 0.06484171402964765, -0.0056569466795564636, 0.04428291508052509, -0.07369308563976208, -0.033863900876348135, -0.06145337630844299, -0.16576149009036156, -0.10889800737339454, -0.10691129069310053, -0.16488789369754314, -0.2332893031110181, -0.29164616752077316, -0.21960443170198982, 0.013842902417415374, 0.1335707463590469, 0.10889076047674127, 0.0388595152573227, 0.04375168344766144, 0.1193232286706254, 0.07778674249590706, 0.06421775538387459, -0.1337309471214576, -0.13043274862024984, -0.11131514511836456, -0.0642319075005442, -0.0548039319866022, -0.01595935576418096, 0.028542012392371235, -0.01319744671370465, -0.045935061487555634, 0.06736113446991858, -0.03722860816202094, 0.014376459214368574, -0.09843501431133722, -0.17883922410637526, -0.19303707764584283, -0.1361257668779525, -0.22307283816711496, -0.22783488056069165, -0.20038676282528886, -0.17262417542442174, 0.06989540219032879, 0.09724909447464249, 0.10791529959053735, 0.03093349690781917, 0.07827467072190528, 0.12372889496151335, 0.06455155840979916, -0.03142062603181321, -0.14251925789761796, -0.19314101134353906, -0.14045357987723384, -0.07798501086446033, -0.02659622231016407, -0.00195649764236515, -0.020393396887988413, -0.04886721893192594, 0.04765987641039997, -0.03757228035940105, 0.04716915292127064, -0.01751693200760133, -0.09995062405450045, -0.16470081691713426, -0.12772060669240276, -0.1066760343548835, -0.17470015136125458, -0.14674508651061569, -0.09144092510081323, -0.03606818570293189, 0.14517538799990462, 0.12206866587286132, 0.11101144911621252, 0.07307307839998393, 0.058633657809515245, 0.030978928278668837, 0.04666817611633919, -0.11718950526217561, -0.1024068278683176, -0.15225651255806577, -0.09368596066756102, -0.00012465230609184962, -0.07580107224730057, 0.025809645573117282, 0.024181900745999456, 0.0243383108092314, 0.04244777576043918, -0.015742224710438926, 0.03569609170032373, 0.043456607406728104, 0.015970012628966388, -0.08315526401728544, -0.07588536432108596, -0.07759160630578558, -0.08703903149999326, -0.10309224995492275, -0.025694036667573063, 0.11534719004062034, 0.11945053483335621, 0.15941071759551018, 0.0917072662857178, 0.04670987931330836, 0.07607446538861613, -0.047155659409185646, -0.08877072610841236, -0.10764608248960153, -0.06400265775504867, -0.08224763853850987, -0.051747767402957376, -0.06219993943754438, -0.02880541234178112, -0.03817037593506847, 0.004237151954165223, 0.004343950861606772, -0.05310167108384449, 0.02532409854643044, -0.01920301658807954, 0.08450385361642551, -0.00418547420611811, 0.010303300804041005, -0.10512815457493924, -0.07311540781017695, -0.046463644704209175, -0.11279674881360102, -0.04742958517362498, 0.0788246701251419, 0.1572290246668246, 0.14207195837135242, 0.10877354922891867, 0.026866536759675905, 0.050738706240143386, -0.03099856383197737, 0.016652751946132024, -0.09972241675424702, -0.05267097068930831, -0.04382075025010503, -0.020021317033549937, 0.02441839157333494, 0.025258819844375793, -0.0410678726031294, -0.021196841812506157, -0.013987327471411917, -0.06064332951249892, -0.021316013706289647, 0.02910085814511805, 0.04750790954579929, 0.09947792295439702, -0.0945166522475332, 0.026834798099841607, -0.03386858151746101, 0.0008516459351231933, -0.11970539163485419, -0.024100538518877283, 0.09922318294941425, 0.10569205013644606, 0.10626204722018208, 0.026759326771915427, -0.014650346307180479, -0.0605491503925316, 0.019002549185919326, -0.018198021669285854, 0.07938764293178527, 0.054185574204084465, -0.001572664845559646, -0.03220097079043219, 0.03852765230677261, 0.07448850770443363, 0.02456499643034585, -0.0054489137765930794, 0.010905446732534565, 0.015074596603650849, -0.003564845913474779, 0.021976051555501787, 0.06834480524217175, -0.005818191808387133, 0.0032251633564651127, 0.019264548471965414, 0.07155131060129837, 0.005483890369766436, -0.09553595644571215, -0.05951986514560417, -0.07106783458484345, 0.048357063985496274, 0.012830509315739189, -0.021309731202447477, -0.03806242642556155, 0.010511253838418885, -0.044807563909098055, -0.05508553427582434, 0.06671689142090455, -0.002594990273372734, 0.08380950543310353, 0.0824032980094967, 0.02657459857347579, 0.017151344727223548, -0.0023862587882995043, 0.029134011421190868, -0.03592037961601079, 0.007184139441406144, -0.03826822373887463, 0.042865122814046426, 0.08753685661401024, 0.03227888474618211, 0.022070082856005663, 0.027859650142304345, 0.013242176736475134, -0.029876743860463562, -0.0146550016631627, -0.08311042696163368, -0.10466181853067284, -0.1289715786699163, -0.0430629303718605, -0.0750089447450282, -0.04695804034367612, -0.03914266688289946, -0.002759247284255472, 0.06456049615340174, -0.013029780982946963, 0.025040275804752824, 0.012785463796513115, 0.038302566839134654, 0.0338328082299537, 0.05838554307689587, -0.006300869588297838, -0.03366658078930378, -0.031188833184264842, 0.06784740553599745, 0.0436942635254801, 0.032388425096062275, 0.03820153664791454, 0.09548646105046646, 0.10170275348498073, 0.009294871948671908, 0.0888548461363056, -0.030643829712377415, -0.03612131428928696, -0.11363616750776956, -0.06392528075826831, -0.09175903888466183, -0.05558794177292328, -0.09127555819158453, -0.12454672703856687, -0.04142246769381551, 0.03330506129578439, 0.049182147857812435, 0.0033348398305126713, 0.06899148708579823, 0.07876348516697186, -0.04897110050312469, -0.028761998626309106, 0.032784400691065634, -0.01584533291973318, 0.0061505275449899735, -0.014530227053322676, 0.05279385028018687, -0.004436073063319551, -0.03932733295221933, 0.04744415695808983, -0.008305250728572411, 0.06144988580771121, 0.13115816662411425, 0.02148484791781724, 0.04754468839656575, -0.039734572827150406, -0.050802301886193044, -0.061638797902641394, -0.034630446943703076, -0.01662195926634147, 0.05008100661855181, -0.004240793641204693, 0.006723508807578279, 0.049809378157744805, 0.05974154706467739, -0.048083676421042464, -0.012069623783974115, 0.046865946546571065, -0.060847415870621126, 0.017140757633646263, -0.03373948773678228, -0.06177035273855885, 0.03078445111443825, 0.044179504736555505, -0.02527786775353267, -0.055829746087845585, -0.018266949496289302, -0.004102111061381732, 0.05475444414132735, -0.0010481572590543943, 0.07014110792933724, 0.041472558450135553, 0.012799727749139709, -0.03826097966096967, -0.07507891619753532, -0.0363441269258576, -0.019461864631678323, 0.004023700378367266, -0.04955147051155087, -0.010995045965622978, 0.06486554966687932, 0.004210224521997085, 0.08593892888760159, 0.10207486293830093, -0.03558792234253464, 0.0014923123241947372, -0.05114469095633528, 0.07676236082571253, -0.049542414218781236, -0.005162804795271121, 0.028146378556257335, 0.043604560335213365, 0.042409763285531185, -0.020430611883180443, -0.009534884438849056, 0.012287645785936215, 0.033816288442587966, 0.025271455681868532, -0.044280384364983466, 0.05558830858386882, 0.03836703535270749, -0.0036130693140070977, -0.054610184795770414, 0.02969514869108443, -0.04675744688754957, 0.0022248893791161745, 0.0007455606661997051, 0.037556103927953, -0.00652704074384924, -0.040900490221569254, 0.001042492369975656, -0.0004353867260020196, -0.010496653790776064, -0.05099245681420828, 0.001689558661008349, -0.009142480607395958, -0.07182150143867305, -0.037006050853353525, -0.02950913369835022, -0.01922468868511245, 0.0027397406366881966, 0.01917896795990681, -0.03858702649228679, -0.043211212166074056, -0.019949668727559385, -0.04679412265664865, 0.04058107496199811, 0.03571794900769055, 0.05704489064900168, 0.1037205692899747, -0.03731158454305503, 0.011729853497127246, 0.054109408761428814, 0.026060498168263342, -0.004114907513783891, 0.042349118334192117, 0.10343708992128145, -0.05727338704366379, 0.032559960444802756, -0.01810985084420212, 0.001418671133609569, -0.03021731482066556, -0.09188888417951534, 0.0670376371274357, -0.023860053478394254, 0.02167503943870045, -0.01872888383332059, -0.004937648784402652, 0.01975769222958198, 0.02206344166216092, -0.019946603369356792, 0.034320509728960266, -0.031774662192373584, 0.0005023379101115988, 0.012517323993450897, 0.07706654512933653, -0.013289676714984773, 0.04269762236615392, 0.043590489618281374, 0.027006556072310693, 0.06547656063475031, 0.05302382600295162, 0.0528090759945362, 0.030546839901758254, 0.03249728325375852, 0.07687695823010494, 0.004918684684058098, 0.009176120423235219, 0.014170163170976649, -0.013115655317651936, -0.006993884564761061, -0.07515731002138486, 0.016486351789081293, -0.0033051765359531256, -0.054902501220714155, -0.0007419100694074, -0.08721874333904564, -0.018890053564192048, -0.04408066975611848, -0.014695861693727552, -0.028728634257894684, 0.018701634809264355, -0.01701623158411393, 0.042707435878730944, 0.07358421734354194, -0.035103915684340466, 0.03793841387388151, 0.0021463217869492194, -0.006963058397165323, 0.0024269691736006783, -0.010499592717917096, 0.03557928744894992, 0.05359513308839236, -0.04074994423033773, 0.018065737002246285, -0.027611394991773244, -0.022488724801127975, -0.07769682155429834, -0.019010054164976878, 0.02275135254162767, -0.05944911950648116, 0.016598737777521046, -0.02143557242457965], [-0.045812423165728894, 0.015219622399080373, 0.07387318205206973, -0.02281495306546768, 0.005580519690974718, 0.02438277511499049, -0.019904360889116342, 0.005766637065067998, -0.009285022707017653, 0.016025042207741556, -0.026552543969021788, -0.009994668897954901, -0.00027385839944481065, 0.07924483054732895, -0.005206956502439417, 0.0026220215495478686, 0.02256833250946028, 0.008005527632765892, 0.0042859738672284525, -0.026431689945467157, 0.010512841171860613, 0.009526647435795788, 0.03240525026161528, 0.025136477895474168, -0.008850191755643567, -0.007729956035815631, -0.06649935908550768, -0.015478982224644599, 0.04060781761968495, -0.002095299515856182, -0.00857970374080811, -0.02938938230667889, -0.055664830141704445, 0.022318980349987024, 0.0679510394452748, 0.0050601908978110555, 0.04146481342608986, 0.07804535779861953, -0.04667171763290663, 0.03278425073730902, 0.0008914180771288551, 0.01563906445305396, 0.027564058877126315, 0.03697014339164374, -0.01964846880022598, 0.013910108183714902, 0.04290795413964112, 0.03746363973394745, -0.043617828966167047, -0.048072252309916845, -0.011083006393589038, 0.025815622742398864, 0.023375523617511162, -0.026752768755858268, -0.01179391109860515, 0.03584917264699754, -0.039794403332006255, 0.0034904628576093075, -0.02462783545548964, 0.07506017738756865, -0.004528261925313798, 0.0004947182509076896, -0.008694533162027281, 0.0014052085636661737, 0.014373983653353326, 0.049526650875435264, 0.049173392843837524, -0.03252011463564544, 0.07289073330996304, 0.038909569590977314, 0.02593835305436387, -0.02706233489504769, 0.019108728775329615, 0.0653885816982047, 0.0655911123203623, -0.008388445328548154, -0.006021460002404949, -0.027830889384640164, 0.03083940192700852, 0.009235596798060939, -0.02042502211142218, 0.0062217483246590705, 0.028493425659238736, 0.026947033226401622, -0.04133084898288633, -0.021111742776978942, -0.029940359778076894, -0.03278267538163401, 0.038339808155838595, 0.01701558444189977, -0.04678422202325217, 0.03561645072222013, -0.04675127149473924, -0.053759362294319595, 0.06386085328237401, 0.016714889887818014, 0.0016432510402598305, -0.0012556913766397738, 0.03829993180031305, -0.012734230178069211, 0.036956752232375614, -0.010990959441081584, -0.004942681449661185, 0.04989502596466982, 0.0036043637766304992, -0.025683692071899047, -0.002976329173573463, 0.04119350001084721, -0.07375928450576201, -0.0178786307154843, 0.008221027670084155, -0.01296752880416442, -0.04148594397456781, 0.01633323900443011, 0.022443076707434867, 0.016314529716838087, 0.014588565981911376, -0.014039689986859085, 0.018623796903630075, 0.030513781047334876, 0.0024782566643447843, -0.002430054947030003, 0.03176477373281076, 0.023070884561722092, -0.03163792701409687, 0.09904398764215365, 0.04912685225793667, 0.06203569708998182, 0.046904117072364734, 0.002853001155397883, 0.018869225872829666, 0.0066489143927874585, 0.006685850252787691, 0.013517335022072988, -0.042532741512023735, -0.003844454589990217, -0.0010400920190254898, -0.0032034876417252308, 0.007040532723096082, 0.0004900439389577049, 0.038598399543105406, 0.006998801531321886, 0.03376543484370094, 0.013142828972348168, 0.006986414242093882, 0.02126266454768353, -0.03797953229573607, 0.03348505125070034, 0.013165794405017785, -0.005546795295343301, 0.03768974317478937, 0.043970702404213746, 0.09379347012032192, 0.0646232513279974, 0.11488430209634017, 0.1406758314509535, 0.1867381122951899, 0.1646130588826667, 0.03725020953776702, 0.0616423600423741, 0.03019747075967333, 0.08935481987319462, 0.051531249571408935, 0.0518284958831445, -0.03586973455638845, 0.02342575746517213, -0.013210542758753399, -0.0464609044461049, 0.07055816138931716, -0.00665200527892973, -0.01645318405643672, -0.00519336755954247, -0.010046918829432155, -0.055907899123640165, -0.027201158740134592, 0.024151428499385043, 0.03260148261763257, 0.03720014000534938, 0.08450957261562654, 0.0639936933122064, 0.06895845760717839, 0.10239084666074036, 0.12308181427558619, 0.10607031017307643, 0.12540359229491777, 0.08940428722857988, 0.053767706879937455, 0.044204701856093, 0.04613195997781672, 0.010668381784132798, 0.10145056369062845, 0.037635130620156235, 0.03315061051462856, 0.027974137536593863, -0.006964392953214438, 0.013912951235496702, -0.01395053508009091, -0.04125353255265506, 0.04155313739722329, 0.037998518864111805, -0.00018627436683733346, 0.017293819863276844, 0.04017785480725667, -0.012502159295603334, -0.07368170191402347, 0.009939581606564624, 0.05843550718673126, 0.06652135794664296, 0.05673644061256294, 0.09980839893940027, 0.03352290578042538, 0.05098505188884388, 0.07218658990410057, 0.0058593444731527946, 0.007930087254517592, 0.04789441216623172, 0.04693518029078797, 0.06528041559938921, 0.04750629207335667, 0.10811765361667039, 0.08767329041245327, 0.009118058575357085, 0.01569290267445008, 0.0029015703216585774, 0.0017213624081524885, -0.026528143068717758, -0.037203093512866894, 0.05506265808646563, -0.030322327193628772, -0.0608922798374432, -0.05060035734599112, 0.007394355309311771, -0.025165505552156953, 0.036083976091181746, -0.007507640275249775, 0.03846073841652624, 0.03241737773788935, 0.01360098930049444, 0.011218025137248977, -0.0608583684229731, -0.010906001665549983, -0.010813263802696843, 0.030903476688129705, -0.06288496660209462, 0.050629388640875954, 0.008323448767383, 0.0514511090185563, 0.12283018294388376, 0.10243393011373897, 0.05013189459850707, 0.010846723681685851, -0.003991170932125512, -0.03379060330120086, -0.003326110760869652, 0.013054282427410304, -0.01882812901541826, 0.07242554096633826, -0.03415237690341493, -0.06552653330933844, 0.030674552107538677, 0.03593506451091151, 0.04407268847780241, -0.02755200186274493, -0.01907624837000924, -0.055426130437198115, -0.019867844452739283, 0.009570668799648718, -0.05239517299991068, -0.020930601212988693, -0.08709669181334308, -0.0043455684804634956, 0.021066998349080466, 0.05672174276782563, 0.04690544592719025, 0.09869369128866946, 0.12813982293513426, 0.08157802106494287, -0.020641979962583535, 0.034979815676743235, -0.05845784920708985, 0.0049711565791941414, -0.0013101670221840676, 0.011930954869968926, -0.0023922686119204352, 0.01566914291657624, -0.01800668863089184, -0.03202567977808433, -0.0432235327807458, 0.01788676639825262, -0.05672626247856369, -0.011555238416079194, 0.03798055053754289, -0.01159090371288106, 0.04023598366388339, 0.06465192982240377, -0.08261547185393259, -0.12677735859677597, -0.08233299516981198, -0.07249930419892976, -0.007492550609561615, 0.02313574289897853, 0.09519205213855454, 0.05161976474829452, 0.13464438945643703, 0.09540212461995626, 0.06402172338738939, 0.03650757352768728, 0.008643972138143946, -0.008866622291425204, -0.007067198974308054, 0.03549014117337167, 0.023193893849841055, -0.06682454664510262, 0.015729344342125324, -0.02431140611225732, -0.03552568780618475, 0.03546548927619198, 0.013127346695672362, 0.0036538438855819727, 0.006893823960054984, 0.09008399967891573, 0.11446083785215704, 0.014990840751530742, -0.1598628279890575, -0.12826637721062692, -0.13669513522827645, -0.12975678891036663, -0.09318264948406699, -0.024914826011559806, -0.04577844137934282, 0.11322820424169708, 0.05626240458925723, 0.001960512691559859, -0.03536332737148183, -0.014048012244505751, -0.008864027375352112, -0.029930993001101067, 0.01237685639955766, 0.04146789283734504, 0.02330587445871955, -0.050669659591641276, -0.01980611523562144, -0.021373299631216803, 0.004860233422575446, -0.0254657814953823, 0.00043175832457614344, -0.0235155860669608, 0.04833477862983961, 0.07135748056936045, 0.11502239528701201, 0.08113402854061284, -0.08356836407005148, -0.16626868325798194, -0.14678265875715416, -0.15878230839287505, -0.07149203108783692, -0.1198565432673844, 0.06472506238049132, 0.05915078556831409, 0.08034466267507909, 0.003121677387912737, 0.04312984239184819, -0.01568882116252586, -0.07892190847022981, 0.10382166925726628, 0.030454608240429695, -0.057161138995236, 0.008904748842378284, -0.0042785885483817895, -0.023147147523820844, -0.037583470882891636, -0.08162289043744797, -0.02817615999222078, -0.07030867573095695, -0.055714432296728456, 0.03177619307763723, 0.14598461559404224, 0.1457239293690687, 0.05327384434039281, -0.1134727919058705, -0.11603306235897014, -0.20771711366783518, -0.22824635566663556, -0.16902461876930328, -0.047196466082416344, 0.008656869451516159, 0.03832188007194336, 0.04969311573891431, 0.006640108388926226, 0.0409670618415418, 0.010447264081335566, 0.07481806675194594, -0.015119244386544474, -0.026416676653605933, -0.00718363462789231, -0.04091785950763831, 0.011768784420789788, -0.11523127527414158, -0.0768828775719, -0.09759850012449005, -0.06108367167206985, -0.000432548268436796, 0.003257124062425039, 0.11160547393354689, 0.11153356148256323, 0.010284407275907357, 0.04316138328931454, -0.13544030433056742, -0.19078251027992152, -0.2082906507260746, -0.18912610765212448, -0.15468107100213854, -0.08522634093846634, 0.04382062844733316, 0.07740561600114187, 0.025933073721767664, 0.09839649984937193, 0.028523975591564502, -0.018122823983415016, 0.007515473849045177, 0.028974549236788022, -0.027823508322652145, -0.0059460899311046395, -0.007315169984162887, -0.020292851371659565, -0.005155325477087509, -0.014642129450771242, -0.0040614047882588855, -0.11001288039528419, -0.00217194101195541, 0.020562587333345192, 0.05735411578680562, 0.0760740436233656, 0.07597653922074979, -0.038420812539920225, -0.08514177858786867, -0.20099075367861596, -0.23073039900617778, -0.17966390507573524, -0.1313970047657356, 0.02961683712314355, 0.031079049893841734, 0.026094496662619624, 0.0630984757015193, -0.023406426128931214, -0.00447498080534747, -0.03604847536893618, 0.0051949070301689085, 0.030486862235761893, 0.028244546169564094, 0.08269382043886357, 0.010038454080768894, 0.0030056793899193766, -0.026345693639282772, -0.06254244211627832, -0.0506295087482785, -0.11392054743254465, -0.02357953491932038, 0.011326551662345592, -0.0016125463144146385, 0.023450442497619718, 0.0038570229765601265, -0.04608855685592971, -0.13300384880256347, -0.1629707047463974, -0.18908302247920064, -0.14401089547493978, -0.05424811419665777, 0.026115584986701964, 0.05504520508168465, 0.04297067351620801, -0.025157454650443337, -0.008705106989929531, 0.03765246422353452, 0.0743476190812832, -0.04492320418534962, 0.06824352272402492, -0.030274105164572455, 0.02358722517848927, -0.002158852324014977, 0.000573094378092423, 0.005218084443696312, 0.0074601849627602265, 0.05039955658080116, -0.01851122025951575, 0.09430210332555726, 0.057681052416243675, -0.015709789331535676, 0.01521134216265154, -0.13457397054255432, -0.15712405968786342, -0.14895318841214197, -0.15762845050893043, -0.023649577408895523, 0.019887876255550354, -0.013135554556689206, 0.0764550306967111, 0.09096021431147351, 0.0572678128047769, 0.043098993824093546, 0.04518024877296018, -0.016483110821950427, 0.024545462663171248, -0.029228871060694855, -0.03695103823779712, -0.02602063224282185, -0.05086091077367839, 0.046846748364486525, 0.0374920239457186, 0.05245641990341012, 0.04609900021629994, 0.016224610179096568, 0.07848193350907738, 0.10377944546983629, 0.1144382195695478, 0.06105234895099826, 0.005688250335577181, -0.0444754539257291, -0.16005087742197802, -0.026839880028653878, 0.0016897444839442497, 0.08823391827718048, 0.10528804165925461, 0.0859801690268539, 0.07559118028429997, 0.13103868057459975, 0.03350204596172946, 0.07711965683636757, -0.014337537585362962, 0.02223433641654709, -0.02835865751869106, -0.06385674446878022, 0.031157495380128238, -0.0014883211999515786, -0.03126815427631702, 0.04486802843333911, 0.05767664321071244, 0.009909446831910675, 0.19916951643537992, 0.16366500514134832, 0.28271582686259067, 0.19074116144631506, 0.15620746021218349, 0.1417810387983297, 0.05535140224759147, -0.038399963410626126, -0.03947314136139087, -0.0077278601257133915, 0.059166988280362834, 0.0981082596136546, 0.14138269405691947, 0.12803595906926404, 0.11192264363587927, 0.052164870610243795, 0.07901108776200257, -0.011557183860032292, 0.01948991001291529, 0.04360904500183036, 0.03406421862728853, -0.009160286703962676, 0.008092122634152786, -0.020685469466821774, -0.004182042656888301, 0.007773460906857047, 0.05423082453533715, 0.004697214727849727, 0.13706831136859238, 0.2144168548333334, 0.17835751910842174, 0.2596204047323992, 0.235474230519033, 0.2064820451984897, 0.022950378185267566, 0.044756212830642336, 0.04442632576298353, 0.020102229379010628, 0.09678252384346006, 0.09031446469299496, 0.12014081529797152, 0.09122345770623949, 0.059641328658223886, 0.09808829461691976, 0.04941222830506212, 0.04978638729453288, -0.04703300965552234, -0.028557656146156636, 0.011558077842097546, -0.004911160990438901, 0.03164697699262373, -0.07665492725026946, -0.012799928077082724, 0.05815748014484582, 0.06184787550696698, 0.09156107321147455, 0.11597193502976186, 0.15988112404730265, 0.1581433093398843, 0.2007582293028396, 0.13864185979729096, 0.1338598050205961, 0.1063192047642154, 0.14073350053728123, 0.11654091298738109, 0.11753770438400281, 0.05108342309381831, 0.1088154270977573, 0.12422217250048541, 0.1096335994102524, 0.10407143608679209, 0.04850048868575226, 0.01011676211799188, -0.01970439542620612, 0.030476910767221792, 0.03439318936406453, -0.058217252508795406, 0.022267831900642614, 0.008252693068455556, -0.043496979957132254, 0.057856146310455915, 0.07131461849075522, -0.0025644968250213237, 0.030849561145557616, 0.05311443215815738, 0.0639207233753067, 0.08538941481583874, 0.07693866338826041, 0.0841712454538901, 0.11712441140568695, 0.08615502797190905, 0.16642229192134436, 0.08470096650026077, 0.009535175477797503, 0.09382848873927883, 0.06058728561465574, 0.09009299958755816, 0.06597603804797278, 0.027183841349674522, 0.09987421386368003, -0.03856632151463886, 0.006774954156541426, 0.03808079154833469, -0.022626215340650416, -0.03745380787655966, -0.013427942444617409, -0.04267520643220722, -0.017810617273682765, -0.030243889694343273, -0.045216223815561375, 0.039485375772774854, -0.0265818042825926, -0.002824433615800803, 0.008008971707848901, 0.09366277320360192, 0.034914533108992354, 0.09650720626325757, 0.10927413638473846, 0.13038271339735305, 0.129367524656625, 0.12414225562258224, 0.11855116832840504, 0.13478202367583966, 0.04307692044760857, 0.04000815533572829, 0.008354562799772437, -0.04698078902307397, -0.052753033230850656, 0.01427212859062075, -0.010147784513166013, -0.0038400835631012113, -0.053194214592559415, -0.009655114489305198, -0.013081634971628883, 0.013515200103028518, -0.034711613018723164, 0.033545529377051644, -0.0059817808008846285, -0.012419941107740388, -0.03843713772465915, 0.054680211995874334, -0.019291354182967724, -0.026695107613319564, -0.02905977127879572, -0.05194010654440553, 0.0009048041243137123, 0.04408555713538281, 0.044394702836334295, 0.03790559374846143, -0.032299714315918, -0.03642141583819869, -0.03741418196207521, -0.03890521024626302, -0.020980706560884393, -0.020244550591884708, 0.02210053338202683, -0.040325318798052304, -0.02320384587088106, 0.07203291687390687, 0.03740720564855945, -0.02867198042194502, -0.06942039113119217, -0.05063503280722505, -0.04384235161969098, -0.02224144237421794, 0.014662023367998172, -0.021206692681351433, -0.006729824256535745, 0.001504047249995694, -0.07458432312136813, -0.010333256110911728, -0.05807317043819366, -0.04222207517288626, -0.06709242559824395, 0.01718321934565347, -0.13593339992811942, -0.08365668818215781, -0.046460867751360845, -0.060515531670210905, -0.017370430904377725, -0.04590069023882616, -0.029923184364151072, -0.037737606905259874, -0.0033414143948043264, -0.03250716578931757, 0.04022957893967241, -0.004523973540178679, 0.04726580676326121, 0.0021403750494307437, 0.022473546452427825, 0.034402259548086914, -0.04877746934807316, -0.047745246368541806, -0.04675826360110718, 0.005138883190826119, 0.004209618333881057, 0.0038798181530479993, 0.021198308220667813, 0.014520576915828955, -0.04361270220433715, 0.027425271498696058, -0.07933846904005898, -0.039981331555277944, -0.045103117047818844, -0.05341000936482965, -0.07008313532555398, -0.003728861540930761, -0.08586581984447386, -0.004181141476970383, 0.02017036562959038, 0.07577542380573662, -0.04633670633086364, -0.06634494595285192, 0.03747817408000326, 0.002027379332333743, -0.04219947553981748, -0.00817801662055011, 0.005615710648382287, -0.058236946409452074, -0.0032269304065167316, 0.008365139039224392, -0.003965095291145109, 0.05169606526291538, 0.008042693399746857, 0.022003067399447806, -0.07677856594938097, -0.018510902239843943, -0.002532459244678382, 0.0168949207476332, 0.07404074160347746, 0.04001115711258087, -0.021617653120902282, -0.000474944821323569, 0.014505422671036054, 0.029232356111043998, -0.0029843377169233845, 0.0015030835770783995, -0.042566212858106314, 0.005238098994204942, -0.03539289883285743, -0.032510141794076165, 0.030551116699945247, -0.018755920979399005, -0.0015949579919708168, -0.014181132877388352, 0.03456631678979368], [-0.014596817950375485, -0.014566078997348695, 0.04016323451824096, 0.04990473188563516, -0.05429935405132958, 0.04672583756477563, -0.02271806069781501, 0.0022207257565769354, 0.014905687611092334, -0.04969940245204569, 0.0403542659742172, -0.0031565405056823885, -0.012315942373966058, 0.05151821420360555, 0.0005030151686281908, -0.024318356698140517, 0.03713909760535714, -0.004743313726332292, -0.04012642239757051, 0.05192819876967552, -0.007579793859878743, 0.03902662028724441, -0.0004926502589813748, 0.00919587403967604, -0.0229113985858953, -0.07312556888074037, 0.050538837775132024, 0.03193197426558411, 0.033854490175731645, 0.012258545398197951, 0.021069602740021513, 0.014664836085255647, -0.044284483966781384, 0.045120620505155216, 0.051997656496026355, 0.02187390864709587, -0.032289687047228295, 0.04507130942268222, -0.027018660121277505, -0.02118092957434336, 0.0353443514032994, 0.06723514869775504, -0.026300007132291827, -0.03259339485111415, 0.027243674879050238, -0.025833342716869545, 0.01856818499685145, -0.0035054311038522, -0.0025079599830802337, 0.0019188005158384518, -0.0006335294916366797, -0.02290134477709689, -0.020842240949661795, 0.015413034007793149, -0.036680513847692116, -0.018637710167355572, -0.021218590244400367, 0.07256447946904213, 0.0002830796981009242, 0.0364552978147394, -0.04911712536344722, -0.06110565051364133, -0.005370711548582775, 0.018936320243833377, -0.00025203986762141033, 0.030414910432746724, 0.039287462615739246, -0.014413812944263417, 0.03739657233400964, 0.002448379765882328, 0.04921537027169033, 0.028955548466318096, -0.034747289716543846, 0.004125298870599769, 0.011673554779088168, -0.019410969518951077, 0.009349296363483943, 0.046861532953578, 0.006897422125532535, -0.034325507651325186, 0.03225520824385984, 0.06609176998627489, -0.07397195736213015, 0.039933116448817904, 0.07385441578823575, -0.0100193649880714, -0.03448126272494704, 0.011715550325444883, -0.03612402832705367, -0.0007494673937630846, -0.0005013144217102516, -0.06650672462752424, -0.02451157538333556, -0.00019670573845878534, 0.025087121337764102, 0.01810196621034427, 0.006211784256264128, 0.01346958702190702, 0.009386942141657943, 0.03315849444949574, 0.03713361967092992, 0.05102797038554656, 0.012647505672288735, 0.06136004185306819, 0.01801353992034675, 0.010513539781274681, -0.034369693597591164, 0.012804662690664857, -0.0344927612026044, 0.027376324806651586, 0.004761357976703326, 0.018812632366108258, -0.02094659845136144, -0.0211375818556933, 0.0054851531784828106, -0.038976856712429765, -0.012505204704264836, -0.0328994226371241, -0.021065938971030748, 0.02799731799101316, 0.0011232604465794638, 0.03187308175465321, -0.04476054022014406, 0.07432682266091012, -0.016614869228556515, -0.035659565652677604, -0.006230991133545359, 0.07229366249224119, 0.030272065872694133, 0.010203621951325662, -0.008139623346918472, -0.027834600835078667, 0.052495445619020226, -0.011310045531935311, -0.028083897326290234, -0.05768352049552758, -0.021902013287053854, -0.02164846387565294, 0.013130706409398531, -0.03271302050245011, -0.01207491166131466, 0.03679676486891484, 0.094592980321873, -0.04968484917648528, 0.004149076367320149, -0.04416062686810307, -0.016780675630773692, -0.016599997566933124, 0.0010188995580237036, -0.0155062953206564, -0.004884187291484222, -0.04523777593204251, -0.0027129051155927765, 0.019450703397950807, -0.012275786864535383, 0.03144847922433491, 0.044340095038203825, 0.029352166852294494, -0.008396317851081291, 0.023846995308175148, -0.11734148581823836, -0.12911339811500847, -0.07766045825476613, -0.00702393701896162, -0.03293028275265227, -0.07648320101926546, 0.0340535932377655, 0.05801051776760509, 0.026078150178410992, 0.0003078378615005083, -0.028534446880617566, 0.03944463908364844, -0.03292750998139181, -0.0161978750381649, -0.011201697997615896, -0.0797869727667319, 0.03236267081233384, 0.008242996337386493, -0.010164143421905567, 0.026362373641090706, 0.020789577210522603, -0.03759470515268089, 0.026950164701245654, 0.08312288902225229, 0.08981703122280756, 0.0766080500820125, 0.024650868690626427, -0.10411753338035386, -0.03586872442260682, -0.028877911142693596, -0.08351039133729221, -0.034476315300417254, -0.06645637704357303, -0.021967325485455668, 0.004905300161200645, 0.02815525968452005, -0.012731515375981927, -0.041711736345984865, 0.03503186555214293, -0.028069129525911448, -0.05330068217258832, -0.0064920146749938325, -0.09737039708757826, -0.04047176550430714, -0.031801743104192044, 0.056030866686010886, 0.026792957101193015, -0.035801474810099904, -0.019826407680486224, 0.072831526772226, 0.11539318348520251, 0.07972250672265355, 0.1088308658274906, 0.04529202829241451, -0.016249519405657234, -0.06920109787187859, -0.008755867812401974, -0.16331548235149845, -0.0845984882739011, -0.17840408235074004, -0.12240507316726863, -0.052000642502366315, 0.004564922619146408, 0.002431604196207817, 0.01708729228991697, 0.06044742726333477, 0.012496333160849872, -0.09347724447857861, -0.03178416397519059, -0.03693205043711397, -0.009662203584922861, -0.024497690082671962, 0.080127217038765, -0.014529043266733646, 0.02878017591960121, 0.05783204025640069, 0.1335883840365923, 0.032671422332468204, -0.03376754562957897, 0.010674603426216896, -0.006819854983867182, -0.07747450453263227, -0.010323778044708489, -0.07280224702796836, -0.06916497259069798, -0.05322039239190046, -0.01631554276507009, -0.06916218409596499, -0.12656697329176406, -0.06714162403262222, -0.052640382143285626, -0.06854449517128176, 0.0062085034508122606, 0.029916323368300725, 0.010640097747764948, -0.07721781391390643, -0.03752658363411526, -0.06262644861993066, -0.02428559644751836, -0.004749216104759614, 0.0430560490270202, 0.0993163268265538, 0.10817970383284928, 0.0667243322058116, 0.012674165972312232, -0.024122567506830665, -0.10638544247675162, -0.13622449934855327, -0.08350514085430094, -0.07842901127365132, 0.008341408987718202, 0.01880730524538933, -0.07587375238825234, 0.021701729931256755, -0.02245974644015623, -0.11162236801265975, -0.035391716171178624, -0.1136289363360805, 0.01610891670485859, -0.01854074858596313, 0.042492718899806894, 0.0052596039998505685, 0.004867803887576547, -0.014626356110198744, -0.009427692881458144, -0.01400096063181787, -0.021203466198342298, 0.014663666155547284, 0.03547081469402466, 0.10477009213018833, 0.1934490819903699, 0.06939306399379959, 0.027689683961279965, -0.09035645119520916, -0.26125300397506723, -0.22501504831861938, -0.07233591259724986, 0.012792460638958699, 0.04654604188495054, 0.08789175284290549, 0.04781628043557105, 0.09243467670741916, 0.021226084104473207, -0.02238850469405564, 0.008065833176575015, -0.052797931383299836, 0.034655708124529304, 0.01252587943654997, 0.05179631712065978, -0.048071392169071324, 0.011161531661613912, -0.033616416340290604, -0.014175666172728254, -0.006405798225091864, 0.07894799964715668, 0.06540845062196919, 0.014733229900040124, 0.06289571182280132, 0.06970800737660236, 0.14627237438881932, -0.006909295953483602, -0.07551024346678553, -0.2528539417180553, -0.17423253833689775, 0.08370819941784771, 0.11620946158813011, 0.05309165375784274, 0.07380253586912361, 0.11074328768000592, 0.13991747187206316, 0.10425792067087497, 0.00034704838765198167, -0.004052143042321471, -0.01083060286097181, 0.015853009490607178, -0.04225969461544689, -0.001255211780157592, 0.011238969107376621, -0.010686180523200691, -0.006136644775033884, 0.006641614193930693, -0.016233768470215956, 0.11687833488155926, -0.011793633801463348, 0.08999959503641046, 0.08168982361457415, 0.061939111192032416, 0.025343895846111464, 0.00824911831349844, -0.13100461832329682, -0.2164502855254896, -0.18428357483132796, 0.11917540220429151, 0.17463118034241126, 0.11165022036147343, 0.1323265060423192, 0.15460845289010186, 0.1548568001681955, 0.10618443642558704, 0.044419694080024226, -0.018376371825812792, -0.020691920314927816, 0.02688003743954613, -0.03840824040612453, 0.011180901496653545, 0.046087156743102604, 0.03840569307997944, 0.02619416235061726, 0.00488475614538054, 0.07039086836470027, 0.0862030872825298, 0.03434939240051535, 0.05963522199659902, 0.007216283235919863, 0.02445973128437084, 0.05603341067287105, 0.0004690779915411785, -0.1550848075734874, -0.17607412782532747, 0.010550260852731152, 0.1430706567455026, 0.19127227587269852, 0.011944480225833377, 0.05906305964062221, 0.13697466681168752, 0.13526673879142118, 0.14919764411681324, 0.08300684641389566, 0.0621735144627115, 0.018350001068656762, -0.03759107893732256, -0.02871461488314366, -0.030663164237115088, -0.02335022089892742, 0.02617983425561911, -0.024433652092422924, 0.06843853769987139, 0.13160634140712943, 0.0796009111612855, 0.13291408916243982, 0.055391316661753426, -0.02050873444669636, 0.05171727245559671, 0.035650663154458584, -0.018421942975573324, -0.11821411162665568, -0.1738741398667832, -0.04212429484969557, 0.2021828850698468, 0.1834504113124403, 0.03225749369556194, -0.011052498558839954, 0.032502639569157686, 0.08103238181703135, 0.14326799626818737, 0.1087263564600701, 0.04954309768882949, 0.026614914389441906, -0.04877733571870306, -0.02569616073767766, 0.0354630978093053, -0.070705410021639, 0.010159148763850595, -0.016714589939322767, 0.03446802987217709, 0.11671643283455911, 0.15278621329938233, 0.07467460331916052, 0.09451856548323194, 0.0653542128523908, 0.06818223996840966, 0.04011314662898443, 0.037755330411066816, 0.028775585063366426, -0.018300518238681764, 0.13315244805227194, 0.21882741787302623, 0.10661034142404231, -0.028464246649534976, -0.027128926238398927, -0.0020453439825814062, 0.04486884638603415, 0.08070961728851865, 0.13498469412952596, 0.018082292986509894, -0.03372254580225531, 0.017043294301006852, -0.0019437843824168448, -0.05004248276711374, 0.024745338948882967, 0.024532627330692693, -0.029352317825888007, 0.011692039765418412, 0.07252863782329724, 0.10633128785336864, 0.16033991858811902, 0.1528066077053325, 0.134834549319805, 0.21825913744617217, 0.296051977544564, 0.19686843127953157, 0.023155260790312392, 0.038371597809247135, 0.18771001639292986, 0.17688029031099414, 0.05287207638598427, -0.0733516406452805, -0.05342511124698411, -0.04232653441817227, 0.016992264671668672, 0.02444351477268244, 0.016464389845558064, 0.06592660462787554, 0.044227608626352034, 0.04245916508137937, -3.971762634601963e-05, 0.08313797367998596, 0.019953401077297157, -0.01737526545021893, -0.027460014987641477, -0.04634627626675957, 0.03099196700098821, 0.12550599514815977, 0.12106812985763589, 0.2591972337422859, 0.2611913833379691, 0.2939882192697819, 0.3293925463561326, 0.17864629086688527, 0.1006228491437512, 0.0657145690843501, 0.18388418972968582, 0.08900519200195676, 0.042557020785249804, -0.004646869477125993, -0.09911323775552572, -0.01553956062927112, -0.04266779187110538, 0.01911857247218543, -0.0137946052051485, 0.03954543511523508, -0.03794879154096588, 0.008312020670605078, -0.010547307996183641, -0.01265704854827004, 0.04189404458413233, 0.0012800670212584828, -0.09046412433299067, -0.0031036818927709605, 0.058744767013840196, 0.018566118206893214, 0.07879116026113712, 0.1874317797629382, 0.25801198400308284, 0.31244632055017096, 0.34653451895889126, 0.1964742623653614, 0.061414805071711875, 0.168870959984486, 0.13595585353036402, 0.007641604858478917, -0.025061566245933684, -0.05395166826793904, -0.023699805620742743, -0.011949485932000495, 0.0013191085168985839, -0.057015956553726474, 0.004038597525221901, 0.044924111287360485, -0.02548493266471093, 0.008822617275157365, 0.01986220396057705, 0.03728984849439878, -0.06789086154458093, -0.016835441974738567, -0.012227877593149373, -0.033242058499751384, -0.09951497924144233, -0.01761430905210399, -0.024424359348468518, 0.04202484729128102, 0.0970358878147601, 0.13270899046185808, 0.15058621818785206, 0.1527993292494956, 0.08937025170310155, 0.0463877263973146, 0.042545037358706336, 0.0221668930297825, -0.016574833610651273, -0.006824124179225181, -0.02468900022286588, -0.027884083364989477, -0.01137782999406651, -0.01822778548330245, 0.07708863279477712, 0.06517548745856727, 0.057311608417252954, -0.08980156874649453, 0.003568214256746278, 0.05629389484326, -0.014237525727205696, -0.0280899766414917, -0.03366619088297973, -0.037707758887545524, -0.03340349788300923, -0.01682951013655374, -0.12575298826415102, -0.05228367553824256, 0.020399145591308177, 0.007517250140628441, 0.04718087637146691, 0.006395463136658698, 0.0325621925642646, -0.02288737514054906, 0.026023743477074614, 0.06134849655133472, -0.049316508159144415, -0.04161252463012024, -0.0481120317669753, 0.018475767485503045, -0.008055793323634736, 0.032136285433719526, 0.046105947535987866, 0.02038851865644874, 0.01116525511423617, 0.010162883706862398, -0.01162278783963358, 0.0003228145853580789, 0.050942456724822255, 0.0209115006292329, -0.027484538138673274, -0.08521727176111199, -0.02342445023453407, -0.1437522790479691, -0.13865599351256186, -0.11710633039300496, -0.09166677845023652, -0.0462897379502151, -0.011363969505116285, 0.012042857722950617, 0.02936170563460784, 0.010659267830109282, -0.03511452894514117, 0.012235345631770886, 0.03318666537921534, -0.02765602612362948, 0.016492976537822616, 0.007711975226364978, 0.09125591156727188, 0.06783011239542858, 0.06834447805176412, 0.010806799404615427, -0.01959736119668451, -0.0035406054967992346, -0.015123794981696016, 0.040681461931443896, -0.027072385516178993, 0.022934788171599257, -0.06551460061612813, -0.05345306152129697, -0.14946395069572796, -0.10776678393645582, -0.0374255162416619, -0.18304510301565188, -0.03592589877118586, -0.10515400429109187, -0.0916724995741192, -0.001256998698733765, 0.019522468100730685, -0.06970341802961791, -0.12105432261866791, -0.025995302312960093, -0.017751350489177913, -0.01005746674075328, -0.0009742660319154394, -0.012018093422744423, 0.10003074595510347, 0.009113096220055676, -0.007167513270419233, 0.003777906268542409, 0.01401698150132338, -0.019006452879979582, 0.0035666085042410085, 0.04024109291786613, 0.017672397984446066, -0.03929813653311757, -0.061116462426118075, -0.009954880987838123, -0.12269057907360983, -0.029079549315854193, -0.06625336635819754, -0.09283313207298935, -0.08252372528465664, -0.09513875541003185, -0.050598882478589166, -0.07195202071490912, -0.1385769039271283, -0.06069327988392442, -0.11408901159625157, -0.03886697307149706, -0.07535873677001793, 0.09452513794718993, 0.025981016478309103, -0.00582460093211711, 0.006391777494913552, 0.03215246235383738, -0.02642112498080566, 0.0269875246710782, 0.05637601363755152, -0.03002704035261976, 0.0768059681752684, 0.005696438065495307, 0.06895727564994716, -0.004098507238019804, 0.004629148760218409, -0.012625102216697277, -0.03099268401706929, -0.0049705610826574565, -0.07958954304567621, -0.036896662332875696, -0.052266678069096836, -0.027953010189989386, -0.04275870773776412, -0.08325814751354674, 0.027679586237823267, 0.01874864499719847, 0.10147563021960401, 0.029728430465210075, 0.01489095833799758, 0.02664832132054225, 0.04845988193579447, 0.007399939263007113, 0.04498579802594849, -0.014801082942942356, 0.023583714268664763, 0.04228129942961954, -0.013321878442892175, 0.0018252193621820535, -0.013063747679667876, 0.002464393104357179, -0.005362900085257748, -0.03573928573742535, 0.03125585260367706, 0.004358911386104579, -0.019626531600730756, 0.06773497045771827, 0.03697892223978763, 0.07285345539051269, -0.04903730082180434, 0.0207898259712366, 0.034167035724994195, -0.0725896850840105, -0.013178041138634099, 0.0016327384847749655, -0.0068557367196663355, 0.061869478243499185, 0.03842877528704147, 0.04682524547492023, -0.002526215178369937, 0.018032418577229998, 0.047001481154506884, -0.014226105332132647, -0.08594111132312682, -0.016337919995671267, 0.013636081827343568, -0.03667414066336001, -0.0408385468416188, -0.023053613554418883, -0.019767297175721545, 0.014077999425691679, -0.022947308440803855, 0.0016026431743595012, 0.035875731187408555, -0.042606261007865374, -0.01762787557726227, 0.013810361111459052, -0.04632727482178135, 0.0013634510379419969, 0.02202205791698368, -0.0140689867061224, -0.03497144740482807, -0.018592238298219484, 0.027865891218565492, -0.02962453919307199, -0.11349192782441811, 0.04145303254192141, -0.05506708484859216, 0.0807495449731534, 0.007541327304319375, 0.02998102660186293, 0.04856947489381467, 0.05222536697707209, -0.0003929458582791207, 0.02063796965801648, 0.012360415807288843, -0.07197247367294109, -0.04420880851802973, 0.03420473658015394, -0.007994937499718907, 0.047488121259731404, -0.038874923030878354, 0.0049592653000060955, -0.02254356842190997, -0.04587336733160613, 0.00596000305820142, 0.014773923993052636, -0.01910450466285546, 0.014542631100143281, -0.02012827184992558, -0.07791387431156173, 0.06316135521843898, -0.0008631181537313861, -0.016506310080248957, -0.016757131580601572, -0.007092998281446753, 0.024195228390232682, 0.02037030305660574, 0.00900134969460848, 0.028243181025965573, 0.015527509057970283, 0.025420449915179024, 0.0020081986043777485, -0.03906607456216724], [0.0016815814487268338, -0.04320549910661077, 0.03223961929588337, -0.008987238260013443, 0.017875949997806968, 0.04761576611244125, 0.0009520341355422898, 0.014337632755483156, -0.011321434885330958, 0.0022989757070902184, 0.015560081764089254, -0.012627272774229663, -0.011991790307633879, 0.0027056289735856486, -0.04418221597038926, -0.013083589748622823, 0.011874150083462511, 0.02764185230532138, -0.007991029303045998, 0.029889348927383687, -0.0050647454275292055, -0.04047838477018869, 0.028093009878061567, -0.06026934567212104, 0.006177832093903519, 0.005293647047843272, -0.05065745482382881, 0.042939456951072534, -0.013859323264624484, 0.003163325402355461, -0.010817560226565806, 0.03652810193740512, -0.017283144108670823, -0.02452529217060884, -0.015945070545692254, 0.004738097387844861, -0.05512237952248339, -0.0006473376222331545, 0.006978805853207641, -0.021694972985348396, 0.04415258393292337, 0.014689193195272579, 0.01872243891547431, 0.02847644296466297, 0.0002350784936910396, 0.014667260236948079, -7.099416470408614e-05, 0.01782244877549337, 0.05615797578751429, -0.04271044550069926, 0.03019967932471883, -0.016754392864149252, 0.0002780575779403386, 0.05250693621972358, 0.03593903346142794, 0.03674130297301459, 0.04245309763164594, -0.05657587001758161, 0.009546349366971983, 0.013788697277506609, -0.014669839542757511, 0.042267258915024204, -0.07072260125039156, 0.03853659889442157, 0.01132444826766035, 0.053353014976274, -0.01808868220057371, -0.052507663024973256, 0.01975567251050473, 0.01347858681036731, 0.03509256371784162, 0.02668962224538642, -0.027548174247416166, 0.06010004476458722, -0.025700401494843334, 0.03571360122165712, -0.00670063889771113, 0.013479843481159466, -0.025184292360156468, 0.0046689528858551675, 0.029680168445482123, -0.006568847517955032, -0.003978129748034672, 0.004646913704024201, -0.03985289851616382, 0.01899683921532302, 0.02188145421651443, 0.04568206331827122, 0.024249025225960598, -0.00615289549994385, 0.11764913925979346, -0.017218213499988786, 0.007367860060206982, 0.06591654842880652, 0.033718508077135494, 0.07554685335311132, 0.10897878871129925, 0.1295950105670466, 0.04743417590608092, 0.0683599151340097, 0.044118756486119105, 0.08401627002219071, 0.0566528854807677, 0.01716009469430913, -0.01712642672446902, 0.017248318092839877, -0.011822978984239566, 0.05900311100294763, -0.03571997021334363, 0.021409291349489802, -0.022738512057103186, 0.13079449383578853, 0.0010910304137262152, -0.024760799011262016, -0.0007083362836078765, -0.035346945942365544, 0.043138472853730334, -0.002351560906852121, -0.03370141466537463, 0.06776636187254756, 0.12420666807227311, 0.12322592839191902, 0.1424939388792861, 0.08310706512364816, 0.07525035627711972, 0.09553846576149545, 0.07622399529914814, 0.16025254109089826, 0.09025225006868405, 0.07635998734874425, 0.08585674382839648, -0.007082638119900535, 0.09537350714562486, 0.013157780151351403, -0.0465703278177669, -0.02513917350965786, 0.016006391940306484, -0.04830699663166949, 0.001568450324982468, -0.12499246003140145, -0.039187371872668984, -0.030359059057543426, -0.030510298889914307, 0.032135292002942066, -0.015913416962072078, 0.05468474940871956, -0.03723461694991995, 0.08918854982699996, 0.08078277862051297, 0.07138691861844952, 0.1428207571305223, 0.15402964529749935, 0.1748080315648803, 0.029711477411733255, 0.04687477824517845, 0.07820416299351156, 0.062354560206645156, 0.040799915111994774, 0.0380228553240203, -0.07228266056509126, -0.0686196716625856, -0.011826942036894812, -0.024092196285318362, -0.05373418542609225, 0.024046294707048242, 0.04410878169382179, 0.03859358099414779, 0.048122232004489, -0.021754963603291492, -0.04471737178876785, 0.023768363756638437, -0.04644111842754439, -0.02487611274787797, 0.033954354552078674, 0.042504046287274645, 0.08221314520220781, 0.10318625775578696, 0.17522623611942517, 0.13708686583464974, 0.0781842583718863, 0.08955092143953466, 0.03967518277177323, -0.00918498126730052, 0.015732674680100714, -0.07241413158482267, -0.05505481077104697, -0.06544402119608704, -0.005947659589961278, -0.06397249167845408, -0.06655430752959943, 0.01666402515996594, -0.0631470888691231, -0.038401889876320004, 0.037394186253202226, -0.013965843266753385, 0.0013550590820737862, 0.0067082206997410194, -0.01772695368127911, 0.07019923605953231, 0.038722678161938875, -0.01865578390263776, 0.003536619004004328, 0.11586047700383037, 0.12937437022530848, 0.13063584697282538, 0.08377082174342357, 0.12389519098392339, 0.02320450181601003, 0.0369213320652416, 0.010585404083453202, -0.03583022612747576, 0.03288796122229902, 0.004559927252521356, 0.009142098761187597, -0.018906818031343364, -0.08361295272165509, 0.005198391508727125, -0.08176158771453006, -0.0723279391661713, 0.02227280444228958, -0.07190127167702559, -0.023007935898859324, -0.09030351694546428, 0.05750467014462265, 0.010780860838081502, -0.01674663012098067, 0.03996230808669979, 0.032855032083027966, 0.08065812147271936, 0.0316054237056022, 0.07290309301159216, 0.09084610649432756, 0.05224892990726005, 0.031797677267895716, 0.02535864292735274, 0.04812516497573368, 0.02015318638905731, 0.04407216298522852, 0.04009625704696599, 0.06611234205291532, 0.07712637874513147, 0.07968888737074668, 0.028372191612853054, 0.020974858806315173, -0.03889831472259467, -0.05856420602326489, -0.054144782094349565, -0.006596423921075721, -0.03762167936100597, 0.06493799685886158, 0.0038711101638013406, 0.10147980968326312, 0.0005203352570675272, -0.01675545151321366, -0.016053686231890105, -0.013786395438823746, 0.04871053508608405, 0.0991242167656526, 0.053295539330681596, 0.05823143237072575, 0.02126200249850902, 0.011872477914384151, -0.060222157459792786, -0.07462748943058538, -0.019965036501097887, 0.04193314384555721, 0.06501162642341658, 0.060886405387086985, 0.1453336753554148, 0.11728907301594592, 0.09030117164484965, -0.03418843517667951, 0.06317949593132245, -0.03091543472767729, -0.03615753195683635, -0.05128447893064992, -0.06898014509755004, -0.03230283826579984, 0.025679387147799673, -0.019776926695972214, -0.0364418931642802, -0.020161327502597873, 0.04496131607969753, 0.07260226517505644, -0.002157387681324209, -0.014345968168225786, -0.007906824354539958, -0.0633140674220948, -0.08685601382786076, -0.08480789109973891, -0.1755949874899519, -0.12822201717463028, -0.037391549919863765, 0.022905550351998365, -0.014618840761334193, 0.046868187006641956, 0.06682246271590365, 0.09826992038303708, 0.020227707601583392, 0.059260571011484464, -0.00922660980130019, -0.0699054942186405, -0.027528006729779144, 0.04192180993183014, -0.005709676424228063, 0.03423483741060466, 0.01727885562673145, -0.025759633759884052, 0.020908678723288342, -0.011439884506966858, 0.051247191071524194, -0.023903303536607776, -0.0050316618000124875, -0.020843301336095806, -0.06951178299486378, -0.06593314981868749, -0.07533178100398577, -0.21234055465983825, -0.20834842273760246, -0.11326440611229309, -0.11520227443596548, -0.104005224608013, -0.09467533840421613, -0.06620173946188398, 0.018656679147736402, 0.018715110569597286, 0.0006400952310389757, 0.05787427212325814, -0.11515240826856465, 0.0013605235032398135, 0.032544167519430144, 0.005699473868506426, -0.06681377444148448, 0.00016449157823406697, -0.050496997789430835, -0.015859987190742834, -0.03200595870313164, -0.008820829339386282, 0.015545512996731799, -0.034562877606202316, -0.054763463151265616, -0.057976383516462636, -0.09909897592549687, -0.15395350006277267, -0.2052050472000139, -0.20176953126328495, -0.20811147038160366, -0.1129761030977165, -0.12740882058188907, -0.1091482357607889, -0.27235473227761725, -0.17518239091366694, -0.05243551998083444, -0.009028580831454455, -0.04787402167053202, -0.04048136001652438, -0.04643240447464754, -0.024626016931238087, 0.0430711026042576, -0.008761009787476398, -0.03514019104989388, -0.062173597012872395, -0.09495032486905888, 0.03166376171672228, 0.03340786335197467, -0.027146109058830973, -0.03797253992200957, 0.0023635603077035794, -0.048874079855380725, 0.013639021786992547, -0.06436851622235208, -0.10035042084946312, -0.17301444559255458, -0.1765853669826182, -0.13713267052044542, -0.10305322710517521, -0.003852283725675596, -0.24006440759601816, -0.3833329325659889, -0.25745624062908895, -0.03552480870480915, 0.028036014716871355, -0.01992429077872239, -0.019356452831868792, 0.026630024722119026, -0.01222362404926694, 0.02442007610058264, 0.0027361010824260234, 0.05802446305480432, 0.049855461696668026, 0.007258695171776685, -0.04099110393818552, 0.025631264451499318, 0.005221444553561308, 0.0382662300339615, 0.008861355053440515, -0.01046451642884611, 0.002028116406130941, -0.011576627997875002, -0.13015949425950113, -0.1122082583327896, -0.08502151763547104, -0.08858809935208793, 0.02606548183452577, -0.1840223687747337, -0.3154205608071691, -0.34938616398194605, -0.2694569129376351, 0.041463745145299394, 0.029755393209042236, -0.0005115266014984647, 0.0005039771611752833, 0.0202281416101033, 0.09278882346199678, 0.034370246301263195, 0.033841267947818374, -0.03918316179566155, 0.025413271644729018, 0.04103508044717829, 0.04650127848653844, 0.005848717882054762, 0.04766304518713107, -0.02219086055447161, 0.046586819757127966, -0.02660187458173787, 0.0127146999718659, -0.11266708516286185, -0.02628487833799364, -0.04020448654787466, 0.008647375251684228, -0.02442479296604237, -0.061747830910492955, -0.18351796039748167, -0.28679385206369584, -0.3164249676400431, -0.1544868130544786, 0.014960550560389788, 0.09706141986490605, 0.07511437783136826, 0.07596261897999741, 0.03026437696153385, 0.0799687357009197, 0.07744533167370635, 0.0324828018893217, 0.06854476633666087, -0.014538988986625012, 0.061908387225723095, -0.07063295404574264, 0.023741538309301723, 0.002745994285216614, -0.0008627310790793107, -0.00953554093116049, -0.017263628470499615, 0.04707370257567828, 0.006743172992769729, 0.05804139097956784, -0.016994249768243493, 0.031863582902412244, 0.00897626678282176, -0.05398229525361141, -0.1809486843213449, -0.29554458522944627, -0.25204465807227355, -0.0510303493621783, 0.04596408996454555, 0.01319507415878442, 0.11574845727082127, 0.12903031162528394, 0.10492851131059222, 0.08412589476496879, 0.1050999703886877, 0.06614671109756684, -0.0356342648538339, 0.02934395949558583, 0.028916875165246724, -0.03318726192048191, -0.01681122487000826, -0.029792249182222046, -0.005827517410385241, 0.038921206953178515, 0.059922591947038806, 0.05910682621995659, 0.11323479502727052, -0.0007975294365678814, 0.054174802426608396, 0.02606241263167601, -0.016145492320968118, -0.1427995991901616, -0.144574733849803, -0.16863441932600695, -0.139764660734443, -0.043411792140237306, 0.0645918084462544, 0.12052929437671837, 0.10458266499230848, 0.20385579606149187, 0.12079343625690521, 0.14683933938238783, 0.05133941348385348, 0.08425757569192588, -0.023909107543024565, 0.03236121290289312, 0.03304308801589892, 0.06446679029454667, -0.042417278682319974, 0.012558356399508913, 0.004019903755383805, -0.016195518419618225, 0.002714095427283986, 0.08222830124231931, 0.10700484355252078, 0.13242451863775534, 0.0257159283862262, 0.05992809670071435, -0.04815086934430583, -0.008942361559355532, 0.03835435442099081, -0.046590097738292924, -0.03614892550252735, 0.056685530541364285, 0.0674527501977258, 0.08069163261306693, 0.12631006456331323, 0.09510410424976577, 0.13196292747934313, 0.12406172458838051, 0.12186546191754266, 0.05158508033122311, 0.03470235571505306, 0.02341250821899602, 0.04131111221331445, 0.034605236291903464, -0.031064059372190443, -0.045431055572415946, -0.03217048284091745, 0.024766670471997605, 0.04881995212502182, 0.06117657564533625, 0.07316440382041231, 0.12016478803895733, 0.08101670566005051, 0.08144931678393269, 0.015529989147144416, 0.11193911771655612, 0.10763781764205828, 0.07815884337578517, 0.0704079325573305, 0.06099007588593071, 0.06024335325365396, 0.16558571514915413, 0.18359469808130177, 0.12975190792565564, 0.1630514653967177, 0.13549148738638137, 0.08218770479475071, 0.01673749123935777, 0.05818002118663256, -0.00012231937058779948, 0.02212786162378759, 0.008577372790212446, -0.020401934918122124, -0.03412013895673162, 0.042613708929467996, -0.011081481873693518, 0.07422975620483142, 0.08224572701826283, 0.09294503560139136, 0.16747733857926259, 0.08166485168689873, 0.11567546659565643, 0.1550500894652703, 0.10862687651321222, 0.14974189693650783, 0.1261625208616584, 0.08352820910233708, 0.14190217417866194, 0.0911787807859824, 0.1228538784651361, 0.09318643556183831, 0.11266877021425288, 0.03030389299404917, 0.03790768289879578, 0.0434511065754659, 0.03929858978960776, 0.02296961661021399, 0.08630760070614715, 0.02860296754818291, 0.05954088618597172, 0.05945369557235534, -0.04482220929646222, -0.0266468135324401, 0.0247801582427897, 0.09007833884904921, 0.08352311305373851, 0.0762945215712445, 0.11719060841217674, 0.06868186180509842, 0.08730848781097324, 0.05775608310161169, 0.11293669772274521, 0.09090352388415505, 0.10072456637339254, 0.04942536753290126, 0.11927902870778583, 0.04712628529636849, 0.029734586838237417, 0.09109981735014551, -0.0023080009934079845, 0.07110608340659383, 0.0553447770097951, 0.040008111835807464, 0.09288167978267783, -0.03123782629090303, 0.05011018888505283, 0.020248663367216202, -0.026080289357157976, -0.017032289758458947, -0.021569180867076865, 0.08318858931981157, 0.015442977079631137, 0.07511581672531832, 0.0374401909972482, 0.12097602497920967, 0.04797025553318656, 0.04214263967509231, 0.042304088266106786, 0.013758076414797255, -0.010056721948021855, -0.05464196013701084, -0.050631543540472224, -0.06283660351338077, -0.09601120021149728, -0.09622321856467075, -0.07045952423388553, -0.043779694312311664, -0.012316267761107898, 0.026295079982976442, 0.04116096175734813, 0.003139049184542019, 0.04032047894463553, 0.015350285790154372, -0.04049770135052321, 0.03533202326550954, -0.01548392698176324, 0.11453229145118772, 0.025397821482162443, -0.03848156345891173, 0.025991450245236317, 0.04946314627928732, 0.004162339702105409, -0.04350109331511684, 0.03584769519642741, 0.057096378433193665, 0.048872095060576805, -0.0018156379604234328, -0.04693975816472748, -0.0498433653058652, -0.10630980992500491, -0.14688921471506616, -0.22063717660604573, -0.11246001818480215, -0.07334265432132395, -0.08737472579187151, -0.07719840295215537, -0.047407265184835075, -0.025316219174733458, 0.03566102678773139, 0.01000707786917576, -0.04326593903458986, -0.04083011046579577, 0.031248534233231533, -0.03064033633403907, 0.00198359551603902, -0.00027883906554575114, -0.00889271754289185, -0.08108826289412577, 0.010380868264727082, 0.017335058279421785, 0.063881155769084, 0.020652126687097382, 0.003375123150514105, -0.013684333133556584, 0.006100984703601834, -0.015272668475468206, -0.03798262561856211, -0.04793622050086369, -0.0599788697478384, -0.059474656648833724, -0.0893118727692055, -0.05639434110456728, -0.03395873485903557, -0.059452782980712396, -0.0524848608487876, -0.03076712789716724, 0.0006238004190392481, -0.029227809122739774, 0.03724222325468015, -0.03282160606259803, 0.018067864437659772, -0.08105569809802275, 0.017354315567526007, -0.01035621370993592, -0.097417922304625, 0.020142198432269613, -0.03365951927345029, 0.0512155122593671, 0.007784020553771287, 0.06695764983207811, 0.014991543307021368, -0.02450991733125018, 0.059905578846741143, 0.030190526593135692, 0.059312331398211085, 0.024907274040977676, 0.017708044639861576, 0.004818910550554365, -0.006252488471916247, -0.02641758771753778, -0.014132527962805267, 0.03661244264377419, -0.04652649331427762, 0.033650371535014045, 0.03722805328306693, 0.03168393443265588, 0.029752621632384766, 0.015885933365597762, -0.0029993350264639856, 0.04047750766200021, -0.012968491749868456, -0.01633011233015908, 0.028699442241497362, 0.028051438840855234, 0.0009248052667173229, -0.08449016038075516, 0.007406381417298408, 0.00372370179709006, -0.02416147891959511, 0.015102117345159663, 0.00017864373351405836, 0.012581806867863598, 0.027063517768093605, 0.008942836732656036, -0.009764700199282935, 0.009979718076258002, -0.05144033215064592, 0.013236323259014224, 0.0016639612639269578, 0.006376029464374268, 0.01704028248492138, 0.0028737540924550407, -0.03869522479801298, -0.05009420925329493, 0.00284274418088586, 0.06846960656228325, -0.004005498846163439, 0.012911590767261567, 0.03136797503072372, 0.028194327042869904, 0.009664554208240765, -0.017793192355820595, -0.006442360474466903, -0.04141272744455421, -0.01168859318920372, 0.02648467232655035, -0.008185635920353316, -0.040049371723346806, -0.0774463180646673, -0.0010624106494707983, 0.02993909316088671, 0.05235903090050108, -0.002760252393718208, -0.021608890668715214, -0.007252418572891092, -0.0014305389969895194, -0.04008622445562436, 0.00012078593688906695, 0.01567081848990712, 0.035669405210929934, -0.023216588835651062, 0.059936422178577295, 0.04329107419461147, 0.05821991338026281, -0.0761370836183907, 0.013975852115821034], [-0.006895805382098975, 0.03191560607642601, 0.0025875444747236534, -0.006184763348337057, 0.003189775202623836, 0.03983615270399489, 0.020139547314314714, 0.015937484600397338, 0.02255795732922499, -0.038064844441924796, 0.05953650551410917, -0.04899293205460546, -0.04326256018333063, 0.048858654153013416, 0.07666248453579297, -0.07418406628768305, -0.0010923652241561627, -0.0065582724068582055, -0.019530258263555436, 0.04112038651612995, 0.021702479678562446, -0.03273510982146162, 0.017207460782088877, 0.0009293355231394633, 0.025209726260586533, -0.009036065246282279, -0.002697168776003802, -0.006443211811318161, 0.0010931222524565207, -0.020359600714906403, -0.015237120871696111, 0.025724446582946453, 0.024192869033866606, 0.007134148055189265, 0.05288120793168461, 0.03333652058306616, 0.0550403103225789, 0.03000248572262656, -0.008628511356032065, -0.028813158302023967, 0.0036603195224594754, -0.003989630319266235, -0.013992245126855431, 0.03794791428909053, -0.015144800185202154, -0.02038169594335912, 0.01830788934183757, 0.016104373221488045, 0.02264102355227257, -0.02227811290414512, 0.02324276930881373, 0.07681642616328793, 0.014436385554341317, 0.029001968380668968, -0.012290442272222254, 0.06285942077023719, 0.01180914965017727, 0.08343833869232556, 0.02156828477217632, -0.03309411565866793, 0.0008408071385804611, 0.018669568496314896, 0.005372000846722763, -0.07642569184637056, -0.02188607387420874, -0.026737950937769997, -0.015117342313582511, -0.031879903130970534, 0.041553522128766854, 0.025244659786048496, -0.056580631536330965, 0.019065369565076005, -0.023767529671822264, -0.0022602225172841986, -0.059318781014362505, 0.007201668581720095, -0.0037816213384905435, 0.028867270794748823, -0.04078430946834897, 0.01736669172454589, -0.033213205884038734, 0.055842015568247576, -0.021684717251114417, 0.031290661681946205, 0.05706451401432263, -0.026976565562862643, -0.031709993808696185, -0.05187824467971016, 0.06434108111093573, -0.015477781703966147, 0.0015075404260095537, -0.06516076291984005, 0.04876083120809738, -0.03422378380692009, 0.028733693236533877, 0.09021342633089947, 0.04384627770466924, 0.008149223734096106, 0.09370289322285408, 0.07901061588761946, 0.014325408409458647, 0.0904326598056666, 0.1042130842113205, 0.03999321788354086, 0.0162545183444257, 0.04280437381938716, 0.026593349055084703, 0.013615767090578313, -0.012905367169781011, -0.04695075952112352, -0.0015637374119142774, -0.005352647015534565, -0.053260170335443766, -0.016165313402707323, 0.02547017405139478, -0.030076905866811422, 0.012258245310479953, -0.043402395622677406, 0.0037048871559383118, 0.0491746948426003, 0.01624608659421576, -0.05826819029537231, 0.06174732771978059, 0.06646113846786977, 0.08672626190424261, 0.05163787768452416, 0.1302795911809107, 0.07976488283303602, 0.06342737901033223, 0.05591606199445613, -0.004449397037618917, 0.013106612750249599, 0.06300129642860398, 0.04028096843714377, -0.03852360232411005, -0.05039425971467148, 0.020319502497249193, 0.0024684745711682347, 0.0022862784369406066, -0.023978740390443246, -0.01479348169441414, 0.07238659885714045, 0.04430478695204444, -0.03657995494175369, -0.015465776035212054, 0.027899792459108032, 0.030735848704384363, 0.006699167958227156, 0.07116013810763112, 0.05001599388511755, 0.015801673591035806, 0.014201111588728941, 0.07363525784657889, 0.06127383737385039, 0.07670711290356384, 0.08937531093801925, 0.07870022821502586, 0.06884514139172834, -0.014652380682754288, -0.008751259384336785, 0.02044678884442849, 0.012419681161956464, 0.02707868911833074, 0.05079668570140228, -0.03456401943632398, -0.007486945974185233, 0.01897844597169971, -0.015487963227617014, -0.10112828836868681, 0.018062452610927298, -0.014993520519076788, -0.03537339956767834, 0.0257298019276485, 0.012118352185191398, -0.06205115874504037, -0.0010872221309958965, 0.02539557717300686, 0.008368723648195532, 0.0102750911117695, 0.03753851771974721, 0.013046941182550443, -0.05770012119949043, 0.021539394951013226, 0.013357918176715198, -0.08913738129073655, -0.03708455319774805, -0.0067356150559735135, 0.007411115019799384, -0.048046839339283, -0.03615639706623673, -0.09335109575863679, -0.031918504603445336, -0.002702186477811588, -0.08776181740790912, 0.052988127312245316, -0.0501571053665724, 0.05025708012365686, 0.0377981957321423, 0.04434975970000522, -0.008804777918130098, 0.012948960092802666, -0.00547656629108026, 0.042965522932921836, 0.011054908429087877, 0.10508912240800561, 0.007107505123690858, 0.016665381162167935, 0.06002931517935069, -0.06948291512410987, -0.052676866067375934, -0.06738665402786675, 0.006237559960497189, -0.0773839049714787, -0.0978169629051814, -0.04549412769089043, -0.046587110916967725, -0.0674729118074343, -0.06273933859922158, -0.09928421948161185, -0.071665093643921, -0.05741522665082455, 0.006647617249248526, 0.05230461345631738, -0.05917232328259848, -0.020015842263497112, 0.01904089647210026, 0.0596781455198343, 0.03380280281620015, 0.00838519914146736, -0.0091458571233006, 0.0508520638717982, 0.0013908399044416106, -0.03135647029778204, 0.006296558935291107, -0.02240485527076956, -0.0939112471778054, -0.04177753445787899, 0.0042998954212328565, 0.005491025067578488, -0.008642654501147576, -0.022094330404080306, -0.03965382221683795, -0.0267863428617812, -0.06713923777815707, -0.05178752832339852, -0.058617394283786074, -0.16376343565134152, -0.1557125191713318, 0.025834537667438002, -0.003783903373288583, 0.021836545688752627, -0.012275056501356678, -0.07499079638096692, -0.012272456953485519, 0.06579818852954213, 0.05002330990467603, 0.03167473149348671, -0.0023376874828110674, -0.03916877034305968, 0.0012188382390305127, 0.07157091016611133, 0.045793073449349464, 0.030618853047756474, -0.09320296347819171, -0.08456969070388604, 0.0411848070852048, -0.016694609042432782, -0.09122794589975779, -0.0024743885940324752, -0.06631441114118673, -0.07130510531827845, -0.07941916457183983, -0.10072053033578485, -0.1229352291252986, -0.13093884751402018, -0.10250642886661637, -0.006197442594251713, -0.02075742009575474, -0.021721694255097294, -0.014783641135517835, 0.04792681205341897, -0.00900785272414912, 0.006442464469458778, 0.03399610301906195, 0.051616561924116865, -0.012036880717691857, 0.006135804985127249, -0.06519274931746893, -0.047667406278497616, 0.004023111553307064, -0.1738970823569254, -0.11067520627303783, -0.06313721588253011, -0.11277929623770401, -0.08354920895776863, -0.07953209841688065, -0.10305152330894536, -0.043914718572132194, -0.04085860565792122, -0.03948540918385717, -0.06736322341899537, -0.04372473054916244, -0.06480360078252477, -0.02476216464897888, -0.07732026616209517, -0.015486002823155402, -0.02165608701092362, 0.04261591964348385, 0.09322298572841106, 0.07434872490636532, 0.038115980909019194, -0.06917634808960187, 0.03166401299828459, -0.08890556676850696, -0.03192037089124378, -0.12588051871100706, -0.009582430128492726, -0.08297981390038281, -0.08736411978182936, -0.1093817213920886, -0.18652559803707564, -0.16689002156121713, -0.10893728650631826, -0.09789784113499085, -0.08645729539555046, -0.05974446419156441, -0.002290284338717438, -0.03076441965090161, 0.05266399050015412, -0.06265172228307701, -0.043772651767953384, -0.05319855035195037, -0.04841810431473551, -0.024995339143848258, -0.014229420001080127, -0.044779620223520604, 0.06368394888617536, 0.02646144209782846, -0.08643065368956013, 0.03769721593231728, 0.005206162102593515, -0.07309914645443498, -0.09417634715894796, -0.12906354399061737, -0.04816701196043137, -0.1774523388515851, -0.21321074013372, -0.22589397002609302, -0.2159263229117417, -0.20722746628344152, -0.10737796974465817, -0.11126865854096833, -0.10794513140939907, -0.048062720612845215, -0.04655224611044495, 0.006625860849118691, 0.008240514705327419, -0.006342905173116663, -0.029963365173395342, -0.023782467214605904, 0.016983687497082355, -0.042624466952462615, -0.0065064769585870905, 0.037274294579311015, 0.0018752002005156371, -0.007784979977901939, 0.00860926338689759, -0.07288955011533924, -0.0011279578466733139, -0.005497253544087738, -0.10602257105727378, -0.09298522837256135, -0.20218919011594144, -0.18605999505866697, -0.18167749548063677, -0.23628661289278802, -0.22723858317361287, -0.06409164954483235, -0.04793062401737471, -0.05352665675883871, -0.09870095194178385, -0.029514554584504436, -0.0038842802021131885, 0.03574677738415631, -0.01804798189998706, 0.03855058632764421, -0.03626037309514304, -0.0837551428054561, -0.006643591873562834, 0.07353444979788012, -0.03689859909934454, 0.026191256646875705, -0.017934472987912196, 0.020033268488865975, 0.007896388467580095, -0.01656619323181136, -0.03574244107967536, -0.09000004299933319, -0.08245470045613987, -0.04253236000729726, -0.041929258006572025, -0.17822031377422584, -0.20563221015563704, -0.15046406456460407, -0.1632829851618763, -0.028491846973958148, 0.05945145306588123, -0.0187380077390769, -0.04419045748602467, -0.02879513760579415, 0.012010209262635895, -0.03932881487610038, -0.04161637563973832, 0.021891740311250848, -0.043764061424995525, -0.04791505617082249, -0.03209902859882136, 0.04180236852500643, 0.007423918448277178, 0.019129054946083107, 0.020980721925255404, -0.023489490561639157, -0.016167321150920174, 0.05503102246054106, -0.02680561472265257, -0.007194514264998968, 0.05474355154258468, -0.0015389082003466436, 0.028317232436132603, -0.024699146006690167, -0.01228020106624784, 0.024766334413238424, -0.011930911177177171, 0.06352383590516694, 0.0798357687276685, 0.02922682098069338, -0.012393860531658371, -0.027388896641700872, -0.01444708160951685, -0.09541308639947038, -0.008431660753951856, -0.05913036149661204, -0.03527117849306774, 0.05497736516010623, 0.02001225264950522, 0.003109436580781665, 0.014292263704155289, -0.05311394964971383, 0.008005515776435506, -0.014840803287612435, -0.02467950568400633, 0.018357391134069635, -0.04661572015646702, 0.03965579709014727, 0.005337688278846106, 0.003264268006106736, -0.03426456027524552, 0.11285878054960188, 0.08849704875783146, 0.05538046114100363, 0.018726244634498082, 0.11690938618394148, 0.146197963586213, 0.07938279428038655, 0.007014592235501141, -0.019739944665262823, -0.06238268874263975, -0.034834970629233936, -0.06350052753143698, 0.008810050901493612, 0.0012558234202323562, 0.01636358766107802, 0.02961658733139029, 0.00992859331497479, -0.019654172715382685, 0.036082025711103936, 0.060110501906022656, -0.06154483834653646, 0.024903333673633243, 8.71295286509103e-05, 0.03467768081512069, -0.010492081113358273, -0.045296062603158264, 0.053701396140540356, 0.10965058637880737, 0.11098898751407414, 0.15922879779932905, 0.10602252161885525, 0.16969700883427305, 0.14484332763981508, 0.20199489679834914, 0.05966295359225339, 0.01987270944391535, -0.13349073702476735, 0.000600474366204822, -0.1080719237284881, 0.03752161681130652, -0.016556530735009168, 0.05618349484854091, 0.09855539634812997, 0.03142614667726545, 0.017900830955253164, 0.027987269579974276, 0.005278668102022897, -0.06315024966219923, 0.0792613761933362, -0.047843895012421235, -0.038251220506729876, 0.0019204022421771124, -0.018091296602864782, 0.016815201252450257, -0.002669139307635057, 0.033974339658890323, 0.16351094968628932, 0.13479131970383812, 0.1858485194291907, 0.1327416478864319, 0.14851427719990304, 0.13372656625257665, 0.09414496275184717, -0.02842078069902361, -0.035774662254623, -0.021983265263724024, 0.03369758527960743, 0.029250145779122095, 0.11118365697526252, 0.013992404446414619, 0.06614741432275992, 0.05034110513770026, -0.018168255450181494, 0.02470379818495864, -0.011001352019228167, 0.01738202515808639, -0.025503628676753445, 0.00920168142564083, 0.04560078239165407, -0.0008627140126496687, -0.02467657782120249, 0.03302683933475981, 0.025397073889551314, 0.04311776753571657, 0.04556415288111747, 0.13584140333415026, 0.14212415025647865, 0.10360688181788733, 0.09565699654894697, 0.10042871922211995, -0.008922570717345415, 0.06281960498577774, -0.03406952880051471, 0.0012048205615917448, 0.06169515566954556, 0.02062297965206259, 0.06557409464485123, 0.07968843678476073, 0.005162051565137523, 0.029736237994921116, -0.0025415151908392245, -0.04369938807948174, 0.028193133167347707, -0.017368591163924432, 0.008952449847272333, -0.040549256095366255, 0.0020446629198257347, -0.04761074088082694, -0.0036258412030477504, -0.023897362132373, 0.02092141618527577, 0.0006609012325794583, 0.03305800526732952, 0.08867284061084167, 0.13553981722744748, 0.08944048516583904, 0.07409971086153905, 0.03961039885325236, -0.026587294749784572, -0.00409036155846026, -0.019760363841327025, 0.015270843500395962, 0.05486278721984788, 0.02005865631723787, 0.06906020141596643, 0.1153201754017591, -0.012383447157724999, 0.13723861760759887, 0.05148767492871268, -0.003558809279420998, -0.04116973847344656, -0.031325364223242655, -0.04932875784139585, 0.0776392262013671, -0.03830381067121146, 0.03505691868675172, -0.007458860204099451, 0.04143656620181595, -0.019933487853722582, 0.021276977898602882, -0.015931586481352487, -0.03252883026630157, -0.0046955977745843066, 0.07957334198003743, 0.03345561647433866, -0.03890319235376015, -0.02634239948494668, 0.005795283066550192, -0.04868533734871325, -0.003523131292650132, 0.01760178820265986, -0.03913011815929216, 0.12569900951911908, 0.031934155391625696, 0.03695280898598207, 0.07057505642371231, 0.009384139442040168, -0.01631191795410416, -0.009255492014348651, -0.07839518906156814, -0.013692934772317282, 0.027918107373079048, -0.006950729025892079, 0.016589500477014595, 0.046447104444904526, -0.011196851196987665, 0.007574556845207956, -0.03635027732144998, -0.030663412593166236, -0.025343881867410607, -0.15078251639328938, -0.07604961977187734, -0.10250694486382005, -0.024979225799246656, -0.04443264896021094, -0.09894786237112206, -0.044479719353456654, -0.05675063179806885, -0.008440869224019591, 0.023519762407366557, 0.020840063440715362, 0.05434562853414583, 0.08166151618306429, 0.06845901909877533, -0.05102233344855354, 0.03686182965084301, 0.07735869159436994, 0.051233144401063996, -0.07602236501298833, 0.045370419848194274, -0.007173780302339029, 