{"sizes": [784, 30, 20, 10], "weights": [[[0.0006496414354114276, -0.002152527977579181, 0.0032312608244419888, 0.002972378721625938, -0.0020014576826189157, -0.00699546473194259, 0.003624928900614466, 0.00643655547322516, 0.0008446548148340022, -0.006254778687909294, -0.00823598463665607, 0.01184453967620335, 0.005479679567239774, -0.022615045198213383, -0.004876153256814836, 0.003941781182343461, 0.00021997892820482896, 0.0018381314521175023, -0.006994192082286651, 0.003561398717079909, -0.0019486039833838983, -0.004462116013389723, 0.018210329209540944, -0.013470914020087472, 0.004343603285592996, -0.00458404596124051, 0.004054342784823295, -0.017927623356524366, 0.0029225179228281177, 0.0038001444960364733, 0.013795369149655956, 0.01608204206950445, -0.008450310045756948, 0.003990991503089884, -0.000921610824984038, 0.002614016914808113, 0.004622821801602208, 0.007365882266535883, 0.01009000464364732, -0.0005027219782128741, -0.014721422840331061, 0.0049783343931215, -0.0061073065463308545, -0.014568799274203273, -0.006873771686308855, -0.002880923071184878, -0.00719553153767325, -0.004877784055835494, 0.007602367003188516, 0.006702165719166597, -0.007932221268410289, -0.002764273117085608, 0.0025045820381264477, -0.0004511687178024962, 0.009973919644981124, -0.0012430102661608478, -0.006391333769894663, 0.0016994755647775904, 0.011986836877467722, 0.02031471876496738, 0.011697023281776799, -0.005212620867509602, -0.002666865611396892, 0.016465196367338286, 0.0016422495008931058, -0.003359839605241721, -0.0004731340423170192, 0.002448602967103468, -0.020337969649606713, -0.044308132866236166, -0.011668874643491403, 0.024296827786504376, 0.0025825888716565215, 0.0008419105123962188, -0.026419488001701984, 0.0026434214926171155, 0.010305729186386392, 0.008191746378491935, 0.01127941792582603, -0.0046920054946272514, 0.011763630443402836, 0.01678424866109669, 0.00882751406903586, 0.00018608120130975204, 0.009266757151153467, -0.00700638243167541, -0.002740766261922599, 0.005960662967301246, 0.007730168041510891, 0.016110423290020673, 0.009770702932600722, -0.004857235030886799, -0.03348513427067775, -0.04972355636231284, -0.04021461624339003, -0.08072723221222829, -0.06808281422547166, -0.05814017315771446, -0.1243328949881599, -0.28674411802148, -0.15224768222668214, 0.052481852288860285, -0.019466232478491444, 0.18108906049668372, 0.1960282044683402, 0.04538856442109449, -0.002767747379894109, 0.008968892117934064, 0.03584352020315649, 0.015485407457686754, 0.0005126605507118885, -0.00972403066608184, 0.002989843545001419, -0.00758101331286929, 0.007629253343714389, 0.011774431104182932, 0.0165919381388757, -0.0022527411536952934, 0.0009780867995067425, -0.023514136335935482, -0.09010031973381617, -0.14486465392774364, -0.19758984503990776, -0.10072299564726761, -0.04816653775064694, 0.2620913738585565, -0.007622953639323852, -0.32658354520564936, -0.2799254720487023, -0.26941834140504806, -0.20649256251501769, 0.058577138808947375, 0.055961741540745104, 0.16064852153894663, 0.03895887356368876, 0.06691201943962391, -0.041039612185892846, -0.11697720694604058, -0.04030905435953816, -0.007452060038472982, -1.5036363341248215e-05, -0.0077623589866637486, -0.0037816970008294265, 0.0055886094370163645, 0.008273533180442983, 0.0017682117511004384, -0.07195298594405324, -0.15862942325546295, -0.0833815453516222, -0.09191994801743655, -0.10946671549700765, -0.19891061808798896, 0.004709380816726014, -0.028813899807347207, 0.029020203777858487, -0.07939296702157075, -0.27672853584876833, -0.48025921517282566, -0.31351430197377256, -0.5375512078696519, -0.3412140936435033, -0.03858386874542946, -0.007794993695055972, 0.2442614213404781, 0.13014376091167573, -0.09754322558574388, -0.019922312743389476, 0.021402862020578433, 0.012205851288559855, 0.0017679573105369851, -0.01089650157502088, -0.002762832500572984, 0.0008708713760221808, -0.025845063275517124, -0.13070498243157974, -0.09667749903577194, -0.10469994006262685, 0.050334037383797395, -0.018215903649409622, -0.22856594986231307, 0.009549943013126172, 0.1482126612699725, 0.030098087539157072, -0.19262164400688594, 0.09138060183768476, 0.040936644739097444, 0.1107260935507601, -0.2663038464880423, -0.2241600326685413, 0.22517351870726396, 0.072267433965527, -0.06839093044688194, -0.02226025742882334, -0.18286711067049663, -0.0011753217506607733, 0.018619293916407636, 0.012120078684708616, -0.015767002487193912, 0.006120228371748118, -0.022720112727494492, -0.036066643737464016, 4.914655002091659e-05, -0.05160613898226384, -0.12545569527024175, -0.2617859019193685, 0.11221334690092101, -0.08476348877796312, -0.33913881489382114, 0.043903472356800956, 0.17655929937136777, 0.0016365422520615409, -0.25663725468134874, 0.3914907920493076, 0.06511167352928798, -0.1524600984878948, 0.08988413287090787, 0.18002006060908218, -0.1077413683384398, -0.08244044529221704, 0.1314670409090571, -0.04925273708122897, -0.15487923037673423, 0.07653574276064493, -0.0032397194285196645, 0.003560720946740366, -0.018772178269949594, -0.01917641860243962, -0.017152637398918376, 0.007434955428101252, 0.048711602797885785, 0.04787671559996061, 0.0831932641452914, 0.13364038113723264, 0.1025887512921617, -0.3171481611916521, -0.3171804881312336, -0.03915587622013938, -0.3045257882189511, -0.0017073414142976513, 0.2908714007141027, -0.41850711593426815, -0.0675769121572226, -0.053621660261750886, -0.15856728485717098, -0.34372131768688446, -0.41905150299299504, -0.016438412268417402, 0.016212000560785023, -0.1305333421464748, -0.14723759090478422, -0.10905015029711712, -0.020697938516586595, -0.01085698564599916, 0.0001568383669505321, -0.0035167621632766584, -0.03788546171105972, -0.036713049178936176, 0.01057035694768842, 0.00790608541427266, -0.05608857944200747, 0.06629244579362645, -0.0414056517862693, -0.1437137830822662, -0.11196637096034538, -0.08512261258190872, -0.09864155788694365, 0.17157101502199854, 0.41530862695837945, 0.057812460018452354, -0.1491452479466428, 0.17735479958803868, -0.1373799614050643, -0.2545205813281541, -0.22649212972514296, -0.0386160659234155, -0.2199320397410973, -0.1463332893363033, -0.2426615928629619, -0.047800018088025836, 0.10244093255255073, -0.0028705012395317648, -0.018398819051357297, 0.0023575388585321657, -0.07221124285350544, -0.013674875672417973, -0.00452388355058967, 0.046914309127887535, 0.0049992266582165965, 0.06410095548027842, -0.015594352974433675, -0.18257127116419575, -0.24075381293675768, -0.31734625114081944, -0.3300691555842672, 0.3539705667315493, 0.6980881732108752, 0.10499746119359443, -0.4098674665747419, -0.29989318132268106, -0.07710825977250935, -0.16343988392536962, -0.04287033965950977, -0.30314440181433333, -0.37587560121363744, -0.057620606442720226, 0.03690325082735224, -0.04109407306942684, -0.026398184917295512, 0.007451959255102061, 0.0039584445998992876, 0.021158168888726125, -0.010501378611980356, 0.09525866790398681, 0.09357980212977358, 0.0764998418103147, 0.17318427847634546, 0.16759517326612117, -0.030610253851391846, 0.2794885025642594, -0.07012923928571474, -0.07643645364949138, -0.204681141775274, 0.3447510684354565, 0.4395998124001438, 0.4346735968112411, 0.03716192439832331, -0.1199491267907307, -0.18362394484966713, 0.006073322182864298, -0.03316408856604698, -0.3891751966722222, -0.3960840302805499, -0.3148688235721697, -0.14343999851924094, -0.12636437557839958, -0.027616678141688302, -0.003539515256278505, 0.00095062120202049, 0.020172007634052996, 0.10591368803517828, 0.06670059110300632, -0.09679134255932455, -0.1595300011498015, 0.07623717642788949, 0.16608531672278895, -0.09862132254862845, -0.012809829459019843, -0.03754088170214173, 0.2130884829811936, 0.1589093924590143, 0.274172041229557, 0.5028259089227354, 0.547453475965324, -0.13167319977478348, 0.10714321702053359, -0.19101667206153913, -0.05950403174132054, 0.1671650338809959, -0.14974084256096007, -0.36430872351979793, -0.24110115777941024, -0.16820844070368285, -0.05765848685380301, 0.009334230037347398, -0.013572955200022016, -0.001341143015812686, 0.020860867737268435, 0.1229260602021699, 0.15290417778190002, 0.038437726533244544, 0.07232163451188091, 0.1846736375300628, -0.0199737189163763, -0.17501948069584, 0.1742018149205896, -0.03259953216495042, 0.21106948674980705, 0.27579011722211777, 0.6506259151317313, 0.5538407806144752, 0.3694330430602494, 0.37144625200756826, 0.18344329132073792, -0.11020712545065202, 0.056287554587361406, 0.05291841866807834, -0.09340605609537007, -0.04160654315100823, -0.10877928168798678, -0.12963044549294153, -0.07297806801596515, -0.03548445679127657, -0.002526605122504609, 0.009237679651780677, -0.006541450600785055, 0.057885294644770324, 0.1496507835545958, 0.02212400668352937, -0.10411146155620353, -0.19056461770099736, 0.06799135789074431, 0.022118393190565185, 0.17403732764070218, 0.21357475453153005, 0.026966842263118344, -0.02316801596184204, 0.38774095646889095, 0.35020400781676203, 0.28383724328493104, 0.024448983505584228, 0.2613301016504697, -0.03416943999097525, -0.06866942992932476, 0.2753502651729089, 0.227513750467221, 0.14802635826858315, 0.005819491608571091, -0.02818147917409593, -0.049673870135210164, 0.012209061185523718, 0.007849117291726037, 0.00464886969049717, -0.00666522992289729, 0.01013013666266189, -0.0007993049641334158, -0.11104070823544139, -0.28058036795119473, -0.382528777841109, -0.03225454620153674, 0.0018440133459839087, 0.17862420267154014, 0.12313127158376355, 0.07299685488789383, 0.05897554615923285, 0.19397196374549502, 0.4157506411833572, 0.09945300992858624, 0.1939383039822013, 0.10093771328847664, -0.1437740835529274, -0.04025350266555398, 0.40270488054016035, 0.37910689792648, 0.27993972057312844, 0.08794537227900816, -0.07194296206396779, -0.03366309366777089, -0.007644445275842227, -0.0011300987912293639, 0.002765037154749954, 0.003770017927950149, -0.014991897934463734, -0.01868116643017239, -0.15803334302336433, -0.403421032043678, -0.3151506258079528, 0.08551611895985163, 0.03019052534856799, 0.252473650612444, 0.24319987577619454, 0.06087330492651097, 0.5848504406395211, 0.3291085989965415, 0.125292386054448, 0.5215580266278325, -0.14877053989438824, -0.22545058547183272, 0.02796704319766467, -0.021032833899205985, 0.032250159259508096, 0.036650581826748845, 0.03564373940610301, -0.09188433168481143, -0.17333948201372976, -0.10244166936520478, -0.025569984128627574, 0.012335279980988208, -0.015800075520975555, 0.0004215814175974442, -0.012131728155943685, -0.07337728118845316, -0.23539175386537092, -0.5287894639014689, -0.4420328313528023, -0.32862294207899256, 0.0012046881947408517, 0.10689071731296272, -0.27651811319180297, 0.07322890665241617, 0.3538010717960253, 0.1358112088890999, 0.03700041153322082, 0.012329446069011984, -0.27214904936870715, -0.01972064180272767, 0.0894512571478299, 0.0330441811804068, -0.13316594959032946, -0.13227279687630467, -0.022612388533119355, -0.12220640919122967, -0.0804286608606536, -0.010541954508966693, -0.016493066409258978, -0.011228725535161785, 0.010159550438330755, -0.0017897468608770565, -0.008542977149995804, -0.07588920261752752, -0.3102497293141124, -0.5971364387363562, -0.6024622880496154, -0.532642675738766, -0.13294772334911917, -0.38951746004604215, -0.05003426535343154, 0.1569935261184683, 0.029695766360165875, -0.016441769626707226, -0.15387972471564315, -0.6764314029202978, -0.5274226484099238, -0.36680272494921046, -0.5883720839048779, -0.5890828468775332, -0.5589629867304607, -0.4970552629168655, -0.2979657040061706, -0.19394358409855694, -0.04198835266394229, 0.03580372813524543, -0.0052066148964280785, -0.0020736708314102008, 0.007935284565462646, -0.020990160477423463, -0.02326574444044355, -0.16210223487527742, -0.36199802792254243, -0.36692814496798565, -0.4412462637458191, -0.38005327182239684, -0.17340376979000846, -0.2192421919525441, 0.26274551181071976, 0.1688006028015447, 0.06164930900866242, -0.40210603705244835, -0.4998334002031466, -0.5349462791035965, -0.8425240252551052, -0.7236444951281087, -0.8100720852381905, -0.7021627601234885, -0.6491748644276484, -0.47934688969779327, -0.38698239311242305, -0.16823051547244766, -0.04760145864742616, -0.013294000896533176, -0.00353507574529899, 0.006520293464007942, -0.026216306802058702, -0.013830277861489737, -0.02978930474906876, -0.1518894251685162, -0.19114006481577986, -0.2703583772316394, -0.30466211554168676, -0.26417032873228424, -0.12509203118942266, 0.06813981007724589, -0.06074090699501338, 0.018973512158111463, -0.24141258241608116, 0.11738884758564362, 0.11544562134498036, -0.17289530341592854, -0.3293855659500762, -0.41412135378719145, -0.4800075763542903, -0.4962953497318289, -0.503310325616132, -0.3162035859707946, -0.2933734832296989, -0.09594649285221836, -0.030371664908461646, -0.007321999929799954, -0.00718658551381936, -0.00350037376147007, 0.003990439052852539, -0.02383404716408043, -0.04549285856153043, -0.029852673012836454, 0.1603016432184848, -0.11498225711984777, -0.15047885842992217, 0.04137317530288735, 0.03712750604277263, 0.17082934982281767, -0.26456205277799244, -0.059110683692339, -0.49853054423959187, -0.12559705652625203, -0.2014626468850369, -0.16988585187480093, -0.26305352482918914, -0.22042545939952754, -0.21753655550827522, -0.3772450748057029, -0.35411801265633647, -0.336790042488958, -0.1915934478832329, -0.09495261271817053, -0.03455066671655952, -0.0010802062113060753, -0.006586599511207899, -0.003884676679824924, -0.005397619930778389, 0.00020986804083687416, -0.01610481115822927, 0.014140625116034714, 0.25938326371655845, 0.23902683744708442, 0.06414938799188809, 0.33100108983311144, 0.037745965168366535, 0.1280089990147715, -0.3916944930643754, -0.32541657855808775, -0.3535336129153202, -0.024368568185268176, -0.06039597652303711, 0.09343440154576518, 0.1031776609229558, 0.0027322940743154207, -0.03953323522270454, -0.17953695255050398, -0.21614301479838258, -0.3451525227675882, -0.18488939352648684, -0.15548756390433152, -0.05788523031997533, 0.0038099703647191123, -0.004471929676865558, -0.008095876213423102, -0.004010031510997, -0.033916843356335255, -0.07252284707636883, 0.014818312282742442, 0.23823491814003595, 0.34073615718320516, 0.18948797157975605, -0.05804708323734314, -0.13833678464966725, -0.2182467682769834, -0.12989286059776325, 0.1441569134730482, -0.0711336646415869, -0.2215266729454392, -0.18858530326206507, -0.042937367858272096, 0.08434130367799629, -0.10743957800728429, 0.00898444487433251, -0.13437715731303762, -0.03449505174176467, -0.09773421579606971, -0.07411685150572786, -0.09094538016316231, -0.042702438733940265, 0.01396446918255581, 0.003099986510397629, 0.008683444773278448, 0.0031146326065610414, -0.0016649425652779343, -0.017160856598106962, 0.10040396059254399, 0.29766516669065285, 0.19946289718859334, 0.3384771809488903, 0.21715878192645477, -0.18449638546428374, -0.028445881561095815, -0.090699612928377, -0.4479046819522596, -0.0802674313027286, -0.026121171040734296, -0.027144406900515596, -0.3796399641476868, -0.2758376158613217, 0.057795033164948155, 0.07932654162519806, 0.05445772189431529, 0.10185859582757471, 0.041270221411149485, 0.012231742923052315, -0.0145441680034106, 0.004875688087086858, 0.0025106650039749072, -0.009034208788555034, 0.023455990736951052, 0.00566769944580248, 0.006599417645332888, 0.024749849155979036, 0.15263970713184044, 0.23112123026487447, -0.047038653038082134, -0.05336216048230652, 0.063949616611047, 0.030160557350351773, -0.2852023844089165, -0.06301465574251534, -0.31801832551783416, -0.22807387823687741, -0.0695291584075939, -0.15687203804184546, -0.2930226995923781, 0.001510126333910194, 0.07816631006052735, -0.11301684602411692, 0.04184905094481498, 0.008017871618589701, 0.028898131316065345, -0.013250887812131188, -0.014032308877626496, -0.0008081627278264138, -0.00359648707477995, 0.0030413570327666724, 0.000772419583400968, -0.003916246278712263, 0.0028998248458147755, 0.01760176734878269, -0.008332840619006405, 0.05284149671220812, 0.09854070030327426, 0.02750411962787981, -0.019566231920095004, -0.010649073548271536, -0.07408334237000586, -0.020120345926263668, -0.06638248108557646, -0.04162188766289361, -0.016523701786729062, 0.0020119009175795432, -0.03089698098730294, -0.05510741939137529, -0.04324839019564188, -0.0034994052091839056, 0.027220370023287373, -0.013549304729849823, -0.00307175975761709, 0.0004994460189083895, 0.003808822281034145, -0.008930961947603674, 0.0008560212906948479, 0.00508205610757468, 0.011595285208177764, -0.004375468626210259, 0.012614170643879714, 0.009340617165480312, -0.004724017717263149, 0.00822505343709818, 0.0029995546641306487, -0.0018935356685570418, -0.006302083211934659, -0.01637141540420351, 0.020727863148142726, -0.004531531231432917, -0.02365277954321084, -0.011071042574550891, -0.019315677394270526, -0.009062073542891567, -0.002053558217409205, -0.013190071988525452, -0.0014857647180590726, 0.0030618077870028346, -0.013123034597062372, 0.00679283333206769, -0.002089342098657474, -2.8448806912824335e-05, -0.001169735113239995, -0.007911920601453926, -0.005517141044176758, 0.012609355906072877], [0.0191139624722262, -0.009261905868766733, -0.00755891274223328, 0.012419808009411984, 0.00597733415529528, -0.00440547000845377, -0.002454045049308393, 0.006716016302102142, 0.0019479322867115624, 0.0040793679556653095, 0.005806760775883447, -0.011233418756812726, -0.0008089228106141464, -0.005772476649005212, 0.004321736883059441, -0.020050634060065287, 0.0018190424341098389, -0.0013000065166494297, 0.006414505269640916, -0.00011603364168210084, 0.0193781679789364, 0.013765850205457519, 0.008175681874944154, -0.0033522098689543144, -0.0062365909330572315, 0.015443905172708269, 0.003111246128671863, 0.005108140211984136, -0.012270548823985459, -0.005834385506796681, 0.002346503578216523, 0.002479466238058335, -0.017636468718017696, 0.002429141506743335, 0.02563020876566644, 0.050825776491107345, 0.045474668045417596, 0.015210691388531936, 0.008607386205775397, 0.017176278414035285, 0.015632809464743165, 0.001093121557262792, 0.0055861788680616345, 0.012109696137396125, 0.008942944306292978, 0.004759431290642276, 0.020674450383841404, 0.026756068169998228, 0.0110869589608274, 0.0017841719976863782, 0.00892674601066674, 0.012020454327385022, 0.007412039376983785, -0.014365124727288993, 0.0041749492712190835, 0.0009447102408070913, -0.009917606426843912, -0.006924977761233886, 0.0005127537017129127, -0.005748872815328216, 0.00863012307627228, 0.00752389025737, 0.035334194485374844, 0.06542803446782547, 0.11066883367710857, 0.0798972093667132, 0.05372574924793916, 0.038981166167142534, 0.15927769533482325, 0.3416686828344766, 0.2598942882134669, 0.17941687902427922, 0.20186152722874148, 0.2011880478321397, 0.14297117017367364, 0.1562144991355119, 0.09192015343071688, 0.05375020894362991, 0.014412171314956685, 0.03424713745927826, -0.0024398596591259348, -0.00819146167970634, 0.007030052766354421, 0.0025058667236984846, -0.013858208218623833, 0.012391376845984188, 0.004315993937635559, 0.021880009390139593, 0.02388321890888073, 0.019140921124735758, 0.06815649066204649, 0.030721276559607484, 0.177247619587353, 0.273061691150831, -0.047075763977125436, -0.08819096106491187, 0.20135359331591293, 0.5251099393052479, 0.29533068853410405, 0.01328133548151188, 0.02995591718518729, -0.14136268292688445, -0.04683996162970492, 0.07740468130660602, 0.0919347853491219, 0.019964745046561483, -0.0817630494713557, -0.027492324674195164, 0.012700083939916831, -0.014604964306697553, -0.0061249160913540955, 2.771610677457632e-06, 0.0011385364093527144, -0.006551852004790658, 0.013702353294803309, -0.009116523239165047, 0.02008402097620197, 0.01046814855748482, -0.017221055065615887, 0.03128317365707738, 0.11418712550869631, 0.10201610803161486, 0.19928908078409258, -0.14107188697435347, -0.2122977071491911, 0.09711633465892498, -0.2758868957285839, -0.19000289724635297, -0.17258134848493847, -0.11103218324898728, -0.14623156741609783, -0.0912445477431582, -0.27641531638393435, -0.25609222764241496, -0.2234159799286156, 0.044884788891083674, -0.008448612437899322, -0.11525331540363165, -0.03282918110707964, -0.005068308652737113, -0.005275119620502806, 0.0008845801609602338, 0.02271016779948844, 0.008627997024713839, 0.029899863330247137, -0.08893944727611827, -0.19570786210402946, -0.11673942879788943, -0.02093302224353163, -0.04350216647930033, -0.039155550660768514, -0.34692358824574787, -0.35585471609969715, 0.053653715167770816, -0.42219503701869143, 0.026968069264080883, -0.30237435910270244, -0.25039833554366975, -0.2705070155199366, -0.3914726922943932, -0.14718612077663204, 0.02859398056787135, -0.080768494772961, 0.06860679216756868, 0.015129131369847894, -0.22894552838615856, -0.009731551970529334, -0.009995923228065343, 0.004443771278798182, 0.001183643761883717, -0.0015299954221946865, 0.008619849713138896, 0.030076780929594444, -0.17372263525928405, -0.21727431739369713, -0.2658670247495899, -0.3461939374696193, -0.4765977616358519, -0.16367622104035237, 0.14409775776976722, -0.512113399831716, 0.019741789117006043, -0.3893180750464543, -0.5270986735694371, -0.4521168295315246, -0.444659333335836, -0.03973704325853642, -0.3936759232580896, -0.2120912300304734, -0.3170070243550891, -0.17873280295282398, -0.08166070074378143, -0.069748690549411, -0.2159106748233062, 0.0015751102774331752, 0.011426189569832764, 0.00449987017228231, -0.013769255269699883, -0.03757397499061313, -0.062276623726080144, -0.025143972696116308, -0.2669979531783263, -0.18303981929791777, -0.061185723012201494, -0.3188833562386955, -0.35319257874606647, 0.02549848587609297, -0.02520291475320557, -0.051925645349108956, -0.5536545073224214, -0.13089452606050833, -0.6693227470854646, -0.6689243447014857, -0.43503349348938847, -0.2740847237381349, -0.1856590234164137, -0.25838256979651975, -0.37653181096731525, -0.1752281348716282, -0.20932118118006118, -0.06382125922245224, -0.045565059193722515, -0.019637505139144643, 0.0012578285839806966, 0.0030415056045850304, -0.0028567041708280685, -0.07395063649620073, -0.07901666362196204, -0.09308945358363374, -0.16349109285223326, -0.1343441901099651, -0.14932886435805043, -0.25990435287330066, -0.46593382315118254, 0.06607222419133409, -0.06042329671089534, -0.24031576129985163, -0.40770963597095544, -0.27009505076279766, -0.7169164838634852, -0.5347762963768793, -0.01608023113886879, -0.2502267647329401, -0.27279553240084703, 0.02843294947750069, -0.2663514823931087, -0.28711828087551705, -0.2570022892282314, -0.10850177634345853, -0.020888588379016106, -0.06697928971183524, -0.006758925364893733, -0.0017898256363614226, 0.0004015420930151277, -0.025011245099846653, -0.04633150830307039, 0.013647304177199192, 0.002849946741732942, -0.29293242363766764, 0.007853981606252941, -0.10688116163689941, -0.37311272490946507, -0.21105953009494255, -0.29368582512840974, -0.3029016675381161, -0.04373961444329736, 0.0771862570549545, 0.09887506383331798, 0.15075394839802428, -0.05483355312362866, -0.12767289254759143, -0.32067063459850853, 0.05639636878336472, -0.14463976584258068, -0.23510752618158967, -0.4049643617370788, -0.012204460490226238, -0.09826065519116998, -0.04588894611062784, -0.0024690743797821835, 0.004777149726203116, -0.0051677432953954605, 0.006562955873614138, 0.05645470609907401, 0.108253005041233, 0.13206749596156567, -0.20176414613400093, 0.04985430408929165, 0.10915234582210193, -0.15855557107636573, -0.006641672097845006, -0.20776900366929899, -0.021793183588056823, 0.3560558596955263, 0.6080217792581395, 0.6228081205921158, 0.5631898444966998, 0.14679103210864178, -0.2292264370995332, -0.2547040792721726, -0.026341238734465023, 0.0075650129357552115, -0.2663496445744547, -0.19426898391599515, 0.05881156356726326, 0.04204964035216186, 0.01711307867775786, -0.007483131686737829, 0.0061530064686500276, 0.014516235693880582, 0.0314014191335226, 0.01852543750861904, 0.0825755887344555, 0.15063814422411, -0.051590170051203796, 0.07141372325394589, -0.05748686788321565, -0.2489924251276201, 0.04340521036745924, 0.18371575579000357, -0.10164007332312273, 0.2222634989419012, 0.3223694899713513, 0.21164529923813366, 0.26372908480765533, 0.2103247886661398, 0.09645590062396278, -0.04423167341665303, 0.2408654094969893, 0.36780617845272845, -0.024583046085745807, 0.033557703132224066, 0.22920151510189382, 0.17091488671869362, 0.0010785700068648152, -0.008415485234141599, -0.0024139908684764305, -0.0005052806920976824, -0.006893289264330455, 0.037296730760172765, 0.07096118594443822, 0.16870986792970538, 0.00032532031090650094, 0.0915707029484189, -0.18345996170482334, -0.1115690496729347, -0.2483440832071522, -0.24695454832260014, -0.03529057421282343, 0.23121832941372997, 0.44663528706666733, 0.027442047335189988, 0.09812018962825389, 0.12299426684042092, -0.10268270908130468, -0.2294325316703524, 0.15793822238688288, 0.30989421369396003, 0.23013241931273293, 0.13278024241390043, 0.10348202664502443, 0.09575220862875819, -0.0388547299789587, 0.004153059647540295, 0.0075629569674283215, 0.011814818551481109, 0.019266703474171885, 0.036319810302529044, 0.054031951482308854, -0.06878615086712951, -0.12109954069756004, -0.25252110050132126, -0.19689586271653706, -0.38369000275748266, -0.7178939942899156, -0.4335344639913339, 0.23305934988638274, 0.5195820966999452, 0.14647758983708362, -0.2834725205240294, 0.02632181180593614, 0.21164502391245846, -0.272466485937554, -0.0047661631976271485, 0.2016449576476774, 0.3758834039104943, 0.06461013683365494, 0.2510068809281653, 0.31326708309472945, -0.04656550791160932, -0.04033001800104378, -0.005706833317413261, -0.001767923466611103, -0.015117539783870428, 0.017056197593126078, 0.048021839513426645, -0.019255413649738293, -0.21052220598690938, -0.0697062080189883, -0.308846755103465, -0.07876490485441397, -0.04617667497348225, -0.12038019599572557, 0.2666024674753403, 0.20880515801926086, 0.11583257058924012, 0.04402158027073517, -0.3288784709031019, 0.04566976388664746, -0.37336835616222236, -0.14926026177373974, -0.017064771897610798, 0.18909021393335598, 0.09455589391800202, 0.09909848445250545, 0.4023098561250046, 0.23842203516321195, -0.09682080332266907, 0.008186057483334576, -0.011351210499402334, -0.011675489045795753, 0.006011273694674761, 0.015382124749945911, -0.009177007370953982, -0.0897231539377441, -0.153211686027095, -0.045700528813337395, -0.20474702673257325, -0.002251289631624495, 0.04008586806687277, -0.13620561425499544, 0.08451049700991074, 0.17324493365078267, 0.5639176919496249, 0.05578530026189185, -0.29740274146037543, -0.03667798518996979, -0.3393492447723203, 0.06412865825269518, 0.052896208282170405, 0.18982464010716626, -0.03403593817806204, -0.06535206788586767, 0.1551236564778397, 0.26835867388579526, 0.24588680331243323, 0.02843999864024835, 0.002662043028774071, -0.015165837418765805, -0.014160316269857707, 0.0304207860834572, 0.0226405295509168, -0.0071275677995549565, 0.1384011254374135, -0.022505376576098017, -0.3048064212575176, -0.0022378250343328718, -0.21794455033051577, 0.021741564926234715, 0.3530681414697216, -0.1239377771887473, 0.07616146243514103, 0.2539544078771858, 0.0036376742869360275, 0.13028991454389743, -0.09476447291988815, 0.024997106753697675, -0.07094386620829998, -0.1455613364255829, 0.11772039375205172, -0.008297232528999533, 0.14912931693717812, 0.4158360566826531, 0.4470578064616387, 0.11309978215227966, -0.009429964683551183, 0.0034388870461817623, 0.015472790409130447, 0.02256678085964975, 0.018269624408126708, -0.11397560530595721, 0.05735925188212622, 0.0427739015571787, -0.1962193606454861, -0.18313368615527187, -0.13866057082377717, 0.3964991866626395, 0.3895109664728346, 0.04098931831363145, 0.1758129118392797, 0.19945842779517034, -0.0413687613387637, -0.043104911437195345, 0.06051874742316182, -0.05076299335209232, -0.13417962800266758, 0.061130879962385615, 0.02215137772499729, -0.17887742004363857, 0.00019495786016299806, 0.21019027251332628, 0.2557933626509245, -0.01252189811825369, 0.002172857524486859, 0.0020036641813854254, 0.0011162740098018186, 0.005512827478370761, 0.02987914168666455, -0.10440431324390885, -0.013840871770285753, -0.17661006908938434, -0.0678381033077551, -0.17108563588133746, 0.1565907498970237, 0.1005566492687468, 0.1025761630451513, 0.32557201245693723, 0.38462714044965496, 0.6674907886297701, 0.30413855229269404, -0.0013359131860806095, 0.04246656120446394, 0.01514188584658721, -0.029721080067462293, -0.04121092782621708, -0.13199329673231786, -0.25022053861258503, 0.09279842884838171, 0.13341561295753798, 0.1811082181423008, -0.04704119266340661, 0.002954474421673922, 0.006167387329436077, -0.002274735119763042, 0.04183386477044316, 0.005287071500604922, -0.024739374056423662, -0.12037041400281116, -0.19987990141937886, 0.007436207974946671, 0.038919198860198935, 0.29079520670444203, 0.17845164002716352, 0.5315276225973637, 0.3929879143732285, 0.5469995427573932, 0.5108375777832402, 0.2820189691902331, -0.06407862428995585, -0.05045275316430211, 0.009108177400373018, -0.08632325876239282, -0.09438939385657351, -0.21603040581305236, -0.06124846414000922, 0.034427179359657265, 0.09748582666070192, 0.05351513467834098, 0.014135096974408025, 0.0035276299587511818, -0.004088337663246851, 0.010028911375853605, 0.013809827494038104, 0.026538841990898104, 0.03375808140550691, -0.07432042423571704, -0.16007460613041602, -0.05169185380119776, 0.08619609602799186, 0.0884667700657565, 0.07330122895503362, 0.281603982630576, 0.5034180004159813, 0.31192771768238686, 0.49851924789192537, -0.05616648581856392, 0.06277579159357016, 0.09374239555434863, 0.044812318967629744, -0.24909874900455098, -0.12414471990587134, -0.13866564877417198, -0.07488807814815991, -0.08373842201802711, -0.015829131114798205, -0.07623731550438038, 0.008970626738253927, -0.0010858454381159172, 0.008348962304031836, -6.258049238444332e-05, 0.020315292735217583, 0.030578322880243775, -0.012924875162786334, -0.010736133253869571, -0.059040437585775714, -0.017589703186864963, -0.29557251093396975, -0.04741042196935002, 0.21436303420047195, -0.2474944040657765, 0.01190277335230723, -0.20149693135607435, -0.1877463131481269, -0.15835005308104885, 0.11646524612635337, -0.24322283982680307, 0.043857066810145076, -0.2032363339044779, -0.197012823064179, -0.21346846624361854, -0.27590643567371237, -0.21055288245913426, -0.03911299158344999, -0.03943811948307665, 0.00147200377450231, 0.0050216236443982884, 0.002908398186686348, 0.0011719795500769613, 0.019844344411694772, 0.00810913620906489, -0.05969616913805652, 0.11955492024562349, -0.07713438933812909, -0.39558931104937634, -0.4614757796111025, -0.07535727652242726, -0.3057006560057905, -0.7579195382947999, -0.6893620947644634, -0.20156319995059221, -0.3370202727344084, -0.2086056136368816, 0.03049222392815585, -0.20897116713665845, 0.08038062518546175, -0.1442186974235724, -0.2269760886886937, -0.4443830465564031, -0.37845607130182696, -0.23001925281333424, -0.014185071593500414, -0.009778018984381602, -0.008560010253216782, 0.002630273277557715, 0.0010979121319477285, 0.008996854216839902, 0.0004920321571348203, -0.02337561379963311, -0.1008273592300542, 0.048310921065155506, 0.1173206643884013, -0.05196341665769153, 0.010753353167403435, 0.15421826968598146, -0.19213789656417768, -0.4261199301661946, -0.2718905286718504, -0.44744428662669006, -0.601870062620846, -0.4998723383284878, -0.3632013522041189, -0.33502573677855213, -0.28206850710880127, -0.10188972857031689, 0.04572320878777243, -0.2500721423861042, -0.1587430481721361, -0.05542491213448906, 0.02459638789523405, 0.0037199205594712556, 0.01323682416963323, 0.012584142947810356, 0.010235993166705966, -0.004284968352880248, -0.00031878481929067156, -0.04290871735304494, -0.09049134151789334, -0.03187732053780344, -0.0736902216707062, -0.05258556845310133, -0.00904183225463149, -0.04730779858822294, -0.26073171699976583, -0.5930158352464338, -0.43274020782383643, -0.5019725545859997, -0.4100868471775452, -0.38361660119640895, -0.30355117713980223, -0.044305560100460065, -0.15880748283525775, 0.05959686991984604, 0.006115627468272712, -0.029766464643048426, -0.07697402135706576, -0.03513659341186335, -0.006562377025719238, -0.0022986267242359397, 0.0010948168115233346, -0.005470221672425174, 0.004055791291327178, -0.0061245049796472715, 0.00424667279326766, -0.04115438847744321, -0.02929294189226933, -0.03445462463749817, -0.09109462761797751, -0.1021991482105722, -0.05288680207747293, -0.15328123509268224, -0.38956390385863154, -0.3179107125909491, -0.3260162770434334, -0.5153166966318329, -0.44605416714821355, -0.5097195478838129, -0.22018779022435445, -0.022797740130474465, 0.028359431417095876, 0.049493481841712136, -0.007227318443829996, -0.02007903442385429, -0.013602456821961187, -0.0438853923383596, -0.012034745625892683, 0.010107376285863626, -0.006598538293957663, 0.01000426923350242, 0.0026035682916136517, 0.012908075331893311, -0.011477891183584958, 0.005512168083756644, -0.015751217701425214, -0.01720031242409076, 0.002076984319713159, -0.01339210214416839, -0.06409757095103523, -0.060541777661242295, -0.01570831067416861, 0.01819972745771724, -0.06435699897275253, -0.07092555794515004, -0.0663834797332573, -0.037345666175041474, -0.029439333987150068, 0.04104014545254195, -0.02223353169765974, 0.03183637197252818, 0.052061291485447234, 0.005262446552806682, 0.0023433521828132007, -0.0005311087898249689, 7.807220116519107e-05, -0.022717188078768494, -0.003324647983444702, -0.001224450973293989, -0.010633654824359752, -0.008459011817242616, -0.002700213561546144, 0.0004418375944051842, 0.005116716186978317, -0.0008240912656718724, 0.0017743814196245773, 0.013453172897580844, 0.008757080392312405, 0.003221953596688018, 0.0018605832417995993, -0.004973678799492515, -0.0015496774458613023, -0.007666693835810444, 0.011027427007240326, -0.0024313309917260127, -0.009771589255040146, 0.0046829793934730106, -0.009599369937636304, 0.010634674727275481, 0.0005788089894444592, -0.0006665923980489733, 0.0031564196063412616, 0.00912761824109519, 0.006087962778605277, 0.0010444041792526922, -0.0023883504343218576, 0.012511412765456316], [0.0012467943446093453, 0.00878632132584487, -0.005201348877871858, 0.003054633810046802, -0.011529631407964779, 0.006685445752145234, 0.004221869151219459, 0.0009862117150144718, 0.004627225417888535, 0.004102934655821046, 0.00973513773252492, 0.008737862289080611, 0.000481264364054491, -0.008211521519935167, 0.0014006951645198567, -0.0020523486100544257, 0.004488800287679322, 0.0018800419808845238, 0.004459544719886164, 0.004238442930714617, 0.006793809685700145, -0.0001643393705180057, 0.014278252492356577, 0.007377573136523001, -0.0016023952709231762, 0.02359733908411908, 0.012515624428922999, 0.012869049643854515, 0.022862094113771225, -0.0029342211665706144, -0.00013573516197276308, -0.005036615586439146, -0.0010033438811902877, 0.010085365920270711, -0.002922263895737713, 0.024742726416210607, 0.014742813206717761, 0.017339329345889654, 0.02613858126365174, 0.013832352121237663, 0.007005536911504548, 0.013982740739078407, 0.05212830618671821, 0.03827740902579987, -0.0171720791962896, 0.002704869863504098, 0.01300468193113415, 0.023410847677404156, 0.050744190949909375, 0.03040535781206142, 0.019998326519852543, -0.00036772212233081867, -0.006359592564118956, 0.007117281503783225, -0.0035833189485626033, 0.010632914067386227, 0.0033396504859216835, 0.007394139593279903, -0.005188380049473362, 0.006127895562771256, 0.0012323859914646418, -0.007010183961732401, 0.019202593889837197, 0.02492519261697156, 0.06596074816285886, 0.0517790536848182, 0.09253793315561515, 0.08012213926797124, 0.05764059364476033, 0.07175337686512875, 0.18109141060356795, 0.28418165128399797, 0.29936687410961604, 0.1836582902964025, 0.18841860332840826, 0.1965661115434177, 0.17238505516894795, 0.1467818548803164, 0.09939701809281434, 0.01669086032659718, -0.016563315642030417, 0.0008227897690803169, -0.003507528721934417, 0.010030932529280187, -0.007140235535243102, -0.0038766472295924683, 0.006673712090862663, 0.02385084134556763, -0.010121718468263239, -0.025857041100405178, 0.013914719264369964, -0.0064586083441061206, -0.03313358806938397, -0.01833473370512113, -0.03426795101976614, 0.06756335382089823, 0.09175000734231288, 0.3067825130907701, 0.32228721084104667, 0.25223893167956923, 0.37893075841572926, 0.23497273054969522, 0.5064716372631176, 0.5269239892742428, 0.4137629591325733, 0.36323279979125117, 0.20095988570149156, 0.13320795439671593, 0.04471917475362713, -0.045443343602975, -0.012983415674948309, 0.011429419368112839, -0.00420220255202917, 0.0022505728313367674, -0.0038725502898506606, 0.004450458507504711, 0.00963741895855338, -0.02120799308109423, -0.03808980587714707, -0.10713915699005262, -0.07793862995180936, -0.035928165926233456, 0.026542849973182323, 0.09629120326690876, 0.05575687842769934, 0.15518894517179183, 0.12502225281803228, -0.002446754266053295, 0.14208060479171544, 0.20125980806787458, 0.4034198992017614, 0.4817452732609928, 0.484648428808888, 0.3373012501978108, 0.12806851034339248, 0.11944748153968186, 0.06017747834662604, 0.011415194537059182, 0.004775181718621495, 0.01029391445958655, -0.004950806828993622, 0.004294046925545837, -0.00022820874541142056, -0.021206613416460234, -0.04942966171039407, -0.06581356547977205, -0.07883755255611548, -0.14823715107335358, -0.19011585203598252, -0.12827735381634728, 0.05680907521612761, 0.25342101994982513, 0.3100799874710765, 0.16102987276104339, 0.05351137379307071, 0.18511019460204914, 0.2802315701496817, 0.15864040109882815, -0.026069372704888318, 0.14905258387530454, 0.1551697540763463, 0.26819663105698377, 0.288885268689094, 0.3807227919825877, 0.21488166161365507, 0.036311486911685995, 0.026786178591258408, 0.03105651586054047, -0.004848235660873654, 0.0026854437544132905, 0.011387388842999146, -0.04307441275219244, -0.07227231656112139, -0.09065376217112428, -0.26141168236561774, -0.17388939202922007, -0.18489746662494186, -0.3847222827473497, -0.22554311222757445, 0.07982526082624976, 0.15046821910660396, -0.1369712588878545, -0.14270814627926512, -0.1948954275020529, -0.10350535275948798, -0.2541746429716214, -0.2527005347327853, -0.21897781597515806, -0.14762165525188847, -0.0727204331612752, 0.282139022713653, 0.33344901752881906, 0.2219227561162176, 0.0708108878706021, 0.01229259719545432, 0.012697751735012334, 0.004370699984323415, -0.021682625549904112, -0.0388299323030222, -0.08474154060975862, -0.15610984730793354, -0.18685015230918753, -0.32465651947381635, -0.09232839759753421, -0.11375207862926785, -0.05897897134050896, -0.3069388113518099, -0.2460368027896194, -0.43401392406184597, -0.2276053729118939, -0.20794428128995612, -0.30012081591197726, -0.06875669413135364, -0.29457218114475714, -0.08527063766545054, -0.182885074379873, -0.25950447245798136, -0.0975338899507314, 0.2917936089963821, 0.07691028389017965, 0.030561948264559862, -0.023801725588311874, 0.02005270306097472, 0.004377916925759202, 0.00349748826296504, -0.007148803937195579, -0.03996588513400921, -0.09465129590671986, -0.208607899861263, -0.2036467129717189, -0.1627682579128472, -0.14310351925843404, 0.1828881278160593, 0.2182280456021934, -0.3388948363456929, -0.22690682389316297, -0.24617960165289082, -0.19111202813370437, -0.2398264271024315, -0.08003067928532306, -0.17937084144396093, -0.3281440926703924, -0.46318949737758164, -0.1907553679918834, -0.24900748610632728, -0.1835373151445919, 0.03233550364658249, -0.09708210429030839, -0.00641076653605755, 0.10036309962144106, 0.018841335075727158, -0.007952705643746673, 0.015322977264291937, -0.0020284384457319687, -0.041751710502055145, -0.1692143020600227, -0.24313552606116468, -0.4334738924752944, -0.30043655589406887, -0.052145846191775515, 0.18853347969113207, -0.10292156585871921, -0.28636332746261245, -0.05783688080157944, -0.06549554129208056, -0.36593988820372697, -0.6485731375256317, 0.02320597365662762, -0.12469149190814874, -0.2821142802087861, -0.27861871274904726, -0.08724630234010244, -0.2871624076253381, -0.2773028618363988, 0.051081922979510516, 0.07590810043266927, 0.05366927587786091, 0.025085528399662545, -0.06533910869382596, -0.07814467531234189, 0.0013974604536620497, -0.00619869678916539, -0.08315016438546045, -0.2080100375325954, -0.3572883864123784, -0.46272781332674473, -0.5194903244832884, -0.1659895997116562, 0.23564487439977846, -0.0084617709093817, -0.026894606644487524, -0.04476681843931262, 0.23684233157658643, -0.5565317092917663, -0.42941344141624854, -0.08030729957392393, -0.13256513793887797, -0.04513015536969027, 0.015899826923182453, 0.05840785680454273, -0.3291309461068469, -0.30854658473635366, -0.1075398393767719, 0.03915872936654193, 0.11887332539098032, 0.06892570968529654, -0.07995985827979944, -0.025801000636980084, 0.006535215771971174, 0.002250510858367866, -0.04452429188175463, -0.24446503730643762, -0.45413122971648845, -0.5475858088699784, -0.44525285115436586, 0.019314520192762818, -0.008985230769041397, 0.17335798279797693, 0.36312012400297483, 0.1883390273456393, 0.4292482542067335, -0.008409082969600305, -0.030536191924236303, -0.22946564565736668, 0.1307483697466129, -0.14360447837144033, 0.125227730778594, 0.02911518688387283, -0.29795127710889685, -0.09350618386367973, -0.3317073258588162, -0.10887631362960339, 0.06599735643410444, 0.00851218530124115, -0.04417913971841266, -0.0037432255503830653, -0.003623590343529581, -0.004528561488731827, -0.0314382522427359, -0.3115739164625351, -0.518619806048238, -0.75690887994707, -0.17849823272460313, 0.21563353996067963, 0.28909986796377224, 0.33743650490356675, 0.6841959702508337, 0.47413339223249545, 0.5232918769839661, 0.3234705721330461, 0.31103894104169727, -0.006658401727368184, 0.13155604763062273, -0.02304397543740494, -0.13287735707515985, -0.630394524644397, -0.45369750224683497, -0.08815929034824593, -0.1584666880171101, 0.1074482186792862, -0.07084743325061728, -0.1092708620478982, -0.0668888346261138, 0.016585265933882803, -0.007494215427358327, -0.006993686467618316, -0.053587500951598394, -0.21853093854010044, -0.48024124277847235, -0.6471708272091405, -0.1331560392677252, 0.4526373479637675, 0.47289043529389, 0.5727799660671418, 0.4716815411290217, 0.07584959843077319, 0.209001193539309, 0.44511934849150825, 0.7220376144183676, 0.32084794783341486, 0.18299154191361677, 0.016473592883652587, -0.12784465753253568, -0.32714535348491147, -0.10230595796861496, -0.08653498937883015, 0.005862651655157842, 0.20338294201878435, -0.060930141165297616, -0.1276738361026367, -0.07025206640808139, -0.04595206861603119, -0.007961972510800504, -0.012342121538817094, -0.021847855310646796, -0.0719789958830603, -0.27992532068238973, -0.38568291110100883, -0.04580044375386573, -0.02701448234608119, 0.15583857702804288, 0.36516088360809357, 0.1508347335553073, -0.08596368407240612, -0.14033968062582738, 0.22837038766128598, 0.4437514214526042, 0.3580704933266578, 0.2280820121130347, -0.020602715771000733, -0.4005984807221524, -0.3166275661645965, -0.0030328462099544645, -0.016385593270409726, 0.08576534867149992, -0.0810885241852472, -0.17845711666279745, -0.06009112798379629, -0.14836814560510675, -0.002272894212684453, 0.002669899500487943, -0.0008089066993926152, -0.004069253507398315, -0.08220425029972679, -0.10857072384117872, -0.30090277857955605, 0.018931200050146466, 0.09105636137768504, -0.019307838274270087, 0.12256628247056656, -0.15956503112198028, -0.2352732671429637, -0.0701340265688536, 0.39318659308233034, 0.2842720164257385, -0.14770604664644024, 0.1316955186538642, -0.031147779888818294, -0.29333545906467207, -0.12355434601228392, 0.04049742859504675, 0.09476795134069238, 0.12085306612665575, -0.07532933880881089, -0.13091022218556395, 0.048761424856466264, -0.10870528390267035, -0.014522985898343464, -0.0045536338637504154, 2.924048369645244e-05, -0.006732954222761122, -0.086886950696972, -0.08461427906182568, -0.16377092982758068, -0.0458710840607051, -0.010412835445993153, -0.28306362473624425, -0.13209434983190488, -0.002660957476892057, 0.08266758606302382, 0.04236988135002476, 0.2889772684574558, 0.22851699831232358, 0.08263947118563104, 0.2558321281445703, -0.15501171077520215, -0.08221921623186229, -0.13116290811641848, -0.36592714239679597, -0.0166815163514591, 0.03121909733200615, 0.10658103721658052, 0.12222529637937932, 0.04688847148746404, -0.14645441478399107, -0.004100900087831902, -0.009205484897024644, -0.009075558896872112, -0.018542001173995355, -0.07349093813946225, -0.1557983666894407, -0.13890363879198192, -0.14699008974114777, -0.38615939773198593, -0.14592543963570007, -0.2775048246589015, 0.08048137732989005, 0.07573421549102426, -0.06614767368143958, -0.028247584474144542, 0.16373204050629875, 0.20187565430580331, 0.014818694315224373, -0.19232724912894628, -0.08427552895096688, 0.09703429343149315, -0.11506498278051981, -0.15265292447132592, 0.13415837837496067, -0.03562832031874528, -0.11584222023253125, -0.14475429644988808, -0.12477362782298258, -0.02776419131304405, 0.010386349254494488, 0.004245024514489774, -0.05296301024880795, -0.012576413636776865, -0.17059643830058893, -0.30080589002534885, -0.27600512030763125, -0.32703560167681656, -0.28908688160398216, 0.03178475465768628, -0.06640531256142859, -0.08935609157744408, 0.08647540161957251, 0.12621678976518713, 0.04880298242053502, -0.04243039213271169, 0.14609601509771686, 0.048993454903097165, -0.27785638946172375, -0.0567902059438951, -0.0507768960016342, -0.2940017423787924, -0.15097262179411633, 0.04044739791440537, -0.031721011664927794, -0.017935660339464796, -0.044282889065457, -0.0016140569570664799, 0.00038460135107799354, -0.0026355057521860507, -0.0014729443293804876, -0.046350693348568714, -0.10847054583829246, -0.2414377503279991, -0.15545325030901677, -0.007149701337262128, 0.27527844172605, 0.3503820517701131, 0.21639416159919977, 0.232637200134534, -0.21882435379425708, -0.03452837583214981, -0.3025814270044131, 0.2002195612879793, 0.2849833148895606, -0.0956869679842299, -0.1686131165658034, -0.0806180863899778, -0.17206002206345333, -0.1952373142122015, -0.008980652291512146, 0.08858420476181847, -0.003968094980132478, -0.034725162693848115, -0.009539996074246292, -0.006634829173368377, 0.009468514324692678, -0.008531299117484162, 0.01892423674649804, -0.09770980156892474, -0.021439880520292772, -0.028735692310943983, 0.1535522318162795, -0.005784277330489251, -0.08023294696402741, 0.0007258041911035156, -0.08598989472969504, 0.13138575318604048, 0.04195941979130911, 0.24101948020671626, 0.35907385432928396, 0.30128867753836425, 0.06544582866945482, -0.07200720977894531, 0.018373842052424965, -0.19300883057720075, -0.2598770930938977, -0.08551534071053725, 0.08126997403987178, 0.0005472805747551538, 0.0021847200568980985, -0.018256742664514325, 0.001087111809573457, -0.008873124310350054, -0.02069759386050924, 0.005766355601565973, 0.0026393331264166395, -0.02310467931248231, -0.034938912129779454, 0.03398478877353509, 0.007302484245479959, 0.19347833523794536, -0.015862352054380583, 0.0704449594688583, 0.0338719217540067, 0.1910383912556613, -0.027901886330013878, 0.41881246624963425, 0.4123386221728163, 0.3103154322684642, -0.08953603345201377, 0.27725589305289905, 0.3459517090649241, -0.0993206350305893, -0.22459138250886637, -0.05992521668896122, 0.07326089603827049, -0.07042281257257452, 0.09124242671559037, 0.022376346134126375, 0.0005016873454343035, -8.783773703937172e-05, 0.008590598657615477, -0.0033261825820923587, -0.004009808604569139, 0.015555689412000303, 0.0011496641168852267, 0.09628009335730879, -0.16665144729241665, -0.004457486555177009, 0.21940753016031553, 0.04095693668480658, 0.06468098956806068, 0.21306851662786302, -0.01015922334886516, 0.3873458081954666, 0.1814804519660476, -0.025208272432173592, -0.16941490139217522, 0.1386203194951491, 0.03704668289650117, -0.17164940109111573, -0.11316035779700345, -0.05581678815170224, -0.1756283156571983, -0.1274900549405541, -0.01748878785376777, 0.004796646555388575, -0.004684594299950274, 0.005280797816117521, -0.00800647241387092, 0.004956742684443044, -0.00857416722084946, -0.05165721340942527, -0.10362473260011254, -0.005327490215230514, -0.06580967532588042, 0.09179921477167606, 0.38876382489698275, 0.2637338520486756, 0.003765144212704309, -0.2929061205876873, 0.017264542297051103, 0.09856246136329432, -0.06488831251585399, -0.06656911640073886, 0.007487808058101195, 0.03761350294621381, 0.03132958645957565, 0.08549110465684374, -0.09209904291079134, -0.30253244334982105, -0.217603049316349, -0.06649828474448809, -0.08880801313629036, -0.022309856364229105, 0.01175313119573225, -0.0026783075379363526, -0.002860395241996883, -0.006029050703515394, -0.005545154178580402, -0.03763015277528968, -0.0797922805573921, -0.09410338857916094, -0.1392943685249298, 0.20837088806134588, 0.5419737938342818, 0.6886851405038804, 0.4165610942347271, 0.2224351559486728, 0.09550515573192693, -0.15085856259058109, -0.2868985500028193, -0.05827830648009357, -0.019504959879485143, -0.17444503298171155, -0.14580005479721872, -0.07458791587967102, 0.011121904141999376, -0.08348095449013256, -0.011793706375059672, 0.032631708276300644, -0.008096911523861508, -0.007024686355049968, 0.0028924199241019007, -0.015875938404376646, -0.0009028247518773591, 0.008982710973706044, 6.331502814389608e-06, 0.0018434777151096094, -0.032774377710961894, -0.06567395749844541, -0.0214780458027502, 0.07056016994962315, 0.1330318763348958, 0.24432668756084044, -0.006828633455862917, -0.13252956298461002, -0.20397230894420457, -0.030347741572134393, -0.18326580911814155, -0.4472595587287679, -0.22979142898960483, -0.07259265162481607, -0.0386650802997304, -0.044886881912070346, 0.0613030163149099, -0.023702132269896252, 0.008666270163831319, 0.018596413312402735, -0.000829685856814774, -0.0017952975735643062, 0.0026394663464817994, 0.0018612624738001404, -0.0010002718551636205, -0.012346799636117137, -0.0017046559017491409, 0.012165760730763663, 0.02939922650734633, -0.005456032273505261, -0.01990804231143461, -0.027425546729788006, -0.04786213605238129, -0.01370942159335999, -0.07238925134936568, -0.14289435424517075, -0.1883413941304606, -0.10103104650525246, -0.028052703571223064, -0.0358869274548957, -0.059870412600925633, -0.03929820174531652, -0.009779698763318247, -0.017668101889597537, -0.006563569961576452, -0.1134405830753457, -0.05570854918434261, -0.0038609706412288365, 0.004214674791378729, -0.002456706383129397, 0.002815472212492692, 0.009914516073159884, 0.004783820207766391, 0.00014095151369550847, -0.002574223189923691, 0.007060634844374395, 0.008214207328403288, 0.00017337985739855196, -0.0027396219007753547, -0.011144967860153983, -0.01425051495858131, -0.00290587523971558, -0.054678327968071344, -0.011432556805932179, -0.0007973746926709211, -0.017211760138761946, 0.0038140347998071047, 0.05701389345662122, 0.012918447981860835, 0.004298903800406837, 0.04451838450119002, -0.006202848820995752, -0.0034979134523220397, -0.06117605024284953, -0.03701111211193525, -0.007085837612484416, -0.0008443661235247129, 0.007997980851744885, 0.012888239518300182, -0.004306967911200164], [0.0023696833084751287, -0.0032872667554576305, -0.008998677469352607, 0.0027841084902522316, 0.007662628934063735, 0.0073738479527873, 0.00626758494162532, 0.0014883972264418141, -0.015027424566978354, 0.007678183931065759, 0.003921530767527832, -0.004596105298257321, -0.01045159143314668, 0.01917493097824527, -0.003455422350199568, -0.002198028760096016, 0.0024849606091041335, 0.001962888834487865, 0.0005700805464512828, -0.010519678286345237, 0.0018211740854970084, -0.0012982875586048388, 0.0013782897490914358, 0.013430059277864333, 0.013885752124669165, -0.01279634846681955, -0.00143041941342904, -0.007883779233396882, -0.005159801049078892, 0.0017702794106393912, -0.019220927533022035, -0.007982813982828296, 0.0010902260283406641, 0.0009233148320558168, -0.0045527738960042564, -0.0008053265539532932, -0.0012923765657693663, 0.01026507924225321, 0.013193231630798405, 0.04332820617096485, 0.07669457065644579, 0.01821328926783465, -0.009707053275506632, -0.013153203710956473, 0.05757238217699069, 0.0328860038003705, 0.014282795728882232, 0.010684413502338265, 0.01290706084347904, 0.022511725503053814, 0.0048415757280339256, 0.007758315525701075, -0.001190423003251863, -0.01505627521644229, -0.0019114197016859324, -0.003955211632942866, -0.012606518918053321, 0.00910236509815536, 0.009781889937563432, 0.007913946477848734, 0.0013244545174597505, 0.008546887696291763, 0.003646488767920704, 0.005468133895827968, -0.022938842307976357, -0.07731654726848883, -0.04784784257238426, -0.019283979337498203, -0.025434392829262183, -0.16617770165076076, -0.20200915046912413, -0.21392758212776078, -0.04866857036110621, 0.09313484976016187, 0.11599718371058015, 0.035234679337036744, 0.019528799523612837, 0.010671479797374067, 0.021017825852317977, 0.012469224235448967, -0.0015304477378766483, 0.0010105821966962644, -0.01351040535774181, -0.010742172542653654, -0.007110741943096396, -0.007252501539630379, 0.012733864112272552, 0.02744372170821214, -0.0006663274846591002, -0.02305831418763773, -0.04516394367746163, -0.08473490129389875, 0.07980222572486055, 0.06253089470845721, 0.15032172665963392, 0.15844261658161374, 0.12365681867624907, 0.21468470555732364, 0.3456906872233511, 0.18139077064557685, 0.05082698637963988, 0.14513944744975274, 0.1403767167534851, 0.20261797773026208, 0.2083578498797211, 0.015304959192005236, -0.005350887825031447, -0.008626082963533866, -0.02377954763055415, -0.014331817023687273, 0.0066846996741357695, -0.003039759154911755, 0.0010065945507382835, -0.00417743467827283, -0.002195354642403869, 0.0018216179777917124, 0.0011079144941122142, -0.019137239645345017, -0.07177392370425656, -0.004299206672988574, 0.08786645060458027, 0.2292843270963806, 0.21994244265560817, 0.3393925099447144, 0.047370148634371, -0.12324024936903877, -0.1260049165581374, 0.1687231687413199, 0.2708611813089497, 0.5034190777838218, 0.35228451542152883, 0.11960799815114755, 0.033535775734312157, 0.033549869911461416, -0.06737246398429704, -0.042377744473244966, 0.03240242481792872, 0.025221225456438977, 0.021736684348781697, 0.0028016933650756542, -0.010901717791945952, 0.0024944728273429756, 0.01381524840651614, 0.01379152883041984, -0.013755575779099994, -0.12121482325512259, -0.14912565730818997, -0.03335743950522942, -0.14974174061893575, -0.2727232170530523, -0.20338015203386195, 0.1738270606383239, 0.07549993033872517, 0.004469942589523211, 0.03986137089599696, -0.0759749961139855, 0.2011862438668973, 0.19174273813847528, 0.327544959206427, -0.010716243814434723, 0.06521949210566655, 0.23268753243578427, 0.05045288667181362, -0.16705757939132196, -0.20765568289845884, -0.128031667083501, 0.030879168822221168, 0.0014483658582185891, 0.0023675593143407197, -0.008247154540720227, -0.007615233532755048, 0.05319340619499287, -0.00956500123290222, 0.04834041304716628, -0.07818326331262745, -0.16792941207026413, -0.1504766498176083, 0.030011418199984707, 0.12130258886088373, 0.16681325977301842, 0.041453554730235334, 0.21434513479422826, 0.04955480267876962, -0.3766499330329095, -0.05733774043777822, 0.15876600751533898, 0.20106519891785155, 0.21297223631385337, 0.007248979906748189, 0.31344873839149556, 0.41705929068482717, 0.11288878763080852, 0.02902336195960278, -0.07325814731741369, 0.08300389845331259, -0.0004189048761483706, -0.005038147850374053, 0.005928335168695755, -0.005189197554363773, -0.011370695679801823, 0.04319746433128349, -0.05443141171202312, -0.21557133592108574, -0.02685824126240417, 0.20096634435407593, 0.027862491640928397, 0.1080193240510085, 0.1875014326212977, 0.0574151289601062, -0.007466081503564044, -0.007800035220910759, -0.050135831875563565, -0.005642068701826017, 0.06495505503694257, 0.22795070380715665, -0.08601186920698288, -0.15186832662107508, -0.07868481509788151, 0.21083232058211407, 0.19850140456180926, 0.17589288613685122, 0.045384401437190094, 0.004273123212346739, 0.005759560383721018, -0.0021273134839553624, 0.013696906358303184, -0.01177811861561849, -0.07062404957570598, -0.0011188599224453766, -0.19647181146515763, -0.06935706592311881, 0.044864339702175314, 0.07702684029210476, 0.1846505230612958, 0.21960709680299736, 0.025282260160123804, 0.10849045786511342, 0.1668478429815382, 0.06195362448114334, 0.08038400196920462, 0.23725177775188394, 0.06092729324127554, 0.07996252821740678, 0.0047835330563132696, -0.02175393590255892, -0.19568038461512335, 0.16144938622539504, 0.1835258348435696, 0.2909882188823241, 0.16746668638743673, 0.03580709036337219, 0.02013919594718062, -0.0055257027870183415, -0.0017513103955980771, -0.01490400198248669, -0.05552206585655825, 0.0027540517005798597, -0.15638958819123927, 0.010402135938876017, 0.31286666160676657, -0.08849049569564298, -0.05100644570207871, 0.0516789769834403, 0.2690531448296448, 0.19860753121410527, 0.13856109642460993, -0.05869423364641547, -0.1633791910394812, 0.3859459610123383, -0.10575803812847881, 0.09594287121999995, -0.16203253668498976, -0.013515777543909372, -0.1164115655160977, -0.09416060739550136, 0.16902624556040105, 0.34489454624675914, 0.23021284537549994, 0.03569339555763304, 0.016494545292486805, 0.0176427011082502, -0.011051549361053934, 0.0036366530448257877, 0.12524903584613978, 0.045764083496194354, -0.015733912376777265, 0.06864636724972151, -0.05356552051192852, 0.07278521747833099, 0.19039526125054476, 0.21433765569097302, -0.07231284133360041, 0.04135895386201444, -0.06035947903249267, 0.4581278271200375, 0.48150514364976243, 0.33632626355930223, -0.2756112488513333, -0.009819463605133236, -0.1871413320967366, -0.00136470004079727, 0.12989871294908584, 0.03283371989161146, 0.35369505953987335, 0.47957413996927184, 0.21546181636163242, 0.10586947916594973, 0.021326397659402824, 0.009313533154999087, 0.00379325104038863, 0.011727408107478235, 0.1381734377210094, 0.04108681430232548, -0.1758279096462264, -0.04580178453291599, -0.20176160736756682, 0.03279119910179134, -0.05435903837212923, -0.027335397721446362, 0.07098571253133062, -0.002433547121804047, -0.1572759828915667, -0.11423593007190004, 0.08115923350166354, 0.09276298431497022, 0.01055341021489151, -0.01671595412198925, -0.14219155261379285, -0.3308439302127343, -0.3146870542997068, -0.12799143242770405, 0.0600699225956226, 0.5347667200340324, 0.23672079746500338, 0.05411647442690776, -0.005085453192504465, -0.0037452388752005454, 0.011288747659011578, -0.022845552056065102, 0.07185374483162574, -0.11830695796086141, -0.19473610427936067, 0.12403656274905123, 0.058357066183870376, -0.10648765936212941, 0.33389402658771533, 0.10806370418371719, -0.10197279061808133, 0.05126414723200795, 0.23706792064132556, 0.43179554185899954, 0.013609482507022312, -0.00917094853790146, -0.008240169119199376, -0.18217559487044557, -0.3825325442054061, -0.13580734186588947, -0.07980448857481043, -0.04140706548221056, 0.010843093833322383, 0.33651727434907497, 0.1743149622102684, -0.004907575068374911, -0.03706493235931037, 0.0028392481212470796, 0.010823449202388518, -0.014764366167082385, 0.14145018399703174, -0.2507374005137581, -0.24340852146645525, 0.020526830395214683, -0.23534765740916366, -0.014704964366065144, 0.22184596554689032, -0.021348299967422726, 0.08031007901343094, 0.28893502781776687, 0.5070974469317323, 0.3801516877683333, -0.11306487659205712, -0.19292887295325034, -0.35617259177077193, -0.16497398114100953, -0.4333981120133241, -0.1379178338185045, -0.1807908994646732, -0.025096058397934676, 0.21342193209658464, 0.3707631633935646, 0.13906223911201254, 0.007338072637847229, -0.010096151249863615, 0.019595128227610586, -0.006270904968808182, -0.0038124076297831456, 0.055048306764185415, -0.09331288736244601, 0.008311876178578375, 0.032526223103662336, -0.3537925306041434, -0.2072993690993272, 0.13796606477257248, -0.18448875133640824, 0.039773645598518044, 0.5090750056340209, 0.823866864835077, -0.04277192645379343, -0.4249691724240338, -0.37714092744296385, -0.23893264357911378, -0.33802697435382456, -0.45446470449043563, -0.1834205856695795, -0.1290184032470115, -0.03481122925617449, 0.21055789393644636, 0.40545755909275577, 0.010577851968888177, 0.013482022340679358, 0.005485429125684515, 0.004261660841227141, 0.024470129810829872, 0.00038040369812388674, 0.016457120021507076, 0.027207986954345034, 0.2739272442327851, 0.004774313162064764, 0.32270147912799485, 0.07112076441562461, -0.050429739249849795, -0.24383968688322086, 0.09170799180122606, 0.8327132033459833, 0.3955558800698724, -0.28699402673819097, -0.5021838652578694, -0.39252480914767657, -0.10624745536878434, 0.14697078451579484, -0.2972265213020515, -0.22078345030058016, -0.07478147730864552, -0.1734075391095674, 0.38031413259491254, 0.33229456076870145, 0.04218289190958524, -0.000876422556145391, 0.008459653115959346, 0.0005769254423276337, 0.012861843570493844, 0.007173235091241481, 0.10761998639379583, -0.12502915559080624, 0.2360328224420658, -0.05900629517609457, -0.1400041449919022, 0.14898776079006174, -0.07341670209756004, -0.017562523782689, 0.21660530970872047, 0.8013563636830462, 0.08398708642038022, -0.46706398081431155, -0.2370822406589919, -0.46584234034676386, -0.24665624422555946, -0.0007770862504211016, -0.0469631453159867, -0.21073953654194888, -0.1618055526533476, -0.05632481720409034, 0.21743269448306768, 0.21534623164502384, 0.04856226388473317, 0.03731715869950996, 0.0010114325096530763, 0.006312097685096672, 0.0015916811292435472, 0.014700677977517703, 0.16248904827205396, -0.06520547544104631, 0.241257761254784, -0.07142154909832801, -0.08535790375415721, -0.07943247732991625, 0.08934341585283764, 0.3567977806734903, 0.6096902961798386, 0.6069299291397247, -0.21643144903402003, -0.9524812124826081, -0.518586635197245, -0.09764017899876451, -0.13861290425526712, -0.32300471238224293, 0.13782649117509513, 0.08549371996994727, -0.006376772992862936, -0.10966766869836758, 0.027541585900236185, 0.10987837639859217, 0.05907416431039325, 0.03973356184785162, 0.03825129754326563, 0.009508359058300638, -0.0012368224095502941, 0.004656807045071862, 0.16250852559800485, -0.03724846046526677, 0.060984601647045035, -0.03182372142703194, -0.0037911855064926615, 0.20298058374901992, 0.4156314256446884, 0.7985939874154085, 0.5370763720219025, 0.11795156992402098, -0.45851676032378086, -0.8939183093672923, -0.36855144618792707, -0.1290811783491974, -0.21140399003507654, -0.2511042285822496, -0.25818544965929335, -0.20054557920344018, -0.08733893291656539, 0.039625911725468144, -0.16449425958388977, 0.019334413380697062, -0.010541469162254692, -0.011946587707387291, -0.021386905520678987, -0.0035882952493495428, 0.00282435344353651, 0.00813331090250123, 0.10081852441931771, -0.040336976103140985, 0.16680421761547706, -0.09761245878325608, 0.08382525364753668, 0.4141952966809442, 0.6057762402789085, 0.69934734415769, 0.32297790141509525, 0.19110425537348935, -0.7279867702868652, -0.9524595419479821, -0.36017124530524713, -0.401799094559213, 0.015301120723127767, 0.1700447955044481, -0.2357540368554259, 0.16075970048811156, 0.034314027339849625, 0.23171628258908136, -0.07343264759698015, -0.051786098586195324, 0.007914679256689877, -0.023014172144209838, 0.0020558936031012305, 0.008681365318665864, 0.007375516156602076, -0.03321418161267197, 0.09940738066403437, 0.10483388607226354, 0.19217199121880338, 0.06735545729552021, 0.3680327346430923, 0.18110004680645161, 0.43481381682974624, 0.5583127440613387, 0.47551106854132497, 0.31685766350741695, -0.533649840951263, -0.6131630558575275, -0.5081226328687404, -0.4815105478122252, -0.4264967878807016, -0.25158803813979763, -0.07220549672551753, 0.06082979052932649, -0.08640279032343146, 0.11892693823506864, 0.06745494033236767, -0.20812981953799753, -0.05806701748373323, 0.0028481846154560678, 0.002444761934880255, -0.0032566563464739603, 0.006929815232687581, -0.054132427370200784, 0.061444317710120114, -0.00794257794146709, 0.03984422565740373, 0.12975277003721516, 0.426787433575142, 0.08457042432124863, 0.3350218528408688, 0.3499559769611295, 0.37018890814609523, 0.30222396023271747, -0.14291283374187716, -0.4329013612367042, -0.3000323516164557, -0.7491861630671275, -0.45254125614384166, -0.06893910667027231, -0.1721786797492066, -0.19687760290571224, -0.20971258460160014, 0.012586075737543893, -0.07737550208911931, -0.2975022706915788, -0.08603641640575936, -5.843957050846823e-06, 0.0022189134824047332, 0.0030430573585440764, 0.00435123556106955, -0.015902155393411024, 0.08351094364705343, -0.026718622734452142, 0.08313047667665731, 0.1845146447981813, 0.26132887523390735, 0.12782124626287883, 0.2799204896512434, 0.12274133621155488, 0.36171381151757265, 0.44411415169327945, 0.6721542747069295, 0.21553178509881005, -0.06462505426645081, -0.06353089858784569, -0.13213790019641777, -0.006409494438808358, -0.13301573911327172, -0.38043015257837276, -0.21337705633492662, 0.05160273288007123, -0.0834111948658596, -0.2057047359902293, -0.0650298685549696, 0.005325199225324436, 0.007017457299271037, 0.008325605528664464, 0.003948839636678931, 0.0212401325016554, 0.08883041819170384, 0.043557543430345215, 0.21935724979387974, 0.30876155927595467, 0.2858167069186721, 0.43250758394846534, 0.32159020929837784, 0.05031320428331314, 0.22277903288914466, 0.05194057652297343, 0.09444033494379414, 0.23213194931764902, 0.16002192020419526, 0.18236022141110844, -0.17619592270014153, -0.136604939461709, -0.2385714727482923, -0.1394999980056908, -0.21792033459324134, -0.0014373918664086676, -0.13650620084856416, -0.06514865874818143, -0.04955570812954762, 0.001254935887510662, -0.007004183564927111, 0.0031029100314239133, -0.001754948597106925, 0.028260377444018644, 0.059084432145975314, 0.016823890100624014, 0.03282356766105386, 0.12046184045016833, 0.2147044396888063, -0.13943493624698033, -0.11628647467794205, 0.21606900252817174, 0.23840255122591467, 0.4897764914583855, 0.10549198586072903, 0.46977720198294315, 0.19462527679415906, 0.17995239854244738, -0.05943748940914242, -0.0649656712348091, -0.10659504343116376, -0.05913160053837764, -0.10428731527827326, -0.13032423398674825, -0.12008803227098365, -0.0015557707959704492, -0.004981748134276891, 0.01519928732094354, -0.0037143166161026195, -0.01811813975332278, 0.002719747903400635, 0.00013284217689951434, -0.019515205596460753, 0.016693058064340415, -0.054433114119062535, -0.06459254912738467, 0.026914316132482397, -0.11392843088375486, -0.1632044989237257, 0.021361182503099475, 0.03835141835766037, -0.0121239732014144, 0.21435728022666672, -0.15121372023502058, -0.03654946187642779, 0.16686841939134495, 0.2600537186230362, 0.11562730269772369, 0.021773142201373306, -0.05456364974940998, -0.11678765475305937, -0.009687851543394722, 0.04136726382203744, 0.06120974728298358, 0.007187485829979534, -0.0009250849879841485, -0.011946901220193396, 0.0017714498226258015, -0.0035760407949316404, 0.00259152293453329, -0.00011240855806373109, -0.0032335194711634293, -0.0678447188045091, -0.07722807382080274, -0.054718271350167436, -0.11170590159232476, -0.1503431165565933, -0.019927108647301826, 0.13791878394854942, 0.017417438155652595, -0.06354222711302754, -0.22614578972741353, -0.08918830430548161, 0.005385780376427041, -0.011169697979764286, -0.006420807427966427, 0.009279688904728847, -0.007878324201221054, -0.08804567539647838, -0.06261831902852058, -0.018466741887758566, -0.0020957796277480604, 0.012213067469614447, -0.0015610087161927195, 0.006306973989411691, 0.010383427940947473, -0.005462845431898054, 0.0018816120352732303, 0.0008654806755799276, -0.0072703098069287556, -0.0052940865984717886, 0.003085122147842978, -0.01777746924049084, -0.009311945554413307, 0.00017833466659542536, -0.026625942414641477, -0.03333150158398805, -0.014051094347726634, -0.01987056736802435, -0.025420653239704858, -0.02488482489978921, -0.0065847472630829115, -0.00654713624665117, -0.06106293195077336, -0.0540322049668358, -0.012118253709028016, -0.07139866346469043, -0.07672194033451733, 0.0017839059762413702, 0.005116825917993524, -0.003014205909275747, 0.0020006510087736034, 0.006312091241339438], [-0.001936277881792178, 0.005628024762475416, -0.0062213107129981985, 0.028761491794294897, 0.0017883807367790078, -0.010148175576905066, -0.005598428129585593, -0.0008181933041565069, 0.0074519971646235675, 0.010685256023855099, -0.009779378367369406, -0.0006783303926958697, -0.005256246252128057, -0.004767714414786313, 0.0039013705008508932, -0.008490255428221466, -0.005173961588049579, -0.0018549553521433708, -0.0065667508212570065, -0.009653838928229462, -0.0019504294414511695, -0.007168231933177763, -0.000206707221180898, 0.0022313332969305607, 0.0005936873609024501, -0.002532458485979893, 0.010348520422175666, 0.0020879736078309695, 0.0010084679992121673, -0.007432083186711412, -0.020044304211605496, 0.016042407161231658, 0.004244201155629127, 0.0030662387480208937, -0.02111350063886204, -0.024010985425723427, 0.005557366205967725, -0.013190302399182417, -0.001482197537016258, -0.008254809993441047, -0.010099757748431578, -0.0009635291657379778, -0.02463223587115997, -0.03686749346812081, -0.02274851575484264, -0.00038799493958893477, -0.003874923080329049, -0.008218862290928395, -0.003665971365582054, -0.0026790330741861047, -0.01809794477234355, -0.01276035344173153, 0.009277808768304583, -0.0019173775661501249, 0.0010585502761334352, -0.0035354745092239523, 0.004494066998765604, 0.005950686060934335, -0.0009878816506905838, -0.006188482131955626, -0.0010679166744675332, 0.003660941960057031, -0.008452221575298244, -0.030120757294200114, -0.03046761312746251, -0.05617811160173721, -0.04359535631742105, -0.06371538331683639, -0.10811487337574592, -0.13050267191593387, -0.04341641923116679, -0.0556474321130124, -0.1233491965322647, -0.14386142715482475, -0.09370182744086643, -0.041195804738372276, -0.015089651311292484, -0.01513298776764177, -0.027213648612039808, -0.011552689374272977, -0.01362841680831759, -0.003473099692639625, -0.004440047970117053, 0.0033325534394912644, -0.012211614961171064, -0.011105785209671435, -0.0004954154128417304, -0.00392595337520831, 0.0013921102919857871, -0.029118249834409502, -0.08571367922667739, -0.05683304610553554, -0.07886136114429805, -0.13000102355822143, 0.038236157475453544, 0.0066239069996539, -0.206236204902244, -0.27003961593899495, -0.17352511004438717, -0.21089816830475544, -0.29163198174279464, -0.29960844605190146, -0.39730472246574977, -0.17793041993346878, -0.05737459921463364, 0.02758562130898471, 0.0429783952111278, -0.009589229210535255, -0.040656544719128114, 0.03980707299714839, 0.008321299262615331, 0.008173929212980971, 0.002207482577587674, 0.006926914491930051, -0.00011703431967848485, -0.008630006694875585, -0.01609974841956638, -0.03621372723831018, -0.13888118753796105, -0.21110540408345624, -0.24462213100775201, -0.1386812754287125, -0.1963298855441646, -0.03204908779077079, 0.06789641254369909, 0.052325159426528066, -0.0074760832396666265, -0.19345819651449178, -0.39340690823957275, 0.008447917088953951, -0.02847583627291823, -0.1549910911005615, -0.008240074261495315, 0.09270889879355997, 0.12157465575200721, 0.09121940953031257, 0.062025992827444705, 0.018814831149184596, 0.003121438273249364, -0.00212000881067728, -0.01114303521089292, 0.00030619435914017103, -0.006449749667831874, -0.019615842235504697, -0.002182838409021154, 0.08547767388451584, 0.030403538804213884, -0.1937900851276506, -0.2922367524788638, -0.07240295626550941, -0.103160740805976, 0.09683674090436109, 0.09299890690245473, -0.11967219387278631, -0.14151898677759434, -0.01838895449940853, -0.4473838876704766, -0.44989757743185865, -0.46655252097496663, -0.4024398508633348, -0.3797229934464139, -0.35284045867323194, -0.140015374420291, -0.1592678064907487, -0.06972367210374394, 0.06785006582062282, -0.0017421495588594374, 0.0068178696715665435, 0.01251112581547355, -0.011271128425777259, 0.0015154207969610468, -0.011992721488548734, -0.035768345076428, 0.2272912342818378, 0.007710130482330737, -0.16486152655007213, -0.21131610333304104, -0.22287740422906077, -0.08510568481669337, 0.16181581632436298, 0.18568468255111248, 0.12246660672924829, -0.3764393560079813, -0.6166303716062758, -0.09625724609175416, -0.1653704746082778, -0.17329977207654265, -0.2133450370011523, -0.37871088832111205, -0.24198838624298663, 0.18262934530861616, 0.06882437509109166, -0.0120427044504234, -0.017581900559347306, 0.04296335659783492, -0.006259471031284771, -0.00728928227387615, -0.037210256967958245, 0.009409550102191794, 0.07363869231951231, -0.08697383801497666, 0.04681000341909209, -0.04075853479243815, -0.227382839313558, -0.18149900068321428, -0.02080278761778974, 0.15872757015605898, 0.28074777582552696, 0.47007330927027713, 0.3627940317772915, -0.1049719196819036, -0.3070622975739083, 0.12277621967474567, 0.3102135114257413, 0.2944469187753648, 0.1985627644007485, 0.1837251937000486, 0.20452929517807214, 0.4878177542349577, 0.4601336794547148, -0.12909502153993346, -0.11287926356412833, 0.11549756084693732, 0.013223480431729648, -0.0072924359307972725, -0.01331689246435168, 0.020833328506547677, 0.04104475105412978, -0.06237612660313868, 0.17089057879036643, 0.03069940510757232, 0.040919385961071655, 0.1932076995450851, 0.032870605237249786, -0.038417746084295656, -0.09727267377191039, 0.12679448595399673, 0.1625242135331241, 0.04914194320897172, -0.03939551041839537, 0.3139811799706359, 0.000700431759864436, 0.45948945409343045, 0.16254789926796734, 0.5309570047920242, 0.3097907707512402, 0.23416237489118308, 0.07510606824109259, 0.1381197529415162, 0.046799225781341706, -0.007688153094277653, -0.0053153248486272585, 0.0031732685209627915, 0.011123663281629186, -0.00819925907405883, -0.056227292379267345, -0.0970514017210463, 0.04910587630777079, 0.09118172881828364, 0.05014592600335428, 0.17051451426562558, 0.11075581603818684, 0.10319659430209742, 0.14795685158490504, 0.1972665784951952, 0.07659763160462216, -0.23348170870145954, 0.13108748306314008, 0.34689853723915964, 0.35171405471605005, 0.4711510416580866, 0.3711218809961354, 0.28883280696830504, 0.36011682365477143, -0.20554275222632257, -0.01316878907835765, 0.40236314239082704, 0.10088290135248021, 0.02506727695782135, 0.019683627879950403, 0.005657788166390072, 0.010684816669502812, 0.022627267217204042, -0.008861959110841058, 0.00358115763187534, -0.1601857648099927, -0.3172367993249917, -0.10322461336590855, 0.11861057851218082, -0.013399783352663655, -0.14014853287269857, 0.18133952419450386, 0.1710251605460294, 0.14443949959764213, -0.030978079370126144, 0.29633199741153954, 0.7334287244670518, 0.47714395873155224, 0.3356018402126211, 0.3223641327628672, 0.306473596505833, 0.3250803054206877, 0.1109811737051601, 0.06138962968872913, 0.2527961871756635, 0.2166464636499006, 0.054468872114654836, 0.019035684386063498, 0.0007910913942379977, 0.006185805050432505, 0.04269465674211805, 0.04313304007976273, -0.03875610474104801, -0.2540399256517094, -0.2632644853919288, 0.08308018989410267, 0.0757943446612963, -0.06612348544606848, -0.09221524716288865, 0.10410914902238691, 0.0813235780651248, -0.3219986634469527, -0.40121923081602623, 0.026952595043308863, 0.3988174032677055, -0.008836843935807893, -0.03359486198119586, -0.07945930752882209, -0.09465285054285172, 0.37953614650835765, 0.15810638573479927, 0.09177796785050711, 0.022516658627895883, -0.04496685403719833, -0.0189275913530563, 0.008457170960030087, -0.004663700500134912, 0.0009910789124600717, 0.05097589737550088, 0.06891827757708782, 0.10389881926621097, -0.09248832809447301, -0.15339691315038959, -0.03650758187099788, 0.22672109851487252, 0.23501690179373141, -0.1383039795596995, 0.3285532207057948, 0.2831443794776987, -0.21109698092839618, -0.6353585748425514, 0.0685172700608428, 0.012058967174262122, -0.2088609793604943, 0.15469891020334564, 0.06216575350178762, -0.1066848992700934, 0.33615739890563373, 0.3876794635304502, -0.047928653486338374, -0.16348996392782755, -0.18351296382232865, -0.06468502927680078, -0.008567310523108261, -0.006250124413359296, 0.002304432362047761, 0.001987013296406397, -0.014548892260664581, 0.34433731556121605, 0.13140022856582037, -0.2120769010278689, 0.5471570308586293, 0.27294287005048223, 0.40323938619937716, 0.22461861535601232, 0.10592186886591887, 0.220909250066733, -0.37709553683637587, -0.4264262292391298, 0.14182376157499638, 0.20701518711995182, -0.11831150951256567, -0.35961111295446907, -0.16419510085603103, -0.16201724966282777, 0.45243008186660627, 0.32797815336554853, -0.15543445650135168, -0.21498323702449695, -0.07424541552258855, -0.11187167339534869, -0.07557164364058809, -0.005173867008508027, 0.001195596564727774, 0.008084034741288394, -0.05134198470960585, 0.26745918856338685, 0.36378282505675386, -0.20703034579657564, 0.49610642610639094, 0.3763374170911264, 0.2568705338900601, 0.1400282354312002, 0.042816647067658614, 0.07312664630539153, -0.4231417083664154, -0.5094347035172254, -0.17246437902220396, -0.2028388513010676, 0.15498913123314537, 0.13383835608932382, -0.056219532993905294, 0.15533815466096484, 0.3529000968243091, -0.08840475361584456, -0.049547335449349535, -0.04702386391289731, -0.146439503171383, -0.10922068980095123, -0.015243270353703165, -0.00013729226229627575, 0.007977689227507545, -0.014811719162638015, -0.028231187285467533, 0.23649908876997255, 0.0184966630753282, -0.17168740024593068, 0.369996336232173, 0.4032925718906887, 0.22731331362271517, 0.6009731476313699, 0.12371709141581011, -0.07991964898425807, -0.6207678762519524, -0.462509095095112, -0.11886726898663388, -0.08709908024044723, 0.16732367212109686, 0.13558939403302075, -0.06298311747371103, -0.10351086955679153, -0.030081989642883656, -0.08120740543489288, 0.05642138249974779, -0.24539281473782656, -0.3705587592198559, -0.1498172277992486, -0.0337036714699376, -0.0015575550860242844, -0.00018777303569757518, -0.032539526093448866, -0.10070080794643264, -0.05330686097561243, 0.07270335757436555, -0.1758120540342828, -0.07983880448431331, 0.4434762787375355, -0.12309380992085645, -0.06764759303265394, 0.00226726199625372, -0.1588443590404471, -0.2952271259317952, -0.444046106104282, -0.4320332514908945, -0.06731927334791349, 0.1506183631891677, -0.017161862126712658, -0.15795671871454947, 0.02605744989301538, -0.37909518078833004, -0.16599783056224104, -0.13557872124173875, -0.4138948477336614, -0.4591309403473006, -0.16997202297945727, -0.010786740247844876, -0.003010858510712184, 0.004257342479741332, -0.03214409996416681, -0.17557799202567975, -0.2544166850450104, 0.3327630229263628, -0.04137881800663808, 0.005815494463696732, 0.24256964848799384, 0.2361724878163319, 0.04123806386805739, -0.11097554713298723, -0.3816652158501193, -0.5075511334195724, 0.08214252133239427, 0.0820343837636682, 0.08829282452346303, -0.00939706241583988, -0.24254006448779905, -0.3058146093963865, -0.03668756020863079, -0.4285924916653185, -0.04064971562798934, -0.07211056600875886, -0.24266027950361846, -0.30605128640896956, -0.062007195532256774, -0.016553055021318278, 0.0012978172410766993, -0.0005755033415408044, 0.0057933028835942734, -0.28791178816515894, -0.5315255635746865, 0.08533812506708226, -0.08386591129575785, 0.15612985106618027, -0.004960249319563646, -0.17408405766884466, -0.18996629224270495, -0.30943554208347007, 0.0609453664577547, -0.0743557623005522, 0.31042257997917316, -0.13205965197463726, -0.014003755199421875, -0.05267547652210593, -0.10956855946060234, 0.20132973254967226, 0.030189805331911696, -0.26726786679395337, -0.029404342210285702, 0.0342959204331211, -0.27943852353562687, -0.25809993746677384, -0.026953751517789497, -0.02395460241084549, -0.0018650781437710654, -0.00371546602878419, -0.012127371580851204, -0.21508409622007663, -0.4326973778229387, -0.10916515984675235, 0.11360041666035833, 0.15029306426867325, 0.007759382514770969, -0.17101637500421507, 0.05066439490436173, 0.05574189592302213, 0.3025607542827349, -0.013508325303343852, 0.059786706084985194, -0.13275424452858037, -0.1817841386168087, -0.01710966393896681, 0.1842168539319774, 0.07739385449236214, -0.12690643137033597, -0.10759751866339694, -0.16411632133385612, -0.30539969855142746, -0.1722056528665828, -0.1428888100324402, -0.06544031563506549, -0.006525383173430996, 0.006956606185680746, 0.012533826021923763, -0.02236813835290864, -0.2785330779842198, -0.479972372963533, -0.15581343130932654, -0.1026680882440234, -0.22855247903909268, -0.03294397069824278, 0.07458443359831979, -0.10953388528531786, -0.09472242712314742, 0.33268241806862126, 0.02595210988329178, -0.1998897218649597, -0.28592581113037857, -0.12475515278068212, -0.0688284117653951, -0.10607183760349677, -0.05712895790542952, -0.34468206390522943, -0.4412406233977147, -0.44272802981935816, -0.3560568535920175, -0.008096619853272338, 0.02177557033289862, -0.014160126452157943, -0.0023913432206092516, 0.011535348674884642, 0.00023128100433059186, -0.06278066546931513, -0.24291372270999484, -0.37365010032578455, -0.25727285367240477, -0.2673791313510986, -0.18230378425351237, -0.16948688292539252, -0.18902643998141025, -0.15552579468123973, -0.24535798547006565, 0.16928054009832508, -0.21062348998870914, -0.4650875339050484, -0.18503769539036294, -0.24218663548690123, -0.34962408550032903, -0.30665800961377093, 0.015717622670139483, 0.025262676068479675, -0.2481533501475375, -0.2314968144357863, -0.16622116335089607, -0.037390913930157685, 0.013565217829318141, 0.01901107096409173, 0.0012845795656923893, 0.011922493007836668, 0.004499441788626634, -0.021142864100098503, -0.049760375378064825, -0.21173439753057477, -0.3086372304034906, -0.2804988479906123, -0.04495932430048976, -0.007082653525752709, -0.3011363503396918, -0.019038670017395606, 0.09755968501111337, -0.011313765647017849, 0.1864034947594854, 0.024342425263743944, -0.19663524122343357, -0.25628579065319856, -0.4391447550758849, -0.37690890550236855, -0.1402314432731536, -0.18799236090831328, -0.07539364615650349, -0.13607105196215158, -0.11272863768637194, -0.10763929848603497, -0.07504489928251129, 0.004414002653657757, 0.0015768518930825948, 0.004755001869411289, 0.009312270457039409, -0.03055595901079737, -0.019536631983783564, -0.09747452228798777, -0.2535500596432029, -0.26031060362403363, -0.05005001163213499, -0.05191784378882376, -0.26088006938314406, -0.05542595514386837, 0.024195858124885287, 0.0515190654784892, 0.31791107715946954, 0.21980723306440067, -0.09122510782623915, -0.21413198982147463, -0.12080462025701261, -0.2649300146421851, -0.06198694406208524, -0.052156939228027714, -0.10252875303201975, -0.26849783556922846, -0.11594273664850831, -0.13829853305996073, -0.12204346313151604, 0.002876195229173783, 0.004756476304286103, 0.020683989452590246, 0.01561700857319805, -0.0067551368825315315, 0.0231546612905807, -0.034371676184544654, 0.002484688440585636, -0.3772704721026102, -0.46391400096303687, -0.4632802934068235, -0.24685318644389184, -0.2065857544559964, -0.1796757641382937, -0.11389347030520404, 0.20875112681639907, 0.015349262359625193, 0.17210346363863568, -0.1814867158459388, -0.20275753209168687, -0.2749497896208621, -0.028747931321257077, 0.1634361893327451, -0.0849721597296381, 0.08254310250456019, 0.013449744747535465, -0.1005664782770058, -0.06346467333942107, -0.009469151164890957, 0.004550705216771741, 0.006394829423584962, 0.005122603968683777, 0.001062354512045689, 0.03419332951560942, 0.014565649999024708, 0.02447533526046285, -0.2239250471865281, -0.23503823550937508, -0.26452232616988425, -0.12761556658220688, -0.012300119904760775, 0.031689520691353036, -0.045056450247050614, 0.12227438898643453, 0.26822643528557244, 0.3793905693197914, 0.14254201189961296, -0.10938115017955517, -0.1076815341717941, 0.06949345233545516, 0.24927966535673893, 0.22701776989777933, 0.10703970442598429, 0.06234260091312871, 0.008957196684900635, -0.015330989202631885, -0.013647972127971825, 0.01330650301287117, 0.003969396062590322, -0.00686764575026982, -0.006415493043399192, 0.016998174914507176, 0.0013886229139820421, 0.08992754353468631, 0.06003629517617194, 0.05292365531933802, 0.07849836869183502, 0.09402422077259019, -0.004027239661087312, 0.017024950094965956, 0.11031647117775728, 0.14271439902464708, 0.18398587528090238, 0.12355337764556161, 0.04842793048409134, 0.05916829557281177, 0.13379488721728702, 0.13424793678582211, 0.10353629149564203, 0.06545429630430599, 0.03665117540090846, -0.0040549354937882386, -0.004132935968428454, -0.00557996687094942, -0.008937193706550228, 0.0012712843050149967, -0.005355886174720944, 0.0006490857993926467, 0.002480032157811373, -0.01505590099112251, 0.008707977368372116, -0.003951096277607578, 0.0007729823623475902, 0.004635253322923379, 0.011479300274349586, 0.00028925228846087085, 0.02291991829253191, 0.012021011893704728, 0.0031753913245556355, 0.0007459173666392586, 0.010242246985437943, 0.017517882664825606, -0.01049858849660638, 0.006584229354432061, 0.027843128917119004, 0.0020769881413068027, 0.017251421845014846, 0.008681741808581328, 0.004581643770762083, -0.0046860143560568165, 0.00842772247817006, 0.008072075659272232, 0.0022104303509776187, 0.0008696660719458199], [0.0008004706969543618, 0.010276875418657518, 0.0012744695304432022, 0.01348806437192556, -0.014864935009627133, -0.002980870712167809, -0.001969280594880299, -0.004496101830372258, -0.005266504256931374, 0.000474363076254615, 0.003739974668557686, -0.011994361788697725, -0.0007713219639518304, 0.007180516719698284, 0.0056893221764572266, 0.014445539365899901, 0.0016309921386168723, -0.003219326984899547, 0.005150487456619608, 0.009824474143711431, -0.013415281214463105, -0.000876608805368478, 0.006836811737106967, 0.0011298126923119294, -0.012397031697960319, 0.008660429445558067, -0.00808401886996685, 0.005305642123356875, -0.01123441826742684, 0.005002087236290818, 0.01659323456249579, 0.00284361729532796, 0.0026238127872731274, 0.006225564258243956, -0.003847021748453732, -0.0009042863250648994, -0.011037099063342283, 0.01385874340750295, 0.02453027285141946, 0.0030980011871498733, 0.008360293408005523, -0.00014521910500835296, -0.009337848036705579, -0.01812049787771195, -0.00462121637047248, 0.008871722181333329, 0.0009559872646757859, -0.0006237807603906644, 0.02063716153892632, 0.007842472189116163, 0.00901306798603272, -0.014642987952467901, 0.002420929521120956, -0.004270534117068557, 0.009127659457358665, 0.0012148029438491315, 0.018522084837998543, 0.001779052929648632, 0.006606528645327428, 0.003416128007117065, -0.0001493637322031056, 0.010712161686737609, 0.0019052429555788334, 0.005319254283742636, 0.012122510811317174, 0.0059823434172502415, 0.04510937842213803, 0.08159985292697174, 0.05999834932635248, -0.02994908981547044, 0.030731132589944886, 0.02946686889145434, 0.07154222405031789, 0.0693152718994905, 0.050139313544752546, 0.14969518719673663, 0.16940238714284325, 0.23771100415796376, 0.12058465324295575, 0.03145285405134324, 0.01332979722083825, 0.011442062475854307, 0.009065515994719133, -0.011732639647286065, -0.012556208684518733, 0.008851775158076322, -0.002227987261001213, 0.010659339573014901, 0.0006909971304682223, -0.006673011295253166, 0.0032914975303481534, 0.011182511207055353, -0.033973445419761245, -0.041097247736043445, -0.007637862029743873, 0.0857420761698387, -0.11651934241521332, -0.18157538831189332, 0.07301044885712654, -0.13795821474908532, -0.005569395192869389, 0.09452773593857251, 0.25670062996208665, 0.3347174533076678, 0.2872253380464669, 0.29089740790072116, 0.19330368530885753, 0.1398330089935995, 0.09107455174135372, -0.022626557778449206, 0.003694401925476407, 0.0036687192463163093, 0.008418645547147777, -0.009456483586070466, 0.01668861208425267, 0.005645349474707001, -0.0026919449747615253, -0.04343055792804945, -0.04682975623181605, -0.07636440884795077, -0.23023447967384322, -0.30444264136515664, -0.25615489616561093, -0.23923269265194183, -0.4268159935228354, -0.4254144840061302, -0.19279475816015013, -0.05972231275167985, -0.11907911777912722, -0.026816865391092373, -0.11215752998808633, -0.01692116689407446, 0.2960969400112215, 0.24489852428910353, 0.11520207829312361, 0.1959463978978936, 0.052223658834471026, -0.0021497831770316686, -0.04763961681953025, -0.0005268926577320418, 0.01673153499961094, -0.0013333139621257604, -0.005678207070530639, -0.013611353580189263, -0.06316716833379103, -0.1346175073214305, -0.19906092449351392, -0.3011818185795617, -0.38682631784051213, -0.2766398051062869, -0.03102423244000346, 0.028427049874598816, -0.04152048841568777, -0.11895586169214262, -0.07008583359266234, -0.1943103628886341, -0.186635296097503, -0.05840686413655716, -0.11422825084759436, 0.0693839563326238, 0.1706419848063688, 0.10195641128483736, 0.026198763705237313, 0.21655677920942323, 0.07035560436859122, -0.06852027745481723, -0.008256037040135437, -0.004602136080879175, -0.006058339373152282, 0.0007611821812922447, 0.004139205013128743, -0.04527436386703183, -0.07319942049964183, -0.14034912794906634, -0.30326172994712935, -0.3268847132911442, -0.5088479238844782, -0.4377668694012674, -0.19118414584381196, -0.028854843747621872, 0.1684278230371059, -0.14185005402853346, 0.06782410042309404, 0.06572821382104137, 0.0675108777820134, 0.07078833143527927, -0.010042715969370328, 0.1631473139284196, 0.26830047692745496, 0.16517958092086152, 0.1731726272225217, 0.06610917553665675, 0.0754184706761714, -0.0984166225265166, -0.0037094612238759445, -0.0010879015777610758, 0.0019018288466135312, -0.026878554034965665, -0.009493813682916241, -0.060117820250419084, -0.1263194796839983, -0.17277955033258882, -0.41852890854925945, -0.5805003309306361, -0.5779431625601849, -0.1856308375010931, 0.0934078783375217, 0.279736377018644, -0.054971575101582355, -0.02437111656106678, 0.12483861868134757, 0.11856285787458697, 0.10381524433140736, -0.04880141305212674, 0.14277432327237907, 0.35102342712342854, 0.27857632623084533, -0.04425901342812451, 0.2265365160698901, 0.17464911210706255, 0.016963775699255824, -0.11701641207037172, -0.019983424635500107, -0.012574012268386335, 0.012644911230259489, -0.007408062438111691, -0.017201531506868515, -0.09490788834900818, -0.15881725722758355, -0.18157866188254818, -0.16947274094687403, -0.4821766395652928, -0.3477658284105252, -0.15409002008512046, 0.02998310501799719, 0.003420211626636038, -0.07931012530525844, -0.06535118197230796, 0.015851320926446377, 0.12799664971577768, 0.33706058930411703, 0.1516713812783688, -0.07561358004422089, -0.35572346276898353, -0.0662979762814976, -0.0532879361580194, 0.005378498518943329, -0.12968583734590106, -0.008420767321068189, -0.10284826534756437, -0.0642837963808932, -0.009884798714876714, -0.008998115284389553, -0.0010696486371066696, -0.029297658200781097, -0.15599762116683905, -0.1572095519424305, -0.21910916733207156, -0.22587583897665783, -0.6229527869403585, -0.3751414949578885, -0.039813494680768065, 0.11568634736778059, 0.1298683808622848, -0.11240797615783799, 0.01236446650760763, -0.0036571695672665454, -0.05017230148931549, -0.16029169937462728, -0.32131151771591265, -0.3397944983670894, -0.41612467088153476, -0.4072730943754508, -0.31940276241724475, -0.3050515008456694, -0.2289318370229752, -0.08302102059461422, -0.11163612731293765, -0.04670475353436615, -0.0014637920800337912, -0.0006998578122651587, -0.012316392938529293, -0.07050192087278531, -0.14776287676389255, -0.2062354547523391, -0.31250775830328054, -0.3526307783642602, -0.28354769562141985, -0.08501575376968556, 0.21521104818325593, 0.11770598374206087, 0.08032474185625796, 0.09174406795567391, -0.04913737298838322, 0.1998470524255769, -0.37150983239947827, -0.4667421018987133, -0.24510942173698783, -0.2598579867531338, -0.37332290088066905, -0.4749015388454848, -0.5960931919478232, -0.3682241187562604, -0.3475862108210688, -0.09153263876352469, -0.10597001852556974, -0.046380321482962325, -0.00022164689885764076, 0.001440820028369842, -0.007213332261346057, -0.03801891780639547, -0.18116499623632845, -0.33751711832947884, -0.3595309988262947, -0.15765536805288732, -0.044529101353431765, -0.04857235108601943, 0.07040698672727058, 0.22754946108681434, 0.42743339061888175, 0.6681625391166719, -0.16301698713826526, -0.31316167951792684, -0.2094672710166754, -0.1153697090410875, 0.045614879297534924, -0.03741305740976624, 0.12326664103529449, -0.22309296367372833, -0.21632186846941193, -0.4446464913410793, -0.3964186562286971, -0.33759994223438033, -0.23552182676319916, -0.07550512111499294, -0.006771231794154932, -0.002983895112854239, -0.0031601827484172037, -0.03848649070036034, -0.2511119728500026, -0.3803356318143182, -0.44440250020358313, -0.2675397673491476, -0.25307939365477006, -0.06993711270210531, -0.10657665494640986, 0.4263419773266493, 0.9517034084845128, 0.7368779390223947, 0.12239862684935167, -0.20184264825813497, -0.1555697273407862, -0.13184286612842783, -0.03997544947815672, 0.05105027032584983, 0.23981239661636072, 0.237304245018628, -0.1233619378553443, -0.4305080255645522, -0.39757988534993477, -0.3910317365181156, -0.2732324345779879, -0.13661284698410053, -0.023642274629124625, 0.0039235025975714495, 0.006826016447809887, -0.06367024029835176, -0.15994850544003625, -0.2936009656569348, -0.4166366407840746, -0.5749093670638338, 0.21876237095935386, 0.1277313247459991, -0.034496850866646195, 0.35106902090800307, 0.3613913105431029, 0.8901387487701474, 0.12391462345405903, -0.4023385311403968, 0.14601442781423524, 0.04866395335250941, 0.11023772466989289, 0.02070290067452409, 0.2968090757800369, 0.21315876043751586, -0.008538371733312254, -0.2516417243334167, -0.4117623502965223, -0.4269327747585513, -0.27260744403840875, -0.15770021118005034, -0.06901818413366828, -0.005002267676898776, 0.00505833883856951, -0.009344629565937995, -0.05956759288898882, -0.19138534825195005, -0.16793301333773092, -0.5344753635512057, -0.08785988895331423, 0.03902086939660538, 0.07812605880696032, 0.22580243814323162, 0.4015194967466198, 0.24654130106811967, -0.021642886555346293, -0.5199390913896207, -0.01989097606938034, -0.04414845929786428, 0.00014483272142880364, 0.14663514810499947, 0.06504592584223617, 0.38174698637155047, 0.005187170015265026, -0.279194185852506, -0.3671958042605991, -0.344842876842881, -0.21913948824405965, -0.11041794885403895, -0.0069509912231907976, 0.0050904192133679, -0.0011756341890783396, -0.007962568698225035, -0.0446373486232496, -0.08017480985395355, -0.1375771679012715, -0.3121336970907966, -0.21455590610040495, 0.04114011182236223, 0.18740822697243795, 0.5441813454860126, 0.07333800428252357, 0.005226512017918072, -0.11420151558956404, -0.31948007997277106, 0.07113008889839274, 0.22474931364352257, 0.442639746595759, 0.23409341912441464, -0.06845243440441577, 0.1330626043619243, 0.1578434261712558, -0.08220239576227384, -0.16478096496582537, -0.3799109994614847, -0.2754312942792109, -0.16118443452627867, -0.021482541160401, 0.014275370240081152, -0.007328297828011839, -0.028368574175655654, -0.07765798774540873, -0.07937507338635859, -0.10737428433351633, -0.32408121625743963, -0.44456654585868377, -0.2298524194289962, -0.06289173926547778, 0.22830529628307952, 0.38686085238504636, 0.07470821029432594, -0.12720686762678396, -0.47812840565523895, -0.004774642112079812, 0.25938821783067967, 0.18994759332663036, 0.04111594354843173, 0.2687262929284217, 0.14945732052161026, -0.12250266723098303, -0.06493353937617612, -0.163640011538746, -0.30365745179296505, -0.23947838581300046, -0.1843944753205724, -0.004247741637467933, 0.009400160020636764, -0.0024232473807906775, -0.04261384129039074, -0.1226349480375808, -0.002296333255938147, 0.09639982928873758, -0.121591790098357, -0.1611306261425344, -0.22070481872062073, -0.07066702537487073, 0.10779105258122175, 0.13579052572527284, 0.0011402945896970688, -0.18442573120690667, -0.295015227174324, 0.15117634419953133, -0.20200250167863676, 0.03812558728815983, -0.09482588515551615, 0.049748154024612384, -0.09735910200235444, -0.25752084668593184, -0.04587212751998187, -0.18870761692210383, -0.2670164585934116, -0.18033485176654354, -0.12122389701939967, -0.008002984379721922, 0.008294159812524956, 0.001784125908230384, -0.053919282757494164, -0.10655538289092323, 0.03237960934749557, 0.1431799510551304, 0.17236221482146297, 0.12829701048541348, -0.3101759331951617, -0.0927691195933307, -0.08454608635880397, -0.06310493865730767, -0.24103280703129626, -0.1858745826651674, -0.10474301440502409, 0.14147381400062448, 0.3159587174837858, 0.3046454669002352, -0.21313087570797185, 0.13011197781956071, -0.2883432071972743, -0.1423528191487118, -0.1743107095675743, -0.2658497419068567, -0.31161928223528557, -0.1071951512790796, -0.03959356123902189, -0.019205699419307515, -0.010052763260183017, 0.015917854690685067, -0.04292201180294609, -0.08419346929479606, 0.14341087233555794, 0.08744035730046663, 0.17008202066482753, 0.18944916126796213, -0.08827472497013182, -0.42052046164951695, -0.0808865540352725, 0.041539052672064265, 0.17116033360871263, -0.07326977537800254, 0.08257659380051162, 0.13763470752006401, 0.04210211535252596, -0.05676994313899801, -0.3427666907849541, 0.12486709423189307, -0.32713651083340956, -0.03420541327954345, -0.1886193894827432, -0.2039559800883387, -0.19752505620477648, -0.10860452151722398, -0.06342450811444082, -0.003152965995170657, -0.004513124963660526, 0.006098723491858875, -0.0068606625861332, -0.08913597264698134, 0.07425435880222038, 0.16400416565699844, -0.05225405594556247, -0.1897753389697706, -0.3198009283840482, -0.2387773207115437, -0.12828784684304578, -0.4794434820751664, -0.07616192708830775, -0.021949657996035755, 0.038715607575656744, -0.03339914893549114, -0.10898471510887237, -0.14533205675304767, -0.10696398123329721, 0.010653506288682026, -0.26941700300768734, -0.11715812744846198, -0.11235705250243098, -0.08501740621537739, -0.05397011393651378, -0.03399053444412674, -0.019976602629328315, -0.003648233398546997, -0.0030488625985515857, -0.009596764583775612, -0.016590419645043018, -0.023921391713397428, -0.08200642875530104, 0.008006825278117519, -0.12453094250281145, -0.20557372561015705, -0.1982647658625985, -0.22955676266867028, -0.04155348421323839, -0.09135301819277614, 0.14795786515307896, -0.1014320962751171, -0.17449048461777686, -0.3032027936208937, -0.18478740705121555, -0.09367385884343657, 0.10567991161135717, -0.14809807205329614, -0.2232062221063394, -0.3215594985222426, -0.13700226624556813, -0.05561308991497848, -0.009333223713448954, -0.021907584840944204, -0.012465209551006527, 0.008993849740102781, -0.0030071044124810585, 0.005575047502654608, -0.02207333828766872, -0.03090721434625596, -0.18767214385632505, -0.33422824056440265, -0.39161327770062154, -0.30494103948202034, -0.4044456043956755, -0.3257299675371337, 0.12380454213195538, -0.15449457088440838, -0.21719337990982254, -0.06865519153955264, 0.016353501657932926, -0.0747312190873135, 0.0884543705567009, -0.025734722007051587, -0.0488145784819636, -0.3264786427427522, -0.2627892088479343, -0.29456492359836706, -0.22345623752861427, -0.05143459534238334, -0.02063464431723068, -0.00905000105155198, 0.0029452720040950113, -0.00718215412114126, 0.009527549761955401, -0.005663692782224203, -0.005335795347593108, -0.034645469975702656, -0.24302488117838975, -0.295483175755877, -0.33156258753602075, -0.14420120877272138, 0.1658956471203575, -0.20059338053678274, -0.008686687154096432, 0.4217434504063106, -0.00402268905019322, -0.26301296778704447, -0.01457174909000068, -0.1597477338863283, 0.0632691062945852, -0.10017226078867014, -0.05044969054690583, 0.059609557598223964, 0.0763851692850024, -0.016797068870835628, -0.06913363269262611, 0.008980120267193846, -0.02546060632351241, 