{"sizes": [784, 30, 20, 10], "weights": [[[0.023328873523444284, 0.005031462676231252, -0.057253567894192454, -0.00044364241509956275, 0.05368636514409304, -0.07211578108233874, 0.0013129794552644326, 0.013996524489776698, 0.007466928100492163, 0.0407572640796778, 0.003743594278525586, 0.01904690177708297, -0.0065441085050324, -0.03183615054932014, 0.045104990629729974, 0.04223758139121414, 0.023805049844967775, -0.020649163982210228, -0.056013877744632706, 0.028278240422069074, 0.04307304945815781, 0.018832382640827306, 0.017667001593817136, 0.08451084140890494, -0.0029659016909682765, -0.061245213119870114, 0.04302912774609016, 0.022062581684993983, -0.013921960800279526, 0.05552390536889735, 0.03462365433945115, 0.013150862370633691, 0.004945177203088494, 0.00429772888296519, -0.014205850448987896, 0.021279519019376452, 0.06506295396000476, 0.015595713803682743, 0.03819129212252799, 0.004707518152886761, 0.023830448616376263, 0.050176662984512094, -0.03958019165186661, 0.036023880935160964, -0.02614465894835932, 0.013062729845811846, -0.011367271206825227, 0.04535047902878675, 0.035158889651557404, 0.029270445273823352, -0.025379096654058506, 0.03952136394193868, -0.036626639541823436, -0.033974143989152654, 0.014093531257216954, 0.02194019528143252, 0.04703485496054042, 0.00928102928981094, -0.012951531827008235, 0.013584967163221773, 0.009010500390138653, -0.039551947875851506, -0.005451916153203566, 0.038233154661115494, 0.02463999394984344, 0.05342390966622158, -0.024191539434638754, 0.03973563747251202, -0.04286766755348798, -0.03289250962296959, -0.004117335070536507, 0.05693871709412342, 0.05404562549522009, 0.0250988305930993, 0.0518779486623361, -0.048576290567361194, -0.003048374497749375, -0.03864069694382198, -0.011083828675417589, 0.02504470051922217, 0.07500853970862952, 0.04362974911792575, 0.0356745672410877, 0.0010332754862425956, -0.008410481618850439, -0.019085462658110626, -0.03324639803521979, 0.006488501515520344, 0.052919706769611746, -0.00712874634420873, -0.03702890346256904, -0.023297423904961485, 0.002220828681727087, -0.04789006437642607, 0.028289878015707277, 0.01421581609469937, 0.06389258718644579, 0.050192673700060565, 0.005604256002404546, -0.016744586555489778, 0.05075921676627975, 0.06449301594988051, 0.007194876604855108, 0.025001538741889755, 0.024695346797662932, 0.018301047288481084, 0.044192640809435454, 0.022024592966099966, 0.03391928877836266, -0.016140894606734322, 0.017762863318981966, -0.04209695368141514, 0.034711841750963604, -0.06257685707368484, 0.03589363279242905, 0.005086901678139666, -0.052200207897675106, -0.04688100037569209, -0.0010397965086280548, 0.05298472268545093, 0.03114946285089046, 0.018485728894913806, -0.017375572686281864, -0.06751855604556893, -0.004758187646044515, 0.05396335020178432, -0.024608626717902395, 0.018249407416924893, 0.03829795554222881, 0.008665702175642618, 0.030446192885048587, -0.022121234501479382, 0.028731469440826645, 0.015792150567038747, 0.004946159687055701, 0.024191082131141805, 0.0030556625882220425, 0.012290597046980746, 0.015576105782429085, 0.044087206061633605, -0.004535265277563837, 0.028735114512776005, -0.022846108913175008, 0.009628609590160287, 0.012982773788537166, 0.029457796676971692, -0.014379397288252507, -0.00048453812655645565, 0.0038718794940813366, 0.0428109272999697, 0.05269604980456502, 0.018352190615555694, 0.03911747467006386, 0.10583250809310421, 0.06154712064843684, 0.08281262857116488, 0.09937252313315496, 0.12254596806093657, 0.07487887726016733, 0.03553350296661645, 0.06357080634176958, 0.03147308347457556, 0.056035886946843985, 0.10195809288390852, -0.042549798548966025, -0.027416367396842178, 0.04987329285764238, -0.00794406765553608, 0.021548616864959996, -0.0053522059077136044, 0.017650131945593922, -0.05827754827690624, -0.014180492966145273, -0.03482396629145508, 0.018833549098326834, 0.05438815793572213, -0.0002492828053941113, 0.06868361763979232, 0.07401866678830898, 0.08779243354664165, 0.04338722849114379, 0.046590487052339515, 0.08787325868073463, 0.10675921241087886, 0.1522287477990619, 0.1361729623257567, 0.11632008914680614, 0.10399405959299104, -0.027343344677307542, 0.03809127693375735, 0.07140862168380542, 0.018133929941908874, 0.10560048987092874, 0.06726382357016217, 0.03449922633334836, 0.034792167792387425, -0.021920940336418143, 0.03662361031293975, 0.056445655804402604, 0.0059668784524429435, -0.030082578084635367, -0.01701835149416256, -0.06936917375232227, 0.0476223667319018, -0.02551972241309949, 0.04289941959187358, 0.12247644515711373, 0.09190256720838912, 0.07133349122112989, 0.04913736233094654, -0.003725260493104729, 0.058920791422060324, -0.07120461401764622, -0.05012286862616613, -0.017451792994652437, 0.0480140229093111, 0.0017700017400270607, 0.08279282399576723, 0.0780981614480493, 0.01471514474893158, 0.051008934461690386, 0.03480865713288579, -0.021485095891644795, 0.036095324415817746, 0.018406244942821896, 0.0014601271463357342, 0.012712247267760688, 0.02069714782673462, -0.03084147757089698, -0.010003638299275776, 0.004278916223478808, 0.01043091718027465, 0.03388206653025942, 0.007859268986974756, 0.04631008961634624, 0.002605528693715283, -0.03245208258041835, -0.05087641755017844, -0.08253820200765281, -0.0920006832593147, -0.089920465496067, -0.08188534993269064, -0.09277890217456458, 0.04019620305281113, 0.0325038070879996, 0.032725596935439305, 0.11283700773218786, 0.09775092009307476, 0.04680494927991889, 0.04089806814450836, 0.020846890046313665, 0.006522089376519032, 0.005336426723609433, 0.04672766436212307, -0.016693701068249033, -0.05345883344241542, 0.016446316748522063, -0.05842507909999096, -0.0057828095989504585, -0.01872161676089187, -0.028186585020600754, 0.009137869087285349, 0.028626924958721444, -0.0014705639857170638, 0.012133810761097753, -0.09296148726095417, -0.1291708899754248, -0.1938401786027482, -0.1432584402501628, -0.059334556579151154, -0.05422349444125372, 0.023274008324526904, 0.0032032724072006483, 0.05277816391351634, 0.10145013004792611, 0.11034090237866663, 0.11315142170146292, 0.04201392095924632, 0.054249302981428105, 0.00611128641316759, -0.06116251100333922, -0.05441270768565241, -0.008493230865712227, -0.05109028695093815, 0.03232479192647135, -0.04857069376436974, -0.007076215085395506, -0.07817631606710844, -0.002210175627535363, -0.04180162417806851, 0.027064854258188276, 0.05785670860537802, -0.013849590312490351, -0.060431561989666795, -0.12609850636723927, -0.2640313215468689, -0.21438837426493368, -0.10530165936428745, -0.012711474116057688, -0.01814898251735916, 0.07662612094160337, -0.026652338432092193, 0.10463950282161515, 0.0712915868244652, 0.10843868149634095, 0.013574230481468622, 0.020910689215476556, -0.008480764076860006, 0.010030525654326886, -0.013183473600110112, -0.03525469876488138, -0.0007784479159871202, -0.034498420920115555, 0.003610849891034682, -0.003086799197448732, -0.04209030042253709, -0.042927121682406436, -0.015435209709067471, 0.057705317380898916, 0.07144403729727003, 0.08630999904913728, -0.06061747717590599, -0.2024509233067011, -0.16712997853320039, -0.0824734028334843, -0.07817841091400379, -0.014416377799433939, -0.04278835726752171, -0.017054998696328746, 0.03625478737887707, 0.06211553528372713, 0.0493816698288517, 0.026429164468545863, -0.055162369396525315, -0.005730593170932098, -0.0729047550431486, -0.02713554458170418, -0.03712308566566488, 0.007443994875540626, -0.049328794121985875, -0.06498664284881396, -0.07221904955715124, -0.027320648284925968, 0.009318801010420697, -0.04476433888536147, 0.04403189254782798, 0.01941479883044809, 0.13827986423394859, 0.11351848774362895, -0.07902426017420032, -0.21590795728397125, -0.23323901866726515, -0.08263858911373735, -0.08237276301093982, -0.011646077320241734, -0.07791107328457918, -0.1061296838952047, 0.013647309425762156, 0.01084335745582642, 0.011151206387382857, -0.0030523325696017786, 0.04830932915352041, -0.028517357625206487, 0.023705482816167623, 0.05111551739532179, 0.052022412027332425, 0.04511672701326922, 0.0430386007184946, -0.015075069658524865, 0.07102825732447507, -0.0070466151252866205, 0.07832606320989947, -0.003850028186522457, 0.11457684205874281, 0.15639717159388453, 0.22823872539869974, 0.2044315455620684, -0.1188429952243718, -0.18777234842275306, -0.11658382272240475, 0.02744198337135066, -0.002869778594427049, -0.07045610476389351, -0.10473459935920527, -0.028277346148560388, 0.09229352934789299, 0.054838552676423485, 0.12753213627019744, -0.0121992663073977, 0.03141598124501551, 0.05140722405752141, 0.01044748228673844, -0.053356099106748156, -0.012293249443940925, -0.0773785080853661, 0.0317890829193827, -0.02537785846800187, -0.002310477900291332, 0.08942774759889835, 0.03145599633408364, 0.09850172749658197, 0.07776987058392852, 0.2091338100406369, 0.17609809918528796, 0.11986990880162339, 0.019187111513632466, -0.04248583444554927, 0.0215195979685696, 0.02855613715684873, -0.027940653824635703, -0.07371190212920944, -0.08170943899096489, -0.01205220947514381, 0.09506969894921634, 0.0250113156710876, 0.07803866647877712, 0.031039370569014676, -0.0069439663892508895, -0.005744806019007416, -0.022326289555806022, -0.004470354503942129, 0.059456355467263175, -0.014027561148510483, -0.05910697260197952, -0.012011188138167556, 0.02249843302805065, 0.0658474205983214, 0.038763220657739864, 0.14048331948364529, 0.1097824008703653, 0.21966763794930286, 0.18982468027181562, 0.12280847980743875, 0.040384514987205, 0.030327720512738614, 0.014119252144539643, 0.14060377477281483, -0.04149328576232766, -0.0016035321642785907, -0.000410598227178743, 0.08770467781683271, -0.028309880070302468, 0.09311721470392491, 0.000918251663086392, 0.049839617220132804, 0.025763280259730018, 0.026953207731741247, -0.011075080164532337, 0.013911768240605967, 0.020570859695146434, -0.014077744345405208, -0.014937516359066722, 0.016630577280294843, 0.08360302660294332, 0.116878323155293, 0.07748651713961965, 0.1322519709783535, 0.17664122345393438, 0.1268082355159381, 0.10391948194995045, 0.044236957892571024, 0.03452601701614541, -0.02298747426162829, -0.014638155797776923, 0.054568293766347205, 0.0024018454804616805, 0.008651974280377232, -0.02278746290963836, 0.06642697429081419, 0.04395250474619297, 0.021583162167157523, 0.07041610121640049, 0.06357156724052411, -0.031009729536847663, -0.01312299163932665, -0.02581262751126017, -0.02510490272261407, 0.06896413931133379, 0.007930804942678683, 0.017766041908890935, 0.019033974325946765, 0.07000818751549721, 0.12410341330926998, 0.03368515240698205, 0.08890007185535602, 0.14972296226789467, 0.15036134336390086, 0.1805750599907763, 0.09370956650925039, -0.04492319223069316, -0.03447061303058445, 0.058977745006125085, 0.0025395833310125904, 0.0232115101807864, 0.08498534586931182, 0.0812621458701699, -0.01417028041158988, 0.07866206329554248, 0.056319879084365115, 0.06653712239263, -0.010481047153385402, -0.03572029415492666, 0.03485095128991585, 0.021995211746666195, 0.01633976172110707, 0.013514047112569533, 0.032648080084048924, 0.08531827336299073, -0.009101879899159818, -0.0029053295264089766, 0.021769439546225417, 0.1837625099706959, 0.177848932888635, 0.1578844323598974, 0.1612963663876469, 0.1610759326492146, 0.10487089297172628, 0.006652585674006909, -0.008336043933572743, 0.07490533190655452, 0.11713158641483025, 0.10766175626925567, 0.042607082308935874, 0.11042474837043711, 0.019145878465085593, 0.0016405683635905934, 0.0695838753279823, 0.033084796791897554, 0.06484413952849692, -0.01999293800602424, -0.00725742326313566, -0.04337368483897746, 0.004535367033334192, -0.004958859114375015, -0.007249103006389914, 0.03513995942187166, 0.03514725739780272, 0.09945938890197499, 0.11776226166000124, 0.08619979575841902, 0.23257377564020196, 0.1547925605664085, 0.1731901189363389, 0.1242392468608625, 0.07693471511339772, -0.00749780650118544, -0.00452035078492585, -0.02064973429652515, 0.03112507343139791, 0.14940662334820676, 0.06582466874124397, 0.03816865203349386, 0.034193636433431054, 0.043333944940286355, 0.09190460588613143, 0.04715375875395221, 0.030022879650228325, -0.0229920349657652, -0.08333375746963911, -0.05086476945068055, 0.006020449228442242, 0.0019142735056246502, -0.0397682758003369, -0.029887786410115372, 0.029253928759965214, 0.034379758539599105, 0.01136890154604873, 0.06907379796078097, 0.08226494826522093, 0.12895138047693516, 0.08136951616504287, 0.1488885893770867, 0.11128747547805273, 0.04361013867926517, 0.016529850278372137, 0.06594187602764856, 0.07700558644785717, 0.05458263807510531, 0.08715236061729931, 0.043414553819563155, 0.032075512580321, 0.045215711578643646, 0.04230186142271561, 0.09822666506412646, 0.03829794397462565, 0.017625023478092635, 0.03193543020466761, 0.009272287517687284, 0.007556240940935033, 0.00436825492186072, -0.0028890505408172276, 0.046941899523318065, -0.029387504151344022, 0.011364398115572228, 0.02700192617978134, 0.051867463424737914, 0.03903577885143461, 0.04174913992850581, 0.08710907066804964, 0.12792537197241538, 0.12753616849952354, 0.08637318687098171, 0.008146757022328815, 0.024574267409883836, 0.009169601809934733, 0.03247010685035537, 0.10606635849722611, 0.0989400163203761, 0.05597994428753892, 0.019056249282484904, -0.002973874887897266, -0.010662274310092111, -0.0125851940855898, -0.010461356656554913, 0.004496294060031222, 0.024544915391162908, 0.0654457658921962, -0.054589863966533377, 0.010681417836367111, 0.00206865976121252, 0.03192298894404131, 0.009634979379323914, -0.008435663920756961, 0.03965282193708784, -0.046339946388984296, -0.03842442467386701, -0.022967214834559223, 0.0778904998687667, 0.05220996396912798, 0.10922745027476574, -0.04489722542450911, -0.037191187300135674, 0.0010012205401240578, 0.032148843914840526, 0.03403616800819067, 0.028873533966145126, 0.04652787777783881, -0.001868769827150404, 0.026283221136760255, -0.0031682595571722954, 0.07357787830210069, 0.017780624031505893, -0.03730267402554956, -0.08133021051063265, -0.010540680234358484, 0.01699130743151223, 0.029330498566194768, 0.047139172187904956, -0.009175730168988611, -0.037673846668846975, -0.06421695951871455, -0.06182236524360797, -0.027784553887933987, -0.07697358775691535, -0.013908430885269475, -0.015797968783405277, 0.0076189236012226035, 0.03378102635801093, -0.0001345477493718519, -0.005502250275820857, -0.030698407765463474, -0.028567407569054383, 0.07597923686579465, 0.027986497848716034, 0.08911737438250872, 0.03249006676274234, 0.04758140985139155, -0.0008711284532101383, -0.08886635191889898, 0.016888660431683127, 0.0422906656651151, 0.06016059274890055, -0.016752489784093657, -0.03543513788725472, 0.02893045019017553, 0.029419873148441352, -0.02836528022337433, -0.039798418128979225, -0.0672590452386092, -0.06372433534070662, 0.015053172364384715, -0.015321409751035115, -0.04257556461464926, -0.00580080222967074, 0.04690650308995633, -0.028348056073405962, -0.0047345344137915335, -0.007057978987890103, 0.004205207192337783, -0.02598119468161472, -0.04679754753540099, 0.022534612943433063, -0.02223609690507407, 0.026371982678692972, 0.014265294051616107, -0.014151772659856326, 0.0015463157556191629, 0.046810091280739055, 0.011472264194994593, 0.030099919760029275, -0.04442716453654666, -0.031693842010515276, -0.02446080842927427, -0.028607197017484747, 0.002911386252383, 0.0464488205750883, -0.03133432060942504, -0.10011397169563105, -0.06700830051453395, -0.07089436328727286, -0.034626673297915384, -0.05207325196154517, -0.09488637208563477, -0.1703246791706215, -0.07998092458885427, -0.07105931659647093, -0.013393930189299689, -0.13761673005941924, -0.06779962844006793, -0.05920351424190664, 0.006010030515179821, -0.01937380759770503, 0.010983604426914841, -0.010148801745283676, -0.05165053409043428, 0.055259236220296784, -0.03023983807672227, -0.060840679460013265, 0.0634134975820535, 0.011799644614383771, -0.013143523561079003, -0.01976770636361246, -0.009225583325050721, -0.011207569577874811, -0.004450171711136122, 0.026268879951151552, -0.037932478040481395, -0.03235247500753434, -0.03298661236263648, -0.03018103543031588, -0.06623043786744863, -0.01425797425288225, -0.045745347980459754, -0.027901793146439775, 0.01910815143080941, -0.07084879089858996, -0.07161843963451917, -0.0781579634957705, -0.041951256311666345, -0.02160464688202349, 0.013528220703048335, 0.048951453898762244, 0.05421270251831576, 0.014732678997611314, 0.010354765405412098, 0.04635721103490721, -0.04247808376504634, 0.05622600932739537, -0.03962429272704081, 0.05939222456204485, 0.05868678509315835, 0.025635299826243952, 0.024636128218935568, -0.0031923674955072847, -0.013590216720040009, 0.025385956607240762, -0.014935348699120863, -0.04480332663214795, -0.03161315809027394, -0.03204550714485972, 0.011022878803532138, 0.046532817315001376, 0.055229141017936426, -0.057147134385104444, -0.00048207338389256765, 0.010486056128973926, -0.016484632487983444, 0.0050918330790502495, -0.07576131950361326, -0.01809094222923282, 0.0045097581557278455, 0.01430244147432875, 0.007969300955958948, -0.005626659041898286], [-0.10049002869194999, -0.01567045656034076, 0.007788229441660558, -0.009140809684777798, 0.01328337553840366, 0.0013612630764601428, -0.06828392273627776, -0.058046988366484246, -0.04891431318881256, 0.0018007747297184673, -0.05225400580310724, -0.024301279529872523, 0.012736521049138671, 0.019169753125401538, 0.03029015371544116, 0.027793767654913454, -0.015252606948281523, 0.04480565396810832, 0.033275183827666255, -0.027985918820260594, -0.00867945971858875, -0.030327644783533118, 0.006098136780871613, -0.020663009433332748, -0.020750936282116446, 0.009004409480380001, 0.10027143292041789, -0.027739070674981745, 0.055230029263650976, 0.008345787361062153, 0.027296426937830968, -0.02468937056994164, -0.030452411312489054, -0.04020496143070303, -0.04071562428179925, 0.009190630597239825, -0.03828153784660968, 0.002195677095457162, -0.01063491905173579, -0.017692393300793047, 0.033198395559076326, -0.02709601279636873, 0.007093695205504015, 0.03411283174569929, 0.015647381254722474, -0.09975152204122956, -0.03308890151549718, -0.0763083980058259, 0.0034719907428029996, 0.018680887500233247, 0.008053620693641765, 0.0014834751952232054, -0.08836133158608658, -0.03742166320337751, -0.052405594454857006, -0.021384652697524414, 0.002750082817135198, -0.014848684468929941, -0.025402363658100204, 0.03423467742914739, 0.026941012929662365, 0.012805632900781735, -0.06017105110835273, -0.04934600756702335, -0.022440743455938588, -0.04265352012928092, -0.00029317645644363926, 0.03671711721109907, -0.021187511723966226, -0.03886231045033816, 0.028246297815527333, 0.0003346316168698454, 0.05290841732699119, 0.07557364582898349, 0.011419342967566507, 0.0025075269805022397, -0.020386544120889787, 0.014504001982160704, 0.0016791571466227093, -0.017179318386641756, -0.06074532536807807, 0.0390116796940961, -0.007710404418332036, -0.008239483541331399, 0.014644026645184062, -0.01027427651861996, -0.005096620475444019, -0.03215750344030714, -0.02300021618470157, 0.04220508734115742, 0.010335329647104242, -0.035350724982328545, -0.029170394075966364, 0.03001122662446106, -0.013256643674108884, 0.09707748087251028, 0.06422478891868545, 0.10486408210168763, 0.07571034517272579, 0.13694955312547805, 0.08939019185131741, 0.14348405929354957, 0.13575335317024775, 0.025420782187149552, 0.06665079591960782, 0.0816664287341001, -0.00943328750403228, -0.07233528517492399, -0.0067601083544687884, 0.048741296185918985, 0.003351818555050598, -0.00012129161335686457, 0.04917073493565552, -0.0017912320743904953, 0.008349380000357681, -0.0373100715063827, -0.03576213089325251, 0.00834691379263816, 0.03949733150357515, 0.032187376597157695, 0.05264663728867435, 0.04784467234075682, 0.06467956635795469, 0.12088065180149328, 0.09659569296124798, 0.10978036098917089, 0.13856270252146594, 0.13463379781033954, 0.19486447324260786, 0.12195161731894272, 0.051914724846718545, 0.03402818753365467, 0.05195345791261369, 0.023786712616286034, -0.006418620934334527, -0.06847739501034263, -0.011329676329187743, 0.048984437978451346, -0.005335997237883338, 0.009901740703513427, -0.07520763770864207, -0.011007253576033356, 0.04856251612233856, 0.02178565543844674, 0.02866717839076854, 0.01440064483186455, 0.07501188494872484, 0.00019563150008098914, 0.06623065225550422, 0.1433676965813657, 0.10634429444155699, 0.11701675339766082, 0.13214286138000755, 0.15261386494692347, 0.21958833323639293, 0.13824478138076615, 0.20826977860799029, 0.11515605238098534, 0.07944567737892871, 0.054830591501762595, 0.05898468415127013, -0.06026530323601518, -0.03341759697441296, -0.03007265556363047, -0.05963935635809219, -0.012357466966543553, -0.018245510201956392, -0.019276747254781748, -0.005764870192904987, 0.01991051132741379, 0.024759817784604458, -0.016717774429280702, 0.04575386122927412, 0.0664039238163185, 0.01924763882331167, 0.0612290564164586, 0.014301546907981499, 0.056005282785943036, 0.10190492922158657, 0.04284339208410517, 0.09904989988375296, 0.01582844227618046, 0.12897579281661672, 0.04340916046844517, -0.04940063212613144, -0.0566279936397878, -0.047904664962113486, -0.008155190948830323, -0.00343934196005288, -0.02569951598819401, -0.050530571681796706, -0.0976349824702714, -0.11465854540580445, -0.0475007827507831, 0.008620511394599059, -0.02527715366824258, 0.0671473757275079, -0.06433901817158709, -0.01280359024194203, 0.026245826733692978, -0.004367972068717063, -0.004743312396226007, 0.04113975984999234, 0.07632727976236044, 0.06824087458249847, -0.005805706340202295, 0.0017349641832303878, -0.09280597385822001, -0.005171718172847761, -0.029070576399685227, -0.10118782401736218, -0.05890182743467421, -0.12525537803105524, -0.08586516355981078, -0.0917432896275129, -0.1443044648114732, -0.07707918446631336, -0.07728818502237698, -0.08269490460515105, -0.10507428892603944, -0.07159434789444032, 0.025783910876215767, 0.012234315593872502, 0.009045723693471307, -0.03189624088850657, 0.05570788966793346, -0.016285828112651626, 0.03167478421811452, -0.028254316241908096, 0.05137644469108837, 0.0343298031086341, 0.04176686890793685, -0.0286813030739605, -0.055301258496674506, -0.030435860284695193, -0.09424303583051817, -0.027236692541052734, -0.0004408709602131784, -0.07092687592814144, -0.05732354499042114, -0.16762754647221287, -0.14791657003809455, -0.12259709254102306, -0.07310621079473857, -0.05570456835701994, -0.14245552505993556, -0.13684201952968714, -0.1340927708617652, -0.14979625932954754, -0.014334898945999713, -0.0177122820288821, -0.03943726688944885, -0.017693770686850494, -0.048961850293289276, -0.03726265511545798, 0.012734449074105036, -0.00728217948081635, 0.07517540253220967, 0.011462414281640123, -0.03973456035071888, -0.07360961747406637, -0.09865122540462225, -0.06075142531750967, -0.12230480056616637, -0.08924898482176516, -0.11410737484253623, 0.037885653393653115, -0.0125815292160428, -0.036281746293401945, -0.07223090322493585, -0.1891388346815286, -0.029437490358877168, -0.09198267976329176, -0.0770911327607207, -0.13178830990625667, -0.09243369874691594, -0.08966564434808064, -0.022333162444613194, -0.003236983548095814, 0.05816268107988385, -0.035074402505233276, -0.00897811290660348, 0.04073782247902185, -0.03599256988188529, 0.06531037208719447, 0.015553028185226771, -0.035037963074160426, -0.06727916643074429, -0.16019784455567307, -0.13519824995848817, -0.1575699285262279, -0.18720188406070304, -0.22216577182684677, -0.06776916169878505, 0.07666276410634248, 0.0393887365772431, -0.039356663747186264, -0.04178230363934694, -0.046052245550946974, -0.08891678887568241, -0.09902885630342409, -0.038929919308898005, -0.07839634833243452, -0.07333668565357467, -0.0025617119599754996, 0.0002286421233656716, -0.031199566764828438, 0.05928917154098486, 0.06619401609718932, 0.051804774980264416, -0.026425342969521013, -0.006579626671938912, 0.020537050205760153, -0.10374646872658289, -0.11660014017148354, -0.15122959505155162, -0.16645869962694712, -0.17571325040183342, -0.1966492586856339, -0.22812830368821455, -0.19799396397020702, -0.03362284947632379, 0.14148536239700438, 0.11263861236870276, 0.043773779719498876, -0.03158979639407655, -0.021823294201289166, -0.0623027305472525, 0.018670346464704904, -0.0641213926761501, -0.0709841838215441, -0.07445606842304502, -0.013510749063089777, -0.03347815454000701, 0.010384695131233367, 0.020150306189152832, -0.018175011816673053, -0.03075711284401152, -0.06171656474684153, -0.0751566895067471, -0.05471117533029059, -0.0770879279386635, -0.2093465650365005, -0.23388492315724438, -0.19278319688176318, -0.21174247338256666, -0.21403339945946015, -0.18927290606108874, -0.12291543512759891, 0.06593639569374889, 0.12974928380876288, 0.12762995557298248, -0.03682234415943626, -0.04676320664634972, 0.045821005323046615, 0.09735575857090778, -0.016474458009271806, -0.10324217949287509, -0.07441224795467673, -0.0288056433038881, -0.01941522472731693, -0.005476903765044391, -0.03786649368350087, -0.06288193035610472, -0.002413648402533812, -0.010021501409714077, 0.030612986038148816, -0.0030767858477765975, -0.013957708001064438, -0.13392593792857485, -0.16281573548329323, -0.2206683217567199, -0.1745214371654713, -0.10678937178067346, -0.17297546587263574, -0.122082977529662, 0.0020212874128587837, 0.07558010245693042, 0.20672401339320856, 0.0910509296325836, 0.05950038013560309, 0.014858037183842425, 0.11520192083071491, 0.0012865457638119963, -0.014601940773343938, -0.032519653601919905, -0.023475867311744933, 0.0039016946175454755, -0.040252572489541984, 0.00987406453754191, -0.03909962061562233, 0.034555611907850836, 0.04800724664495608, 0.004331191967933882, -0.02232893391021898, 0.042845373147419354, -0.06595627237657542, -0.1193086427328477, -0.18186198204692453, -0.16655552800189377, -0.071309209470849, -0.12362755237900981, -0.10898713257230015, -0.00941335254926677, 0.010921670505662506, 0.16480355893711437, 0.22162693124688654, 0.13115387444426768, -0.008052144199225062, 0.026899038914794664, 0.027315624340688474, 0.011805505597125019, 0.03436629639348904, -0.0363880292067094, -0.014329813166393736, -0.03441677959200809, 0.02529270037688573, 0.01982808700395851, -0.02653134569202332, 0.057467731234677626, 0.03746613712593181, -0.032940558082994, 0.010126353460462383, -0.007394608296725689, 0.02286732320448627, -0.1278288810920395, -0.18706415620542274, -0.08403111061775739, -0.1319107080881117, -0.09667111731150772, -0.05386670461902602, -0.041974323270785804, 0.08813191906505068, 0.18860597613365387, 0.10875938983564921, 0.1127671008510023, 0.02150571409611253, 0.005939434389480471, 0.034585377779925, 0.05036802127147051, -0.01623907002492221, 0.07515756627811876, -0.07097295853143568, -0.05510111261286127, -0.031132854704451745, -0.00626491897516067, 0.034245549230961694, 0.06583302997722043, -0.01584878735835342, 0.005295194556935644, 0.020486375530855378, 0.013706147091127177, 0.001990009831934156, -0.01751693471625807, -0.1349069692821626, -0.09918997702179241, -0.07417614302282408, 0.00965965176958495, -0.0261317743133399, 0.0904468664101852, 0.09193479768777947, 0.10342809833084823, 0.11016651960340654, -0.012147428270037947, -0.05126234958151059, -0.031061653715284274, 0.01950320932741102, 0.06055404942610637, 0.07155205528619352, 0.12391912292705405, 0.08820528866586573, -0.0736804564129378, 0.02078958322940955, -0.016796865710985348, 0.025663600494069943, -0.02674399177654577, 0.05687063240163882, 0.0072850313465120725, 0.0458002081774537, 0.01833383547389634, -0.0013008595803070677, 0.004750495605277349, -0.05931772592285995, 0.0074242654073014575, -0.011958399214353859, -0.013584490065567952, 0.033429723977842746, 0.012594068284586563, 0.12489654058342899, 0.10540113944075069, 0.06634107982427238, -0.10583163857026412, -0.03916986023827582, -0.02228257245750952, 0.07322219116988286, 0.03522390806508803, 0.12789679356196415, 0.0848507908266144, 0.06738451911113719, 0.04792102817226286, 0.00514678187866566, 0.0033761977349701195, 0.004423546549356701, 0.01595296936347736, -0.07407342447170844, -0.031018285949504985, 0.04476592635642343, 0.051329355014521835, 0.0702018511473556, 0.017781424437727497, -0.06016563467792058, -0.041112202930653034, 0.006751392552002354, 0.03892939948723739, 0.10154561299833538, 0.0938120866345432, 0.09397051851778139, 0.006608158274365439, 0.013587760369127493, -0.01281701175151561, -0.01738342507652161, 0.034927299370946914, 0.176937218603771, 0.06970638586800335, 0.12263300618934027, 0.04555814030554729, 0.05181423430080743, 0.08591805578971336, 0.057216086712321174, 0.04063291388465318, -0.057215130680437015, -0.022262405460557282, -0.04659949100284593, 0.01561941755458743, 0.003878816516901266, 0.04899127217809442, 0.08907241509629418, -0.016343102224914037, 0.007443380492477256, -0.04365221148643434, 0.006599652898774703, 0.0606240318965963, 0.08683006780686886, 0.11828165468827996, 0.039809264714564675, 0.04858644165996719, -0.029440265207629535, 0.06151516464362861, 0.11377114796243887, 0.10818393726860129, 0.047561383919544904, 0.07667949410157263, 0.034043656063731075, 0.11835542209068992, 0.05873131083894759, 0.005470733683693649, 0.05866375219904749, -0.003863455818066919, 0.04884942740245599, -0.04709781833057888, 0.03738433237253532, -0.015375178577387351, 0.06109289899154113, -0.002970455883117373, 0.10702443262121966, 0.07626771366921156, -0.0057788145346255124, 0.001461799126791272, 0.02796620066187658, 0.07708806840052998, 0.08726701878025855, 0.08717479641284964, 0.01026732953871163, 0.036291524738139375, 0.06735010371001651, 0.11644678408923148, 0.07784798998673609, 0.06173091023029855, 0.08715824489431728, 0.08234315501176931, -0.0008346819061956167, 0.002585628669116549, 0.011374340824956499, 0.03318063106693657, 0.0011772166439440268, 0.0316654140014769, -0.00920954499877035, -0.02729062026581447, 0.05867267145054924, -0.016284477302330094, 0.0024188036948682005, 0.029619638210105607, 0.02701418995686328, 0.08693659547652016, 0.07560435206351548, -0.02535491699551817, 0.02968111571617013, -0.053641362787358496, -0.08699262738162171, -0.017242217246737863, 0.002246581985916491, -0.013302776646078807, 0.07302542434667858, 0.04887047681394405, 0.027393649914847256, 0.06325658570685926, 0.030215461964401755, 0.09981646692575197, 0.005325099434078046, 0.04831187488234396, 0.006875390080998167, 0.02676687385123516, -0.023746934131160566, 0.007642250936396056, 0.03192104257416097, 0.008765973781681383, -0.03385610109336774, 0.02807302080435715, -0.0323777626604662, 0.009861251660070285, 0.0703337125766362, 0.11208929714004713, 0.03441382642678004, 0.08879499431194084, 0.07893319003169742, 0.04844101100968327, -0.09203401709850796, -0.06955218041318047, -0.0538115600508663, -0.09564706749760009, -0.030173554643883868, -0.00996926963932689, 0.042309712354898825, -0.050463217835150946, -0.06396621467523912, -0.022122918305375577, -0.02024665511242386, -0.0010809480743026792, 0.005056390102997202, 0.021677088696827388, 0.006839127031227159, 0.03411748203717961, -0.015680433339201962, 0.001645909112819223, -0.012021600524250125, 0.029608120759204513, 0.007372991754551628, 0.06639922271308057, 0.029601641478135213, 0.053602073853266624, -0.018558413009036073, 0.12561168210982723, 0.07567703736342063, -0.0331549765195873, -0.06732528402595526, -0.05945885333400634, -0.06632838161341843, -0.1566527267848428, -0.07152991539362477, -0.013224016083934042, 0.042067583640712856, -0.03298683335979078, -0.060505236991071465, -0.06147032646036573, 0.0059542411086181465, -0.030468518129296854, -0.054131898243423536, -0.019209624815338198, -0.0008558072464052192, -0.04233895713261796, -0.011882617763091883, -0.055552621137347005, 0.024258234004879926, 0.054440171914803624, -0.013423980775392447, -0.0017019421057418997, 0.010090149892762978, 0.03678304457427307, 0.02452322543559786, -0.06084662306568531, 0.05172543830891177, 0.0703222201725425, -0.024284844952647378, 0.005753032491973563, -0.03016455801903504, -0.05085379034003359, -0.017764683579057666, 0.020592638055091834, -0.06374104931546862, -0.03986879486451036, -0.0567423492593261, -0.07370394110913153, -0.02570252275229543, -0.0698379119370591, 0.004140007540372222, 0.008391965772309828, 0.01727664234681783, 0.06171233038896264, 0.01622087652653158, 0.02370884599753595, -0.0034203288446791372, 0.028627780079179342, -0.017147399524569285, 0.02709936468397452, 0.03356822478525209, -0.0020703142078087673, -0.006573392629249219, -0.030214251121027894, -0.023063015046434245, 0.013381877689005974, -0.010200718466160438, -0.033729168817857196, -0.016258911941633588, 0.006299186399920681, -0.019797431488000918, -0.0395114717551419, -0.08054502466177739, -0.00643626038550807, -0.04371109328055904, 0.002512127412485778, -0.0676129790635218, -0.041399867402863375, -0.04010294756913782, -0.04201256473449421, -0.03391547883674065, 0.002632938366185354, 0.013004842330004469, 0.04214232156429751, -0.03718164848557329, 0.018102045000002658, -0.026885953452815716, -0.04249301024592537, -0.014198342557591413, 0.032088609797467395, 0.03530564575703812, -0.019031089472761324, 0.04371828749916749, 0.040839697612121174, 0.022243734223200994, -0.011017824282976806, 0.020401547397488246, -0.04296395866714171, -0.00883846664857694, -0.026579625798736295, 0.042569055008434005, 0.04907581350875918, 0.03505955892189542, -0.01088917392537944, -0.025396053783099275, 0.0208537709276943, -0.06003312941444787, -0.03668484069929451, -0.020416930579233415, 0.026084127675563954, 0.04545698862210359, 0.030692988528181635, 0.050193982006210724, 0.06089445072402278, 0.05015911865750887, -0.006959568384351709, 0.0162180298613698, -0.011030688327798119, -0.018725091740788614, 0.009998723913460612, -0.024372220686118946, 0.04107649614866838, 0.007246253776399026, -0.0042796007450908976, -0.018696069486164296, -0.010941331923006946, 0.038754010009449134, -0.05542231588507264, -0.041029085097758766, 0.02948433492639271, 0.011423366043291977, -0.03834113689111039, -0.06300261510842409, -0.031872561568659814, -0.004203303549269165, -0.025971100807781415, -0.031406775421873256, 0.04727763031885003, 0.04329559488576014, -0.011128742250629752], [-0.04582700880628021, -0.015840967693153744, -0.04848265191315091, -0.05394654995782839, -0.026287622079389145, 0.02046788067897772, 0.01182632049581498, 0.03849899075792392, 0.0036966407033517824, 0.06559559350230933, 0.02653689135953512, 0.023685953512304167, 0.0006322513328822806, 0.02174262062144508, 0.010383879746903463, 0.05232270394115112, 0.07520030256909814, -0.01644717040398082, -0.024872668402041758, -0.006047700424020345, -0.02829445248087958, 0.04925706385111068, 0.037335866876773226, 0.04437524085856982, -0.06247608877580906, 0.03066805522170637, -0.017548842209896765, -0.00632505919952531, 0.03747997008100541, 0.007434908260146939, -0.0702285695577804, -0.03468938131218782, -0.009130319256896719, 0.08280321937286135, -0.011804951009084115, -0.023586937109115264, 0.03384033800083539, -0.029167350305608325, -0.027485286908657064, -0.0024924933701775914, 0.02333479222464241, -0.01736922801112597, -0.04606687015642007, -0.01835416152064727, -0.05479565497551308, -0.007908701924376234, -0.03252700935881166, -0.026158468488489788, -0.001108014537351682, 0.04648204794334684, -0.08925736606360357, 0.009898154463940637, -0.001364215500097899, 0.012896183406398956, 0.017388310198396643, -0.06256279015762477, 0.054094401273781144, 0.004309152467064741, 0.017126445763655476, 0.05135064276794671, -0.051556463017267434, 0.013544213431350169, -0.04566884271130317, -0.03735015885160067, 0.027531117690647377, 0.008473683826638422, -0.010145087771146099, 0.028249161580894983, -0.024544433161060954, -0.007217434415689504, 0.06565055363604246, 0.0020476920484160293, -0.08959394417196068, 0.00046151461285655484, 0.03605846192494891, 0.025212205636498335, -0.02312761362128657, 0.015889558543353225, 0.0032925280791857624, 0.015066577654879159, 0.0031049963867692027, 0.005462757460526179, 0.045615412721172095, -0.05389730182347723, 0.015844575194849247, 0.0612454970795913, -0.008583523863712719, -0.036255976488005756, 0.0343433347739468, -0.0032898396328716706, -0.06695961125499728, -0.07385490164155611, 0.03264929241058076, -0.008944019415918675, -0.06724993574443168, -0.06417679186780575, -0.026886967320067092, 0.07467433916036433, 0.048536422102761524, 0.038395380805562145, 0.048680769508041906, 0.020836123582422234, 0.05117426486103271, 0.0492920430804457, 0.027624850340487315, -0.007843719425088977, -0.00110197796529106, 0.01124807345809874, -0.008967756550933226, -0.0017288511043605987, 0.052906040963421205, 0.02671611984051943, -0.04570632647119923, 0.04918362162931718, -0.05677141151316417, 0.02874549846112251, -0.05200248266658399, 0.03987482317780534, -0.045392694100653636, 0.012095089118365305, 0.03436576673647891, 0.013807072379975504, -0.018510557032315758, -0.003278329664896161, -0.07675381974919704, -0.05474483140537969, -0.007227936390014405, 0.015495100292920063, -0.023424854007574547, 0.05762846640378874, 0.03337091453051651, 0.01352111174520637, 0.01519957300486763, 0.005023754458190885, 0.02687871528887309, -0.012444281222892251, 0.019984085906972034, -0.003482980901742323, 0.015502235609765507, -0.06888319028783517, 0.02599372827816137, -0.0048170337665801866, 0.00024266817081316063, 0.0378330628614908, 0.050847814253183826, 0.03276176493025594, 0.011721313089963313, -0.0185797520541052, -0.04521849106317205, -0.08468039532402838, -0.0726736908951593, -0.05442085055458741, -0.03034603803618384, 0.031057844717764016, 0.07444908433240782, -0.011610008958294992, 0.11574561688437182, 0.11115403144411022, 0.09422433786503809, 0.09695597187640796, 0.0496488211204025, 0.07835351736180617, -0.032157991509500584, -0.0442338813494082, 0.033315900157576975, -0.04827056481718155, -0.01470110333740475, -0.0006938805638130629, -0.03608731288555612, 0.027542185786289232, -0.016080746605782827, 0.02581697316050996, -0.043259536635351495, 0.010547757466771796, -0.042256037616010066, -0.043780634162873956, -0.07167925107998709, -0.11831318586660657, -0.08953270040625556, -0.09219912066940616, -0.08503267871926393, -0.07945682467181639, 0.007525354453016521, -0.05372311082064344, -0.06451600577020433, -0.036833008820091134, 0.04065223488370221, 0.016694029266879594, 0.0380228272655362, -0.006120152541006053, 0.02921833194913935, 0.007284741990376106, -0.028794248933793846, -0.046406297466425536, -0.018459919144389617, 0.050922398047955904, -0.042946574449351106, 0.036189278264121015, -0.08946764408368663, -0.005604926340750128, -0.04902163455621503, 0.006163298405334006, -0.0651258933639531, -0.04429004934952714, -0.10131196566653931, -0.08094190683400031, -0.046285457719819435, -0.09028837074452567, -0.1197578658062172, -0.13395092870200037, -0.089977260002235, -0.17585919787215565, -0.12660376634776838, -0.13332619857693614, -0.08261560578042133, -0.05730288629407444, 0.03747999762098228, -0.08178343917208439, 0.017072727117452936, -0.019512471671055936, 0.059483205399691805, -0.05715481669910339, -0.05319647128981312, -0.03650702723125553, -0.019847962242266506, -0.034450017512340586, 0.00361246199001984, -0.06587159648350176, -0.049639278818093616, -0.0022405674802825027, -0.03619408115139314, -0.11093731000113499, -0.11624811478113534, -0.0700865803503558, -0.08556373229934339, -0.08968010970273899, -0.09645121623481394, -0.1617256961491559, -0.1636037072380954, -0.10412286847405562, -0.21265927982802812, -0.1606765646685144, -0.09949599083664902, -0.03825248993160962, -0.043795800665711614, -0.036593077814090734, -0.018100688373770595, -0.0035122361366146312, -0.000428922968531148, -0.05600804434911425, 0.010723104879609759, 0.06660045070351166, -0.027487824004368177, -0.05674259741296175, 0.032526090847431105, -0.0038710952771473235, -0.0007118065077468645, -0.004627016744652187, 0.006485398531089052, -0.05378647419409227, 0.0017190113648872176, 0.023233224463601935, -0.016620701754948078, -0.06895606346708016, -0.10052075304028046, -0.08876636616246629, -0.01825977330138698, -0.13906455665578812, -0.2049993070699923, -0.1009417326555029, -0.08505364041343713, -0.034211138213440226, 0.00465446208360338, -0.10872628609848507, 0.011814140969983927, -0.052596033260813496, -0.07827207979340806, -0.018650976281679492, -0.012609109968223826, 0.03157773793217605, -0.03694644255472444, -0.022024044852301385, 0.02294595802899704, -0.027072761648089617, -0.011847570279303719, -0.035404768153652226, -0.01722299326552708, -0.03994667498013572, -0.022569529789779476, 0.023141101434389362, 0.024947805142997444, -0.006475616509043119, -0.029280843874333006, -0.0024550395751252604, 0.07835835388265712, -0.03986887025090016, -0.06583812048797738, -0.11448673255134836, -0.054560626460822645, -0.0073951641125394145, -0.022724883135032566, -0.0218947906026486, -0.0020921428445406895, -0.006317953824232039, -0.015670142458633598, 0.028674605450171177, -0.022144207916939794, -0.04527350703000315, -0.007331540485518588, -0.023971567434428374, -0.013880607961939908, -0.08592986889262974, 0.0022601850040252463, 0.039951458765301255, 0.0857347419128113, 0.02198373630868155, 0.06137981727042767, 0.051825191942746936, -0.009704422934843035, 0.03246960136996142, -0.0016087359474651138, 0.06957610718697226, 0.20129619487686468, 0.1373102600355763, -0.02128913317974934, -0.041140566730810645, 0.02281003009148117, -0.024573937682055846, 0.06600431700531607, 0.007649737952941001, 0.0583440799663944, -0.021093396441296396, -0.011269883064295787, 0.014917307048574488, 0.01443102598677692, 0.01491326870613434, -0.07380378732812609, 0.03347757491148821, -0.04792915120173387, 0.018796743657758457, -0.036629895063098813, -0.0377096239959615, -0.010592911856183584, 0.01756118715705078, 0.027226604873051858, 0.0375308283215658, 0.060875358906610215, 0.11653480511915133, 0.04053817065010497, 0.16872004669796148, 0.24143880250814215, 0.21484705492691966, 0.039820449540899985, 0.04421554725634748, 0.05000257119616582, 0.06927801017423203, 0.04921750699878302, 0.017187305034480647, 0.00812287376930814, 0.04562188068465445, 0.040736136046587094, -0.04380167640944651, -0.024110708125266802, -0.02206419098640216, 0.05352794165657685, -0.01954972646849771, -0.025724698368681336, -0.051418793125121244, 0.002977318966974986, -0.04106041908497598, -0.01608901813876751, 0.11774616301871987, 0.06048587166676645, 0.06722418491367335, 0.07818454613454227, 0.1249776332429812, 0.06597181310462868, 0.12857813601506596, 0.3506319454947839, 0.21647426479810217, 0.04121272052165322, 0.08451039040266535, 0.06629943648231541, 0.051292378354188324, 0.07163963592342051, 0.011314807039401518, 0.06483623603332168, 0.03665674354586773, -0.020363920983847015, 0.0025152284657661006, 0.030713337967173432, 0.0029532608175788263, 0.030904613443400154, 0.024405652035041043, 0.014881313459010429, 0.03895627956499552, -0.03220943231055047, 0.02667326687619781, 0.058799652929865096, 0.04520373912838863, 0.18185679952465877, 0.08971560422352973, 0.07464178786823641, 0.061640751528997006, 0.08488476644052023, 0.2946741923546945, 0.318815080511886, 0.21322291015476688, 0.009894985502808372, 0.02800941519028166, 0.07751343399270597, 0.017793750179118727, 0.07421648062110407, -0.005044975836222346, 0.02632890871688021, 0.03865112224926055, -0.0225346293818793, 0.014401833004851719, -0.04330679472004712, 0.07586656734383333, 0.06704330446887095, -0.006085771532163331, -0.0037412847663051197, -0.02487392751309824, -0.004147537076421016, -0.07595666396182758, 0.0011609468002885918, 0.042103109072434974, 0.07958128254082615, 0.11319799934154981, 0.06817662922974425, 0.149469225730771, 0.2140594583237132, 0.31252348405659375, 0.35162670197207374, 0.1801903724503708, -0.028846638407341287, -0.0008597876470699508, -0.011379941203319933, 0.04860711318048163, -0.0056393303587131665, 0.13478629062824823, -0.008690865095421524, -0.05450816405212941, -0.0644106264852252, -0.0011219924900108607, -0.027748773475252283, 0.0038491630319636384, -0.02417120408991811, -0.02367171632526066, 0.058909980632311086, -0.007215723122840644, 0.009350554972530088, -0.01733544139029914, 0.015815466280003226, 0.007004179153413033, 0.08780374016220972, 0.1331724219525618, 0.1088755180656215, 0.1607714630205733, 0.16208945000773645, 0.3118911363376742, 0.2613624171418332, 0.13197969570294446, -0.009972192536363065, 0.06289837169600482, -0.02915258885638733, 0.021753002422191622, 0.08343324966831195, -0.011669929058510853, 0.09402563189380359, 0.00459438594595283, 0.0171569732586493, -0.006649927559778962, -0.03188624653178628, -0.005113467184998607, 0.007639456177460575, 0.012431492601547092, 0.02651695631628561, 0.000417340003725464, -0.023566112488026227, -0.03898186043976573, 0.014265168950865773, 0.05242802032742871, 0.025858886430146676, 0.10333093928184381, 0.06933770033968065, 0.06836895254308818, 0.26741735308407255, 0.25690357321236157, 0.19934560838273546, 0.04574266358697797, -0.03926347554449794, -0.10811364569870704, -0.05776444863381586, -0.05768246155062057, -0.02128688003562397, -0.004002543966634091, -0.022430887385271006, -0.007075144752703038, -0.022659849804915397, -0.006956179294912125, -0.04247804817841189, 0.03615810883235899, 0.017816187244508154, -0.022432354760132302, -0.011752045929984143, 0.023186360934096307, -0.03558197439271156, 0.022789889625416983, -0.0568718833558369, -0.052538434680195444, -0.025730468406452732, -0.007322919268502721, 0.11214685015266648, 0.135411953284693, 0.12182936192021157, 0.12182635921047405, 0.02689742449082694, -0.09398780173650165, -0.09844825832164651, -0.03287085285653438, -0.06252997896167085, 0.040420036448316654, -0.014464018722622518, -0.018817909115485105, -0.056275363797903925, -0.030554712964711652, 0.018662583579328703, -0.046463799996617206, 0.011546200230710272, 0.010608983861004576, -0.012863783976437285, -0.002510951159846492, 0.02916904751911856, -0.010220451801430185, -0.010938187240478906, -0.08522319498321092, -0.07919232038126724, -0.028518461510795557, -0.03212999644745261, 0.011737449905279378, -0.028930482150128105, 0.08028766183003126, -0.030905966885514505, 0.021470637660239107, 0.013783741732251322, 0.01758698738425049, 0.03481235424238294, -0.010999013722291017, 0.012950352288219886, -0.020089062177536057, -0.041686225330960794, -0.0902853603759968, -0.06252494963038688, -0.026184580031017347, -0.04850230257674168, 0.007329571509652415, 0.024255737149272975, -0.013910231465177126, 0.06079684934199285, -0.023055985966874436, 0.01915671802824312, -0.03464883815039635, -0.030740927826583088, -0.007855684503369867, -0.09549745283547882, -0.10482522777802297, -0.07109366217506963, -0.0074094806825188595, 0.004857714780089777, 0.0012185527939411636, -0.02711899713435401, -0.011093971345831188, -0.03717701807418535, 0.08722413293964132, -0.015244341461088096, -0.03532475009612573, -0.005704744293265891, -0.057329818172101345, -0.045730880606722694, -0.0899136774572011, -0.0372701827883003, -0.03569624587167263, -0.07096863626405334, 0.010039354153956279, -0.0030518615344330897, -0.006031200553923683, -0.008323054319933873, -0.0007151858242186871, -0.021470323940078074, 0.0018607523380802936, 0.005687551305028907, -0.04123160214940063, -0.08232367729857262, -0.15088237513976915, -0.06181834868185449, -0.1118372817537498, -0.0542881980734863, -0.06654531700405071, 0.028783643449839785, -0.011385275858426924, 0.03647199502307494, 0.061202675208907924, 0.04095295440022787, 0.03501825728711716, -0.07105619875267602, -0.08240930105844939, -0.0030688077744778866, -0.08512540067429537, -0.046529912835614785, -0.06294017788229339, 0.002347057527501728, 0.001561183756885024, -0.015150029154149635, 0.03003568283678196, -0.032251195862519934, 0.01598424454948256, 0.021949471060220216, -0.05106770834607142, 0.008490022340311782, -0.03383288563872559, -0.0016690610837250702, -0.16469036523416286, -0.04025342852920282, -0.06677735842633682, -0.1071143483196328, -0.014039748770886555, -0.01789929222781971, -0.03756726349480519, 0.05223019886520232, 0.07093476016722927, -0.028916046731206842, 0.02895664157961257, 0.015862659096140427, -0.03662812657239778, -0.0374271856023537, -0.026369211195817446, -0.05254841036118538, -0.010136255211448689, -0.020554640561251017, -0.028451162576923407, 0.0037799391527838207, 0.003089493149469019, 0.029189981766209693, 0.059846586399062526, -0.05048272498018182, 1.1180748547287954e-05, -0.01736964785132265, 0.027494605482956513, -0.04315072700976243, -0.01873159673589517, 0.05348017935669959, -0.060596462106862065, -0.031876933748561986, -0.016295790581215122, -0.07137937113995599, 0.019394075645019587, 0.00949864386009958, 0.04262024836714345, 0.06682660816452776, -0.0028744069766211723, 0.03797300891476725, -0.017754340133381154, 0.05353633904220342, -0.01061349485173047, -0.0515815902541256, 0.012755564150906529, -0.049159861743291504, -0.03415897041174184, -0.031218964292233257, -0.05292858313098548, -0.022654868798660886, -0.02563984281958671, 0.026705109235170048, 0.0029648609397600065, -0.05410741877259615, 0.05465990287959549, -0.023551121474209964, -0.07810016259918738, 0.006184362993169165, 0.02722619877765441, -0.07016094566080731, -0.10448371237032276, -0.08818747494776094, -0.0022918366473600174, -0.03166680067348812, -0.021140988003970046, -0.019480132060534283, 0.011075870059164727, -0.025105785778021396, 0.03446862898751604, -0.009658037036274686, -0.023338479606068822, 0.001124525067353898, -0.04537161009982755, -0.06135627162381967, -0.0182118763893809, 0.06538946321512035, 0.016880580908200802, -0.0686517597650727, -0.012179349151290098, 0.04282213880176955, 0.0728613949597065, -0.02843866449925489, 0.029808441188466667, -0.05547377394100435, -0.05557641063906439, -0.06563568335364081, -0.04398079096529116, -0.013536913173063376, -0.10083470107497794, -0.12504335195542565, -0.08739262247451947, -0.031111259912902596, -0.0007708837273227738, 0.01059690424134335, -0.009076045167510172, -0.014446484043957541, 0.02364009082870252, -0.005099297208849909, -0.005518159213677489, -0.04800334034113355, -0.04296868187169008, 0.05420497394611519, -0.023755166032131934, 0.006347726063577839, -0.021953427413589216, 0.04475845068247384, 0.0030567682952246968, 0.0051226789703833885, 0.0028631743604402107, -0.0025306780227045446, 0.023071197277459057, -0.048645579638713514, -0.034182023049263155, -0.07283240184358328, -0.015469641682261398, 0.012557587095290795, 0.011684724580340176, -0.060630600629704254, -0.044050497193690294, -0.00042115546700552365, -0.031404095053433806, -0.020792609417382448, -0.04156894862184321, -0.005702573731311183, 0.019123367519087237, 0.015263157206939874, -0.02372188694440245, -0.003395475072890668, 0.004250723937857222, 0.008212825624982628, -0.01653383014545906, 0.012877078650869778, -0.022089262539927525, -0.09550470152284539, -0.06038649515506677, -0.030486363001268585, 0.015642430656658497, 0.019773711696657207, 0.03298482495729739, -0.030674244726763576, -0.08092053113400498, 0.05696421135906693, 0.029490007337577354, 0.07346281737053127, 0.040614510760849494, 0.04306105938385931, 0.010999906310359513, -0.05437461859968608, 0.06016112303899195, -0.033230076499381915, 0.0064830757405435905, 0.0038011587732993887, 0.07469813807332927, 0.07617203633524566, -0.025590718038333436, 0.01823483561470044, 0.04909777929375856, -0.010385212334829183, -0.02202183887652075, 0.0005247141222199814, 0.024094802268319396], [-0.03711905838322033, -0.035517303249523444, -0.009848464014990548, -0.01649246635272021, -0.014533260665444385, -0.011807322850816973, 0.03190127110247759, -0.011185078246300327, -0.006220351211664683, -0.04189919311764598, 0.02321097359709505, -0.0032983928051875584, -0.04967918554741441, -0.050874891019512834, 0.0020534777316615, 0.0015205924473125614, -0.029448835840322953, 0.07473472358471697, 0.0014548219983158393, -0.03745654777317487, 0.028901777426355812, -0.0740414352929038, -0.005110940081762484, -0.029732525048028046, 0.025497536336038358, 0.02737843499419264, 0.025171454053798475, -0.04555031653703847, -0.04151846275157898, -0.02596144026108027, -0.02427825358978524, -0.0420240645092579, -0.014091397481709794, 0.000393765567442639, 0.015291289171104332, 0.05666867211670407, 0.028875429694506165, 0.04263680369810728, 0.0421276661679453, 0.02845841832701373, -0.005706793635393808, 0.04730956919295484, 0.002466080531848023, -0.003919249775830212, 0.02702069368492269, 0.02835718587190706, -0.013939369266345265, 0.008941644995351687, -0.014679453007696458, 0.0510442726382934, -0.08582331804294388, 0.00948238799384869, 0.044468547777315154, 0.0031993438830000523, 0.006958214042888254, 0.016521596945616, -0.006540570353925815, 0.052359084725641394, 0.06720998832559706, 0.007925627195374338, 0.01808284022068189, -0.09812295983152752, -0.019558261446082695, -0.021948972544546964, 0.06483170510330026, 0.03575676383646887, 0.03814417797504762, 0.03685094465273565, -0.05324617982062568, 0.042699364428943586, -0.06825743475062389, -0.024426558878327793, -0.006775390322533024, 0.03283288920737033, -0.0008690629570105029, -0.04925155284523645, 0.029620149706645033, -0.0167622588502086, -0.0748894636941074, -0.0001787227133491907, -0.026177899734555563, 0.0029440628859974272, 0.027074436395290738, -0.06413240521028633, -0.0009630606559578416, -0.03446657987039419, 0.04350235066700355, 0.028152487242728636, -0.014892424737119794, 0.012892440732771928, 0.002294498655327701, -0.03319754083951057, 0.02899574057845752, -0.047285617731043846, 0.002990948825823412, -0.03317597160166628, -0.0501699371853192, -0.012175819912255127, -0.04016405300726928, -0.07364654777785333, -0.09505224337961803, -0.09232440584930915, -0.13322498113927433, -0.09631723778425047, -0.040561238599403165, -0.04861187975242441, -7.14198543458132e-05, 0.003097164817222415, 0.005476417237100408, -0.014184837305018728, -0.0015140186752965951, -0.029276611449330848, 0.047163725894607655, -0.0011120072701652447, -0.022767224463465893, -0.0007584255012108881, -0.012564481576475852, 0.015215033871955762, -0.04710035104386899, -0.02255051521798327, 0.007134394966344832, -0.022475801795171335, 0.024082586726683692, 0.0873133838240783, -0.020478102730459406, 0.08293348412677785, 0.05893546164436346, 0.05808984295099337, -0.06836618931804758, -0.08903402873318098, -0.07211325980112977, -0.060655555922243365, -0.09310349493966164, -0.035218981489540946, 0.019965748858788195, -0.009313012327914502, -0.0023988909653321613, 0.023601106226505998, 0.0222765686058465, -0.009629391541136283, -0.0012290086336708885, -0.0005416524639827711, 0.017396080916336258, 0.03090250392913952, -0.03134535210833845, -0.06075901808919915, 0.0038168527171501985, 0.0528178697353613, 0.00826903787732505, 0.06471929612853883, 0.023833795475395173, 0.09166968782936373, 0.10225324276896994, 0.1144542261501861, 0.05818250021642928, 0.0027062732860223685, -0.05325776591684987, -0.040567438882933, -0.013457726500481366, -0.08146650146506604, 0.011126020724757798, -0.04301266801763192, 0.02414645445861601, 0.030447973164976102, -0.006371624033300243, 0.0022703749584265867, 0.009533150918418895, -0.02987790801019824, 0.036942933725133104, 0.018562707114596125, 0.035914842293752275, 0.012818831876529343, 0.04507921686466869, -0.048464907192409847, 0.05854571409523704, 0.014703481168094884, 2.2108426761224652e-05, 0.06507163974975909, 0.03933428419845976, 0.06720953077757985, 0.044422557748381414, 0.09092294239768348, 0.16734287231214487, 0.07982488387539931, 0.08201465171705774, 0.06258667496105122, 0.028050067086309395, 0.03598970861022067, 0.04287957007839289, 0.051445712878080106, 0.05520838045309652, -0.03159745827197971, 0.025859738669603397, 0.06563218493749691, -0.017295414027006573, -0.017306536180480232, 0.05203807525443841, 0.01737823600667543, -0.021662084698334624, 0.016146479384290594, 0.11997808043832815, 0.015847733114207785, -0.05177289978936485, 0.06427310252342827, 0.0430391880526623, -0.03497360934245687, 0.010451892681958053, 0.10663388343150164, 0.13058590291387745, 0.15017476676167735, 0.22960371341186853, 0.1202111446993909, 0.11102620446795115, 0.16273543569847204, 0.09804271246417436, 0.12498737911911989, 0.09511911258037008, 0.11385901648653265, 0.09982432770362469, 0.09376182975893738, 0.08418801578630651, 0.024905354240498955, 0.025283623559871342, 0.027718307254004614, 0.005784632180218122, -0.002026149469967937, 0.019977909163149104, -0.02641963355247465, 0.011486966986042894, -0.022862350329757038, 0.09004665685931226, 0.07590177016393472, 0.01300911725566774, 0.03176172593651222, 0.07082500292533381, 0.12114619857311182, 0.10689027699856161, 0.11384420640805201, 0.07218689821387034, 0.16560303733583212, 0.13019467186782752, 0.180149907829402, 0.15652518855521644, 0.12718103120562627, 0.11348458774471003, 0.12757907745021388, 0.13706998322905636, 0.08780298165175597, 0.11177023853946913, 0.025461401526176392, -0.04321902716555524, -0.042865349038925415, -0.028263485338781934, 0.012934982483979295, -0.01321181776282808, 0.035547856190858505, -0.059294954730466316, 0.0216591847671031, 0.0752920264802885, -0.008091630418935925, 0.03710851684221311, 0.07165569443770137, 0.11768961778741148, 0.16407626870403413, 0.07735217659043715, 0.06674321167900864, 0.1149205937916208, 0.14948670899689379, 0.13247445431068364, 0.11267351473184455, 0.09637511578059053, 0.10449322111580643, 0.07346069557075269, 0.14042934456164122, 0.0992323459048362, 0.11510460190949147, 0.08234559440655434, 0.14060562373063698, 0.02077452253749757, 0.02235613807305261, -0.03484100283121188, 0.004994157373842081, 0.018236246047358445, -0.008292651313705896, 0.04984184707031918, -0.02720514438959096, 0.06982717012129508, 0.06584482845027943, -0.022788863860353812, 0.020581132566511017, -0.004892701739992816, -0.016503304236111228, 0.07263201306278776, -0.0023304749414143717, 0.07391154905041027, 0.11493098163604605, 0.16812775431890425, 0.03125764338024182, 0.07122790749031867, 0.07074922590472064, 0.14544277594743854, 0.06344241954310811, 0.10453503494654949, 0.11814247321632806, 0.024947258390872848, 0.04349557821649494, 0.00794147365055546, 0.03055938286580823, 0.0256976984537078, 0.03536677173807878, -0.010047759735134953, -0.07171953835700222, -0.014696162058246112, -0.05711104840593952, -0.045482995381785234, 0.012988360346816153, 0.010322440200014596, 0.019099088129958912, 0.02679381381548227, 0.0050568265715509216, -0.08033246329591862, 0.04192345459104522, 0.2226077308115064, 0.07502262493893853, 0.05310767677558971, -0.04758816417477782, -0.042512893435111776, 0.07588424784626024, 0.013264773773485266, 0.015468869383583243, 0.05513770773245354, -0.07085807925660702, 0.03156500851565051, 0.020352995375544584, -0.0006409065941116589, -0.030349545017501898, -0.019833788770872923, -0.009569254256589468, 0.015708396456589856, -0.05290203674839328, -0.024662139122721607, 0.02188326982334789, -0.04206007053338628, -0.026492538562563107, -0.005588317877640153, -0.08185437460095987, -0.004132925522027814, -0.03985451956790667, -0.05377718780234305, 0.0834308251616675, 0.1493013791505085, 0.08587780426378143, -0.08220458594610362, -0.0285855840843891, -0.02070734839311058, 0.003530746784389405, -0.05659600294763067, -0.023383154913485547, -0.05963049635592392, -0.041219100801950084, -0.039508264264208975, 0.02369239377019229, 0.06367490012697553, 0.0017617382889774172, 0.02409115036697255, 0.0603054438642126, 0.03119622321008567, 0.05435433353138843, 0.03242769348407203, 0.01650730838902979, -0.08915466063771484, -0.06974649567684596, -0.04678466185105837, -0.07135384000741926, -0.13474765206227268, -0.09758093528519887, -0.06729854159216683, 0.05221885338929383, 0.09297637727229259, 0.06809681671599134, -0.06968331752577468, -0.10864939306374854, -0.03985154268531048, -0.04563286674666731, 0.016569149641897468, -0.06856139130511063, -0.11273486538551372, -0.0677823102955502, -0.019367698716532423, 0.02402921729529051, -0.047099461923097635, 0.040009867301965, -0.01461829875551117, 0.01979738031585432, -0.02919551232782809, 0.032207616264934104, 0.01699962175598681, -0.02962497511386623, -0.06954657697196813, -0.07955826378627123, -0.18428185077715487, -0.2010151464327664, -0.1343439985250206, -0.2164525934296802, -0.10865195007033848, 0.07998989390041195, 0.0736482904764501, -0.0594888977074522, -0.13349719594520135, -0.11663090960901254, -0.0616227625878178, -0.09649135165537469, -0.08203800806449228, -0.14240283635224335, -0.0913004041019774, -0.04303331028929285, -0.0446389907181518, -0.044671500653706085, 0.033476182173636675, 0.059689002189398405, 0.006930418625608755, 0.04717904086274064, -0.0059996548438382945, -0.014831787702846749, 0.029349334928683385, -0.08171310274791783, -0.09574252812922411, -0.19278891092328948, -0.19316577798578058, -0.21949582199167403, -0.22162106499610063, -0.25225534628874263, -0.16002454311023948, -0.04849481742365738, -0.008351869807335177, -0.11595991855042158, -0.1869655908814841, -0.13423945433567291, -0.05374756181697757, -0.10731324575160489, -0.04499568220330994, -0.08298436574774187, -0.016638847749748838, -0.055205523574859375, -0.031142527429460647, -0.04441700868938837, 0.011278291935701335, -0.03367409631764067, 0.03733263668635417, 0.014319348339652914, -0.009129173402439733, -0.0002057910520762603, -0.06868272883937403, -0.026161344725717243, -0.05567160031406534, -0.10566506821484703, -0.2057207695842942, -0.2014232287402985, -0.1726934954978398, -0.2353158774013146, -0.10263386554493796, -0.021988410692178318, -0.06074781845273634, -0.14737176241461072, -0.1047790498685378, -0.08357651225508458, -0.03770186535865527, -0.08266028320512592, -0.02372558342292066, -0.0208920144956104, 0.0015157071987479396, -0.0694673615381069, 0.040526407306932515, -0.029225347443191312, 0.005442823697484618, 0.00194367959705963, 0.010187533782154777, -0.05575131151042359, 0.0031239693506667993, 0.008335482445336878, 0.03752294974341422, 0.012920595480425585, 0.01991870340454492, -0.07158175885491559, -0.12320790291890364, -0.14856827592750033, -0.22548691968587523, -0.18796826131466932, -0.14895185326092622, -0.0825420916196927, -0.03336257446999137, -0.07725728128604196, -0.015567366251596205, -0.07068172930746258, -0.049187373678354074, -0.06872249472122559, -0.06350611667563519, -0.026516836913523557, -0.012646819078528082, 0.03435950815984979, -0.04143068024510883, 0.021156749477413885, 0.02364896071875204, -0.039294222890744246, -0.05851097592038512, -0.01450556092400082, -0.015529946323259372, 0.05885793601529031, -0.02952270510710154, 0.05580085117468878, 0.06406103589907175, 0.010556206618095355, -0.03695549374889551, -0.12218790142367329, -0.2435369124933455, -0.21867585126863417, -0.13083197862225115, -0.09441314017826788, 0.0031370025780813084, 0.05731183640002936, -0.041486042189164865, -0.12025332378868847, -0.07046482543594179, -0.08705456039064226, -0.006880075145334206, -0.03779107818127541, -0.011447747543072248, 0.002660561255245806, -0.018434490844794534, 0.025791520889385654, -0.0355847308642088, 0.033948701439979335, -0.004268661803471306, -0.05156873709327435, 0.056747635069562694, 0.005121388094491148, -0.0314259528252358, 0.08606890951423417, 0.09314466498124803, 0.09373388869177321, -0.019828135371412942, -0.13059923152403932, -0.058700832134615265, -0.1690458787959669, -0.10587442729048735, -0.028521371040439246, -0.005505656152745256, -0.0992264128254163, -0.0918670300793683, -0.07486114793653176, -0.043297914802408785, 0.016418000768351718, 0.04417707025583063, 0.018644717302488994, 0.0639047418529695, -0.01081832270860179, 0.003983961725948803, -0.012475643786910389, 0.015302021196818758, -0.05628621056091314, -0.03360765555360889, -0.002506081988264103, -0.03016015648021465, 0.06240475239175829, 0.018344763254874077, 0.07220416690614953, 0.1449022650691, 0.17092380765750215, 0.10948743929898168, 0.11393322983995545, 0.01501811098431403, -0.008683387328273203, -0.087894221187515, -0.08055254192863548, -0.10684387979291109, -0.1251451043799925, -0.1087403518841967, -0.042286641046099326, -0.034110445684627684, -0.007500034451099425, 0.02765898369744541, -0.04282312154582976, 0.03657338887944222, -0.003640463609292546, 0.0016424699676686506, -0.034135133153904686, 0.022611473451391105, -0.023846129504174796, 0.04439598063037875, 0.03331956542643112, -0.00037728319475761066, 0.022126655418400157, 0.05167846647195928, 0.04427029474366442, 0.06069256273105513, 0.1063443244626049, 0.1911555466161552, 0.16344094753814004, 0.04644722059983413, -0.016407764497078092, -0.08269294963034571, 0.0025951341314603593, -0.11008782091381221, -0.041607201962331586, -0.09083533503343932, 0.05542012978781025, 0.02816449004779672, 0.07150002926948307, 0.1331312203105273, -0.014002751556347594, -0.04862505078540234, 0.005010693985223588, -0.02284357713538571, -0.05115124473150361, 0.014009748143603354, 0.0668179519714712, -0.012973945261080753, 0.07457644803572304, -0.024046420437934188, -0.0504354815391333, 0.0583308838712459, -0.0020106628015099694, 0.016132094393457905, 0.10477342195221115, 0.1354767598722629, 0.11859896366290311, 0.06566663795293763, 0.07059265317368932, 0.08296816115261775, 0.032030285998703646, 0.09785186822887279, 0.010396013777160444, 0.04272717675011283, 0.10363476567785664, 0.08924498257907502, 0.0639687251462699, 0.028004748268972434, -0.0417456399166696, -0.005118005916690548, -0.03277902706244181, -0.007309176981134071, -0.020175058839703226, 0.02518039475334159, -0.0288158814144582, 0.01716501462688821, -0.035005967270249606, -0.015945980908259313, -0.02420911247535693, 0.05551342936755966, -0.059905543668517525, 0.12722388007632807, 0.04336493896447219, 0.05118787458843465, 0.12672860649549603, 0.22503479639794868, 0.17665875185805005, 0.1460207150336073, 0.18622839295236426, 0.136466969664019, 0.15312242103395501, 0.13700209578703673, 0.06016105600824184, 0.030561945429338357, -0.04270497264974991, 0.02746192214999169, 0.020117977822003745, 0.016005643360474223, -0.01499292873774714, 0.015831982095623604, -0.01000119356384518, 0.014829619449576073, -0.015202472305901396, 0.058614290932875464, 0.022260914136278093, 0.06900297160892666, 0.013217023710476056, -0.026142047795603193, 0.011087898351111604, 0.06314015312012212, 0.042095552932268104, 0.061841633908334054, 0.07082452975411746, 0.09381341939739352, 0.12402915400782477, 0.1388591216130952, 0.16543188937655384, 0.12769732428180183, 0.11305802535249046, 0.03880308207088113, 0.03766417289421362, 0.029694843960753437, -0.010777882147219446, -0.027649202062257364, 0.02302229671551807, -0.025597661110961706, -0.001849825971549124, -0.033984554179541715, -0.03498447001035156, -0.024946047197551148, 0.037974056204917804, -0.011502382379261291, 0.0176734517198432, -0.0033266500905977723, 0.023276575937493514, -5.174470637212884e-05, -0.029964599743661124, -0.00762623255592071, 0.013751699117261682, 0.015066724680672574, 0.05466875457133548, 0.010368340176702677, 0.13957493293545725, 0.09175321008122839, 0.09969720764216847, 0.10350713633442837, 0.04552757933819244, 0.07397342937068392, 0.06258908794638242, -0.04579534854582071, -0.009924134103285336, 0.029241360795812542, 0.0436593383758992, -0.004759963370659583, -0.02332351968117933, 0.08586702550893753, -0.0039780173576959435, -0.00621046696050228, 0.04077071031250274, -0.000565210746371488, 0.003625099157833336, 0.0018684869884829742, 0.04087234217391942, 0.029254436493232096, -0.027575103065372576, 0.027555748887065436, -0.05620064954234415, 0.014301379261292052, 0.03735091811751929, 0.009522013930620252, 0.009325253180957664, 0.0385720094608032, 0.06836346269633697, -0.0010666562233291714, 0.014838216043786193, -0.018755977971234964, 0.025704593771263884, 0.004277801456018492, 0.04659650730213335, 0.015414018049676233, -0.054528511635312304, 0.023535317909076304, -0.04469841901714261, -0.035181642308044596, 0.0359503014925014, -0.02013689016236087, 0.03262384340281, 0.021482328518106206, 0.003987498147632877, 0.050363129781057774, 0.04705529666025253, 0.015753118920736414, -0.04600310339746413, 0.006930741720027102, -0.0397895405398945, 0.05360042237051801, 0.010425521074539283, -0.024041692231422194, -0.03750862011082037, -0.028285989267871906, 0.013695048330933206, -0.028564450162184448, 0.01751935456918947, -0.01180815427869316, 0.02592345178286085, -0.03186407416430731, 0.03325046190313837, -0.03586769934088712, 0.03025269848272249, 0.007777092447045226, 0.07164083719274189, -0.0018748193825124536, -0.0013144985186658523, -0.055092056828341375, 0.05458248578711846], [0.0700185857784868, 0.01574447644751843, -0.011795958990376332, -0.033737070887857885, -0.013286782934508126, 0.020066214133373138, 0.05186321441132983, -0.00047455689492687745, 0.04490808919509471, -0.0047048730797776975, -0.10299742933540643, -0.017265074268136348, 0.02592102888481174, -0.012859933434756814, -0.07044382603220758, -0.011386961440891208, 0.0537799365921526, -0.030754418965126217, -0.06978969025624393, 0.037045342750311565, -0.05170419568856925, 0.0006552914921759752, 0.03702559158667723, 0.04707357399088244, -0.019329525257438872, 0.062366801175436255, -0.010931124666157057, 0.05691873275356114, 0.0597187446282154, 0.03687161825700391, -0.012948100508435211, -0.0050550393058314234, -0.0017713511814516157, -0.07422852064128804, -0.05131779215060745, -0.02185437872759709, -0.023572838877093962, 0.03257061565955173, 0.03115114840436663, -0.021712393572099534, -0.033758301361736756, 0.004764441096273568, -0.024605520096809035, -0.013121079902109638, -0.0279812001364904, 7.875733134221673e-05, 0.03319305477018907, 0.023020193082131737, -0.028498661559772896, 0.005047115383757715, 0.02665103683848589, -0.039326342470946865, -0.04790817197207423, 0.009969660059741594, -0.005316504870285665, 0.08051506099423454, 0.037551016141629645, -0.02335759358571178, 0.012472213737729502, -0.025035852320643242, -0.008014199711512744, 0.04439689576756847, 0.051671675952105846, -0.008482668645533776, 0.0611892842851042, -0.03295197308703445, 0.05834304660109533, -0.0687103281153234, 0.0388615441476411, -0.02862928832202285, -0.05000877141019477, -0.07294577388794644, -0.03447379709902352, -0.07620542951560935, -0.058777500790028754, -0.02686128198801297, 0.041156991518482726, 0.007716580040616352, -0.015800932991247713, -0.010782474660523553, -0.002969393654131494, 0.000867326553339957, -0.027794224540128493, -0.01769358861482977, -0.0165362401844826, -0.06070035500249, 0.006530779634828047, 0.005620414451316212, -0.0363445374649822, 0.0370712401436439, -0.030563792955087578, -0.004480127333900273, -0.007122829017596727, 0.04504405714138757, -0.03239748208548429, -0.098574634691572, -0.11906085678771994, -0.0824440042414568, -0.06570382401863684, -0.1095767864955403, -0.14147007806401327, -0.06393012295200795, -0.1663341459327175, -0.10039452926059432, -0.06719882521452208, -0.0350490119763972, 0.019335928112353015, -0.025093244736118434, -0.09110415855218118, 0.030185491475818428, 0.08118804812639109, -0.0027371680523425655, 0.01262223549777096, -0.013627981595278863, -0.005618782641292232, 0.07158678183679795, -0.0053523439614636134, 0.0033798867033389022, -0.002200797554644909, -0.07805630061239875, -0.08134390480776445, -0.12595572197956514, -0.062422884366772464, -0.14302013108784936, -0.07531992094201707, -0.010459524411966861, -0.02839020600716029, -0.082311170932529, -0.018345741871340866, -0.10848961135412583, -0.03498976575797498, -0.03704310538450141, -0.04971354061924572, 0.017948278123251185, -0.01200763209772249, 0.03477448212883548, 0.0012685325662625676, 0.002612818017537063, 0.01017933730545474, -0.0022651729455522257, 0.017214756800586456, -0.0060765099589556735, 0.05324961642992651, 0.0167993511599983, -0.04926494630802536, -0.01843236860095088, 0.03379438721567805, -0.05188502241040194, -0.07084028183127047, -0.08715037496190381, -0.09755566244627725, -0.08761079658825845, -0.13270951794941668, -0.11839807844469058, -0.15034539166980787, -0.06077497090762648, -0.09946999362019174, 0.03438853936790145, -0.04174998345168127, -0.06342137853353198, 0.0008331239335246455, -0.02739758434652814, -0.02368155714101495, -0.0007127307601696741, -0.009104716200730535, -0.021575117199505518, -0.014047664048687665, -0.010356884037280542, -0.016165393881583934, -0.04054647580073636, -0.03964571529417859, 0.02734983738194404, -0.03556679695732383, 0.010154326072645225, -0.04530589883566112, -0.0002722006042376471, -0.057971418484838666, -0.032863797701370795, -0.014928372229136223, -0.09011187308675012, 0.017941853560501413, 0.011167132127642077, 0.041798464196943885, -0.0077476621295782784, -0.03342484745168753, 0.04604594165605034, 0.0073814747224730266, 0.1413537497368983, 0.04183712817010425, 0.01251723463064133, 0.055050123603562394, 0.07959114404917467, 0.04666332977910066, -0.013813811874578216, -0.00728179526228075, -0.04203311130590812, 0.03930803300907877, -0.03850323394528424, 0.003647998864623333, 0.01047221763962046, -0.0008749173238461708, -0.067334781310829, -0.04267659310877632, -0.04599506215689115, -0.011929180570248318, 0.06215475176437829, 0.06581709278994999, 0.026982447846924103, 0.012651564060634416, 0.11188654659970214, 0.12039155489821882, 0.12657800180124387, 0.09498016342096217, 0.09537541315174383, 0.11785571787918453, 0.08119417262640427, 0.12858142315526955, 0.05725053021087563, 0.050335249314409934, 0.01799506751328638, 0.04009424126874675, -0.003626150819515641, -0.05216546284672216, 0.0518498318861549, 0.0020045899357515845, 0.041877006049437136, 0.007583462084404001, 0.010046907842374341, 0.013821456333143635, -0.03235335778354605, 0.003993217670618581, -0.032364199848741955, 0.07142385127583697, 0.06235874774458825, 0.08132725033323761, 0.13512131985285414, 0.04758814733143593, 0.08158970343702003, 0.0280857919446032, 0.024081213928054873, 0.09108392996030913, 0.0858115224681034, 0.06372981454728428, 0.0989333076286199, 0.15584585582857735, 0.19260465567966295, 0.07592347839014767, 0.090516246013821, 0.11441879258175963, 0.06657138060280299, 0.00857911716844898, -0.020940699238827173, -0.0009898334875024053, -0.09356510293626442, 0.02274616744009789, -0.014598673834197851, 0.04345671740374829, 0.024501735345229547, 0.019390534578299503, 0.05711475722303677, 0.0944523747815157, 0.13112323311509347, 0.14068634130465002, 0.12468791606340658, 0.08608969166265258, 0.02687755540116337, -0.013916088896559882, -0.02107937468199039, 0.0789861582024347, 0.08911210893832476, 0.06900507522554528, 0.07536165532676653, 0.07812910762307407, 0.16118656183548116, 0.08718237499531861, 0.1167360529391794, 0.021270160713367174, 0.0003456952998870283, 0.028219429055295345, -0.03058219109382607, -0.027372420164469172, -0.026843580157178904, -0.0024592050017385506, 0.014751614082785079, 0.03269877550196998, 0.07899894919440509, 0.11377646389873766, 0.14699809898110416, 0.10868930972947702, 0.18110557914369124, 0.19457653496928917, 0.14218317162546049, 0.10226301072226748, -0.0064197059103832076, -0.0581559140292821, -0.0711019965457194, -0.022432886467008667, 0.12634026125350675, 0.14931947818781924, 0.12746705265342886, 0.22403307542399145, 0.12219923262067513, 0.08282840674686894, 0.04498357109894545, -0.008353545940464908, -0.048011615719546284, 0.009564886362836344, 0.02347785223647791, -0.036256191757297856, 0.03549844587987369, -0.039824777294687634, 0.01664089535751561, -0.021931746617391928, 0.02387016660491466, 0.14404688789696354, 0.20655707232298137, 0.15989758579693336, 0.16211254779653106, 0.19461899548305442, 0.2081083059339458, 0.09022298717751215, -0.020089725434366927, -0.010383367801585972, 0.016719317102186455, 0.05715433212170624, 0.04863551716978856, 0.13435570044907394, 0.17467402117901132, 0.11434666902362645, 0.11643751828786965, 0.029835245350432048, 0.09413359949685988, -0.03228714436824845, -0.02673568061732647, 0.03840556961839123, -0.07068867253572889, -0.02643451440079861, 0.02043518538404068, -0.011763892533563811, -0.02066856912156693, 0.002265076247685133, 0.08741402653736861, 0.14696568292980075, 0.1787652594440517, 0.17576849396141328, 0.1151030228590436, 0.04609341465120818, 0.080141438850183, 0.07057177399324546, -0.009806715376114512, -0.04612297138268512, 0.02794890295834886, 0.008592754072920622, 0.09848245779403297, 0.03086146300828127, 0.09610905434791611, 0.06033916043563871, 0.0460342856776071, -0.005237644719938908, 0.051838920781815366, 0.06530927893317277, -0.00417733346429084, -0.06733071902769662, -0.0651934246718629, 0.05303852963501528, 0.003345733704260663, -0.016110389085035655, 0.00440682651110668, 0.045101921846626314, 0.0830549317925759, 0.10349841888738993, 0.15675147969009734, 0.18868697391935493, 0.1983414385466402, 0.0846641698748096, 0.058286139049393566, 0.029729948414080155, 0.005546805259440053, -0.09889560066178107, 0.05978180355741937, 0.0936668749517689, 0.025646003351034778, 0.03799124490397273, -0.012019625214520085, 0.049681520264149265, 0.021400601148274915, 0.09214075446453729, 0.021105622699748014, 0.010525663282104991, -0.024422556477855236, -0.030194700162171847, 0.024690072360527865, -0.014367691965560953, 0.015717421043151325, 0.017691489607713662, -0.02687765831005671, 0.06419266947493821, 0.09458849453654102, 0.07824222525902369, 0.12715028082161295, 0.04256435268860445, 0.01904040876652601, 0.0034141251246912513, -0.08959307334702399, -0.07155058468245687, 0.039142313975066415, -0.07804456127255884, -0.026039171780495647, 0.02528482057252887, 0.01041081608017881, 0.015505891114452233, 0.02314489696418545, 0.030102130821698228, -0.009854519436326824, 0.07816761196175666, 0.008644651263246301, -0.010709714581801382, -0.03777373340954411, 0.05108359156859646, -0.022493066558226745, 0.012936410645452324, -0.0075282142121213, -0.03302230880580593, 0.05895444807888513, -0.009510806227730711, 0.0946741190377691, 0.06850372914278856, -0.02135630042683867, 0.08017135737938184, -0.03079275893120776, -0.06681126034537063, 0.011809620447095541, 0.0009919549410784512, 0.02666690855482799, -0.06931326770848474, 0.013227644640902616, 0.17316162091618068, 0.041531815042197946, 0.019430876905932957, -0.031325326437191804, 0.022674888825135117, -0.06680162664879725, 0.08047662510541248, 0.004671089929480665, 0.00014259826995024338, -0.03693577158136651, -0.01605316898667709, 0.029700577662590592, -0.03477566646447869, -0.0013786357494077143, 0.0008803943589299557, 0.011748297125198244, -0.0298365445390897, 0.03800597047267898, -0.0006675125901354346, 0.040205280192260426, 0.004199106526132425, 0.00993611596557863, -0.04918360749729307, 0.016865675393709707, 0.008335215685668647, -0.030839718758427715, -0.050946450627146866, 0.13411818614808668, 0.010831236792346656, 0.027151159303588385, -0.104284256908437, -0.0649265130220847, -0.05046755365613171, -0.07960315968303722, -0.11511661601465177, 0.009486095523388994, -0.02025659112016985, -0.023832839393903158, 0.013339152694498674, -0.0015586985164186369, -0.039746520453360204, 0.005939917631084193, -0.02089685871627918, 0.0056759180984379065, -0.0365089866514147, 0.008104878001133506, -0.028462378056853598, 0.0269431033179198, -0.026292874447349856, 0.015475024375194001, -0.054069427101822456, -0.01389858894392339, 0.01202380121153361, -0.022181122266651396, 0.030340245755195967, 0.05399701542137481, 0.11193630341264149, -0.035549904819524185, -0.05989437050479825, -0.05417344532509577, -0.06544985629498132, -0.0670647477715176, -0.10639134002928995, -0.022538047527308716, -0.07212003839962294, -0.06605250352718003, -0.018766976369896594, 0.02738209769476251, 0.006042885444883441, -0.023485774020132747, -0.014429521199852424, -0.031036906311464628, -0.006800293330649387, -0.026254832690899465, -0.04035925324678959, 0.024668452740786453, -0.062470065088326275, -0.011402503973925933, -0.022550394857631637, -0.055433835146983364, -0.0893663399551813, -0.04624765231433911, -0.048630528106646365, 0.007192629212288105, 0.012539557344559513, 0.005943687517814427, -0.10376013511145289, -0.08385679723924942, -0.03250355583015113, -0.10323347827804384, -0.09606420706895898, -0.13864426640860955, -0.02343904588030358, -0.04874606823471733, -0.011008315290671278, -0.008531555600235245, -0.04523686511198755, 0.00748916571547373, -0.0008149264289269302, -0.02082063865465124, -0.0945001004701696, -0.0873504700795382, 0.04080388626408284, -0.06316962926689965, -0.07501493807005952, -0.04435219170625375, -0.15639780293246117, -0.16609897289393277, -0.1408506444896656, -0.11676649112625867, -0.06108987492366858, -0.04977023053253727, -0.06785905249874537, -0.08842828072129591, -0.11581979868384566, -0.04692302465605755, -0.07536378936516946, -0.08235749851537019, -0.06586266762931633, 0.0323322186005512, -0.07260469380343844, -0.07062677045640596, 0.026294115192951092, -0.008640239363732729, 0.06617248682712165, -0.009824740660270895, 0.0047485019900195885, -0.06677781644915376, -0.06860147122811172, -0.056382942393327536, -0.02367661457346437, -0.010911463770466411, -0.03671917131742357, -0.10510999638050392, -0.095683773141977, -0.10656420229177432, -0.1461932081029545, -0.049810239657753726, -0.09013310102592091, -0.16141336038288387, -0.09299488247026076, -0.07201033278417995, -0.07706033887365926, -0.16509376746893942, -0.06943286699508042, -0.09050890920249846, -0.031731294336795064, -0.046445910624452, 0.006113359658195961, -0.03947442178456408, -0.08674273025177398, -0.028542602884069224, 0.03684965628137133, 0.013686827020610772, -0.010770192505844416, 0.027568638540142312, -0.06895241979690106, -0.0314335094121081, -0.04409444101533982, -0.047997870413218104, -0.040001022696786695, 0.02695808177676159, 0.004908536819145337, 0.049094201641639246, 0.0020380676981639144, -0.04466419544234119, -0.05141817099240396, -0.005154029644525971, -0.0458527211918326, -0.03133014496343287, 0.006791506476400836, 0.04128567148127473, -0.054920983216131786, -0.04137973186832464, -0.0039934554523693485, -0.024205529273482466, -0.0029703641801301912, 0.017493206427336098, -0.03360113169891756, -0.07311247691384169, 0.03716927101471731, 0.011849862486238009, 0.020272077694436026, -0.03752741866898456, 0.004518328062072335, -0.004187705957283843, -0.07954598919016072, -0.10137634093758612, -0.014508188608944934, 0.02260760095248268, 0.014960304665118152, 0.10994138370866477, 0.11744762907559936, 0.0726199155865379, 0.028762638443380343, 0.06737810782655604, 0.009224377696143779, 0.011782942099513541, 0.13077786339576103, 0.03650282570286217, 0.01872556513364865, -0.00020001307583742317, 0.019224354772291095, 0.03660312373599213, 0.02406766158536193, -0.0025061638250186385, -0.02997952058760727, -0.030038574849341294, 0.030131550525517106, 0.029368363202157643, 0.01334182464803883, -0.015249617524666526, -0.001400781898461464, -0.09975172505712367, -0.04210644711786813, -0.0388934987065728, -0.016483600246868256, 0.036207170225881935, 0.07027276189738427, 0.1376684724881249, 0.13944411176914487, 0.19980752617252745, 0.173172299801698, 0.124349074474726, 0.19691420355474692, 0.008934060936093193, 0.06529811582490515, 0.05709414063681526, 0.07078735890414212, 0.09591899887613185, 0.009492148278050378, -0.01219284856826192, -0.036909194383273995, 0.052387036587356245, 0.03922337261563084, -0.016373464423771713, 0.02663570638491104, 0.022792049912515284, -0.008691395286205234, -0.03681191810810461, 0.06537623702270545, 0.01275309789761614, 0.038154984042442656, -0.008658645576029751, 0.03365186551767606, 0.011234655579507797, 0.04454807675998939, 0.03430564381805118, 0.08340400731214122, 0.01853249635827052, 0.03600517590347228, 0.05609158621903724, 0.05933862620360874, 0.08067936457428122, 0.1279368589912055, 0.032512918466919574, 0.008133743191743077, 0.06224743342093188, -0.004313046496980306, 0.01677941579256152, 0.014414604461385974, 0.011100536610799345, 0.058278845034344766, 0.021030678172133714, -0.06912589590776506, 0.010859006224844509, 0.04205609103144474, 0.047571636084946724, 0.04842930228590746, 0.027755171592900224, 0.05515557609447129, 0.03387528588571092, 0.006592249017207267, -0.002139564546960818, 0.06372015986769855, 0.042405612634053944, 0.05625840104067317, 0.03049100931656546, -0.03293193137499533, 0.015793091688004596, 0.04036746670649034, 0.03617207524701211, 0.05861803869979778, 0.026777206796709533, -0.06291683768162057, 0.03480141941082899, 0.09180691557867494, -0.05261060018671338, -0.03822705703556784, -0.02701138664156298, -0.0092581699376358, 0.012492010003088336, -0.003370438532705345, -0.006510336022122371, -0.001759177245563246, 0.020035437342374403, -0.10214781776743079, 0.017059993480965648, 0.01679729150723854, -0.07068085061976319, 0.042379205521476754, -0.026838002248629103, 0.0267981949707942, -0.02284767387643728, -0.01639500144560854, 0.07728825823462687, -0.0007636577649803583, 0.002346683924225098, -0.009053814853086406, 0.04735756970212684, -0.029111660282022268, 0.028898072850970933, 0.013354871560906, 0.03275523876440664, 0.08477237986802265, -0.05185449190882134, 0.03797294579305312, 0.021158840189728006, 0.01221743775067282, -0.013039634158900203, 0.010299752298784786, 0.005469043594451267, -0.022637412759562877, -0.10455259584440164, -0.07029646515842908, -0.04856550435676715, -0.04933321331227085, 0.01767877313598263, 0.06259108449090595, 0.09449803574001885, -0.014796573200952803, 0.02250368948058016, 0.007492857404657532, -0.017196049809822495, -0.05920534729537531, -0.03763581778591964, -0.005131182649568574, 0.007144747541134632, -0.010171522319649998, -0.001821488858939978, 0.053362229518852944, -0.026122115695802018, -0.0009316947107623465, -0.02360445355874446, -0.033789988718536196, -0.038456080162654456, 0.06883828449272009, -0.01679913812681105], [-0.007643157656329448, 0.03974751153675454, 0.007968701155705424, -0.007052998079232567, 0.030621811332721044, -0.006961601324888995, 0.008714682560691083, -0.01697329196107911, 0.03627494554914113, -0.004057252946359552, 0.03480363413316781, 0.008924459991300954, -0.00021676339242280532, -0.0002908034439975483, 0.03290808564816165, 0.019902750859482878, -0.003178447374960087, 0.039748430965429724, 0.002892906369891047, -0.003377262566184363, 0.0146913528534213, 0.011316938037251057, -0.050472173746025445, -0.025813426957336162, -0.02669195658700226, -0.04007118155601708, 0.08144866426672014, -0.026440932888852717, -0.02220870852697706, -0.05003694870876565, 0.03287645939915437, -0.04682166586278418, 0.018098161761957863, 0.012123726126010606, 0.05333050362558954, -0.011233669085135808, 0.006252152478281894, 0.0498253487240617, 0.03686261717157163, -0.003000985896591539, 0.009781310676054112, -0.024600141378658354, -0.013898987740277046, -0.009702727471209264, 0.03383701021731402, 0.008362410785487592, 0.011144553229087554, 0.053066359049763596, -0.01853686002375811, -0.011238003978090643, -0.02063368279137023, -0.06447850407322331, 0.01742328099285332, -0.0008001257335386128, -0.004856408843026964, -0.034852229068289435, -0.03257392729199826, 0.008716202395430691, 0.012619294521415273, 0.03171203010950063, 0.020009455052574086, 0.06385683950794634, -0.020901465226316425, -0.00608219484547475, -0.025032522171980733, -0.0381676963225965, 0.008408597098683215, 0.010459061508109227, 0.030294878279777365, 0.03941570026880922, -0.018007844877053775, -0.07269616369878881, -0.06087072463488331, -0.003217435076058974, -0.033581364331117476, -0.01518479981580097, 0.01812188143003001, -0.024513787288149375, -0.012969081332323655, 0.01467094127462947, 0.059993075938522634, -0.047819853400120065, -0.048840951431921874, -0.032337382966127974, -0.024383643305597953, -0.013652270509991129, 0.016422333081333784, 0.029713994846912492, 0.004978209576486804, -0.02615175280402986, 0.07371341305723988, -0.02546792043334768, -0.06038340587230662, -0.043817537020132045, 0.01788934322280605, -0.10358120793636678, -0.10302821877308907, -0.1403010216197726, -0.06982534346269478, -0.07109976729617555, -0.07430487733162022, -0.054230446577106795, 0.004966339714153656, -0.05839394741835475, -0.00751761995023933, 0.06110123652289157, -0.014862372762693072, 0.0003510894693861697, 0.00011441853030768243, -0.017698893234792512, 0.03340938852048812, 0.0077253909354326866, 0.007880872061975519, 0.03406991970370745, 0.01532068409013494, -0.02570430992164046, -0.026317095569670663, 0.007103036277935242, -0.0270071678751225, -0.006988870249110278, -0.04155047086464057, -0.09875971533144615, -0.08482369122624774, -0.04617775493678742, -0.16414844972611436, -0.12417098628719674, -0.17219226160210732, -0.15185279297288898, -0.14677284838535662, -0.08224923456019165, -0.09234423957969173, -0.09619837653894782, -0.06604162334045417, 0.041868464971753484, -0.01910107206871655, 0.020604501120548655, -0.0048416985655796215, -0.0017288998499519947, -0.033453663683301896, 0.048856720698570034, -0.03774822964316946, -0.0706755219140898, -0.014650905041271348, 0.018121626090182225, 0.0004468173600458082, 0.01738515088517561, 0.09488003013790505, -0.02647682886495659, -0.048715025891638626, -0.05218407044796099, -0.04653435764404316, -0.0858249228342549, -0.053396385745162145, -0.026193673752761677, -0.05087323135199495, -0.0501598870454098, 0.04513019967252756, 0.011523129350516623, -0.015494966505746853, -0.025575708560145103, -0.02041979264649895, 0.01397774828265661, 0.043603199643798864, -0.014015209736226652, 0.05559351010316779, 0.08687231776246145, 0.004747492194707028, -0.07368606649501987, 0.05056871721297824, 0.014673109166648919, -0.006792499343657794, -0.0019412414301160732, 0.08757074920500484, -0.03564613906290642, -0.03434770622599896, -0.014035157436902337, -0.04097359322125128, -0.12026260564370404, -0.039039890824426327, 0.02153368483102265, 0.10591084223219105, 0.0639123064578463, 0.11163810922301558, 0.11555398720033991, 0.12514561862727577, 0.13815764519879487, 0.06088020958631035, 0.0744770262298561, -0.03453470566627647, 0.05462561863852199, 0.1266418966879447, 0.04456106837969837, 0.054836614316037285, 0.04398955650300134, -0.0837511314723261, 0.0662443911981762, -0.0668907245333792, -0.022487296013702134, -0.030183497437813366, 0.013844053929729525, 0.030731692178876144, 0.012778847721269691, 0.022188683790633212, -0.06532265077323578, 0.0245936554486845, 0.032098126250344874, -0.014803155015296603, -0.012293586724201298, 0.03942041336885392, 0.02748580807474282, 0.09751480282856431, 0.14276208932714618, 0.09786505437527976, 0.09166562995831964, 0.027650325273431253, -0.021213691351482312, -0.010521302156131224, 0.06071015386246758, 0.14310575586029173, 0.11080263410329019, 0.05716079616903913, 0.053066633718801, 0.03932389518494431, 0.004011579840762746, -0.01437602545151352, -0.04701196965201618, -0.010076213928538812, -0.01478423486078394, -0.07913904737577442, -0.10138399620552346, -0.04783556089150703, -0.0789578197683441, -0.006366300995517819, -0.05684716612863371, -0.05954035197976953, -0.02570169657263677, -0.06789124384180922, -0.041369304744805116, -0.0878846223019183, -0.04284597341033869, 0.05607244868408083, -0.04608452641487518, -0.017801344170667064, -0.009085394721300273, 0.009740744058496554, 0.00612678922927504, 0.05745031296626805, 0.10501772695739166, 0.14172330311287284, 0.08298130138618735, -0.03601074285271335, 0.003922844356639416, -0.027499354244444236, 0.023374101370861402, -0.012800534625946651, -0.01367145871990209, -0.11117883433633209, -0.05004496445998967, -0.14208036447334305, -0.03318253593272981, -0.061024030461164974, -0.056214610770316836, 0.008072770115325216, -0.029109125640259824, -0.08817788837919827, -0.08304522894272065, -0.20045249317540972, -0.1739452294698841, -0.09719082263848407, -0.11593485631577395, -0.05955752200824105, -0.017371535771059064, 0.03581415612156327, 0.142476710966776, 0.06955274666946551, 0.20631992221566353, 0.08721222723154054, 0.05754032248505416, 0.03797359976338705, -0.022462585134161148, 0.0041160016225818665, -0.06264083594609597, -0.017184863131253187, -0.05038605804999443, -0.05205065024890152, -0.057509804693371414, -0.07571660385097546, -0.08294685788041636, 0.04634395505303339, 0.08144144868061534, 0.01100983299093837, 0.06759010308890165, -0.004696153786153108, 0.0010882806089354137, -0.10988309518611637, -0.1595989879332466, -0.07910998310712875, -0.0737714068992643, -0.08769720559122575, 0.008553054107613402, 0.030167052562002555, 0.11502223750273403, 0.10765572879905419, 0.09673386147065129, 0.05936972940480785, 0.09972159100256642, -0.015291454266498335, -0.030850468528377657, -0.007598798721301429, -0.01783828039468616, -0.0031196665295954392, -0.033108397123003216, -0.006247446669045613, -0.061487461320415444, -0.017494564551896533, 0.03675870855353887, 0.073934633686743, 0.09383715659946215, 0.12577411486591827, 0.22082645451257557, 0.2951346848437326, 0.22679704035362114, -0.007243448376401441, -0.09478263389176846, 0.040214190329231486, 0.03139597759507025, -0.021327606183295593, -0.04951661373700354, -0.0688890555041078, -0.038309283954692464, 0.10352941060991425, 0.08022028514860728, 0.07203688924687912, -0.012192777663334783, 0.011531104028302912, -0.03027986770684032, 0.005599862742661708, 0.02749064027549969, -0.011751377672428731, -0.021893630948854388, -0.02515440046383047, 0.020426038953884378, 0.12383145732530876, 0.12559970381270258, 0.17630249323389371, 0.24534917935419165, 0.29760043288180166, 0.38750689469179367, 0.3986447006294062, 0.27257415485731906, 0.08424519727295335, 0.03873580880914796, 0.12568755278153226, 0.09595923969681425, -0.08895867728561048, -0.06133871489647321, -0.08484964991026975, 0.00010144472693600142, 0.06708831349870248, 0.0436666960092505, 0.07626263601784655, -0.0014298622557609641, -0.015234768117477393, 0.009181069905214447, -0.0071204887580329015, -0.032042431151181834, 0.010545505488018485, 0.009417765871774357, -0.041605824645705766, 0.06790232162478155, 0.20206067859914545, 0.2564447786295153, 0.24897119024377293, 0.27982838214216027, 0.3512580947703158, 0.4154369388143683, 0.45997009676179723, 0.24241741106126755, 0.03364358534394714, 0.08390144706213656, 0.17788339464424763, 0.06871091132451873, -0.04508567776843832, -0.09821508196461366, -0.10127147127667446, 0.016386782937304698, 0.12559853297819398, 0.12070371552360382, 0.023058534254728282, -0.02002891413921125, -0.03175460893715562, -0.03443391889028999, 0.027859966724739362, 0.052087326985439594, -0.03078232201979988, -0.01846624384216182, -0.007992990603955129, 0.09120124044076182, 0.24500690413151752, 0.12346764964929424, 0.1729068186948825, 0.187704936631623, 0.2557574340494453, 0.3663569682044521, 0.2811974422508231, 0.06025107483219508, 0.01663967122742493, 0.12888520937374734, 0.05343002445641221, -0.014915673811959131, -0.07089365091097662, -0.07989756475239028, -0.003882124562676648, -0.010059045687578306, 0.08123533874418913, 0.08891820084090574, 0.004216823186589169, -0.0020237437239721194, 0.019821293358486335, 0.01759450306790303, -0.017307560777191318, 0.008773861831668797, -0.012775695459125125, 0.009169924144333246, -0.004971768778410922, 0.09039694546174558, 0.09013883928185223, 0.11248348343990602, 0.1843033798832132, 0.13279929845791863, 0.18414550811400024, 0.1866241662238971, 0.07077333746920322, -0.018959546915318808, -0.08575593330897316, -0.00616406327785699, -0.0002778670650941315, -0.0655960559911573, -0.04408569388369824, -0.024613284541409694, -0.11616526243279839, 0.013771486032274537, 0.10769020469635399, 0.03812631098293732, 0.01157792601153148, -0.03800266352319648, -0.03584672202031161, -0.06458347951696199, -0.061630111055040245, -0.028524704578812572, 0.00029019563853415544, -0.026675938315561105, -0.0507586956712313, 0.0327608254307605, -0.00848132981288141, 0.10471333631239087, 0.03619125030119301, 0.10553321708154666, 0.11208513719881462, 0.15050356919749475, 0.0716471350658285, -0.016787523334220945, -0.09749799303187959, -0.024707922993791567, -0.05864613980263229, -0.02600819732824087, -0.023630718143245986, -0.022132261470054176, -0.02296183300006969, 0.011260867265683904, 0.005628628256141765, 0.00525003502295733, 0.03212978425299659, -0.06712455262043322, -0.0016154068154994763, 0.0007083273411725917, -0.0394379363146783, -0.0015232663059047068, -0.020625416147401203, -0.006703814823840789, -0.006493886055416252, -0.01899243750247414, -0.006301358429611027, 0.04210837588538864, -0.0035930679935100426, 0.01759347124305091, 0.0043561466684977936, 0.0219359958734182, -0.09199015467009615, -0.2453025787044039, -0.21287335002499347, -0.10146486543229072, -0.027750044428273977, 0.030198746068922734, -0.013727734636014767, -0.002968870250666164, 0.029653206188204738, -0.021498000625309703, 0.02947903187214734, -0.08408386788640924, -0.030366731879941728, -0.018835012243144683, 0.02671703992746517, -0.02146422628141639, -0.014255029597304235, 0.034493235327653755, 0.005536713198496957, 0.02119918030246873, -0.029512385897880827, -0.02300711295180587, 0.007298418133786823, 0.03608998394831022, 0.022481467876476313, -0.08310115135155599, -0.043200854071690824, -0.06568302160170114, -0.15500356356084397, -0.23664952531377365, -0.18511805475029994, -0.09921725911982714, -0.05184273341048177, 0.023833687612237652, 0.06916756483552834, 0.01162882365531305, -0.05300945502423011, -0.09533696594479646, -0.08537139773415431, -0.05998832318093252, -0.06216219524982737, -0.025137227067877972, -0.009766764013908443, -0.02883526649911351, -0.0005044144767324053, 0.05841423686968881, -0.01997854807896243, 0.011463757594015559, -0.05797036792991429, -0.060466740448655194, 0.08138731286749379, 0.014321047343359712, -0.01721352688961335, -0.018074058926178357, -0.016676129136254953, -0.15917037684958948, -0.150652210613719, -0.18265425612320896, -0.14007057617427693, -0.0817892685631882, 0.007228510393593083, 0.04380722188686618, 0.0628944531471578, 0.0030954769108619495, -0.030764254254050737, -0.04524096751340171, -0.12937790329737378, -0.07180747394038818, -0.05395736234889925, -0.062085180353011235, 0.016161787179200356, -0.014311199155820693, 0.004669285023368896, 0.018180343456708447, 0.009496263082255992, -0.010548105139946282, -0.04064889022020055, -0.007299021527670606, 0.016641323204788477, -0.040083350404711865, 0.03287543548989903, -0.0650113702570202, -0.05509227629318692, -0.06041525568425657, -0.03955178441785225, -0.04945390708955914, -0.06699039825104652, -0.022638623895199144, 0.051609081826677616, 0.04878433589028101, -0.03548579045743588, 0.05119493903948336, -0.033779143452402634, -0.10371127215239691, -0.07612673445139695, -0.10438899509720352, -0.10215115656179298, -0.054296449702234295, 0.0490579864583553, -0.06938801575217934, -0.0006178719047722287, 0.023159655727208305, 0.028116390786082957, 0.02354956402333555, -0.02332717680677309, -0.06281802410082349, -0.04552015463527625, 0.0016656655183266544, 0.0008782906093126254, 0.025227084068021963, 0.05456066716142253, 0.013135406670000111, 0.07594947565097637, 0.020915253721598005, 0.073179764577321, -0.03311061655440878, 0.05884598240675139, 0.07244957392401775, 0.07081442081857628, 0.0022347942291072315, 0.01486754868141325, -0.063428404516715, -0.13019085668520233, -0.06856495623731686, -0.046435704326046975, -0.005786878417799702, -0.02354393959610071, -0.02314369884813867, 0.03930452008884728, -0.04829210974701704, 0.05038865260392584, -0.04885362387964938, -0.02820442106319211, -0.025083958015653704, 0.014948020488895033, -0.018613409080299223, 0.013547111322681174, 0.04899239667847321, 0.04005532363432205, 0.15898864982878103, 0.26190925838076545, 0.2408286118034379, 0.12661598937948151, 0.15589532316224364, 0.052238538608889926, 0.0901747372232091, 0.09433495037399334, 0.01878234260279365, -0.03882251871338434, -0.06690091433931891, 0.012190571079208314, -0.02749127056686409, 0.006350822994595263, 0.0034359983364395845, -0.009704030423107904, -0.014385228219737067, -0.04606172299327658, -0.04314118026862097, -0.023352663857768234, -0.0027253450009613292, -0.05042840951751172, 