{"sizes": [784, 50, 40, 40, 30, 25, 25, 20, 20, 15, 10], "weights": [[[0.020994846609721004, 0.0021943575844444296, -0.014468050439912271, 0.014781526733676605, -0.030110875042168885, -0.006015917175670471, 0.045016618772652936, -0.01722647790626402, 0.060214507716389885, 0.041951142525906704, -0.053554127604630304, -0.03758634280634397, -0.009417853298714522, 0.06639185201631212, -0.020068507966582574, -0.004833751077111866, -0.047612738958323554, 0.05878821251946501, 0.04848047322133758, -0.02771341348714062, 0.01458533301161484, 0.03919402354922265, -0.022078189555757275, 0.016639130099297548, -0.031457904142200864, 0.02014374418639856, 0.010603026474273827, -0.04646582531140004, -0.04114431305393827, 0.0008089325699079999, -0.011216703932878536, 0.02780726199407674, -0.004561408501243892, 0.06833659014610387, 0.011822789209166807, -0.01057410575509796, -0.038564467829628205, 0.027466715458162524, 0.011912440636298644, 0.019831900447114553, 0.009424829599550504, -0.01180122106767214, 0.004981121967124008, -0.021749859691510755, -0.005041398820963831, 0.006635101535850209, -0.005144143282829595, 0.04641586407450526, 0.031994562928950004, 0.0015953018370051283, 0.007872139822287724, 0.012525126632133822, 0.07907272760706473, 0.0024364237022804903, 0.07921037379928045, 0.06287139301409368, 0.034870302879098675, 0.03943623834079034, -0.012475471701318158, -0.023175546789532223, -0.06072223476966662, 0.020312683777689952, -0.04052937507381358, 0.0400714045513917, -0.04023661474173515, 0.04467974377949381, 0.024476953987057435, 0.0011154046403206543, -0.016631261305206223, -0.015594980500708374, -0.019593285790075205, -0.029951920566527127, 0.0064077539605282615, 0.01743416846783524, 0.04827117048241404, 0.04285590817587882, 0.030131618145923033, -0.025091194588337525, 0.009250695953911184, -0.00346357017861868, -0.00827007877444257, -0.023938580781708456, -0.09070331158576009, -0.031214976666650823, 0.007750294678477912, -0.07103532373235709, -0.03535109450870603, 0.03767463249809362, -0.03422259212342041, -0.014455232521666774, 0.03202663685753839, -0.014536188693191893, -0.02836276065169632, 0.0722463765951178, 0.02096932780280654, -0.0385241251655665, 0.016729791312161516, -0.008497601865808642, 0.010066535275733058, -0.0036357823210338793, 0.003583382248452447, -0.024355265206833204, -0.0069270999373450114, -0.02954847227890569, 0.03432226760698948, -0.02861705762427215, -1.3002753200291583e-05, -0.02356758146226837, -0.021780677819158576, -0.030798814024045218, 0.01741037095779113, 0.02655312658874329, 0.011512045369745148, 0.07337070850118782, -0.014206781736085337, 0.048150486908446595, -0.07048134554369002, 0.04335362806504901, -0.047661888306644896, 0.026893153815318697, -0.010196693737092097, 0.0029718772719336518, 0.00267950847375437, 0.018932641017714764, -0.04213235418184957, 0.028998819255314206, -0.05337466092522132, 0.020319561100278837, 0.0273890928121259, 0.04543503387222254, 0.0030752047770300755, 0.010352826705127464, -0.03525421102534063, 0.01793255379989248, -0.05991482635747065, 0.022458042736976998, -0.012012209075121677, 0.013952867623262958, 0.028668981126972283, 0.053549469109040855, -0.038781356299910814, 0.018717879785559013, -0.01241256501184066, -0.07119252403200141, -0.021870339799167974, 0.06765267770867074, -0.008186106596763512, 0.057179499816164776, -0.04004900312795874, -0.00012547241149304462, 0.009892844464036696, -0.03828554678688085, 0.0654827183094512, -0.047143036841456355, 0.03776287511357126, -0.03443231649652701, -0.004610929423054223, -0.031106713684659636, -0.015912874479635023, -0.024798089352844322, -0.037201526029803866, 0.029463333406523, -0.016335321106620688, -0.04490833342619485, 0.04895560869420279, -0.003654863787803666, -0.03410522673385137, 0.07414995955408978, 0.06731173640908428, -0.013480036579034382, -0.02448946612274949, 0.0004552993257508589, -0.05269922490618504, -0.044908151141543645, 0.01560145686604299, -0.025119398147208087, -0.029586259780276278, -0.07669425207127717, -0.05539644884277515, 0.005018753892117365, 0.0004769183034256094, 0.022194132016357206, 0.02257076933301991, -0.0024727647169468653, -0.02737875479582354, 0.03678219995079949, -0.007119279761052012, -0.010289405370043346, -0.0009255280363343285, -0.047376060207343536, 0.07413925110636145, -0.006105882400710288, 0.015903990385106696, 0.048984433072195854, -0.030106545570844263, -0.00037085577016609123, 0.04385531202935638, -0.061627171193919444, -0.00909354973866958, 0.06682063243176764, -0.015809876310546974, 0.06114782451741354, 0.014247295942046408, -0.015562597848954663, -0.07285484065906624, 0.019705039892255166, 0.0015135629973926236, -0.02277434331186296, -0.011302055498858708, -0.04723753789518437, -0.06332845282634167, 0.019228712795380798, -0.013938065968378332, 0.011696155805362412, 0.0938785466681606, 0.0007119068508657596, -0.023419041366172916, 0.03285245440594808, -0.0015012712050000959, -0.03365804152971225, 0.010328179022045594, -0.019102091743245325, -0.004236572358892135, 0.006272171117691048, -0.02109471109010488, 0.016820473137677646, -0.051725679082481546, -0.008464627564446495, 0.03161676886417372, 0.07667435802609886, 0.06393857339723973, 0.02536842524270945, -0.03291905152100651, -0.04354584459923165, -0.032512990769741, 0.010207405133653922, 0.006622507164613819, 0.03480652786126494, -0.0074405700227199376, -0.07464790992261756, 0.053980699571943104, -0.04067012244876887, 0.07063223245281716, 0.03450234458249081, 7.471757195708205e-05, -0.017567829737767913, 0.00926875534799509, -0.08496975929134924, 0.022060247519054853, -0.015124864193734985, -0.0057095890733690575, -0.0207904791059383, 0.001361863917707507, -0.034575287424630397, 0.00525376491689126, -0.05686398438309265, 0.027834728106374284, 0.03987975439053856, -0.026829303629866526, 0.026400677870489535, -0.02403935775484829, 0.030193496578469665, -0.019432233931873315, -0.03309237800170977, -0.00854290137253563, 0.033627938363637096, 0.0023415562212860943, 0.03177385495319946, 0.030587647642049253, -0.012829671065694258, 0.017507323363148506, -0.024259478597780784, 0.050261213061257956, -0.006838643958889542, 0.04068529158940464, 0.06102266127741177, 0.03833123332975265, 0.05054813693283137, -0.02167199718781454, -0.007602762558068667, -0.0018624296912738971, -0.0011063762034631873, 0.019974925286361297, 0.016477618883570706, -0.024925895067431827, 0.0273208099023884, -0.04523786127168501, 0.05261164741332397, -0.027163536472231253, 0.00047237772949957686, 0.0010083373957487363, -0.03557966448110503, -0.006904077681319888, -0.025204432357307592, -0.04359546342945896, 0.005230798636797491, -0.030203634320762507, 0.03249426494285136, -0.04704552071265785, 0.012949821924462264, -0.0345584869493739, 0.007572056880123963, 0.010359809065303585, -0.07035256279253688, 0.01033573075766335, -0.04472772333004608, 0.003492501380996829, -0.05384604181097964, -0.03092338666204049, 0.012767228636285028, 0.02658873949033842, -0.04583923940527699, 0.036685535044277046, 0.04584360072105417, 0.02877559695183832, -0.005506951911685266, -0.06556519110193455, 0.013034147973462256, -0.051386333423656796, -0.007137078178584431, -0.03814135568447459, -0.03913971002134272, -0.0005153077021301419, -0.06416780805345128, -0.015854376022706854, 0.019817131243979776, -0.06271839952292453, 0.051312289534474885, -0.06754801218267573, -0.0464562348763713, -0.06296105531418529, -0.11208242460148313, -0.012452863761053692, 0.011344835294793146, -0.046698143460998806, -0.04089761453826055, -0.025054756818964435, -0.0012141483446499344, -0.03148902246264038, 0.045662435952118455, 0.055277600615494804, 0.014880266015637649, 0.021192724994245505, 0.018842728095708448, 0.01848227914335717, -0.01750095469902407, -0.018506017896296127, 0.031174080957917034, -0.0013140838226820058, -0.030462619593696484, -0.029740435256336767, -0.03632814887373654, 0.006290476887124779, 0.025863384213481683, 0.06270907469181157, -0.05770013859331548, -0.02727136416210693, 0.015623693183007966, 0.04537933635570708, -0.03563743031265395, -0.018012951366510092, 0.0036681080293878778, -0.00889656356221024, 0.01689090988480033, 0.026243407738235348, -0.01983369653888075, 0.052507215615222896, 0.05116848457860057, 0.027574640416355413, -0.011491642836112792, 0.02579065274871616, -0.030118687886920428, -0.05818631507979354, -0.04806953244441615, -0.004169256717942753, 0.0042401870990026016, -0.001704789148850493, 0.010515662097224987, 0.06689738529627652, 0.0005856328376263285, -0.02346200639642385, 0.001977591870484909, -0.026587709586651107, -0.03341433900670201, -0.0420091789849937, -0.016872358951694675, 0.02719143645439646, 0.011006441310625401, -0.018627480713929574, -0.016907456866665303, -0.03796097926321923, -0.03169017741115302, -0.04769923386478687, -0.042142974402003465, -0.044093987088364824, 0.003939746302057489, -0.08054309089356804, 0.012407734650599283, 0.0155276988797271, -0.029999318601712642, 0.01039985045727056, 0.0037117586969967645, -0.053510244781339186, 0.013490094360901398, -0.043423743199446536, -0.04342976663766594, 0.009569360429808878, 0.0005082815065664762, 0.050363315099414406, -0.011463500661002305, 0.004599099343614081, 0.04655146618770062, -0.037407423020404194, 0.02809846042604183, -0.08482166275502569, -0.04716872083908362, 0.021495598612886586, 0.015361700188845768, 0.021747836287888074, 0.006139161071059643, 0.045705597051223096, -0.039883918860971423, 0.03225566921630841, -0.0690972042126802, -0.05003804994986617, 0.005389901222183036, -0.012677076827751337, -0.100011908255274, -0.01365358533510265, 0.016335199228567507, 0.049818147319700544, -0.044885487736624874, 0.006280782155573334, -0.020259652295697806, 0.028473787155142993, -0.022770656112159938, -0.03463048939540532, -0.004705664952300806, 0.03705900950611564, -0.008551779314165857, 0.03873373667037452, 0.03204614070617566, -0.01355716133709137, 0.0034366251412560242, 0.03307399467984103, -0.042799875437509995, -0.029398309508616702, 0.017133781649978603, 0.05346208731994051, 0.0017500026573694495, 0.055335772427415504, -0.021411200621167067, -0.059195876161880774, -0.04661642451386807, -0.0635878832843192, 0.016859614881168123, 0.010664119616931, -0.0014308227765508484, 0.022593858576840677, 0.016608667403742918, -0.023879345774247555, 0.008805966744121985, 0.045512229121668045, 0.048103553364338324, -0.012088311341428244, 0.021529960045606283, 0.017818694621066583, -0.07414551719848217, 0.03494654748908222, 0.01881643453159929, 0.045224792331668505, 0.028714714547073784, -0.018107501918540773, 0.03459959138079646, 0.05131764682388992, -0.012498646345595735, -0.008490030551911512, -0.008666542612882088, 0.05636677455182102, -0.05049397683243661, -0.05739938951643632, 0.009207666255046728, -0.01387457007165081, -0.06452545961140886, 0.037727801778416586, -0.03753586041894051, 0.05434000060824686, 0.005691854116326761, 0.0004374453555483367, 0.0013732670548801732, -0.03398530349716523, 0.04897094639231649, -0.021128204484743958, -0.011216700961701893, 0.006937435103090623, 0.03183514238864812, 0.0042673619912835135, -0.014404392877084787, -0.024673926578001635, 0.02811889672818605, 0.0017359720785383413, -0.014729505503178959, 0.043156856890057965, -0.018494525660956284, 0.02670256438521189, -0.028178451219298663, 0.031682605054432676, 0.0023373491658541185, 0.009131036805115967, -0.019232406731208303, 0.025811006005432225, 0.02432645400068482, -0.03499568569159866, 0.04568997676491071, -0.0373158930893097, 0.0015900241434302026, 0.046596727716824375, -0.03185539895732002, -0.04387407172561384, -0.03899751773558094, 0.05092788798653731, 0.020776135550116356, -0.00668407795500886, -0.02877390709534307, -0.04515581017939093, -0.020735608712990235, -0.009348370791117697, -0.04159730750213303, -0.050774285246395955, -0.02628576522021248, -0.01582878880897889, 0.05944763829112228, -0.010499206899362509, -0.0007477450447895853, -0.01648836670211981, 0.03277648407710261, -0.015438084906551122, -0.039032066742334906, 0.040030317093052895, -0.048887780225429917, 0.04621460269268415, -0.05054804731908302, -0.020015899720208164, -0.06854653293703868, 0.043327451959232204, 0.015645577540263647, -0.050589219127551356, 0.041888283021302306, -0.02262471596567388, -0.006127002603102549, -0.0014047578253335395, -0.062025034910131165, 0.03768786422549751, 0.002360815530833815, 0.01722199808889663, -0.0025246296906588717, -0.000610469680148133, -0.025237240037358142, 0.07180634852608575, 0.006778111335443786, 0.005306238111914374, -0.0395435703363402, 0.0984515579780519, -0.029367985072177707, -0.019702865765329536, -0.029718833216244283, -0.022112781045947594, -0.013432280143166535, -0.03613840477883382, 0.055944801285553174, -0.009645677644356924, -0.05814712840732021, -2.4963533481454946e-05, 0.04911684306826668, 0.03778737030831367, -0.014000450538287605, -0.017069132537338938, 0.009601123387470078, -0.0012734787447551616, 0.0639268095314813, -0.014000437904775736, 0.03332100215577193, -0.05462736028142201, 0.04353703867567025, 0.04053109215450425, -0.01128886328488362, 0.00867678337260259, -0.05754187265182567, -0.031189145838185155, -0.06757420723558402, 0.033079842519929854, 0.03985364006027407, 0.0034363660803079124, -0.008665125435624633, -0.04999748699070828, -0.013174250759824058, -0.0030936919683132234, 0.0023713704047271912, 0.05528521724346343, 0.019986360734138637, 0.01226781132190656, 0.03913381965393844, 0.010278292177697811, -0.004382362419631879, -0.06084625695415478, 0.0010386394207011602, 0.051060748008702854, 0.06036431560543253, -0.01790094268068868, -0.00745483902481527, 0.025590943557844026, -0.029021359237785652, -0.05944330083793366, 0.03260468012023931, -0.06305912746986252, 0.05274764271489254, -0.037917343741522, -0.023458905841540433, -0.032773864008475866, 0.04668107923619918, -0.017953638816159346, 0.00785577735563867, 0.07373581725042029, -0.02056799144759264, 0.005125802030478572, 0.0439258975410181, -0.01458913743026149, -0.0486157220979075, -0.019438606685102243, -0.023280588140358677, 0.0675768256567677, 0.027999429766803637, -0.060305821946241824, 0.004130322265081135, 0.029210104170888092, -0.03539874662237774, 0.00607937655432926, -0.024948790684392205, 0.005465352336918691, -0.016325634730629906, 0.01804300910190573, 0.012818296252599953, 0.029732696153576994, -0.01456181041926736, -0.018633851125225944, 0.07615343309496835, 0.018580833513180073, -0.03120174676684205, -0.028639896569218417, 0.03783265327711612, 0.03163017553077274, -0.03920740180104039, -0.06452512866272958, -0.02106347177499292, 4.062513794382909e-05, 0.01966534780836973, 0.02591653432468745, -0.013000796236792494, 0.029108878616889104, -0.029618982100763625, 0.032182529486656286, 0.021928532012288296, -0.004736573311033647, 0.024918292890153005, -0.005736642366201746, -0.03189086089789458, -0.031838974332912204, -0.02801462975390692, 0.013204826496150018, 0.01851949140497369, 0.0027325930913670556, -0.004392698651988379, -0.02894624686210255, 0.016137688162803906, -0.05698953522500548, 0.014435564253997666, -0.04236345395895318, -0.004110902178390085, 0.0023905401458298435, -0.034651123178281, 0.03239891386838209, 0.015108758269842742, -0.008882272453461931, 0.011919990220720876, 0.049985076205341226, 0.0010783476235813787, 0.017964750127479934, 0.020385208089472827, 0.050622210821464224, 0.022107132775765898, 0.014626660741436696, 0.0261892209767421, 0.012329798544007405, 0.008689394760895024, -0.0038279314797636356, -0.00028088319683847575, -0.06491204628626969, -0.036021242953316615, 0.04397445582330754, 0.022022689558191994, 0.052523450200683774, -0.057307365587537434, 0.00718080002961335, 0.02658689365753422, -0.046709116186824315, 0.002718452435413694, 0.02037285355607255, -0.03108848212573291, -0.03147106527990883, 0.017283398806822087, 0.024636803970939845, 0.02540006665385488, 0.06513629282130098, 0.03361011050356646, -0.009764369100569582, 0.1146793685757927, -0.02238005080017615, -0.03380129004297311, -0.03281276820484269, -0.014306194824677881, -0.025894656553033656, 0.022698598696517705, -0.029612158350884946, -0.016028278976845067, 0.03560980715533616, 0.00552635500449008, 0.021327293221714148, 0.07789451896230822, 0.009827802143515496, -0.03079928403432394, 0.030814095015981636, 0.010801298407711185, 0.029706423236913113, -0.0012420812837165977, 0.03641476502299265, 0.0248458069545034, 0.027157323708364288, 0.04277548560599476, -0.026031172160327524, -0.003809260861149487, -0.016055026481008264, -0.016396907171471607, 0.004343125333939262, -0.011420347904022035, -0.019124643850593478, -0.005302953106451336, -0.07730335484112595, 0.01175268774854746, -0.006128213822507098, -0.003162342261361131, 0.042134092998953154, -0.012307335921331701, -0.006902941329116547, 0.06454027735879007, -0.02129475583487708, -0.030106536467581272, -0.010225947237341054, -0.05958672751824664, 0.0420920385158877, -0.004308598080396837, 0.010563989465924534, 0.08257810521945327, -0.02867450510487327, 0.023949575252219777, 0.018219991505407204, -0.025149141701407175, -0.008635126789115313, -0.06704026113811377, -0.05065972535463812, 0.022767715206977977, 0.026053068280167534, 0.00130407751364917, -0.019800042840067228, 0.03702589597708284, -0.013846650412981647, 0.013994477622568533, -0.008199562901694518, -0.031189464348088888, -0.018005298458448046, 0.027761579909519447, -0.0681264578525311, 0.03348255443452019, -0.00441526229678802, -0.031220174725438397], [-0.05738226290829642, 0.016843459093733238, 0.004865416462838554, -0.019251305286389287, -0.013793007290929705, -0.007581291639068506, -0.04666355957545482, 0.014730523888206098, 0.03129950024697495, 0.03389041656072675, 0.004685662229537923, 0.0720234230061915, 0.006827936782832789, 0.037709223995466896, -0.05724014322491218, -0.007865586494477753, 0.044061725273868334, -0.010884452648197167, -0.052741380893554964, 0.04880988967823439, -0.004339603811486647, 0.034656626533392534, -0.05132805274473213, -0.0063728383683539554, 0.08080105200030659, -0.010191592937459136, 0.036790243474207146, 0.013526107917948291, 0.036271854759120765, 0.02279340809377821, 0.04099639074559145, 0.03953228924857528, -0.03978529350326762, 0.03326420809540342, 0.0030803983401585565, 0.030576860927034454, -0.05918061013976502, -0.022161888717502153, 0.00846061630075096, 0.04587974715878722, 0.001082538379968266, 0.013801654591105736, -0.03712699810324788, 0.017768604428698938, -0.014198947730402414, 0.01816718626878933, 0.007561816584068464, -0.026735961702417894, 0.017474455582410786, -0.0222495191126458, -0.0528008704602058, -0.03998896452973513, -0.0662459614295515, -0.0018037476313839086, -0.09066878358044585, -0.007196434786131592, 0.0033703761369296794, 0.007938746340272989, 0.030870632132638392, -0.0012721619459859234, 0.03416541772592271, -0.02073764181897766, 0.004464936775507684, 0.004998842475814002, -0.013266951412002336, 0.08674483721106298, 0.0519721156743117, 0.042115431429261524, 0.010026742084415452, 0.03209618778604551, 0.030244673802516626, 0.06947686904262804, -0.0427813444799646, -0.0016666939385111715, -0.020243979632527373, 0.024303091461866683, 0.03196338669735141, -0.05192420503009274, 0.0010773755575650696, -0.03356259785930966, -0.005448522447198773, -0.05651785700814608, -0.012608684853331116, 0.04096010363712256, -0.014600009480321275, 0.04716451185967852, -0.0553145220873637, -0.0010597224073846554, 0.06685534032150295, -0.034207613691045954, 0.053468764021991626, -0.04301064437206319, -0.027543598433990714, 0.028785453977002495, 0.04056116776486801, 0.0383028427745999, 0.010624831214564671, -0.013812306599400795, -0.011907162131850795, -0.00099267221535102, 0.029748973440972982, -0.0038361489011997864, -0.01008398033755335, -0.04212072228774873, 0.0046824935825878905, 0.024661312736218063, 0.02302041592942997, -0.05211858713161988, 0.01613033219582321, 0.006318141227836946, -0.05578629751740846, -0.06683128531860791, 0.01757094050165994, -0.03161152102879154, -0.02807656159742034, -0.0129422851219641, -0.027679892869100352, 0.011232752520680482, 0.01777605829735733, -0.024173222168055692, -0.0233426096557471, -0.010136959364434966, -0.07911976198491147, -0.035030224300082964, 0.01925457938829003, 0.07857605557402784, -0.0015502654173916702, -0.00889713861906492, -0.03857397057977256, 0.0333670569032179, 0.061562015396967935, 0.005018109043664617, -0.009401269216032486, -0.00907554231744135, 0.0011196146097301987, 0.04522528301618003, 0.02079418261873903, 0.020302266076757322, -0.017181843902585446, 0.026144689230551837, -0.08509092282207256, -0.01428393811586633, -0.05458430268134476, 0.052739080082153195, -0.023744698496504277, 0.017668474489572844, 0.001951859149250539, 0.0026411187280113483, 0.005186019511245806, 0.012527096002724216, 0.019199074472253514, -0.03191034829174392, -0.02008638999894635, -0.0336020374387337, -0.002544415990031715, -0.06873214179301963, -0.0030067178415048193, 0.00270931614261842, -0.03182899787659286, 0.025621822932240076, -0.043847694426648126, -0.0004396005320620846, -0.026341612330884577, -0.005191174813727468, -0.029899370320792287, -0.005221971307015352, 0.06515980870835765, 0.020724052706522292, -0.06876021406107619, 0.008335496152073702, 0.020412728770540612, -0.026920518650920426, -0.06695392615656764, 0.0013788202735736839, -0.04169094168288655, 0.037473882974350295, 0.0064430561822857065, 0.02609584505530384, -0.014501538968101267, 0.02738520277449126, -0.0354562622563293, -0.04115012636647696, 0.021119193693430245, -0.04543678277269453, 0.05539567947407204, 0.025100838613753694, 0.07471048071275047, 0.006160002620631923, -0.013823584312852267, -0.01625522800132281, -0.011362467947467788, -0.03333722685823407, -0.02520482962287919, 0.01568409133101894, 0.006372551685752327, -0.008134418949337611, 0.05932764448878411, 0.04690315901386802, -0.018131483914636263, 0.02387077980433098, -0.02068455064774058, 0.01030781049914962, 0.013811781511401219, 0.027952879589879773, 0.005647710140553796, -0.013174391441923379, -0.04597997759891411, 0.002445782664655967, 0.06029660049454664, -0.043424579584972346, -0.0006854227402016745, 0.00922054616063842, 0.05579699370424421, -0.04503056233293308, 0.035789465009203526, -0.028596517725767667, 0.008964470562375338, 0.02694433954555549, 0.0360343083294891, -0.06550289325286877, 0.017236114615900754, -0.01594617996445087, -0.01961608462471155, 0.00347438830403582, -0.05567288261099493, 0.006314833081289535, 0.050087108009900315, 0.03714464329441319, 0.02241714093860339, -0.003697592685719132, -0.03767329483301802, 0.002004617645525031, 0.05491678304819558, 0.029719176938894448, -0.020617673102572485, 0.046487373066201605, -0.04553541238661356, -0.022932826750793976, 0.01902831675111635, 0.0015075009747391403, 0.02500410896566533, -0.020469582383752433, 0.019757804450329472, -0.0725568495637294, 0.021877527420932755, -0.0163547435069752, -0.06601988259761757, 0.046002406541484714, 0.039983533585769795, -0.01856962227533339, -0.0007231043924834273, 0.0032412185178562537, -0.002451567115394333, 0.03084248512358536, 0.03708900668499249, 0.07094324130442622, -0.07189904408527549, -0.029913419622412646, -0.052694756298352435, 0.021313103954524567, 0.00835383921061992, 0.017686074752446868, -0.008503417834516056, 0.050562785477991215, 0.022000159570036648, -0.06429922248565424, -0.03845414990255667, 0.05175432179139536, 0.027822596637421856, -0.017011171646872346, 0.015684528381168773, -0.02594523963471224, 0.020112344888835027, -0.010302583429685005, -0.0001100759626539297, 0.027069465463207366, -0.019248645226402076, -0.07552034105145108, 0.028214565731431402, -0.011877773532628802, -0.000777335256945105, 0.006926440732238334, 0.035301949958425824, 0.014003939679700459, -0.014832828676259178, -0.017596292093322613, 0.01308882113811697, 0.0013790845127621934, -0.06997000589456574, -0.02209427873668373, 0.01061801284463009, 0.0208708933732155, 0.0669650268998598, -0.05841952487164955, -0.015748535977346483, 0.04569424539769014, -0.041039759165104196, 0.020234628209182474, 0.05518119630873245, 0.02297684241854133, 0.0019129251934267874, -0.027449501158549907, 0.01796181273418615, -0.007622320177355449, -0.025539589714857563, 0.02441268480339251, -0.023317957238249504, -0.00134884121777618, -0.11325624586941968, -0.007938350533570523, 0.06300829991904115, -0.004121551321949101, -0.02400239120549732, 0.032029295569022495, -0.11012312176391105, 0.015821755577092693, -0.035254448772388945, 0.019341662115963044, 0.05133950305363666, -0.023903023717600815, -0.004461341613665336, 0.07430103903226155, 0.002134351127171543, -0.09113759228324213, -0.038168883664821386, -0.0344736812732601, 0.017717925185611463, -0.024603077301310068, 0.027122239619204114, -0.03742204959283367, -0.02566948631810354, 0.028439028795762347, 0.015144036115522043, 0.018265252460457772, 0.009273203436892129, 0.04876256702887195, 0.04938617391207313, -0.03859984312760174, 0.02338889688280907, -0.01139936857686538, -0.04086545748303631, 0.019100873913524635, 0.009840318673518306, -0.049303773929957447, -0.031505089837551736, -0.012929403296303538, -0.03630076379126423, -0.009109411226385863, -0.021809690687725456, -0.01094179387302257, -0.05051023547928171, 0.04312824936653182, 0.03542855353214704, -0.015065251221004751, -0.003279512030906354, 0.044844394306404745, -0.05325078348660315, 0.02339113838991586, 0.0035211048045115903, 0.06621827055363907, -0.004633817657066023, -0.04622667092139937, -0.007823838370611024, -0.006686456832158334, 0.051246971941722876, -0.06585538379043566, 0.022400886599934635, -0.04008500345274284, -0.002769427113448583, -0.05063412080326328, -0.026368833809104344, 0.03516530989069947, -0.013735823784296615, -0.024176978585103346, -0.043029183703378104, 0.045287222329634724, 0.05249193934336583, -0.043989081235666916, 0.00251975316195593, 0.035064558821124026, 0.04640612070257011, 0.07812013465793806, -0.06210213064082613, -0.025925909229993285, 0.01930034781441152, -0.016451379450610083, -0.005602672458396938, 0.025199638481050685, -0.06088713083356111, -0.015877595808924297, -0.0008332755473177831, -0.006435636517665786, 0.03441494348550608, 0.02838845790041831, -0.012237845385697345, 0.06248754568813077, 0.00551766053112792, -0.04383353834444261, -0.002473482412708024, 0.03737628292833459, -0.018391011000493, -0.022583906258609787, -0.029153103588951228, 0.020887135385478123, 0.022205319349507698, 0.045756799595197406, 0.023997376292223316, 0.022108819232169667, 0.0655688552086601, -0.010045485043682485, 0.023867639414435916, 0.012497244670569988, 0.03881981262994308, 0.007649337741199891, 0.001345554851771929, 0.03741049731168892, 0.06933198949485701, -0.018625508563350213, 0.0033174262373466537, 0.016335522866982484, -0.01502181908439301, -0.0388607132187508, 0.0022818728298276566, -0.01804887082864275, 0.005637065559629414, -0.05711940116279068, 0.025154413824942993, -0.0070543186581772796, 0.016861565785200632, 0.019413009788957776, 0.012276850810802431, 0.008107955552114951, 0.040935971134509176, -0.036040406331552845, 0.012907308707965783, -0.009145298510344282, -0.0012882026781906415, -0.004829643460369086, 0.01481603640645988, -0.0061356758251923955, -0.032195108717633425, 0.02653183632868279, -0.02813011172015296, 0.07870323486248841, -0.015469218983055602, -0.07185882049624798, 0.039416645779702844, 0.005726509145583346, -0.017130818135941007, 0.012572382255691164, 0.004718266748221539, 0.03146565232156363, 0.07602024043542813, 0.03188777325965202, 0.032025277929594684, 0.05279654503577555, 0.02380865338268066, -0.034801180762992455, 0.00846856158314437, -0.027652249659232, 0.011283911157485, 0.06781534975165004, -0.05449036460045284, 0.0190875533056001, -0.011958033096156619, 0.028299443295741692, -0.015366423824723785, 0.012938071586202858, 0.018557542769308218, 0.011354732146958148, 0.006200395132055897, -0.06003336611933449, 0.013944177333040193, 0.028948476562216857, 0.004635683960621788, -0.0009400655585645139, -0.023978737061428383, -0.019576128913065316, -0.0026708193372547927, 0.022206990027427435, -0.036422079839078414, 0.015888172327346392, -0.012665887273605046, -0.001189223538270587, 0.04028402380141429, 0.02220158885505288, 0.0701912391537125, -0.019778651666273694, 0.005375323451625373, -0.059192250778800866, -0.00019495116716055044, -0.015004437339468225, -0.004072321290673243, -0.014972298816222945, -0.03024720548150819, 0.019333641117314095, 0.019974477476191833, 0.0016415975656446022, -0.012196572372266698, -0.03523007092128828, -0.07833892047212086, -0.07702402783453186, 0.04701933232488064, -0.05995272058159167, 0.027004583355220744, 0.0013487501694862715, 0.01217077876368246, -0.01835397573607511, 0.0010067257711192973, 0.044721091465589245, -0.01013091806222741, 0.0009802202039722158, -0.023517663601496958, -0.029641066725843723, -0.05760610939306585, -0.006907361622787234, -0.016953073645298408, -0.0025301675013537353, 0.02544225224970379, 0.01418304387372118, -0.020609613725279138, 0.028512448405121002, 0.026135416196835116, 0.002990978187527209, 0.003010920123566503, -0.024986597003633645, 0.018581802860876136, 0.0051211482954534, -0.007515079449594364, 0.050821759920210076, -0.0017082892120006945, 0.03373447193757284, 0.013644163482439676, 0.05950385494985679, 0.016479258182221224, 0.00986437933194267, 0.01891838676215666, -0.02064672321335248, -0.03891493569276933, 0.08467512976140192, 0.021024622703553222, 0.0313717021377905, -0.05529369216545121, 0.005454783142644845, -0.012522453036636854, 0.013729259695146663, 0.0666416824730549, -0.03821283757456837, 0.012481313717982173, -0.010903299345232676, 0.00019117946634843413, -0.029108013302016605, -0.08779733273613413, 0.038001096909493985, 0.0022449641545809057, 0.032125807746580734, -0.03733362495982388, 0.037645940975343746, -0.0028725698301929788, 0.025375701442741552, -0.023817591193574007, 0.043167556259136104, -0.016229624634680372, -0.010630245423271885, 0.015719473435860547, 0.011324525570065407, 0.03562015781514033, -0.0019531050646705295, -0.009635326637609961, 0.08521826874352074, 0.01738757499455126, 0.02148470245331697, -0.036343364605050534, -0.04867477877193404, -0.010705813104135932, 0.021892796469636138, 0.00848886189245521, 0.06859317760442711, -0.041904657042230925, -0.017038343308332825, 0.008897471691280716, 0.030505754673986134, -0.025081386354076775, 0.014103760968513354, -0.04695648758701189, -0.048641639851509655, 0.0009291737913545283, -0.01259950464935855, -0.04559702415390419, -0.08955623949797059, 0.04637810267608267, 0.06258441063760609, 0.0019725798836228987, 0.0006223959789838423, -0.02972329277638547, 0.006333119812063867, 0.03550994467414429, -0.03176657532246858, -0.012903617524060537, 0.03643703125872769, 0.014890846249467902, 0.06385030556844733, -0.014876156319623628, 0.013809168391917781, 0.015660202218263725, -0.02748741468089499, 0.05889205664834316, 0.033592846293492844, 0.003557586235198116, 0.005551068432755725, 0.02459511905195728, 0.00575076997948449, -0.012707589808944559, -0.024426595954208687, 0.014657433689582488, -0.039422599645081394, -0.023531456769229943, -0.0175311854292487, -0.016546231437077483, -0.0022776274955924164, 0.037498164716421575, 0.02576127723186518, -0.02305557337189933, 0.009414899234235623, 0.04291041766207534, -0.02449752823394435, 0.05060903856995194, -0.043767096114898596, -0.04923364973911848, -0.022795152646008995, 0.007635404098117644, -0.011960088413270505, 0.06131760211241916, 0.0321321467399144, 0.031038323377525854, 0.00401358353408009, -0.09748826455127499, -0.030189946905149177, -0.029902300631393666, 0.03444337468669199, 0.001954193154530673, 0.000845175417632407, 0.02608091186087883, -0.017245791652428375, 0.007349478338043658, -0.03451637007787244, 0.005045905782734388, -0.060888115841254524, 0.044309690449089376, -0.019273323087462095, -0.01155555823291331, -0.008740285894708122, -0.0007668662729898158, 0.014071389656959385, -0.026010367923887057, -0.013807533746961418, 0.01359952464764612, -0.01344821474445007, -0.006012629379035358, -0.02920056240516558, 0.002494547334313501, 0.007926798229790267, -0.023232152301357622, 0.00587726089305157, -0.0622401601674159, 0.019442950482409252, 0.021495791867770144, 0.0060949586482114265, 0.013445501751641388, -0.0289273974346431, 0.00917242157060691, -0.011543763117931065, 0.016834952436919026, 0.0031397084543585774, -0.044365205985247166, -0.02782768161348667, 0.01758539314469692, -0.01541638534655677, 0.02131256586571645, -0.006565013986290077, 0.006478998066829188, 0.034641086919818924, -0.09701519962100648, 0.04217171953472805, 0.005404210679912602, 0.05438936015592577, -0.03634511036253694, 0.031034625809374574, 0.06957824703116741, -0.0162885733557154, -0.001337603689037649, -0.011069395799406195, 0.0042256184876723665, -0.04167273910232411, 0.014415675822909695, -0.029990524837851733, 0.05599378181772003, -0.0019523255691258636, 0.07726934067495334, 0.05350477183656174, 0.03536771413678705, -0.010588889958963104, -0.020590226774041813, 0.04469585665419915, -0.05179789178678871, 0.022499691170798003, 0.059194312735407824, -0.0610034805950948, 0.007665384112848483, 0.03377275003814167, 0.0052933019187953855, 0.007836114192915654, 0.007874247588749524, 0.0045120903840683456, -0.09514053493934167, 0.010426921734729694, -0.010620364098796681, -0.011220186538092904, -0.02240423127284353, 0.018769551692385776, -0.008677501843322161, -0.020271892570989703, 0.026792844448702814, 0.012394176137872304, -0.05822956730706773, -0.03519780739224697, 0.04101456974907966, 0.026856893889942973, -0.0058879970052875645, -0.03412605058678843, -0.03310922808767244, 0.00487803619559232, 0.031959113619254506, -0.03741277537118272, 0.019794144950279355, -0.03451146466385305, -0.031867612113474046, -0.05961668130172602, -0.0036274840292571686, -0.03723291839686816, 0.04861269096141639, -0.05143918953260322, 0.03428585356423763, 0.009198476584369928, -0.03186799774308579, 0.012618205627152473, 0.014986519288809758, 0.012563583849882081, 0.002964835820634711, 0.02156580239920278, -0.04467848173451931, -0.03791696896786135, 0.02579817101394462, -0.0816477757045248, -0.036145175518413016, -0.0351902863870448, -0.029553400104306845, -0.026952443290661838, 0.004013105237778238, 0.05274103015186527, -0.003277422164668745, 0.008573812461894627, -0.04794892862082302, 0.0037029932076451297, 0.027305179795842953, 0.04771932815881664, 0.005657030239248085, -0.018451818535274847, 0.0282379230238043, -0.008414573042830964, 0.023782015281937328, -0.017420502626147475, 0.0036507654390013555, 0.034183613814589016, -0.029912071477968347, 0.009012014715993963, 0.04652978396835488, -0.07825579792906713, 0.00874843518431372, 0.004181365505765417, -0.013312604883943353, 0.01707761949784604, 0.01985776211481086, -0.026500748905722186], [0.00011167631782412683, 0.018416816509027968, -0.025062249944418448, 0.006735819239932489, 0.03639993860806342, 0.03606679648463225, 0.028993668945511124, 0.07241262268667026, -0.05683540534432517, 0.05735032886486622, 0.0045220225439285685, 0.02288740367837164, 0.007170995952445753, 0.02346524410960889, -0.05006954430134566, -0.01798401772604116, -0.009814919686947659, 0.0072423310102949934, 0.004397456962044792, -0.04660545518260672, -0.009080063465011569, -0.0621366034708728, 0.03975744080681843, 0.0024361563301497162, 0.030555800234976654, 0.01991902365607122, 0.02225168291085062, 0.028424555451013696, -0.08525977345341386, 0.030612767085603277, -0.0366555415531794, -0.01914133057973621, 0.08665457941931531, 0.024393295499694986, 0.016733345709437863, 0.006299249682169792, -0.024106385009183665, 0.011558544821398722, 0.020135577176832495, 0.04441174532048321, 0.032576057059848985, 0.009046603231201865, 0.015621814678863633, -0.018463815864517837, 0.060651700934399075, -0.06100723329419773, -0.017646302874763608, -0.023156256171735702, 0.06130666367898486, 0.044553346274797664, -0.012629370787230216, -0.01664376261387113, 0.025777652758364, -0.06341341389928144, 0.04118556104869978, 0.006751363350515628, -0.00825032295149351, 0.08256662146669405, -0.01712410236386593, 0.009249330556964372, 0.037778411075629785, 0.008779697818318633, 0.019056256544362334, -0.005334668852127531, -0.010346518496542174, 0.015365899904346154, -0.020886999211839997, 0.03953613323370807, 0.019136657908614733, -0.03574028189109366, -0.007659511920707846, -0.008760835842027867, 0.006253156751771657, -0.006400551923245079, -0.013520685135632786, 0.010478661925946799, 0.08543200883384418, -0.002709904905010283, 0.011981150985575728, -0.05572703005544341, -0.06554847175102639, -0.05588679263189441, 0.001336837334663331, 0.07059256397303908, -0.014368810030593331, 0.08911701246397755, -0.05662808955096925, 0.03265152184221745, -0.0011312759657325327, -0.014430596359755323, 0.0049334139604346435, 0.010382877654489989, -0.04677778444659143, -0.0014242350377052333, -0.006269897582482424, -0.012268763913896766, -0.0009467887117109942, 0.004872931384025999, -0.021663245780722262, 0.008255453268141697, 0.05419056999905709, -0.05451413995218446, -0.005961010552983846, -0.02548716426427066, 0.08291990700292663, -0.045239412372540574, -0.0735901861346845, 0.03719486902503823, 0.004941082769439284, 0.10044462916500228, -0.02518836405796816, 0.02138662714887358, 0.04702987438217111, -0.004892097871332692, 0.06868728796143153, 0.017110185889419066, 0.011673287624217831, -0.04718764511003289, 0.0507700485295119, -0.005245264693045299, 0.03417452528011114, 0.04464723682737601, 0.037358546609298555, -0.021271020493915237, 0.013686519391625832, -0.0240388815929473, -0.0014995507402872914, 0.005238855215323422, -0.04246924468090317, 0.0010391826957254033, 0.009905502499575088, 0.007341040757039137, 0.009858353476252244, -0.00653588854241315, -0.0316804141379726, -0.020584776598232334, -0.027140573677628337, 0.022744912348689153, 0.053112752943874374, -0.03532908735785585, -0.04892359492476221, -0.03130538379707871, 0.025644947999695966, -0.034843586442837825, 0.03215249267125636, 0.023292907418672584, -0.02824892380321166, -0.0348179376648897, -0.005889168873693966, 0.014644517321642316, -0.0263011692494808, -0.009191261992671894, -0.04848194644958707, -0.022342706616610978, 0.010691901714111423, -0.026427604249318372, -0.07784279877948724, 0.0005868394759006025, -0.08591933357115407, -0.03782145950745283, 0.024363886318207018, 0.049079534838632845, 0.001340236687945583, 0.024635395444967106, -0.021626421656961214, 0.011038485810957689, -0.029900188543098626, 0.048013945944064815, 0.02790792562048483, -0.07088725456072523, 0.011476493256074347, -0.013234666688236392, -0.014013518172214507, 0.008159908449655603, 0.030544119511322104, -0.034146667935186586, 0.03220468225831488, -0.00834949222453213, 0.007413233639010243, -0.02920305465898484, -0.01600964292126728, -0.011789657620698432, 0.05596916074640735, 0.0158220716844107, -0.040265631485929834, -0.02075919872902019, -0.026729180279691126, -0.05641718364458148, -0.06142647113777186, -0.00700085965056347, 0.007087397638842232, 0.0480781102503506, 0.031254891963727785, 0.006575888519259704, 0.03574579504145027, -0.03892763699878307, 0.02277830217626379, 0.01737969335644317, -0.0016035509273643082, 0.08674045369464173, -0.015818378625826066, 0.006010624451406324, -0.003954266686834943, 0.0048974376680584126, -0.014682650247541002, 0.023460825752139404, 0.021679878182921372, -0.0155542400644682, 0.009749410407061156, -0.05767433684412357, -0.023740798876142024, -0.02626389129943292, -0.01638817973485069, -0.008938125292853153, 0.004861280218082922, -0.018631123042049398, -0.05259701084868997, -0.07992314330797687, -0.07234995985246695, -0.05168387421497227, 0.016534736105589667, -0.059636550981077, 0.025831764379685953, 0.04233082228805823, 0.02426169865956112, 0.030762830535098217, -0.009934684868242316, 0.014992276247787038, 0.04264500118969444, 0.015238876673933475, 0.03502907432038693, -0.016147324610702486, -0.010390215313887119, -0.032217581042258504, 0.09186591308973265, 0.044296059611250355, -0.003411143220144517, -0.013820828500257594, -0.04537392543471048, -0.038977579428763794, -0.005974306059637787, 0.03230041786491088, -0.05112678106503065, -0.037137992809439774, 0.045576926354631106, 0.015455270846255519, -0.00804584049986784, 0.08488521943061501, -0.0200027268480498, 0.0037566212365113456, -0.12712183920383874, -0.020670814541070018, -0.0077807849161264766, -0.03170019715277464, 0.057073183089638595, 0.036578367827132696, 0.014918899686156731, -0.04264192037850666, 0.02615602838441112, -0.04736740716898658, 0.043710760072683257, -0.047572991818933756, -0.040378702878011576, -0.010930291505132372, -0.04543750122591595, -0.05159343216918702, 0.051079597899302116, -0.0019651306376454653, -0.03801936831767454, 0.007247811954100509, -0.0768659409492864, 0.019092211663194286, 0.015787342919165167, 0.0037015293118864466, -0.0203498654708629, -0.017261564365302788, -0.030252654633457162, 0.04052665721068089, 0.024539071627309627, -0.007829995270108305, 0.004335284007402897, 0.00817664432105509, -0.03910870280594304, -0.054425940669810116, 0.02636704856585395, -0.04075536191020022, -0.07002830213324077, -0.01618609618344064, 0.05179568404215219, -0.01193830878013633, 0.04335457311629912, -0.008277061483241959, -0.0012459093283003298, 0.05187181911957185, -0.04290492322593061, 0.027354638098169428, 0.022079208215643815, 0.037067832693752994, 0.02204247137103506, -0.0032588907180623244, -0.04663858931544846, -0.025482940693946694, 0.0018163893912709426, -0.016986209676601485, -0.008667738959182141, -0.01363461882523586, -0.03345420643066291, 0.023436311304474166, -0.00047886885351474024, 0.036292149799149305, 0.05798105690601809, 0.019419727721467755, 0.05397450847875781, -0.0032072103197890497, -0.003400852740301364, -0.03243855696497415, 0.012311137019894565, -0.012237024870206496, 0.025901282405150026, -0.09701524379677225, -0.0166618645184919, -0.00848774169936563, -0.03804817885101842, -0.008287834014959992, 0.05601525541490238, -0.009406541485563346, -0.019733274564156265, -0.006924781879398366, 0.015464942751132641, -0.06605225413869915, 0.04522801997085283, 0.0137707960365109, -0.012831245596642815, 0.01493802337355951, 0.006304910433631585, 0.010402876393503875, 0.021260169935731717, -0.014821144972614896, -0.013181194358660457, 0.007889456315951345, 0.0412495879029855, 0.008554364043533085, -0.029115200117823634, -0.002751958448902225, 0.0012597861127490065, 0.039950296484778415, 0.04319727055893799, 0.014113319597830333, 0.005393434459981607, 0.03341178137957841, 0.05193138823977589, -0.016431840718203757, -0.0068418437069024405, -0.03708032716999404, -0.018952356463024306, 0.02286430034752488, 0.014062992586573484, 0.009701993259490165, 0.010892918085939257, -0.01783480268968221, -0.019678423063370188, -0.023261383701403175, -0.05470584396940699, 0.024136279874685956, -0.010034592061360478, -0.019669690505981902, -0.02223757022467483, -0.02177186645155206, -0.060651828799073416, -0.009825359620874902, 0.0079889966517052, -0.051102770079596925, 0.08515247734520516, 0.0015488539832176447, 0.0006507898681950895, -0.035169715689111536, -0.041152730115771204, -0.07759076831653125, -0.008571863473119244, 0.045457083632865186, 0.0006286112090554507, 0.02008132364742528, -0.03490227809775584, 0.053423264772243795, -0.030937529316118383, 0.055626354194853816, 0.007467841216293932, -0.004257429153059852, -0.01571278405663661, -0.018378657165632393, -0.03263297338374348, -0.009288949909142884, -0.007705456561274229, 0.023032304809413283, -0.050238159736842015, 0.022962569160063534, -0.059236930153366854, 0.002415634013164785, -0.005909584820491835, 0.026103033694482507, 0.014902284506170222, -0.01321221249387414, -0.036500533883610055, 0.017163961838932484, 0.02507135235323684, 0.01144542808456476, -0.04349344157963783, -0.03460897410861166, 0.0453868854572991, -0.023057019631415352, 0.00922807756988489, 0.010917585978045173, -0.06625766503676632, 0.01742260592287028, 0.06365539145967697, 0.00796758253073727, 0.017097096734535362, 0.04850261983070674, -0.004986535835288714, 0.018614993522151988, 0.07782313703763145, 0.028512591460746667, 0.014753447760766095, 0.0475067477606348, 0.02516759015637925, -0.04252178038354251, 0.0501583315017818, -0.008180338395252262, 0.04801726355901613, 0.03726688962332363, -0.05371516827651619, 0.030092231084269987, 0.03763392699825859, 0.010853490348594959, 0.0007450210492593172, -0.03154276543151221, 0.016380624757647833, -0.06117489566363156, 0.04384258926206434, -0.0177775608278701, -0.013946692612155453, 0.013815910747500612, -0.06390845501416643, 0.0052940913790734175, 0.0032994628976430644, -0.023350484876890457, -0.03541865630417211, -0.029085116484711678, -0.07046455781209648, -0.015471282217984585, -0.05699850739668059, -0.022120284967154152, 0.045262866108222444, -0.04050045200980201, -0.01841651157723986, -0.011747564628736131, -0.016902884748593548, 0.042893312360544764, -0.00935149017676961, -0.010158855377739454, -0.010755562733732729, -0.002673469361834395, 0.04373045685914367, 0.0120331192684061, -0.007052592783303221, 0.06441508928149695, 0.01652732024875003, 0.07179585539088745, 0.0050121948445675845, 0.0014634249040893907, -0.023946838519783364, 0.017274462647170807, 0.0002241980702016744, 0.031161923254052874, -0.0033998217238152438, -0.05667268739750902, 0.01447931712523416, -0.028265911788599624, 0.033359585287654675, -0.02578161358824117, 0.01741630115888089, -0.021516480063616176, -0.026729293876926255, -0.03309745810531823, 0.03928199986095998, 0.0007363575017865575, 0.012078379907421983, -0.02643991202886381, 0.004073943621063479, 0.01728835213990524, 0.009601524120475734, 0.017289578800144863, -0.016332448210842586, -0.07990441828830666, 0.05781080982150663, -0.03663261157510089, -0.024855441800684306, -0.026722643812063063, -0.058615541902706056, 0.007779567233714475, 0.039350135637880444, 0.00834021714973898, 0.0022060543043004276, 0.0020662385830022404, 0.0009872627062522048, -0.006637601602760792, -0.0936718695519381, -0.019447240632935715, 0.028082794362225865, -0.008005324839235047, 0.05257802899919782, 0.06807254419922325, -0.009006718267971317, 0.010330694455035956, 0.02541195887149626, 0.0277799264956314, -0.016783152011080316, 0.01764239754192341, 0.0826535421535056, -0.008275155068615734, 0.011005290340177254, 0.029820299029986907, 0.026020276690098314, 0.009009244085058947, -0.007411891295417725, 0.054276795347649766, -0.001510312102382484, -0.04399886815366357, 0.023593709171178794, -0.016299656240375184, 0.005762491859483854, 0.04774037657069196, 0.05224181087785716, -0.024672745319050216, 0.027241592158152545, 0.002228059567856659, -0.004733499413357933, 0.02519708355571677, 0.06842798822755514, 0.03187860012437107, 0.0030325934240080484, -0.010336459170589337, 0.049999215259520315, 0.023511534307804893, 0.048486787478087046, 0.05018865567488213, 0.02747164818992968, 0.020543530485094448, 0.07142082068638185, -0.008970715627401874, 0.019777871682795878, -0.09057802143825242, -0.0001684737846185386, 0.01168405849978813, -0.09016566622760544, -0.04859856918043671, 0.008339777028403965, -0.003067417058293512, 0.017790018764098768, -0.0005657971085474996, -0.010648033364497607, 0.030534149460316788, -0.005627185407197269, 0.030065095255584463, 0.027158860135709766, -0.002441165758998976, -0.028399983460552312, -0.02039759583940114, -0.032951702062890886, 0.03431651918768706, 0.00958084583757282, 0.043485986023805843, 0.06435859623949505, -0.048079590275993116, 0.011075223289506154, -0.058686150445759096, 0.04732985520630544, 0.04674016264096231, 0.00302902604252157, 0.0020732591670852155, -0.013656521984973476, 0.05370851124626912, 0.010042495279370825, 0.005999000215373855, -0.010965353002036111, -0.0430933522934032, 0.04929597032761185, 0.0003856436642106365, 0.0005352593965495313, -0.00854850258775594, 0.03372075462628986, 0.03951841116130009, 0.01780813963497607, 0.009361712494829056, -0.03636718391154875, 0.016939381562186114, -0.06796375875477471, 0.0188321537928057, 0.023430068160892582, -0.054289375287041176, 0.04401709575730451, -0.03076245197579272, -0.0434087603174381, -0.0466253667760485, -0.006362335622725281, 0.030687874750885386, -0.014210650225387696, -0.005421434899232311, -0.0005595995988545452, -0.03253296573478925, -0.028726925922382015, -0.027727363757598263, -0.009923771868606525, 0.002573323397821047, 0.05974394643839212, -0.016835571078558844, -0.07102785308312712, -0.02017704219544811, -0.039235884974746074, 0.013948870512678466, -0.05446052277554622, -0.047286362011258534, -0.05934154099607507, 0.016468601667943575, -0.06747738866954343, -0.011417321283695691, 0.07208134164872328, -0.057285995003144664, -0.060565890605256315, -0.026406243379798307, 0.030953261516520655, 0.008606060137689818, 0.013892992898039573, -0.023344891755257478, -0.036402526524210124, 0.026344355975645783, -0.07296546357384512, 0.0294387897406266, 0.0041805783085877984, -0.03463275067228524, 0.008868081022718613, -0.013009111096616677, -0.003376622115703973, -0.02282216303282151, -0.047940847218742005, -0.01078462497600787, 0.002870610288491753, 0.004904344172449622, -0.021357410408320628, 0.007702825033087743, 0.016257028672745092, 0.052464857787828015, -0.00556696015583005, 0.017953453259063355, 0.01542997100443339, 0.06183588577722704, -0.01743668555093036, -0.008850406139711584, 0.00861097831508608, 0.06665961691562337, -0.011153633841767353, -0.027535597845240616, 0.061538972242537224, 0.07880359511121333, -0.02559474927136708, -0.07109180475675608, 0.07760830088452586, 0.017321264022920408, 0.023305266680072552, -0.033377240874173736, -0.019539518564366466, 0.005969021723934202, -0.01770291939884463, 0.05199045327487075, -0.03912335375878813, 0.08542615860680093, -0.039266274479078406, -0.012757863033111593, 0.029770917240086292, -0.057928010763374976, -0.027438558971280422, 0.0003848986590650063, -0.02818918927153418, -0.025108021687165357, 0.04513441467198111, -0.02531741368643649, -0.02726022258276486, 0.0024505817640203174, 0.02725682297867241, 0.026157775798754068, 0.016130567280045256, 0.06338210735801603, 0.02859186911030664, 0.0029613077593163848, 0.054150361756515226, -0.003078462455554162, 0.036831206156264694, -0.005437866218719832, 0.030792351569034527, -0.03388474772043186, -0.014291736029079072, -0.0046758361151385906, 0.007611395357687478, 0.01774289540035676, 0.01634270220311738, 0.010376478655931989, 0.0402654580747239, -0.02498353277226856, -0.04806839693006508, -0.003146356677481783, 0.01913657651331852, -0.03405925363487593, -0.006006532232751409, 0.006820504786138391, 0.0424605507732383, -0.013514095593249231, -0.04479631843574248, 0.026590269390946043, -0.03887197042865823, 0.04806810918915926, -0.028213151389715946, 0.06658085349244221, 0.0010877852337091984, -0.004625827673655226, -0.02250467275449409, -0.0002476633611032955, -0.022321850657614307, 0.03346266415724855, 0.04409482017226766, 0.04487792265689994, -0.021889764341643653, -0.024945190831666218, 0.003272957481876267, -0.008905022385881471, 0.010024149288074933, -0.0034267877399626846, -0.023215372487620407, 0.002655667500251895, 0.032713005924230966, 0.023546210508781484, -0.029047209420129057, -0.04076772056546672, -0.034348775881628636, 0.008426105481618065, 0.0033989451923582105, -0.07900632759040033, -0.05687327552381437, -0.0364273157271753, -0.03251458526878892, 0.03912256836151328, -0.013298630430172887, 0.03401891271228403, 0.017582057087643883, 0.062130934801975256, 0.04362688672121776, -0.00893426106567938, 0.02239992185138562, -0.04942438230695092, 0.0022762151533257174, -0.06849593195668607, 0.062121819168494095, 0.01812575553821012, -0.03814784085553142, 0.039850990468719656, -0.009507019135085594, 0.004916432778553292, 0.0011537911981994878, -0.030475794691191466, 0.04410980447165794, -0.02413899594296216, 0.046000537929100985, 0.04313203196293789, -0.004108089640788649, 0.020531397631924686, 0.045468965141923876, -0.027394719970839983, 0.021757927104982012, 0.0007458328847976114, -0.011668771751434858, -0.021893497827688204, -0.02223156246488204, 0.03546502467170318, -0.00787308968641069, -0.00044052144707793964], [0.02098746162103188, -0.039280672021669946, -0.019187411923763387, -0.04842550853713855, -0.051785936845284535, -0.01672567849504294, 0.013691536298037587, -0.01108463559186367, 0.050472890279554206, 0.017554920513086842, 0.06664735856459435, -0.001425193214454158, -0.0389000514543023, 0.05762045316348461, 0.006309436332297342, 0.02237497248801105, -0.04129586858434504, -0.08268477483674577, -0.036285103948126535, 0.016848891022740422, 0.04563847391495249, -0.0017987757419154844, -0.01917618622006634, -0.03964912751301897, 0.003188115218041383, 0.033314392916894864, 0.03195386344424759, 0.0468203212160659, -0.037938640575436555, -0.0368034948223988, -0.02918184949848823, -0.014326707462128614, -0.05625426292059479, 0.027674849161461127, -0.015639438009731, -0.019827217228291935, 0.03555054417984952, 0.03430510455102171, 0.012795101385265762, 0.010152883363979915, 0.007924439590881367, 0.019378002124096995, -0.05307371487514959, 0.0072014216300304535, 0.02718811337708626, -0.01769051126567697, 0.016069875243926012, -0.008559990215537511, 0.003530505977307056, 0.04657600452498407, -0.04268970002204259, -0.022962348377860896, 0.02079305991702295, 0.018186756245018153, 0.009386360373935868, -0.00659839720732272, 0.015725511207280222, -0.010302129413082407, 0.03604236495444342, 0.03857624240556197, -0.0024705905021529303, -0.05518589590008562, -0.06632119014359127, 0.015416997015395666, -0.021180519961270218, -0.006501608398068026, -0.012001052863617578, 0.033272891282472135, -0.029632125268197876, -0.07780191937493654, -0.014858763601836496, 0.028638418388637, 0.015497484024037854, 0.019532230209591897, -0.05584734674968368, -0.0066378632798120485, 0.019968321053984755, -0.009558814007744368, -0.0025758179736486675, 0.029908529179265328, -0.03610071951174145, -0.03633465816074437, -0.011740273994509599, 0.05612299736939277, -0.003035230881711088, -0.0180496020774508, -0.02530419466870708, 0.01032150112814226, -0.058351414586141175, 0.005963555849128694, 0.024042831745158838, -0.019827521375976313, 0.01001440638479495, 0.06809391611650795, -0.04247733249863344, 0.020943924309713226, -0.0522117252707469, -0.011409540734187809, 0.09259651611869572, -0.05474667805946421, -0.019496030693658285, -0.0055932997025355214, -0.0763933517312644, -0.03072287981543488, -0.011810304484703339, 0.0710057457058472, 0.07781565057099814, 0.02052767207868716, 0.06439979361383144, -0.07149090432320715, -0.00014896753165947503, -0.013276926017977376, 0.04985614893646154, 0.0944218444183074, 0.09615351441761648, 0.011818244840928664, 0.0009301515193150781, -0.06851461375037823, -0.06827810240622546, -0.04185383582562934, -0.08046443340252657, 0.056453247663886395, -0.005699734094770886, -0.03425965086549231, 0.046324469589021214, -0.0127485969041732, 0.04877492241822885, -0.054658003954279576, 0.024490306276727238, -0.036155463652787524, -0.009845994726387294, -0.021225958530502315, 0.005302007601763483, 0.01888196529130081, 0.06617498064838995, -0.0025113009847776563, 0.016760228415516908, -0.05693402855924338, -0.006900221270861709, 0.03189914257267977, -0.008280172624599581, 0.033188651933629514, 0.006421340594323558, -0.024980406888822804, 0.06100310086060674, -0.009743889093857703, 0.014088984524692035, 0.006647598295313645, -0.019172212844416472, 0.005454770519287168, -0.029615653866124525, -0.06567861372283358, -0.041747779297217166, 0.03463017812336984, 0.02445801634737204, -0.0319612304839478, 0.013236838303144791, 0.021037630659151527, 0.023546768682517847, -0.005115237380673554, -0.06511763688879081, 0.006401920337948459, 0.02119772725311089, 0.005246542616087027, 0.02952536359537724, -0.010328743417041953, -0.026045207288910854, 0.049878452980482754, -0.012186521268754514, 0.06965181237031907, 0.0020077824245577102, -0.022028911130422265, -0.03604686141579366, -0.05112320692161444, 0.011621659637462249, 0.010779155075628443, -0.05763812104043299, -0.08269748140481546, -0.01451172191932352, 0.00043254801232186645, -0.03573412606672595, 0.01363250264080021, -0.04422266319860637, -0.04437328939767959, -0.07369097389222747, 0.014703232953484817, 0.019739035221032413, 0.037764408276571335, 0.00747985172112369, -0.04198707348002154, 0.06443796961794154, 0.029835908617463415, -0.03528303189061813, -0.022540164537439955, -0.07915729685432325, 0.018507063723823228, -0.014264922814170982, 0.030288783531018056, -0.029870390188792163, 0.014307430692463558, -0.010782383791007839, 0.007222591832597604, -0.03623794822273108, -0.04114649158376069, -0.0029699797984008465, 0.045691763376748365, -0.022301636979868554, -0.01000632149367314, -0.0008099448201587168, 0.004259582340717422, -0.05452745040624285, -0.007399652963086867, -0.05383832328247698, 0.040603776631447465, -0.05317916967046593, -0.029387036429156802, 0.01647160662775549, 0.015270390487956873, 0.009736043306141116, 0.03638851107832961, 0.037062450185808754, -0.06454148491014874, 0.0035588959311112435, 0.022006295701225365, 0.0009998430799372405, -0.033837173090675174, 0.04009082210492731, 0.0558452971727193, -0.006712262351298844, 0.017335084165047605, -0.04320375849076865, -0.09801245206833704, 0.007454909905944008, 0.07619998750051976, -0.011003976566131638, 0.03606351422941786, 0.00018198830975526837, -0.01267854367290424, 0.061702557806618326, -0.011644927541084257, 0.00171205275810106, -0.01650349499999288, -0.020278518260216608, -0.014784794675693243, -0.017614422809834544, 0.02876634406813603, 0.009934649951623506, -0.011837719515062314, -0.00908512310453319, -0.00015146249644313548, 0.028700448536779624, -0.017959650641678978, 0.005902894039132308, 0.0124545756369636, 0.03632350540387649, -0.010508535518078914, 0.010586621517033877, 0.007376234321280714, 0.07788480732093717, -0.00865778667688883, 0.019741067049859257, -0.04058587726322935, 0.07843442249507186, -0.06365435472228508, 0.01848742520747569, -0.09378943450782708, -0.0001782875364464045, 0.014856258636740342, -0.04162571689662431, 0.0030318826390301665, 0.047449314340628414, -0.0290731293159365, 0.05075896161490657, -0.029126811266547092, -0.006547595143473719, -0.0555195866274703, -0.01609424546901433, 0.033004495323315806, -0.05540817133975719, 0.02280144006253497, -0.017781232530538836, 0.049404561640208, -0.04656096368806343, 0.0437824350047954, -0.026464068197361402, -0.0471404940648328, 0.02487430439212869, -0.02622461421125455, -0.013019763466726158, -0.026251711862796366, 0.021927311572248618, -0.030944350862593988, 0.05274516793596192, 0.058241561132447064, -0.033271500602250724, 0.022434138061952286, 0.043345085341497634, 0.004591659919653337, 0.012908290393203455, 0.040713470612217785, 0.034228718956963736, 0.0126062268558524, -0.036611755290275994, 0.01624674731549393, -0.01745797541177704, -0.01882987085466613, -0.039944576430634364, 0.005007067548783053, 0.019210940126976966, 0.016566364040898264, 0.04064849862350538, 0.03071522644805145, 0.013365263580981467, -0.03799814475932065, 0.01857508815926223, 0.00967715988793023, 0.005158416550793112, 0.029271847586651342, -0.006802358821699336, -0.008258233362133351, -0.03766759216557808, 0.037008395266295825, 0.004903886324255562, -0.0011939235845713574, -0.01172449304163183, -0.02557621653756292, 0.05176204608091888, -0.029434700983547554, 0.024379408012273993, 0.03238227231579907, -0.006852572792271838, -0.008152746964395824, 0.017702929089096854, -0.03572934736626518, -0.0016314427939404564, 0.00037141147542980884, -0.038303127534831484, 0.000550259136713163, 0.057775248271282595, 0.04092115743642001, -0.02306399382748411, 0.014835057607358721, -0.08431733121829627, -0.0289762328798124, -0.01463526519990834, -0.013112674435316772, -0.03425682427684004, 0.07011632040707086, -0.02789647820070103, 0.0431122064734421, -0.060320471910518376, -0.014424553607010697, -0.045957829123080274, -0.04699125406978988, 0.06645162080251496, -0.039222605624742245, -0.005109088569822718, 0.027424484005680892, 0.044938563638823766, 0.01099542050189376, -0.016454713458417237, 0.026787217281121257, 0.012064372108314588, -7.093298724092977e-05, 0.004213083428618107, -0.004190839888230778, -0.03414537568520705, -0.08723243638541704, -0.0336147554285026, -0.06430976522019206, 0.026946928267545783, -0.0028758366140845715, -0.001459026655087875, -0.04407960652170129, -0.004963399099597098, 0.01946974337671786, 0.022912115458937447, 0.04337154700320642, -0.03120751372284865, -0.0036481358044608814, 0.04854551757445045, 0.0015181775523925379, -0.057506687338958876, -0.048798681073473654, -0.08124047332875563, -0.05382416001467724, 0.06372794592240057, 0.03024369141649516, 0.025717392079100933, -0.028614844543574113, 0.016805720218490174, -0.05168104393956455, 0.0022140508563430316, 0.013976307835688045, -0.02498455738332333, 0.02717952532411187, -0.008211339545710919, -0.04940745142263221, -0.04244027390993408, 0.013587090499520393, -0.021680117492470556, 0.0029541647671389357, 0.05687745168543329, 0.01236196196153255, -0.012008699480902699, -0.0038137994968466186, -0.024059115997762434, -0.01082979332958103, -0.004424284564228767, 0.029458225893208952, 0.04863954517866696, 0.06191945769886892, -0.04130877024066027, -0.04302474346880376, -0.023242503412177415, -0.028749230991394793, 0.02054114551342678, 0.003383401981864639, -0.015205868023774898, 0.03194561758076394, 0.012599736156444268, -0.041548646455690355, -0.025658014950341517, 0.00910259684030414, -0.03620524759939742, -0.01599093666718328, 0.013662143234499385, -0.00932727842998731, 0.04655932563981862, 0.010941475396235517, -0.03729131136538776, -0.020193700254029057, 0.024177388686895642, -0.00287456182657908, 0.030340701498392412, 0.001848532804000522, -0.031248372498907665, 0.024542833789665913, -0.011660016681511993, -0.055885411110629904, -0.05265945804963049, 0.020086311978104184, -0.018853446692882476, 0.07622917221381241, 0.003673551422938924, -0.04632780319808511, 0.04969281450030324, -0.0214364142098129, 0.05693025336384032, 0.028525419756769976, -0.02410176986305534, -0.0072929202916403296, 0.04254641063924283, 0.013793832878136568, 0.030700523833302327, 0.029512969011600512, -0.03478528272462624, -0.011225087691423106, 0.01476003376771974, -0.026892199270501432, 0.0452885465508965, -0.0023901594135152366, -0.03920686188695127, 0.01659117422667525, 0.03736397623681451, -0.009511978192290159, -0.027820804592608772, 0.010064140498208245, -0.007569052449702643, -0.041037886276398726, -0.041137994024250425, 0.025636161999213473, 0.0023143574411895102, -0.048657549592794544, 0.021776362337477515, 0.016363115482548127, 0.0013445974975149402, -0.04527383065204974, 0.047007712839131785, 0.03875284015139952, -0.00369366960581625, -0.007810360442034784, -0.02743691624628735, -0.012677966211686207, -0.02240224450510297, 0.041308042591237625, -0.05213003762275386, -0.021182408196555647, -0.028574556590687517, 0.004952951668950795, 0.0026820760629747116, 0.10052548650717841, -0.04238872384000156, -0.007552501641454987, -0.07258034652111955, -0.09731134277847636, -0.0032159731085463165, 0.02293172776837046, 0.05233138148017779, 0.03310101685800964, 0.01976021440239283, 0.06765733781767859, 0.023320468524194546, 0.011207835595888492, 0.041319894955398055, -0.07980053697136197, 0.09507908818663238, -0.03327118366357995, -0.0209962986573529, -0.006382243714214007, -0.014238017181173566, -0.005180129565348301, -0.041564757630084076, 0.07421519974672519, 0.03762432263894354, -0.05512166451155675, 0.013204032403185843, -0.04145518437581253, 0.01041723728138311, 0.01712704769140221, -0.005092593451533749, -0.01961304137063614, 0.017672576787809587, 0.051265413870523684, 0.01628147671856422, -0.01664562030659743, 0.03969435458337804, 0.059008513896632975, -0.041222854387793016, -0.01106787563712648, -0.003571814606017448, -0.02682662404655856, -0.025744383572135047, 0.006926054291637413, 0.008647870334600892, -0.04912050489067973, 0.0626088494195671, -0.020268015465689942, -0.008392821859826247, 0.045077222820454635, 0.03548551879316413, 0.009882966805584825, 0.04288359943717571, -0.026942469250556676, -0.031434365406464354, -0.041961050306250205, -0.039800627730373954, 0.02942456959346235, -0.018330918188359486, 0.05661418787215786, -0.05304706697219232, -0.028170638421981035, 0.05724154383688123, 0.014861608135000044, -0.01893676292698913, -0.013133159912824566, 0.0240254158208618, -0.026480104235159882, 0.006365605421364531, 0.0009276168245286286, -0.004393686134614703, -0.05836787079040777, -0.01345019491383802, -0.008599270295741333, 0.03428446643485697, -0.0005523418697573428, -0.04289911824663366, -0.041298408742792496, -0.022223375272357366, 0.01932353518642538, 0.013667920696084171, -0.018199982578913965, 0.017354990480892885, 0.007226148654167689, 0.045914625838034115, 0.024362699049972167, 0.041479935259227524, 0.010522274111222552, -0.008528710496573307, -0.04754513044295311, 0.009882994982388446, -0.026298742762568557, 0.05941916843596807, 0.022321777522458987, -0.01543265352889333, -0.015461011905450258, -0.046768710562437775, 0.031191101210798464, -0.04765898502717001, -0.006499220914394734, 0.0183362822706678, 0.03203185681392453, 0.04122399231877412, -0.001019298260041666, 0.014015438394825176, -0.004203444911200803, -0.030717577330209658, -0.03238857485905529, -0.023246435536544763, -0.002918301956832565, 0.0001236940595272075, -0.026985640322332662, -0.038432513281285594, -0.01858896787734617, -0.0025486325124485574, 0.022792370306450163, -0.041675793222241964, 0.02155179831723113, -0.045643146056462115, 0.05489817479471857, -0.008772240496434599, 0.04418822874646812, -0.09256341694236656, -0.07437938374591899, -0.05796248586671392, -0.026464954219913128, 0.043778529969179955, -0.04991995484781483, -0.026711117701949078, -0.010389282925114086, 0.03634935973304936, -0.049433327649012634, -0.03349454479730103, -0.03760207106699985, 0.0025897199082777415, -0.04173815732167584, 0.058466274709435176, -0.004622358360624819, -0.019959322858360804, 0.020851079050032906, 0.009436527022327576, -0.07283955986247748, -0.0010979826980493056, -0.0023183966624416475, 0.026125525643409735, -0.09264685149564583, -0.005743996452194624, -0.007943433704848688, -0.0200184954798435, -0.03443940973303404, -0.02618489291280683, -0.03677676606154204, 0.0464054031618496, 0.03234374985759477, 0.03214116776952778, 0.014987942384774827, 0.012002370651872263, -0.04929010421977041, 0.020837786229809356, -0.047445085208505065, 0.052157597418147315, -0.01051834924076133, -0.0056131716167060015, -0.03533616577587764, 0.010044472921543255, 0.03457951439679497, 0.0378149654282906, 0.01234631825395923, 0.062340407454821584, 0.026377386822775507, 0.006127841379014556, -0.01786349619878119, -0.03599984046692662, 0.0005041863722916896, 0.0144163473764069, 0.030507380635569434, 0.05696360642339637, 0.00516095978580217, -0.04506957534445594, 0.04079399332972437, -0.06585145821257035, -0.038056752364021625, 0.020574762110451866, -0.07745151650500236, 0.03721328334849865, 0.017415973746787432, -0.04179652267631464, -0.02979677555819279, -0.0073980294609185026, 0.04554075986351924, -0.020403684346441985, -0.05743272631454458, -0.007905133341179833, -0.05079121565530244, 0.02246847018053169, 0.00661981137279932, -0.0043086567652446854, 0.041046161961706386, -0.025135267047155276, -0.03926503920674778, -0.007804840420194033, -0.012802703537612604, 0.018554189307891336, -0.0007409856498439264, -0.009637834307651933, -0.07088581556680423, 0.04447129510464979, 0.027022864423181917, 0.04950243866762984, -0.027460436408619247, 0.06369139643680985, 0.014794656858803913, 0.01723240544309325, -0.01679220560448726, -0.04220737998599236, 0.02370301956852624, 0.007708101124964057, -0.008296816873444458, -0.005278431407226959, -0.021271235236412733, 0.03905383037819749, 0.031770874970849246, 0.03664759620381112, 0.0177954855149609, 0.0002328163549870667, 0.04018842746040608, 0.0197360893853197, -0.009815454545968045, -0.034598675877614726, -0.026159593953181452, -0.045949881886651056, 0.015974353799136063, -0.014145673665089753, -0.0441898218790223, 0.03011222136490334, 0.04048850549937407, 0.0171685798730707, -0.011007998462122576, -0.010014114696800094, 0.03595024451728166, 0.05227030511405153, -0.0012934739706129495, 0.009818171914313032, 0.02287627463031313, -0.021061644717411687, 0.03611558218781376, 0.016496479069411703, -0.013283504217029122, 0.05758742849003985, -0.010052893023416894, 0.059851625728400686, -0.020676547852806097, -0.015071802951092594, -0.020579765120855947, 0.06829474153084163, 0.02059773659886197, -0.023523315175467477, -0.006392259724830918, 0.027955456482727334, 0.00808334137904663, 0.0443181203906969, -0.05450147012184074, -0.06997616598891704, -0.021172441310168127, -0.027453122782834977, -0.027342048116407596, 0.037681915213350355, -0.011093618567924207, -0.01395190254879574, -0.002119411534058347, -0.06841800416912515, -0.03344400238123888, -0.004583518923405314, 0.021299133602532508, -0.0019055556930699885, -0.029773136632505293, 0.009973342638849985, 0.0039031030365356775, -0.08485358771908744, 0.04162746655695793, 0.06618980752570161, -0.0443947690214305, -0.0156272478259601, -0.035149716336518616, -0.020463991705285546, 0.028672162665051387, -0.029409472997589347, 0.03659584408254379, -0.00254838581993683, 0.004541590794628356, 0.01652166868362741, -0.01418281137504337, 0.0507900916110001, 0.004567903476018252], [-0.011408381350455372, -0.059397056869676175, -0.03493686195410927, -0.018599791801205485, -0.02345286436574501, -0.0008193697460148793, 0.020025571348448314, -0.07400287932212317, -0.0073101280501903405, -0.023189797022320133, -0.10048391295033196, 0.045387085821003134, 0.0076099398224602, -0.0061742991183546085, -0.014052356938740993, -0.011489542725033813, 0.03993383973303025, 0.03475163182116255, 0.007147574086967492, -0.02796261549704616, 0.02814747947795415, 0.0012069118540269555, -0.01842820005116953, -0.0012090264355087898, -0.01608772234214893, -0.03223283119511115, 0.034927990605655185, 0.0458530581595975, 0.017099450991159833, -0.026650566828443, -0.009801192551980035, 0.015641124395419214, -0.021229046138286124, -0.10526338644156696, 0.020955605588510996, -0.021868189411599837, 0.012192536489022804, -0.014658088964000412, 0.03463016464076222, 0.015440813301713385, -0.013910590521699875, -0.04181438625183191, -0.009628785857032723, -0.01488121381398553, 0.0013234474945823108, 0.026287718659243665, 0.05622543332963657, -0.018329044536002655, -0.010181538553150498, 0.0031435713794973545, -0.0013886016298173898, -0.019877745119374554, -0.015113096135455962, 0.013480246501958436, -0.04328379513026732, -0.011098755302726472, -0.015399176820421122, -0.020139976541877564, 0.03507858328271431, 0.03911689810175447, 0.018439911260071856, 0.028313206740452332, -0.03968071109430777, -0.04182844345003195, 0.0015981617641870835, -0.014461641970361786, -0.007262332011298184, -0.013138771585232235, -0.008884986769286162, 0.009490429720232115, -0.017979883013813095, -0.05339325673222309, -0.01594232207108355, 0.01699340116676077, -0.013061811964073565, -0.09353064256505692, -0.04248386129274029, -0.037266293559126355, 0.038367145185055754, -0.005219226262507775, -0.03397743557058228, 0.007332873053143205, -0.00019568574639077828, 0.016693971877235883, -0.029621836731798266, -0.034494157405811965, -0.01566874087099711, -0.021561607590124824, 0.03205285275177813, 0.028278712938338654, 0.03753491277062886, -0.04194091616558658, -0.017622404434695843, 0.029065966959765828, 0.03129810608328918, -0.02733356777079682, -0.004113909236699946, -0.05348524172561551, -0.08060939810854646, -0.0644700157280911, -0.008716046560457226, -0.06289027599977673, -0.054656795762502305, 0.047140230160939274, -0.012415387869847451, 0.05206049596874192, -0.027152859405159376, 0.04351729372995822, 0.08396744606179563, -0.01939406178750492, -0.008695944179518078, 0.057351955849981893, -0.0009466853901448352, 0.0065522135484666665, -3.370112441880079e-05, -0.08317303493387898, 0.0014308860561996022, -0.00999207378761048, 0.06729484536718826, -0.0343357368409943, 0.06191528286425139, 0.06681445486717222, 0.012550161333211638, 0.03104329668895175, 0.0630127730462805, 0.021859000091490277, -0.013756966962778524, -0.023583443019322328, -0.0025418073069348028, -0.025717784603513805, 0.00849941030897231, -0.015366752475739102, 0.030370673976843652, 0.0017411180404342148, -0.0001867884422008403, -0.030196101142469255, -0.011859378772931849, 0.0028707620765164076, 0.03723846521575334, 0.009329847826571565, -0.018856346247620406, 0.005332046635258007, 0.06210017010377209, -0.0026586201738150747, -0.03783514854633452, -0.020885238120208555, -0.05580050935268432, 0.02627606124430615, 0.03134738819498964, -0.02772709539770147, -0.05008275719953894, -0.02735058401218499, 0.04343687681714651, 0.02877691066061206, 0.009213340475309062, -0.04451370183132078, 0.05894408686911131, -0.02579733840042909, -0.006659405731810857, -0.04064944940935324, 0.059970713511464345, -0.003104107606685198, -0.0120632211621015, -0.0003263038940257382, 0.02445189863253522, 0.07034523989743673, -0.028902186250797393, -0.03877790170509461, 0.010429583267142998, 0.013028583107866892, 0.023616048825864235, 0.058553204080424234, 0.0038979168812510487, -0.0011443635962787467, 0.008739122941058346, 0.04067976604848197, -0.01048393805875938, -0.007502490519077518, -0.02759395482769304, 0.02981658217220542, -0.023526584234993465, -0.012431176516990602, 0.04673691729272009, 0.025905882142421285, 0.02826866514957428, -0.007512064432951519, -0.05560599659871264, -0.042839542204639154, -0.006174797638276623, -0.029119985202804684, -0.015011722745040625, -0.007844137116058884, -0.031161821374805835, 0.03893105790713228, 0.011811206306529142, -0.00199204258829431, 0.016226270262065915, -0.05266969622258477, 0.00416010893177228, -0.023961074020611865, -0.023816918919244544, 0.026018650874839327, 0.016381802222766553, -0.0034720263194956127, -0.029230899973671853, -0.006053422430434505, -0.011693651916344111, 0.01857407356815473, 0.025172301782253898, -0.08620904609492468, -0.05998685948821444, 0.0427143542719292, -0.026589337750128998, -0.002321266053104388, -0.04158483640344951, -0.04512292353414503, 0.013722409564740192, -0.0137111025576336, 0.008379476675619696, -0.008351692540532913, -0.041764290192120045, 0.02820029273571285, 0.04397474399028734, -0.04655362104019226, -0.006130460382119758, 0.07903106542418709, 0.0010785496096322555, -0.031136554626741766, 0.006992640194614894, 0.0467412947323165, -0.012807374248360901, -0.035635645365558494, 0.003601452743856925, -0.05263092414382643, 0.02447631736179175, -0.08990248962338176, -0.0023414053166617163, -0.010356317045600897, 0.020851616905217873, -0.0058653428124679175, 0.011482357260226348, 0.0170368795837125, 0.019887745398996896, 0.039004447266300334, 0.02716507899460318, -0.008523065460569605, 0.042889104099516934, 0.01645915078756975, 0.004415159339258694, 0.01978261402116019, -0.006281741032641578, 0.026845598182350994, -0.012760497437455307, 0.032148189911747234, 0.047597356968705144, -0.007442569200848313, -0.04624192347576369, -0.016563045812859212, 0.04940081561339293, 0.00826169460796837, -0.04568132240648584, -0.010211995635899465, 0.030586344641802623, 0.0183513731608415, 0.049952855988057224, -0.0038678811006928908, -0.03411740918000532, 0.03816986459243035, 0.01857046322700429, -0.012029781322552124, -0.029381820202305266, -0.013704195062066701, 0.016065733521662115, 0.005701808851586433, -0.033381249696220694, 0.03438750021773945, -0.10741919659854464, -0.033017461189088736, 0.03878098295829084, -0.00847267467541482, 0.004744724467941557, -0.008304197468355591, -0.026634358850957645, 0.023641774015641655, -0.040090147826066076, -0.029509910184507198, 0.005693385209010149, 0.013193837801756087, 0.025713913352420775, 0.01033791092652615, -0.05007492886789183, 0.0057338249769757045, 0.0008411337548257082, -0.04818241326985743, -0.03965388385477941, 0.03909791145272249, 0.015309057957270274, -0.03390487321023049, 0.01646442142191412, -0.01479952875475794, -0.03088423117837361, -0.007138105704423224, 0.03457897602799975, 0.03696459467320184, -0.03600533805800152, -0.0387906395351756, 0.006713376589198891, 0.022723086851584737, 0.043758843824793406, -0.03936627338787636, 0.027522449900518647, 0.02471181756908176, -0.01082839161553167, -0.004239324521180011, -0.00446115929563319, -0.04047084266722356, 0.03806397334349055, 0.028648999432815014, 0.056135119390915506, 0.011441533064874656, 0.008906903986811094, -0.05703522769976879, 0.00816070310932081, -0.015290356315837146, 0.05096404551443008, -0.0022443842032593515, 0.042441696599425496, 0.028517698536774903, -0.020189082290109947, -0.03418115628661709, 0.04588575960931896, 0.00798956560439276, 0.06912805291444517, -0.05232837256398169, 0.007167605011185137, -0.01849056473762019, 0.0015040349255237557, 0.0022324484480711914, 0.00074599590490966, -0.0021670962237397774, 0.026325007618855596, 0.08118287326295014, 0.012769444924057221, 0.011009794555434067, -0.04637717430855266, 0.00835628562709197, 0.023257182103879604, 0.057116172722695265, -0.023982034637952124, 0.011723163104858597, -0.021976246563903148, 0.018219200808864612, 0.02878947062500045, -0.08485915440901991, 0.012984457588102818, -0.007109021635063792, 0.02903247532679419, -0.026708549968791472, -0.027352633665981757, 0.06882246153684, -0.01178397594119109, -0.08551013559286398, -0.005682819648064453, 0.04490675948189845, -0.05206332260733053, 0.01867569112879549, 0.008882132706267724, 0.06649234173175357, 0.06379297320347938, 0.036762697891391985, -0.052688285027880394, 0.01605584918736212, 0.02493305726799726, -0.061912479374571845, 0.022860377439024478, -0.006354133520058511, -0.031517259439483296, 0.00033608547236175373, -0.05834084908051014, 0.02185870328025323, 0.04525803497842355, 0.08968487381922179, 0.022290323994288038, 0.013654105243000925, 0.016485167027481207, 0.06543896712475689, 0.0057973750010844455, -0.0143707164277909, 0.036346730979574415, 0.015686488145461953, -0.05796430589615098, -0.033125392154598254, -0.0491354732052472, -0.02073979243459256, -0.016869378488232268, 0.03058974473474598, -0.0066278275447230195, 0.11383164468427899, -0.005334838146330035, -0.04580056984338445, 0.025154511141571467, -0.05287501046015244, -0.08131076463100387, 0.013464509513363958, -0.015164715796179713, -0.024540638988260872, -0.0024429469044435362, -0.01982022201021319, -0.013738072545631412, -0.006414281447773216, -0.0019733071446190508, -0.047603746425776444, -0.04722885461569129, 0.03880455395401518, -0.030106782640952425, 0.03542358396189385, 0.005595685597998239, -0.01356497244709692, -0.02198114950127503, 0.04401841045147302, 0.04330706313669631, -0.03755466832650579, -0.01717459887968251, 0.01983944927164873, -0.03266983353604311, 0.004945028441765216, 0.019445065782964708, 0.026615096235616746, -0.04675332716008232, 0.008538010190367982, 0.030397331156500416, 0.021561833635701768, 0.021919043781937233, -0.03738607854514354, 0.014478027782958591, -0.003972689470451686, 0.021590337885106618, -0.008074330121741453, -0.009000126955266584, 0.05537970026447924, 0.026840333011391763, -0.026619746901872087, -0.017599601163718465, 0.0060400827179115275, -0.04846017621553747, 0.01242601082783915, -0.012850839973556906, 0.013701393673701394, -0.052289954366289665, 0.05557617092877074, -0.03547578349233605, 0.031232866242689995, 0.01022948307053903, 0.030129300479208896, 0.023299225308373316, 0.040091465030631386, 0.0020425149662475694, -0.0018618992324961885, -0.06545265597492761, 0.004225635873761807, -0.019775964203208492, 0.040924492199801994, 0.021690653391910734, 0.013066922888815636, 0.03039295604605948, -0.016852211000537406, 0.016090755369107475, 0.016828597869011138, 0.03187612858707453, -0.029928162830415522, -0.04049903582784001, 0.015834491159074687, 0.01109689351637253, -0.06680135245375772, -0.00867734557638409, 0.007888767635907939, 0.051126340701983304, -0.03664614522175184, -0.005124649019194763, 0.00543037643553894, 0.0381045347310616, 0.024486695057233703, -0.07553733352388974, 0.029880318831183885, -0.005778117746351102, -0.01841815226782272, 0.025921736902666193, -0.016336183821123056, 0.04198727437444082, 0.01889406532619845, -0.006241373182642067, 0.029230865784380968, 0.009116946531443229, -0.0012785126361940706, -0.05884119059932448, -0.03362066267431514, 0.018637220874745227, -0.06719323014136157, 0.044349463364012305, -0.04127144177945011, 0.028301776589148668, 0.00976071265439463, 0.05012952681436597, -0.031631145376578844, -0.07565496998234798, -0.0034471326425372277, 0.008616569209655919, -0.02270377005059904, 0.014586723455269473, 0.018407187946468017, 0.07121369455458869, -0.01650446244813192, -0.0027642192630184894, -0.0022023019378930244, 0.02934523625526208, 0.01998357892793968, 0.009673157998475611, 0.0328229800695264, 0.08006042310977052, 0.0218059067109763, -0.07106000102648516, -0.033927972732387034, -0.012570528124208028, 0.005626343093832513, 0.0029729740769599148, -0.014512882877384873, 0.032380272035409025, 0.020969392690088896, 0.011881817528608578, -0.0017231106717973356, 0.02754656549454882, -0.058147285817313446, 0.02911445020073515, 0.05101760433797764, 0.04592557060506043, -0.008877461335492167, 0.026445671101786247, -0.021165578523794984, -0.05499384105953905, 0.0005718968056070232, 0.020305873681654138, -0.06451436586652276, 0.00039357954228828255, -0.01980955803636929, 0.029293555655665403, 0.01863144519603012, -0.0017745782087698185, 0.029817441053060313, 0.008552912942895468, 0.01222450037991304, 0.002213511259101794, 0.02589128075650211, 0.03222546913331219, -0.07269459225206319, 0.046601445925087755, -0.024882232963555427, -0.07631546807352907, 0.02744085588871894, 0.006018529128464456, 0.03189125901629386, -0.010939609929426898, 0.037747437070571654, 0.032883553730654706, 0.004408125656274315, 0.01086388061865552, -0.023800470648901968, -0.01735251285733501, -0.031194635155297162, -0.01005297046999271, 0.09574127088515952, -0.004606729173305384, -0.010093456816014559, 0.012979483588487635, 0.030727404506717446, -0.020029852045207224, -0.0023094049892604077, -0.00980179778640032, 0.03095735594454441, -0.05697927987906096, 0.06536902264375904, 0.08273119368044221, 0.03524092042154598, -0.019324186305144268, -0.07384438825037926, -0.047356560095430135, -0.003994181204170953, -0.0522994733952571, -0.0033249437971954727, 0.03808515375533299, -0.05708071534175902, 0.03313672119604193, -0.022836292753951326, -0.021804453236805663, -0.02079008279085469, 0.00978143283473585, 0.009794273322501204, -0.03525056785429865, -0.010224618911801129, -0.014100929649457845, -0.013739632321036248, 0.029493367549120835, -0.020989999617792382, -0.03808226668382165, 0.03277013962655061, -0.007244998050074088, -0.05913527142061371, -0.023754098112692273, 0.022453035086510323, 0.06375898123289347, -0.03301554802408807, 0.026098452987362936, 0.05313691938517953, -0.03706570531435273, -0.011352441076882592, 0.022067822812948473, 0.07421261632009865, -0.013370836237294268, 0.01680402392924229, -0.009434533475096893, -0.007490005823652069, 0.012858286661363216, -0.03201647260017262, -0.032506267752617606, 0.03604156895326248, 0.0021073109258827557, 0.037825023396384806, 0.06643015623894304, 0.00717256975951927, -0.01800222490249715, -0.022488904748570758, 0.021044552907572914, 0.031132928717920887, 0.06157813549298801, 0.02964317732506055, 0.005385283491078623, -0.005438095026616328, -0.033360561291203406, 0.01315765380132023, 0.006922965772861647, -0.006751077458324781, -0.062394197715540264, -0.053362436518223366, 0.006945638507904674, 0.06466940109464092, -0.007637242652445224, 0.026168121225017674, 0.03636410861190905, 0.036454358758544275, -0.004404877718644956, 0.01351264640753288, -0.04114266233563685, -0.0059002275620321475, -0.03560985155995337, 0.022740167442601412, -0.06421231045739448, 0.011599523457169853, -0.006959354395904122, 0.043914521819136174, -0.0030513350859551, -0.04090442534150659, 0.03970125345231438, -0.02734961998579471, -0.016163181093313717, -0.028212420200175253, 0.024139666962302856, -0.006945479079377011, -0.016895676688341316, -0.0007876498738929212, -0.013511473116101121, -0.025232773826358863, 0.06937923301087118, 0.023961038454848736, 0.018915643734374897, 0.01306945995621773, 0.011536393200494894, 0.020367111671558788, -0.021717750171782815, -0.07879437913807623, 0.03256892952784229, -0.06037891173504803, 0.027632786032014942, 0.0015744522869481192, -0.050562978653168215, 0.010788261946398783, -0.018044245034509198, -0.054757110513037374, -0.03668229693654103, 0.029919347549563994, -0.013115167145473266, -0.023131744331401072, 0.01031032580242758, -0.013996978048323535, -0.0061612687887812176, 0.028029582357831716, 0.0005898364257553545, -0.0012524355189205392, -0.015158631496265456, 0.0002981779278901394, 0.00771307944180009, -0.05583023269360745, 0.018904846741267748, -0.019784497976399015, 0.004798511867366764, 0.007081630696880072, -0.013484559342428227, 0.039698165391325146, 0.041050061155198964, -0.03134840091307076, -0.019385957683489184, 0.05339174551277672, -0.04342851189727773, 0.02629320968118498, -0.009932009201663752, 0.015280421169501294, -0.021100968386164702, -0.009379943302285733, -0.0024382496552931834, 0.006966107905338111, 0.010957234464879548, 0.028953146224121814, 0.028556133707902494, 0.021521900485336636, -0.0015787075127066514, -0.039315438444841255, 0.011258356912957908, 0.055035092271179274, -0.010263198834226467, 0.018121525048511545, 0.017440650596069907, -0.02265665414290189, 0.0028051143137214503, 0.0017182669952303194, 0.04792795802240517, -0.04286818112922606, -0.023810334535001927, -0.0007057382640953621, -0.01489558211429478, 0.0058365428660530645, 0.050017678971493534, -0.010690627357811266, -0.06809177589159753, 0.015627509397839308, 0.0010069311087742257, -0.014180077105842485, 0.031583534058426156, -0.015115515751422136, 0.020496316964374015, 0.031078033159603575, 0.017360146086219965, -0.004759746073573929, 0.02183136514967232, -0.02036069358582301, -0.038672728838770994, 0.019775691666634603, -0.058466925341576416, 0.03247121497624321, 0.0038690389431630346, 0.03473686153629331, -0.04903845849890083, 0.0645097047180184, -0.03436387687557434, -0.027280087788475956, -0.033124454828903034, -0.03776185284600416, -0.07445429783091409, -0.016628303197533723, -0.04352273485505482, 0.018210740801075476, -0.015576931811884917, 0.01465240617813475, -0.02144119758663607, -0.022097525963786994, 0.047887511147719955, -0.003896968206170228, 0.0011072940445161145, 0.05232174960592162, -0.021973660168848327, -0.03357911282001861, 0.03597843152737038, -0.0026498669186516342, -0.01926311342920356, 0.014919872932556704, 0.022287750651044626, -0.031653104843172145], [0.023205732271757203, 0.05159312084945327, 0.028430165597429106, 0.08377147958752973, -0.0013625611822819742, 0.013937085485968762, -0.022472997797090187, -0.02314880950776573, 0.06664737301851986, -0.007353210345527802, 0.03519366535768632, 0.065474091587491, 0.00020405388647733828, -0.03598318271833007, 0.03810934025870334, -0.025896394481061437, -0.049732248055275576, 0.03682422004348259, -0.0006076962485583841, -0.03374237038932546, -0.018772426568461537, 0.019432190073639315, 0.029460612815023848, -0.0640131594111326, -0.029502896615019748, 0.01300645936042306, -0.0806086716799226, -0.010499304125254409, 0.046186340158124145, -0.05009316651160279, 0.013513332476323095, -0.002566952676237773, 0.033326967125899165, -0.013106191914373625, 0.017494699047099802, 0.07039908695307256, 0.015738628633760576, -0.03220920144268531, 0.006589902073128043, -0.040899412360412245, 0.02617804329583679, -0.00786732968190625, -0.03022728020185869, 0.002913870630377739, -0.030198313928631454, 0.04433539298855907, 0.05322455158047468, 0.03022313784933916, -0.014447839829606441, 0.038793563040668666, 0.02200177455914115, 0.006913623949999122, 0.04359962482516437, 0.050627996440350945, -0.04423590471195943, -0.03878318306610653, 0.0014537379056864233, 0.023227526919343964, 0.04302627315262074, 0.0120325229865794, -0.006546202394744615, 0.045970954134549394, -0.03081716898398109, 0.03824547981824624, 0.05815307272273526, 0.04033440789008715, -0.0006912465212221709, 0.06024979328415354, 0.06823945738795925, -0.00999306512850946, 0.041584978465659506, -0.014999314859928248, -0.023107875913544778, -0.047047477040207744, -0.04838878203538419, -0.020388652642897406, 0.04473635539995091, -0.016551380709281957, -0.0260441490881048, 0.04172355697860973, 0.08637923655122931, -0.04766265106053294, 0.016083099297390605, 0.03926268924471211, -0.026229173541571688, 0.028653656790275782, 0.0118540944753877, 0.039587786534475054, 0.012164710094969665, 0.03927155560489853, 0.043374293222253335, 0.0327853475527286, 0.018467408756531686, -0.03252787464662503, -0.0685932948596729, -0.08792988717216124, -0.04583941835241106, -0.04426196183073277, -0.006102930560192613, 0.041345772371657395, 0.0352531577592089, -0.031846748360637, 0.0540891934851648, 0.04222315502980723, 0.01129083992865634, -0.05669709382244368, -0.008668054532934491, -0.023518486657192944, 0.0008255032976085264, -0.006274976157566499, 0.12362823357899515, -0.02074650671272033, 0.04175699096252457, -0.04876922850555784, -0.040159914709540306, -0.009136120418931498, -0.08515015901654606, 0.03705683126319483, -0.002513269536241661, 0.006347653468910043, -0.013369104309847727, -0.0018395027258950787, -0.09313532253397765, 0.031232839622545965, 0.019610128793623883, -0.011795609312111084, 0.011983257427000606, 0.021398972519645648, -0.01413676192753172, -0.011438711961927226, 0.054948329061886896, -0.06558152094832978, -0.028604213655801302, 0.020955927242621034, -0.00439155564968535, 0.04085116699071475, 0.028687599727173507, 0.08593717112271777, 0.04737030540347103, -0.014419178069307068, 0.018779272144286752, 0.006150509423448142, -0.009321812155198422, 0.0003790731416313362, 0.008580577523395576, -0.012130922061066737, 0.06718331808510147, 0.0013560084765652017, -0.03513116264634531, -0.04206927679792915, 0.00749481448504394, -0.05094662402947264, 0.02348738034519901, 0.009679334150452714, -0.038312172158841654, 0.051832242275675566, -0.008769969479116742, -0.021614433096241937, 0.026842431147844303, -0.047994926340348014, 0.06690078377927824, -0.013543152563891407, -0.025692627129395518, -0.02906329037877585, 0.04937418645103609, 0.009262120059818529, -0.05194091955315437, 0.016253685636382947, -0.012015811255621687, 0.022653311369071536, 0.007383376749944063, -0.028316981398521263, -0.008498052316563705, 0.019230175300666997, 0.04865383413297851, 0.0008996366166510275, -0.03996262531230809, -0.016465858738645887, -0.003866850525016681, 0.023187133048893475, -0.008239762322349502, -0.04737635049159736, 0.043924683469996006, -0.006826635212556148, -0.09187791848810388, 0.027028406336053693, 0.032278428175953736, 0.0049488282201202455, -0.004443633120196631, -0.029755138748271254, -0.017641897746114826, 0.03556926956417105, 0.014616637998728756, -0.037488042616125664, -0.004374785229294555, 0.042388990818779816, 0.0015316119995903688, 0.0021100853410853278, 0.012063329507706456, -0.008034173493202977, -0.028052258369215648, -0.03448180881218616, -0.0061725956131565216, 0.02731642272911034, 0.0777498440657069, -0.0775896303929676, -0.051185211675474136, 0.021857218570833087, -0.015393901852376152, -0.0024669985520614063, 0.031039925674137426, -0.01979353305330535, 0.04515598938349909, -0.014116256752156619, 0.028023158633577547, -0.016172149943267027, 0.013734541410099808, -0.01558884705251177, 0.03134319857088661, -0.003342083630195376, -0.030169242110054575, -0.0033233177170067492, 0.023794795369052605, 0.016162444169666917, -0.029237267106781744, 0.022292630530184338, -0.06818551569685334, 0.015455618648630511, 0.019904843669375557, -0.022473598259239627, 0.04619097865900175, 0.04760712199163747, 0.04580434353377206, 0.03074037721809067, 0.045067698348849064, 0.03832812163630931, -0.026485319400628406, -0.020579584588503272, 0.023964066527508588, 0.0345861649172798, 0.03620391033857154, -0.05007505534501563, -0.016860120855705263, 0.04281996302621807, -0.023948886330052863, -0.012281141061964098, 0.0665426417255131, -0.003989939738794558, 0.01642348307287011, -0.03951920629425112, -0.043216626814848946, 0.0029683072543506537, 0.018897678253448735, -0.013286360887363454, 0.010989104275009987, 0.02275730957654771, -0.010412065964886596, 0.0003300907790271922, -0.03734932455500076, -0.034469502465154137, -0.03149195895199774, 0.06990499978402523, 0.015145159129177946, -0.005535989758235442, 0.004889423715418236, -0.021081557548285085, -0.07691584254556665, 0.010509131633623048, -0.0543941114762093, 0.004675677128053273, -0.02106019347669279, 0.007272514440745425, -0.021782155469971733, -0.05487662394642504, -0.02302690436413004, -0.018913012574224154, -0.03812871510903487, -0.0659390997024602, 0.027919468399831792, -0.018460235435405082, -0.027731243422141953, -0.054271037959038676, -0.04584905962280866, -0.046497540590090466, -0.013843111703088757, -0.018348926745915473, -0.08950380437982255, -0.007764094756866929, -0.03276333132074388, 0.022189831917954757, -0.0052812491599444735, 0.01318004586078012, -0.01924284476506313, -0.05362252481962133, -0.05633805176687336, -0.03631958192310154, -0.0668650830178634, 0.01304318301870328, 0.08097386097829173, -0.007382982657646098, -0.022473958015539114, -0.03486473704509089, 0.010205820515751515, -0.04570085764081023, 0.04406259199661964, 0.049128340539179985, 0.004476839169026882, 0.01982003923875801, -0.04187872140508948, 0.0816012283831728, 0.01421026491408823, 0.01953246029910664, -0.008280215476001131, -0.02567733373009811, 0.0006889415193197809, 0.02970831747423331, 0.08066311680017398, -0.030932609723439072, 0.07120207764773942, 0.02903970664632011, 0.0563101773785533, 0.012639064006567637, 0.004818927111502878, 0.02407287200982584, 0.058245810636213396, -0.05483489761340737, 0.04221844323997699, -0.022460213094509053, -0.009829666939357499, 0.009571078020341836, 0.01717089298778813, 0.04188445929371271, -0.03007282128718266, -0.011151576434343093, 0.007050583062406142, 0.005762319204811648, 0.019280724808896154, -0.060162178331575396, -0.06352137506654368, 0.032476118100789125, -0.004895026058868455, 0.029448267575821967, -0.0018206396925535804, -0.08259538135970161, -0.0016260182536788539, -5.4547157633483535e-05, -0.0024974889234301886, -0.03282335628698675, -0.0440740654955998, -0.01571906724579342, -0.015281188516291481, 0.09837031511525596, 0.04258495136404189, -0.018693597050560458, -0.03480506221665932, -0.01245348193744211, -0.0226623528123118, 0.0031837630933929757, 0.020725180022674882, -0.04211602027087452, -0.04299549567079767, -0.02852422691605482, 0.016865426955786602, -0.018587741001965037, 0.025558396810821518, 0.021093767430715085, 0.053679791021509334, -0.04726943589523785, 0.04633058000970066, -0.02255297692606996, -0.0018832918755211005, -0.02231280446729352, -0.0740777436142754, -0.038580601750210726, -0.005225746755436973, -0.035231592501247626, 0.004023220001668828, -0.03774830027203944, -0.0355354846482429, -0.036838395152645816, 0.07027908095431264, 0.03015935002450345, 0.0019342154444346258, 0.001514627851602371, 0.020785773414229082, 0.0307005970426122, -0.04849286813658293, -0.021590269256665278, 0.031031039202804665, 0.03570241068543835, -0.031332779400700436, 0.01968520717185002, -0.09897013694557612, -0.011071147106911261, -0.006700912655073912, 0.0338693544011065, 0.049359092246720394, 0.05281665640664475, 0.04912328047964448, -0.04725535366951104, -0.058571630719576, 0.04054189473340311, 0.06478355013461977, -0.0045797491851117585, -0.047308132943929285, -0.024879717156049506, -0.011327220434368143, 0.029145838858156213, 0.004334214473301111, 0.04102286094871365, -0.007454559042846264, -0.04892396580195515, 0.0040814091046526575, 0.03165731216379141, -0.021432130495979182, -0.07651751852999597, 0.042745614463416834, 0.007649818388575086, 0.020434654419418462, 0.012688387799093984, 0.010228152541085443, -0.04297836479434916, -0.08403911745633608, -0.033503251193227356, -0.028886893854255576, 0.019391304026150632, -0.07461990419139074, -0.011016021510775515, -0.011760241395448663, -0.019860150558113222, -0.049718256665279646, 0.057794276825630576, 0.040536733736940625, 0.017689924391366584, 0.05634208483017075, -0.03762945023492648, 0.008118419541200253, -0.020484536158111327, 0.07381653223015998, 0.022060642668245787, -0.004684494621007597, -0.05550397419757984, 0.004909244865581994, 0.008470281306460452, 0.04050596967253088, -0.03347832210192734, -0.022667742688704733, 0.009810651671417378, 0.03441295768849087, 0.013576877491092678, 0.007835516681262629, 0.04864235724041272, 0.01527805780767551, 0.018834815479933546, 0.020441266036704042, 0.0034417727134702014, -0.03714768201974335, 0.013657952235306223, -0.08781563755406238, 0.011151703211443677, 0.015070852079741709, -0.01789445946747074, 0.011579150744498974, 0.038618604877715484, -0.020307206345077045, -0.03397244240271864, 0.0422447171657694, 0.018066208872723834, 0.03860694033873892, 0.003978627902156304, 0.00500277197096794, -0.02290286904517677, 0.05719695211584511, 0.015773251723506337, -0.006224485729691493, -0.00471977083720269, -0.017004406874797973, 0.02968230593314591, -0.02848854845620452, -0.0788009322753357, -0.015295819367818988, 0.015989427042109403, -0.003172750422499017, 0.0029659262121502004, 0.017560434978280737, -0.0006784934703873124, 0.028409106616055, 0.08642074516027742, -0.006274469692176318, -0.00778172575102904, -0.02718828517039911, 0.0253811039144689, -0.04113942738910056, 0.013346939674761563, 0.043604140743210826, -0.036027038069700326, -0.02284151758411289, 0.04003292526035439, 0.04482304945326215, 0.05071451082874683, 0.038893689449546014, 0.012423387169045697, 0.006853433860034874, -0.01646136834425174, 0.024868943896256164, -0.030353588450691193, -0.022245191114129835, 0.024205861655816677, -0.07417284075393661, -0.00709748937776315, -0.02997094238887925, 9.081154339172342e-05, 0.03878518429952648, 0.0060478197208256815, 0.013366349038107024, -0.005543039271284513, 0.039093354987904914, -0.008442652261017328, -0.05363194802030819, -0.015761744328186854, 0.034891565316813325, 0.02321184315019092, -0.04277060004080185, 0.0017115469287876121, -0.008528510812599109, 0.00020378717454314971, 0.032315371084441165, 0.009106621756357226, 0.018276483387359325, 0.061163819247187, -0.008743767204108788, -0.008498016144548662, 0.0049881711019462635, -0.01495886409514351, -0.0061044173091013695, -0.03158226645619271, -0.007702224201373211, 0.03369858399288169, -0.018680766775137005, -0.07581832759648012, -0.05699845291299681, -0.019867988178315747, 0.03581223043003627, 0.0359995032782561, 0.05490245491293249, -0.004177157497802807, -0.030041339686765624, 0.0003643035415602043, 0.016012134879866448, -0.012646400316415346, 0.033613779789890705, -0.049314389944722495, 0.06917709829540925, -0.026917782513418587, -0.0012727073851851536, -0.012010337873667046, -0.014021593437204305, 0.006370347430419507, -0.02397027201255936, -0.029822526435962313, -0.030040572901647224, -0.0070030341053526676, -0.01531373316569475, 0.01787171386781024, -0.03438219259886147, -0.045054564117923954, -0.001886859390993174, -0.005527851532540476, -0.010206966998832494, -0.004634552755796832, -0.007951464710997119, 0.022961781064576338, 0.004218263349253219, 0.053285572638613256, -0.02238387420018521, -0.050774347625943586, -0.0022415301977303653, -0.014298856423013848, 0.05191125162153156, -0.03886843405637915, -0.02389454560043132, -0.09147962010855902, -0.015034446767559384, -0.02080826800671317, 0.002985559099769718, 0.02968710343725182, -0.02360054994043229, -0.04584905944640711, -0.008679639210490904, 0.029029268851275207, 0.00620892192098415, -0.032764281376482365, -0.025686682917407166, -0.0372925462164583, -0.005853247109838522, 0.004854175538388288, 0.0020173723683701654, -0.07321567485039002, 