{"sizes": [784, 30, 20, 10], "weights": [[[-0.0049298346765761746, 0.006299881002997112, -0.006982437735867033, -0.05927544590393908, -0.005866190516582064, -0.03985111336771447, -0.008041463289935085, 0.029701544151483007, -0.03312128417154084, -0.05662742820726509, -0.06075163623711472, -0.012948024671616279, 0.042405806094481586, 0.029729879141284207, 0.02416212240229353, -0.06514517137513245, -0.020830935919436917, -0.03900231325945458, -0.03890066616896365, 0.018088469600617867, 0.004099531040771557, -0.004222513271336836, 0.0478353573945144, -0.02029053907629491, -0.004006015656167925, -0.038923462397107436, 0.04147418130967461, -0.03666903609932778, 0.004115729036045935, 0.014810480450772786, -0.028496182877592115, 0.013669608147437095, 0.015099203678423826, -0.0016652812176495794, 0.021312921468488514, -0.04489200962242617, -0.03700093042816565, 0.03233432389145949, -0.010796302393337492, 0.017241736671331765, 0.06495204122320447, 0.022478029142880943, -0.005961977150865861, 0.015885506768027854, -0.013470296227496927, -0.007339719395064775, 0.0038062175219780022, -0.029730716429459684, -0.05689392929051267, 0.0036383719643732935, 0.032139417562380215, 0.004825730606699257, 0.01846501505742408, -0.0026100826631088657, 0.026373434349358182, 0.0029532763165642257, -0.027112340451421798, 0.044518917106344695, 0.0394373186445976, 0.03752052174849972, 0.021285288236495448, 0.01701477479101516, 0.014619990824791013, -0.04342294400691119, 0.011840720498251831, 0.04692976468110293, -0.09430856659262436, 0.031448097184026864, -0.021149340745228014, -0.020383129592472952, 0.009148236414583134, -0.0038106553888443027, 0.051316964991652725, 0.008517173458111775, 0.040246985741742645, -0.04714867784807445, 0.018922292547754415, 0.01800913528125755, -0.07003127305010715, -0.010436220327906993, -0.0035470732408702196, 0.039407225208663355, 0.012365793172995637, 0.024682114302878345, -0.007480685217598579, -0.05478036901466181, 0.06615414300361681, -0.0032313227106637622, -0.029012002915648413, 0.06298655666104186, 0.012296724706505564, 0.0270286757659072, -0.0008362686850445035, -0.02252455487283552, -0.052074464822266416, -0.008724006965699617, 0.0016490213083019498, 0.005072556123913504, -0.006904050305862747, 0.06390917844353054, -0.024548259303626543, 0.059719331255655574, -0.031386768010937434, -0.0065522821117405, 0.0233701149041898, -0.028833888973659818, -0.0028504629706062315, 0.005253165484801896, -0.019876404923626273, 0.003158672373348372, 0.01823058156484122, 0.00790676513686481, 0.031841762776954746, 0.00961100693688688, 0.03457763912955666, 0.027834360564917563, 0.0010673530368073025, 0.06329979103198514, -0.03948342035855982, 0.030259902061900018, -0.0444733522563612, 0.01410247315998869, -0.04174107910674505, 0.0024577121546368774, -0.08278482019665258, -0.023341145119637658, -0.040811642300497594, 0.01894342757017416, 0.028577726987190334, 0.010419058789012241, 0.06414185837155406, 0.03562261661073006, -0.0036421473240973667, -0.0030879435080904097, 0.05776558593330666, -0.002152947964449761, 0.010257090181074228, 0.01903563172388036, -0.020877221648299218, 0.022881628303167492, -0.002764433490492738, -0.04092754560633798, 0.0316270493195824, -0.055633054445224886, -0.08694820619313626, 0.004497048654169766, 0.054610719358383075, 0.011540309488623342, 0.030979617398140955, -0.04579990598933027, -0.042394109001098065, -0.032737936929596104, -0.07214752558250306, 0.004274245980108785, 0.004562694150540649, -0.04939976775129807, -0.012904661112492534, 0.023591672207918923, 0.01610094624075319, 0.020514151418513604, -0.00863335253448127, 0.045638694643746654, 0.0010445627434764043, 0.02152399264034713, -0.028750624525173723, -0.02991451197822663, -0.09595441035857237, -0.055641197659507986, 0.06395498863402155, 0.029746303136531455, -0.01813402896746664, -0.09089780189040542, -0.04091219019513696, 0.030041970910490056, 0.011599565932961383, 0.0050572201833666295, 0.006579874656166561, 0.05604333837904187, -0.016545058706446344, -0.004780452479287712, -0.04535976821482771, -0.033615005572238114, -0.08348952487020254, -0.010347635933137218, -0.060397069000549086, -0.03865969799112748, -0.011926037380964823, -0.039741736128277, 0.006167773304748857, 0.02415457736776437, 0.0193903831757393, 0.04279282727046746, -0.010020271076174743, 0.06633414379160114, 0.012753208576977095, -0.048825556120960775, 0.015108827632881756, -0.042451099763905785, 0.04532215105240164, 0.0195090711719598, -0.010760705531968093, -0.05033245466037348, -0.04149866643969632, -0.022050521144972263, -0.0692269285036581, 0.056793647422314845, -0.03740444082487034, 0.006021377051883882, -0.011143782353402475, -0.12833590243971893, -0.03634461020611045, -0.028487036392535088, -0.0741628198900267, -0.06143296611167644, 0.011332210988324563, -0.02225832199465057, -2.2728940157030152e-05, -0.03768195570516792, -0.014096916003642207, 0.015944144885483423, -0.023707875585425572, 0.01265536482339268, -0.029823554260184962, -0.019053248958988456, 0.045238226404634985, -0.011020692925839501, -0.015969123015779137, -0.028978513253962463, -0.06795710369297266, -0.03456476064045858, 0.024025536664611654, -0.02504651296947509, -0.005704164198995526, 0.025390359178080472, 0.06745046277360536, 0.050287297452341735, 0.007100829126071744, 0.016055072392362823, -0.012589979491122108, 0.013919445426334082, -0.09223540934148794, 0.013098537269648993, -0.002008731099696531, -0.005147874962023185, 0.00906514050806692, 0.0366589750175356, 0.04789963031028903, -0.018681422104857445, 0.0334319269544811, -0.008209906871777943, -0.03437870843500962, -0.02998894251303094, -0.09172335264706967, 0.029265276415402396, 0.005955632014543101, 0.003028421599265779, -0.028300127839061974, 0.021725053489963918, -0.040601019105888474, 0.02811189591083374, 0.06569686679274162, 0.039719269852850285, -0.0008505872945586199, 0.03871417254381663, 0.013304238554356257, -0.057138422247129714, 0.045158343874221095, 0.032262912596635704, -0.054066353630193645, -0.02298702954724412, -0.050258230805511506, 0.009589250985205702, -0.05586821536275224, -0.012686251996697134, -0.02720925365410593, 0.01355448269486015, -0.053941350331480294, 0.028081459559313376, -0.02280910525954343, 0.013546542828355978, -0.030828257363066075, -0.004973913891066963, 0.0185654884473205, 0.04505940345959058, 0.014189193071536897, -0.021741939388093712, 0.027528445985655355, -0.056186544325624484, 0.012895454068129182, -0.02165528141639952, 0.026978689252350852, 0.012236006659709897, 0.014551760923403444, 0.00330623366793916, -0.07373929617856079, -0.08253598937994784, -0.015875760509268918, -0.10094880870128849, -0.054674926426590956, -0.0610029853088797, -0.03841478036277981, -0.013479497587177543, 0.03412234314176402, 0.002296593031265618, -0.009926304392429877, -0.0110672974452735, -0.05515232439394876, -0.033622013090409276, 0.053624481119650604, -0.015270055940991073, 0.0345790232334903, -0.03845000497248403, -0.021580292508570693, 0.002595529169503831, -0.002747775352145311, 0.01114251207740546, -0.02889140204687282, -0.0716951394342025, 0.03388483656334086, -0.009869089308603732, -0.10688645033730353, -0.08979146688662845, -0.029486301768161496, -0.11263458208759998, -0.07514033114645985, -0.029275048018856355, -0.0662545801703544, -0.009852533711148689, -0.038806410710016545, 0.04569398802726095, -0.05312139130477767, -0.062030928769490255, 0.020789731237081808, 0.01554311352305541, -0.024978133119137717, -0.021556125732536457, -0.018847802143250134, 0.020236531544873173, -0.015117374048797623, 0.013891773996401622, -0.08176184505081548, -0.04369565883977257, -0.035358805741299855, -0.020121105100582893, -0.008731359556829762, -0.04497170296568104, 0.008244170758000224, -0.026956423248805594, -0.01796255321661971, -0.10548912465511368, -0.14546254162579306, -0.1376284201858716, -0.03434533482420016, -0.06751251842331266, -0.0018867268306520086, -0.0469647925877279, -0.0028106820016268325, -0.009238126688111518, -0.07571358800381318, -0.03853261120424069, 0.007734059756553172, -0.05225293003230689, 0.043420795286531616, -0.02023538685571753, 0.006413337680183122, 0.021968056886564915, -0.029596345672262214, -0.01104052361131568, 0.0047219732522013206, -0.03873261133539625, -0.09125167056507359, -0.018634310530199972, -0.014868552611476852, -0.02909312133830817, 0.030200393242906125, -0.06938601368200341, -0.057722475825865274, -0.07533935832979383, -0.014710015833195627, -0.031827411036198114, -0.026545058135709888, -0.033900171378712755, -0.028650674954796052, 0.009308343003787446, 0.0430537724668478, -0.0749642752017323, 0.025911853382765488, -0.028770297179612516, -0.047777638796017693, 0.049463171555336805, -0.029172285198391767, -0.008470998719029869, 0.008917047480401718, 0.03437133789707721, -0.04500856750569533, -0.053031103471168746, 0.06039347123329644, 0.02120870447869666, -0.023411316038875293, -0.03470153289704844, -0.028712782279715014, -0.06923770764875536, -0.01774293368406892, 0.006699965878945544, 0.00753241418925103, -0.02122603199566158, 0.035220765768858256, -0.07568945487642853, -0.05919114344554878, -0.03828567244440292, -0.002129979379961114, -0.06255494495767569, 0.014980084092454311, -0.007764226189306468, -0.015786390902912992, -0.03903791104799255, -0.010909314117433148, -0.06740953907298554, 0.0013591744437878915, 0.07795676127133216, -0.029222949979984963, -0.0052670763700007825, -0.041869600134272544, 0.017457601208761275, -0.04435034942855568, -0.022467392238977566, -0.050163177278560137, -0.04017842732719759, -0.06921880951733773, -0.05839220460949073, -0.0014722010275515667, -0.03439611666199914, 0.0349633896324968, -0.04927065147967075, -0.015929960601767504, 0.02311833407170918, 0.006442220171712236, 0.027549107491334584, -0.08133024142841531, -0.003594779404510876, -0.10274382355546834, 0.03072716250093167, -0.027569835919900167, 0.007386076010453199, 0.026523446676265685, 0.03539565411921491, -0.02086290172950116, 0.0033849974215848875, -0.013828415895784592, -0.021163465753941388, 0.009170950475088164, 9.994873288233258e-06, -0.0735127049745659, -0.009475047456502817, -0.01893924146617425, 0.040191258380404146, -0.014997636200414454, -0.006415944711444898, -0.004389180634083751, 0.05464585767503306, 0.07220375172976916, -0.042778649616313065, -0.004927297764969303, 0.05845599395917422, -0.019536329097989514, -0.03787812938851483, -0.04394258924010965, -0.048130240478962576, -0.08726938370225884, -0.030911189715810403, 0.012167121895750964, -0.01554154510576963, -0.0013531220596336468, -0.05151131162425502, -0.014456035145709794, -0.01872262181459086, -0.011106525617147145, 0.009399855110866136, 0.029636288457270038, -0.004904194153536882, 0.009584864147049366, -0.0048352425869041425, -0.04948029138879111, 0.03129929365004758, 0.041338672457238664, 0.04056354271174614, 0.09125676574447844, -0.0002786010924538402, 0.009277674302766478, -0.00435061574871799, 0.07133818826932911, 0.030804614156455065, -0.022804616294756386, -0.08387790575438148, -0.027859919610787758, -0.03824315226152455, -0.053695910307223586, -0.020275241172610883, -0.00389856360734338, 0.022479012774902545, 0.01284268306669627, 0.03697936925194083, -0.014026303810001969, -0.03548359838603804, -0.007225093516926021, 0.014043516075454497, -0.012380051053174928, 0.057556954628502674, 0.02387910029124265, 0.017667748528720197, -0.008111938374173814, 0.04586094495622335, -0.01618770895823054, 0.04972880995220106, 0.07276174216482255, 0.09288915676333574, 0.08391167954896656, 0.1657135861222635, 0.08386288898386907, 0.0710509521045938, 0.04976198301168677, -0.023043366396810983, -0.03936710320128918, -0.05751316759688951, 0.01955512840254671, 0.027790380715481837, -0.01569377930193069, 0.04958560524474478, 0.005975788976217283, 0.011805139203893382, 0.0008287261921504856, -0.006049202991921048, -0.026069413591803082, 0.05608380058245764, 0.023731017918678904, -0.07735878191923136, 0.017573023397104644, -0.02284714091917837, 0.03202037722485156, 0.03849800317525574, 0.0644302345324155, 0.10129403553855162, 0.05141320015717217, 0.06513522231779677, 0.05929531065269694, 0.05674677059234496, -0.011079578602531857, -0.01722056569869441, -0.04748178615312059, -0.043464662034072475, -0.0029873195727627005, -0.05676421203766726, -0.007033711726858892, -0.021899494248768202, 0.011787160901221588, 0.013234505985426628, 0.10135517940862115, 0.012459423421273723, 0.023537720895071612, 0.016842549227354682, 0.045857108731702914, 0.01694240899089033, -0.011416649122496675, -0.0017708166924040084, 0.017138723113676806, -0.005176463870441454, 0.006357687348367421, 0.0005835828903452499, 0.04750237509627574, 0.02166244137384649, 0.06800445935818426, 0.04644107312228839, -0.000660598947804356, 0.046358461057915856, 0.02471228715976404, -0.07707995236909543, 0.03764242631039292, -0.05621507705441736, -0.020857076773692935, 0.034439763632710355, -0.008562755493404215, 0.0299882916769501, 0.09154421863131694, 0.08236826926854326, -0.0440260248531084, -0.028844256816425266, -0.06109353421970017, -0.04667418587328031, 0.056239000791394794, -0.016126698961320535, -0.03544719605836425, 0.020066473449159156, -0.05613552635825012, -0.018849236054687947, -0.05546035295432347, 0.016073170227963566, -0.016164003586743598, 0.016015594570191215, 0.04321005456463033, 0.012949304306570904, 0.021168096494441714, -0.11539700634437715, -0.020362473237468696, -0.03668059273057627, -0.02123174852476363, -0.02944761961175554, -0.00590780860676021, 0.10967044386785715, 0.0076301972166021035, -7.209263952523529e-05, 0.01654629302649756, 0.02210002915206045, 0.026749141904045984, -0.028406304644611642, 0.04345698613346512, 0.05675544341808183, 0.027118106528379267, -0.013095942314700118, -0.009332990826874294, -0.005725133205317016, 0.005065814686856647, -0.014552212076055513, 0.021244540506592628, -0.05419960971959863, -0.02193566743208258, 0.06550384697276587, -0.04204474133988923, -0.014967918127875018, -0.004957886089543247, 0.003564410702432009, -0.03188014737103364, -0.0270957797198998, -0.013603629885180293, -0.05364119016069417, 0.06484386748117206, -0.009269577749495167, 0.006090549944497399, -0.022080530134790166, 0.05307403950559827, -0.015212666866746929, 0.04875219343654142, -0.023637218511418777, -0.04098433135791182, 0.016293003084203565, 0.0423836646676696, 0.026119773079582784, 0.010750624759164466, -0.008277323723264528, 0.01075786772570753, -0.07250543611096112, -0.0729895059966911, -0.06556587019364833, 0.03607172080425445, -0.0020882015169192514, -0.011068306913383941, -0.05509967626104548, -0.017845756406662333, -0.022050312990759935, 0.0060229024382691156, -0.04909389453156294, -0.028550406859355625, -0.05668644801850165, -0.04603467890932083, 0.006840551918905664, -0.025584662271067104, 0.0011861736632641632, 0.08289778891542122, 0.04086022650593017, -0.03632407274889062, -0.018992605070927152, -0.01513613972552197, 0.07340768091648342, -0.009230588777178236, 0.006768704553721758, 0.034502461126113694, -0.07259259598496015, 0.044354279199867265, -0.01998189577535602, -0.023219411179821087, 0.03367090971794871, -0.04162957524559541, -0.010351628684944119, 0.013306582306735187, 0.05392879563269148, -0.029401662034690627, -0.034017752801244285, -0.0531922735378431, 0.017978241881071094, -0.03371195864034783, -0.012578427800652823, -0.06775159246432615, -0.015371167480357236, -0.01465526248848336, 0.017600341488993358, 0.03234161154459924, 0.037208399322826956, 0.015022477795482358, -0.009316455605948248, 0.0452844251713815, -0.028299596238676616, 0.0019167707798994937, -0.06676907176007775, 0.007039596210984087, -0.022344316225653384, -0.04490446754565788, -0.0421146952495398, 0.05318197832991709, -0.010987790526085577, 0.009071515162350555, 0.014012199797179508, -0.03062311177653137, -0.03513568168675188, -0.012360921592565863, -0.021086867793449173, 0.04824479041909002, -0.015618838448503489, -0.010930151236649406, -0.02523313513643947, 0.023459511137109167, 0.005053428703823087, -0.04002839134380732, -0.0032111066078994673, 0.030153235796059313, 0.05753358667366574, -0.026935969655393462, 0.027784117208936813, 0.02597843424543477, 0.0008957111038213061, -0.02581722095156471, 0.050799499063302264, -0.024581744522910426, -0.07225030575829135, -0.006031893971647221, -0.0014812039891247159, 0.006077295366723342, 0.03480298275036869, 0.05740173795862316, -0.03846066577662273, 0.04484624507478562, 0.03447053663505869, 0.013715601586662164, 0.036941608152627696, 0.052716749988218514, 0.01340413195315821, 0.02926259969480842, -0.03557237219677392, -0.023816323627446675, 0.03231767041666864, -0.04063009656401234, -0.016774199445456862, -0.06766562861628544, -0.008685197239481498, -0.013466875783474589, 0.003944947170649626, -0.029523803691280083, -0.03344392735772631, -0.011119188207349577, 0.013337299788162869, 0.013229984037186922, -0.007329892828854297, 0.037005905405242755, 0.005721027991697135, 0.009104526680417979, 0.01071765630834355, 0.06899160397223998, -0.011896600677668831, 0.040316503196530365, 0.03613968500749403, 0.021337329032204196, 0.025940819931796255, 0.009327809069150999, -0.004687673189598037, 0.0010293523400323962, 0.01191014625164539, -0.003734489726481994, 0.025390551255658266, 0.0155035525885713, -0.009195668492430026, 0.0006790078809619259, -0.07519678541655332, -0.0864442253758495, -0.0232637416226702, -0.049185717728014854, 0.002404278548999515], [0.002918369966096176, -0.03027892846337415, -0.025527381203569836, 0.013597077658535506, 0.0035772870389167116, 0.028347084552823112, 0.0010010443481679927, -0.04856751999897988, -0.0332434268860256, -0.04904015687193877, -0.03807024719626408, -0.0070119361035181045, -0.0061502737313310326, -0.03173592373359204, 0.011142405276527797, 0.02586398020589164, 0.05141949354338007, 0.022670141499580902, 0.055372138617162794, -0.005405894915126021, 0.03349738086773884, 0.05698004832105238, -0.01604881167503973, -0.005172037899964159, -0.005683918674265788, 0.028435174128285376, 0.03431176229116366, 0.02275485920701036, -0.01274103494793008, 0.07912508694019922, -0.05416283843198603, -0.003634478068153431, -0.010138068258636909, -0.008341887228202496, -0.04593827313632941, -0.04355895362247312, 0.00040757391661877345, -0.013975516246569128, -0.03781351852923185, 0.000526405981087678, 0.03134685848726685, -0.022249962905226246, -0.019503973787986663, -0.01221107607852111, 0.01759672112703941, -0.025267591126806, 0.001987939969173398, -0.06462284157850857, -0.03411624330015775, 0.025769766048061346, -0.03943135472597001, -0.03523224738333024, -0.004925108402853575, -0.011511121252479845, -0.028154874762610197, -0.003696475465000648, -0.018696456742349963, -0.008503435316068836, -0.028307003044237018, 0.0542530371697846, -0.014327778262180898, 0.0786470282996528, 0.06688164358355832, -0.0009675573287065423, -0.005193209646301734, 0.06620244779136988, -0.0038956477168218, -0.014277894383952116, -0.003901527249906331, 0.028576172219607305, 0.03418748756860769, 0.00210691090424869, 0.021640896421424756, 0.03189094661935502, -0.008614059368693187, -0.011868758931110961, 0.0322088048578372, -0.010384665360989993, -0.03419836531948993, -0.02090616093723771, -0.03651481079283385, 0.022954265766828713, 0.04483736214862526, -0.017250461634080616, -0.001876180818543417, -0.04971178501968427, -0.027618713677567252, 0.0002703464396113509, -0.030297665315931758, -0.031351891287604995, -0.03131946387902378, -0.014844559202506774, -0.04479140772382617, -0.012976284764407707, -0.02348178779626984, -0.030015774131943583, -0.05433343091207595, -0.028631054136369398, 0.00910865725664049, -0.020888658406648244, -0.021104012370877518, 0.035472186279326266, 0.027348471575698828, 0.05910852463619328, 0.01638887833912733, 0.038893147098113034, 0.005089384044048228, 0.028575961212025346, -0.03895096250826698, -0.02581743493001871, -0.021706491493572316, -0.033027540912473334, -0.0049668493450883274, 0.02427359284783027, -0.01893680574468781, 0.025468113201791695, -0.043484486437897776, 0.06428735866517164, -0.10985611412409257, -0.008717019585262697, -0.02229664069920332, -0.11227373543023866, -0.025720010060529153, -0.08456350714871108, -0.07156191047991733, -0.046313030108347995, -0.09827907090181469, -0.08527956935160591, 0.05955262740647644, -0.03861972444151656, 0.09656225187316804, -0.013938887058459616, 0.0038492007485628915, -0.0014963167897115086, 0.0680142921396445, 0.08128676542820969, 0.022269871461177176, 0.013731504977802383, 0.0556105607482006, 0.014960420939950838, 0.014597852262206048, 0.03287022512187757, 0.03830118507829674, -0.02481679564262972, -0.00917295879122917, 0.006053931622217423, -0.07680547116266548, -0.05308847599926184, -0.059904886017695023, -0.13895585878776812, -0.12466196264206943, -0.17395126289317495, -0.12833967709140595, -0.14085688542303001, -0.13937445805109216, -0.07943881615256455, -0.09791042638107052, -0.06614609360207863, 0.003588969131759486, -0.002577840486844065, -0.006919505256677376, 0.0624833567448909, 0.0534400750628993, 0.06553419588281612, 0.03780083927835875, -0.0009018684938143154, -0.02780594777375011, 0.048647419933304896, 0.02418794462252308, -0.03650156689010733, 0.01301477181662689, 0.00899711670961589, 0.023765017547606782, -0.06051427498314666, -0.0009442784864306648, -0.058029059501795696, -0.05976591726997496, -0.009164194382268617, -0.06548502609144818, -0.11502233093949829, -0.1310924426510926, -0.08129763842847555, -0.13423536129443384, -0.10689632222422402, -0.029141278036591667, -0.07607669598730003, -0.0022554753264011724, -0.0499803063958663, 0.017252613996100463, -0.007690698305231542, 0.03893211289630535, -0.019866189492509796, -0.002012821258178633, 0.02231528456889733, 0.0010152627016944194, -0.015431096027643556, -0.02908679932220391, 0.0805526978217755, 0.07160026290002444, -0.06023107483970401, 0.008016957046232986, -0.11806309987260141, 0.043564523412591885, -0.10304530376271116, -0.032250144572100785, -0.027689004171265283, -0.05162748358968092, -0.013303680101570781, -0.11480953675100464, -0.053308523552898425, -0.05860316076896661, -0.05073111051989006, -0.08638276152982423, -0.030996009620917312, -0.03111080076454205, -0.04092414142999252, -0.04981474902995827, -0.03006346800022273, 0.019416106109744025, 0.011803909656048323, -0.029882755409647768, 0.04878806824610376, 0.06625577069783475, -0.006471342127823297, -0.067559242641406, -0.05876504383899859, -0.006510110087058892, -0.04152149087139818, 0.006288093184104191, 0.024837058803625495, -0.015887763454990354, 0.028482136085922333, -0.025841640316977985, -0.038677829738021086, 0.051036284918028835, -0.04718832814715769, -0.018913666654569814, -0.03517224982529922, 0.02301637334331569, -0.03171795229714033, -0.04833857360007882, -0.06415724786706568, -0.07784701977127718, -0.1368371238240466, -0.02524381898385928, -0.029794535700252173, -0.07262485372695249, -0.047901189800390265, -0.02187237293810861, -0.023695442074031972, -0.03567760432651828, 0.001885800092082756, 0.034410111543943016, 0.023635054615969337, 0.020023755941310277, -0.022067186325598346, 0.004206375153349913, -0.015132032458279713, -0.017498878120890828, 0.008817559871921713, 0.04837387983494641, 0.06260321119031032, 0.11062156483076392, 0.10845294286309569, 0.08045717795962831, 0.0007691497854310299, -0.008093828034673163, -0.03859113972215057, -0.13489116888566302, -0.1191385940288386, -0.08341214895052693, -0.02704327033140721, -0.06210204489588592, -0.015021550814952905, -0.02119954477444085, 0.01124342534202833, 0.0169365823680119, 0.006063237054199586, -0.03333335228180695, -0.007420862914977428, 0.029347323256894316, 0.010003706905437152, -0.03294321380514396, -0.04519013957344044, 0.0070620061208761286, -0.010137548990197007, 0.058186923768703394, 0.0227794722614203, 0.08923488669775412, 0.07584847406875617, 0.07192013407779621, 0.10881789257756447, 0.09876138275651723, 0.12563922489881366, 0.002897404197263108, -0.06622848544720225, -0.13586206485015592, -0.07253297460831733, -0.05981077749115009, -0.031227802411764944, -0.11113219133527498, -0.015463063702069518, -0.0003567972167484333, -0.021234296485845627, -0.051218553033505546, -0.00018123886657852388, -0.0021763199869953547, 0.00778170803380506, 0.038776962998227325, 0.024708566828760034, -0.03596405801477461, -0.0034295873313504458, 0.0453035413845439, 0.06554752544180342, 0.08763984571369228, 0.11929813897348228, 0.14337045656708045, 0.16334037736608767, 0.14395583874922765, 0.21366968064743935, 0.13104185286893524, 0.018406597280516447, 0.02498013838102586, -0.10057231813422234, -0.05955760246877607, -0.06314964689045599, -0.05329584853209569, -0.0554323624661871, 0.0439386285099141, 0.024458808792614452, 0.0028015750434191265, -0.016248636425174042, -0.0010382738368420058, 0.025003524293254153, -0.02631646414426477, 0.029989415759503542, 0.0054894414757667665, -0.0027627618539209395, -0.05267843714704903, -0.03933648969326426, -0.02348616956083891, 0.07042186919107514, 0.09412955404748188, 0.10519361920978963, 0.15814118354753934, 0.2039735354079348, 0.15712439635996797, 0.18704363706189173, 0.12174998458139658, -0.036416766756467496, -0.07373593654146297, -0.025305821657490617, 0.016462287291154596, 0.040418731893571674, -0.003777076788729034, -0.05858565308373962, 0.03456058699762361, 0.006763912635818076, 0.03930127814649064, 0.0705663085080726, 0.03035434449667951, 0.00607021817105479, 0.059288052203386926, 0.0025248008682083865, 0.033856227065140215, 0.020022076762696774, -0.0016104819296201753, 0.02004781771618457, 0.03768879601227597, 0.04563119800619433, 0.03582409159090614, 0.047868892758472295, 0.11435595685898035, 0.1810704885972825, 0.11404255449925847, 0.08519991918623009, 0.042705491466059495, -0.017898453893396716, -0.0003808361103882916, -0.02996706319326615, 0.030388356384725104, -0.0009473542180674492, 0.03444180731215114, 0.011753985533754901, 0.078037987265362, 0.1267073216911745, 0.09702503231678312, 0.03263229690706372, 0.10279840432136421, 0.020030960183012692, 0.004219820595110742, 0.0349029798805998, 0.03449674349595867, -0.0010026286970014435, 0.03201785555031137, -0.004725496312637802, 0.01552495297894796, -0.01695543999416933, 0.11458641699173597, 0.12263856841111834, 0.06269862562206753, 0.07977473023087728, 0.06817869697245348, 0.09624190377389445, -0.04889548799173151, -0.08274818347737767, -0.07078931228729637, 0.008012367309147174, -0.007784844891456144, 0.0490834034131836, 0.03538305973067452, 0.10097360194958378, 0.05571973205876684, 0.09222297827060691, 0.14888341994449295, 0.05750066220290006, 0.021231411278715424, -0.009013785625107528, 0.019968043155794597, -0.003963427639729682, 0.023485420509045885, -0.006812073407492484, -0.023895850082053034, 0.0188329479841914, 0.014916259659456824, 0.020957967087418507, 0.04974251936481396, 0.0776166644041023, 0.06333832941830699, 0.0066218226213855536, 0.03753295275374381, 0.03481132534921855, -0.10519917203836465, -0.04128959080413009, -0.09912380429329498, 0.0298647554034779, 0.0165482161616317, 0.017975988881922672, 0.017781296896772242, 0.0591004471356536, 0.04381141991568215, 0.0501778954924677, 0.030299178146815275, 0.036958842410005494, 0.01568071702921054, 0.012645998065154944, 0.02706060313495307, -0.028261094822511802, -0.05251107638782679, -0.04298610107211039, 0.04443148274967323, 0.007179478271126349, -0.021696955721301526, -0.0061923990011111055, 0.03533693918443868, 0.09263647232191857, 0.03186990145609881, 0.06506305717028042, 0.004597026516695802, -0.031037284786049255, -0.12193410002041179, -0.018235388940530856, 0.017010556605849558, 0.02113016594035447, -0.00845160020612715, -0.014857870716420495, -0.0066899304040783794, 0.004406741746985296, 0.07071435815968131, 0.0167754840843888, 0.004171858321930956, -0.042042247766020426, 0.007741201318654942, -0.03587905269117903, 0.028893506439164704, -0.06394617217338705, -0.011409277553601646, 0.0249833851168199, -0.04208737931367878, -0.031592095560941655, 0.009695513715586461, -0.0843383360488382, -0.0007886574731568629, 0.07210472357339111, 0.05300813407651082, 0.029176425631168866, 0.05410773190772886, 0.061742524100068405, -0.07589365544787358, 0.04255418076016007, -0.019906925218992625, -0.007126469570789799, -0.01349285938672566, 0.024629887171205893, -0.02767742331230725, -0.035229873069796885, -0.06506009116774632, -0.023521935996822972, 0.012271714233990785, 0.017664120244999377, -0.05977863915948628, -0.051724691496549374, -0.01948373258505746, 0.039696673233738405, -0.00546995322658259, -0.025171124550557387, -0.05569600744319409, -0.042030683218992705, -0.0724834479281357, -0.05791570688685779, -0.08413118200369074, -0.08899228171578215, 0.026651878370426575, -0.0037870505476629342, 0.0011123106653160176, 0.05188328929224155, -0.018253501446449383, -0.030571395677609154, -0.039864177627366264, 0.030230701016782394, -0.04245853294897113, -0.06154897266542078, -0.0360192583007104, -0.060421110536904965, -0.03910378803289315, 0.016843071712856858, -0.1071891277749981, -0.058398540713224305, -0.011957243473401324, 0.01252538069194456, 0.010451864095702795, 0.02996696680405885, -0.009802097656646974, -0.02101818916191716, 0.03943207591787862, -0.00850741877920999, -0.07907326935431992, -0.0916109467990575, -0.14009976644025854, -0.1046165644414688, -0.03543491861715485, 0.013753590123182552, -0.040630400045408965, -0.04332668858623834, -0.003173065711728103, 0.019269852512581696, -0.04330720950330244, -0.007349386803640225, 0.007132023552491108, 0.00015252901414313438, -0.006398401231857606, -0.06524566218597755, -0.08970369013363648, -0.0842020512322017, -0.04991080404004806, -0.08666887246181725, -0.04234750185147967, 0.004102393438068061, 0.002708434455573763, 0.030238007907377875, 0.017867370796111746, -0.0012498403998054543, 0.005280417922710014, -0.04914796618344991, -0.06930731255305973, -0.08095059637391236, -0.06543424495329883, -0.1019017552628793, -0.12328554804536149, -0.019053616095449418, -0.05920272424399647, -0.007370768447007469, 0.0432304069408653, 0.01600789892174826, 0.11522235106499239, 0.059093395220984266, -0.02147234376042534, -0.021338694068332137, -0.060338849230747844, -0.016721033755558688, -0.057623958248467326, -0.09079427739599487, -0.062490301862710186, -0.025428197518154963, 0.005897089852550612, 0.004856065274853322, 0.008458180969577003, 0.058460575725799636, 0.029584737572163813, -0.011693391658357073, -0.009247983392181094, -0.08019324271579813, -0.11537755718421543, -0.09558049686435109, -0.10590941376757936, -0.12079302543190416, -0.07018581859789019, -0.049840887871380156, 0.005996016319251857, -0.027860452024937945, 0.08067887450225858, 0.056125518715872694, 0.05188569689484239, 0.08759112046503575, 0.05014563730027678, -0.05648410610881788, 0.026622655787165637, -0.04302828649153202, -0.06261186931506905, -0.0678121380694191, -0.03295856879041317, 0.0066536259667647705, -0.012938876289105542, 0.041194756940760704, 0.04030617601793631, 0.000588659469027857, -0.00140970854916089, -0.026215811468941252, -0.046085527054831585, -0.024179418808575527, -0.03071317132314429, -0.0880644453399167, -0.10060736376773094, -0.06916456374747482, -0.13868104112620694, 0.0065983494369157795, -0.044824999929500245, -0.10956006445045917, 0.04841225216306993, -0.048711108902269463, 0.030860559246941748, -0.0011687596706591579, -0.024835004791671562, 0.022014213358578907, -0.06657188364064995, -0.0820024345248469, 0.004442271654889208, -0.05015906464499959, -0.027032455594670532, 0.018697759122614767, -0.005064972778983954, 0.08103444026916956, 0.06288851365666606, -0.013946397552036997, 0.011364851935093158, -0.021674655142948158, 0.010279870040824562, 0.025179286877168347, -0.046923324932193256, -0.03143373677497444, -0.0532916404570682, -0.07153191108472631, -0.045889891347774756, -0.03191783037745079, -0.02615470831318245, -0.05723350101560315, -0.07199696010618621, -0.05071849206613609, -0.08802150739230095, 0.00842219523110675, -0.061255402432581374, -0.03742819098857834, 0.018853684910395005, -0.02240764811369113, -0.03690296066615128, -0.020524792582052333, -0.006241738361865537, 0.025138031097472834, -0.002260352637390007, -0.04037115073932901, -0.003108636645574687, 0.009629257253885078, -0.00020059327169705585, 0.03299625393702953, -0.05700067264495223, 0.07467344408552533, 0.048954008768562464, -0.022289012806681725, -0.002432123795032756, 0.000672357895085607, 0.05004728420997711, 0.016471661268011677, -0.015649783946106312, 0.01741193371014633, -0.04882147456423133, -0.04735397425509797, -0.03205454347304594, -0.0020429234835817652, -0.04128927376106859, -0.017763607076841898, -0.031226330292959795, 0.09199634420855053, -0.027291715871615024, 0.033594099020344784, -0.0043578670188024835, -0.04475892964929439, 0.045138551349971724, -0.04867259123212634, 0.06440200898357343, -0.006929497470614174, -0.020510475933489647, -0.039844567971888546, 0.03555415770559799, 0.002363051163075977, 0.022092191352521058, -0.08044243307711937, -0.016212079478449645, 0.007046861333370162, -0.018300160724635903, 0.06338437967967445, -0.012974319690207457, -0.054667852926737925, 0.07833372268264188, -0.018748458099281513, -0.004793004016743353, 0.045803946200205455, 0.0438046860733443, -0.01386380645762147, -0.05986751250407888, -0.00867939667033426, -0.02302115588008164, 0.07993319834288917, 0.019421132978527652, 0.02375179347339507, -0.031113049307789322, -0.019651371984454432, -0.00914948104669175, -0.016711228656149223, -0.007390999743470847, 0.00349465834493835, 0.04242773157316082, 0.03193143146350059, -0.010545426903851197, 0.012809049961710785, -0.023814843946508596, -0.03874553670056731, -0.051065144026146266, 0.03998751922145083, -0.01496752732432308, -0.013301823181818946, 0.00354050010601782, 0.012786734240333109, 0.019489105879040913, 0.003613626881175748, -0.031248042956194436, 0.00998281222364143, 0.08243333547674277, 0.03950934729622636, -0.037956343207122455, 0.020834008243002546, -0.03907877291465141, 0.012086298205845291, 0.0010557093572973175, 0.0176039298542856, 0.02705875678217507, -0.003537105765057694, 0.002618192622406954, 0.0067245258178763225, 0.011498320071035907, -0.01878057901825949, -0.03413946190638348, -0.01204079535588722, -0.026665273263603757, -0.011912273671252784, 0.0046264633500280004, 0.032603072150447006, -0.0010523520165964277, -0.041660507518658844, 0.025069725323469648, 0.03832467600005751, -0.022577389593395204, 0.04140080328785214, -0.009177647664655777, 0.062063512620773656, 0.03515393812559398, 0.007747212032892796, 0.019128077510767325, -0.0012565916666274182, 0.028230181615374647, -0.00845106423149832, -0.02240781309553914, -0.028003840086595646, 0.008003336547850202, -0.006449502481673786], [-0.006987139845876168, 0.023190213525221194, 0.008402029128022777, 0.029851177090391565, -0.02401722992464507, 0.03377382029742426, -0.024322420079431615, 0.0012647506588105246, 0.02186380228867615, -0.012856619269188168, 0.02464206643050658, -0.07271938280677719, 0.07337316108930617, 0.008683789856540447, 0.06814887932852451, 0.031795943968036935, 0.010294275137841322, 0.06902094279478035, -0.09590095320690226, -0.06664313021329824, -0.025222970791084723, 0.005220125332070117, -0.04736245137396946, -0.03991327920143619, -0.017591755517258244, 0.05115597632970204, 0.027146790639133438, -0.014076984611321423, -0.014271990299384493, 0.028229709791633587, 0.0104136109236833, 0.015560158119274345, -0.029785727509549293, -0.0017159425382240845, 0.056801106252208376, 0.009061915086467684, 0.0055435651110214154, 0.009861491583930999, 0.023715066377843944, -0.0061047784499791355, -0.006929146534886025, 0.04261669286870188, 0.030467570835693365, 0.0007923868612240162, 0.03636574850528396, -0.039688166247708274, 0.06969269218981977, -0.0231093691915756, 0.03153132927528011, 0.004457079797695184, 0.022945138021597457, 0.022795446752377834, 0.02930564264783679, 0.024788117144173092, 0.028216310088155838, -0.025041405420588463, 0.041994846944892576, -0.00642188143492475, -0.037111897148412384, -0.015011681921294168, -0.0026139854548978894, -0.06300418172781234, 0.012720350544949023, -0.010586181824591355, 0.048147002773174255, -0.029140198874694802, -0.00018912855941076502, 0.06532521113212907, -0.00708601512877512, -0.028702153956423795, 0.04444130489209799, 0.012101761727366194, 0.03723495162399237, 0.06142697706179248, -0.018252168317455988, -0.05964860619294172, -0.016718089975008812, -0.039028786545444755, 0.010100301178048582, -0.0403670025342664, 0.021795014449068527, 0.01615748723582897, 0.001486456637110549, -0.007002456177701933, -0.04262499448461067, -0.01800386250370885, 0.00414989637810592, 0.02067304994479163, -0.00508502578164699, -0.016079812767442265, 0.03879442759052538, -0.0538979413814468, -0.06713361698556608, 0.02580796533150555, 0.015302295727159472, 0.03807709878719724, 0.06502353660792862, 0.08361186454112922, 0.05101773035326997, 0.021525718818788526, 0.0556226140515152, -0.03794876589527401, 0.046949168670795766, -0.09911975938367036, 0.02153089825245464, -0.024771668531303217, -0.05641339425867088, 0.01742287480228118, -0.024419905796949474, -0.012804363050242837, -0.06792457601146737, 0.00013016169917455766, 0.0025553973852427817, -0.028592870959180183, 0.00758906236241412, -0.07656105849017789, 0.0021588294416646247, 0.002863311468792352, 0.02167263466285408, -0.011477844599191617, -0.011246506577934325, 0.07931319722212544, 0.043338214497199615, 0.0434290329373041, 0.07926067803424679, 0.07365344414588906, 0.05066388051180788, 0.046747288911964224, 0.026235734256278207, 0.06670107179511373, 0.06796036970468418, 0.026904739277168514, -0.0194307387573352, -0.040111490177019635, 0.0006794287222668808, -0.02616320082738561, 0.02334259570713501, 0.016036044215551576, 0.006002997123380225, -0.008288187516046699, 0.01630073960039572, -0.026246638928952487, -0.023862386823286518, -0.035013126347868066, -0.013172664015555299, 0.02474747361777186, 0.00750148003197144, 0.06186732657719415, -0.01776423689167165, 0.07730321657063506, 0.04623300938575427, 0.0946453430739927, 0.12054339080369578, 0.15398178489145276, 0.1571798549702973, 0.16411590723578773, 0.19510702988090092, 0.16387784666229366, 0.07412518413555566, 0.0836161367552847, 0.051675729787475796, 0.020992543052932723, 0.05473583659978183, 0.004292417186842133, 0.0013863331524033833, 0.04204948752047048, -0.028760561875785955, 0.026134002677900805, 0.07519722016045248, -0.0060630978621156705, -0.002324359138540927, 0.02976517101639046, 0.023602531053894697, 0.061144694682440486, 0.05579366341488881, -0.006360891984953548, 0.027207581767564874, 0.1424961261316146, 0.170187740891259, 0.16298828826063516, 0.15127371395610983, 0.10541533398971344, 0.12729670751489136, 0.09136273004757285, 0.09151373028698556, 0.08007102302691747, 0.13999501104856704, 0.06595668037394198, 0.11261365119510135, 0.1372390519568076, 0.08575787882571771, 0.09849020936373931, 0.02886495172521509, 0.05983991504585559, 0.025031765138309688, 0.003431205592737828, 0.04540484785352499, -0.011662772718623454, 0.006826517682710504, 0.02341037636635967, -0.007904209992190284, -0.020535419701376772, -0.005330596320620512, 0.016136121695883396, 0.10069058341843473, -0.009516092768718395, 0.08222963642829989, 0.04276042763251672, 0.04928495107402601, -0.033135658849365236, -0.012173559720542699, -0.11210160188467054, -0.04550685884161631, -0.048967397516980385, 0.057037332123760255, 0.09213841080915851, 0.07612659555490349, 0.14763070685631322, 0.15859320704837862, 0.19809332940436733, 0.05782912338221472, 0.02809741225210725, 0.023826338170892115, -0.005842553486224793, 0.04100388142503013, -0.02410327313696185, 0.010140471356638689, -0.05075374641875533, 0.0011474422743065272, -0.02193059380837902, -0.03186128933224936, -0.0230567832473027, -0.03800795813945654, 0.03864916726406691, -0.0050718591446005145, -0.059134448179750526, -0.05951994271837902, -0.08041653156842049, -0.10068593203234012, -0.1012745062746239, -0.09244600979565008, -0.03535239323088173, -0.00209884942658595, 0.057767774577184176, 0.09116875612235188, 0.1325348376856958, 0.1409438771616709, 0.18189163240355327, 0.11210432417467488, 0.043900613316604185, 0.037432708876266756, -0.005074255328758703, 0.007569857889090078, 0.040147712565113, 0.031783339735939956, -0.022240545357339263, 0.034920741305285004, -0.0961946656953399, -0.08105924387010618, -0.050453012037094326, -0.06480724232904761, -0.011005945309579126, -0.051943227094830235, 0.04772323877936444, -0.06052991838614926, -0.06037312624152653, -0.1382572476531306, -0.16385564328941135, -0.10823640264974053, -0.060535085308034184, -0.07776244233508225, 0.07923002891650134, 0.08280653462953586, 0.11520952477896838, 0.13880007263538555, 0.13030585623604837, 0.10747509687343423, 0.02120574916988581, 0.016426859810215085, -0.01804948624340619, 0.016469716427262075, -0.08927845684168947, -0.001041044320423248, -0.05934857602223788, 0.019021360724737993, -0.07905323822403044, -0.08623616279668016, -0.07757206460698239, 0.017330431223673705, -0.08646870392610326, 0.0032179255474920573, 0.017137219007970824, -0.021271545539990316, 0.021702601423045715, -0.11010379579250033, -0.11268329840333771, -0.21869109892937993, -0.1329540082770291, -0.07081407921370239, -0.0536922961954101, 0.0530767674776848, 0.028633819893547508, 0.049110116772285495, 0.06994255476222422, 0.06328001145741653, 0.024144778393693993, -0.012579720782170706, 0.016269593410250263, -0.02562411228505712, -0.03489302762321909, 0.02534461753145381, 0.006117084975435234, 0.0007213609748579197, -0.10345092978382579, -0.05070092303560166, -0.03742543733269628, -0.07774339269848278, 0.009171552862062305, 0.022469250697818667, 0.04990715738970466, 0.12040135869245765, 0.08893050533010095, -0.05798973098175408, -0.1695606811233278, -0.14685947309887287, -0.11229598861079848, -0.09464608341600202, -0.04437276991098344, -0.09734309336215201, 0.01495831810654937, 0.05101354856830632, 0.06012736161630205, -0.020708544796095744, 0.025973821261686972, 0.033231570714361336, -0.04039609095077751, -0.0514598312471753, 0.0186984369600035, 0.01089243083124305, 0.0038985400121251896, -0.04043368948728094, -0.06207667134891262, -0.009198061473076292, -0.01611757658882167, 0.0006337791634466421, 0.0421095871143421, 0.04629475880329817, 0.21168792744917767, 0.22189926613434738, 0.1242469436159437, -0.06679750831820545, -0.1662574423658421, -0.18777767557064576, -0.10956732609119889, -0.10375968309658062, -0.13764751270773765, -0.11945252037106378, -0.013015643874979926, 0.02658511918809535, -0.0033748273211413236, -0.017827563985453466, 0.02557992979782169, 0.0015415726349502575, -0.027705378608191427, 0.0008760466294781481, -0.014386341743341878, -0.06750543764662122, -0.06420982507862434, -0.06193125967252535, -0.11331402593011121, -0.08727888437585737, -0.004692971048798189, 0.03262777682770173, 0.08964858483043622, 0.16929880995594182, 0.24199803020473584, 0.294397069062338, 0.10137146155119706, 0.013083945042806472, -0.117479911236773, -0.08800166625672301, -0.13504513343371058, -0.16725823463463532, -0.16465957349116817, -0.08306244608031783, -0.057530771752186814, 0.06672739517559677, 0.0917026073073951, -0.0009928090844297513, 0.04341477747102379, -0.005542061872868321, 0.03589981978591363, 0.04246358571759897, 0.04143055096935705, 0.09394488050226756, -0.03610767536863649, -0.046684129264880136, -0.02282046728713055, -0.0254181670390348, 0.008588014279759587, 0.08627398278798128, 0.10440801911976536, 0.22263906492050198, 0.3107248501829583, 0.29571977130129656, 0.04168601549527955, -0.062189636532500536, -0.11244035328748092, -0.17450855345447613, -0.0895006683070427, -0.15584689432159826, -0.08854205523603653, 0.00262025763759883, 0.04050228116358936, 0.05950931816044676, 0.01874648862722688, 0.03463956139131558, -0.010552804333272882, -0.02921897417399478, -0.008663864931823011, -0.018082587187718352, 0.0011912628895793585, -0.01272091795314171, 0.018276162139412223, -0.07488055097636512, 0.05561694396657254, -0.02278403114663016, 0.07601099424344816, 0.0476059244776886, 0.12576201981256754, 0.2255641362682076, 0.1763044121815206, 0.20770012164128182, 0.08524941102493135, -0.03737015587611946, -0.050834237834208935, -0.10172521449592949, -0.16577662744320265, -0.1338144102398504, -0.004842263612823523, 0.017137494887923484, -0.01349986265754803, 0.10736516627767238, 0.05870611024490829, 0.02382627132809399, -0.02695504672150023, -0.06556947970478125, 0.03452128832638169, 0.008306507142389598, 0.05586803430032902, 0.021684656689266828, 0.007281650875733892, -0.017696738545479485, 0.021456741743930544, 0.05394982024043139, 0.0547921684946125, 0.12507814969429484, 0.12031734100710739, 0.08741630702680597, 0.10594984452290217, 0.09897031420708888, -0.0461441450656251, -0.15420857586702397, -0.11238413073320203, -0.08282357450769617, -0.07444833514103258, -0.0077545647242190496, 0.015804862171036396, 0.025328359978716984, 0.10477365365459462, 0.06427425024372288, 0.06600357624002032, -0.013022246219507677, 0.014501042290181497, 0.006659334678126811, 0.0286082001274418, 0.03443325491887743, -0.0013231898309863399, -0.007565062992931841, 0.10386830345629837, -0.0388082358593938, 0.06164444090480952, 0.1462664829835795, 0.14550884446173817, 0.06752413276834701, 0.11445249330183627, 0.09788401753390388, 0.02381660131897509, -0.06846499167441389, -0.16836168545548694, -0.16544208011030603, -0.12087695191903733, 0.031052721561356692, 0.05614956526821093, 0.07260095364984215, 0.18804081332367664, 0.07850394608111143, 0.10381376455887158, 0.06285041894636831, 0.0938920582344731, -0.014283913744398245, -0.022680428993961426, -0.038805243188637054, -0.013727877121648904, 0.023924497708247467, 0.03927535901384905, 0.04022762753418277, -0.010598494125374718, -0.0059589208130181905, 0.0450451451312644, 0.1584462452683802, 0.21267841914129412, 0.10056982580956528, 0.12606199234890317, 0.031996161630423355, -0.03836521554410779, -0.027339494924225577, -0.06642377854510902, -0.17055515505465538, -0.022744576605391562, 0.10405468763288099, 0.05534369500194948, 0.13171337733553568, 0.1322098355117222, 0.12510106377036792, 0.14880198546985596, 0.1237100855163156, 0.09413573377071513, 0.045613624611911874, -0.0037264808086312803, 0.010837690734464327, 0.048270142866929044, -0.054617090555960354, -0.031916013679944746, 0.014523965636999156, 0.005886626369928835, 0.08781035822411545, 0.12209668191157812, 0.17945634231100197, 0.2192637242560332, 0.16414404914845013, 0.21846450457641725, 0.21146285736896783, 0.09590516161610428, 0.03677286415230876, -0.07587047160644404, -0.024244240266095486, -0.001139139000470297, 0.10305817916245007, 0.174455478186507, 0.18993736494003272, 0.146411621198487, 0.1846191715138221, 0.0866488881549549, 0.1070570798108585, 0.09257703648444575, 0.04207501987285807, -0.01637723921287883, -0.0008162876835847787, 0.013529864090930113, -0.02682765168645912, -0.009026246026697663, 0.05259681146001749, -0.0028006394559014222, 0.03348194310103332, 0.0805783576779001, 0.21391942044250414, 0.26161693990400126, 0.21758476014025735, 0.24234851439037672, 0.1762529660151434, 0.09523386897360307, 0.06865128918837002, 0.023345340694585756, -0.0057928071676173155, 0.10336724175857798, 0.11683670654167733, 0.19234180978298365, 0.11993135313624304, 0.15383910109166152, 0.16880537367079423, 0.0999528437450475, 0.05318624500833018, 0.021678061811352695, -0.002482288353549265, 0.005226231125156932, -0.03323060823259414, -0.01023733019802586, -0.0021177862630127986, 0.0009499079239400594, -0.018311443203814982, -0.004245361286166749, 0.02828103087561798, 0.1370916665869029, 0.10442632032095886, 0.16974754610984102, 0.15765761321978788, 0.14213335639502492, 0.13564177207319625, 0.07909455093884013, 0.025774493729270025, 0.047977239673809284, 0.07553622579331438, 0.08372046155813023, 0.05929857940993225, 0.1396385131730582, 0.14727176151611174, 0.11737519802339076, 0.08144146551193994, 0.07721376451846138, 0.01997949976150882, -0.027150938283413688, -0.036414096156109466, -0.010853260749470687, -0.030885501700829276, 0.08098846155534126, 0.05873526881122036, 0.03326035451200539, -0.043071733672642935, -0.020348545149965626, -0.04815887515491942, 0.036582474389376084, 0.05212410272265669, 0.12359135833839346, 0.1072447564492571, 0.07949364209443623, 0.09664919325177967, 0.13140565846404775, 0.1813218520519554, 0.18066627194188953, 0.04624539436578346, 0.06362364408790064, 0.06223171014259976, 0.09274279257445618, 0.10067797185631702, 0.06155657880977961, 0.08779956909072584, 0.007465645935215677, -0.027309573479041855, 0.024019806863255215, -0.009107842489027698, 0.006911979404554738, -0.04553767549093859, -0.03907531491432784, 0.03372797369589146, -0.026508466479138217, -0.01341239154062734, 0.007338351268587129, 0.02987798312631481, 0.02070401589161658, -9.568535187799628e-05, 0.04855891124084496, 0.04909860810893351, 0.027188813755109138, 0.05331477466993339, 0.12630085613340972, 0.11064485354870779, 0.09764228410197118, 0.06731636182799186, 0.06831564872185902, 0.016420236450261236, -0.022546867769801998, 0.0759979712041496, -0.044908623958521195, 0.05938681815897066, -0.04316227235253331, -0.009427651618217693, 0.04324115568157903, 0.05292158645538824, -0.07487899678855535, -0.018970624904866597, -0.010380109010039286, 0.07790296462070544, 0.031751565696973, -0.026925661151810873, -0.001563024691732498, -0.03911726379368236, 0.002259835870007552, -0.08213499284835908, -0.007655502976462001, -0.013785655583321612, -0.055664413935283145, -0.025424315969322778, 0.09597932312549834, 0.05281043763027662, 0.04511016802812636, -0.020035694695697537, 0.06744168102469118, -0.0457104024211101, -0.021611410426361808, -0.022578017935730794, -0.0737190623974516, 0.01334569189043083, -0.017077879063704633, 0.003087833841888156, -0.05944060641291213, -0.013948646573348407, 0.00880554201100196, 0.05427375036003431, -0.04551891796007541, -0.006639929358838546, -0.023520776073156467, -0.036946245577270775, -0.01201362145570278, 0.034837541981984015, 0.04321876463222221, -0.1118208186703348, -0.05021866646899828, -0.06902379349906211, -0.06445537973777492, -0.12243792678482554, -0.14313755786505275, -0.0755217639125507, -0.06927252239416316, -0.06648116925814335, -0.07147473534967996, -0.047760280408244656, -0.0984386283672192, -0.12562136774970525, -0.08301258919222625, -0.0415395181841669, -0.017939944485955678, -0.006656188277472916, 0.02964214034628317, -0.06127096870454341, 0.012206918237900074, 0.014250550414376395, 0.00612829251695505, -0.014931726014235275, 0.056972466807388294, -0.04157013208735994, 0.0011859834064782643, 0.051354045806716396, -0.05582505287155315, -0.025740571246732978, -0.07480677357737549, -0.09767943227070007, -0.042056871979774355, -0.06318645373565536, -0.027894695368191485, -0.043833972372760224, -0.060721104986416856, -0.05886578103190362, -0.05688902421920795, -0.042238202783462, -0.004274437110789888, -0.03877073807202428, -0.03666813309629746, 0.030089342669049734, -0.06600516578827456, -0.019573126751579538, 0.006131081898013371, 0.023312735503601325, 0.053286171252709416, 0.00043396373646497905, -0.009667208472673773, 0.010228638319474511, -0.04239686055598461, 0.00209789051598413, 0.015759975097550723, -0.02750763816857737, 0.02532242494554922, -0.0014299364091894904, 0.02544312475994135, -0.038121530401658534, -0.018338361020629787, -0.008881882535235527, -0.09092136367529004, 0.011195556566787862, -0.003543244415941144, 0.05475545540802678, 0.032160228754769656, -0.040554227231881165, -0.011161301952108304, 0.010909939332334992, 0.0013598023597901005, -0.006168618379840312, -0.008811557396997297, -0.020658090221069573, -0.020470711390113475, -0.015313588346794414, -0.00913307380760777, -0.04160275033435075, 0.02695675224047371], [0.008815534093108665, 0.02467385790558415, 0.029737300043132787, -0.018224368097030545, 0.04738681491734447, 0.044072652603988634, 0.004210109085534271, 0.0052871691175606726, 0.05617021842589952, -0.008326473152337668, 0.002673320719874713, -0.015333409478685306, -0.015285218635383136, -0.023926053583189014, 0.0378033193999375, 0.0025999938421338467, -0.005507177327906313, 0.027897926246519468, -0.01214439935072162, -0.050523107163519716, 0.03083215478480758, -0.029155216019119985, -0.005345328260182198, -0.02351795321198419, 0.0650320536478587, -0.016187790493888174, 0.018895963513930414, -0.0917515541771674, 0.03727988027720956, 0.01555536146239605, -0.02833452782240034, 0.0023918449081354503, 0.028641912633560376, 0.02694766758768716, 0.02571302452305128, -0.0008715864972036437, 0.00854387039137933, 0.002269536242356098, -0.05022120532325487, -0.011114764334401919, 0.021292151803754825, 0.007781235203789906, 0.011390444290210203, 0.04440892206154388, -0.015837833046506017, 0.062358573640663134, 0.0013458940504432462, -0.08625309464336765, 0.022760930854566822, 0.04329048830585184, -0.019357647637910824, 0.03259720406435854, -0.028277811742703572, -0.006647573848339608, 0.07850829307403119, -0.01746683199452539, -0.058387897824834244, -0.014031369860998488, 0.0009711522524750518, 0.0635783479277571, 0.014222972376856383, 0.08484353644621744, -0.008551495574676786, 0.07045159625279505, 0.003828532036414962, -0.07350182468829884, -0.025176733276019467, -0.041723776961991296, 0.0022261728590526504, -0.007765263348956967, 0.013913921504238544, 0.0011229799146569082, 0.027873243801302846, 0.0027071061698409203, -0.01905905845764087, 0.008451341298187805, 0.017882893922326334, -0.00039796953690375385, 0.04252065895445467, 0.00920108472219693, -0.004234624362677353, -0.015072672632536262, 0.007266883826290313, 0.02350441001050693, -0.006502042533537105, -0.034285633491034626, 0.005985405982418598, -0.037293862204701315, 0.04327855199408628, 0.028155194774013393, 0.03602885560920449, -0.008689552687025735, -0.014396493016219904, 0.016631860484385946, 0.021865699033420616, -0.013546239330966516, 0.024964452158202186, 0.06045634608523244, 0.02499300517465077, 0.06321188662203309, -0.01686263475867847, 0.03460440389265163, 0.01725980656266036, 0.0033418989307553706, -0.07726376715493412, 0.035514372103702306, -0.03219475076725022, 0.05542303063981227, 0.0044608761899518, 0.03978443654200598, -0.01825196724500511, -0.05002115806452873, -0.03061713646337697, -0.010952648663684344, 0.005501033830582616, 0.01641695240489616, 0.006043293115577703, -0.018059508899918447, 0.06783904449887816, 0.018799173654034385, 0.02397498414290346, -0.0068857809505942945, 0.01436486565676388, -0.06282591187111485, -0.06891080408072839, -0.045366763718491486, 0.04349346766379767, 0.029383876409021837, 0.04184598983929374, 0.02967721365655258, 0.06627669813674471, 0.010601078896186679, -0.032667025393957216, 0.03310389302484008, -0.02933620125363228, 0.04706421280682663, -0.03816420371875809, -0.007146553642935641, -0.014462306252705387, 0.0034670951504198765, -0.06144026675522186, 0.09934765994905034, -0.044824630502316554, -0.04255242569205273, -0.014996168905325796, -0.06386733349629597, -0.061337317685428085, -0.025398920696409602, -0.02812297796842421, 0.017796910378993464, -0.04000170367803069, -0.03401744958315313, -0.048323686271386244, -0.004505914661383942, -0.020559312340398782, -0.009792191811185241, 0.02047741143414546, 0.024279110899345, 0.018427256555935558, 0.03960132173903772, -0.018096095370995435, -0.0515816284241688, -0.001915160788662419, -0.023725630238546732, -0.012300591811574106, 0.002218894331932352, 0.03992676409834176, -0.028999450763790534, -0.030132903088128635, -0.0311483637175663, -0.005685315938152692, -0.0036617877980551364, -0.02989262075190034, 0.010398510196922783, -0.09003090772328741, -0.07271927043901928, -0.05336716688293961, -0.13396980404449993, -0.06370924869138762, -0.08156151652052004, -0.015368451131746714, -0.021892004052785786, -0.02531877043488044, 0.024425790573290435, 0.029480099407004714, 0.04629325682477325, -0.022674580486559747, -0.04331424470775967, -0.0007610102823266457, -0.01056605095966152, 0.010313122805303644, 0.005646607609044849, -0.08501458240981397, -0.0014194688569254463, -0.06359241210639476, -0.019725060861567688, 0.009952882900181093, -0.03241290455180094, 0.006433829839515716, -0.07407951546910166, 0.0024803074880890056, -0.014441606539783818, 0.018111269659496734, -0.05840406625227394, -0.06470269260688664, -0.02722132220806738, 0.010482133779880087, -0.028710419002080195, 0.049581197635132114, 0.06630337077389611, -0.018740850588875434, 0.051314884084279484, -0.007599707358016549, -0.009524832912725552, 0.030657058540659657, -0.11276188584731502, -0.04026371099227718, 0.018646002804602334, -0.021250290556763897, -0.00504836845312327, -0.06359384728104804, -0.03005931086032481, -0.0013856433461540906, -0.036089695081163796, 0.035585693765617044, -0.014026840695682632, -0.0009016200856643565, 0.01360704023515727, -0.0011389886650881136, -0.02742676988974688, 0.002899123530986079, 0.03251504338163078, 0.012974270781769874, 0.06951639365211171, 0.039030345158815385, 0.054947725974103676, -0.015038615277683711, 0.03652745090841615, -0.00822830127910142, 0.01470323362822118, -0.05070824082142304, -0.0024023154356725028, 5.306275454444769e-05, -0.028314232374800463, 0.02126615361379408, 0.03581132752807203, -0.013575861196770461, -0.01276551393639266, 0.03529324932995346, 0.01897752880643858, 0.03224527882342473, -0.02920413831404941, 0.027096237022143293, -0.008348176991299378, 0.006757796587672601, -0.008533547861676448, 0.033783871073048366, -0.06365676572218484, -0.011620869812391089, 0.014174315674360559, 0.0632656732025219, -0.0008356950612990847, 0.06064143054790058, 0.08180635944256401, 0.12749231945287698, 0.043605503555573556, -0.04439815536690537, -0.03637720504732896, 0.008736787025506664, -0.017403106796010155, 1.6151540253759482e-05, 0.0751894551716315, 0.030211332554255652, 0.02304439224525077, 0.018789927680001355, 0.02174419934245444, -0.05705642804712968, -0.014205634789930248, 0.005205037454894423, -0.00528404504430904, -0.03770281543209257, 0.013947866038405898, -0.06486505561850268, 0.014812742748442803, -0.05154102674323861, 0.049648167927240944, -0.02244979100986312, 0.004787236182441282, 0.06444177102853511, 0.026639490996553234, 0.054906754459410276, 0.025492852460536192, 0.026132676280555732, 0.02518756683020381, -0.022927096351287573, -0.03475227312320421, -0.07943428519413745, -0.055966338834270435, 0.0005233501585494233, 0.045405768025334865, 0.038611575439526515, 0.12464938034908617, 0.05329927318285179, 0.03387538098851936, -0.009946165235843058, 0.010104760989766818, -0.008029825809153021, 0.04665501940762567, -0.018626841894828185, -0.024074874021939953, 0.053801134929585534, 0.012340602743386612, -0.017311953360760166, -0.030831987173479847, 0.06884173842895704, 0.10008475193375035, 0.023185966395375183, 0.033379715774026306, 0.052009356026413496, -0.030360606732028075, 0.026074248756424098, -0.08065599132562774, -0.08137969126205266, -0.08062280733711825, -0.03911801965606835, -0.08429331863790232, 0.03870748081349734, 0.022190209886247102, 0.08855251583456707, 0.06958725214834402, 0.054634100856824366, -0.06887342871344819, 0.015959749281384175, -0.023515164230281736, -0.014469970311749068, 0.04858797447659607, -0.03627579467610527, 0.022070542337734103, 0.026925108136924995, -0.008010938340069898, 0.04751120166658921, 0.0870332602953458, 0.007642437951919541, -0.00963249043246383, 0.05171160221635279, -0.014752077905052065, 0.023652103089827264, -0.0674009018633713, -0.027356565995276562, -0.07181893872780008, 0.0029447486243941575, -0.06264040189003445, -0.015925406097273165, -0.04275180033622829, 0.021894476691712055, 0.02641975621899578, 0.0720413092187032, 0.01452163771170907, 0.02668412259993736, 0.03584536590185479, 0.011477608500324869, -0.025223789798211223, -0.052392260076270986, 0.021286067870822833, -0.01577392093909604, -0.01088007369571972, 0.011502742878054886, 0.007595691594700446, -0.004612072604384597, -0.011556266199367638, 0.04848965944000034, -0.04053471166250745, -0.15758386344920255, -0.06972991203295853, -0.06841815818063965, -0.09128049248827877, -0.08522814810061227, -0.10620962420434903, -0.13563130639312246, -0.05922880220523022, -0.06321021953839277, -0.05686799732873302, -0.057786301628742764, 0.017793241674426887, 0.06635557547292484, 0.07975873944037687, 0.04022384453688681, -0.03836214461926988, 0.0050843402926827996, -0.009659781502425788, -0.0055110161872741715, 0.04191684939145408, 0.03620333668012192, -0.07242049988968367, -0.04276600716835117, 0.029243859089825658, -0.04622990414411841, -0.03195862549461979, 0.02966924102582907, 0.002086181277011673, -0.06612949422239615, -0.030930926401749985, -0.11355176358368188, -0.09914022165073681, -0.11709960632533432, -0.09030566303030287, -0.05668088201693912, -0.015588882459537233, -0.05234634898512921, -0.09221710680436353, -0.00531345177703465, -0.0363791562969254, 0.052843483694512, 0.014478824504413066, 0.011052337337754119, 0.027152470265172757, 0.0586244010356151, 0.04886532062737144, 0.009995161219450177, -0.051240681897213966, -0.025321572653918743, -0.004940181304308898, 0.0010964802537122313, 0.010090523767218135, 0.05122560078738143, -0.01496439072575991, -0.0043695924220086115, -0.018696841409548318, -0.049675463734555454, -0.07211059290210327, -0.05559376610252691, -0.013718559678303693, -0.0565527543368337, 0.020150791863156693, 0.010136677850206546, -0.06610787178849291, -0.042723744328916693, -0.08479550166054114, -0.1126899948985058, -0.11171112318507156, -0.05316104280415846, -0.051119117193403965, 0.04557240948816075, -0.0008566594330003691, -0.023788465482030133, 0.030801264124950017, -0.021825266366650352, 0.010231736939681796, 0.02219942546023257, 0.005540556338917717, 0.003791603613419688, 0.018270645800748938, 0.04940525472325647, 0.0030706380956806415, 0.002895909874784789, 0.010331514598296959, 0.030136019947398014, 0.007331349502661173, 0.008947215957415398, 0.05160858117020356, 0.08522965786090361, 0.06965362171681591, 0.032212085621413665, -0.0902600821030674, -0.05405201857173148, -0.02292557057541382, -0.1371622872330216, -0.108333666369932, -0.04132354416521594, -0.054330867555382974, -0.03663420304291417, -0.043573974953716586, 0.07971152969832601, -0.010935682541852497, -0.024578485938425373, -0.02643091806028323, 0.0002668963284897245, -0.07236809667203299, -0.043136484975662366, -0.00397065266330403, -0.039443948949064625, 0.015116844131396847, -0.008054959542895248, 0.028643790632617048, 0.11336514236801284, 0.08234038972723906, 0.08964266385393956, 0.12116072108879801, 0.11383129427623663, 0.05501683749087796, 0.06696889540716842, 0.006913992832648989, -0.047513566870651974, -0.051668327740497275, -0.013765805042482482, -0.035589373772330596, 0.03202340959835732, -0.013982740517120014, 0.013998884526269602, 0.007314617698721349, 0.03681310504416971, 0.03255898888939563, 0.02064483198662098, -0.04095312093131129, 0.05654780657676734, -0.012894996267040512, -0.05939115743402811, -0.07811120602887385, -0.0321576294035892, -0.030531586059819614, -0.030806282181621698, 0.04996426940671023, 0.03663524022349788, 0.08755163421789568, 0.17926114920502925, 0.1591239060896195, 0.14385882607081185, 0.06824139711993592, 0.01953197859251468, -0.05100461982773013, 0.009974930639455596, -0.057670523592900924, -0.09238134968893666, -0.005031212010515719, -0.06814990691817752, -0.007838291645465035, -0.024316547399787534, -0.015836665550411997, 0.00395249011944813, 0.023496103180141992, 0.01801474273599521, 0.02372349743514517, -0.03506849260494452, 0.007679938566348405, -0.013496073170147794, -0.08447732939963769, 0.05227512634738416, -0.007569514111658896, -0.017752499308566094, 0.03570177680407247, 0.016475309578378262, 0.11336124526706458, 0.08065257450715092, 0.09448361791945552, 0.01849902560685178, 0.10288814402699048, 0.0045180860263652044, 0.012564652450723244, 0.008369263327768219, -0.011374395503238939, -0.011002914737971319, -0.06261691432328773, -0.008919773193744571, -0.07465124832029478, 0.04743581847830986, 0.049052072611891824, 0.017506887148199816, -0.02548987254061359, 0.002979636963772269, -0.03263392413712307, -0.03158051435945342, -0.03423298805814739, 0.04981552284777935, 0.026859995232178704, 0.016934804898734945, 0.012199665276679377, -0.005118994320655491, 0.049570872040596736, 0.027239611917061438, 0.06206603397945866, 0.05617962075938742, 0.10308938470925684, 0.07739223716647828, 0.021537754030172766, -0.08741881480045356, -0.04650420743537649, -0.10145061692360381, -0.05446184650053513, -0.02852105347298437, 0.008582908796191936, -0.05454914353667568, -0.023606572049287306, -0.02158469633286926, 0.014319235978964747, -0.0037166474497462524, -0.017956217832880945, 0.003607866365416847, -0.01900548877365465, -0.016189287718311733, 0.0018348513182488764, 0.03784483131471573, -0.029024507511264244, -0.0436851898789875, -0.03663380783150861, -9.579281785287075e-05, 0.022768048141116957, -0.04968893484285567, -0.010455856225884822, 0.036505698799507186, 0.07108789040651826, -0.013770501609816294, -0.056359069650655826, 0.035034560293725966, 0.01222872139542797, -0.09131069313595794, -0.029414741287488413, 0.020186614076421555, 0.0012807060670813695, 0.006862943989480129, 0.006421066471367643, -0.02885586825626845, 0.027289618108365322, 0.03512461207373548, 0.0071274203376504985, -0.031634471031675944, 0.04226315879154849, 0.03375558310577929, 0.018255143802149165, -0.03362294390464625, 0.0602535678932086, -0.002289818312899931, 0.005896249582785153, -0.017975436550200022, -0.01554674002829206, 0.004265023647265127, 0.02741794024578686, -0.02659141193871939, -0.007360711564713956, -0.07318502520080869, -0.016586325176322043, -0.013646068514842654, -0.018266452371354762, -0.08348003861970513, -0.10580520211983205, -0.023430996096106358, -0.025902308431376836, -0.025396351779444656, 0.030385495048993058, -0.08474779343995849, 0.019490693989557092, -0.005727581693502414, 0.011106465524371206, 0.0069517129115702824, -0.0073906573427550875, 0.03447251490589686, 0.023716539868130677, -0.017460179447053855, -0.02448794401473926, -0.021867065217604214, -0.06580327391184321, 0.017018584495086565, -0.04404277450037925, -0.04568304325364538, -0.03892833052810559, -0.041944520861679886, -0.04038238471765855, 0.015014181443248384, -0.059465868287394974, 0.025026149035909464, -0.01363444753735663, 0.026925693493286038, -0.03670720930719278, -0.07199203352651333, 0.01986151125429784, 0.031337493153851384, -0.04089968999052774, -0.0364045139743867, -0.06785160529446116, 0.005736300747375555, 0.054775649487481926, -0.06084144797182982, -0.02874612130089291, -0.04294511071982681, 0.015150498719744823, 0.026260889309336146, 0.02958138954139322, -0.036748317433293265, -0.017240463694256074, 0.03638215555110631, 0.04463247788781913, -0.04640603926974348, -0.029320310957206327, -0.02436902581019163, 0.01393693330632904, 0.020096234731757163, -0.015257399784751808, 0.01035889587919296, -0.06934869041910717, 0.0013411680718315134, -0.0024028597257463352, -0.03053224536207845, -0.010559729311590382, 0.014157710716485482, -0.0891920348284571, 0.007984658444442948, 0.053125191954115254, -0.042247185651884574, -0.006020206461448169, -0.059016131125331744, 0.027117339834012207, 0.006237190522800159, -0.012138742041699846, 0.04591991696938365, 0.003575516641935582, 0.015877397525554064, 0.011485761495101011, -0.01494426621450362, -0.009977620158114115, -0.007336878160290404, 0.02381536050576455, 0.016577810185849147, 0.0042543773930973075, -0.01583960622768516, -0.001829956018858071, 0.08738185104832503, 0.06577595273948032, 0.026683937699506395, -0.05877790794938893, 0.011803993369842286, -0.0004410794124845721, -0.0031188069693022726, 0.010192102680410643, -0.06157660079124527, -0.05608795651567537, -0.040267460890680805, -0.04645588364314178, 0.04281496957410233, -0.012726813484974644, 0.024629882422161332, 0.050453155862671024, -0.024325669039731816, -0.020536626275296795, -0.014754506633531596, 0.03253199428017971, 0.030332151014378292, -0.009309623575007323, -0.026888611372040707, -0.03932767896924192, 0.009038666204953794, 0.02255191942737627, 0.08712955889171063, 0.09245827388561957, 0.004741410719882986, 0.009785147058229653, 0.010297524171617934, 0.05284400141064943, -0.060895098336526864, -0.03986071076642427, -0.007766994212259378, 0.03790117600121948, 0.0390211331978582, -0.006729957076994487, -0.033625172331139194, 0.01356917005129335, -0.0014617364746206875, 0.03872224666120069, 0.0484330243946169, -0.01135458375668952, 0.0042202872029659, -0.03873823734752223, 0.04100975060272877, -0.014061212047404417, 0.03669934253109591, -0.014989530285870146, -3.5806428491362945e-05, 0.0021488689242674113, -0.03193162350160983, -0.02015663597551094, -0.03146570196488407, -0.05893704329333851, -0.0006486223495632956, 0.03852398188960906, -0.02969934042304928, 0.0025921327660343805, 0.06793681840012852, -0.015442452886760565, -0.04860738287782694, 0.0013080612785802718, -0.009825634989769471, 0.018740254450721857, -0.025584603406525637, 0.018521681329652574, 0.03415976067517275, -0.051831714154802234], [-0.04585783011120735, -0.04628967360580999, -0.015367972258686345, -0.029827986052184143, 0.018665892103871852, -0.04343309019310563, -0.0018814463347711723, 0.03945393645456334, 0.020050086967112118, -0.025287632319834445, -0.03936208501634197, 0.033915779513734146, 0.024022377698754867, 0.001880145974443693, 0.03781386061870681, -0.020036543426297883, 0.04225800484215727, 0.04331367936998563, 0.03400268682184262, -0.01053905566843143, -0.009908624366389854, -0.00567054962754016, 0.06489940015361759, 0.007801739398568321, -0.0584763981106597, 0.0395673958246611, -0.05573073875068411, -0.01154720944672068, 0.04362161288555596, -0.02332170778465333, 0.01133503107018432, 0.02984547148702702, 0.04696144185234282, -0.02439661565778037, 0.003099551751872145, -0.07400859998330736, 0.018152431006765286, -0.059130695612932584, -0.0058648866882167125, -0.02014104890331886, -0.03240278407096626, 0.019996137619013768, 0.07332762055780902, -0.06350135886042337, -0.04771042847826148, 0.045398071293162305, -0.021538271505905177, -0.0885113611151602, -0.022624508833549165, -0.023759603675890046, -0.05411555742795983, 0.006857136200034946, -0.017679813585918948, 0.011771359811934763, 0.005610296797582296, -0.003930715386503345, 0.03383669610637424, -0.052764506684844406, -0.03280744029964691, 0.014308416574137861, 0.044119567464985084, -0.06937685482889766, 0.00839682151261853, 0.010296105389400408, -0.012222678863444525, -0.010385903335305952, 0.004885090393958403, 0.03316965585689773, 0.026446103565361184, 0.043835915062832985, -0.0042025256376159205, -0.05528196215515122, -0.05337460421817048, 0.012352546925249529, -0.013003955964643129, -0.030659002944549766, 0.015773980769699186, 0.050650589171805635, -0.051884024558580245, 0.058636129286202175, -0.0051668732157043075, -0.00915270402773346, 0.029839135859026807, 0.024777016272953405, -0.021239070756051418, 0.0015007615530408065, 0.05122713780996468, 0.003926475153210438, 0.013187059461829218, -0.004199546160257772, 0.019127066332157282, 0.005860629485204962, 0.03258564464763882, 0.000953513392702787, 0.019327259045799114, 0.04690350124436878, 0.005782464527475859, 0.0328212477458616, 0.003898708373416642, 0.014372267010532276, 0.07448277735813373, -0.009033731419079325, 0.023857143471620483, 0.006205232229854391, 0.0465596074176582, -0.020192797633236614, 0.004943302036081386, 0.03359836408884276, -0.024135678076883015, 0.02261956506174592, 0.06387845819992985, 0.015151834460034869, 0.013807734608463138, 0.016193693150754092, 0.007341544486305633, 0.014745778389925118, 0.029311414667752136, -0.05159783167772157, -0.05272824619112663, -0.022735615572696037, -0.03791830525828677, 0.04885349285533043, -0.02000648057225687, -0.08456367688363295, -0.025931446965385747, 0.005753774302440243, -0.033758202809479096, -0.05811438988780086, -0.01712189493064709, 0.007846911871298838, 0.017411364384130643, -0.01966380141855968, 0.03289292405956493, 0.0038705993297624727, -0.015884654146565064, 0.005177818957904801, -0.05269450004745641, -0.0025589374836874636, 0.02244100750037917, 0.001818120414113259, 0.06266212339393526, 0.024082308517049778, 0.0529292499939461, 0.013940562198751979, -0.04074317507146184, 0.0011650257930512933, 0.0021553198442935866, -0.003704519685020976, 0.05106917477064513, -0.03109276364928796, -0.0611372857627959, -0.08974219241611286, -0.025431030895023507, -0.012753590180791743, 0.0474908802583847, -0.03329971528387243, -0.06363220016363294, 0.02204478431831786, 0.007960493807273856, -0.007289229752717516, 0.043739930375060826, -0.010582497011906465, -0.10026646389309392, 0.006569749492263944, -0.0111001642114907, -0.0005938748689389277, 0.09604873131560354, -0.06032790692745424, -0.032709567757100225, 0.016378981070221992, 0.03168174469319509, 0.008320771894534812, -0.0010850076312544452, 0.00206298816286913, 0.08008761320297235, -0.031793597698506634, -0.03910645318228603, -0.03435528023248127, 0.016866461320918364, -0.0068804578277421825, 0.006462960721347827, -0.056195711525380526, -0.03947393880377321, -0.0727208828331174, -0.04563603710269329, 0.019160733522223507, -0.004335905045795364, -0.05736570959852623, -0.07186517079859438, -0.030273972008351593, -0.01443494341328435, 0.044297040368853326, -0.03308978348252534, -0.011442623935044118, 0.04745002807746526, 0.01339081547223587, 0.02253686033214938, -0.04792090122393176, -0.0005804142271907398, -0.011031708290830753, 0.012147397224629342, -0.003127080539284041, 0.022440526163607127, -0.07949941848807432, -0.0024211010121183733, 0.005562870200815178, -0.027672637947385136, -0.05150647016211518, -0.02082218822832249, -0.01625621756693121, 0.043176579618112915, 0.0019599734970431274, -0.0337634331322697, -0.06653376111183719, -0.030458210913540423, 0.08060305383476946, -0.004524412644665828, -0.09174047499444563, -0.03299272624289192, -0.05403900255492313, -0.024688463382724565, -0.027191722857369073, -0.004500898315549612, -0.013311203790650549, -0.020038730796113034, -0.05038459387275756, 0.06990596217126809, 0.013413447196454606, 0.0115262138249268, 0.010260824405339482, 0.0037564561851230007, -0.026593459726913387, -0.0005871213342690101, -0.01789659206830356, 0.016353394677789235, -0.04258659798080305, -0.017874869611900084, -0.04201238987403468, 0.005879590898923416, -0.0562457434129508, -0.05980075378610425, -0.021312721240435827, 0.055259035734746505, 0.0899155302449881, -0.12459209016950402, -0.021644333432641636, -0.006591037265145256, -0.045119307044920176, 0.009188855319712074, -0.01563482590883247, 0.04795563971647088, -0.051893277158048, -0.021395436707055217, 0.013996838802806002, 0.004455164449804887, 0.03691191335753211, -0.016779428738414533, -0.012728669738676346, -0.014264783117691424, -0.05496410722792711, -0.011133116448014355, -0.05986895359715551, -0.024608584861465065, 0.012488334852041512, -0.0017468650690957005, -0.042993862943798686, 0.009190696609008968, -0.010973134672157527, 0.021724375504665695, -0.0246061618443739, 0.010567482831107207, -0.028349753229244025, -0.04819513275344678, 0.015415337562223946, -0.10715125107734733, 0.036761917156559895, -0.06043749760025593, -0.038400390374733646, 0.017440459157380232, 0.053092144979856586, -0.00969014173478157, -0.017594543413594513, -0.04290199986256775, -0.04094652985308888, -0.02272582516121961, 0.012275303108323662, -0.0635477697850669, -0.02324631828213525, 0.017797920021906805, -0.0001850892745351463, -0.012317379017356533, 0.024735928770669265, 0.0070717248723804315, 0.0013944920068133446, 0.03526874073030762, 0.026891501739536472, 0.03965706150057931, -0.027009073446474886, -0.03827146531558045, 0.014279385177598629, 0.018182068216359197, -0.02331440148003775, -0.017097657185698095, 0.0002762618873022046, -0.012887756012078052, -0.10137855918884481, 0.0010121500826356818, -0.0103762201887577, 0.00919138472666756, 0.0031395762851174217, 0.06547235014282485, -0.005490101936995301, 0.05552776763321826, 0.02954826178660232, 0.060352959204614295, 0.08305835910054392, 0.07258254942802284, -0.03530414985506624, 0.010522352083223043, -0.05256466318934467, -0.016091174125085737, 0.00030698374102407905, 0.040727886327671305, 0.02677050852113831, -0.05807487132693275, -0.02904099891618591, -0.07654661554283174, -0.06828815902919357, 0.05341137904776773, 0.031859942518680476, -0.0182713338802888, 0.026774170614955753, 0.012798108444773583, 0.01738236067642193, -0.031005592885086655, -0.003354969374954659, 0.083749844748606, 0.04145811899181336, -0.016106020490847663, -0.010294225910456988, -0.08874779807074351, -0.04307799893338844, -0.05361613396441112, 0.029046568350597057, 0.030681366983557296, 0.01217991512713511, 0.019711144536506905, 0.0897973145340748, -0.03966050828065774, 0.0058330585233139585, 0.00860790933326869, -0.037278685741538704, -0.00035512719746984587, -0.004261860483588697, -0.03141609503822086, 0.0620678784435403, -0.009738513813373602, 0.005800637205177292, -0.0533034833974602, 0.06554196586907371, -0.001971893165569757, 0.016302906443278902, 0.017476759162913164, -0.03220713807171884, 0.017790850856005132, 0.02795750254611946, -0.01754737796477519, 0.024452741590514228, -0.024894226027372787, -0.04618562821991333, 0.03206087949305149, 0.012724630691960998, -0.01753171548447634, -0.00021098750261144505, 0.007559245718232871, -0.04562027873142004, -0.08442771354173627, -0.01691198845823864, -0.00614574588085051, -0.011130151018424113, -0.02086913838460313, -0.009000326669535975, 0.023301299719063476, 0.0078218046988677, -0.044035185416215886, 0.06906263733250026, 0.001088578633959571, 0.055176610169245265, -0.02618028548428544, -0.05686236904795968, -0.05478174714377087, -0.039804438555672145, 0.02141533467243292, 0.025112217461007252, 0.023526014023792965, -0.08116858997634056, -0.013686074741484826, -0.031336744034419266, 0.0055088180217758055, 0.05768217665470932, 0.010701472446698243, -0.03858172493699239, -0.03703135329097012, 0.009243195587310815, -0.05405746563082733, -0.06217424418694014, -0.056865927012535324, 0.0005231045616765624, -0.003923972744455457, -0.046512578350880435, -0.045181478058288954, 0.04587627370471296, -0.05897597501052501, -0.016430936716237375, 0.02238012182698821, -0.022610077452200728, 0.051506608481031425, 0.006009151154314301, -0.023933612192026565, -0.000829890662128495, 0.032360538918321524, 0.005082411591064931, 0.04801548583321586, -0.002532020829733989, 0.01579856486712201, 0.02207812687414097, 0.02766329904651879, 0.021503467018564218, 0.020238103540755406, -0.03973175714816255, -0.019974232931245724, -0.048473346298226354, 0.02900063250254953, -0.028124843576420585, -0.04178801947873878, -0.0497582807086074, -0.02644942856034934, -0.027647574062985902, 0.012544933657208941, 0.059006556641522594, 0.05191906854087496, 0.08416814313218662, 0.014014591354211363, 0.035349391342181805, 0.05693634449673289, 0.00715843237130918, -0.07773667116065175, 0.015099555721223826, 0.0039042305675590716, 0.0321803459682881, -0.01538697132422194, -0.04208431419271894, -0.0038403875139465336, -0.012466352403059324, -0.05138332101943092, 0.03771272625574624, 0.025622625674491105, -0.029544136774266736, -0.07590821712801746, -0.10004409681866132, -0.009913271621429229, -0.032682415902563364, -0.06432752180388039, -0.07762628150076094, -0.016508508129042723, -0.020143928692720504, -0.007912656592669619, -0.0002803139902144298, -0.0371748427897449, -0.050304038696002196, -0.0010214315983648665, -0.06291082395986237, -0.01080752623952643, -0.01989849818445794, -0.03909862927645305, -0.02792948543893687, 0.03499575989055258, 0.012045142688589625, 0.009734258220002151, 0.0017433957695964473, -0.016756648492113328, -0.013320517625982967, 0.04817451724674407, 0.036225587995444244, 0.011186708821377362, 0.04144137798920602, -0.002241670714496785, -0.008313167026892528, -0.027335337650725735, 0.03425579779068546, -3.2662698332252546e-05, -0.028841895183278635, -0.09960687261209375, 0.023083839375623597, -0.027131886656976297, -0.048428186917129336, -0.0167043471877383, 0.0010118986205127623, 0.03182099962667789, -0.024158602959757143, -0.04874688866898149, 0.02292433487531479, -0.06364936722578861, -0.00037200370690322767, -0.049311790314968025, 0.039055930789209936, -0.021518397527244763, 0.01340016780484173, 0.075784803820745, -0.06267579332901978, -0.05674051536819482, -0.02190409737542138, -0.014237972007715786, -0.0495745306191939, -0.04489161371244525, 0.008670935499177985, -0.09199064064677677, -0.06128737868803794, -0.0026486910707657586, -0.011044791774583788, -0.006511667561539399, -0.043579987390916494, 0.026606928672641, 0.02870984525418869, 0.012094589599798719, -0.023248539722100444, -0.013489086883997322, -0.014899400939505624, -0.020242081099743223, 0.0023494394325726422, -0.020338858859601072, 0.020552697505882882, -0.019364128559255137, 0.01958049818153243, -0.026042534856408468, 0.05432414170451042, -0.0041507587870345366, -0.00796442977733488, -0.06473141159582661, 0.028738749815064846, -0.029355905955860205, -0.026714510387787275, 0.008721573703883642, -0.0007125226870037637, 0.005822659616590094, 0.04133446180396681, -0.029339188509644884, -0.012636435043483107, -0.04012310464417138, 0.03336310236440225, 0.022276815423243723, 0.04231150323282449, -0.042605272604423775, 0.016045583449657785, -0.058701583767224653, -0.03725326306369944, -0.05707715847245477, -0.03512720019969788, 0.0492214525250015, 0.006844774471500089, 0.013558226386555424, 0.04575054748591544, 0.01658985890744331, 0.002038154956481248, -0.034797575572640176, -0.028903487884934173, -0.0006273961299731142, -0.054166562917121616, 0.04553837117855963, -0.04038672513060154, -0.0995649270803135, 0.0018612799035284074, -0.0022317623658152192, 0.014256726010076864, 0.06665672374965213, -0.0031835427117545513, -0.014448801248311176, 0.02003185154128277, -0.030744369638471186, -0.03540926650644004, 0.045195872579582574, -0.02023114307300359, -0.058002144782343196, 0.0038162036177723365, 0.036607081493107985, 0.015913957502545956, -0.010319028345516026, -0.04555101923637983, 0.025541689781156757, 0.05856577003629079, 0.07921421653087027, -0.03781283749172977, 0.009708856559779945, 0.02898593406080854, -0.03392598286403639, -0.031049685423961616, 0.012528282286479682, -0.016959273998643668, 0.012801586673027797, -0.028421636941336224, -0.002843095638071268, 0.04348141417841923, -0.04563131784818931, 0.06876603648137873, 0.03765945452416028, 0.03112677320021507, -0.029956924470256215, -0.08219171382555475, 0.010500423181725482, -0.01938486259560275, -0.008070172791973534, -0.0045191370977384635, 0.04593029089818234, -0.01991556829746464, 0.028410366001597975, 0.01254639477141156, -0.008090613729858642, 0.07480801070905103, -0.03242467266104549, -0.05279673745334355, 0.034874226639418054, 0.0009377650223979549, 0.013101349501596589, 0.10349431874805394, -0.040374259770902116, 0.0541936989055984, -0.0053440763950719445, -0.02199817014056156, -0.02848186401986573, 0.016000604664805927, 0.019338976163479522, 0.029861808840611452, 0.007255632570010237, -0.020094907125159434, -0.026452960064594966, -0.07834321272692132, 0.028180777110492744, -0.04664696842150845, 0.0031678804224772915, 0.021060305144968552, -0.003142549113314223, 0.031993820813337966, -0.03457209406296951, -0.042344704481006246, 0.06218139361104118, 0.07810720383371525, 0.02579174288222975, 0.044025595746421335, -0.07714145667263755, -0.01745886365841121, -4.823664568110033e-05, -0.024683318366039878, -0.00823747025500494, -0.019118839216095068, 0.04306411636116743, 0.03290549758949395, -0.04561417775339571, -0.018090776270403154, 0.039861402534577144, -0.019461441386777523, -0.03335063252336376, -0.006092761447836401, -0.019123094255541123, -0.06452403793357724, 0.016088360068280825, 0.021069598953552655, 0.03612297244140766, 0.005220659018036673, 0.009763341603866023, -0.029632345426756895, 0.013720459105788797, -0.082321286433867, 0.015406570968706892, 0.048175018923873, -0.008426228484461503, -0.019377139214807722, 0.04952745367173409, -0.004297715739828956, 0.011516902851871022, -0.05214080953434714, 0.03330913977592635, 0.004799524967651509, -0.026740228685905067, -0.003424689306459577, 0.03210902258353056, 0.039139346256780644, -0.024103468639312526, -0.008360770302953438, -0.025085056131137044, 0.01810502709605798, -0.051888543162628045, 0.0008499204051801592, -0.04271583255407799, -0.021211947100018853, -0.026419711124274336, 0.05411095442539013, 0.04066409589025074, -0.01879818822942031, -0.06819951043769817, -0.015728235896704645, 0.059818235577020665, 0.0042851696630288845, -0.05484621353517645, 0.0057750047058197, -0.0014210204678052748, 0.0033217536396862473, -0.015909641527429626, 0.012694607163060883, -0.009381122409320233, -0.0022459174006778655, -0.016779419914936058, -0.01495839244328648, -0.049202726764744326, -0.02211361747245324, -0.026474287004572133, 0.051199898874452344, 0.03337472631636301, -0.013785240888758968, 0.02570791350474794, 0.025861820212364443, 0.024806929038930687, 0.02903792092023756, 0.007129266951865988, 0.03591231075023277, 0.049864808135507116, 0.06428623702495288, -0.06823498974129048, 0.027142572752503584, 0.03883767609626394, 0.04168146542520155, -0.015492473900659479, 0.05914949539295439, -0.05033320643439483, 0.0167141045639522, 0.03193281827170705, 0.03407625154751542, -0.007708656882242943, 0.02912445992854861, -0.013262530829528963, -0.00040298987496946567, 0.023604622103333986, -0.0019186381827348952, 0.025956995986690583, 0.02954679718281641, 0.01947008461216429, -0.0003054726497994874, 0.05777622601668612, 0.013159418496646359, -0.005079034461760295, 0.06823560934111127, 0.030084686305541907, -0.004881828112938965, 0.0219197707424959, 0.012049139488097708, 0.020590655464199446, 0.037742231819780404, 0.03863984046853399, -0.01786310498355276, -0.021148093397936954, 0.043379077918783183, 0.004161130027050374, -0.0987194479552001, -0.010386513753456878, 0.005046272187232032, 0.018467225259343318, -0.00248361196270335, -0.027240150367349697, -0.0025521458450716264, 0.040184070165986935, 0.08496158498502486, -0.0015259651338459458, -0.06205989842767369, 0.05789741416994475, -0.034147972465985825, -0.02536974198392217, 0.08276331985419483, -0.0189539147293505, 0.005190955589425111, -0.03835985165863726, 0.04452958748540091, 0.04101959733096588, 0.0031254772685283933, -0.0014370488016583688, -0.020498801008661215], [-0.009656367637395248, -0.07844887901431985, -0.021365140228523816, -0.061690335829393476, 0.017676250427637895, 0.017270708278779655, 0.04593141615895634, 0.036888989536946734, -0.04507650223673238, 0.030044256542754548, 0.05624527649071698, -0.037115593504749717, -0.011151169622823111, -0.011312590497104492, -0.03682395239394774, -0.013189589509415279, -0.04267691811898269, -0.08290172165958368, -0.0220652292568299, -0.04590324171235566, -0.052451005210479996, 0.006203101151726631, -0.037985604571009385, 0.04374925791532291, -0.052009696936416196, 0.01734587730537294, 0.08106734747254472, -0.011111790048926574, -0.050299839841561826, -0.005189295548841721, -0.012217126167858541, 0.022075695867037122, -0.013514532766185586, 0.007276500262826147, -0.01939135021106153, 0.02322048747344717, 0.022493766005879483, 0.025127446138933328, 0.030000573395842587, 0.039036024525836835, 0.020107144763703046, 0.0029432734064690435, -0.011577530583568902, 0.06143878946423273, -0.0578901247091312, 0.011954824882373587, -0.0035835030690388792, 0.049199752260586725, 0.02486592968337572, 0.007825983535528712, 0.010020993741936329, 0.05031032727372817, 0.01732511567026855, -0.011484929293216485, 0.04702183386785434, -0.05431781652438645, -0.04176339988886163, 0.024208032629781107, 0.047612524736690205, -0.06719006091030283, -0.06998075491806732, -0.02962518796661923, -0.039463572117469835, -0.03187230090054143, 0.07480948206704208, -0.0038274934534491094, 0.03327174532420991, 0.05229992151469956, 0.02077053162245074, 0.07775782391621808, -0.036802341659284844, -0.02542777428348024, -0.03574691509691509, -0.017294149803872505, 0.055401626795034215, -0.005710226559545646, -0.011475827668143779, 0.0337761687663731, -0.0324413016279863, 0.05657383363350159, -0.060161544464011674, -0.02480884830207627, -0.008317489000281642, -0.02179119004901747, 0.02285711214898676, -0.014336488670377049, -0.02071920397357322, -0.009114672304858623, 0.0070642998896105315, 0.015227901222181607, -0.02013942292228437, -0.0032714993892509646, -0.005274928363985262, -0.07507561258966174, -0.030792550832328076, 0.014289406318725682, -0.046147394416625326, -0.030327961778638706, -0.0793471756638637, -0.09321610031260791, -0.024055350453063805, -0.01196088816299266, -0.09449312896013659, -0.006555133391174586, -1.960417441308032e-05, -0.002738854615232021, -0.03384353453729105, -0.006169757562858052, -0.024238814532745012, 0.04804178669775449, 0.007820024498973394, 0.00782039629851804, 0.008895190512011287, -0.016858347797538264, -0.0058432013388279936, 0.05054274592507688, 0.01831097677126533, 0.034169585185118326, 0.020686611207111096, 0.005816121842294572, -0.00945621793771796, -0.08361292869411976, -0.07989321220543316, -0.0042990632862867206, -0.037184540993150314, -0.08151992577303244, -0.05465838428470713, -0.0009462718465088787, -0.05235652643121892, -0.09221843093335239, -0.07873440241387072, -0.06805759729601242, -0.07914686968764671, -0.07509677561842176, -0.009896934505043028, 0.012852187692639745, 0.05856267580121013, 0.014335048584720646, 0.00491740334126126, 0.010170826651515516, 0.019565593029116073, 0.013358536722001676, 0.033916926043028026, -0.019662845598628, 0.0068935107600600135, 0.01420067075162172, 0.0070015636521770465, -0.0860538744319107, -0.053152009219076236, -0.03011052398024816, -0.0016305497383106455, -0.057097801523693203, -0.0026669875841362368, 0.013237625688774034, 0.050769968863467616, 0.06849807105184282, 0.015668459607066004, 0.05327175636331942, -0.03073403966130059, 0.039478280956185, 0.07411153547439522, -0.06554211261683925, -0.012026403924257701, 0.0749417768983485, 0.03613634924061697, -0.00638352876754356, 0.026970433345292075, 0.022921126457994188, 0.005830355990794817, -0.04770749475558997, 0.06022684828119781, -0.041995371299552234, -0.015555935286089935, -0.03375910601778618, 0.022732844042947602, -0.04726340669476381, -0.07775366386387395, -0.0013019123262118602, -0.02289930412008285, 0.050008795570004066, 0.07161211702755202, 0.044935661265236536, 0.1231088368075269, 0.15001067200690438, 0.1432627313977883, 0.15104470477558907, 0.06988766614023724, 0.07835302782313153, 0.07277307924719205, 0.05959277181366811, 0.06606456717627004, 0.03155477664314944, 0.09176454425720029, 0.007206111655568253, -0.0509428733381314, -0.007658686995289676, 0.021364336136950903, 0.01340663209224064, 0.0038678132981109564, 0.07309322860769821, -0.01688414167108598, -0.044590981335065935, 0.005918626553295505, -0.03402929295139746, -0.047652718980834535, -0.036928949164808524, -0.02343203179408199, 0.03685618392354574, 0.08935073957196475, 0.10703418778650453, 0.08301996833162495, 0.1680770777412055, 0.1218298769369258, 0.05704490433001337, 0.12434888154735668, 0.05871607879949908, 0.07783390110580968, 0.0969890347472339, 0.07993457478896408, 0.2042646689963943, 0.11405426740705332, 0.06491155336674255, 0.0023494233637416, 0.0025724476994174825, -0.007707505842270861, 0.05640608755470475, -0.016619638698711005, 0.0019611120957658264, -0.03545773137379412, 0.003802553694480337, 0.006761133486151199, -0.07948664088924193, -0.07937696284703746, -0.040845676337494904, 0.014850846529840908, -0.03973591153608508, 0.034008437930754795, 0.06707149747174251, 0.05989781546337155, 0.0027530517476178533, 0.03723963658135968, 0.06448343680047039, 0.028196655259353335, 0.02046739483271393, 0.11208687363675322, 0.11277314424452543, 0.13238893438549512, 0.1014952267419892, 0.12427091423134755, 0.048917565239132224, 0.021635011539253596, 0.0028340799775049496, 0.035170186483216535, 0.01991083550777653, 0.01634636138057949, -0.08093123044338783, -0.09310012497973892, -0.03200002670900992, -0.016903603487049102, 0.00284627594315027, -0.02693032381997617, 0.03225811442429872, 0.004416733031175226, 0.028303327443721583, 0.10325200475269465, -0.030596715837597155, -0.09830567676730315, -0.04791385177726246, -0.11197143430598033, -0.023850859697329387, -0.0446898986970682, 0.059791040039966145, 0.08210668403898609, 0.11680308120058645, 0.2059115900239862, 0.0974019683157464, 0.13694252392282477, 0.026289260691090048, -0.0025469605922815892, -0.030067297717542307, 0.015643454477786218, 0.03426505883403887, -0.019288419706198663, 0.021102422681136313, -0.04007274828398789, -0.02578619777975024, -0.03839369498256355, -0.007288298612539565, 0.04438636502598887, 0.06733699702394563, 0.12950756986186912, 0.03366107194859072, 0.13058918890787105, 0.09137499583638183, 0.021132377011704798, -0.030272972845721727, -0.10069973000401614, -0.11820237475942083, -0.11813035773756107, 0.022622971032131355, 0.06063019815566609, 0.11775343317477416, 0.07507396511439395, 0.14498727847870188, 0.09596408694377084, 0.06761468376387961, -0.05157366708073897, -0.08325963523084175, 0.06885289786876174, -0.05635344003316481, 0.006747432618740731, -0.01769355712914568, 0.06366187436781841, -0.015203683815801219, -0.04281536656875545, 0.008099802071184012, 0.13003504994843512, 0.11489121575529888, 0.114062682038976, 0.18805323342634794, 0.2350763980439836, 0.20925573069664424, 0.11697929364310111, 0.03713875066655275, -0.0740549195336523, -0.1438813387386643, -0.12218830746706442, -0.11654363629181268, -0.022382818172669794, 0.08445112481003138, 0.07421595663458135, 0.09709103284986595, 0.0863872508622402, 0.041772720711324395, -0.006545503953650993, 0.039727415965237024, 0.04097390639806689, 0.07386595625636763, 0.040783370443885636, 0.009763058882708868, 0.019201440092182803, -0.06708472320787173, 0.04469225493440735, 0.016163993755377193, 0.10484187036687578, 0.11360526518417108, 0.2069621472584827, 0.24376488352615516, 0.22058487302277777, 0.30302053437484894, 0.18346866619420163, 0.021715547374277777, -0.059284891188966196, -0.09116504926631291, -0.08255525431828738, -0.030593043407589667, 0.016591488691805153, -0.028599062225941427, 0.06419770891716672, 0.07251509668619076, 0.03758718449814616, -0.012593423468956597, -0.03070882439940864, 0.0036770703724676875, 0.033564692534453565, 0.009210411592143662, 0.05080225267405518, 0.014612029280885027, 0.015118312975366439, -0.00859212901496665, 0.06187862228260271, 0.0699410626312154, 0.10543170867108075, 0.12292181250043979, 0.1390063896627369, 0.2350829086973433, 0.26643794566864276, 0.2382558356297573, 0.15860992234828064, 0.011257879322995216, -0.07557656636948129, -0.10750350685144539, -0.15846446937692812, -0.09346257370097842, -0.10846713609418253, -0.029998970387843563, 0.059782281734445934, 0.0358967281573364, 0.027597149171990625, -0.010725266157611876, -0.023937465872762815, 0.017186594097859127, -0.0067733252293548695, 0.05067600394202469, -0.023749062738775056, -0.003972334272897151, 0.006467001327540681, -0.012935913229128041, 0.008609677899252474, 0.020065733442984606, 0.02658103916061063, 0.011247894051176118, 0.06517394641431, 0.14093856709181926, 0.13748675510885447, 0.19369508268998997, 0.09630700773044272, 0.005606073990818801, -0.10745000916095514, -0.11206404144035258, -0.13732531826905067, -0.10100631951566898, -0.08145094722014787, 0.008552157034538684, 0.0006705571461314018, 0.01741671403282363, 0.002366898620639013, -0.023575999721694278, -0.014538735913788856, 0.05537322638222039, 0.03248270015079237, -0.012645384309110873, 0.018241770306862144, 0.017544669775971886, -0.005405952342706132, 0.07187769387177217, -0.014336821979031685, -0.07590968797432103, 0.0250195036939266, -0.03437687028411255, 0.02274041971308941, -0.02428225422229529, 0.054804168749001216, -0.008775125568930555, -0.006919471757185024, -0.14549724890081067, -0.17221389930660697, -0.19464663433532176, -0.09362182606430619, -0.10013022056333662, 0.0008719227409522803, -0.010159430968121507, -0.011629889798472919, 0.055452543685499164, -0.01065784291271712, -0.03279058199418808, 0.00721045774017575, 0.01614362505354595, 0.060699082184500146, -0.00953518410458345, 0.0058056744024275785, -0.021833523509530987, 0.019634742314533063, -0.06928404177036658, -0.012193334065900455, -0.04919376579456075, -0.08445131760673431, -0.08621436489301254, -0.07567322141124283, -0.04041563428103287, 0.018436942605100606, 0.025689947341720216, -0.13581629197750106, -0.15107627309985736, -0.12517783772680197, -0.1597759869586427, -0.0715266291924826, -0.008581230517384443, -0.02541272860287184, 0.0011472431876440085, 0.007527051350275, -0.019145677537309804, 0.05846849102601972, -0.002616131817288635, -0.018243947698077335, -0.03126467241891964, -0.003943288601307221, 0.04640919527035651, 0.0050543146309027, -0.06862503558175102, -0.010831464223180326, -0.006232120536801899, -0.025237438817965346, -0.04778518059393638, 0.00805889869824095, -0.0597382018338268, -0.09531353723838569, -0.11533144728635257, -0.08186553337134468, -0.12561807444140854, -0.13582547059967717, -0.20268099689006544, -0.0360905168540554, -0.03769991630025091, -0.10640632365018832, -0.009415828385771983, 0.015396824560281882, -0.00631363421499921, -0.003004503530424539, -0.050240869257487664, -0.05443146636976681, -0.012386233611972072, -0.03753576612523508, 0.036483515431309683, -0.024151370988749404, 0.010065148689099988, -0.0076063367757870405, 0.03076079566507161, -0.025818340151541313, 0.03252846739641324, 0.10765640516929208, 0.026604611273294387, 0.0018243305060817038, -0.0025704812477286157, -0.08382904669311439, -0.021479373228335815, -0.15515271950062381, -0.10567005629845959, -0.13131552825439016, -0.14827595482372982, -0.04326484487164867, -0.0684037004774066, -0.008212336556490512, -0.005282774373191426, 0.0487170863945429, 0.0032090132548039875, -0.0023934410042367833, 0.038750501730266236, -0.017988401954407367, -0.029550871511653195, 0.009303212733816795, -0.023868543033979565, -0.051735692672661676, 0.026883584803822205, 0.012170945114953823, 0.02717637377040342, 0.004983296145492198, 0.0027765835229334903, 0.053693447620074365, 0.03802751771541272, 0.1410377833799311, 0.05413449174766624, -0.0009819342578158672, -0.05930553829637146, -0.13640149610587035, -0.17522648067603147, -0.09168550341957159, -0.0826394774858269, 0.024025829756975363, -0.056178996738998746, 0.03595953559052335, -0.024025450361651886, -0.005458619406926515, -0.036434616594219385, -0.0029635679509902517, -0.017583994267988193, 0.00906946671189443, -0.05869703774299613, -0.026280238837415173, -0.012427735511693386, -0.053997484697569056, 0.018541690651481285, -0.012754913276749201, 0.005975452856330122, -0.06875076054419042, -0.009341832971215644, 0.07896931940977776, 0.07859324127971196, 0.057689243941607175, 0.08740959888769313, 0.08780465147047083, -0.04566088001425376, -0.07154729084861086, -0.08193144026925345, -0.10755571493548022, -0.07372106883635084, 0.01565520352305046, -0.020803770571117722, 0.0075949656883559525, 0.041098535559011065, 0.04354580983691092, -0.049826020016456196, -0.04751731470281685, -0.05333324796300802, -0.02026873957545721, -0.04842246433342229, 0.09280152433394648, 0.040601723963143134, -0.08251894892779552, 0.01675789283142596, -0.006697331021422043, -0.013641368254734944, 0.008491572860661534, -0.02436473867685331, 0.06947819050750056, 0.07691508127858011, 0.1174864324525356, 0.09817830445850595, 0.08139311879652186, 0.054263378080220255, 0.014151728903809382, -0.015936236261216926, -0.007681884705143398, 0.07214908717296253, 0.05135066982915682, 0.08011624936649968, 0.048759493403554496, 0.021320158589472782, -0.06265139378068071, -0.054830553731772286, -0.04706239374251934, -0.11721389277032632, -0.016599834359674045, -0.039132793517280114, -0.009147464960665706, -0.006024832778514638, 0.04369659218461112, -0.06792279603500129, -0.03920069431382553, -0.02686045550978662, 0.024877912577241344, 