{"sizes": [784, 50, 40, 30, 30, 30, 30, 20, 20, 20, 10], "weights": [[[-0.002150024257617109, 0.003336923061577698, 0.03310915195159066, 0.005968890164952736, -0.029316170392026275, -0.051084825313643493, -0.025960262327053556, -0.021414234224605394, 0.010372234315175876, -0.020365956108111993, -0.013530864208086146, -0.01825036930940087, 0.08290350279745853, -0.031183527091657594, 0.00027305167412804295, -0.014658013904995909, 0.04213646566749303, 0.02003239132974864, 0.008598966950311562, 0.011848401258769348, 0.044834772720294014, 0.09017445491313834, 0.006555232661796423, -0.04931602404066499, 0.015636394570539888, 0.04199795141298444, -0.032510904537155855, -0.00670206047573385, 0.017491935744609517, -0.006205488807611339, -0.0029288447102416497, 0.04010284087218193, -0.04086112108026811, 0.0012037775230479373, -0.013353790812080057, -0.0012427002948057263, -0.02893716994502911, -0.06996824863601368, 0.05785451565983628, -0.00933109230105639, -0.02300185307541779, -0.02696881872156005, 0.003563035218520118, -0.013724502957335431, 0.03612308690448164, -0.02404014901250936, 0.026560469706676287, 0.020633696646346626, 0.00433045687193368, -0.0554090710050058, 0.012095192251691523, 0.037325191343133814, -0.03731591203720981, 0.034877324401770174, -0.032034860999026187, 0.016685091456131798, -0.02470949957042772, 0.04294926583302427, -0.00042129882138428813, -0.009534733777755315, 0.06290477673985544, 0.01903987545618076, 0.03968069255344386, 0.018448410201650715, -0.018895477787960073, -0.003566635453224998, 0.022858534514934383, 0.020530483854286852, 0.055188602775261615, 0.06745717886123746, -0.0007089899736602612, -0.04385721087429401, -0.003577637850068786, 0.06044604744377552, -0.033310029505439036, 0.0024667676614311034, 0.0074073649587809605, 0.010101490803296942, -0.018974668767599494, 0.05251356891948686, 0.03384496482474871, -0.056987326822726024, -0.002196867543663786, 0.01286450298148375, 0.025158814019879617, -0.024543325275187242, -0.040996553455607126, -0.015247918126606617, -0.03663308066563717, 0.04742537705769164, 0.029226065050513138, -0.016749458530041745, -0.00045459276031777524, 0.060055567191266535, 0.010382677993478676, -0.0049282213548392665, -0.03522921935077198, 0.009597492507504817, 0.05996690786167487, 0.02820140916268879, -0.043189904232185584, -0.04197785460963666, 0.018792513975434955, 0.008928436936737828, 0.03400801847273946, -0.0253652247402805, -0.0028077036903668075, -0.002117951183483417, 0.009532557909205227, 0.011213962190018353, -0.07899983003160947, -0.01593844732602237, 0.028010962547258367, -0.01548125619818235, -0.013177470696050035, 0.008840048546863866, -0.063927203039455, -0.0054555188502165095, 0.033659717817159894, 0.002463729869197943, 0.018371987639547768, -0.007936511842503498, 0.05304192363921619, -0.027499501056687838, -0.04839181084076519, -0.010090198213088509, -0.03407504392041345, 0.042841077178821935, -0.020182772722411476, -0.011078013554358643, -0.02138545413015531, 0.02507948346138303, -0.03290826656010797, -0.06018432409526911, -0.04589089659969813, 0.007798714050936668, -0.007058763592040158, 0.0316869766560462, 0.004756242597755789, 0.04762584433155084, 0.012079943576010983, -0.037647455364125025, 0.03115765465981338, 0.002696171223125859, 0.05674680697918167, -0.08907846360019438, -0.08679405151641127, 0.0005074511863209588, -0.0016976889810207502, -0.0026201012745608473, -0.012155413147134867, 0.020749191336706316, -0.002684737461151403, 0.0060744704965655216, -0.027391528814426674, -0.01032159044585789, 0.03538751162238614, 0.03482956759973904, 0.08073542968594498, -0.05913543950755021, 0.007173487073811846, -0.01298154486071166, -0.019212564156547263, -0.026876577601967027, 0.03168660612689556, 0.02316361966614801, 0.02557190973531112, 0.022516524613738927, -0.06840960544835346, -0.037041583272797246, -0.015510134967600881, 0.021069466762976566, 0.0789645221616449, -0.02649414442002597, 0.02037329812786534, -0.027384038614709665, 0.046278908461888424, 0.012590140290838004, -0.05487503273301293, 0.05367140767016604, -0.04965359487593401, -0.015313135870487757, 0.0012401814893825529, -0.07292810552799515, -0.021512807348837617, 0.04753068804776938, 0.0346467634037016, -0.009737418801151193, 0.023994084469115242, 0.036129004308295576, 0.02038216460138239, -0.0488730215449343, 0.009667691814683525, 0.0003048484323826484, 0.011868058734242364, -0.04569985320488252, -0.013169596805946383, 0.05157125474043277, 0.030852948871809022, -0.04442708998060255, -0.054542201286631266, 0.005748738171694928, 0.006324155110760102, 0.026422562699889972, 0.01857469100983392, 0.03637482421988777, 0.024946000090253016, -0.04274372782288313, -0.03698391523700752, -0.03073359337883328, -0.0375782033041684, -0.004348323689215649, -0.008533744993283757, -0.015533199677309964, 0.02582146045474289, 0.033157386100029856, -0.016816404414166493, 0.011337583263280437, 0.04539043533227605, 0.056742027283690426, -0.013662273461352778, 0.011425860063833422, -0.010576153083930548, -0.037857861400873605, -0.037739825517147385, -0.027487820682976873, -0.0759137268023474, -0.0036822567965896927, -0.014969441170325202, 0.009729202480092437, -0.014026739988225463, -0.014995764337480191, 6.991666859673693e-05, 0.00980286258007113, 0.0318646253729797, 0.0009925934569962739, -0.011402231468298985, -0.015792946958127423, -0.005793983528692358, 0.009156505042521681, 0.04201004519984932, -0.08470667993620624, 0.017906127950255455, 0.0008119548944096381, 0.011379991693395304, 0.06655177862332622, -0.05994748266559542, 0.009953899531962499, 0.024845450902092565, 0.031057094677384562, 0.01735268286490754, 0.030318982673885286, -0.015599501384373432, -0.039084071840655266, 0.0257048884749046, -0.002412361613833922, 0.02085496585383502, -0.010226906093731404, -0.048384959746652564, 0.048977976817929786, 0.017553273409632298, -0.03243914678263284, -0.038672409039993, 0.018301504498904633, 0.027197555826597677, 0.012108751944226502, 0.014902801264544525, 0.01599013296247746, 0.03302740450903633, -0.06225277801341248, 0.059445827585576656, 0.0022930152042596854, 0.012896346133588678, 0.07903945978498868, -0.005439339865288823, 0.04154335778827969, -0.04052777289172353, -0.018832121941013306, 0.00771400342401074, -0.028229072772923556, 0.031677510941403114, -0.03256064258182981, -0.01186958584561291, 0.03178198083637907, 0.0032382239511264065, 0.0021582403384418033, -0.05733872220400113, 0.024463954208839348, -0.025517380980164626, -0.007352578172340257, 0.03671076247286811, 0.023829310148696898, -0.043623784085939636, -8.671119601493099e-07, -0.058567510308786805, 0.03536937775328248, 0.02045759847042604, -0.049616605598779825, 0.031382114955275056, 0.01420968122730985, -0.009461494980765869, -0.010919326071996745, -0.05578516757916761, 0.03030574982103882, 0.02570570170708641, 0.020983121298182247, -0.03470859886032389, -0.044602747427231616, 0.007537383814051216, -0.02769102027166548, -0.05866105522832443, 0.052979110672415654, 0.017297498533773863, -0.02007829613009998, -0.04694149779803271, 0.02574873522405035, 0.05786327656744746, 0.005061408815839361, 0.005769240429108545, -0.009445913328966337, -0.01826441824371974, -0.08310799114773838, -0.05790065436126276, -0.005031548671287931, -0.04558327176137162, 0.06187082398482624, -0.02203520667616968, 0.010127366852792247, 0.029093121609404027, -0.03358795024016851, 0.05738269027315605, -0.033097461231866195, -0.012815138747975144, 0.03614664962512146, 0.00973088439947706, -0.016864264780392355, -0.023729865603473572, 0.030780325115679776, 0.03430113316534794, -0.03812171243960994, 0.02860597204039038, 0.015580413836354697, -0.052452847100822673, -0.0459690078702237, 0.027543430327872768, -0.007903887910428939, -0.020517949422852316, -0.0005078234504241226, -0.03747161179524354, -0.04876545459085396, -0.04842129546760939, 0.03331368621158428, 0.021835666079220516, -0.0059121429543285845, 0.08281536960154554, -0.005282694691390154, 0.02635248119224624, -0.017503490762817327, -0.033894361765012496, 0.02811866036039658, 0.021593013154173415, -0.018615394993735254, -0.009946547850664907, -0.023728877713094038, 0.029544585028446042, -0.015407690898555105, -0.028572964535576003, 0.013976069310750175, -0.013723394884083613, 0.040393492030935015, 0.012863157007733671, -0.011193112474344128, 0.004989980846942328, -0.004357838330274707, 0.010591860818253394, -0.030192512425217918, 0.015044630793250456, 0.02794819051473276, -0.05041139080630323, -0.01425038035053004, 0.004401519480007299, 0.05185287860247353, -0.04268032201097609, 0.06974971203348758, 0.008855331397353833, 0.06010875348259228, -0.021915275268864436, 0.017761451722724003, 0.03973552935222047, -0.04038248604999454, -0.016464186582564072, -0.02804079508212002, -0.007519741882278891, 0.03220471625569248, -0.02435469988481669, -0.03297919283018443, -0.027579193926959778, 0.056523735640067366, -0.01300705864472513, 0.055340872665679226, -0.01388603238629189, -0.07251961817792564, -0.01921788047720601, 0.011162405844707452, -0.023136201737103006, -0.019014229614990368, -0.0019732452011157237, -0.019462913491179873, -0.0023505686668772573, -0.002883540707326402, 0.020379377600024017, 0.009599235723975315, 0.02359738737364231, -0.016478550132910188, -0.015527468448639588, -0.05787985851453599, 0.04901313121724018, 0.012219075280449777, 0.010242440885022979, -0.019031718858284738, 0.007321119572364979, 0.014584183492670513, -0.020646644533053173, 0.02262928766992846, 0.0001212195617092049, -0.015332410064718234, -0.025113912448984973, 0.07946995208352396, -0.012236303855604296, 0.04624770395441746, -0.03936158494301674, 0.04825704409190264, -0.02666237707774287, -0.047677631922843335, 0.025663544465398504, 0.05722770222494297, 0.023899408083307542, -0.02090575817082846, -0.0344283630976276, -0.024833840600562474, 0.015026103553604888, 0.057139094110179936, 0.03606445737865491, 0.005570984479946917, 0.05937786545780769, 0.08211358571796919, -0.014850824810154688, 0.002136004656745946, -0.0746580751501131, -0.027155685909590006, 0.002401449263687818, 0.0016114159936719756, -0.05889336656394737, -0.020676010523497275, 0.00115363279365644, -0.04113927498132152, -0.013711428184122533, 0.08824646649579719, 0.0011370917311508701, 0.03989952920096884, 0.01392653674846614, -0.05219067137315836, -0.023768105433769372, -0.00901752125683598, -0.012282015260355777, -0.043863947498241046, 0.03948059595271157, 0.003675641544342389, -0.021515255316644895, 0.038604853839271626, 0.01650640416135452, -0.01941368272810906, -0.01841357668745335, -0.021380069331971643, -0.019041475673710055, 0.0297364773320546, 0.01901959214663996, -0.008729550855145483, -0.019866089694497015, 0.0036375070830965256, -0.08563330367874548, -0.052343916293197526, 0.05386193184634202, -0.02389483184275621, 0.023579589714281216, 0.037965520390217784, 0.000194362109596573, 0.009273597977665369, -0.013850504337543642, 0.03886338260465974, -0.03159047629874069, -0.060821120568974985, -0.0554566508219638, 0.06186924634494922, -0.02218734915296341, -0.008626768150113541, 0.034192159975848485, -0.010819322827157155, -0.06187534070022438, 0.015604707824723948, -0.01691903719675294, 0.009855800157791503, 0.02466213940753985, 0.011197133985098782, 0.003901255279120737, -0.036583626400991054, -0.04567844938346167, -0.016128792542185442, -0.04226246433604513, -0.03528460432785071, -0.0051789108482737265, 0.004991897716375409, -0.039763368858829834, -0.03641793984030906, -0.017568017130637797, -0.04201830402019274, -0.03280879383632155, 0.0064851093503810716, -0.018403747230762758, -0.011586460881130264, -0.014271980141525989, -0.021334966102870462, -0.011612401755654301, -0.0326895299700003, 0.013206629894095498, 0.09553927816980977, 0.001189124633552854, -0.027709967709773003, 0.022823866590679004, 0.010109805968666521, -0.007138482342763219, -0.026444580212869544, 0.013144445402064577, -0.04385540403148352, 0.011785425305136559, -0.020262782002974322, 0.08287545632392256, 0.002111708301213147, -0.009271741211663173, -0.03428331877073301, 0.0029946864928829097, -0.08394302405383626, 0.01442883603175142, -0.018258824502011127, 0.02942931659665729, 0.05093352527872684, -0.026797043544833976, -0.03246685273425954, 0.014169165161610982, -0.05101374529221252, 0.027793047493057978, -0.029702707889950535, 0.02857922195079457, 0.026104418530564506, 0.014774170030305836, 0.0023659745597959113, -0.009958168569802153, 0.005809627277172325, 0.015860140897905835, -0.05167399663675909, -0.054045229636438014, -0.025894703098203322, 0.00024512512145765715, -0.041091584661030446, 0.008634909067562879, -0.05101188664254937, 0.018091331667596, -0.02063133943718823, 0.07512721364276276, 0.03955724112088975, 0.03509182061901879, -0.03658736717127016, 0.04366122644527024, 0.047357599879181284, -0.0006202420060750051, -0.009051309254962257, -0.03380496512167715, 0.07685794908245237, 0.013711403446080227, -0.002335184232456409, 0.00988557894985412, 0.024269546711196157, -0.0474147689851379, -0.011164903504428985, 0.0067669248584694836, -0.016093391037062112, -0.005095718376978667, -0.0037022267060051735, -0.018921850666834317, 0.06898608774795117, -0.036804988190966816, -0.010351355645876043, -0.044102669269774575, 0.01964972312174177, -0.03095896094234232, 0.026140864399769228, 0.04654311956210474, -0.009048259536621127, -0.020800069381723685, 0.030298374222334504, 0.029225416947966345, 0.02711996175025776, -0.01878910160233565, 0.04323138644350541, 0.014646541201111155, 0.05499852744597326, -0.025058007503344477, -0.030744815492029537, -0.04332366160133557, 0.03461359435517233, -0.034786347133884836, -0.06330326004592916, -0.05812555413731275, -0.02643567576753912, -0.0035860086973773194, -0.03541640666280701, 0.06862118086964127, -0.021136412896298196, -0.01847390022716692, 0.02922051664636444, -0.02952863079233046, 0.0026021922202947314, 0.029443822905152964, 0.00266213415660478, -0.02195229169722507, -0.09536881760575795, -0.018853869600271137, 0.006141895975526009, 0.03988872468262638, -0.054629694518089814, -0.026707920323274594, -0.10742846937900681, -0.08609753144662763, -0.005260993567433207, -0.019776902363102825, 0.0199488574906651, 0.04627714577037423, -0.024901539705758508, 0.016074144159001647, -0.0046855692961227345, -0.0405759505898668, -0.02218901971401722, -0.007635789355836918, -0.05614763293957526, 0.05358075858455996, 0.02633334861690033, -0.008834857114697153, -0.010843554398405956, -0.049852450739010526, 0.02115275512223103, 0.052527977321324755, -0.034313377319994315, 0.011393490318152939, 0.04025601949554708, 0.031385677400923094, 0.04930896683057943, -0.03346164990433895, 0.01133786636512853, 0.019701581351941586, -0.06359065529344504, 0.02836298861944146, -0.0179485136479561, 0.023394436170167753, -0.01153107040931197, 0.01572443647107715, -0.014453936487953617, 0.008832176814894718, -0.05022897028342666, 0.03538286766130166, -0.046199657950051765, -0.030399689962187067, -0.021289287566688374, -0.02136891615940865, 0.00026091889406251083, -0.05820030024536394, -0.024874406888870493, -0.03526867551279387, 0.05748015818639238, 0.00916410498515473, -0.04317436588348603, 0.0033018323953717863, -0.015166336608419513, -0.05843014815219098, 0.05058158580629957, -0.005685394420094138, 0.07730722017292861, -0.015856021620636998, 0.015859978611402953, -0.06748639795476254, 0.01535231695365898, 0.03357028552728244, 0.025315637136607196, -0.01971986553490073, -0.06596563675451082, -0.02053627180889625, 0.030773561333302352, -0.05457285067141052, 0.010552836576897411, -0.028266729691580096, -0.017108743187577637, -0.09033020176522323, -0.061782905343314064, 0.03901270513177822, -0.04716411779086308, -0.00841660961247084, -0.007585228761331423, -0.014124199812756626, 0.024165993460466308, -0.002366055146386981, 0.03379087104602999, -0.05580132876470352, -0.010910649659314016, 0.0023170200465162383, 0.017643446189999978, -0.032504577657129476, -0.06055028478477781, -0.04210026944664213, -0.0610441659076621, -0.003493710197565753, 0.027707025544963407, -0.0034151876968408976, 0.02228356676673793, -0.014053750430261167, -0.024211531220439824, -0.015799726905783282, -0.014368505443298017, -0.022158487475951068, 0.06851530710185715, -0.0778814780187703, 0.0011555841617379016, -0.05462184813833008, 0.018043353854041284, 0.017584921845283326, -0.03085080229379576, -0.03900425025214013, 0.010715139366276256, 0.021828430419966613, -0.0022837765665559835, -0.03083200508890423, 0.03136261457226896, 0.003186594628165709, -0.010186631668866696, -0.02714165395404551, 0.05584830589888214, -0.041197746163086885, -0.04395245080213719, -0.025339770834054885, 0.04802074613228226, -0.02897782836099408, -0.01871192729194482, 0.0153031806697604, 0.007582949078252852, 0.020255963176322944, 0.011420552407061593, -0.01586358229971154, 0.03401515253852249, 0.020073029008455794, 0.08521270503627693, -0.0019215798564191212, 0.057358709601405704, 0.033262801067725896, 0.04046589962077096, 0.00093274668170417, -0.03379933586398385, 0.025321115456342344, 0.006001527405383182, -0.01985341795739556, -0.005616892867750522, -0.030241522958165543, 0.020077694774632462, 0.09286913860935898, -0.018679869411855305, 0.017987966016259873, -0.03330894646685144, 0.05142659619120499, 0.005842361417976285, 0.07265935222919723, 0.005805475080250026, -0.0010474770679320255, 0.000846471515045299, 0.03223154736180423, 0.08620787214585365, -0.0354579517051738, 0.0069229063103455005], [-0.03157583850979034, 0.01555945348862662, 0.07208290595863001, 0.019447987427732325, 0.03870393586127143, -0.000977211402725285, -0.01692505890514044, -0.023185614979451277, 0.07450173776650133, -0.08163055811686298, 0.0807743758756116, 0.040423387829108925, -0.014097356535624156, 0.012901910856368446, 0.02265028698595463, 0.0034557065381859635, 0.03295068001887975, -0.031174858847270923, 0.0010677720740527913, -0.029823249769092067, -0.0003618079088607286, -0.013280512795240762, 0.01742666286148697, 0.04879790024884866, 0.029231275058562763, -0.006612698145651412, 0.010700580497900245, 0.045325341725757404, -0.01098982419800454, 0.04443837143073713, 0.03148016435054044, 0.011227506992614378, 0.003304742404175688, -0.10377192882755895, -0.05454109953003991, 0.01869639780503776, 0.007411358671365776, -0.01639410093601528, 0.028095278859776293, -0.050766235245765956, -0.03228008503836105, 0.02637375120217543, 0.04110959771381281, -0.032256212779698985, 0.04384463474614175, -0.04883813421345698, 0.011244086815439805, -0.026205571573358205, 0.04174046097445686, -0.03865485279421806, -0.04963143109303874, 0.025276160608995034, 0.03155637553523611, 0.07906454220811196, 0.04119802780779582, -0.005411190491117896, 0.04120925054013994, 0.024365098254901272, 0.05669589676838709, 0.017767274002186355, 0.018148994425563315, -0.018019696728525922, -0.001238989221569317, -0.032234279753131395, 0.03334822802805678, -0.028998071351659632, -0.011162442383566177, -0.046529193647913004, -0.02007089137636653, 0.05721828249705035, -0.023602170466257042, -0.003553585606396149, 0.01285033441338021, -0.017118069453520113, -0.04368960207299818, -0.013704725815307075, -0.03134517154187898, -0.0020342619109288067, 0.05742462272871232, 0.024389229234424527, -0.0016349381991386705, -0.009773093473518851, 0.00500166387239396, 0.0036023882365180553, -0.02133302732665949, 0.022223503087437365, -0.02617044810546029, 0.033584211173498864, 0.0019028800527022645, 0.0031555999051507628, 0.027618196855557678, 0.003594371875565487, -0.03216927330088416, 0.030494274046443722, -0.02194351196403104, -0.034089832036705923, 0.018867835258272504, 0.01187152845960258, 0.048784314777851404, -0.029843140649727325, -0.05887890157091284, 0.007174900466508459, 0.02076085855998229, 0.021163458295175373, -0.001742516082172346, -0.011843135142103002, 0.0415570386941264, 0.04775895301579704, 0.019735172378009824, -0.07145256187837783, -0.028088025290192848, 0.08323828942098602, -0.05620924890657921, 0.06896889351447498, 0.07254577075898712, -0.03000628652004113, -0.042477944272666095, -0.056120366058614146, 0.0708492665424956, -0.017103020110184403, -0.032849977009325605, -0.02884544947718946, -0.0888843493244994, -0.05771261925943393, 0.01986843073413338, 0.02198212954589141, -0.008624320888245867, -0.0363361722241195, -0.026259883876035676, -0.0021594693098477315, -0.008854507437212732, 0.015483334576552482, -0.005062013913941271, -0.016454689166119092, 0.05452721808847368, 0.06278209893152571, 0.01546823328623006, 0.055194907532026306, -0.016841484435431577, -0.03120982332590269, 0.048318388853551726, 0.00036489263151185666, 0.005984723938300032, -0.048217052360141455, -0.005638656366275531, 0.013961532694516474, 0.007600026081037851, -0.04409530415966649, -0.0276830021670483, 0.0023153932427900786, -0.007483509963686299, 0.012730198459180976, 0.01919394734237122, -0.006141360314292183, 0.02024248084584464, -0.11796622455501941, -0.008705614576305669, -0.009901688635236479, 0.004700521110064836, 0.024476890136485307, -0.055483670449218384, 0.0006622487418473891, -0.01609479308151878, -0.012576648459083475, 0.015327058568948376, 0.024862345937093244, -0.00781590843277884, 0.035171567975006215, 0.026748053485717006, -0.03265067391128408, -0.004263064686391901, -0.025587118633921532, 0.010891816942212156, -0.04679722251635089, 0.01792079370752009, 0.014163147003472652, -0.023979763747311977, -0.036222137042085906, -0.03069713598155205, 0.0469981115068078, -0.003530147627742758, 0.04544370523650041, 0.07068886889005001, 0.06229004191655489, 0.028492537140699336, 0.005582423285272384, -0.005074660089067933, -0.06907849808421497, -0.06008342744947487, 0.024267898181206136, -0.010695017708410718, -0.031252103854205175, -0.04461620893619998, -0.006871271336599785, -0.014786019561032216, -0.011022258694120102, -0.004783853902981122, -0.0706040214976019, 0.03734375580724779, -0.04297583186630919, -0.004079859312460503, 0.026637614183076162, -0.0021710538095947723, -0.03524242382500786, -0.009144778514013902, -0.049627252448667857, -0.009535486067011243, 0.04564085562939988, -0.013565760125721023, -0.027294491568108332, -0.0015812110905749474, 0.04279911151942881, -0.013284907104767258, -0.01666983003880854, -0.04553366684408473, -0.0027511908111187934, 0.024671871187165777, -0.05346558992313674, -0.030162972582058446, -0.023373186644870238, -0.031775541760553104, 0.0183186244318332, 0.002378346345215047, -0.03761675253166917, -0.038298638666995795, 0.026108807722055236, -0.02625205029605849, 0.04040205880297401, -0.007765555700049364, -0.002242796841803408, 0.010954768670675375, 0.03188133769848336, 0.02732510041456259, -0.036415899228390676, -0.009672237492575921, 0.0025356092344015787, -0.005951367992856868, 0.00951268564581884, -0.001768303509710073, -0.0281780784997341, 0.058103450806667054, 0.013653684174122431, -0.002077876659659613, 0.027239678834244302, -0.01012275841067753, 0.041101903905517385, 0.030287013247812782, -0.01069577673112443, -0.010701225180498963, -0.02272103239517152, -0.00783391014165208, 0.009132876872205695, 0.023457581048860397, -0.0027509307083822127, 0.019796447473091207, 0.08135686023294918, 0.008520036792188839, -0.02045200783337589, -0.03407620572402527, 0.028871115050171578, 0.0487068473667433, 0.036648898184275684, -0.0032852016995896655, -0.014634974344944195, 0.05395626130456657, -0.018815819513112494, 0.0022263392024613362, -0.017047510577149844, 0.02363191562655647, -0.03405154043050828, -0.0008550945322677378, -0.0379270835801589, 0.01740017115522589, 0.02034524782647527, 0.002094301797343932, -0.039688317298798945, -0.01002157416205227, 0.04958198801543932, 0.07080508022997026, -0.05834394011437794, 0.032460881940814416, -0.046752067940044155, 0.047977819678303606, 0.020472705136537716, 0.007405541337754908, -0.04795480381469225, 0.018139428109841038, -0.03482031473026842, 0.03913188077558447, -0.0714249700151758, 0.05840350599701796, 0.04277200943305984, 0.02641048211952932, -0.030723434041954035, 0.038584705521139975, 0.030373751952931204, 0.009595673244195883, 0.026588765394334357, -0.03289890714593495, -0.033496785776847775, 0.015182507677402998, 0.046211930825853134, 0.04140327139698123, 0.004945233793219705, 0.017529425199749052, 0.03990112467750178, 0.057054487273548254, -0.01824007118653791, -0.02604121206580026, 0.020872661091908995, 0.04530436833093307, 0.0039134515281155306, -0.055040989146782134, 0.045174606816317325, 0.024655168692901963, 0.04262735181606587, 0.0008642119755897669, 0.039060587545407296, -0.05686608726518201, 0.04714524106224553, -0.011315389574039682, 0.013744196792454663, 0.017735124202488073, 0.016901584333779154, 0.023114443763922275, 0.010965199066656132, -0.0054533673529582, 0.021206266657452167, -0.014791393233721622, -0.048077041208387114, -0.032859312067368765, -0.04523592813153448, 0.03091849864065019, -0.0030555629266458433, 0.04483446684178445, -0.030777750548573735, -0.03604647452532185, 0.03835112132077414, 0.007452971236910996, -0.04875944697031193, -0.013357912496235578, -0.01964049683436397, -0.027712099296591356, 0.03344447577977457, -0.055744189396861134, 0.05095416864006454, 0.010880223183581913, 0.016172192202720845, 0.02254316430983524, -0.02737384336780849, 0.01878059831069311, 0.04171213568801901, 0.019186141196777123, 0.020838459890066965, 0.08520656292573253, 0.01919338598310751, 0.015608543791969279, -0.0039031732286826117, -0.053649843965574456, 0.03991865677119407, -0.0467042058328683, 0.06980432139802493, 0.008394881247867081, -0.016183378949639986, 0.022718339990532112, -0.010047595332454019, -0.0015793985282505113, -0.04340444301926736, 0.004574667273585426, 0.009742246775238491, 0.020457742623289844, -0.010113543463095865, -0.0028243695396642735, 0.010997596833065912, 0.025203921109217726, 0.022642175924563263, 0.03266140191969123, -0.08433963697928064, 0.023526882331410093, -0.035374770331612675, -0.058812249588174735, -0.0031298960453221302, 0.01405591394289324, -0.009759871322032326, 0.02080346845448525, 0.00851082474123829, -0.006551695629551449, 0.010590054743595829, -0.007197010112739286, -0.032222502339910676, 0.007262066314642251, -0.05071601734586971, -0.0024224202606175573, 0.0437838400473039, -0.016626286941246824, -0.0308960734324918, -0.0023347615995172027, -0.017052091237642383, 0.040728986947277085, 0.0507392909011511, 0.012877331773491598, 0.00946046820053271, -0.003635930827268858, 0.005788253924306408, 0.019476618621348096, 0.0017198166483011158, -0.03928443319180021, 0.009253051172534195, 0.045996490237661884, -0.004720991607359909, -0.014377051163890913, 0.04813808344808234, -0.005824902404010639, -0.06217222785179984, 0.021311936491345856, 0.0062228409460725175, -0.014028260597472886, 0.02207901917047465, 0.005375273033541903, 0.01792816923757858, -0.006603740267574024, 0.02053484258504415, -0.013071155481193848, -0.017721928949775347, -0.008418254663588332, 0.0027685137528296066, 0.03072232015797423, 0.006478198601745158, -0.03488762324266842, -0.0028103361500453044, -0.014761222121366614, -0.033834336491453385, 0.02600937583243126, -0.03110273475787327, -0.047311847320754434, -0.034377745074956174, 0.00041657332597850845, 0.012832683629620876, 0.02280903054325304, -0.040669976386583116, -0.019413034096919163, -0.03493057255813623, 0.0031476730460802873, -0.019480135354507492, -0.06098361152287914, 0.05320938372558254, 0.05152668446892614, -0.0050062593423353405, -0.04912748336766225, 0.05332080149038648, -0.02754102128613309, -0.0166185878986475, 0.059454052997457034, 0.030348070937020695, 0.042636523087155855, -0.02327402518134375, -0.04054445852312538, -0.05010774695857248, -0.013151598672393038, 0.062339929569407204, -0.0864303122698481, 0.022188743706397913, -0.03820096852445859, -0.017120368885081703, 0.015663353621864842, -0.04368805445926197, 0.009469730874081038, -0.007813344005545415, -0.043441915606134675, 0.05692982422400099, -0.011890621650997617, 0.03069748237322911, -0.011118399546896885, -0.051054948656660416, 0.08474528625783417, -0.036285378133658154, 0.031689846499880436, 0.010616452919514225, -0.01850011184295947, -0.003179950712746108, -0.016686868459509244, -0.02373835008846068, -0.004660791929698819, 0.0007440856023981407, -0.004049528002875315, 0.04821367178096798, 0.018243494852376762, -0.01356178192838077, -0.0053681539547615785, -0.052428594829979455, -0.02911982766598086, -0.018644769095831362, -0.02869720283401535, 0.03147894053866414, 0.03899887952281858, 0.013222306236053447, 0.004660823318319704, -0.00376730110749909, 0.059366636400270546, -0.0632169724012806, -0.004748898198765921, 0.024749246543393777, 0.026068599601135566, 0.031126804632229933, -0.04450129190834893, 0.037958554041706526, 0.018569771445851934, -0.05296801936388061, -0.022853745591785535, -0.04956858059466152, 0.0009219851038468321, -0.007976584539656297, 0.01412338888060621, -0.00391124556043356, 0.018516808347436804, -0.03283063460096431, -0.048230548826400654, 0.015470503209516828, 0.02154406265639759, -0.03463123567713109, -0.04195727946310103, -0.06160353134423607, 0.00361895229595354, -0.04706291004531616, 0.009118144951349981, 0.035313867486094726, 0.00038998399805064565, -0.020845193029762666, -0.008264405472949965, 0.004668101028433719, -0.03534630595749826, -0.08113080737330348, -0.03445669530802267, -0.008931747032823078, -0.03626692546030004, -0.03157258897042903, 0.005797233577402087, 0.01760850502238673, -0.010242168519820426, 0.007872627864385659, 0.018443230280326538, -0.03859927958935944, -0.0472068352423345, -0.016974333936580672, 0.01093653429952777, 0.009403670169539365, 0.008550334713609976, 0.015533337707542911, 0.04073439824703015, -0.0100264866629525, -0.00690904631726712, -0.049941083439995565, -0.007285486867096077, 0.0021849646086529373, -0.04532081591189923, 0.07834654342778422, 0.04592956142355627, -0.021662298198770764, 0.02332606611553362, 0.007043017697685435, 0.07912922045178275, 0.05959361432299326, -0.04496065954500168, -0.05333635094390552, -0.039336922607502524, -0.018810408975388264, -0.03243177310709386, -0.0021118682128629823, 0.02497817104917229, -0.004566104595510018, -0.02288303186319862, -0.023908021762846527, -0.046853078754397356, 0.029984844033963846, 0.07819738096064564, 0.004650137697074121, 0.03210499420761666, -0.02133554477006307, 0.03575163328895703, 0.056315211504746464, -0.01957615216672055, -0.02882553122978892, -0.07835717906507217, -0.049401522430524515, 0.052486724234416984, -0.035729901588995215, -0.05498497501497857, -0.09225896856508846, 0.04901194738493486, -0.012683391060752636, 0.04779892395516222, -0.07805590238582419, -0.03583736924166555, 0.08936314902869871, 0.02873452692520262, 0.021490039398909477, 0.007335530533885825, -0.006887589898616559, -0.024414125503984127, 0.0321849739274473, 0.032825528266531505, 0.009911079397773562, -0.0358309260870706, 0.019986805244452944, -0.0428894286551571, 0.0026110648662274532, 0.008195110162406824, 0.07709590315709308, 0.005115845645218291, -0.05720251488498531, 0.039105237811100105, 0.009240320506352475, 0.026330943881482997, 0.03056722813677297, 0.031874952909908674, -0.0012801395443197442, -0.026800046290608618, 0.003169791213562416, -0.04115461625745794, 0.016028884047001646, 0.05526567309269895, 0.028250466503429668, 0.0012934157343525486, 0.02160948677809141, -0.05894419446226554, -0.01639632306918319, 0.006930795046817089, -0.0082275531901341, 0.022444828860507193, -0.030111577676315594, 0.021035277026388383, 0.005653206023159273, 0.04470735479492876, -0.016929356795728455, 0.012822692410248865, -0.049351775693983725, 0.08029292538321048, 0.02443629805855539, -0.04270661512937823, 0.001947720670503805, -0.049235855088148824, -0.009920436384431897, 0.005015293541696811, 0.03657434431241479, 0.09579350453188347, 0.006908852062760646, -0.0008911445088641691, -0.029118875334078986, -0.022327349826018746, 0.03676914862681857, 0.015805137351183465, -0.012388276932079993, 0.014292197305695238, 0.021729552976013818, 0.020640215348089075, 0.06900387108996225, -0.005085580528917531, -0.024661638803241022, 0.07336353959679105, -0.0269224335153359, -0.00010238953097522029, -0.04033569182417937, -0.0037524199810210867, -0.061900581359918286, 0.03430277390675924, 0.0347029745425291, 0.00415274569997079, 0.005414357324127035, 0.03843837533217389, 0.03631035134658147, 0.003659589303782599, 0.05784765884518831, -0.05382478688444179, -0.017432532481182306, -0.03050491669894394, 0.006721171608997236, -0.0009429837864550138, -0.009319040635351997, 0.01624206282878308, -0.020834676508614466, 0.004257951864065131, 0.036112332187929, -0.03441376247595312, -0.036024670789774935, 0.02130580471215418, 0.04622885949645251, 0.015332054572586662, 0.0023075941914187386, -0.022355533749571874, -0.062163782608403564, 0.02277218842289367, -0.030727849467493223, 0.01800832278271732, 0.02531970576062898, 0.009214358291788408, 0.03547396950745173, 0.0370763940196174, -0.014562252373459246, -0.00794202296968067, 0.07173156848762137, -0.016543061796694222, 0.0644803203026493, -0.026457943646989286, 0.09422687228506228, 0.019876974294238122, 0.008173038327323376, -0.02124121844969883, -0.003642209318007481, 0.020719407787391255, -0.00595864257333321, -0.011233864396965032, 0.023107830199304638, 0.037755392507245876, 0.010452265713676996, 0.04608426332649433, -0.02058484078545454, -0.06555351301196818, 0.0483911469037802, 0.006975945015276188, -0.0635313490953509, -0.014369999501831774, 0.044066655720669395, 0.038486465696872876, -0.04989342342566336, -0.015561079448813386, -0.0031494245711283166, -0.03148449472947984, -0.018137184248784587, -0.06696324875272834, -0.06058865260121085, 0.038105041267036885, 0.03411374417575517, -0.005622338398792569, 0.046843959351747275, 0.04884559477026573, 0.02998478664142091, -0.01421950023650023, -0.05560429897393358, 0.05028556970314043, 0.022857996290908553, 0.02352273816167058, 0.06110492855133619, 0.01389139389610722, 0.02460270496969546, -0.03902765847820166, 0.04093688958498592, -0.036051719094485346, 0.03773888468993984, 0.05276418533470907, 0.008736543627596642, -0.06095605568281558, 0.021078503321698663, -0.01785637782027878, 0.0029803377889803416, -0.04734550666112213, -0.019398569385916147, -0.050991902690809776, -0.0039589154725779875, 0.041272036865888435, 0.046514739328462514, 0.015818124689911613, 0.02794522470727804, -0.028948246418661425, -0.05186824173434182, -0.04886383949075709, 0.04971124671809265, 0.00023395866211879877, -0.029550357310606866, -0.010642113979027253, 0.07766227134907343, 0.033642089635113316, 0.002505649330873848, 0.04435298697244824, 0.009623931477038604, 0.02471601002588294, 0.01705695565857271, 0.05817003964748736, -0.026900100306889285, 0.0642500612656591, -0.008571682220711384, 0.02828656381852762, 0.008167791083730296, 0.0037019876306710517, 0.13275432664599562], [0.006602093291221658, 0.0316427867245828, 0.09625955983840973, -0.01863930594506675, -0.018996920595665066, -0.008171902783048935, -0.0032685711187186665, 0.009201201808235799, 0.017068262391327815, 0.002033672289482474, 0.03817982324542898, 0.0024369350156781063, 0.05333838495416738, 0.01410012163160403, -0.021193302211870907, 0.04341713136788761, 0.013729100261567172, 0.011136146897366084, -0.016644023666103888, 0.015328863800236125, 0.022088845443134567, -0.012752217765520622, 0.021572275752234315, -0.07449207025644397, -0.04469060686079931, -0.03804219056239969, -0.03299058211236795, -0.03738946536590029, 0.04084478615308754, -0.016627069334611035, 0.020680289766900218, 0.050931880936127105, -0.015135907909465448, -0.05072209496727503, -0.031563177762370845, -0.017108974375109463, 0.011303747420613724, 0.011333350706865688, -0.013861780351443679, 0.06767431597830424, 0.0359548203936842, 0.004488921072449102, 0.022183485454054793, -0.004927903434730654, 0.007084924269675567, -0.00010636845978158743, 0.048259551029183785, 0.018368516046126625, 0.014914371152735074, 0.04209322241940633, 0.018862530887126076, -0.03361808143410051, -0.035487738570867976, -0.043130937516489894, -0.04241171534720902, 0.018424412152869992, 0.0018826536653610891, -0.013502187117106833, -0.025849051964350372, 0.0336646312139966, 0.04754852130015114, -0.0018839109451041344, -0.027944262695483942, -0.010611504860174852, -0.02879925112231637, 0.038625428282779234, 0.001373460148350297, -0.024894713940073233, 0.0007397312040229136, -0.024202146728004956, -0.012970742126446458, -0.014456720342384894, 0.0015418807082245227, -0.020879868242471063, 0.0030941322331973107, 0.04879351976020275, -0.027228860560920703, 0.012425678903762739, 0.05104933782638818, -0.02791979370281185, 0.041085448318018414, 0.018227880852081983, -0.017331418310893146, -0.027908487220462522, 0.05984046275925661, 0.033283006868974306, 0.04431627819401879, 0.03897529027015153, -0.05065388882626875, 0.029211305935116026, 0.033543677649610144, -0.019742108747222605, 0.01697031905809475, -0.03826638231422937, -0.014813114269246709, 0.042917981373053325, -0.027574756077782567, -0.054969136021521585, -0.04934180696261606, -0.017147188439648815, 0.008470196914612585, -0.03071727825666244, -0.00535699310182693, -0.004179205911093253, -0.0035998575736539556, -0.0025491214399193975, 0.040630467859821405, 0.010362525747405356, 0.009926928459018469, -0.0675965880218151, -0.01065530446592372, 0.004323767058520605, 0.014910608282239892, 0.02371586498616816, 0.0071624575136945414, -0.03782924868305852, 0.042002939404816995, -0.04938661009475433, 0.010777223586810191, -0.0502635652433168, 0.004824161241045371, -0.03377936712560785, 0.015239611644784089, 0.010583530698465918, 0.02196382923008095, -0.006551333950087928, -0.011056257750605848, 0.005665720163079278, -0.022377424223616237, -0.0604131837550014, -0.002135795453396662, -0.011493779590885015, -0.0005659872469354638, -0.022315549374472526, 0.08951244420369628, 0.05165027748919669, 0.03291833036867481, -0.01620594555844206, 0.021187210626344998, 0.011713483933553136, -0.05126030661711446, -0.027022000005604882, -0.0030851321973706276, 0.04715496981347323, 0.016764081045505357, -0.040699933896272855, -0.06589899828964314, -0.027445229130389683, -0.007276026029869534, -0.011841618208605728, 0.02277083839621038, -0.02972235887207868, -0.02489046309963785, 0.011133016504654671, -0.04548568883675643, -0.04657679819255372, -0.057403174058460904, -0.05731220995559306, -0.025567570758963012, -0.04930610094600386, -0.04790362988272439, 0.01161109974952604, 0.015154544522485698, -0.0010588580967810521, 0.0014698023254896715, -0.04299999395830028, -0.030856607184612195, -0.021487198002863927, -0.023456177451595055, 0.018664862443874858, -0.004011053532013566, -0.03486636752920543, 0.024429355399122974, 0.023801161512648772, 0.0694734545466633, -0.015291666216354445, -0.011953946855647253, -0.038557073443454416, 0.029676730752778362, 0.02247100686978212, 0.001951929593578604, -0.00775345846818295, 0.03476297938067172, -0.0006168225343924653, -0.012031313743137186, 0.02473252276146976, -0.01653565845309832, -0.03841205150016877, 0.02594608188156552, -0.017339248582017963, -0.056677386942076094, 0.05494111584410079, -0.09303737989705173, -0.03495915785407447, 0.026677284039745296, -0.02087520731007986, -0.04147410845572089, 0.0006070455149805204, -0.04031774880422315, 0.06091636037992714, -0.001409521062554922, 0.032071219350599714, 0.013605951526757332, -0.015696025090093043, 0.02300280709876759, -0.035188154794939176, -0.020446105343548012, -0.016656583824579903, -0.036968887382794136, 0.04599496915404113, -0.007745804049077323, -0.03320485182658301, -0.00029375618606841355, 0.04224333291882717, 0.02746521575743665, -0.010303519058460794, -0.01196860050435113, 0.03759120904208832, 0.04375574466041323, 0.002663612978877159, -0.0552370644151813, -0.09686704148471303, -0.033287935448567584, -0.06780602649850309, -0.03412110564059474, -0.011918276456406017, 0.09829501289630477, -0.010661847461219114, 0.0046588232127124365, -0.01367802876327659, 0.0057423632146107, -0.04334361106588165, -0.026044038817850813, 0.035820817134812374, -0.011481731306316108, -0.028243991942530775, 0.026105555298709376, 0.04281275754151615, 0.041317103942642645, -0.011439858646368064, -0.006270873741475334, 0.04426621573637399, -0.051367086540942124, 0.034541039269639646, -0.0005848162368367767, -0.011061796807965025, -0.005601137171615846, 0.028583177899979655, -0.05982813603487088, -0.015692068817999946, 0.00471550508340888, 0.007617176522039391, -0.002449775012298806, 0.034808337237404625, -0.04245214447561542, 0.08197361493071448, -0.03512045680683705, -0.032601502379187686, -0.014014396693883801, 0.04217329866521599, 0.012907341237433239, 0.031131565375612392, 0.008719644205572837, 0.03020635102294758, 0.0020137898896174867, -0.013360083390477905, -0.01715002058606479, -0.01713129297581652, -0.014033227569633815, 0.03781121723200754, 0.032467503998876095, 0.03126664366831915, -0.025348708665217042, -0.046664473988492335, 0.026995707285617617, 0.05332794212978251, 0.010371155834158798, -0.007450325564700684, 0.011923666873488357, 0.002313374923402563, 0.07242321166207079, 0.012668393834758311, -0.012609734263966362, 0.10622172600353554, -0.006558655950002235, 0.04982796147755586, 0.020252825610391087, 0.014899223618721516, -0.03925769856816868, -0.010987831435323359, 0.03482652604093097, -0.003516470431996273, -0.0744442788219965, 0.05441362316920587, 0.013217105549374681, -0.018862003712692425, -0.018849253833348394, 0.015464400599157848, 0.018934893657050016, 0.009718601699451945, 0.022427433338101585, -0.01121858010401935, 0.058613801095747056, -0.010011006611236177, 0.0186522918872858, 0.05605011260459327, 0.00502910072024911, 0.035819626807967554, -0.016170212583783473, -0.020040350421259342, 0.016787224137605538, 0.02740070366723144, 0.03823871934918306, -0.0266187399481021, 0.03243919159005379, 0.07910198104236944, -0.03373716024176306, 0.026554870520915434, 0.028161337847707375, 0.012057549291874624, -0.008849004505190024, 0.03401640254213957, 0.004654821342114442, 0.03809606681968463, 0.017167897125549968, -0.07797691496492176, 0.003905554378181192, -0.013166585778314916, 0.022687947651131125, -0.04378225952260139, -0.015341257522771812, 0.05078297077759856, -0.025825051701173142, -0.02164106053159309, 0.03566157427087648, 0.01270268900120945, -0.0007189500602719869, -0.012253171117351748, -0.0043448561213261455, -0.003798199874609019, -0.013200500879700738, 0.03474958037369518, -0.03245939044605466, -0.012723048301790512, 0.07065863412417624, -0.05836907556678395, -0.023482812317436885, 0.02986546047787228, 0.012475356071928312, -0.06597928093733782, -0.07058514283885683, 0.007373114162921675, -0.05442303875801589, -0.000898329667070769, -0.010283660919479626, -0.004333268421640871, -0.05172985034532441, 0.0035640384195049606, -0.06771270720396294, -0.003377804929688771, -0.07301652981443785, -0.011038276300305452, -0.046674598753110856, -0.011601016010902484, -0.03119505051127381, -0.02037908029042376, -0.02270261069417489, 0.03695850644603359, 0.05224290561984702, -0.020860209024795327, 0.0212504646654056, 0.047451404320487826, -0.04180174001930096, 0.012285786061910034, 0.0032904564612087736, 0.021019703193064163, -0.009484312213777657, 0.033679744212080524, -0.033689273908285355, -0.005538380968355024, 0.054695852141663455, 0.029805745475545323, 0.04323474267061835, -0.0007884909902479674, -0.05096012477195135, -0.07136208201855673, -0.029440687913778813, 0.02892419471079392, -0.018621257907509535, 0.029521983890923302, 0.006010646497529998, -0.012146553708831984, 0.007089483474225346, -0.01801961028303018, 0.032735685064248184, 0.03597048787638084, 0.032445869265165246, -0.015047127657855937, 0.0051596675937111555, -0.056248962997537656, -0.0008901600176909807, 0.06319163129589457, -0.07351741588742261, 0.011125849470109734, -0.024428563341131835, -0.01789728587275941, 0.015135144821312627, -0.0014544135942025896, 0.033782178449472115, 0.06437422257759225, 0.033503208352549024, 0.047396617829860724, -0.005095358463304191, 0.03614654960167661, -0.0010914738415448056, -0.015048362814944706, 0.033044506099413305, 0.05982346875782987, 0.03985441529198906, 0.05883285532325544, 0.0024035360536226553, -0.03830533334427776, 0.031236740045377756, 0.0009933603969282023, -0.005365417268686715, -0.023091080168663843, 0.04427429351877477, -0.08642381234387142, -0.04404288591752528, 0.06126489187251326, -0.042338150741121364, 0.019647526004520095, -0.03913772510753497, -0.021113732537352426, 0.054613491429612956, 0.03355281738914795, 0.05940771629240883, 0.020250743838211547, -0.011241731037097717, 0.0015439518675719227, 0.029932754152116596, 0.019420382530551082, 6.252896170637441e-06, -0.01912687268321405, -0.03984494762562099, 0.018866810479843222, 0.015962703394013372, -0.06887841142671358, 0.03282025901590115, -0.015717281933873253, 0.022320175020932486, 0.04916137675511413, -0.011708423451824792, -0.024806591081119662, -0.029988809354480124, -0.022469719542015813, -0.005290694047153537, 0.019812352356269297, 0.023665244815948616, -0.06257180631818296, 0.013015204667894846, -0.055967652351095555, 0.02122263975539263, 0.05809534966322961, 0.06091440627622841, -0.03737855573486816, -0.06824714808413589, 0.016983620642384078, 0.004405697071842503, -0.01878982847119777, -0.041698288285225184, 0.007185233340321076, 0.02256541740739794, 0.01966668920519385, -0.001172935452518785, 0.04675862948313656, -0.009838319894460339, 0.024592895650717896, -0.028065488567871954, -0.04910794484489189, 0.03195589769263667, -0.06235708673956603, -0.0028415943330007353, -0.018526024167914792, -0.03367189808796786, 0.03639603691418935, 0.027999047756517112, 0.023888835762545368, -0.011993005097260619, 0.011905859015103586, 0.012499302025768821, 0.02843593961092744, -0.02722189489336344, -0.018466351251045003, 0.003892018944249585, 0.01793365450553221, -0.028850422321510916, 0.009124029664311296, -0.03291459703019854, 0.04159940441894225, -0.040057794081282856, 0.00591625913666984, 0.021881933298062428, 0.021710813413539205, -0.01902133023064451, -0.06219282974393333, 0.028225067851110282, 0.0020200368942488527, 0.07719263871339722, 0.0168156300558082, -0.014912025261906442, -0.026466053490683508, 0.055038482344606086, 0.008023557209659448, 0.04946686750316216, -0.09228630078916587, -0.033982447882792484, -0.0207038194010242, 0.04399975270823123, 0.0012293508895211823, -0.004916210196566338, -0.04958029169933942, 0.026280549266028592, 0.03482397942858603, 0.019143574416458933, -0.015480725670044562, 0.06967664760981304, 0.042524068013648615, -0.0021148170060972435, 0.010858282468064343, 0.030745591764200577, 0.05309104140920703, -0.010141817210673301, -0.0040561803216054475, 0.010765552408502329, 0.0006827738410151282, -0.0353038895994321, 0.003936973259316198, -0.043428965660289066, 0.007252277138642575, 0.006821807241554321, -0.0678550410392992, -0.01794691802502919, 0.01904164395515994, -0.01889434473497357, 0.04635842851204204, 0.020744321978741646, 0.050370248255315754, 0.01668038939603526, 0.036872313576888076, -0.007022126123473191, -0.009645284084342188, 0.028476884396866943, -0.00303210416942479, 0.025220022807107924, -0.03154335611715361, -0.008169398437344742, -0.04032594218852667, -0.021407285755608504, -0.014890565897788617, -0.04773118745847747, 0.049884661079537214, 0.04688358374968627, -0.027965176783236047, -0.0026379918264401933, 0.031811368256496594, 0.04175917051851729, 0.031089865801787943, 0.014878079135794836, 0.025157561046314048, -0.04021907112178194, -0.03643013313380998, -0.10089680307689441, -0.010638509790478309, -0.01590374843139998, 0.04514774092522036, -0.01923416444016393, -0.012807935129025307, -0.005725874311094814, 0.011114051124822064, -0.044783493275465394, 0.04905900184731835, -0.054485814466635515, -0.058664212382986566, -0.03651380375330354, -0.020686161520151864, -0.011411186336440044, 0.03691224987164035, -0.033175633065190696, -0.01369614541024023, -0.017504445629799237, 0.049069674107423654, -0.03139703823745998, 0.027775282871246587, 0.012824631120474434, -0.04594930650591676, 0.030180115226585064, -0.05532103703629996, 0.033655080106170285, -0.06910338440066065, -0.008890771845316149, 0.03736532479732146, 0.012084123022799821, -0.032112651771141754, 0.08858791255483442, -0.016607951678761373, -0.043362317106104865, 0.02431011548626573, -0.030261023745061958, -0.042180325349085675, 0.02603984192788833, -0.044918628098580736, 0.026373649554515485, -0.02849521415879879, -0.014384488108334518, -0.048332665185871565, 0.005494824034716851, -0.02767705834643292, 0.02989396049659477, -0.02392066358004231, 0.0077974123597233476, -0.05987626458933372, -0.004159603899783528, -0.000689780510394329, -0.030770014456550504, -0.05417602559295227, 0.020108528855085135, -0.0025677404159175268, -0.00211523835813906, 0.03114158807540117, -0.06470371175806225, 0.009097168131287916, -0.019494655710593903, 0.013233541443901204, 0.01410826840013939, 0.03137313935855567, -0.025527214401802018, 0.039246202947601956, 0.01322890282119752, -0.048916408217734575, -0.02624613473641691, -0.0037290753296852974, 0.08380232016653816, -0.007980246120206185, -0.004728133249596193, -0.017175983016811315, 0.03325914118936849, -0.047949129333742346, -0.02744812529211795, -0.022317157089343207, 0.04129579563660305, 0.014829408059868923, -0.05170888787640081, -0.017621965461025176, 0.01428828959989586, 0.06613326087344489, 0.05569420907098019, 0.01908892768586513, -0.04681174246508546, -0.012526752817311481, 0.032059771232571053, -0.03051461657678569, -0.04961310175445775, 0.009855085553938403, -0.050306697048540745, -0.004997489758957984, -0.004284175324856363, 0.006322319276021804, 0.03798695368576634, -0.02354681369311971, 0.007786519181216914, 0.062428649820826666, -0.05487945900661223, -0.06176426958738851, -0.08539648960108233, 0.020833164260807002, -0.07035804687529625, 0.022240167497416106, 0.011599194006650791, 0.016010528115908775, -0.0446872348138187, 0.04640607594278088, -0.0024116080818025985, 0.03699755734167352, -0.02092333549930359, 0.014159557072674502, 0.012016684199912753, -0.025968644418948653, -0.031173390462913533, 0.0465188807323102, -0.07090060269607194, -0.0302118609033185, -0.019494560582890622, 0.04682954814933351, 0.05495631978803016, -0.026139497159134568, 0.005761035798599854, 0.05041185265092244, 0.012109363205818154, -0.03968738584524566, -0.030798794261537733, -0.0007272804155921144, -0.0076490048929559705, 0.03450646295136359, 0.008972071496863812, 0.03954564974120047, -0.07832053459786041, -0.06144671917339102, 0.03929887324046624, -0.03204825552344423, 0.01833520774748102, -0.026268817304859256, -0.01889884143959702, -0.03751673654155312, -0.03785182050315427, -0.032390950667830834, -0.017478398250192578, 0.04478511101940836, 0.04778072260316542, 0.06845990228290448, 0.040932201203590056, 0.054167577625058576, 0.03337175401210569, -0.043909034452499184, -0.06735927596345763, -0.01864454270058023, 0.03595549899515123, 0.02117290981870731, -0.009987971591668377, -0.054956472516011254, 0.007995228579355284, -0.019041786108395974, 0.02010424552452978, 0.02701810939316895, 0.04060997920544064, 0.008413259673324177, 0.06683194609000533, 0.002664204545329441, 0.057124079900492314, -0.02669600160701094, 0.020536248547007804, -0.014111033151922692, 0.0325527370333977, -0.029827901644071002, -0.04114689423054787, 0.005617344179130797, 0.04523937207063474, 0.012036508588123428, 0.10500421493539096, -0.02860356414032092, -0.02904123115447133, -0.057726744598647656, -0.014239998369819101, -0.0014915387454921387, -0.015881652843892237, -0.028859750272975594, -0.011346459550691199, -0.018902407114201908, -0.047849201919822434, 0.009843873360959767, -0.03422443437661461, -0.05899645443619989, -0.000377720363402208, 0.0915127919862181, -0.04186442827920398, 0.04514753066518218, 0.012785971478880019, 0.03139247282842299, 0.013264380010340082, 0.02394079514540614, -0.004124281813573907, -0.05436962159056534, -0.050427354223437776, 0.0019110552695972807, -0.04383494167909003, 0.015046052844807381, -0.0559154151218621, -0.021423978834869697, -0.10710796365394373, 0.0025508194472894687, -0.008711663825659407, -0.008152194836966728, -0.03065399496400425, 0.024248431676036096], [-5.0120908372806595e-05, 0.007485753900943478, -0.029537664738864478, 0.009295472381470613, 0.0514278019320911, -0.05470973287615996, 0.05289550551500976, -0.04291992692025145, -0.02258666568192153, -0.004761905928820246, 0.012383614007307734, -0.023684204400456765, -0.012062597569731605, -0.017957832440416027, 0.011176681706544627, 0.007349401831019063, 0.009443556658517474, -0.02996532703060838, 0.019297563834262874, 0.008208486457149392, -0.00963526405073347, 0.0532700834670325, -0.0330306735160411, -0.07786086224336022, 0.008234733570949934, 0.009336044385929405, 0.03353856223952888, 0.0011011891877842782, -0.017039669498537906, 0.005086407130453899, 0.009328608945044196, -0.1173102767077913, -0.012075154752423652, -0.02950987918767214, -0.008637919813648864, -0.013377433324863394, 0.032626480079274676, 0.04275147339278922, -0.01614365568757557, -0.031412981950766264, -0.016652743109644857, -0.021342634200514254, 0.007999587699839645, 0.04769790906504515, 0.04781832951650892, 0.006873801239844973, 0.001567074377039386, -0.04433797955342546, -0.02506616938563043, -0.0014439576561537382, 0.00010501965138168087, 0.015392138871108667, 0.04273499128604531, 0.00866022282587998, -0.0076831059500197104, 0.04416250962192991, 0.00627554318857037, 0.044079099180403564, 0.018275729908883993, 0.001090877611744448, 0.0219665456226406, -0.046147587969256616, 0.0498737723533667, 0.04291931846601578, 0.05386892518055648, -0.004189118177315387, -0.013889954363202357, 0.030969230713761585, -0.011508584126828253, 0.036294805800675185, -0.005717153856424767, 0.030873153531703255, 0.03006668553900615, 0.07325429477084405, 0.03841835734377167, 0.01969954423317649, 0.017880043469830097, 0.019675802658469757, 0.030433581008295185, 0.0031497276713726608, 0.027140738238532452, -0.03052830872663258, 0.03636789986232821, -0.013756426620737883, -0.05910003340831, -0.029246346779852626, -0.045328580013361555, -0.013890774213564811, -0.03746402913248835, 0.052948400286513785, 0.01641612561589035, 0.02800804519340326, 0.03537179241254231, -0.019571849718721814, -0.03184609012293209, -0.004183523833360566, -0.03218614018002283, -0.01857762004087344, -0.04001742998168952, -0.11559153307037658, 0.05797869700064624, -0.004077376202966119, 0.05284089420597052, -0.03630289133563278, 0.007927525332970458, -0.020431393471816293, 0.02968827423099381, 0.020480383707825154, 0.012690423404684521, -0.04022268377643706, -0.013165964498723131, -0.009830593306632633, 0.03328024113836838, -0.028782898968472793, -0.003882221107094138, -0.03044840351607677, 0.03360487600463079, 0.10020198868616925, 0.006972947610556921, -0.03876359462069238, -0.02162878931454352, 0.029076754039673476, -0.004988451362882419, 0.009422290376345779, -0.002428875670737352, -0.04380013076702023, -0.002566409428756464, -0.07959027020775174, -0.05057277646705993, -0.024182042876875594, -0.012701484223030699, -0.002224967533949551, -0.04472150341845507, 0.021337717463518483, -0.04488930099191782, 0.008406526848845373, -0.016949396539102917, 0.01185776095611759, -0.006411910570587872, 0.038446546142404045, -0.021823261725611158, -0.010320973431789653, -0.018654568807615006, 0.0076840210524149475, 0.04001601424189656, 0.04972952648472003, 0.005778884164530378, 0.05487158984401588, 0.004920156515873494, 0.013485228262510073, -0.03584720616772783, -0.06103284793291655, 0.022064659598633782, -0.0390374771574523, 0.0029124058218722823, -0.054959386063301995, 0.02940073236944654, -0.05978672404886841, 0.028293368624948485, -0.04051966339919201, -0.029782563065647274, 0.0597659504112776, 0.03941006138322435, 0.05815376916174916, -0.008299688998785817, 0.03628422652243857, -0.001076390891523383, 0.08428849463316378, -0.045778247787221685, 0.04598542010832062, 0.02949130085210882, -0.031005206000385147, 0.02353381531581689, -0.016729319855788443, 0.00019238556484018192, -0.027374880014605567, -0.024856815163207237, -0.008568959308542477, 0.04345160918763871, -0.014988560190117867, 0.03744439284342506, 0.02854585157644569, 0.031893423914982004, 0.01744985778840022, 0.017533074191063043, -0.04879765233767091, -0.015229275835713936, 0.009848769875037631, 0.0446172322464396, 0.035457814839040896, -0.07325518878938829, -0.006702373754131374, 0.017419750250179805, -0.008422011740036013, 0.025757359008407792, 0.0124128044145678, 0.055369605284774304, -0.10443979236458875, 0.0508466864389126, 0.01001902359972728, 0.02716217712297189, -0.000494898830841264, 0.014429326830572837, 0.017764368669846955, 0.03823930984158717, 0.003565106277811607, -0.019130989446408925, -0.005254746866408831, 0.027790503126904304, -0.019354098396552773, 0.02512506780979272, -0.03732457790482273, 0.02777888944115322, 0.048655691047253806, 0.023556749352970946, -0.07935099999675495, -0.016981080093677617, -0.06970910288347111, -0.0012899028137309232, -0.029713813143066883, -0.028732809830072085, -0.03860294390538647, -0.06638768395260902, -0.00900803350712552, -0.040524035673711066, 0.05961201516863083, 0.036696024174077926, -0.02523827341672005, -0.028389433188159518, -0.014743556255239031, -0.06506522774141295, -0.016469179833941635, -0.045323861222591834, 0.04212034702447195, -0.030005112993138985, 0.057976911765962605, -0.08332200051422523, -0.009446651423889181, -0.044979129672901075, -0.031237952146303555, -0.006698337009642948, 0.09096807426244491, -0.030420128848384787, -0.005876382348552711, -0.08259373828311561, 0.0014666588146695506, 0.008183110887198428, -0.02709844560774852, -0.04266538683157552, -0.00145003974732383, -0.04775616073318923, -0.02233850322095739, 0.04113896518171719, 0.03137752212182587, -0.05623096525523426, 0.07905709055093314, -0.0019392747778422257, 0.031493501121651744, -0.047674486946494364, 0.0514261138443796, -0.0389843675499575, -0.013162218174681693, 0.06151874265356138, 0.02921798792350244, 0.005655843429629918, 0.001506426161832369, -0.008896133777625891, 0.004372970913625892, -0.04046515612877818, -0.06386457119528238, 0.0033515312850977085, 0.010932678878644976, 0.04080143682647358, 0.006366437957242547, -0.037238012189927734, -0.01743549770813954, -0.05656209869701909, -0.024721050290544153, -0.01015840540847151, 0.029736121771443167, -0.031561015091951465, 0.0029331651454569114, 0.002473727819014395, 0.015800099216036093, 0.011595169345681831, -0.05572789070753915, -0.012227238356298015, -0.04484943063236345, 0.03035381428856648, 0.035658945046914144, -0.062446523752871956, 0.020355565721837665, -0.010145759750532845, 0.038850314521490896, 0.010331489664755989, -0.014359252481167982, 0.017258621156277944, -0.04842254177705361, -0.051732537767407334, -0.0034864250379466346, -0.03446900781289608, -0.016042277483005837, -0.010189772993166287, -0.018472670812317595, 0.0023781854732599825, 0.037257101926212434, 0.008563219266920783, -0.005744009468198713, -0.010672320122244346, 0.03792887317823679, 0.030049210671331063, 0.010962543649536874, 0.010186889106660255, -0.02092969072619787, 0.01600267174614181, 0.027283878305889648, -0.05016597572003159, -0.007569458194985935, -0.014810342821659894, -0.054814764054762294, 0.010652839786652029, 0.03868665153567005, 0.057392142881894814, -0.00770570007982407, 0.004091157683362509, -0.024454953648077763, -0.0281123068912438, -0.039960535327799626, 0.02288242310473505, -0.0669920378553836, 0.054349598535415586, -0.002622304989278902, -0.020776267803404438, 0.01705281949410422, -0.037535827944497925, 0.04918723947741625, 0.00923384167453002, -0.011117405597890512, -0.01995072131562326, -0.013032407318980381, 0.004589706448065947, 0.0046205704094156985, -0.04150782472985509, -0.0888638515781542, -0.029669979007640433, -0.0421068802204926, 0.003378578178497576, -0.03694419519106848, 0.05727384684315513, -0.02050262025128552, -0.01643490058064966, -0.024660220818413046, -0.033867910384136696, 0.0340220297614997, -0.01731693501815412, 0.05923582225461501, -0.03064018404215264, -0.03605862940262109, -0.06616621102825612, -0.0044533201603979364, 0.04039868712497662, -0.03244966033205764, -0.02801736359517308, 0.027212700383585458, -0.007633578813884704, 0.005858180644327655, 0.007999996234917883, -0.030075460044784067, 0.0023374922878348944, 0.02548248543577161, 0.00853422590454854, -0.027475297695453104, -0.004989019924504775, -0.009231077485857562, 0.0531313104284909, -0.0020612853050147087, -0.041091415954553755, -0.0024122179027409782, 0.022501094625295138, -0.004682167855579647, -0.027380099589123612, 0.03165349341928121, 0.010441250064408549, 0.040942451580066125, -0.02574514142512557, 0.034774203896381264, -0.022536264973182514, 0.048442598604435096, -0.028740875092124862, -0.0016221927899919125, -0.03716877139095179, -0.03797482845858558, 0.02500270036098155, -0.011232036183515213, 0.0625726281099785, 0.011210165316111378, 0.02406204142407841, 0.04864903035449105, 0.043098831457384384, 0.0020422974925866757, 0.03413937054877389, 0.02049618759009119, 0.006904720113508611, -0.0026803632610323653, -0.039314732058163354, -0.060541770042938155, 0.015783110863311457, -0.019638878953456926, 0.039140079412206354, -0.012778059910263807, 0.016085247777652405, -0.026874450112420494, -0.009574669432480887, -0.01999042410494864, 0.03888265537349227, 0.05671536822356317, -0.07264531660754829, -0.009740470073496928, 0.0019660067402765416, 0.02665282618175113, -0.01500959672094479, -0.019065008319778382, -0.016468589830654287, -0.007413476896913787, 0.0072228040606468315, 0.026789390822944032, -0.018169384261651458, 0.0470226959464928, 0.00039996560422841633, 0.04974032319496487, -0.06201138477397636, -0.04741972227890838, -0.025911216110286128, 0.06703293793053507, -0.030435388057996678, 0.023417241475658056, 0.06646408909673675, 0.019025187659133854, 0.01062418826935796, -0.0017829748031924111, -0.024728314495967428, -0.039203895777652445, -0.011616351116487332, -0.0480312076347042, 0.07883339237857157, 0.04152300786537633, 0.013799684795765833, -0.02481550021018852, -0.05903069388378703, -0.008579095115877768, -0.03369030999690495, -0.01724663009327149, -0.013522027144890269, -0.0329497173197148, 0.027324787817164565, 0.05435211501986558, 0.015452385441950538, 0.0012623584090707763, 0.0617847177500108, 0.05556330605955351, 0.020156348170894334, -0.0016023372237280737, 0.050572522136400094, -0.014808832316714668, -0.041728903023820096, -0.05272664270575749, 0.04192411149005976, -0.01751067775498304, -0.048073931341788737, 0.03396068847478717, 0.051692397424860446, -0.04891443588915753, -0.016399515506225967, -0.019618788332240723, 0.043824063578720165, -0.054781476639160845, 0.06559686456227509, -0.05832028458220522, 0.04853489912049249, -0.06014376278750399, -0.005031212647976224, 0.010256799039298894, 0.005387462157081467, 0.04098540763469407, -0.006928900287638729, 0.0550768995667413, -0.006905259108268737, -0.020432854121696667, -0.028895434496833284, 0.0662242527836192, 0.046704782946988425, -0.021696555455546565, -0.0250135464866589, 0.037908212943182654, -0.009528335887324954, 0.03768822334528683, 0.010406336172154602, -0.02923481056647409, -0.01602644741792945, -0.030473758086581627, -0.03194294991308651, 0.03394803906292016, 0.004342958383444064, -0.029849649629986236, 0.03847250387379769, -0.05442574303379429, -0.012328082026329849, 0.07425988012058245, -0.0010510726521179201, 0.026361830653478406, -0.006633435819742046, -0.030273905504689412, -0.018311283490760565, 0.019646219650179583, -0.012390284076777225, -0.000610373726166825, -0.0625888879931576, -0.03598038587342268, -0.05389896123579274, 0.012710839344328267, -0.03262296417482323, -0.0006813402367991635, 0.01705316767623443, -0.058755226271553766, 0.05103057105028301, 0.03516913392688482, -0.009998226881481111, -0.04318814714292258, -0.014625192150868816, 0.06624995276291433, -0.020552106285111112, -0.004613001477491496, 0.054551204586282556, -0.00771744935126385, 0.011460993681469578, 0.0023121313243277706, -0.0039122799359328645, -0.023246014974114396, 0.020432232122687174, -0.04288921721771553, 0.030307766332378916, -0.010643433276585103, 0.004559474315129854, -0.07970736434747956, 0.03147141442330895, -0.017270847802722672, -0.054439347996421285, 0.022861992856402613, -0.1077004212783184, -0.029439883802050506, -0.04642512281555967, -0.0256635295953482, -0.03207681531334985, 0.013166969986600417, 0.00034919063628362907, -0.019080174252819437, -0.01641312182355581, 0.015305318670039465, -0.012063674852629063, -0.06514852416618405, 0.04793235477701402, 0.0016903119958800255, -0.07059457454810301, 0.09031462693679802, 0.04268941307047778, -0.014803589730708893, -0.061824144233599575, -0.0013469191282732221, -0.031494243451966886, -0.05094610745998315, -0.024904129258496388, -0.0006271841951638046, 0.0561877933723266, -0.034009308558776846, 0.03219558540159787, 0.0032078931808841205, -0.018565446247259764, -0.029313173893475892, -0.04355052444181967, -0.09356275674246982, -0.011307341722037593, -0.06697279732601481, -0.04372575276155327, 0.036629338857437244, 0.06219796973003714, -0.010997581168018938, -0.031332628575762494, 0.05646046990378467, 0.03587498740541809, 0.014916217815452585, 0.014013570045314328, -0.035715785483245506, -0.02987154689294514, -0.03502128443905649, 0.00040884541692353825, 0.04866137174710958, 0.04832029637331512, 0.08235595585095809, 0.015207870320280143, 0.05050115596327092, -0.009682939588479753, -0.0290704431038667, 0.007010243385726866, 0.0017975830833205826, 0.009631128722400325, -0.011341446098597729, 0.008740754528254766, -0.032610054058027305, 0.019538638995095437, 0.05435955884633765, -0.0005049809724776513, -0.07124740124159677, 0.07409031234119337, -0.004960418400152269, -0.004645468507384623, 0.04271750167823486, -0.012625527410249816, -0.02008990499931065, 0.0009860943206513632, -0.000804247099178688, 0.0841195380368421, -0.08039092685059762, -0.010106803250389202, -0.0114887584701684, -0.06804377620505302, -0.03951833690647864, -0.019333975555757117, -0.003906444909221971, 0.0004997704095821877, 0.03965703157325722, 0.051913073827136884, 0.033975506384185644, -0.0003230036995196185, 0.003881270509093659, -0.08356507783223516, -0.03823785303743779, -0.0010738903425390224, 0.018931606721648352, -0.0315756712771788, 0.02801774808678067, 0.07364374934750344, -0.016702251238573558, -0.006167763137874879, -0.01702262048812425, 0.04422828875336434, -0.10715755002453131, -0.0034234627120845328, -0.04947924042192453, 0.06920398676568744, -0.03546254883766196, -0.009521962202409678, -0.06548757298472552, -0.027028005997874627, 0.002506596655786839, 0.010855422937275018, 0.008757064673626119, 0.03309225834542225, 0.030329027046895326, -0.011687874318754581, 0.012380791013843607, 0.02010787877394254, 0.007032321778473474, -0.012293006196114389, -0.00041784717461389165, 0.015079048826743489, 0.03551950987703005, -0.06435180786618, 0.012106611193210812, -0.07209781418920491, 0.035290227254822636, -0.0752817220471383, 0.019410516890870012, -0.022263864993469253, -0.019344316754167583, -0.05893650972656203, -0.025156908330474927, -0.013704517387195119, 0.035066276836759225, -0.0004359802645797501, -0.030391731619860654, -0.020957070134338375, -0.004022893381549889, -0.050569934597064485, -0.0034529386090593143, 0.013663624368298884, 0.0068798287160096875, 0.004099608388708303, 0.008160485724272437, 0.028387585851703114, -0.012912900217538485, 0.030583147272332682, -0.030218871503592006, -0.014950983305056178, -0.036308595521901015, -0.011575754653700887, 8.305606853604778e-05, 0.015091431038392713, -0.01057441215272884, -0.02431204315757425, -0.010846499017286413, -0.05525874875846316, -0.004957151455575915, 0.021446965148342694, 0.04388325284317844, 0.012901583984731707, 0.022614202731741997, 0.002763711501640615, -0.01043724012946388, 0.05933106742915787, 0.0074868512653357595, 0.03947577944782882, -0.012192215606079209, 0.029746506231297633, -0.011228122406054003, 0.012221964358778899, 0.03010532019254993, 0.007693758382745685, -0.005777493773540244, 0.024044426867069146, 0.024261424821259432, -0.05567357150559974, -0.004183282040454455, 0.023715733502240238, 0.0036136600806774394, 0.044680903328162484, 0.02095785863682047, -0.035550585284065045, 0.04302869255288819, 0.03604850967261344, -0.037013148922192804, -0.08248211835791262, 0.037571296211147465, -0.002866500606002645, -0.019822758322694985, 0.03858121239620936, 0.017326717651643682, -0.009317251797710556, -0.046964465718209635, -0.039611429228041305, -0.023962796372666125, -0.018729533589531593, 0.01788266943541521, 0.01398705011375952, 0.044300638224110754, 0.07202986277438637, -0.03163380260168021, -0.011958528290803763, 0.004336089645583501, 0.020902828202457112, 0.005102860439289119, 0.05374535098622588, 0.01244246248937696, -0.034480465605860766, 0.00611073813700697, 0.006332503596037239, 0.03748301823304506, 0.0266659978219778, 0.04312393287907977, -0.020461777634385035, 0.001400957732323404, -0.03265571952668785, -0.022120811784634296, 0.009433768784565373, 0.04407859422379837, -0.024026217363316657, 0.022136657241632707, -0.02156369914618382, 0.018699369782797067, 0.022082361267938246, 0.030531822042319696, -0.0018884990527121182, 0.0036113991953616834, 0.0017746000534130224, -0.02374963126870027, 0.04981248813335425, -0.049976191791499286, -0.029640710588155362, 0.007402473612252413, -0.07172696846011828, -0.09548532434786244, 0.036459310613275904, -0.00037410492676751245, -0.052028994666162356, 0.07218534196889863], [0.009631844413334062, -0.010366459599165248, -0.028679612141190906, 0.03710888997642646, -0.018208618016494444, 0.020642280092458606, 0.0438887477906545, -0.008268368430238027, 0.07227949010270497, 0.007047256563648301, -0.009784918777049512, -0.0026398510723378735, -0.10187520331503057, -0.010689801053602106, 0.03300430407634393, 0.029840217839525816, -0.00395921693163559, -0.05089455284851277, 0.07055403842244826, 0.031991628380080205, -0.018054822970851616, -0.009266741877891628, -0.012187124375080113, 0.0323221313749994, 0.00840437582522232, -0.010197578829475034, -0.009475258353253028, 0.014683404593589676, -0.0025601519905161436, -0.009935754819096514, 0.01904912692199719, -0.026532956344489263, -0.023705072578867874, 0.002049541729406052, 0.040763128088485825, 0.05662555201265357, 0.048718851427407825, -0.05309418397612624, 0.01669313130567868, 0.0014890564982733964, -0.029208498977077706, -0.02936937042594702, -0.013110524662930036, 0.05220082040365344, -0.011592264574572993, 0.045334639397979375, 0.04256226586756122, 0.01609728695629808, -0.012247798037017421, 0.014982877745263518, -0.016565058291711458, -0.11639799001763114, -0.035345646392681306, -0.025909178658605658, 0.039754890427330825, -0.013932080437066533, 0.03199490704285726, 0.019947336534015998, -0.039862781787946076, -0.017993889412165696, 0.04524968000491435, -0.003058273236622276, 0.024194005371829225, -0.012726928369072885, -0.021847441247250424, -0.05305237097880712, -0.11383564699684155, -0.0002186898868683165, 0.03720975137710233, 0.0023575366964791148, -0.09846882974366902, -0.02724910569257326, 0.025615715961388567, 0.039064161341658986, -0.025535262233106894, 0.008784612034329384, 0.002019356511000847, -0.030504323281747934, -0.023000863992965664, 0.04535050942848359, 0.03551496799359191, 0.022287559032074217, -0.04478222948910464, -0.0026790765865976193, -0.038435151418666165, 0.0613527045836972, 0.004266325766609593, -0.03690853868412432, -0.017148297383814706, 0.004476088789730984, 0.0025857337209088858, 0.008772026321781694, -0.027944555756586654, 0.05271262901497851, -0.01743295467143354, 0.04599333817150032, 0.05192098030539684, 0.011379766274467351, -0.011572208865158022, -0.01335833696540154, 0.017557766052864434, 0.020420169696554333, 0.027074951151404614, -0.025938952200260896, -0.025600469094318068, 0.08711736249820065, -0.03916580130180561, 0.0226422149017021, 0.04329518806360838, 0.06285244034667815, 0.02990128314877096, 0.022336348868604427, -0.006435377497698133, -0.014921568525825123, 0.039299716005628066, 0.034507682512244835, 0.00538002326922679, -0.05229090910828877, 0.014449162881643936, -0.0667712864381391, -0.027315252220005547, 0.06895188436392438, -0.014872240579345226, -0.08756102735019498, 0.0012205514626312407, -0.07886600321238373, -0.004275766140452194, 0.07286508002358855, 0.020818507915167567, 0.07472628037244486, -0.03743659772226546, -0.027527378626261576, 0.015316924483255428, 0.03686629079157771, -0.015575803102921207, -0.01019102389385362, -0.052061484556782646, -0.011074355795273168, -0.016768355548820283, 0.04952135542852085, 0.0007115092613951408, -0.02000042467028881, -0.021256012103143235, 0.01035487486037117, -0.06023798296051311, -0.021664886532701867, -0.030814704867394415, -0.005008367998609168, -0.01549772200737978, -0.032698010906570325, 0.0009215476049946413, -0.050301187975949666, 0.005482126374013373, -0.04979942995275775, 0.0012692255051418876, -0.04127589966165462, 0.043010514585437254, -0.013908493329459048, 0.01922829379940127, 0.007559855404083081, -0.005174412498978173, -0.006460958370644993, -0.006663308329484512, -0.032072609790818205, -0.014741738074975103, 0.005646708930190562, -0.03781420473091806, -0.004757555359329748, -0.009241270980722267, -0.03150627516126509, 0.014347170619792867, -0.009790108597791213, -0.001605933509128742, 0.004416406685055238, 0.08285047254152005, 0.04228395791354629, -0.005191462731815659, -0.013666398594840054, 0.03169671071942731, 0.006630910872127043, 0.02348864427260803, -0.019094804193142086, 0.0001702736309164649, 0.02894145872794923, -0.006450565600929781, -0.04252899331914381, -0.02004929499130318, -0.002874702827092095, 0.010731146538380516, 0.05375277661049365, -0.019662929549538053, -0.028641137527633143, 0.0014564526797569265, 0.005941779888386288, 0.046501776915423426, 0.016275365166357365, -0.006618724155840764, 0.027842872685171563, -0.021371517067348175, -0.029163036457917853, -0.031361853102032364, 0.027103304330756896, 0.031205379477936463, 0.003965273835354667, -0.11955808483844879, 0.016613630141464112, 0.004612780013500844, 0.007629419287635968, 0.07991143605088187, 0.02119830270513082, -0.011808509589788218, -0.03903556869807052, -0.023430661981909445, 0.061475912985728465, 0.023549655395880116, -0.029239217037543966, -0.006668235605457577, 0.008425253667008241, -0.008227909657882006, 0.00817068934058466, -0.0013066369541003347, 0.07920888993233427, 0.057509890848091404, -0.06846471273001634, 0.0021728442406283967, -0.025207501365511, 0.012830094913009798, 0.012148597860212619, 0.006819021092760557, 0.02355125512797269, -0.0018575287923207656, 0.0034188196000953515, 0.03188751644053309, 0.07464578336678941, 0.02709214385860714, 0.03700057418541176, 0.02155046933649773, 0.023310515098799917, -0.0005368045371523795, -0.013008224010340248, -0.025365420585016455, 0.03568215561618434, -0.022077438622504057, -0.04704722896280705, 0.010075090238447828, -0.013510358057375611, -0.037801737027941235, 0.009203372798807613, -0.0004848568324331263, 0.043577465672921784, -0.05132958877186005, 0.009883738833351334, 0.07796339762692943, 0.051233434221497086, -0.024955405257781095, 0.02766848688780722, 0.06724877956176593, 0.02072047671277921, 0.02709873227637717, -0.013456234900876666, 0.0011843425401035315, 0.02044651257731549, -0.013321187158694412, 0.00715903887606849, 0.015700394791509812, 0.01622247509607738, 0.024205818814127342, -0.018506752081446108, -0.02207538959658779, -0.007920086066217838, -0.0459553225584206, 0.010204683047079515, -0.010080916950736353, -0.03505060331652583, 0.028990655565398104, 0.060849718112695794, 0.03071256331795998, -0.008651079144960754, 0.003183762287743327, 0.011100091263065206, 0.020324575583090868, -0.019281410448423297, 0.03234648914479459, -0.026402953607534547, 0.0217299616745863, -0.0158505168891304, -0.006185190004158552, -0.006868606524195756, -0.00831897833119743, -0.05875551588421405, -0.004839874073358248, -0.008409089598429922, -0.010036203617245323, 0.020569600891336658, -0.0607063443374533, 0.0009779535892053182, 0.017915139273314826, -0.03351605869699401, -0.029947698499656422, 0.019379851506298684, 0.02820668041621358, -0.025343511112898957, -0.06519971954930621, 0.011506653839565869, -0.009047339972878304, -0.0038423438629020287, 0.0004731357484588775, 0.008424933569472558, 0.02488522011697906, 0.010260331902715997, 0.04842319997564486, 0.0022021482244212287, -0.005132413879994864, 0.01476204170773125, 0.008995447198634548, 0.006534101689506809, -0.0043234814650732435, 0.011858139174628786, 0.004830696252151791, -0.026649445726965714, -0.04548492503872329, 0.021284617686818018, 0.05673596949113625, 0.020826985137995413, -0.048188961738722835, 0.002403904623013152, -0.017680033954071344, -0.043733916849974075, -0.013009769073671016, -0.002147602916453061, -0.014394925917554098, -0.052113121548149094, -0.042389029252515274, -0.04902438040997678, -0.0009314159381840465, -0.0025900999145796982, -0.01058234198117903, 0.004581594890614808, 0.0243517725757887, -0.014528442197612065, 0.04569840018238509, -0.006658723239686091, 0.05404262470910989, -0.04302896243956089, -0.023807006979589547, -0.024107639745308954, -0.06898276850281067, 0.010813654864382976, -0.050842533266744185, 0.007979587021057314, -0.00820181664430585, -0.020779696507773424, 0.021445804523138344, 0.027126044351767187, 0.024237691013571403, 0.04314618957387751, 0.0021832442192411443, -0.014803553384561935, 0.046757260440876455, -0.0027598865686502255, 0.04661836354085251, 0.03354159604782481, -0.015663702051358516, -0.08563382121588321, 0.014362946530824141, -0.022706932771722255, 0.008423746707885675, 0.0005986295802083104, 0.023160254674789937, 0.00685550729066065, -0.01790542233155518, -0.014737418726444148, -0.04896461886609494, 0.037220767336589265, 0.03232777291920132, -0.011165735955379338, 0.02114834555942056, 0.007747189223712808, -0.002257616670050724, -0.015071602453213607, 0.004365730564698806, 0.018386141368103452, 0.023378876726538555, -0.006065950683803442, -0.012001596199967199, -0.014199104040527889, 0.028699131720478353, 0.021032848393783166, 0.03798932837208997, -0.03040568792239034, 0.026407188361013505, -0.025834539454333914, -0.04657694091649499, 0.007589689926666195, 0.04629808736253067, -0.07425117205406456, -0.02361310879406075, -0.0018539875678881936, -0.03349067468202234, 0.05099612080790791, 0.0028929387891116643, -0.03649779766440001, 0.047587064935112694, -0.06887154778062542, -0.0010199036912952758, 0.011164825130612267, 0.002992034797973341, 0.0133560982739, 0.017985770162041934, -0.05278488156052392, 0.03183091581638795, -0.026769249372169967, -0.005681335191701446, -0.008435589441179319, -0.019301473129384416, 0.020205045788809127, -0.04140507988424839, 0.002437630845496443, 0.04027715651894052, -0.029679626035225153, -0.051699550819351396, -0.018489414315136503, -0.07301143311096232, 0.050773905469806466, 0.025405144065616617, 0.06233672443378562, -0.01956406792055901, 0.001789462364645284, 0.023776260482297525, 0.02137347709188919, -0.002815815362761409, -0.012614406608801827, -0.0362738739672187, 0.0050328983463249575, -0.01606200404168496, -0.0003168613995798746, -0.04832185322588061, 0.0397350950323984, 0.00325923457606146, 0.09729697265752915, -0.008930771529330448, 0.02910601868606994, 0.014699987917393452, -0.028644123270213154, 0.04475529369491295, -0.01036444014494272, -0.0023869148532683123, -0.0029547693777200465, -0.004557080578279733, -0.07249878755240204, -0.011486153388023461, 0.005304146480673688, 0.007924359564427882, 0.03268413136619451, -0.009869721465084946, -0.03260285360919742, -0.010124148155808437, -0.049371034112116206, 0.03460916097611456, -0.025590296876425844, -0.08463640448602618, 0.0490848512496325, -0.03957617063988365, 0.00357917400480631, 0.013497863975675707, -0.00972978049225325, -0.001327841441978408, 0.03778346070562729, 0.014698906609631905, -0.00772899128652809, -0.03175632804784694, -0.014579597021512439, 0.03819402582180404, 0.004133948124350394, 0.03968510382380716, 0.0401677120027596, 0.0029164179680554628, 0.030505169004114045, 0.014208519592500066, 0.039359886828425956, 0.008257183077414241, -0.021257967279840966, 0.017168139247508832, 0.06629174641985973, 0.005287692025095832, -0.06001154932303064, 0.024603421983914645, -0.07929746331086311, -0.058683153494342305, 0.03174418306253792, 0.034251526977337805, 0.020475888921877072, 0.009714914177421279, -0.023271382898469604, -0.02756967378142049, -0.02628638134055234, -0.007736779866585497, -0.003641103542209142, -0.053300509268121354, -0.015743878568407376, -0.0762900146079323, -0.04793372638328386, -0.033761685478630114, -0.02549954115912323, -0.006658028239688265, -0.029521550503498174, 0.04698620683887482, -0.045597605285855373, 0.040336957243815974, -0.028670488367692943, 0.00681335413813174, 0.022334554308157645, 0.03420502035402491, 0.02436401329258339, 0.016459078923182376, 0.044450894940903686, -0.0752142884962881, 0.027654211123946205, 0.004558951113551958, 0.004092289072378278, 0.03196092758376904, 0.022073189540814254, 0.011066263741666102, 0.009599025587931999, 0.007552282969637295, 0.025428301365428303, 0.0040541259478535496, 0.001026170091505526, 0.03572569844230463, -0.011857163186454666, -0.005959378717596571, 0.061984337012881016, -0.013398165102207545, 0.036782321112465335, -0.041949694440557295, 0.007315166269636838, -0.00668355324475685, -0.023408882549139785, -0.01063897411476298, -0.034503932020757626, 0.01223517913647933, -0.06894407075933692, 0.01900302721892626, 0.014418463156253553, -0.007241904872316221, 0.028014699741221723, 0.018578576477119295, 0.05299651792613118, -0.048098922453720896, 0.0393799908718895, -0.028039727788967312, -0.035709158474931155, 0.0044287447082086455, -0.049184001071620735, 0.020454876423736452, -0.011042528268991155, -0.06215185912932414, 0.005884122386540476, -0.0664841212800678, 0.00141905790851754, -0.000832284604403046, 0.0069157989824642895, 0.025736633620294262, -0.024584560684684904, -0.028453967377504448, 0.03536634355768925, 0.0024877323047184235, -0.0534584451516508, 0.028143352247007956, -0.021291473030213053, 0.0654348995508488, 0.025263129038541332, 0.009135585075067329, 0.018550953831756523, 0.026074840948885417, 0.014529745800489872, -0.003963080117599931, 0.026978534952638956, -0.037567266815982464, 0.045354428899408834, -0.06263826883931838, 0.0028666599218432677, 0.0014692757424442245, 0.003724613287494638, 0.05831310204779512, 0.025667590402127616, -0.0371950184474404, -0.011632299738653644, -0.016069105057042683, 0.006814119386329909, -0.025092928198879583, 0.025941160057451236, -0.00018463530287754834, -0.023433141997273286, -0.011205277317997793, -0.003999509843336686, 0.06222845325167945, -0.01117151598006444, 0.004024902326489906, 0.026959980694191914, 0.028457160909789284, -0.012881085468604048, -0.027374791407998977, -0.022029943522132573, 0.009858409147680162, -0.025328607145355713, -0.030464930022271644, 0.013040766972796972, 0.06120067399243423, -0.08813423929811201, -0.002684226948340569, -0.01572042141400797, 0.020278463859227613, 0.10194264637138958, 0.11065965219995327, 0.017721319466046576, 0.05453249521274356, -0.048782896483345516, 0.016720022695080588, -0.021606148323530704, -0.04581984479248467, -0.011481668578999989, 0.01755087711794372, -0.011060435422027323, -0.013243746696119262, -0.0007400435359408047, 0.01747191460649288, 0.0663608147491028, 0.04419808771885244, -0.025319301697967683, 0.03170988592862515, 0.0189665783229782, 0.03206976486282753, 0.02197050036167153, 0.06042198980449631, 0.040782657345436374, 0.013722079484547251, -0.0080044377461758, -0.042151039189062836, 0.015209111274937617, 0.05607742941726316, -0.04791200369626039, 0.005199504398337215, -0.022866833767875724, 0.05962118294322075, 0.039127636157080536, -0.012409124403713877, 0.008155777687210982, 0.026983378791293765, 0.010732017338847858, 0.006946922163637981, 0.0034220115504532776, 0.025530437262805964, -0.03404840652806685, 0.04127795530689825, 0.057418090778779574, 0.053083441107959345, 0.021016776496065107, -0.024511407944811936, 0.022806135086632266, 0.012062430512399571, -0.029627232872336564, -0.05574340456847233, -0.06113631887701638, 0.04044317231802536, 0.01703101621216792, -0.026846026933583674, -0.014672273318880784, -0.037383965743210165, -0.024818554504437672, 0.008700901974398975, -0.05220407882775442, -0.0307642520403046, -0.007236639553626856, -0.050985792506736884, -0.014998691542725078, -0.011200577162135674, -0.06812798808805837, 0.004510625934218617, -0.036839619973783364, -0.011158026509437778, -0.009584752811319609, 0.007345560240790876, -0.010043714510675409, 0.04365153846175748, 0.0077497573790459625, -0.037585839405275476, 0.04308891987824009, -0.03267691471116505, -0.009715486094719488, 0.010900210663805109, -0.03837185740155048, 0.002708302814756935, -0.062261517730293585, 0.028343255595386828, 0.06432598139583319, -0.004419974355576281, -0.027495942102532533, 0.053793567066945894, -0.048631899217122285, -0.02269851297304067, -0.006173168559390699, 0.008201477018281373, 0.051560523960585566, 0.02376154080585415, 0.029110272166501874, -0.0416740349881403, 0.04690375677476392, 0.016483162952758184, -0.014140088276989466, 0.013430411040723627, -0.05153250428907215, -0.09460954426649573, -0.009642982704046055, 0.02077367344709251, -0.0333207871220748, 0.02472143083327426, -0.013086293742341196, 0.07147995839475202, -0.030352838071904982, 0.012485077917364707, 0.047631347750113226, -0.07378060197558801, 0.020827438040185914, -0.062087065897928784, 0.01756648990257809, -0.03634532978855438, -0.04005512605154641, -0.022667217327169985, 0.042182721786518274, -0.043897646028673715, 0.02850325797812308, 0.0007174792091869032, -0.0663352832222868, -0.013231137986443283, -0.0034412016288207, 0.015815703575708454, 0.003376180384783798, 0.009933248768323093, 0.049336715739117645, -0.016020971624970588, 0.005169135669014807, -0.006690697640958363, 0.031670115872008735, -0.03783727012879735, 0.027424941323381753, 0.07473581578892366, 0.020124050088456313, 0.0495132357763909, 0.05377905804540909, 0.025775004024079593, -0.04772719377103442, -0.013755700659894742, 0.021287295465240025, 0.00504426454458257, -0.0312508958035575, -0.04620912659573015, -0.045108610247844835, -0.01761582262686045, 0.009113530399796626, -0.036094331963074745, -0.0026909913388266705, 0.025850907605731648, 0.0565133837690368, -0.05514878568233338, 0.0536730821608833, -0.06528801891357061, -0.020890881908657025, 0.009262312631914956, 0.0013973360201332556, -0.012224137291475272, -0.0007258073414184938, -0.015315896409474731, -0.003309139122698354, 0.03307346361394118, 0.01508937195915502, -0.007628870913682696, 0.02620383125944193, 0.009403231356089562, -0.0004119817288647909, -0.013666692011205187, 0.07703170263825483, 0.02663856270817657, 0.024817527309600868], [0.04274485999531572, -0.035624719594089485, 0.01725894601863104, -0.015783782963302614, 0.015864033198213997, 0.09631913019412891, -0.0404634259934352, 0.015598267060471021, -0.00935312802277291, -0.061209176097971156, 0.041145063879997654, -0.016160352624990094, 0.011517065019970662, -0.0009453300377741353, 0.004824330440778485, -0.032505284827123275, -0.009629911122940798, -0.007934500944653443, 0.009161150055759628, 0.013075081273026376, -0.030390273416064453, 0.03275406898645778, -0.023066562735237408, -0.029880958587378437, -0.005624859045817054, 0.03236831981022204, -0.011800276853707634, -0.017272229522345264, 0.025320835915199617, -0.0020873805403833373, 0.030993000939314074, -0.00991986188575977, -0.028060884085251946, 0.03701036425671005, -0.03878510757669703, 0.021665567444547656, 0.03882120094896588, 0.0065028446070860245, 0.0956898796411626, -0.022450982226493228, 0.009393291230360782, -0.03434838187983876, -0.012233613341897829, -0.01925011327634048, -0.006707975987822977, -0.0038558953347298977, -0.0051285634525796145, -0.021975206103533925, -0.005145821120043644, 0.033315509350665885, -0.06373031031235957, 0.0007391822757060681, -0.023471247783383553, -0.018398611434869917, -0.0018614457386842728, 0.004187178606208797, 0.06076943787014697, 0.05775626689726693, 0.06822571446953425, 0.04702102347159521, 0.08244364802959085, 0.014737389483147602, -0.060429433234590865, -0.0569613818631159, -0.038032710800896805, -0.05951551048402241, -0.012809772476989705, 0.05805894734837037, -0.034881827001532674, -0.03919612638139894, 0.0362782153056731, -0.06612852147487756, 0.009437519751670575, -0.011735319321959715, 0.10423829653251063, 0.07054155486834718, 0.028022122044107756, 0.029768245327304634, -0.03570035878095328, 0.10197533278394023, 0.056489664648809175, -0.06575003350174287, 0.03759787655809746, 0.026329869540795168, 0.049193406894098374, 0.06155684309905418, -0.022185395870275626, -0.006468136366916812, 0.0510244051943275, 0.007515919444856179, -0.0006146936424523814, 0.06604384090790692, 0.010052364823457406, 0.07245312536242478, -0.03585078541893763, 0.01338440959929684, 0.019073952824510226, -0.019223827979669397, -0.004266067319603989, -0.009838261482017018, 0.004491524193252593, -0.030393151822150816, 0.0732969389221145, 0.020645073940816713, 0.005092998517984872, 0.0734028981645167, 0.02676772298654032, 0.0014086694222634384, 0.008086950524318168, 0.024328756774037185, -0.019884435433420247, -0.00663443876310309, 0.013368425828598927, 0.0019957206651521754, 0.0018028195185098416, -0.043015487460569525, 0.024529459234569964, 0.04332985704403798, -0.007367985296547851, 0.009101683672062254, 0.001863417647356492, -0.03263969441075355, -0.08637894882534862, -0.014992338753580456, 0.06793150972408422, -0.028360299282986747, -0.017669836156852067, 0.018770869574151552, 0.00594174842311369, -0.01368111827202575, 0.019356512168729044, 0.03639659639735555, -0.025358522621639543, -0.03429070450385408, -0.03529363764850543, -0.035796216790694675, 0.03586941129529112, -0.042180489391024846, 0.0231524757705002, -0.026560209187502803, 0.02396070397935429, 0.05630370037837673, -0.011037065143609439, -0.019633347215575775, 0.014045534687542075, -0.0392625983687327, 0.0009875445987317193, 0.05932143908335166, 0.06385708125765346, -0.01920880522007123, 0.01650825749146006, -0.012694005059196463, -0.014968819025295314, -0.022756736030647012, -0.02256521424325827, -0.012952704182975916, -0.04928828078263356, 0.026268378864672825, -0.036603243316445704, 0.08416761613342752, 0.0004633301060245715, 0.06228832349411449, 0.009894538999335093, -0.02794280912377533, 0.004898976527619497, -0.005569336258653814, -0.08272447899762399, -0.023327145579280763, -0.0203415367026517, 0.01160492059994383, 0.0038355758370161985, 0.032404203251796805, -0.01789833103077686, 0.016535000440728278, -0.004188709366141261, -0.0046632707772779345, 0.004464863834603638, 0.016939229997399153, 0.044569556815182605, -0.03134632420579065, -0.0032805252743144603, 0.04053577338828777, 0.015927330171014, 0.02432132949285143, -0.024782558242978883, 0.05450542571187478, 0.010519810605192536, 0.02638967338072364, 0.06639868996311318, -0.04809778512661466, 0.005030103779181165, -0.03632249016939373, -0.04350721005915327, -0.006761462968853629, 0.026144057863953407, 0.013886516270862861, 0.03156026793466145, 0.05298433662847932, -0.00955220811167937, 0.0020527806298071363, -0.05427701263854295, 0.02855559260466338, 0.01888407058845935, -0.0038368343054671437, -0.01708061006332552, 0.003709508287394713, -0.01146361122142144, -0.0029793001220550165, 0.0651012238227354, -0.04874997115314646, 0.060487526499204754, -0.019376043303827275, -0.009553333944282795, 0.0016837338870644015, 0.023080849020415607, 0.0001331436700750882, -0.08259864302218452, 0.023475029509033688, 0.007401402925228198, 0.05578917231330003, -0.01734765024739338, 0.04233174880832261, -0.01214252250413406, 0.039515316438166824, 0.001287546632473731, 0.02603029845175761, -0.022605140246808497, -0.022962558440723316, 0.025439713837695225, 0.007865380455652295, 0.025820679061822196, 0.06298948946389168, -0.029219128605005588, -0.017999071894398977, -0.06658930726288537, -0.025481232458664026, -0.07130928938967551, -0.06709465741790491, 0.010627694336525296, -0.05581871471403733, 0.0064140364358643695, 0.013360612001931208, -0.00473678176441259, -0.010941883973333698, 0.06535734867340025, 0.02060968305048078, 0.011894172630832658, -0.013207389448156444, -0.026972730470257767, 0.003703245003672055, -0.012718547797034928, -0.11206371612339876, 0.05165243281778315, -0.023732080917841857, -0.028850861139551556, -0.017180819860907463, -0.04655754982506571, 0.02730816280899464, -0.03650800378379981, -0.00924467901324688, 0.008221455095947695, -0.040429398155257555, -0.047154543908691414, 0.02851823971684061, -0.019178263951448324, -0.004683800629593517, 0.06593680206745774, 0.05081350454861829, -0.01107681945261319, 0.010728672847361205, 0.033156142569479796, 0.009384298026794441, -0.024620137915397668, 0.04823334548124435, -0.022068868362080298, 0.024188131860608243, -0.05763466526338085, -0.007847698154288776, 0.0030227772332345427, 0.019806622261702923, -0.05717490937798208, 0.004616060853784963, -0.005457094612767667, 0.0045699599458277175, -0.007905598778090614, -0.022139724254309347, -0.008944493460440062, 0.04318377554701734, 0.011400221585053176, 0.018142970098073443, 0.020327429459672874, -0.017146652555863225, 0.06265306283325728, -0.050957726839023346, 0.02494205349755548, -0.008553394496136504, 0.018843684992717102, -0.002783766554636197, -0.09811169085878244, 0.01719035426347203, -0.05073271394625175, -0.025793380316304904, 0.019618627944983844, 0.05504263128495824, -0.013259499498710338, -0.03702402046971506, -0.004586859659973671, 0.027637866785938242, -0.004665363702162709, 0.018565486054341405, -0.047464424654508335, -0.020212178160232568, 0.008222858522410396, 0.035125585878900745, 0.01892028019253801, -0.009365061061465459, 0.007529974523566996, -0.05836245580275093, -0.024418854652635432, -0.0037039717895524125, -0.01741249535601244, 0.0335117832133947, 0.032173096253830295, 0.03562475678754128, 0.013743748780538228, -0.05167729349993412, -0.05447400403887025, 0.04853081143383938, -0.03270402317312194, -0.02142884552209668, -0.02753025872255243, -0.018488862309512175, 0.016464635756858817, -0.07799668425476514, 0.02397570966318914, -0.019344997639546904, 0.003894361533237621, 0.002956697510603712, -0.03822017787827704, 0.0007263522212491472, 0.022655675060667714, 0.02433565856397127, 0.0059910044252527005, -0.001249779488036558, -0.01279546762301176, 0.03468483373549829, -0.07109808125438562, 0.001375641637308982, -0.023558566618871565, -0.02119780549363956, 0.04038354378222168, 0.0320276709907908, -0.08361641128272893, 0.023135901876138048, -0.04012001085885764, -0.018181029529416026, -0.029852143742895566, 0.0035725684049553244, 0.03817355590959011, -0.038029571576160076, -0.0395946493159015, -0.017558233001498155, -0.03483703863608832, 0.018012959496881812, 0.005440980582137524, 0.04729431463758414, -0.014478254996738566, 0.05748313949713865, -0.022315541986881272, 0.018337391952911078, -0.05044962379337979, -0.0029953730304890895, 0.028469213169400463, 0.031328460400740325, 0.012732956749496194, -0.022115750133433386, -0.028989760297011676, 0.021165680014509573, 0.039749455549115915, -0.04177635638384956, -0.0588788175066749, 0.012791628376564463, -0.01773758635227697, 0.020538308281993822, -0.05087704302139537, 0.06898750185170986, -0.004340349923392501, 0.04599913529265876, 0.02663129139074837, -0.004164766556711755, -0.02638782701078769, -0.02263342747663322, -0.05499136333068017, -0.03094892127662423, 0.05175849394408654, 0.041189133264506364, 0.012363155529132983, -0.03185615441845668, -0.03311399262235777, 0.060539520412724625, 0.021699459033833527, 0.04485417157065784, 0.010608666498576756, 0.037938975241915335, -0.04441365253194262, -0.03478880211281456, 0.06394360766347085, -0.018591689013924665, -0.0525849505600572, -0.014778707561526829, -0.016487367224835618, -0.04450970918045709, -0.0071769598048497, 0.017327288433143764, 0.08095941721579454, -0.0006741150114100074, -0.0043393226426962014, -0.03199738296271208, 0.005452321099123769, 0.0046426201999667065, -0.005086534703107916, 0.0066648293840245185, -0.03811416939170046, 0.0075040634482011, -0.08807374477803706, -0.02296283622460776, -0.029943484176696702, 0.011581961206286333, 0.007322941477896702, -0.009856782825973862, 0.03647158487939793, -0.03214256565645332, -0.08333509160373863, 0.03697712072774791, -0.03624304424840023, 0.0038090655426983497, 0.03546466390516068, 0.017982056004913087, 0.006553947268772049, -0.0028201809412402357, -0.04251362895106137, 0.006656940624355293, -0.019523615568956498, -0.01917599213707437, 0.001871091467147986, 0.029243086520287176, -0.014452627785612066, -0.015100872225579114, 0.04764713495949495, -0.04849541620160831, 0.02676633246873046, -0.016800921032118426, 0.03165636679967577, 0.005204976174770211, 0.011606418126013953, -0.01800008673901783, -0.041694960973919545, 0.07956485831259712, -0.008981891558392885, 0.008641700641544925, 0.024646545313538975, -0.002014200162651875, 0.03701422575668796, -0.0031843956272408452, -0.013452345997711787, -0.006275090838541059, -0.06378855130330507, -0.025962956082611677, -0.019980316244836604, -0.06528626322517377, 0.023720727837703952, -0.050176210152342436, -0.06603917795345317, -0.04054253847689418, -0.006866849012754892, -0.007869531311019518, 0.012258951197520606, -0.048192181208920014, -0.020958590489260024, 0.028114624811879214, -0.0016934929068358967, -0.04399270952398749, -0.06342143442529695, 0.021720745497668927, -0.007616936532786554, -0.0327522564342139, -0.008603952899238425, 0.0267387508624414, 0.042231182982655206, -0.10233075842935518, 0.03011907626835731, 0.05046754815545868, -0.009188732713296979, -0.025988449382068245, -0.03619814531286845, -0.029257903724321587, -0.02658534613362439, 0.0478811281560336, -0.01285019741650176, -0.048432374288582755, 0.017483931109581418, 0.025664919915734417, -0.05191397959750848, 0.041929619338462606, 0.015190505432941493, -0.030989798438383533, -0.026236709729932788, 0.019336080844063738, -0.050111022178771385, 0.06619761509155729, -0.006747650778521394, 0.07152483724473135, -0.11987580415288827, 0.0054506177695985624, 0.04500941801923895, -0.02590986431891704, -0.028756370925962567, -0.027510755889716305, 0.04093263614098561, -0.01830546927751309, 0.003094702285879348, -0.04236580583190095, -0.038820362282293325, 0.023704729279276523, -0.049860196322915495, 0.07298077621252495, 0.001517808766978906, -0.03494792975166329, 0.03597030637675965, 0.02554803326424953, 0.014728908578411658, 0.052495981060134006, -0.0038762645842700468, -0.0035850687348948857, 0.030828165808410732, -0.02283543387621136, 0.019877653421273976, 0.03173351496253424, 0.018131333792504013, 0.011157729833688665, -0.017453867001867355, -0.018391237251225996, -0.01985271479020235, 0.042052730735829075, -0.013538436148223547, 0.05830089429883704, -0.008994550532770583, 0.0008827531447380264, -0.03230494547151728, 0.03696527976574251, -0.05158857985337066, -0.0048754912673309786, -0.016843099739389644, -0.06966869042651325, 0.059714363689519497, 0.04617738852406377, 0.048905972903273094, -0.05433168355796002, 0.00675631183675111, 0.034747257312953216, -0.011035794745053952, 0.0011909580897109888, -0.017699985731617535, 0.005890677688672893, -0.02509342075339106, -0.03259851307336757, -0.07165848192514494, 0.060687306222497725, 0.007515680184471409, -0.016490654627416824, 0.06934217178682212, -0.016089211387118288, 0.022249265735363788, -0.031173072568900298, 0.007088250997485426, -0.051816807602134876, -0.029140395465969315, -0.04373876090638785, -0.06619564085420804, 0.02135535658201345, 0.12804923565381587, 0.019003704898362915, -0.006244733142251273, -0.021073005938031006, 0.05150946544177082, 0.024633197404903114, -0.005443689406082488, -0.012926593209610477, -0.024213783479345614, -0.06429675700564215, 0.05639292443976085, 0.006681487245718344, 0.00882592514769883, 0.010373994095517524, 