{"sizes": [784, 30, 20, 10], "weights": [[[-0.026059713571192664, -0.04824252850147606, -0.02259998993332667, -0.014893153367491254, -0.018565038752667375, 0.02217604168683208, -0.030213176413056587, 0.01138122435208484, 0.014692962443150217, -0.06338658871897729, -0.026943834571645307, -0.007196978603815758, -0.0157451252047624, -0.0006007209254728299, -0.03024643269339265, 0.02062483846665288, 0.01697281879231522, -0.04461369758067085, -0.020779291741385496, -0.09123999728659611, -0.051309081733468785, 0.030059315779492498, 0.05164330093217411, 0.03972152098591789, -0.12166547912417441, 0.02738607728619439, -0.036336577988556155, -0.0187656194222832, 0.04226517230671606, 0.014285836583491553, 0.006688770809237943, 0.02402639262253935, 0.025826889757621683, 0.014488534592219682, 0.04951667474386207, -0.008504159040024, -0.016734834407254352, 0.06669052563391643, -0.05554464975867625, -0.015511137250087728, 0.015139576932265966, 0.03629847118612353, 0.04820154959728361, -0.010302763359031259, 0.0004892815572814286, 0.06068199328031895, 0.03029478616215072, 0.009218223917336111, -0.03920520928158364, -0.061166810807518686, -0.04442886377486678, 0.018159405129037225, 0.06158615943534005, -0.0461398508250378, -0.03850102137129364, -0.0037449239144382238, 0.027710032491792984, 0.0025583430369493106, 0.025810005165956, -0.0006453136934811523, 0.012604863505107509, -0.028047069178815373, 0.010797122509797134, -0.041911259781376144, -0.00846817038242199, 0.01849164750586654, 0.041127014125176276, 0.011104227112004077, -0.06801697653795472, 0.01799046629328888, 0.00774700455027417, 0.06539772000837925, 0.017851088737992286, -0.0013044755124445714, -0.012524235511097163, 0.01747041827336589, 0.06016795297877075, -0.0031988103827577607, 0.006444731548935246, 0.004095146462247828, 0.05370304607187161, 0.025753301563258613, -0.02205461500588272, -0.05564901675581577, -0.047800212569281776, -0.057782746100411085, 0.0038730207588568103, -0.025124038387401838, -0.05114423262838651, -0.01288838541204392, 0.01995753372078646, 0.0046086767107347305, -0.031971070765799754, 0.04090761165670584, 0.019319306553460945, -0.05258502526227923, -0.01966888771242236, 0.06208371538355873, -0.04171710016943519, -0.022834023668642806, 0.04175016706673806, -0.005643689755675535, 0.015349108186000864, 0.01626810872176446, -0.026748115088706247, -0.023096971656047013, 0.00784067927881029, -0.06720682997402459, 0.005743380663174677, 0.008235557502222155, -0.04104596820125953, -0.007389533976876685, -0.0028930605024516266, 0.0707733978086228, 0.043075489659754156, -0.044097015292409954, 0.005551038428812446, -0.03871567109019248, 0.003261301670605458, 0.0036102212383708684, 0.025773265801989836, 0.0005899388836386837, 0.0015950973498433166, -0.007766404048694474, 0.06062975033645651, 0.045092998947714104, -0.031399755945485976, -0.016621196486886904, 0.02947827356437151, 0.04875917010902767, -0.010961163720182986, 0.0012173647991119312, 0.009067708019395463, -0.0802870224024406, 0.0020105985994497734, -0.006024651065532314, 0.042021248436053246, -0.042300219552463034, 0.00017078697942403642, 0.010605929327381709, -0.05970686827090658, -0.04074749149394527, 0.04292791238269023, 0.02401629658733697, -0.04210017616612327, -0.029445893340629567, 0.004083283484995777, -0.047326373602016726, 0.045644549998973015, 0.004276693949675423, 0.026111737886481783, 0.04430225335990663, 0.05224009628775457, 0.04829002341717339, -0.0002833296202227637, 0.09449704818588003, 0.0831565138018395, 0.10706201801574156, 0.08707610824291694, 0.05365416577999489, -0.012060045796662169, -0.0006650679502381289, -0.04447372092796377, -0.0216607191974966, 0.009360805719600254, 0.06063748512786359, -0.044015132937446404, 0.0067808896745552155, -0.035252239446249514, 0.013884614624188002, -0.007212311110170134, -0.017082717629970868, -0.001583560327306845, 0.0364614424747405, -0.015050230044132959, 0.02909353392017631, 0.0328653951902396, 0.01655149966531459, 0.0636391017141558, 0.08934742572066715, 0.11359547034296719, 0.10420875288528646, 0.06954731871749718, 0.065233130433907, 0.14464327448331543, 0.09934190510296442, 0.045530347569761494, 0.009015212470475376, 0.03728838236386374, 0.020438165878052052, 0.0326854540817991, 0.06114366329315176, -0.016214880977716523, 0.005135238293892621, -0.028268384203674685, -0.038904208685197596, 0.01398920464433094, 0.030741162377928368, -0.02976833424230283, 0.05327763496425792, 0.06628744939807418, 0.02197019459535773, 0.04078014885118381, 0.004739864891631776, -0.03799273680752035, 0.05466971314120193, 0.046054440992382185, 0.07917300152649101, 0.012540287013511987, 0.06800493953142414, -0.020568997776269436, 0.04978817562228579, 0.08839411751272933, 0.041760666536633746, -0.014157004133882614, 0.03183455331575922, -0.03665185458637143, 0.018341453835604093, 0.11525559940497267, 0.0009512845649213177, 0.06052870052364246, 0.014695449239724458, 0.013294634873781755, 0.04823658286554032, 0.006001442231627454, 0.06534583222444044, 0.03578099583870482, 0.06463887504584617, -0.03747186765219207, -0.0659921195307017, -0.057280145321768214, -0.0406043352479178, 0.010204421800885143, 0.027619792602155885, -0.02525697651114012, -0.013291898283036625, 0.006598257741997885, -0.011657261033056513, -0.03909323608992519, -0.08148405171654942, -0.053371548091268296, -0.016881368719605994, -0.0061956438176647925, 0.022539194356204086, -0.021713421898516997, 0.021378391729942398, 0.04613544899737336, 0.06380519453396277, 0.02902012681656716, -0.0011668013474951642, 0.018166164264888263, 0.0013394455293306363, 0.055462293811855204, 0.0038917263829049316, -0.01939356738333179, -0.018335417358828966, -0.02569954515105561, -0.0850933340729296, -0.06148016612682704, -0.02795526460203345, 0.015914900026564045, -0.05285678576362833, 0.03019666597906596, -0.03167837490716505, -0.009707226868066653, -0.03833882635771862, -0.19803824378655643, -0.13572296132010175, -0.09075231814905194, -0.06844745846305858, -0.028507633349055463, 0.0117408716797255, 0.029074321577207306, 0.013171647943711666, 0.037406733731728196, 0.07718458012024099, -0.02066492720489801, -0.028670952013592894, 0.04241459351256473, -0.017707266851657508, -0.036725098057328355, 0.0122326723014715, -0.0031248501309450844, -0.040773422013157104, 0.041087789620467746, -0.029576018557484988, -0.05230226027868889, -0.03602598274269526, -0.0074834687778569005, 0.016890660722142424, -0.006882765570900775, 0.05814279007670831, -0.004369059237521593, -0.07246947732936634, -0.05867700393196796, -0.143181134799765, -0.15355309424459607, -0.03128364424620665, -0.002873411489711756, 0.02215856033790115, -0.01647283899045578, 0.02544655353187641, 0.05543441630678976, 0.0180731265545184, 0.02306881667537949, 0.033085421890380697, 0.014851240741683442, -0.012360825278580036, 0.0012132670521615783, -0.011882617873113455, -0.014593256086368038, 0.025675967742508448, 0.008348022448203964, -0.015561147890482093, 0.030054971680120796, -0.04927613631962382, 0.050063427512022134, 0.0683427772751164, 0.13097362474555482, 0.1656378127483543, 0.10507643063768433, 0.04772206379461213, -0.18268533547140112, -0.10608071980072113, -0.013016731076940116, 0.037805733797862374, 0.03921256612382636, -0.08283478834522448, -0.016529474407615454, 0.02026347845449534, 0.009827102417542453, 0.024644366205748162, 0.01369908637175071, -0.005783698109217869, -0.04377936154997423, -0.05698303303875136, 0.06682408416629741, -0.04169514643090893, -0.02615194388894972, -0.03728678861301179, 0.01252093126683927, 0.014710366943919945, 0.03296478369817167, -0.012105248385368986, 0.0826982515456924, 0.08621315286889154, 0.1680606470523222, 0.2546086227642487, 0.1523622505089457, 0.0622855998385287, -0.062487026712348064, -0.10486673019346662, 0.014644404969691334, 0.07247978574583014, -0.011551790805143675, -0.06002564721666173, 0.008584720911099542, -0.0036101170428387563, 0.06267034860355038, 0.08928716026234224, 0.027677410282870272, 0.007895108766327662, -0.04447267581139307, 0.002945619836151452, -0.03423946628975469, 0.011282608773811213, -0.0238600749693884, 0.01955749029385618, -0.09472890013547561, 0.007356164548941378, 0.038781984167207066, 0.09873221325561948, 0.11172382062276168, 0.1507575532307737, 0.258487646300665, 0.3781702216164419, 0.2027745149536683, 0.12983572291264325, -0.06299060718374842, 0.018864731570573057, 0.12623622673083057, 0.10197654765779658, -0.04229124951532226, -0.04556461659190226, -0.036692525084121526, -0.011548380571589096, 0.024100109321766768, 0.14503825535284723, -0.011744027694302144, 0.004699101091580975, 0.04355287967536233, 0.02652494344802957, -0.00762833373681808, -0.021800147274754832, 0.07126446849291851, -0.0003939221090331915, 0.06141419872844852, 0.061678645508607945, 0.06720340540974783, 0.1315728972372938, 0.21750747623662306, 0.13119541203692944, 0.3515636502378837, 0.24251939758774987, 0.22175218131170313, 0.06349042627025846, 0.007653533287652901, 0.08732380980148534, 0.14811831796032668, 0.037319903375309944, 0.00010352885448969247, -0.003422569694488742, 0.03405235551198414, 0.05870878465411187, 0.14243755902073674, 0.019737450540484702, 0.0564745526144875, 0.0724154216470551, 0.020502898191734065, -0.014588566454168552, 0.004433131942656199, -0.029147589156534186, 0.01288577461008434, -0.02085361871798523, -0.021988198064827897, 0.1126905404375024, 0.1154140954209522, 0.12015548028642278, 0.2213981161928222, 0.24279006005667095, 0.1841223744177494, 0.23184852122837227, 0.19822885795448614, 0.038266139814903184, 0.06273273024393042, 0.0339600897098028, 0.11908303005644577, 0.07803678698174737, 0.028773855807700335, 0.00820080627572141, -0.039977462095229475, 0.05589149341154695, 0.07951650699512672, 0.08085176397957922, 0.09436897609299967, 0.006246560468098031, -0.008218036829186587, 0.01693391817401094, 0.06444039231333773, -0.03744572289099976, -0.0422218767115109, 0.032033020680677295, -0.027089038211062868, 0.05402826789454613, 0.1318189190206727, 0.12676885510753363, 0.22544550238334568, 0.1496146671366139, 0.1625286244457375, 0.17524367570225916, -0.012529551537109131, 0.03190237677401249, -0.018936808564139533, 0.018504591396711442, 0.051994121480028944, 0.05443226917202724, -0.027891319369318227, 0.05277493130844901, 0.034375045105941526, 0.01020344326927279, 0.06786223416162425, 0.018177402111809526, -0.026208246531801458, 0.06766465511374882, 0.016630202651653454, 0.07599563688982494, -0.0016931878260397167, -0.0016901572542004722, -0.0380434887491024, 0.05151504026446791, 0.02201457638198932, 0.04440139441006421, 0.0984945643357827, 0.09878230068411055, 0.1516817787938399, 0.04897469905878333, 0.08419068081179838, 0.06250844873368296, -0.002590556798635281, -0.006551402626942788, -0.08799452571969946, -0.037201527577862936, 0.06728907281468591, 0.0713226664603456, 0.09036133472971844, 0.057020330130302464, 0.019351158411615336, 0.02973704561528237, 0.046594804594254705, 0.0709537692307283, 0.041203497786056247, 0.007527656387689002, 0.009839675102586098, 0.004312459005861824, 0.01353604305742923, -0.014812633368198873, -0.0017709433549577165, 0.0073869930812794195, 0.087371173240904, 0.09408175695129972, 0.06520487070751374, 0.08620569448353345, 0.13323679653444456, 0.07465719805265635, -0.0070954364115990085, -0.009794520755943368, -0.025074373403729817, -0.051797575143308974, -0.06275685454634923, -0.0034615413478140187, 0.04663035380914686, 0.06092306394578162, 0.10312625760278268, 0.04686555421137322, 0.08135421629385697, 0.06321825515688753, 0.015727799007400574, 0.030824162012996783, 0.04996308522979428, -0.016233838111632003, 0.04615090830326876, -0.00017915980611288683, -0.028801601691174034, 0.04450035064579133, -0.009938782776901172, -0.027571163736586937, 0.008612905605255095, -0.030150275650015462, 0.07746355807615954, 0.0647266345732353, 0.11631343127179333, 0.07583066896743026, 0.030852443220458613, 0.0566408121737941, 0.0841064789963674, -0.02204418133978961, 0.002593204583399357, 0.005061280823557653, 0.03983868818949876, 0.09179449730696845, 0.09061687695825361, 0.17678835947989321, 0.025538832897551045, 0.04380653977065128, 0.02958099817452383, 0.07303267125613613, 0.03413710770142261, 0.012898813070766124, 0.04151020729183732, -0.02134711069635593, 0.03280292146181404, -0.031069338278921693, 0.03581857737840786, -0.06502910545338184, -0.05560648233610934, 0.03502576075190925, 0.075222709511071, 0.09796471593180361, 0.0504332048918375, 0.08012530468917184, 0.08853356944821991, -0.017766029807449766, 0.1134128357193214, 0.038804766616774664, -0.032851745712179484, 0.02576925886463868, 0.06638912327867895, 0.06377873225239608, 0.08679756231314434, 0.046336909816477326, 0.030069517107772177, 0.0643798854108224, -0.0008505355130390914, 0.011085580863880087, 0.042221269475445966, -0.04456373546564774, -0.002715681476858254, 0.01497729629590274, 0.0343031472023028, 0.013704950688940022, 0.02194857024193861, -0.012674592808982608, -0.010430572896886016, -0.03299758025017106, -0.06579148767297714, 0.008829044515958387, 0.04378857173824032, 0.038294399773547746, 0.09843090033146487, 0.03260579056396201, 0.008470828092771358, 0.027390823227074576, 0.0701113526537455, 0.011850781233505709, 0.14197141679318723, 0.024025631588943847, 0.059456081091492176, 0.03788794092605823, 0.044897144666984724, 0.04992136776498248, 0.07350856463818754, 0.006492240958055656, -0.008094057772942228, -0.026341909563536173, -0.01025541333307649, -0.04049039905623853, -0.0039713583810683795, -0.02104461175595256, 0.0064878211630811835, 0.0037902992283009008, -0.005674973630060348, -0.031573460194311384, -0.017727308626531296, -0.0032055938761903647, -0.019055545137962933, 0.027358794576619, -0.0028056074255787483, 0.0503470003119512, 0.09861321754332651, 0.10472465642625425, 0.07716419764035791, 0.022236969178372163, 0.05995593079098687, 0.02760176091540415, 0.06134099131957809, 0.12541914537965446, 0.014159766975191796, 0.12275465495205527, -0.04442791078208413, -0.00898409201567062, -0.02916577125352934, -0.023421094613257077, 0.016081239293440016, 0.02957339148638012, -0.0040951582641401, 0.04254544056126027, -0.009962224970036564, -0.01591793481771123, 0.009413230114189288, -0.08016095899861818, -0.030864877661442577, 0.010382043990000749, -0.05367085347098142, -0.03948545057541033, -0.01626307870736069, 0.01546664657505004, 0.05272060740226795, 0.08284145493421025, 0.05151153912607762, 0.011011440908961863, 0.08697535356804557, -0.0031666262185558753, 0.05125906726366365, -0.038994814143624545, 0.07732753525020968, -0.04601476557357811, 0.03717602135844937, 0.0017433162283516923, -0.02082472505211418, -0.026308280939635456, -0.031501653756610876, 0.004493975202235852, -0.014856978443093255, -0.024068483996016438, -0.01599831019408064, -0.040332835175355436, 0.05141672620080459, -0.09637820048547226, 0.0007444028955805921, -0.036491353961717723, 0.011123255550647552, -0.013908715571703367, 0.016280906679614612, -0.03895738230797379, 0.028874488955856963, -0.026105828029169664, -0.0024761960528331935, -0.02474863340629643, 0.08578009541289318, 0.019536332416963283, -0.053529010423286734, -0.01569498319086887, 0.013958520570973115, 0.007652732585192322, -0.05827372283017219, -0.04587048887845945, -0.06380671220559972, -0.01966278344957906, -0.006396045430937837, -0.023486435962630663, 0.007967764635964308, -0.03434636113275261, 0.01982250034071496, 0.010566489433524244, 0.004336403518472485, -0.004306046719519415, -0.07058884105120604, -0.08188994360104494, -0.034792844138803986, -0.06270240607520496, -0.02434332345271638, -0.08060335394465364, -0.09544680334452509, -0.047975887096632606, 0.0108391908048132, -0.023278981044537427, -0.03880917577992732, -0.05366126446713134, -0.025316076143517025, -0.003991379561027315, -0.01924946188708366, 0.03148613383850325, 0.013033286189511028, -0.06372365595872609, 0.012248835008890435, -0.02677291243819137, -0.03479864828602933, -0.0029204750996742984, -0.026788134526711298, 0.01223061679108916, -0.01836156152235847, -0.02152518790012147, 0.03429979421885563, 0.048345378685646784, 0.053995842721985585, -0.015533421924463641, 0.03278063652069904, -0.05527808818979405, -0.06040010283483024, -0.07392415769779097, -0.0283353145477534, 0.027956900083654968, -0.06278019345715503, 0.011616210152992978, -0.021923989722089483, 0.021247835217679464, 0.022882100661893175, -0.026597347930679274, -0.009530940388580137, -0.00478008859697867, 0.003593663963293251, 0.032429021877543485, 0.05913043795267397, -0.02214745215559104, 0.0013535444924723024, 0.03957997442029272, 0.027255186276184097, -0.00888246570196534, 0.006963415328455304, -0.014604431637698421, 0.034894171446869036, 0.032600659791164964, -0.012506484312914307, 0.06119097447203766, -0.013238121097150165, 0.04629564608932215, -0.009646823191563405, 0.024896485069243798, 0.03610972541354406, 0.06464457254235494, 0.0001370094735786401, -0.0375992532195207, 0.008728532424315597, -0.014759955604303066, -0.027024010734550078, -0.05137444211512553, 0.02063439236092095, 0.05708238514524655, 0.045667309041295984, -0.017614938676430145, 0.0062605756094884476, 0.03163987370756666, -0.0804768201620412, 0.007298015675332818], [0.02400064342789848, -0.020165678447960838, 0.0924482871258932, -0.07983966014525518, 0.012826256619455384, -0.009234030060837934, 0.019122756712991948, -0.01424706362657158, 0.01195050614512027, 0.008209224333288707, -0.006198351609797124, 0.022210189754424986, 0.02315027399458695, 0.022832307237784275, 0.023739281579786924, -0.04306406296415001, 0.019488436513374507, 0.005348343066961362, -0.014815707061772465, -0.0030798342643586453, -0.0013319532303501494, -0.009557411780003328, 0.0472306467572959, 0.01168448137013887, 0.08055384616252241, 0.015728129695630817, -0.0050590353897000985, -0.05958314040170836, -0.01602885492860203, 0.04893382857330993, 0.04347497785332652, -0.014476165022189385, -0.04919833262949065, -0.040114959680668624, 0.04015658541977893, -0.01603183104065403, -0.01551940352665682, -0.041369014091441766, -0.0026089525774937125, -0.04246824941170235, 0.010816159012394584, -0.01928523838731951, -0.021269548730083822, 0.031164385429946807, 0.013856616930688459, 0.029053392900426092, 0.03079937155308106, -0.02465976221173819, -0.005844507932436882, -0.03142324660658435, -0.03640614691041748, -0.0038286175430729402, -0.017097429554703416, 0.020809208356885163, -0.0009704412525197225, 0.041156185851543264, 0.026291333610026023, 0.0018007679963304667, -0.03473330795824776, 0.029839263976477046, 0.06536124614474935, -0.017594110893304676, 0.0320052923311249, 0.009044265730522246, -0.01659475826701273, -0.00023229327442500847, 0.02447868417333705, -0.0019359517140750838, -0.08780954106702585, -0.03112037245239355, 0.015694985228544858, -0.04031452312787073, -0.0288458335793981, -0.015994793990803075, 0.0013030511043273338, 0.014052397752363631, 0.02764142305226281, -0.046848241354046215, 0.018176290922606805, 0.006866026588339111, 0.0004729001217174224, -0.020828172732462378, 0.04987082052335857, -0.03330226991235972, 0.006126026627110092, 0.02099316442211989, -0.060603981704003176, -0.0026142827097994548, 0.01732405703852477, 0.12244313513764302, -0.019639866466839875, 0.026504200104141215, 0.0764625881892847, -0.0389067248391551, -0.03807797393478204, 0.040595138842557034, -0.01887544442507641, 0.010650310118878523, -0.013479961566029075, 0.00326025448276697, 0.05255767153244225, -0.07568348929268146, 0.01854713882043691, -0.02689335547895967, -0.028685479261244814, 0.02397295137389656, 0.0016606857247187328, 0.06447782083156896, 0.07854503157875485, 0.054885638558026924, -0.00018490835382191113, -0.057277294337372955, 0.01867309419054979, -0.07157110620227644, 0.01321393044573344, 0.03315318301402437, 0.0892845708913761, 0.09011489768028993, 0.07010116326668435, -0.010947058625815333, -0.019079063492438684, 0.03428028014024051, 0.01716055239040853, 0.07025626014318061, -0.0016028904506825295, 0.033699924844625154, -0.023380393780295355, 0.025187381601319087, -0.02397451460120923, 0.011530094867193428, 0.054997819379916324, 0.08155016526821585, 0.01011105947466137, -0.06039322774553449, -0.005273173980367963, -0.022248885838968595, 0.07114035571900108, 0.030009123935493674, 0.019537052451469434, 0.009977123054709307, -0.03043706575956758, -0.013168299821812461, -0.007945773102008297, -0.025725047745440866, -0.004856298106444902, 0.054008562272248206, 0.017770323867193183, 0.025812884237338487, -0.008734788069422269, -0.02660825930723492, -0.009644897307924127, 0.05694528469886612, 0.0428565490976367, 0.04300414842818714, -0.05539607728681305, -0.07596687637279892, -0.13172771343122688, -0.09485837082206973, -0.0591449741317723, -0.03188329865909688, -0.02923680608419221, 0.03527552384367871, -0.014648358472626164, 0.010922960082231219, 0.005293647763137699, 0.02994270574599715, 0.02379216030287248, 0.007460407340884669, -0.07975300977269423, -0.03305173338517656, 0.015225978893893825, -0.009066501630881086, -0.0027087269545718507, 0.06462272401475576, 0.075176498866511, 0.11260193226232988, 0.06944715093947186, 0.029426659987577375, 0.07196539936047981, 0.027500650223175077, 0.06713176665581176, -0.010454715984078043, -0.0483250031904311, 0.036094526941280326, -0.11473010249142021, -0.10537213230632325, -0.06551159066166307, -0.08313023424342919, 0.0215485561182022, -0.07266903823384914, -0.07778174442609884, -0.08445599164006133, -0.03963502695224624, -0.04742853438472248, -0.009244309012300533, -0.04038304057531494, -0.06300714291052814, 0.059909269107942, -0.08077184833019879, -0.08688779097638528, 0.04784498367465857, 0.06317060041176031, 0.055736702368465334, 0.10896089985499433, 0.032685069274667446, 0.06630848728050301, 0.04599343970095618, 0.02640444404255836, 0.0470092646603489, 0.07050745468858972, 0.1249541427327436, 0.13406946402600975, -0.01803232365192683, -0.011093403182630324, -0.010921469072758873, 0.09218458326432687, 0.055217640543145714, -0.0587819113395196, -0.11969502316929942, -0.11698053789463987, -0.09027985660027538, -0.07265693763057579, -0.03903944808767185, 0.03162888830604686, -0.020500697579522293, 0.028800024190597257, -0.004478006233754164, 0.0055667577055037686, 0.08956583177966967, 0.08639777632584353, 0.09624608656235276, 0.042303194220897594, 0.08600908142971801, 0.0034500682019772337, -0.023499993862799835, -0.11013032860641778, 0.01894221820572147, 0.06405048048565894, 0.1378246386260545, 0.17506566855401745, 0.12176325886984864, 0.1724055801061428, 0.12798607656657648, 0.05129623644216857, 0.048204370216656384, -0.0837186556173803, -0.06471078133264059, -0.08812918196034919, -0.06834878812107689, 0.008795766565399302, -0.058522763790128135, 0.04505831025787642, 0.03442109689937487, 0.01692058642616599, 0.0055212883018893166, 0.018425044833538524, 0.05335658095628717, 0.05769391818135493, -0.001055545891009711, -0.0222657507516758, -0.014140460504521571, -0.09234809020959261, -0.11833368072280163, -0.08452071433378204, -0.11185460212701247, 0.04359771008583087, 0.1915073137358308, 0.30338569188927234, 0.29871945326303634, 0.1907930394893138, 0.13664740152799207, 0.10482896788221728, 0.0645423372226183, -0.013848541386972342, -0.0293124867457791, -0.09456009372388349, -0.11527361593562453, -0.0472260522516124, -0.0001449216010585622, 0.006324014451962704, 0.02119370603345738, 0.058453778750513996, 0.008353582316822684, -0.007903303449436414, 0.11488360443214833, 0.04287516558895964, -0.012225776413574991, -0.03885940095120557, -0.08343791081841388, -0.1538736354941305, -0.15637069876880486, -0.15684274363984, -0.14076253919972628, 0.046003317243214825, 0.20323846356387645, 0.3774227673590885, 0.2833213090031376, 0.22644766654030782, 0.17714431886601192, 0.17443323613826223, 0.08815789781300191, 0.007588140285536758, -0.03151060046699416, -0.04136080643105178, -0.038814300314526956, -0.03278454741020269, 0.015558219188759517, 0.01911319694429743, -0.002335682283207176, -0.0434523905337052, 0.009338087394032276, 0.025664010896897304, -0.016517830223584842, -0.004158516235989328, -0.04346919778831081, -0.045991452415140625, -0.13920422862286264, -0.14414265267316523, -0.17730296507520923, -0.19027326091658125, -0.15446066238128084, 0.015528121234974714, 0.2935761054247359, 0.358855060120117, 0.19274387023405762, 0.14445321742717257, 0.12054477560480942, 0.12415674542678266, 0.019027314039645107, 0.07170682115047217, -0.03601117699284188, -0.09569413805689428, -0.03496294650968657, -0.049438707767009885, 0.010507759969040027, 0.03766737759023102, 0.01530163617541361, -0.009181013698950411, -0.07372186530393035, 0.005838321129825154, 0.029856322160592048, 0.02534448099815553, -0.06072348700220906, -0.05741674500885139, -0.07989804247346967, -0.19301769685843062, -0.227802337731296, -0.2369329933893162, -0.18381232554433813, 0.05843705766467264, 0.29499903336550626, 0.25683233307007036, 0.0600399694417586, 0.19895088514068415, 0.08954334026753553, 0.07902081335969066, 0.10336811428230118, -0.043032325715814564, -0.053322092659761754, -0.04897574119384966, -0.013624966914662489, -0.006935135610773273, 0.0021011214444240653, 0.00504448482518091, 0.0005325450103027541, 0.01960143776804553, -0.03664363638111222, 0.011465839778614173, 0.003966485719648953, 0.009420475024632273, 0.04138335910335214, -0.14888238535961168, -0.10505203876492798, -0.17310282150750056, -0.17383017319064045, -0.21626458025400264, -0.16572199360091847, 0.0472011437295579, 0.15263666410349583, 0.09243699848656806, 0.047436870326601564, 0.04830789314023837, 0.14409966604911192, 0.1292958943550155, -0.010552420215712273, -0.07971798915813785, -0.0876982955468491, -0.06133409906971121, 0.02195928701511776, -0.00221193553957934, 0.006086970885894573, -0.038966889191730025, -0.023631045915642787, -0.037486795392168835, 0.01627800211134794, -0.005622625527178694, -0.052825547000599445, -0.05340727919636964, -0.025005962081322806, -0.02948051856844743, -0.03415824992555602, -0.1514542884298983, -0.14851947553699157, -0.30800997881652925, -0.22372414830614717, -0.016457372785679023, 0.045691851099365945, 0.022060808351853294, -0.04026677381639286, 0.021970389624848298, 0.11366671181409334, 0.11439915872097123, 0.030590364200453583, -0.004748089959225351, -0.07552402074819983, -0.10424999104174879, -0.013572874651303935, -0.07670933592218931, 0.0987312063333851, 0.03552821213576698, 0.04298236463131333, 0.04659960842620117, 0.017735841369191922, -0.029586623463874265, 0.07401211497243286, -0.028955750419918356, -0.12083046556570715, -0.04904200698623923, -0.10539614382468579, -0.09378629284034357, -0.19622223344754547, -0.1618868671579193, -0.14716569118281878, -0.10951984317705465, 0.03206232790684393, -0.023435081872634975, -0.05173757499126397, 0.07815967480204539, 0.1300294721388111, 0.08794050039286794, 0.12260853193842979, 0.08025666286247789, -0.007795561203938563, -0.10777044729124158, 0.012783915179010953, 0.010229515300727384, 0.008621260638850145, 0.05904065738480032, -0.0028556557325774322, -0.027943541888445073, 0.06328779544588696, -0.03819555210912561, 0.04278832526046486, -0.06911247370767594, -0.10630541462311684, -0.12481973780761302, -0.11598313167678896, -0.07586306309575094, -0.16551530003779238, -0.11884857217545423, -0.18568350627782026, -0.054748228388868087, 0.023313446034621398, -0.0654439886787804, -0.09984169172417284, 0.09384781290301782, 0.0605042598664948, 0.1375883434004514, 0.041857255424400594, -0.007014543792864217, -0.014760077312018128, -0.12319789785268181, -0.1054492031764552, -0.04411063223158653, -0.037639464875682906, -0.0012877445060112444, -0.020916722931194686, -0.016305759376057452, -0.010541932131765925, -0.0075727739548207655, 0.07996222514055254, -0.05112613131141349, -0.07118047629214959, -0.17660314764380985, -0.1542745137100871, -0.1991033529174636, -0.19092280259360062, -0.19347615627410145, -0.14620586927351562, -0.021852182720611377, 0.008739086114386653, -0.05296124899010045, -0.05166090095593815, 0.06155357401221994, 0.0412404671648502, 0.09901864524033624, 0.04265658715060515, 0.029591571595372367, 0.06422324172551905, -0.022327271294733768, -0.060256191008217184, 0.03140106326498095, 0.028075482684151314, -0.012569072537641144, -0.026406199493076262, -0.0028634655912720464, -0.05394878179616597, 0.049475821787550354, 0.025835110913483485, -0.0502400431936788, -0.09683715614405076, -0.12729425536211075, -0.182719298091155, -0.22315269124474207, -0.22488140444112892, -0.2289452764712531, -0.1285240589841393, -0.03671626391958692, -0.013365432412020267, -0.10270569560748671, -0.09148854902635047, -0.010355538682620215, 0.01895538241112945, -0.014521283532678607, 0.0634619672235529, -0.008013282399316589, -0.04334726452225799, -0.07375536191558345, -0.057254699465153415, 0.012068856224303669, -0.027946699009107505, -0.058701101558516044, 0.002382938635056265, -0.008499045777679638, 0.024578900421796824, 0.0779230020314023, 0.04585647736133161, -0.04075785619955869, -0.11357940976228863, -0.13397098171279254, -0.17428666965338827, -0.16322779527647477, -0.23646483580650654, -0.23509036597811175, -0.14771906294804074, 0.017350117065707306, 0.01676784375236264, -0.063673473269204, -0.08146619072954381, -0.06731209795731462, 0.004026023816703965, -0.02571697623003964, 0.03651136265619741, 0.02060192101846572, -0.08768330536890849, -0.0680592687899602, -0.082278127865254, -0.0292479550537025, -0.03143795730446146, -0.07878279675436092, -0.11301272888042099, -0.025258700697778948, 0.05222068382128143, 0.021343430603838122, 0.012929018382384484, 0.07059948710001702, -0.03802430288824328, -0.01586998298142702, -0.10987647995050291, -0.030843980099342493, -0.1472882781280193, -0.10627105939106253, -0.1487655834526012, 0.020917687722616624, -0.026801208338448332, -0.02248875395635933, -0.06260094270729244, 0.003893376849290568, -0.1007251551936771, -0.051503382765844215, -0.08167276192695706, -0.047318834809032526, -0.011024710192191596, -0.08242226073635733, -0.045705900525627396, 0.0013672609054944291, 0.060046675442622474, -0.021764475501259057, 0.006847880379411784, 0.054051296814073696, 0.016913016771473714, 0.00553954715606639, 0.06852835185288925, 0.03130826865585463, 0.022470573907175804, 0.04747427509638555, 0.023824638648409766, 0.01229317996613755, -0.032694006284255214, -0.05704098388635126, -0.03305228609507629, -0.07103106168615873, -0.008318108786739352, -0.023760394895325783, -0.019908270961843832, -0.0389618194815622, -0.037837348016881156, -0.06377876188081465, -0.15106908049223142, -0.09548516656315241, -0.09635872402984338, -0.030063888116412023, -0.003398369889485746, 0.024056650705261477, 0.0077033204702114345, -0.03608520362734071, 0.014300644315122587, 0.0264642802813152, 0.017724885572925408, 0.0011373455584499361, 0.06639519474352133, 0.03489824460263471, 0.08708562954734536, 0.06727379850190074, 0.07894595719814973, 0.09089218960009889, 0.004039059318025742, -0.04422343421535824, -0.10477535356997801, -0.07488623593077873, -0.03814977551558168, -0.014061369305372847, 0.022117315637226877, -0.02932858187110042, -0.11514487760560378, -0.06754603956033631, -0.11442019613403505, -0.054451943055998174, -0.03260959331128183, -0.05847928317136607, -0.0004574649148697549, -0.009595564265120843, 0.007987511663361308, -0.06873029060959393, 0.009878195366641218, 0.09514399032739776, -0.004333653991031309, 0.017456388776755028, 0.019844233590622058, 0.03778395277102744, 0.0861722064714946, 0.1475188715248735, 0.11256131638265522, 0.08620307443425279, 0.11143176449680392, -0.021556180825714047, -0.08043791332028419, -0.03137361531070069, -0.02084277751690925, -0.03288225830898955, -0.047112145492749245, 0.020222699230238863, -0.0784316315523857, -0.02631290828949108, -0.012810363618569487, -0.010969578096019176, -0.023848889565748543, -0.014261180522487288, 0.006278598059088144, 0.03149182402786013, 0.05656372765061566, -0.0048454714353375694, 0.0028840459508009094, 0.03325876206537319, -0.05681248836394513, 0.0356279245598038, 0.05073919020300712, 0.016765232366757258, 0.1455742616711148, 0.10332336806081684, 0.0738434754288169, 0.11639365808341391, 0.09227609858498402, 0.04989144771650624, -0.0549567311362312, -0.07904166192706197, -0.0350971754873523, -0.009014710925641035, 0.0037126557287759307, 0.07015972633893523, 0.023946459413192112, -0.017363656530969027, -0.031428401891991545, -0.05284459154981516, 0.0057718642129434596, 0.014592703029106735, -0.013956851047337833, -0.0014091835477484688, 0.013330431066424165, -0.01695601729589233, -0.008566317602580436, -0.00917078332373254, 0.04758784791976692, 0.020348644567238772, -0.02456872982528551, 0.032315495210924534, 0.043515605110263006, 0.09726752989819487, 0.09226500998282153, 0.15256118863368917, 0.08484292508615532, 0.1122071762052986, 0.17275914728581185, 0.05650227328283877, 0.026368309206130102, 0.053010053603379376, 0.05231847062309463, 0.03525325437690846, 0.04236289902736812, -0.029596600258010423, -0.011919643852736674, -0.016959817777302152, 0.0081043505706637, -0.09080607129439229, -0.008737387063799272, -0.032044364790418056, 0.029140329891669325, -0.08082592588661544, -0.014667292220113702, 0.07635093991659324, 0.04482225722812853, 0.03807562711343373, -0.052048928188555124, -0.04164004301217351, 0.04775713664378484, 0.023033388584167154, 0.06455639569491416, 0.03638783564018863, 0.09157737244059762, 0.07054312135204736, 0.07003563981265151, 0.06655459111767528, 0.035575829833951494, 0.07115332708128844, 0.06440870030225294, 0.09305129679789456, 0.01031288205130886, 0.015245577782519068, -0.010965410099772994, -0.006043266511002821, 0.017678903387943302, 0.047854645220371195, -0.04143099382834678, 0.00270612831506051, 0.015398633395078513, 0.014362387958417058, 0.027737576221628247, -0.02410436950023394, 0.009627801110491458, 0.016491382150448736, 0.009251589484613675, 0.029949370442829717, -0.03681461823885896, -0.024215886472510235, 0.04294550632587243, -0.029196513878146285, -0.02427755376345229, 0.030463030180219237, 0.06320010161022348, -0.020897084972058534, -0.011239816845040156, -0.0022105655855163293, 0.008040800567318656, -0.0041633356850582885, -0.007140085274576378, 0.0014817719332927371, -0.031339534597075745, -0.02706991866369636, -0.03637837899905637, -0.0020480449879309807, -0.01338760336157748, 0.006635713101422178, -0.029896547372081337, 0.007590636799747986], [0.05584572736327096, -0.00915625662885117, 0.03088757167023875, 0.028650147017488106, 0.03835168353176383, 0.0081020340814987, 0.049164843403235174, -0.010578924340659521, 0.01685223743626606, -0.0008135787153523452, 0.01586628861203595, 0.018496025314945347, -0.06474241842929211, -0.029748567569601685, 0.0036552843555066254, -0.039119615348221295, -0.025549799975712165, -0.02074851816510091, 0.055599598798671795, 0.041873560800099074, 0.050831160594490145, -0.019575547064062775, -0.0016092920243484382, -0.0004893696127561609, -0.019701399192455865, 0.007465499520272238, 0.06192698814846495, -0.010819144599177403, -0.015626134807262288, 0.0024141738014267578, 0.007468081569995668, -0.06988125042197985, -0.015818823098723934, -0.025886401789614672, -0.06588623657989538, -0.03539097541948427, -0.00800896983681269, -0.026891478292726874, -0.015262662764325871, -0.026131909224452556, -0.00179411337778779, -0.030240338649546162, 0.051758138113733095, 0.019185125011074666, -0.028138874083825646, 0.0001914137798191436, -0.002191011803305633, -0.013642320976303407, 0.05541006328871729, -0.0027846850704400035, 0.03078115144695371, -0.0019272298768017232, -5.236864965514002e-05, -0.015000255401255377, -0.005292313218377796, -0.03485897774664704, 0.010178974544227094, 0.03222300431170051, 0.02788777173188406, 0.017071651977550915, -0.050998062284073505, 0.03469137132691346, -0.03320328009261313, -0.010005898306661489, 0.049836484218021816, -0.003175386334708706, -0.034147720797705595, -0.010436455170325881, 0.056171915644977255, 0.018293924562036483, -0.027832393053205274, 0.00831725571155573, 0.06647314584784092, -0.0028157375040755114, -0.0036432337206951737, 0.021240594980275307, 0.012075955288463142, 0.04698347114470677, 0.06496333855489902, 0.022075662392885425, 0.03479012313371959, -0.02228496930561842, -0.0529990141254308, 0.0497403761779642, 0.005215013029033911, -0.034336968439592226, -0.021385211435618487, 0.0017217589555824605, -0.012602613879908214, 0.07014277424764014, 0.02854138400408087, -0.029741231513849227, -0.0400796956368253, 0.002800487910641736, 0.03032156114789425, -0.05666771415710858, -0.05275797833776031, 0.046431610379071994, -0.023260683200777, 0.0353775186199438, 0.07379400623476698, 0.06296032886215801, -0.0035639989676209353, 0.009752492644844483, -0.005584718045736646, 0.016352222579764295, -0.02547400038986065, -0.011253961265390347, -0.007093421989812498, 0.03148075882559244, -0.07962524461846912, 0.07232982421861747, 0.04130951068747755, 0.006656461251151258, -0.01235157677036547, 0.011998704528041538, 0.03802556020107198, -0.009320242846855358, 0.007753394153574761, -0.09962271542600151, -0.008045275948921352, -0.02530682855018823, -0.018054647328633187, 0.05258172120047326, -0.058002443832923106, -0.011613052091421461, -0.05664073856925518, -0.00465913904959009, 0.015880727337003055, -0.004413849633177433, 0.09125113340958402, 0.05340835750905287, 0.07313271011103058, 0.018839846371450406, 0.07792311442524369, 0.09058154219113762, 0.0354370186913926, -0.026637321592477066, 0.0019940591225853866, 0.017480233686872394, 0.013661272084542821, -0.05942405057270743, 0.05114334091450042, 0.053734013091174336, -0.031058284875239758, 0.03216347835311826, -0.007137955350417884, -0.060468967106541156, 0.007995765806640867, -0.07336767997173042, -0.12634110687862232, -0.10095100638606003, -0.10758542062261424, -0.03204640954177712, -0.11502852851339058, -0.05384868570253663, -0.054511722876214246, -0.11474019298137339, 0.0519322764123483, 0.015653210186705464, 0.060560464706892705, -0.0015743013173776126, -0.01168737391701202, 0.012677617716576802, 0.02302754124323273, -0.021134780470916735, 0.029273716496458692, -0.0006928744354452798, 0.03025793126868738, -0.015010223873514639, 0.01358660190840839, -0.06989335471894967, -0.02810881203018783, 0.01164138798073132, -0.08303702433437628, -0.05541210568328959, -0.10564678197626291, -0.11795402707982927, -0.14612766638592162, -0.03747267838995632, -0.19502341609071328, -0.1813148704192103, -0.10434123595954095, -0.07881273596724574, -0.16613993435378593, -0.07773017341949043, -0.1029213112730886, -0.01925756484917667, 0.0040102812243103005, 0.021136918736054826, -0.040690897624495535, 0.01157835143845488, 0.006588574335002329, 0.006518457604962908, -0.021464164844927597, 0.06454409682715898, -0.05422159643029496, 0.005924196369651494, 0.002871904133247071, 0.005051613030767125, -0.04297229590737326, -0.010320482572932539, -0.044766836676847485, -0.03479534420762519, -0.08596756312903685, -0.07726640885046894, -0.09446326645959248, -0.13345217410498608, -0.07582058101421434, -0.09292411628535652, -0.031864795320878186, -0.1547797474800309, -0.09977445768492237, -0.05678287988537173, -0.11625513534825929, -0.13648030399783995, -0.11456734380360499, -0.04915046164212093, -0.016114698604805563, -0.04986227781575995, -0.09561526266221694, -0.040594758733206976, 0.05972474484785645, 0.0008463314366108963, 0.041832590760493504, 0.06808748470708417, -0.009051987781537651, -0.030804559920853132, -0.04402891666258763, 0.03805269574212354, -0.01563855572367923, -0.011728446397100694, -0.10633110446790144, -0.0240592072109646, -0.03476345049055239, -0.08075785112974207, -0.03694578737062995, 0.09860490620331028, -0.004614666950292749, -0.06057249674280512, -0.12630113821132571, -0.08197392646162646, -0.10403045583809105, -0.06147585144133021, -0.14813171734334765, -0.08652573334292009, -0.0710548238710136, -0.04604903784717029, -0.12742204226562417, -0.014123430292298437, 0.05092049870020422, -0.017609988241432457, 0.05606767004321864, -0.034563802112114475, 0.02567126965709633, -0.038912829806598194, 0.010519479483489483, 0.031227170601602978, 0.013844814821065969, -0.015762218066590394, 0.03685746402581894, 0.03730727065464248, -0.0012523339314526036, -0.040819294593303974, 0.005239523771113178, 0.07699643451307489, -0.01445416124473941, -0.022165828408991572, -0.07912816371712272, -0.08607436986831431, -0.06709350162066385, -0.14865877827511162, -0.1240892085550633, -0.1303965952714734, -0.16792201001759313, -0.16850493035258834, -0.06497568477693808, -0.08559450858661449, 0.03470895833293461, -0.002436211169103118, -0.016347064221785407, -0.04013774365794559, -0.009114688670903854, -0.0019115508796189594, -0.06686317371678918, 0.016882089398024963, 0.09774968791847197, -0.01986591571657766, 0.013968390207032399, 0.09820376316409528, -0.027386825643294845, 0.0226483573633099, -0.037474925766711374, 0.035900038094585994, 0.029943793182089968, 0.08831621927793598, 0.0016656379927829105, 0.00372130371470643, -0.11177306923143279, -0.060200703886158474, -0.03822984593976121, -0.06015904244772355, -0.09730711162251222, -0.1181614602169929, -0.052758263120781086, -0.03524508840874694, -0.019341880697174806, -0.026165731720736413, 0.002357881434007032, 0.003002196099428095, 0.01701497189617498, -0.0131558420974038, 0.05335738108084159, 0.0027266892289047624, -0.002531693367118025, 0.03569180505994593, 0.032556441679796946, 0.009321299319016652, 0.09710330039150014, -0.04930012769904051, -0.09241843822197074, -0.03172256507968043, 0.05266786768917317, 0.1023152974599366, 0.049690031263327314, -0.029471923791296623, -0.0010525737327149076, -0.01463800439855891, 0.004172281341024642, -0.029393567872127883, -0.11312790370205075, 0.010039274622854632, -0.04598446246592803, 0.005811967555224908, -0.013781512106678925, 0.0181116900826458, -0.05094107319801167, 0.05529688944759278, -0.045156843821451104, 0.040195605043696, 0.08401526284835553, -0.005652434049944483, 0.061964454211774635, -0.013680091925948348, 0.08923170191036868, -0.028305230733637464, -0.06936758048641326, -0.1044344278337489, -0.14707643135168286, -0.05674656364174712, 0.049268385248384824, 0.08025790396725395, 0.09318113817471682, 0.021322983706761306, 0.06975545845418867, 0.15362029898969817, -0.016237563719340264, 0.022322994016876624, -0.05496148924352679, -0.04777299612037699, -0.04699672392880357, -0.04347397982368595, -0.0027317202847904104, 0.0632837061055451, -0.012472717115252165, -0.02584503300837733, -0.022549013045630183, -0.004978723105731347, -0.0019269710580224926, 0.02969250066958568, -0.008254789891693464, 0.0027889254164555157, 0.0650796027015176, 0.04786031995764827, -0.03840361726998908, -0.16540438830921222, -0.1520890489473399, -0.06314963207652936, 0.16984249352386827, 0.13587331066722966, 0.01233566436966567, 0.12518214144566395, 0.10802591262829267, 0.11692037473818778, 0.11991300698806505, 0.042238085104221335, 0.051181579003580766, -0.0589898724788725, -0.03661093554536749, -0.021341432056338316, -0.028663194915711915, -0.031374810253275, 0.0008516364274055522, -0.04089018394463948, 0.021377406935156582, 0.05191563956692117, -0.01725457203416417, -0.017874259335154255, 0.01293368460606411, 0.026551909659452092, 0.04651854970049466, -0.018162701611719036, -0.08472710697755276, -0.12600852186657804, -0.0631080098098944, -0.0016739694354550362, 0.10426053214467554, 0.08266415004487206, 0.07805142415615084, 0.06421439487019621, 0.1003506732284948, 0.11826123857709103, 0.10172195316841484, 0.03995761118894295, 0.015349664934563804, 0.09156012525925791, -0.09059468867578806, -0.006966447236315584, -0.014586182894010879, 0.005544473593063234, 0.004673648598712059, -0.0022985968024462787, -0.06378945420098821, -0.015649683316286706, 0.0004181301479692235, -0.0587226764028406, 0.0894144122092108, 0.04145606194213434, 0.11842073846020221, 0.06309920470229634, -0.061508335403451714, -0.07055346053434551, 0.03987920941829079, 0.10739038788289275, 0.11779196257274518, 0.16103315127268658, 0.051849774738626994, 0.08643293531152618, 0.14503624981459334, 0.008422193208045976, 0.03534730605922532, 0.05838374257053536, 0.03142093388401231, -0.024623900028114702, -0.040609170161767606, 0.029249029097662665, 0.07041328292316328, 0.013317971132209084, -0.009730114550927467, 0.029997236742161794, 0.03622056991218249, -0.03268346674814914, -0.028038816609826142, 0.02338126014740785, 0.05390445585073529, 0.07315113543225216, 0.06526280981844162, -0.011746401660188357, 0.035302013525053175, 0.0008704473509005739, 0.0662182171793223, 0.18164353233211722, 0.15137478658092357, 0.12819201754003878, 0.07972784736600833, -0.007637975576649917, 0.018429685381052892, -0.01582479882802135, -0.011257158936554103, -0.004150430274495273, 0.03428940810066735, -0.10416324875358679, -0.0448877550863342, -0.01160490873564731, 0.02021987795260828, 0.0035008610186434705, -0.021344278058799123, 0.034032245064330086, 0.040292384203753584, 0.03775073389269216, -0.07806944193882356, -0.0870338210633513, -0.0666005491470563, 0.07064842969477053, -0.024461494747221677, 0.017116148394306082, 0.0959518642253922, 0.12015474743146318, 0.20070955339321236, 0.23584449737494917, 0.18809670276677043, 0.06781918807192265, 0.04745546316127952, 0.01010026775466922, -0.01618970896773964, -0.06935451191386037, 0.0015570190114616233, -0.03941684928228276, 0.035328411727096706, -0.03622287670683863, -0.06335328330762585, 0.008906292925355032, 0.008942607734387193, -0.020610005796400082, -0.03001875828609837, -0.027794599390597953, -0.014487052814184815, -0.013000375494667508, -0.08648813625932052, -0.10400062289514667, -0.11919545484655271, -0.12019380034631277, -0.01794932238943345, -0.03627067821792102, 0.07509559858355332, 0.10467288821937264, 0.15932200991864265, 0.15139811208169093, 0.19011423537366187, 0.0550102668169873, -0.06298976015956784, -0.06335289183291629, -0.05174203943797989, -0.028503892125272236, -0.09567848689121221, -0.06958032997030257, -0.07338585372017749, -0.04529077818354263, -0.03442628975234418, -0.011500199699402462, -0.03079661455118735, 0.0002545290102909432, 0.01379941326268793, 0.025463312771240462, -0.042757036266498676, 0.03584437563146671, -0.04143478187887655, -0.1296094461646608, -0.12921114369741912, -0.22731799295363214, -0.09444763191027192, -0.05595980610885959, 0.003181374388391771, 0.043785198718433525, 0.0880738021366931, 0.11141958608710616, 0.068112636112844, -0.02791349673532655, -0.04871082694856902, 0.020293633996694246, -0.0449636975194493, -0.047803369274799015, -0.010051936454638102, -0.1716912967466255, -0.061634773739530926, -0.02768381645505954, 0.05391880698607756, -0.01222983027963929, -0.056021372372462803, 0.03194216001402775, 0.014111858597675933, -0.02709843421029126, -0.0028385040332860566, -0.037900761031153904, -0.04078545412988694, -0.05429691709119774, -0.24627155322176633, -0.15931941666602573, -0.15550179105038398, -0.17470931588769598, -0.024127471363988826, -0.016171263059836776, 0.0777546145712211, 0.02401277831340489, 0.09043075333203873, 0.03318624656928385, 0.0004224359474865127, 0.0038700151761714525, -0.05473873055778729, -0.10192360255737519, -0.09065682725914083, -0.06487698282566114, -0.044695459430271686, -0.04164333486901662, -0.017417199439943236, -0.018951961293974275, 0.009933134890511699, -0.0012392411429959682, -0.006285864277751395, -0.009444139511285884, -0.04564562811462811, -0.005529746688098996, 0.027054628020658462, -0.08937304078924503, -0.1075903511691636, -0.1042905122149091, -0.17866082922109042, -0.06627737807208381, -0.10176888199089182, -0.07190020955984837, -0.08524686728442833, -0.03481806100313986, 0.0528867586207227, -0.021382431315453553, -0.08518183753854676, -0.054553984158573314, -0.0694480969693936, -0.0649479672167632, -0.12560401315720882, -0.058490368628666314, 0.013026396922114259, -0.09109988883842106, -0.05296844766384679, 0.0069947169531488764, -0.019281136550551033, 0.014261278479816966, 0.03331654296304209, 0.024788284197961884, -0.0530606748712924, -0.06500755928617125, 0.03027183098490208, -0.060918370685101975, -0.09702133457344131, -0.11814119082794743, -0.13682539359936166, -0.178970447710146, -0.0932161213891502, -0.19367793764962435, -0.15494437990793955, -0.12878629611654982, -0.01049580661742959, -0.11226205812425051, -0.05477781105633543, -0.06944597221380376, -0.08172445138619702, -0.0031558699882084777, -0.028759787864877543, 0.004784568547923836, -0.03176235377457991, 0.02694917047614446, -0.045654730072115214, 0.03216413026318246, -0.031715501078089105, -0.0019887748541384553, -0.02118509508662693, 0.04872369562211868, 0.03342857926695354, 0.01447251865572536, -9.304033879968865e-05, 0.011657728237558042, -0.016453016525278703, -0.007998803650584193, -0.05791537577040133, -0.0966671143576562, -0.11183973478053287, -0.13708505383765296, -0.17999706548667255, -0.15884109012205969, -0.15201638068958284, -0.1565791086242857, -0.07994924315455615, -0.03500809268331309, -0.09881233014211158, -0.05810923173787784, 0.023801128047246923, -0.003800812223362646, 0.027310740274239118, -0.019975112234074815, 0.024419612524026846, 0.03765319994353049, 0.03556631099221969, 0.05714027113126957, -0.018008411717228265, -0.02450085964018953, -0.04203159397352838, -0.06379016835877584, -0.0324707461120012, 0.0110610108030561, 0.054016733229526735, -0.039183356415890616, 0.01818939444674654, -0.010980588468891734, -0.10098752533603597, -0.08631788989427287, -0.08427909702757273, -0.08939913653321083, -0.06928615953212748, 0.006660976965062496, 0.015131764838178399, -0.01757757126052237, -0.002487740518315706, 0.029262132870952643, 0.02116252109946183, -0.06813079257869721, 0.05156256452236709, -0.012567205709576094, 0.06675810244795397, -0.04884489487172955, -0.0005264007472782955, 0.029888226764903252, 0.021393588672310903, -0.020681624444764842, 0.0564465082798946, 0.028959465853923068, 0.0719389725804258, 0.03978238202026813, 0.05200737998960724, 0.049844738977456775, 0.0074661970297879715, 0.10734533969959316, 0.014594724156479052, -0.010623909080867227, -0.025053553428701268, -0.010500157104936188, 0.01660657475535608, 0.01923756282775477, 0.0006432475016476089, 0.0017664452124231866, -0.0013280388185995132, -0.012026441253096085, -0.013679114628959231, 0.03016511316913896, 0.014529768827316976, -0.04793106900274129, -0.0026662340898480656, -0.040463071438036784, -0.04624094498472554, 0.03985008549335897, 0.019306579486837925, 0.03146108252512926, -0.10533197359509532, -0.0037236050438523853, 0.015809359858313485, 0.027827155326169015, 0.016044513568430382, -0.006671417744064029, -0.017398903310376024, -0.03597145326180547, 0.0012758935682598389, 0.06158127952232844, -0.010764337331889392, 0.06525768957843313, -0.006407793661298031, 0.049961689841304044, 0.00996300172219693, 0.011538255685646688, -0.01777116033359657, -0.04887484662477673, -0.04261903468170048, -0.0548428540663892, 0.0162587896607759, -0.019025924138657484, 0.0023678256129012255, 0.02119182119090137, 0.030019824155759066, 0.024877573230316283, -0.0549874472961106, -0.0509002957010982, -0.027835816564146947, -0.020691782409167574, -0.04841252731511447, -0.013916561626677865, -0.0910682888638513, -0.01703616986218136, 0.004709084630493494, -0.009182932213558714, 0.0065888843495239815, -0.038148144303062854, 0.021354372208857816, 0.032433788963357676, 0.001858796492266743, -0.03648223259628867, 0.06321556578067124, -0.001693172069215879, 0.04140070533034148, 0.020925179693577448, 0.06049724572032816, 0.00042072789324475174, -0.013449077778151282, -0.002172700451547578, -0.019535283354077587, 0.0072147481583670165, 0.1278705737592657, -0.009499577895446146], [0.05087917055687051, 0.0069806831567425336, 0.0006553709637592572, -0.028969714598676657, 0.02677124061638706, 0.018180883722623782, -0.05818465076807281, 0.019691681593398708, 0.004325747590743342, -0.01799801369607048, -0.019997902113663018, -0.06204550162503756, -0.009232668391168973, 0.027974561121391794, 0.010667664015167708, 0.03932290082833724, -0.037644997743376665, 0.07700554149414292, 0.04949685098743651, -0.03508393509915713, -0.020587218343900784, -0.008453698549007575, 0.01770996285143489, -0.014826814468512356, 0.017820417902938132, 0.014420259970689325, 0.023140200854321218, 0.04330950984474255, 0.03508027873456211, 0.014603011436009526, 0.03939125108033057, -0.01082102306957398, -0.02387408262538295, 0.020366296763949184, -0.0405402621186015, -0.04620446078280305, 0.001371370709116198, -0.009967230341420106, -0.06072088156601389, -0.10057805451439579, 0.055412503793524956, -0.02929380907446451, 0.01108268694729428, 0.06471849955387868, 0.03478330059070542, -0.08511498347399159, -0.03353963190326228, 0.031332359079522316, -0.0050084476460327395, 0.015193326490188539, 0.032585696484840436, -0.008915312176083292, 0.040369913765701496, -0.012280528336833647, 0.08107957788968594, -0.028240791762954444, 0.0012579719951461097, -0.015716313141472187, -0.00037184006106758037, 0.02370340065818727, 0.09106649170190224, -0.02562136203427216, -0.006911527845453379, 0.060354470605414226, 0.013241088048427605, 0.018705518588798247, -0.020196792792782383, -0.012278636491477772, 0.0145677560032034, 0.019859763696109832, -0.027626153684351167, -0.0419618623786103, 0.01298231326221957, 0.005091412820164749, 0.011936281731949317, -0.04015762318204384, 0.010482189020319478, -0.04357175134473627, 0.0126056567338633, -0.036218250895718986, 0.0026005969964339177, 0.007798292953689628, -0.026210727462145856, 0.05733031796965027, -0.027355917834822944, -0.02343378629676568, 0.02901020284547988, -0.00837522878198781, -0.05969289233114673, 0.04265113346861259, 0.0033848738013003885, -0.04108457739453368, 0.05988155989641717, 0.03882613506501432, -0.0025913333673533556, -0.05344242280028027, -0.017199818821978907, -0.03769007779287572, -0.03845783293917167, -0.005725565199570763, -0.040534253009065276, -0.002234717905308668, -0.013035336044345923, -0.015169455091966736, 0.005308063417864218, -0.015948113758784663, 0.054553602130175585, -0.010629468084467715, -0.012374210508046584, -0.02781085254011746, -0.0025713613922102438, 0.03465003309361667, -0.057620888942191535, 0.042751458915147825, -0.004598304227623831, 0.0194926217948932, 0.010363790168070479, 0.01851054035525785, -0.0073619668895026375, -0.022565696733069643, -0.040020887787936624, -0.04946720134191415, 0.012671216849066172, 0.032096089124602586, -0.010651717410957003, -0.01967185945838141, -0.03559092171980125, -0.044556307818922475, -0.02275561926401284, 0.014778379694731463, -0.03347288837118337, 0.013982096664362039, -0.01197309072636561, 0.0053186349300819195, 0.0010129635072431322, 0.038896716644137984, -0.03276052949857195, 0.029958938576664394, 0.0043182281872828805, -0.05348011508916955, 0.020838530943373096, -0.015337094934423156, -0.0018437976659671318, 0.01683150539918408, -0.015818272351342328, 0.000490135632036502, 0.006746140959804173, 0.02668439663262184, -0.022345104923538174, 0.08431775069550079, 0.008408438951446617, -0.0023470335867408505, 0.043585467941323536, -0.003101814921386924, 0.019229984166933535, -0.005802466220012742, -0.02308766098063204, 0.049876372681518295, 0.04365690633950184, 0.026487505335423288, 0.05380581802899429, -0.011632587851249803, 0.0035006853339292687, -0.021813934170393717, 0.027445684397640634, 0.013947421237946723, 3.289412477715143e-05, -0.0509659472869658, -0.01058056334097532, -0.02742789283444779, -0.04143388338765935, -0.0701041173952483, 0.02738175610475568, 0.023102008831870285, 0.020165018687228888, 0.029008705629139202, 0.04417264845572245, 0.06653395751126376, 0.0032636581475161625, 0.0614848805485738, -0.018475643117742382, 0.04374566867259558, 0.06054923443173137, -0.07086949832576604, 0.02371151968064535, 0.03345043090569795, -0.022978186682236727, 0.0716981288926111, 0.009875417542431087, 0.12445020616876507, 0.07007307349805471, -0.04937187727893529, 0.007983594087301529, -0.03706550370345595, -0.008886383339510261, 0.00936257714456015, 0.005468411264516014, -0.005170070137198365, 0.0013855054801366865, -0.007939201172043336, 0.10370756392787764, 0.027843633559872412, 0.011564048074798546, -0.0012835281758184407, 0.03640397768706681, -0.02518193684526685, 0.005510128903887099, -0.007110160580861023, -0.011091583667091065, -0.04680784305689354, -0.06824461191462788, -0.03475219908504073, -0.024993153403395262, -0.06147123952109624, 0.005937591243709418, -0.023257046363974496, 0.07073013213755465, -0.0023385501577794774, -0.03575826884899988, -0.005658617341073366, 0.0018998763843374228, 0.06973611567058731, 0.03260404913953642, 0.011363952180832124, -0.01130051779176237, 0.029448643869503615, 0.0652577711971845, -0.01591998118428944, 0.020324949437280068, 0.09313930870823511, 0.04243030448629514, 0.019102955983321363, -0.06668316239949434, -0.01060287199713805, -0.058136673277492806, -0.08785752976787413, -0.09476423908485747, -0.01767550160398911, -0.0992119399350846, 0.01724822148136619, -0.01726933829732013, -0.05605152700429323, 0.06164508787503379, -0.019805636608388424, -0.059294547720772535, 0.03661638689561696, -0.070424138980075, -0.03330132997635716, 0.005130172560706956, 0.02352722120163017, -0.04588655732823223, 0.027786591317123494, 0.0909834991629133, -0.02832332517255771, -0.04240833075472626, 0.03916834833514283, 0.012586688261176138, -0.05130690894884006, -0.013784547342982977, -0.0036463196029142297, -0.05326769669000773, -0.11078535258818659, -0.11053003164872054, -0.07339906172268519, -0.09439244162727842, -0.10668458600756164, 0.0076015601925951345, 0.05870305104181288, 0.03305253330568377, 0.0280608429815061, -0.01498177648049945, -0.0069567029288327, 0.0023872027270540976, 0.012353497045489343, -0.014629917823188628, -0.06799605194391543, -0.05771503956403732, 0.053080081883451195, 0.0019683014919505515, 0.015912796253726328, -0.06111821930028803, -0.028890557810015444, 0.03874226700468516, 0.01503736336181524, 0.017079105095889186, 0.03061999098332498, -0.0248604300111912, -0.05828158214766184, -0.12079846444213692, -0.14471483114928999, -0.16381869414061792, -0.09636655709273241, -0.07984540523449461, 0.09242944629395175, 0.12550307764593882, 0.13769461263292754, 0.09626191690301796, 0.04846440022310757, -0.02318623724878719, 0.051394816554878944, 0.006013512955749231, -0.06111655975251127, -0.06220474481531824, -0.057959849020389906, -0.049988233894590645, -0.007029446847739125, -0.03669110675480115, -0.013836611440755701, 0.01691779902603493, 0.04352653775462203, 0.013103923600246222, -0.005567658655015713, -0.005901012547873958, -0.010401367168741427, -0.07448604978588379, 0.004102698280743817, -0.14955927803870647, -0.12023591088145802, -0.06078107723499853, -0.07905873818348283, -0.038248363938886844, 0.1329940088752729, 0.2334571603342445, 0.2643352003399159, 0.07105959701014275, 0.08478056009719424, 0.001381069587208841, -0.024369040456939727, 0.004742411753664324, -0.09153220821871577, -0.03464620472203748, -0.08662434305878752, -0.02979207964179864, 0.06949989124520443, 4.916320950909384e-05, -0.035628737427822174, -0.003568566871533751, 0.03718393140800367, 0.05663012858062528, 0.027078247307752497, -0.030305271037515964, 0.008802870229485725, -0.03377061315956173, -0.12166362098605725, -0.10907716222102054, -0.02687285259399722, -0.0032288096296720597, -0.04176726192989905, 0.0645921563396899, 0.1801761527435998, 0.3564994507654921, 0.1735964690423856, 0.012412747871708062, 0.02277376864693534, -0.03408562557281954, 0.023894107880432794, -0.08982335793778978, -0.09506469198427117, -0.09323789048994639, -0.0925535715497006, 0.04834307878532232, 0.03483269173328241, -0.003326123886560923, -0.037109107864072274, -0.045266499983407135, -0.103629757259525, 0.009124038737086462, -0.016456261498462653, 0.03094251559579788, -0.041785002851894654, -0.05063287837750657, -0.04497057677205705, 0.022044386895602276, 0.012688779507850469, -0.013364127230436522, 0.012710093646817551, 0.08590619019654366, 0.1531087034194123, 0.2539439721006918, 0.141692994621547, 0.009726256412507968, -0.001701249700533592, -0.004909966898549129, 0.01993867387544289, 0.01975959869213538, -0.029305999722546938, -0.07064151190283056, -0.045285094285309836, 0.04166213499039641, -0.021895721598317187, 0.019449317750188336, -0.01333320832042679, -0.0639459624497347, 0.0020659679686314343, 0.010071053406173647, -0.06017665133898608, 0.05477596475463512, 0.0326380842739238, -0.06579112310129806, -0.10682105539919232, -0.04010053635306668, -0.08824578161086534, -0.027936100226943324, -0.041412784508425726, 0.03796701216066005, 0.18826591901334888, 0.1472756986142815, 0.0602482789403011, 0.005723995767308424, -0.06358248367564635, 0.011246979157138568, -0.004515622236568856, 0.04882590849480953, 0.013478376345320777, -0.0731272837046076, -0.04799242637913293, -0.007808145389432007, 0.03180480537596713, -0.035919888951399866, 0.019978917704422814, 0.002334953439675453, 0.04585518943922627, -0.0015990089485960193, -0.005357886156019147, -0.02323381200977594, -0.04792977401645556, -0.030527156346869824, 0.007049030345564198, 0.04777016411832939, 0.001314340640443908, -0.08515553009857847, -0.023342657565077394, 0.019093573842922477, 0.1556974256402458, 0.14505752278361767, 0.005237805933249033, -0.0855003614687032, -0.05936201280001118, 0.025771414383224885, 0.07847404294938186, -0.016183018076160398, 0.025697124031824656, -0.03400326290619897, -0.016730748816189193, -0.05521139905791031, 0.047805727171014945, 0.02322938587437373, -0.028441375117294856, -0.01781048700353646, -0.006084065173104334, -0.021136832958908284, 0.025977433743306123, -0.009882000853953864, 0.015712979828242428, -0.11564142311125034, -0.11645334512386933, -0.09189572168148011, -0.08593997595252152, -0.16294877535675875, -0.08898865257798412, -0.07818943897828277, 0.05175864503045601, 0.0037515220567017286, -0.008944916269033567, -0.1159512722454045, -0.023968487609095267, 0.016753429022810063, 0.09411727315738509, 0.05464883688425172, 0.012686976872596225, -0.023896634998528937, -0.017483305299028865, 0.004575808954289556, -0.0266289818842393, 0.03671431534200938, 0.017852473950723913, 0.0013514774333705651, 0.05438828572016291, 0.014295664707823265, -0.012183177465604602, -0.02883857527778674, -0.02457187467926824, -0.09007394416652176, -0.03666615561258666, -0.0983464157074402, -0.22657048686156855, -0.18377553007298983, -0.11490688598585468, -0.15303872241502814, -0.08328741895623755, -0.00033600120113176413, -0.1122501956274084, -0.07218244965076265, -0.05640594034997606, 0.05365253101457189, 0.02316350111685845, 0.04210789975279363, 0.019622521385525112, 0.025183331114010967, 0.02071118750561747, -0.021500630400953184, 0.022575757925255544, 0.045140685724651575, 0.026694085609781596, 0.02693446522991153, 0.019193400729418286, 0.0672303029183848, -0.02583493817543329, 0.055101395143002815, 0.03418961146135476, -0.005173851670438039, -0.14388855940218334, -0.12087403222048983, -0.22146210635933408, -0.1720575713367926, -0.16572316772858153, -0.09334238360447952, -0.06327531059600368, -0.03660303584006211, -0.0844624812952786, -0.012645678750093065, -0.06409514856161735, -0.055252610806920704, 0.07638928230482894, -0.01260627115795836, -0.014947841803878639, 0.015959405769221342, -0.038568710602060186, 0.03228562774753706, -0.030813556769378667, 0.005023739237198242, -0.020592711215027575, 0.027966960012057517, -0.006288870497275053, -0.04707155184800215, -0.044135270725703515, 0.021057144947765095, 0.017114794956050686, -0.06971289298811516, -0.05415383031167848, -0.04259395861880941, -0.06582406603004115, -0.2082242905785503, -0.15014432201425607, -0.09538971301186665, -0.0777919268342252, -0.10799475172036195, -0.10390662519774901, -0.06627417644842931, 0.0020622182866664677, 0.008140134197429304, 0.015624848366538907, 0.0008406731214344605, -0.01719391764437663, -0.0360533495680794, -0.12186169930547991, -0.01721818702619771, -0.03832869000785918, -0.04336608110887164, -0.02493707425787769, 0.009655348823481388, 0.009466892929371584, -0.0004882610396075984, 0.04431181385677015, 0.06584456309470683, 0.055940489841799404, 0.042622219340273056, -0.05270647992529076, -0.0814309638696323, -0.060065781406507375, -0.04390099380994448, -0.0774593424972333, -0.08175463575347586, -0.07000320127593426, 0.005980745835525333, -0.03307682967653513, -0.0002915188085442216, -0.029024578207901965, -0.0713446932500387, -0.016374211378230738, 0.005444400279403631, -0.005230374676808808, -0.06325095628118445, -0.0006565266767257418, 0.03130889749835243, 0.008193784969132367, -0.0030646665686967613, 0.014611292187746807, -0.00993943933141988, 0.03736224414138973, -0.08573103175761872, 0.028353880747444195, 0.06296964176785164, 0.05652290496608295, 0.004502901239445308, 0.040650482700796506, 0.04129960717334187, 0.007705871191441061, -0.046075249702277894, 0.021979054959520933, -0.06716590583718439, -0.021831078245023696, 0.0026167151913267265, 0.06208671519119556, 0.026671537343139158, 0.03277225653503995, -0.04022087051887344, 0.000861595549692732, -0.02611617656145557, -0.06511096528166863, -0.09981728626557304, -0.0881136684206738, 0.012538507889391582, -0.005104166116114653, 0.03367051129744124, 0.014087176643339375, 0.0231219067144813, 0.05408436846539088, -0.04182851319481038, -0.021760533987994716, -0.019549007322373836, 0.00913904830758206, 0.0664859894979488, 0.12556049320255794, 0.13405352744277457, 0.015504979579621216, 0.03183394663311113, 0.03068717324544849, -0.06931654764874022, 0.06890111593044801, 0.04593393797210273, 0.11616230753260379, 0.05121203036576223, 0.010524441547589278, -0.03548834832783517, -0.042744092320141404, 0.02032055436563533, -0.0307601101055224, -0.04375009465632138, -0.045278759349623304, -0.030643919245231462, 0.046295000226756845, 0.02694104307102606, 0.02371230528253159, -0.019419268938418104, -0.024341946409495302, 0.06667296345531748, -0.02734413510989233, 0.042208191145109396, -0.01013319531226452, 0.0646294566605985, 0.05043822688839392, 0.11235681316485363, 0.09875104777446377, 0.05402987293043814, 0.1300781182622882, 0.03463638879104266, -0.02722836307199935, 0.020762983327287876, 0.10456002579806364, 0.03927931391368646, 0.058272109357908906, 0.03551078248623675, -0.002234336490455468, -0.07771531066181268, -0.09253615205897317, 0.01440085690899236, -0.005075475015935081, 0.05366864662153751, 0.008495718160883282, -0.04586646355596232, 0.032260736962346534, -0.00042044187445560837, -0.010394298886174637, -0.03867716610759955, 0.009977033837563556, -0.001532630019247562, 0.03322789212792372, -0.00883168950779767, 0.03724478693206822, 0.03359244361543076, 0.02000776735859165, 0.04750252773268229, 0.007523800977804687, -0.010954811989205308, 0.028157251127300116, -0.047749271096881096, 0.0545237757564478, -0.08193401419555311, 0.040570641317321084, -0.03079211419288735, -0.020655852898245453, 0.012241304080642307, 0.013485581988448993, -0.012267873882283157, 0.025973267924710032, 0.008465750707257923, 0.020913679136357343, 0.035728341981002845, 0.0008495399351194432, 0.026152923534452904, 0.004000236906843898, -0.002087547689254661, 0.023861113453633537, -0.0051069919628025685, 0.08701248998124171, 0.03275690490749557, -0.03632417267247562, 0.01658843841645889, -0.01857629662638669, 0.015266335227500991, -0.10532909284415716, -0.004550109262218176, -0.032755790650424964, 0.013613581790354502, -0.075645420432045, -0.019469569121614506, 0.003194794653983922, -0.06153483557326519, 0.02650988824862082, 0.045600918762706874, -0.03539324457191038, -0.041635115670169025, -0.04625866261454341, 0.03535254913850326, 0.07701901851179349, -0.01851674741117599, -0.031011983577467254, 0.08531205114383186, 0.062288521058437005, 0.019016855276619116, -0.007724856331700854, 0.02097149566371823, -0.010014575740373385, -0.003229527145249378, 0.022858968619811963, -0.05672562229379396, 0.07047997224639352, -0.052043193465184046, 0.03714343745157248, 0.017971459001291393, 0.02024939194284768, 0.013007283216766008, 0.011875566528412833, 0.04720590925131271, 0.005058584189755451, 0.031129121749410214, -0.06588024422282468, -0.053888257678423715, -0.0436699331649293, -0.008461543079824987, 0.003006314762333201, -0.007852775556016121, 0.07144153072044242, 0.00463016460531527, 0.018789178533299727, 0.07003308734688328, 0.05540663978720671, 0.029334207905704398, 0.009912745022053495, -0.019561148197690493, -0.02333294903891373, -0.04734582656413109, -0.02029547957609215, -0.024041386438862222, 0.008726369038691253, 0.004152725400415898, -0.0020357520700256997, -0.02253495227778786, -0.05710786775629264, 0.006433676035834615, -0.05520119192797576, 0.046817430043413606, -0.03153988841835206, 0.010837652398054948, 0.009113063679749771, -0.006667632662324722, 0.04293154783145142, 0.04983551612605158, -0.05367302135130708, 0.0026800388880842316, -0.016670785477228032, -0.05067743560267077, -0.04660821552191451], [0.028269693108023186, -0.03507350961214424, 0.01850384893720586, -0.0011806894486819544, -0.010157037354362781, -0.007745606840270326, -0.054374610929359385, 0.08164343544042936, -0.01788074302887451, -0.01664194124515069, 0.007379463823364585, -0.061846171236585194, -0.040976418584045306, 0.00834948289335587, 0.04341081275920958, 0.05257431809279718, -0.03426948236460142, 0.052212677569620065, 0.022258089309730448, 0.0003294474376432692, -0.011415675371499115, -0.029571340511849634, 0.0017293787412234736, -0.014004261222781596, 0.11113074562067175, -0.01898019910817558, -0.06903063423435678, 0.015411984232163355, -0.028552589443109865, 0.03694500698587245, 0.023566701925604464, -0.060384647002178195, 0.0286810828178781, 0.03655750936864351, 0.05558639391707275, 0.02291849325689196, -0.01894033664647913, 0.08339106101035196, -0.017173564558807558, 0.0661673721596491, -0.02887026664026165, 0.03974458436051201, 0.009793704182482144, 0.07573901778296646, 0.0004355899102243745, 0.026160784709591028, -0.0022874641597117914, 0.006904121367296201, -0.023824687960995676, -0.02846721042156067, -0.006368813613165089, 0.028723680209694957, 0.01534308709218422, -0.00825142706141702, -0.03523918569020393, 0.011804139213212895, -0.013584971823876245, -0.03132177123501368, 0.005279835784697458, 0.0023071192998561545, 0.005244945008938057, 0.023671168346518223, -0.04803468505978927, 0.020822618628057312, 0.03334960939949953, -0.04079458468664364, 0.028380112972049055, -0.03683495401875875, -0.034138490814519945, -0.01500615093177634, 0.021449304825512206, -0.018788311122922417, 0.019507508176217315, 0.032986714487858095, 0.01735773296394394, 0.01233671210674428, 0.015839259687848422, -0.051730619075260276, -0.031806326251724776, 0.042033512517329376, -0.058031909367102216, -0.01183327559873864, -0.0035039569602176805, -0.010894416636930745, 0.043795893886675465, -0.0014386395526590553, 0.014209456457030221, 0.005692379010684747, 0.04823053678604942, -0.05749406208899998, -0.027532359516037424, 0.007198674010529151, -0.00829368730812637, 0.0449315317186085, 0.03259613766746313, -0.0066006208915957, -0.019573521993536437, 0.06547297198220478, 0.0861077165580423, 0.04782024452798311, 0.027678436107027447, 0.06516693965802452, 0.08261716155773623, 0.016805801574146604, 0.02147658577715834, 0.079073246524779, 0.032557273667735205, -0.02196392055371225, 0.02164911789934328, 0.026367348051164197, -0.020190603463602498, -0.066804933415931, 0.07963429850198687, 0.03436369994021053, 0.025820914589198246, 0.07038103856333677, 0.004241070670416857, -0.0013785333240556653, 0.004532044147726987, 0.02160570610884721, 0.038359588584883496, 0.06593849380249851, 0.07470252775005039, 0.08844575846097075, 0.07719100089478093, 0.05705867277639853, 0.05893425308524489, 0.10192698854471173, 0.12014456456618913, 0.07389073552151035, 0.06393451702921771, 0.04054984138659217, 0.03784599202127286, -0.003513603300562158, 0.02066074926846612, -0.033728053994799244, -0.022763434318593182, -0.014647906574828923, -0.039360568168707984, -0.005747912996560933, 0.058037581276607304, -0.022759080626181608, 0.011457170085840103, 0.02163762832477843, -0.04556850244446244, 0.06231691721201996, -0.03129556294474927, -0.02579060393591044, 0.0298832613969081, 0.07964636453138883, 0.11264985614404213, -0.00469358665779955, 0.07988415845818227, 0.07971257520513414, 0.0977588940346437, 0.12529949387527697, 0.17084789528689304, 0.12022587882972936, 0.07824789561283817, 0.05529569301737935, 0.08999856759974342, 0.05360572668518117, -0.04958992911049622, -0.023530327918156485, -0.01553224440858867, -0.005193321942239402, 0.001381508387444426, -0.03438391862342479, -0.019258358342888512, -0.03615050874388704, -0.04015228878383371, 0.04403751086440332, -0.03615635511262839, -0.007855604570395218, 0.0149107854268168, 0.05518219420051302, -0.028788806590773167, 0.05151930918096853, -0.01608524708049802, -0.025286254602053502, -0.0047682279149649925, -0.027231969349188066, -0.09256775106859938, -0.07478124823786526, -0.08362067112177823, -0.07865925141429526, -0.015326148697037011, 0.03841346818430733, -0.006863145895556945, 0.07099811958334822, 0.006786774211502064, 0.07107894165010471, -0.03048619786546562, -0.041595164687202146, 0.039316739537200815, -0.009889885183604995, -0.02133177124352345, 0.014591382890452668, 0.057440952917866696, -0.05338109800059009, -0.10823782027853207, 0.02065922184730235, 0.06753020188190663, -0.00967068391093525, 0.0010121711776571742, -0.07560939373861085, -0.07104654144352825, -0.10600813573297946, -0.13154349561489245, -0.17218137733285338, -0.18452826869518504, -0.24126605533642514, -0.21231665092588695, -0.1588560718722532, -0.1323610473022145, -0.11477771859477968, -0.03912697872168122, 0.01769556867848155, -0.01941854929636887, -0.030006436368577614, -0.04512217867777741, -0.060327386773524734, -0.008661947597432202, -0.0189369455907143, 0.001513991068269481, 0.04186663061875141, -0.014127318119692062, -0.033486395531212486, 0.04412297769170756, -0.00033628204079558797, -0.0012087714655602978, -0.03867310048239812, -0.008175283861759561, -0.014489461371498681, -0.0600181643006127, -0.09232891312424121, -0.14156479613603853, -0.141106556074419, -0.2651015062072832, -0.1894159181159262, -0.24351862367851493, -0.267322622060602, -0.11200350713709972, -0.05401414601487008, -0.09962644539209271, -0.05318950181656138, 0.0011764203909069802, -0.027235556745122264, -0.0056139053762206586, -0.016557575676505815, -0.0014398881958781464, 0.027787846812123096, -0.0622581490033227, -0.028817976668254294, -0.007253088554680924, -0.017021993475578256, -0.04729297201517644, 0.00813612015643031, -0.0758802893654553, -0.05698625725626735, 0.0001580153153468997, -0.09334997754851937, -0.10749774298738848, -0.16407003483221147, -0.15412611321691774, -0.15729022295611714, -0.17050907142145824, -0.12504288429435692, -0.23228587577383178, -0.1891965055266395, -0.09010476498330867, -0.13127345729727508, -0.09241714956412382, -0.015922359627506582, -0.05060974582941909, -0.048446042823109374, -0.04903864748396942, 0.05754110791656791, 0.05519924680772186, 0.021707065718115013, 0.01264229932023422, 0.004487884165804044, -0.03599931697763911, 0.013459611120526606, -0.011077466520234553, -0.009477752696841958, -0.006975507742916002, -0.03865392950565415, -0.061416196509978545, -0.05457342019578451, -0.09546547268912275, -0.09159324926471576, -0.15439271209167102, -0.13451629986302746, -0.0637336247003794, -0.0872449885006747, -0.04478676186634106, -0.13619908171364029, -0.05571010986727058, -0.012439153851860892, -0.02975650746518373, -0.04814423958517802, -0.07942800879232242, 0.0068299320342009515, -0.050437628672466296, -0.06370647181999044, -0.02604876626296913, -0.04373735701165737, -0.036646877295160495, -0.004904546656084608, 0.014541232594483157, -0.020551787434169726, -0.0592660053591162, -0.035646073584722854, -0.00350926210239457, -0.006464942428188652, -0.053816195498645254, -0.07542408217437391, -0.08411368908710501, -0.05247791286218833, -0.07013716463721245, -0.03730716496743124, 0.039487784929096596, 0.00043858088792612764, -0.09293783721706195, 0.010706084499225721, 0.004488578839364913, -0.012476316421612819, -0.08785197832049309, -0.13612197959730493, -0.08152333616588028, -0.0015265910283248625, -0.030707504308071818, 0.005895580756587452, -0.001238317721896111, 0.0007423296913343569, -0.011242217482450568, -0.022000513533225997, -0.02048122517574135, -0.008453073176887914, -0.06754561976169755, -0.019034303908639992, -0.022140283665640626, -0.10945758799389804, -0.023515158730844303, -0.02758367107543646, -0.0484719378570568, -0.07307898430384958, -0.04250678238966824, 0.01033744237829556, 0.15505926238647486, 0.058975530396053494, 0.014095440954974774, -0.019041744249158235, 0.0177182421111716, 0.04606332991253109, 0.016680982690594016, -0.05940513267262801, -0.026825779254522363, -0.025874841961213948, -0.02055583440565931, -0.046597547750220535, 0.04258566955182893, -0.016104527342918392, 0.0028528689084719623, -0.02669484091238872, -0.03193253793885269, -0.010623888604297992, -0.012321195455669115, -0.06446771864306668, -0.03166111819674627, 0.004165589874899608, -0.04926791538889206, -0.037865505763963574, -0.0397830304881521, -0.027930648094810606, 0.051203072219561156, 0.17330226127357354, 0.25068837533090116, 0.045903247509865075, -0.022148145683536482, -0.07947804259749049, 0.06918587074379061, 0.021249219872260944, 0.015371433604955418, -0.012910565605282148, -0.007708683684054808, -0.12045402867206313, -0.058744131000319784, 0.02421967182122559, 0.006710981714590432, -0.04677351861196615, -0.010920437354284898, -0.040690730389702605, -0.028341419061555122, 0.004516664985772473, -0.028539399418365752, 0.004161289556133643, 0.008076537255391808, 0.02750606991268275, 0.0066685062547604665, 0.0030613945566644596, 0.06981177277011592, 0.004878913511320058, 0.17809572224398873, 0.22119686949847636, 0.23899233513304957, 0.14817324834395718, 0.04259371757161825, 0.016218928471399763, 0.02599264833707388, 0.01195006184354665, -0.02820573188052928, -0.058308676618431324, -0.03505620529328643, 0.02163242323716128, -0.029390701570729243, 0.010220173184162996, 0.0196643192562251, -0.011239645900448694, 0.020001001411048103, 0.020205577607063603, -0.020519925290675603, 0.02845906794272763, -0.05898545439658491, -0.03469349268178905, -0.018019556627981194, -0.02293524251129489, 0.030720875752381756, -0.011170644232572167, -0.024116093132882238, 0.06519936710273926, 0.16390643953696518, 0.24863173104812708, 0.24829303665593555, 0.1507117057623162, 0.05387894896392898, -0.008636574713633266, 0.011709728477757675, 0.010632114784436049, -0.04332620367618249, 0.019304463523925997, -0.05266349260063816, -0.0001798096623580244, 0.006687731723027832, -0.014667120950294767, -0.0371790555747458, 0.02674482431725727, -0.010499631900022418, 0.01660169363617898, -0.06501640241235977, 0.0514612520352135, -0.016651693781719705, -0.04560192509412584, -0.013573097579528421, 0.030790385841774865, -0.0385919362721247, 0.009452394628586649, 0.06983589040597606, 0.12636027677847472, 0.1691448617171298, 0.2879869469978629, 0.3009325217376652, 0.14651420332232182, 0.022810533306899666, -0.022320451673074577, 0.01539313644745776, -0.06454181229419101, 0.02933992756228229, 0.01534323342317563, 0.038165123709094875, -0.04938754884957239, -0.0281644954492437, 0.019853183446334702, -0.05409416588660282, 0.06924920139952861, 0.0382839585453509, 0.012615143268272662, -0.02932365857847566, -0.009534262771128187, 0.002237745173808945, -0.046646435985951785, -0.027749463130381177, 0.021723825870053753, -0.019668711546010433, 0.05779850998119504, 0.12247822714800816, 0.10261723005723167, 0.25224891855430404, 0.2080991347781287, 0.24384769410098814, 0.049706643384011484, 0.00947733585141122, 0.019450643015765923, -0.013766796740731368, 0.006329199846160729, -0.03665860830084573, -0.05951909358596399, 0.01996253845594709, 0.03700840550074775, -0.02139158651544958, 0.02181422097412036, 0.031393850038649806, -0.00117564697488947, -0.01836344075525698, 0.013705003692614397, 0.022170125719326444, 0.04199389694096223, -0.039128678714887004, 0.040216278624311416, -0.018950292486147984, 0.0011471210475229856, 0.006303052977110198, 0.08895000164897354, 0.17473153197102273, 0.1369465418659485, 0.20152509006653255, 0.13328398287833887, 0.13197193460194717, 0.12799434662485465, 0.04139222083323385, -0.0638314796226823, 0.06923681002518751, 0.07370174015626302, 0.0362221416382065, 0.013075893791112063, -0.008723828883436504, 0.053565833494988176, 0.04015632637930158, 0.03046417703055387, 0.03635493679361532, -0.045044540503108285, -0.02756727961595073, -0.024861901376136683, 0.024556103946678846, 0.024817860241262413, 0.01623484959150415, -0.010829284850124722, 0.0690120747016853, 0.03606770835154464, 0.09868407557657739, 0.09534232317582862, 0.12351696822020457, 0.15732173247120673, 0.16843641789364577, 0.1645205799952374, 0.0861874695511547, 0.0971674820633584, 0.07665084419784471, 0.05578221451124234, 0.027433428371376176, -0.004963151987217413, 0.1083522896691525, 0.1316945025233939, 0.07466795332920888, 0.04604521260580044, 0.04872111884469392, 0.038714319022367216, 0.03124157162532193, -0.04356132717621046, 0.04891902305518324, 0.028178750592398154, -0.035591419282532455, 0.017026605145134356, 0.05481002107749378, 0.035587534836907894, 0.15074348708697902, 0.04992735544834182, 0.11710135961937837, 0.08620559795905701, 0.13127405299980527, 0.09094887581084493, 0.04910470923621892, 0.04579049568770065, 0.15446009864181257, 0.09946571491499691, 0.03394425482169106, 0.03736664629538337, 0.04341750160562537, 0.07851740295121527, 0.038813843096184186, 0.07186909611039798, 0.0028958576805886093, 0.0673419347399532, 0.0016270850297387782, 0.009286397790122547, -0.02107669428163777, 0.0435897784341924, 0.012708045503436238, 0.01362892591582753, -0.012143914200998127, -0.0164239926064266, -0.024833729677601703, 0.0352129127172073, 0.05046082652157214, 0.03444004412959469, -0.015896945157059573, -0.013877584443237822, 0.015528850685231733, -0.009943188662698839, 0.024373900629891528, 0.07483079676441116, 0.028449716692510004, 0.03627559781899328, 0.1005848407446186, -0.02978276961538891, 0.01600480054645545, 0.013313805322531251, 0.025477976756789613, 0.041320112930071394, 0.07323514078101466, 0.06995405417130801, 0.02218263829269441, -5.601498820165409e-05, -0.04192683508743526, -0.0194061427252772, -0.043841234099586845, 0.024013702938791247, -0.00648156421644008, -0.024086130127345645, 0.017574235876303208, 0.019522845853664515, -0.039030842489130795, -0.007698830930791828, -0.06963359523559579, -0.0870867152938592, -0.06337014345333941, -0.06488633645889903, -0.0764303314449127, -0.0989329251332627, -0.055743131771678764, -0.020512247398597867, 0.017622809058005794, -0.02380045942583426, 0.023151560483715427, 0.0634040587502761, -0.002920253299447841, -0.012062125578935752, -0.007652199029894573, -0.013111310401493648, 0.00594144002317067, -0.027094838872944366, 0.010291358025608674, -0.030493845593018345, -0.06036291783341587, 0.06415704150899154, -0.03712258454100612, -0.0019031921983077061, -0.012349195135333025, 0.016542175338995834, -0.05538668057077229, 0.0007533323428429639, 0.007982346494333633, -0.0947885584478151, -0.06929133851085204, -0.026180822948567085, -0.10488294925091957, -0.11023164801491621, -0.0206233898005204, -0.022771294647958688, -0.008736551444770127, -0.04317969987381969, 0.026740001465273153, -0.04275961268699658, 0.029275603408489784, 0.026189837331292667, 0.007846601667945836, 0.043974776493017675, 0.057328626693853045, 0.004309182395851976, 0.011403974509641703, -0.00922572692205516, -0.000320422611320583, -0.05089305716267487, -0.036965678200213146, -0.03996192250358273, -0.03413972786705675, -0.02063733857243901, -0.04293514269392746, -0.011909036498241786, -0.08706256934938411, -0.057008762386191625, -0.11926819563165597, -0.08086821303144862, -0.04517827259557384, -0.06034730409612225, -0.035177598203566834, -0.08140600665554873, -0.0604406690632022, -0.040630016747204206, -0.03786305908978764, -0.014804622988886362, 0.013556027483528119, -0.0016828422482720396, 0.0108401991510149, -0.014624951900513482, 0.033313452299584476, 0.003542195974487692, 0.0010029867053457217, 0.03847033025112211, -0.0226486237724174, 0.02713299073340281, -0.02950334021464318, -0.025749275495407717, -0.07644280013009398, -0.001321621350237175, -0.06071235434128625, -0.06076154254878389, -0.0802666389112372, -0.08560473158207008, -0.10957396825073554, -0.07176772287678562, -0.12339824099012411, -0.09072502620061738, -0.11727637187530304, -0.09333446427022002, -0.08913400359134475, -0.05912785747219137, -0.10093878435813732, 0.03769664665791587, -0.024740563516257218, 0.07162263339734903, -0.0021832660575830023, 0.0240793390190921, 0.010143367119860651, 0.031163783857506414, 0.013535160414397441, -0.03220145127232852, -0.005405407180627514, -0.008458415462783694, 0.0024290644959132812, 0.006163812109890812, 0.028476176508063382, 0.014493914673620262, -0.06971875374961138, -0.06175446622927101, 0.007485524618754204, -0.03922704767588412, -0.0372336140943502, -0.05875632585884036, -0.06402372359363272, -0.06307686064514077, 0.00448617372658681, -0.05391557857545911, -0.015056940317541154, -0.08025722636686364, -0.018506182941649463, -0.01334891312666179, -0.06255217321079565, 0.029706836858450363, -0.019887692928967887, 0.06789075718083346, -0.004282417466011839, -0.016353340665634628, -0.03906732958618903, 0.008046061082197173, 0.01703142879810959, 0.05783951855318432, 0.03483446741008848, -0.05839454251086948, 0.0015423412305421995, -0.013148503428851878, -0.022972114567357368, -0.05311375866676902, -0.000305457533063136, -0.04895525513797219, -0.018033792393631044, 0.0006926656322931954, -0.020546196048955013, -0.009108638283142059, -0.018260023464574657, 0.04521408886274694, 0.03477433960237716, 0.07027540546027893, -0.0302433098259455, 0.061213513466145605, -0.02252554432779132, 0.004189193038322979, -0.020091459017127777, -0.027519162950467482, 0.019437313798048247, 0.029263105878996117, 0.07958235161986985, -0.020132332397773407], [0.0444551351150133, 0.05051896495254108, 0.044400577830309464, -0.033408539102120535, -0.007429507584639506, -0.022870712596739985, -0.030186017578564504, 0.006632850035385003, -0.03907824732900083, -0.025503488902197717, 0.0007294211920199188, 0.020976429399335708, 0.05330813116522531, -0.02920325491122647, 0.022375381720194473, 0.06931272043532613, -0.03029532256913524, 0.004531284963290637, 0.03582361377998061, -0.010535639888763918, -0.06027453822550061, -0.029037850163186465, -0.020382135787712887, -0.024925335811105766, 0.013714852188055968, -0.0019282929657259142, -0.026750215445181552, -0.047344477317198486, 0.014060958604366468, 0.03762041044461941, -0.034442551707071646, -0.029247295059300092, 0.027963544484363785, -0.02697646627911188, 0.03941676572919964, -0.03223763998574441, 0.013741548831297764, 0.0007483294616946426, -0.018543726214107763, 0.07594042612681846, -0.035541914771261014, 0.06349592676220772, 0.011318815611410347, -0.026885198604877907, 0.011598939324016688, -0.04564116670020127, 0.025685318585047592, -0.05039814410740228, -0.02581392932014411, -0.03361300117781934, 0.022109131207521025, 0.0054408812389139935, -0.032172263415902805, 0.023565265071362137, 0.012797632484536827, 0.005195164790594149, 0.0020716256861821997, 0.00038902482350150735, 0.005635847551478954, 0.04353602620279919, -0.028811405166320914, -0.002721422514926645, -0.0074117018621130525, 0.017102834843188273, 0.04001515047638627, -0.01820946666220975, -0.01944911554337991, -0.008937894439553753, -0.01225925306338933, -0.01419279459585593, -0.006354344881673853, -0.03205659069941168, -0.05390938821662775, 0.01998123241809591, 0.015789599013829533, 0.052251895721168555, 0.01749394357707304, -0.005281709931579696, 0.026507987192267372, 0.09757739703630144, -0.02049514308730938, 0.026359892818152576, -0.01523879901507893, 0.044522338318669946, -0.027511932477325578, -0.027060243113967746, -0.015410321009950288, 0.007153357089037452, 0.014016379324968853, 0.0007901015841699717, 0.006476669343677433, -0.016675482938861508, -0.010539560566900074, 0.032800474673679594, 0.05348855563700359, 0.05737782280484043, -0.009966639160872435, 0.0400986977557372, 0.05439393899824912, 0.0035350333464432876, 0.04438045679600004, 0.050752810902401344, -0.01850937880719934, -0.016504677914190403, -0.017861212697601003, -0.026207792933977927, -0.033029072572449615, -0.08248485048939046, 0.018796984959889268, 0.009814064355721951, -0.022203433404708713, -0.007251289038394951, 0.021238658924491234, -0.016261423018806145, -0.03049212932839062, -0.006124849850877296, 0.01628174483011017, 0.048913200724447624, 0.018198913032204875, -0.042534397590602485, 0.025174747847382092, 0.0029942592399529178, -0.007105803763646341, 0.0413302387122639, 0.029156534495462665, 0.10819179760140075, -0.0062542653206591635, -0.0022000954287535574, 0.04169533518054193, -0.01191072704533189, -0.013166338693930038, -0.04387351669094816, 0.005479072679640757, 0.0174595879925127, 0.009023658987766253, 0.008545570496400208, -0.023662124964743115, 0.02595897157271253, 0.04088615314019694, -0.05238733717031357, -0.03668970622268118, 0.015858996794218653, -0.00412216272884799, -0.022733174092946788, 0.013212720058669122, 0.05214054254506944, 0.006708424544186044, 0.016349590420268383, 0.015137144315588534, 0.07707246231356714, 0.04522010529046107, 0.006571070252868991, 0.04698656331376679, -0.012085649674791378, 0.011439987452242008, -0.03436700566708663, 0.032763224340286036, 0.0556795026678826, 0.0349871475424091, 0.08209849008421378, 0.06960224452538827, 0.07065802723261402, 0.013095593409983682, 0.07597101204482322, 0.04150830086500501, -0.04429068110999635, 0.0013479723347189553, 0.03868976147436757, 0.03051699107757707, -0.059635268703428494, 0.0003424300677510422, -0.005365964451800695, 0.060843989199354555, 0.04353430843596588, 0.025036065530433665, 0.04863397207524079, 0.08030630739215706, -0.010355823105478987, -0.03779200853502665, 0.017157860003424095, 0.04694201103875155, 0.03762285250834906, 0.027487635862781305, 0.0737897093684523, -0.03213558633094242, -0.011691751905040196, 0.02186598787964785, 0.015726236318025746, 0.0368632563620071, 0.017885536560569536, 0.03039124805572364, 0.08855925453274546, 0.03241790379751604, 0.07220015916629155, 0.049613210938829325, -0.037865888949104094, -0.003773985878693978, 0.01730559032853688, -0.04328037846906832, -0.05561525204283439, -0.021028269549435742, -0.05792316289738828, -0.06648738507155028, 0.010783823898672535, -0.06884537548805818, -0.025911504715849246, -0.002519149480237442, -0.000774834719439133, -0.04116157112748501, -0.03642502506027416, 0.01705205956814244, -0.04418267859046202, -0.07816341215345267, -0.05849746904461371, -0.08026499676504109, -0.06810038500434658, -0.06654604090808319, -0.0038021889357654384, 0.05484694186028948, 0.039505566413400764, 0.020871944981672032, -0.029665623838525376, -0.011195792346540069, -0.03095369057242158, 0.02698533396632298, 0.02289195677127558, 0.0016857391933593447, -0.054788350672160153, 0.016828134101226223, 0.05556926395316958, -0.08226023283516885, -0.023942616672372383, -0.09532744239865129, -0.057724482768901283, -0.1104844067083851, -0.04469818010100194, -0.09873472896253578, -0.07456744880225148, -0.07336179880975523, -0.15912024700967392, -0.23211433411790097, -0.18854292729197064, -0.15499448085475498, -0.11014494056670783, -0.04447628445454993, 0.012742492170721483, 0.04381783999133032, 0.08226132434339996, 0.01693121826315084, 0.05841995179912356, 0.0009910565994030733, 0.03721302844992816, 0.019683901978601027, 0.0020928123854615827, -0.06113462403225829, -0.0818579661501086, -0.02780286526063347, -0.04694310137467949, -0.09169460377243879, -0.04133996818666239, -0.020962341759431864, -0.0526466503506015, -0.05199033744226082, -0.1115942888836487, -0.10119305570133787, -0.1423037092062954, -0.14290214854119096, -0.11473925248422817, -0.27154945467896724, -0.22263988627975123, -0.26777459513619495, -0.16537236457586002, -0.14842782443965524, -0.09470491117870813, -0.012270358423399672, 0.003150907833391476, 0.03118290254404818, 0.0272491163061579, -0.01930100816012729, -0.061216017858139744, -0.025385358858428866, 0.0197762214038864, -0.010103583557499542, -0.05186529786941977, 0.0326397733048193, -0.021874789011724394, 0.03481799827579712, -0.025045012135788622, 0.006281905471424066, -0.009438039621978743, -0.014240080451361284, -0.005788797883348464, -0.041394063790775225, -0.12182745864346343, -0.10586668251930607, -0.07743352781380641, -0.2172981353633475, -0.18803281694827825, -0.1777130685013226, -0.14241904085895205, -0.11997191102797723, -0.09333771926440271, -0.043762375630022575, -0.048127368030973984, -0.0022519703590220775, 0.015486543531935225, 0.05888635106039391, 0.06626700963287613, 0.00315147790486817, -0.02172709090225069, -0.03295039447269844, 0.014385247546507267, -0.03092973049074648, 0.01572291398573273, -0.025117895240250064, -0.0492042456350582, -0.0031060385615924086, 0.061164462237683556, -0.00909807368130333, 0.005284687697746406, -0.016964954900692227, -0.12513627418008566, -0.015323849671350654, -0.003501174080774496, -0.028925211744707774, -0.04307396957047232, -0.05995410735447572, -0.0864618541287884, -0.08730337067842386, -0.1315135951837728, -0.05872568619592308, -0.11856678858009663, -0.03869005783766362, -0.02934747337896192, 0.011955395013869352, 0.010555688285912345, -0.01375596916121169, -0.03776817310569862, -0.02696876171779567, -0.017076677851352518, -0.0067579319091089106, 0.03140607453669577, -0.001777581699207611, -0.023077333027224957, 0.05472634026266848, -0.07245029496986068, 0.07986473495066798, 0.0631479108413565, -0.005508587866598321, 0.08832988719382168, 0.1212864563114291, 0.09272722751982498, 0.058930603010568586, 0.021266590513384503, 0.04195238214721682, -0.060055959061758084, -0.046152905820437115, -0.0726948053853587, -0.08807742842780424, -0.12932557078536, -0.004605203504782053, 0.012508118587922064, -0.026208268964204518, -0.0050136896897228726, -0.041638854709939284, 0.02179359178754639, 0.050049840971986705, 0.02723872700297385, 0.02581283193063946, -0.04197173659514791, -0.029798362329871958, -0.03514285797027448, 0.041373843056008865, 0.0013157129006446772, 0.057648970063472624, 0.0720389940497365, 0.13052380808025577, 0.21244303239518972, 0.28006074272906895, 0.25057278946275113, 0.13203555170280226, 0.09017467051831594, 0.10596752117695199, 0.0016121732749781398, 0.007483970909184472, -0.0907420408496218, -0.06043249765131651, -0.05228210580800339, -0.035832160524393794, -0.025897750967800004, -0.04925494641634219, -0.011027610178739492, -0.07277112028900715, -0.02626903611412981, -0.029372981184817057, 0.01315241773078256, -0.0010704870401215929, -0.07079713644157613, -0.009885938639030686, -0.015285290938431747, -0.010520497066598184, 0.0866965401165863, 0.13050668271566515, 0.1768517829231133, 0.2744781171895379, 0.31433932499043465, 0.28601640570351716, 0.2118829118408695, 0.17196220117719643, 0.07261141578342069, 0.02099002036866755, 0.0013297239927625515, -0.0611598119708712, -0.08644259774725897, -0.08415731997737202, -0.05807209248322564, -0.021437393922613502, -0.03304169440638145, 0.03800159254906527, -0.053678780321741476, -0.058699132824488444, 0.007982301121875264, 0.016485691887908504, -0.023611886412634342, -0.02714811391075048, -0.0710062663629151, -0.03492174666470157, -0.025288652857263245, -0.01308534331370872, 0.02368208499686467, 0.11324116577391076, 0.19333798192818474, 0.25060308586346886, 0.31292857803687996, 0.25512129441429493, 0.14451620425196468, 0.1508391068669632, 0.08615578174737726, 0.05675073658812075, -0.05622756905495035, -0.11156751844871082, -0.13485287348398198, -0.11682508729572404, -0.007514826334687397, -0.03300323132140831, 0.0415805679474984, 0.028349477376688824, 0.003692552667576215, -0.02270021260807623, 0.015161665957849797, -0.001103055692269883, -0.02010335398303269, -0.019296284755103473, -0.010552456612779674, -0.020019955229522393, 0.024905912134635083, 0.002120744270982236, 0.0032282189138123757, 0.044612834765439535, 0.18697125216763474, 0.32528029524121166, 0.2619472237684613, 0.20584139492995077, 0.12611381612230088, 0.09788404942776524, 0.05578047017008878, 0.08098436773617143, 0.002990195346691347, -0.08997712166605895, -0.03617309398918233, 0.0013502371046461524, -0.02200542141781801, 0.010265920558960627, -0.004091342757299547, -0.01891063141689296, -0.038711322041075184, 0.0003891501013562483, -0.012459957972441387, 0.0055800181253572315, 0.013200802138158054, 0.051458155590228614, -0.06226228485131675, -0.04355470376157316, -0.052298332361759646, 0.02261335171206384, -0.0003990247408880731, 0.12813188947247503, 0.14597728775661736, 0.24447504458760805, 0.22281999598560712, 0.1453934958355912, 0.07270142563595408, 0.06654943433841595, 0.0801172768860733, -0.1057798273029411, -0.08915965972804289, -0.038780105070293364, 0.021298670829040627, -0.00793866393261761, 0.03749698228023718, 0.012048361379614956, -0.0033921656754296245, -0.04052483376687654, 0.019196453080289107, 0.08029113301403847, 0.003103602974086284, -0.0014240083992476465, -0.004840223809091191, -0.013363563465659261, -0.027460442983259205, -0.025687680916355832, -0.0640553995465815, 0.007502723687399831, 0.009518672723420139, 0.03362742720006087, 0.1279803518738234, 0.11350906682887249, 0.06756718139861503, 0.008924634758954312, 0.07975194636679078, 0.03931244011066695, -0.016850951121150697, 0.027561742626638012, -0.04617469605425913, 0.05699796961134262, 0.03028206498037005, -0.04188187457028253, -0.021778249983160494, 0.06897112953811003, -0.010117926013536723, 0.0021845974023885573, -0.057502180928580976, -0.010097066775997117, 0.02859312948518502, 0.02077994877772878, -0.00146982493303577, -0.006110257420867006, -0.019514659053631575, 0.04819294831214701, 0.018520756278455962, 0.03502441872297294, 0.007965748249657298, 0.03418356211638466, 0.04425276627279764, 0.051684540425668016, 0.006468175115897599, 0.006066101833857472, 0.02113984640287076, 0.00607287159989479, -0.01833677793175139, 0.05910830336701706, 0.05285198383429418, 0.065418611464874, 0.00333558675501162, -0.0019143351802177078, 0.015045114101294837, 0.08035453346855329, -0.04479726875994872, -0.01492188417283881, 0.04767763930215111, -0.015274500490482835, -0.014654166262643813, -0.05288790920297198, -0.08426033044781056, 0.07170959020834933, 0.05827041223257012, -0.01885287211983337, -0.004844704311041681, 0.04478885485357893, 0.0032370369656247425, 0.004138994130232436, 0.010776862608511642, -0.07159303680417814, -0.04840914591772465, 0.02831596335233582, 0.051413293771366046, 0.03428897380229353, -0.029777678874814886, 0.04831688075435565, 0.013979473780218056, 0.06455729201178664, -0.020767026635874188, 0.035701472443338655, 0.07804574510971449, 0.05423808856221862, -0.011964999093341594, 0.0008069257500308941, 0.009766436784257048, 0.022825302756018982, -0.009364539648816613, -0.003638362322585042, -0.06679519251266706, 0.07190981609994904, -0.037736799376223915, 0.040124400973666784, -0.0049334811695214715, -0.026958026743325997, -0.03572831215404427, -0.07878460751014177, -0.06845613882696601, -0.022247123209292063, 0.007437219630032415, 0.0039665170186898215, 0.00645497973033554, 0.05846284772542776, 0.09624053790655608, 0.09180779367563635, 0.0987886812533675, 0.07128251655147938, 0.052346526286430155, 0.03714129961654339, 0.04526432957165765, -0.06197273592813392, 0.03039827788125288, -0.0021292667641771806, 0.008964637797748216, -0.018215471132260005, -0.01528635128010412, -0.020702124799488304, 0.001172441214418982, 0.009900439605894016, -0.030059255431742815, -0.008478606386485612, -0.0673561565653279, -0.010030426459987354, -0.03716737694540932, -0.08885646024298188, -0.07732621665433125, -0.17504955132636305, -0.1404682318438988, -0.09371606295110636, -0.04407867095282581, -0.0780386167157097, -0.0500464503282105, 0.07171856556523605, 0.09824258277919756, 0.046289150422186176, 0.10249590738405423, 0.03436868694138171, 